<?xml version="1.0"?>
<opencv_storage>
<ghost1 type_id="opencv-ml-svm">
  <svm_type>C_SVC</svm_type>
  <kernel><type>POLY</type>
    <degree>4.</degree>
    <gamma>1.</gamma>
    <coef0>0.</coef0></kernel>
  <C>1.</C>
  <term_criteria><epsilon>2.2204460492503131e-16</epsilon>
    <iterations>5000</iterations></term_criteria>
  <var_all>784</var_all>
  <var_count>784</var_count>
  <class_count>2</class_count>
  <class_labels type_id="opencv-matrix">
    <rows>1</rows>
    <cols>2</cols>
    <dt>i</dt>
    <data>
      -1 1</data></class_labels>
  <sv_total>104</sv_total>
  <support_vectors>
    <_>
      56. 56. 56. 57. 57. 60. 60. 61. 47. 31. 60. 125. 163. 162. 163.
      159. 117. 53. 28. 46. 61. 57. 53. 56. 53. 53. 52. 51. 55. 63. 57.
      50. 63. 53. 53. 47. 45. 47. 106. 200. 245. 247. 248. 249. 193. 88.
      26. 32. 50. 52. 52. 58. 54. 53. 53. 52. 57. 63. 60. 52. 65. 32.
      38. 51. 90. 105. 155. 221. 243. 245. 248. 250. 217. 152. 117. 97.
      63. 40. 39. 60. 54. 61. 54. 52. 60. 53. 59. 56. 47. 31. 71. 117.
      147. 145. 182. 230. 243. 246. 248. 248. 224. 175. 149. 144. 121.
      82. 41. 38. 58. 58. 46. 49. 73. 58. 52. 38. 26. 71. 169. 192. 201.
      191. 212. 238. 243. 251. 249. 247. 236. 207. 188. 192. 194. 155.
      76. 32. 39. 44. 48. 67. 115. 91. 54. 32. 59. 146. 227. 230. 228.
      223. 229. 241. 243. 251. 251. 247. 246. 231. 218. 216. 218. 201.
      141. 65. 28. 45. 70. 107. 141. 145. 114. 99. 156. 232. 243. 244.
      242. 243. 246. 248. 249. 252. 253. 250. 251. 248. 240. 239. 241.
      237. 213. 164. 132. 130. 132. 140. 115. 192. 214. 220. 237. 246.
      238. 246. 246. 248. 248. 250. 250. 253. 253. 253. 251. 251. 250.
      250. 249. 250. 247. 237. 232. 220. 187. 141. 99. 203. 237. 246.
      247. 250. 251. 253. 254. 254. 254. 254. 254. 252. 252. 252. 249.
      249. 251. 252. 250. 250. 251. 248. 246. 234. 198. 133. 126. 194.
      209. 239. 245. 242. 251. 255. 255. 254. 250. 254. 254. 250. 251.
      251. 249. 250. 250. 252. 251. 250. 250. 251. 240. 207. 180. 138.
      148. 143. 141. 205. 243. 249. 250. 253. 253. 253. 252. 254. 254.
      254. 254. 251. 250. 252. 252. 253. 252. 252. 251. 245. 195. 130.
      125. 143. 123. 85. 72. 162. 243. 249. 247. 253. 253. 253. 253.
      254. 254. 255. 255. 251. 250. 254. 254. 254. 254. 253. 252. 242.
      149. 52. 62. 117. 59. 36. 69. 183. 250. 254. 252. 254. 254. 253.
      253. 254. 253. 254. 254. 252. 251. 253. 254. 254. 254. 253. 253.
      248. 164. 54. 28. 50. 39. 23. 79. 198. 246. 245. 254. 254. 254.
      253. 253. 253. 253. 254. 254. 252. 252. 253. 253. 255. 255. 253.
      253. 253. 185. 68. 23. 42. 50. 22. 67. 191. 252. 251. 254. 254.
      254. 253. 253. 254. 254. 254. 254. 253. 253. 254. 254. 254. 254.
      253. 252. 251. 187. 65. 14. 36. 52. 29. 76. 195. 254. 253. 252.
      254. 254. 253. 253. 254. 254. 254. 254. 254. 254. 255. 255. 254.
      253. 251. 250. 251. 194. 72. 23. 50. 50. 24. 72. 184. 247. 253.
      254. 254. 254. 253. 253. 254. 254. 255. 254. 253. 253. 255. 255.
      254. 254. 251. 251. 251. 191. 57. 18. 49. 44. 23. 75. 191. 252.
      253. 253. 254. 254. 253. 253. 254. 254. 255. 254. 251. 251. 254.
      254. 254. 254. 253. 252. 253. 197. 59. 19. 45. 46. 24. 64. 184.
      252. 252. 253. 254. 254. 253. 251. 253. 255. 254. 253. 251. 252.
      252. 250. 254. 254. 253. 252. 251. 193. 54. 18. 46. 47. 23. 60.
      181. 251. 252. 254. 252. 249. 250. 251. 251. 252. 251. 251. 250.
      252. 248. 241. 252. 252. 251. 254. 255. 197. 45. 19. 42. 47. 23.
      44. 175. 248. 252. 252. 250. 246. 245. 247. 247. 246. 248. 250.
      245. 245. 243. 249. 247. 245. 241. 252. 252. 189. 44. 28. 47. 50.
      25. 29. 163. 243. 250. 250. 241. 229. 225. 228. 232. 236. 240.
      239. 230. 223. 214. 229. 227. 245. 246. 248. 247. 170. 35. 32. 52.
      56. 31. 24. 154. 224. 220. 203. 176. 164. 190. 216. 210. 193. 198.
      198. 187. 221. 223. 209. 168. 201. 216. 229. 242. 151. 21. 29. 55.
      57. 37. 31. 140. 178. 146. 110. 79. 86. 157. 215. 188. 119. 92.
      87. 101. 197. 221. 152. 45. 62. 94. 128. 205. 127. 23. 36. 57. 57.
      45. 41. 113. 118. 80. 55. 40. 52. 115. 166. 142. 76. 37. 37. 81.
      159. 173. 107. 30. 38. 57. 81. 135. 94. 39. 50. 59. 0. 0. 0. 0. 0.
      0. 0. 0. 0. 0. 0. 0. 0. 0. 0. 0. 0. 0. 0. 0. 0. 0. 0. 0. 0. 0. 0.
      0. 0. 0. 0. 0. 0. 0. 0. 0. 0. 0. 0. 0. 0. 0. 0. 0. 0. 0. 0. 0. 0.
      0. 0. 0. 0. 0. 0. 0. 0. 0. 0. 0. 0. 0. 0. 0. 0. 0. 0. 0. 0. 0. 0.
      0. 0. 0. 0. 0. 0. 0. 0. 0. 0. 0. 0. 0.</_>
    <_>
      29. 27. 43. 50. 44. 52. 40. 32. 90. 149. 152. 148. 161. 151. 88.
      45. 45. 53. 57. 59. 55. 58. 57. 0. 0. 0. 0. 0. 28. 28. 41. 48. 46.
      44. 39. 60. 145. 207. 199. 194. 197. 204. 136. 74. 55. 49. 43. 48.
      48. 55. 51. 0. 0. 0. 0. 0. 28. 29. 33. 40. 40. 57. 70. 105. 182.
      217. 201. 195. 194. 212. 170. 108. 91. 74. 45. 37. 43. 59. 53. 0.
      0. 0. 0. 0. 40. 24. 26. 53. 92. 109. 118. 143. 196. 213. 215. 220.
      218. 222. 189. 132. 117. 132. 107. 47. 27. 41. 53. 0. 0. 0. 0. 0.
      35. 22. 54. 118. 179. 182. 170. 177. 206. 214. 214. 221. 217. 221.
      206. 177. 176. 193. 183. 142. 64. 27. 43. 0. 0. 0. 0. 0. 29. 39.
      118. 197. 221. 221. 211. 208. 217. 217. 215. 218. 217. 218. 219.
      218. 223. 225. 227. 221. 141. 45. 35. 0. 0. 0. 0. 0. 35. 61. 162.
      231. 227. 230. 229. 228. 227. 224. 220. 221. 221. 221. 224. 225.
      226. 224. 227. 230. 189. 58. 32. 0. 0. 0. 0. 0. 33. 69. 175. 233.
      231. 235. 241. 243. 240. 234. 228. 228. 229. 230. 239. 240. 238.
      233. 229. 231. 190. 53. 30. 0. 0. 0. 0. 0. 31. 80. 183. 228. 227.
      230. 235. 237. 233. 227. 224. 225. 226. 229. 234. 234. 234. 236.
      230. 229. 198. 61. 26. 0. 0. 0. 0. 0. 50. 118. 204. 224. 221. 221.
      225. 225. 223. 220. 220. 220. 220. 221. 224. 224. 224. 225. 220.
      219. 218. 121. 42. 0. 0. 0. 0. 0. 91. 170. 219. 220. 217. 218.
      221. 223. 221. 220. 220. 220. 221. 220. 222. 223. 222. 220. 216.
      216. 218. 188. 80. 0. 0. 0. 0. 0. 124. 202. 223. 219. 218. 219.
      219. 220. 221. 222. 222. 223. 224. 223. 223. 222. 221. 220. 219.
      219. 217. 217. 128. 0. 0. 0. 0. 0. 127. 204. 222. 219. 219. 219.
      220. 221. 222. 222. 223. 222. 222. 222. 222. 222. 221. 221. 220.
      220. 218. 219. 154. 0. 0. 0. 0. 0. 131. 206. 222. 218. 218. 219.
      219. 219. 220. 220. 220. 220. 220. 220. 221. 221. 220. 220. 220.
      219. 219. 218. 158. 0. 0. 0. 0. 0. 134. 207. 222. 218. 218. 218.
      219. 219. 219. 220. 220. 220. 220. 220. 220. 220. 220. 220. 219.
      219. 219. 218. 163. 0. 0. 0. 0. 0. 138. 209. 222. 221. 221. 221.
      222. 222. 222. 222. 222. 222. 221. 221. 220. 220. 219. 219. 220.
      220. 219. 218. 166. 0. 0. 0. 0. 0. 135. 209. 222. 221. 221. 221.
      222. 222. 222. 222. 222. 222. 222. 222. 221. 220. 220. 220. 220.
      220. 219. 218. 166. 0. 0. 0. 0. 0. 129. 208. 221. 219. 219. 219.
      219. 218. 217. 217. 217. 217. 218. 218. 218. 218. 218. 218. 218.
      218. 218. 215. 164. 0. 0. 0. 0. 0. 125. 209. 220. 219. 218. 217.
      217. 215. 214. 213. 212. 210. 211. 213. 215. 216. 216. 215. 214.
      213. 217. 214. 157. 0. 0. 0. 0. 0. 129. 208. 215. 205. 204. 205.
      206. 212. 215. 213. 198. 186. 196. 208. 211. 212. 213. 205. 197.
      202. 212. 211. 154. 0. 0. 0. 0. 0. 122. 212. 214. 196. 165. 192.
      206. 204. 211. 212. 166. 135. 172. 203. 209. 211. 204. 178. 158.
      179. 202. 201. 149. 0. 0. 0. 0. 0. 114. 220. 214. 149. 109. 146.
      199. 204. 213. 214. 133. 84. 142. 201. 211. 215. 183. 125. 112.
      152. 196. 211. 155. 0. 0. 0. 0. 0. 86. 198. 184. 95. 74. 93. 149.
      194. 213. 192. 109. 58. 106. 184. 208. 203. 147. 77. 61. 98. 167.
      201. 128. 0. 0. 0. 0. 0. 52. 128. 122. 59. 58. 56. 88. 157. 177.
      134. 76. 51. 69. 139. 175. 158. 102. 63. 53. 67. 118. 149. 95. 0.
      0. 0. 0. 0. 0. 0. 0. 0. 0. 0. 0. 0. 0. 0. 0. 0. 0. 0. 0. 0. 0. 0.
      0. 0. 0. 0. 0. 0. 0. 0. 0. 0. 0. 0. 0. 0. 0. 0. 0. 0. 0. 0. 0. 0.
      0. 0. 0. 0. 0. 0. 0. 0. 0. 0. 0. 0. 0. 0. 0. 0. 0. 0. 0. 0. 0. 0.
      0. 0. 0. 0. 0. 0. 0. 0. 0. 0. 0. 0. 0. 0. 0. 0. 0. 0. 0. 0. 0. 0.
      0. 0. 0. 0. 0. 0. 0. 0. 0. 0. 0. 0. 0. 0. 0. 0. 0. 0. 0. 0. 0. 0.
      0. 0. 0. 0. 0. 0.</_>
    <_>
      47. 43. 46. 51. 46. 45. 57. 49. 32. 32. 75. 143. 174. 172. 177.
      166. 113. 42. 28. 40. 47. 51. 49. 49. 0. 0. 0. 0. 47. 43. 48. 52.
      44. 45. 52. 46. 41. 51. 113. 200. 226. 228. 231. 221. 175. 80. 44.
      48. 55. 48. 44. 46. 0. 0. 0. 0. 49. 44. 51. 54. 43. 32. 47. 63.
      88. 104. 157. 224. 235. 243. 247. 240. 213. 133. 94. 90. 75. 44.
      36. 41. 0. 0. 0. 0. 55. 40. 41. 37. 29. 51. 118. 140. 128. 144.
      191. 229. 232. 246. 251. 242. 223. 168. 152. 161. 150. 80. 41. 37.
      0. 0. 0. 0. 59. 52. 47. 29. 40. 130. 194. 203. 175. 187. 216. 229.
      233. 250. 253. 243. 232. 204. 186. 194. 213. 172. 84. 37. 0. 0. 0.
      0. 55. 54. 44. 25. 83. 202. 229. 228. 218. 225. 231. 234. 239.
      253. 253. 245. 242. 228. 217. 222. 225. 226. 171. 50. 0. 0. 0. 0.
      53. 57. 38. 28. 125. 233. 238. 234. 234. 239. 238. 238. 244. 253.
      252. 248. 248. 241. 240. 238. 238. 242. 229. 81. 0. 0. 0. 0. 85.
      106. 69. 38. 144. 245. 245. 244. 244. 247. 246. 245. 249. 253.
      252. 250. 250. 246. 246. 243. 242. 243. 231. 107. 0. 0. 0. 0. 156.
      201. 147. 87. 153. 247. 249. 250. 250. 251. 252. 253. 252. 253.
      254. 254. 254. 254. 255. 254. 253. 252. 241. 122. 0. 0. 0. 0. 190.
      242. 214. 161. 188. 248. 250. 252. 251. 251. 253. 254. 252. 251.
      253. 254. 253. 251. 254. 254. 254. 248. 244. 152. 0. 0. 0. 0. 171.
      231. 238. 221. 228. 250. 251. 254. 253. 253. 255. 255. 253. 250.
      252. 255. 252. 250. 253. 254. 253. 249. 249. 239. 0. 0. 0. 0. 81.
      117. 166. 228. 248. 251. 251. 253. 254. 253. 254. 254. 252. 252.
      253. 255. 255. 253. 254. 254. 252. 249. 235. 246. 0. 0. 0. 0. 40.
      44. 107. 215. 250. 251. 252. 253. 253. 254. 254. 254. 254. 254.
      254. 254. 254. 255. 254. 253. 253. 252. 251. 247. 0. 0. 0. 0. 37.
      27. 102. 212. 250. 251. 252. 253. 253. 254. 254. 254. 254. 254.
      254. 254. 254. 255. 255. 254. 253. 252. 250. 247. 0. 0. 0. 0. 35.
      23. 108. 220. 250. 251. 252. 253. 253. 254. 254. 254. 254. 254.
      254. 255. 255. 255. 255. 255. 254. 252. 248. 249. 0. 0. 0. 0. 34.
      24. 116. 219. 249. 251. 252. 253. 253. 254. 254. 254. 254. 254.
      254. 254. 254. 254. 254. 254. 254. 251. 248. 251. 0. 0. 0. 0. 34.
      21. 113. 219. 249. 251. 252. 253. 253. 254. 254. 254. 254. 253.
      254. 254. 254. 254. 254. 254. 253. 252. 250. 251. 0. 0. 0. 0. 36.
      20. 112. 219. 250. 251. 252. 253. 253. 254. 254. 254. 253. 253.
      253. 254. 254. 255. 255. 254. 254. 253. 252. 251. 0. 0. 0. 0. 35.
      22. 116. 215. 249. 251. 252. 253. 253. 254. 254. 254. 252. 249.
      250. 251. 251. 252. 252. 253. 251. 250. 252. 251. 0. 0. 0. 0. 34.
      26. 106. 210. 246. 249. 250. 251. 252. 253. 253. 253. 247. 243.
      244. 247. 249. 251. 252. 252. 248. 247. 252. 251. 0. 0. 0. 0. 33.
      24. 91. 208. 246. 240. 228. 227. 241. 250. 247. 247. 246. 233.
      233. 244. 246. 248. 249. 235. 212. 217. 237. 241. 0. 0. 0. 0. 31.
      14. 80. 204. 244. 214. 159. 152. 211. 244. 243. 244. 242. 235.
      239. 245. 246. 247. 236. 197. 149. 156. 209. 237. 0. 0. 0. 0. 38.
      15. 53. 187. 223. 158. 83. 83. 153. 214. 234. 237. 241. 244. 246.
      246. 246. 245. 210. 147. 85. 89. 162. 222. 0. 0. 0. 0. 32. 22. 42.
      147. 176. 96. 52. 55. 84. 153. 217. 223. 235. 243. 240. 224. 218.
      202. 148. 79. 48. 56. 112. 178. 0. 0. 0. 0. 0. 0. 0. 0. 0. 0. 0.
      0. 0. 0. 0. 0. 0. 0. 0. 0. 0. 0. 0. 0. 0. 0. 0. 0. 0. 0. 0. 0. 0.
      0. 0. 0. 0. 0. 0. 0. 0. 0. 0. 0. 0. 0. 0. 0. 0. 0. 0. 0. 0. 0. 0.
      0. 0. 0. 0. 0. 0. 0. 0. 0. 0. 0. 0. 0. 0. 0. 0. 0. 0. 0. 0. 0. 0.
      0. 0. 0. 0. 0. 0. 0. 0. 0. 0. 0. 0. 0. 0. 0. 0. 0. 0. 0. 0. 0. 0.
      0. 0. 0. 0. 0. 0. 0. 0. 0. 0. 0. 0. 0. 0. 0. 0. 0.</_>
    <_>
      42. 40. 47. 48. 41. 41. 35. 41. 77. 110. 133. 151. 147. 142. 141.
      129. 100. 56. 29. 39. 48. 39. 40. 49. 53. 49. 0. 0. 40. 44. 47.
      48. 49. 51. 60. 95. 148. 190. 218. 238. 245. 245. 242. 228. 199.
      135. 77. 55. 48. 47. 58. 63. 57. 55. 0. 0. 41. 50. 38. 32. 56. 95.
      133. 175. 215. 240. 249. 250. 249. 248. 248. 248. 242. 221. 192.
      148. 80. 34. 44. 58. 52. 56. 0. 0. 41. 47. 28. 29. 83. 154. 204.
      231. 242. 248. 250. 251. 251. 251. 250. 249. 249. 248. 245. 220.
      141. 55. 31. 44. 64. 61. 0. 0. 35. 31. 34. 69. 143. 206. 234. 242.
      244. 248. 250. 253. 254. 254. 254. 251. 249. 248. 241. 239. 211.
      139. 56. 27. 51. 57. 0. 0. 29. 22. 68. 139. 200. 235. 242. 244.
      247. 251. 253. 254. 254. 253. 254. 253. 252. 251. 247. 246. 244.
      211. 131. 51. 32. 50. 0. 0. 27. 32. 117. 197. 231. 246. 248. 249.
      251. 251. 252. 254. 255. 254. 254. 253. 250. 249. 252. 250. 237.
      237. 204. 108. 37. 48. 0. 0. 25. 39. 142. 220. 238. 246. 248. 251.
      251. 251. 251. 254. 254. 253. 253. 254. 254. 248. 252. 249. 241.
      243. 215. 108. 33. 44. 0. 0. 23. 36. 147. 223. 241. 247. 248. 254.
      253. 247. 246. 254. 254. 251. 252. 253. 253. 250. 250. 244. 246.
      241. 218. 135. 30. 32. 0. 0. 25. 48. 157. 228. 242. 247. 247. 253.
      251. 247. 247. 254. 252. 250. 252. 253. 252. 250. 250. 250. 250.
      242. 223. 151. 43. 24. 0. 0. 29. 92. 187. 236. 242. 244. 243. 248.
      248. 248. 250. 253. 251. 250. 252. 251. 249. 245. 247. 249. 251.
      248. 237. 187. 99. 28. 0. 0. 45. 150. 219. 241. 241. 241. 240.
      243. 241. 243. 246. 251. 251. 250. 250. 247. 242. 237. 241. 242.
      248. 248. 251. 233. 163. 43. 0. 0. 61. 183. 232. 242. 241. 238.
      234. 229. 224. 231. 236. 246. 247. 248. 246. 235. 230. 224. 230.
      236. 240. 245. 247. 240. 185. 56. 0. 0. 74. 189. 231. 241. 241.
      238. 232. 221. 216. 225. 234. 244. 246. 248. 243. 233. 222. 212.
      221. 231. 239. 243. 245. 238. 184. 67. 0. 0. 77. 186. 230. 243.
      244. 241. 234. 226. 223. 226. 232. 244. 247. 251. 246. 238. 228.
      219. 225. 233. 240. 243. 244. 235. 179. 73. 0. 0. 78. 184. 231.
      245. 246. 242. 238. 236. 234. 232. 237. 246. 248. 252. 250. 242.
      239. 234. 235. 238. 241. 243. 243. 235. 179. 72. 0. 0. 68. 172.
      229. 248. 247. 245. 246. 248. 245. 248. 251. 251. 250. 250. 250.
      250. 248. 245. 251. 249. 249. 247. 244. 232. 178. 75. 0. 0. 71.
      168. 225. 247. 248. 247. 248. 251. 251. 251. 251. 250. 250. 250.
      251. 252. 252. 253. 251. 246. 247. 247. 245. 236. 180. 77. 0. 0.
      69. 168. 226. 248. 250. 250. 251. 252. 253. 254. 253. 252. 253.
      253. 250. 247. 250. 254. 252. 251. 252. 249. 244. 232. 176. 79. 0.
      0. 71. 167. 227. 243. 245. 248. 249. 249. 250. 250. 250. 253. 253.
      252. 254. 254. 255. 253. 249. 249. 249. 241. 239. 232. 178. 81. 0.
      0. 70. 163. 220. 231. 233. 235. 237. 242. 245. 245. 243. 236. 218.
      213. 228. 239. 241. 243. 241. 241. 242. 236. 234. 231. 189. 90. 0.
      0. 75. 161. 205. 210. 210. 205. 205. 225. 240. 242. 238. 211. 170.
      167. 204. 230. 238. 240. 224. 204. 201. 202. 207. 210. 185. 94. 0.
      0. 68. 136. 163. 162. 155. 126. 120. 164. 211. 231. 232. 193. 134.
      130. 184. 221. 228. 222. 173. 113. 107. 128. 150. 166. 159. 87. 0.
      0. 57. 97. 109. 107. 94. 55. 43. 108. 199. 237. 236. 174. 86. 68.
      116. 148. 153. 157. 105. 51. 56. 81. 92. 96. 107. 66. 0. 0. 50.
      61. 64. 52. 51. 36. 21. 67. 193. 248. 240. 138. 40. 34. 55. 67.
      69. 75. 65. 45. 50. 65. 62. 58. 64. 55. 0. 0. 40. 47. 53. 49. 52.
      40. 22. 49. 168. 240. 243. 118. 25. 31. 53. 58. 57. 56. 55. 50.
      54. 58. 50. 48. 38. 59. 0. 0. 35. 39. 44. 45. 49. 45. 28. 35. 143.
      215. 215. 104. 28. 44. 59. 62. 61. 55. 52. 56. 57. 50. 43. 47. 43.
      69. 0. 0. 0. 0. 0. 0. 0. 0. 0. 0. 0. 0. 0. 0. 0. 0. 0. 0. 0. 0. 0.
      0. 0. 0. 0. 0. 0. 0. 0. 0.</_>
    <_>
      140. 148. 117. 101. 110. 100. 103. 99. 94. 98. 105. 115. 124. 130.
      133. 128. 127. 129. 128. 131. 134. 137. 139. 130. 121. 119. 130.
      145. 121. 195. 217. 224. 233. 233. 244. 242. 241. 240. 238. 233.
      231. 228. 227. 227. 221. 220. 219. 222. 225. 223. 224. 222. 218.
      208. 187. 147. 101. 210. 244. 244. 248. 248. 249. 251. 250. 248.
      245. 242. 242. 241. 241. 238. 236. 237. 239. 244. 248. 250. 251.
      248. 244. 229. 195. 132. 118. 199. 217. 214. 227. 228. 231. 236.
      235. 232. 230. 232. 234. 237. 240. 236. 231. 226. 224. 227. 228.
      226. 226. 222. 218. 204. 185. 136. 146. 151. 132. 121. 103. 106.
      164. 197. 185. 185. 207. 224. 227. 234. 236. 235. 223. 208. 190.
      192. 196. 168. 135. 119. 117. 119. 141. 149. 125. 98. 52. 29. 34.
      82. 155. 192. 183. 186. 208. 224. 227. 234. 236. 233. 221. 206.
      184. 186. 192. 148. 83. 36. 21. 36. 81. 125. 64. 58. 41. 37. 74.
      169. 219. 216. 209. 212. 222. 231. 231. 237. 238. 235. 230. 220.
      211. 213. 215. 198. 146. 64. 35. 43. 56. 66. 61. 57. 44. 46. 100.
      199. 230. 229. 227. 228. 231. 235. 234. 238. 239. 239. 238. 231.
      230. 227. 229. 231. 196. 83. 42. 55. 56. 56. 59. 54. 39. 52. 132.
      228. 242. 241. 241. 243. 243. 243. 241. 242. 243. 243. 244. 241.
      242. 235. 232. 238. 215. 87. 36. 51. 59. 56. 68. 64. 43. 65. 158.
      234. 241. 243. 245. 247. 247. 247. 245. 245. 246. 245. 247. 251.
      254. 245. 240. 244. 229. 115. 48. 51. 72. 69. 58. 46. 33. 83. 181.
      232. 238. 244. 246. 249. 248. 247. 244. 243. 244. 243. 243. 251.
      252. 245. 239. 240. 232. 148. 59. 37. 58. 60. 55. 50. 50. 126.
      217. 234. 235. 241. 245. 248. 246. 245. 243. 242. 242. 241. 239.
      249. 246. 244. 241. 229. 230. 207. 111. 47. 55. 64. 55. 35. 77.
      173. 230. 235. 238. 240. 242. 244. 244. 243. 243. 241. 241. 240.
      238. 246. 242. 245. 245. 226. 234. 232. 144. 53. 47. 66. 56. 35.
      94. 192. 235. 237. 239. 240. 241. 243. 243. 243. 242. 240. 240.
      240. 241. 242. 242. 242. 241. 240. 239. 244. 189. 54. 45. 61. 54.
      35. 102. 203. 238. 237. 238. 240. 241. 242. 242. 242. 241. 240.
      240. 241. 242. 243. 243. 242. 242. 241. 240. 245. 193. 56. 46. 66.
      51. 34. 102. 205. 239. 236. 238. 240. 240. 241. 241. 241. 241.
      240. 240. 241. 241. 241. 241. 240. 240. 239. 239. 241. 191. 56.
      40. 65. 49. 32. 96. 204. 239. 237. 238. 240. 241. 241. 241. 241.
      241. 240. 241. 241. 241. 240. 240. 239. 239. 238. 238. 241. 198.
      46. 36. 56. 49. 31. 89. 203. 239. 238. 239. 240. 241. 241. 240.
      240. 240. 239. 241. 242. 242. 242. 242. 241. 240. 239. 238. 242.
      210. 39. 37. 45. 48. 29. 86. 208. 239. 239. 239. 239. 240. 241.
      240. 240. 239. 238. 240. 242. 243. 243. 242. 241. 240. 239. 238.
      241. 210. 34. 38. 33. 45. 28. 83. 211. 239. 238. 238. 238. 239.
      240. 239. 238. 237. 235. 236. 237. 237. 237. 237. 236. 236. 236.
      235. 235. 204. 39. 34. 28. 43. 24. 79. 216. 234. 235. 235. 235.
      236. 236. 237. 236. 234. 231. 232. 234. 234. 234. 234. 233. 232.
      230. 231. 234. 192. 44. 29. 33. 47. 24. 70. 219. 231. 227. 229.
      225. 223. 223. 223. 224. 224. 222. 227. 225. 218. 220. 221. 221.
      223. 224. 224. 229. 187. 44. 29. 37. 50. 28. 60. 207. 231. 214.
      221. 219. 205. 200. 205. 208. 213. 215. 211. 217. 222. 213. 211.
      216. 216. 215. 221. 225. 172. 42. 28. 51. 46. 37. 47. 160. 212.
      218. 208. 211. 181. 154. 155. 183. 205. 205. 204. 198. 174. 146.
      148. 179. 206. 211. 216. 203. 126. 33. 27. 90. 43. 44. 39. 88.
      163. 211. 213. 203. 122. 79. 79. 114. 181. 206. 205. 165. 114. 90.
      95. 136. 190. 211. 193. 143. 69. 23. 33. 119. 46. 48. 40. 42. 93.
      165. 189. 141. 61. 46. 45. 53. 114. 165. 149. 93. 61. 55. 58. 86.
      141. 164. 133. 78. 45. 27. 34. 121. 0. 0. 0. 0. 0. 0. 0. 0. 0. 0.
      0. 0. 0. 0. 0. 0. 0. 0. 0. 0. 0. 0. 0. 0. 0. 0. 0. 0. 0. 0. 0. 0.
      0. 0. 0. 0. 0. 0. 0. 0. 0. 0. 0. 0. 0. 0. 0. 0. 0. 0. 0. 0. 0. 0.
      0. 0.</_>
    <_>
      45. 46. 49. 50. 48. 48. 56. 61. 46. 30. 68. 142. 180. 172. 161.
      158. 122. 59. 44. 48. 49. 56. 50. 45. 50. 50. 48. 46. 49. 52. 44.
      40. 50. 56. 42. 32. 41. 54. 118. 195. 217. 210. 206. 211. 195. 93.
      68. 67. 44. 48. 55. 46. 52. 53. 49. 45. 50. 48. 53. 52. 41. 36.
      43. 62. 83. 109. 165. 213. 221. 218. 217. 219. 219. 138. 111. 112.
      83. 51. 38. 50. 54. 52. 48. 45. 47. 49. 59. 55. 38. 51. 101. 141.
      145. 159. 189. 214. 224. 225. 225. 218. 218. 173. 152. 160. 151.
      94. 33. 37. 46. 48. 49. 48. 52. 57. 42. 34. 55. 111. 177. 200.
      185. 190. 205. 217. 224. 227. 232. 226. 219. 199. 186. 190. 202.
      168. 86. 39. 36. 43. 51. 53. 53. 52. 42. 34. 96. 183. 222. 223.
      216. 219. 225. 229. 231. 232. 235. 234. 226. 221. 213. 207. 211.
      216. 164. 62. 30. 39. 52. 57. 53. 56. 46. 38. 124. 213. 235. 234.
      234. 235. 237. 238. 239. 238. 237. 236. 233. 235. 230. 233. 230.
      236. 222. 101. 21. 36. 48. 57. 59. 59. 40. 35. 143. 226. 239. 241.
      243. 243. 244. 244. 243. 242. 240. 239. 241. 242. 240. 241. 239.
      240. 231. 127. 22. 40. 55. 62. 61. 57. 32. 48. 162. 230. 237. 241.
      244. 245. 246. 246. 245. 244. 241. 242. 248. 250. 248. 248. 243.
      242. 234. 159. 25. 33. 48. 58. 53. 51. 34. 97. 198. 235. 236. 239.
      241. 243. 243. 244. 243. 242. 240. 241. 244. 244. 245. 245. 236.
      235. 234. 186. 62. 31. 39. 57. 47. 45. 49. 155. 223. 238. 236.
      238. 240. 242. 242. 243. 243. 242. 242. 242. 242. 240. 239. 238.
      231. 232. 233. 217. 133. 45. 37. 62. 49. 38. 63. 194. 234. 237.
      235. 238. 240. 241. 242. 242. 242. 241. 241. 242. 241. 239. 238.
      237. 232. 233. 235. 228. 174. 49. 33. 63. 55. 29. 70. 207. 235.
      237. 236. 239. 240. 240. 240. 240. 240. 239. 238. 239. 239. 239.
      239. 238. 236. 237. 238. 234. 185. 43. 27. 60. 48. 31. 72. 212.
      237. 239. 236. 239. 240. 240. 241. 240. 240. 240. 239. 239. 239.
      240. 241. 239. 238. 239. 238. 235. 189. 47. 32. 60. 50. 34. 68.
      219. 232. 238. 234. 238. 240. 241. 241. 241. 240. 239. 238. 237.
      237. 237. 236. 236. 237. 238. 242. 238. 190. 50. 32. 57. 50. 32.
      63. 224. 231. 236. 239. 241. 241. 241. 242. 240. 240. 239. 238.
      237. 236. 235. 234. 235. 236. 238. 242. 240. 190. 56. 34. 58. 64.
      39. 62. 230. 243. 238. 238. 244. 244. 243. 243. 242. 243. 242.
      242. 242. 241. 241. 240. 240. 241. 241. 242. 236. 182. 60. 44. 71.
      111. 77. 77. 215. 238. 237. 232. 241. 242. 242. 242. 241. 242.
      242. 242. 244. 243. 242. 241. 242. 242. 241. 239. 234. 182. 84.
      71. 105. 142. 136. 135. 209. 223. 228. 233. 236. 237. 239. 239.
      238. 238. 237. 237. 239. 240. 237. 236. 236. 236. 237. 237. 236.
      206. 144. 127. 138. 121. 182. 202. 227. 225. 227. 235. 238. 238.
      241. 241. 240. 239. 237. 236. 238. 239. 236. 235. 234. 234. 236.
      238. 234. 223. 202. 177. 141. 96. 197. 231. 233. 230. 229. 234.
      238. 239. 241. 242. 241. 239. 237. 234. 235. 238. 235. 233. 231.
      229. 231. 234. 230. 227. 221. 196. 139. 112. 184. 205. 214. 221.
      221. 210. 220. 226. 227. 230. 229. 227. 223. 220. 225. 229. 230.
      226. 219. 214. 215. 219. 224. 220. 199. 175. 136. 142. 147. 148.
      191. 205. 158. 120. 114. 145. 200. 226. 220. 165. 126. 119. 192.
      220. 222. 188. 149. 133. 136. 160. 197. 183. 138. 133. 146. 120.
      93. 73. 111. 140. 89. 59. 60. 78. 136. 202. 190. 108. 65. 63. 125.
      180. 183. 123. 76. 57. 61. 88. 147. 118. 62. 82. 126. 0. 0. 0. 0.
      0. 0. 0. 0. 0. 0. 0. 0. 0. 0. 0. 0. 0. 0. 0. 0. 0. 0. 0. 0. 0. 0.
      0. 0. 0. 0. 0. 0. 0. 0. 0. 0. 0. 0. 0. 0. 0. 0. 0. 0. 0. 0. 0. 0.
      0. 0. 0. 0. 0. 0. 0. 0. 0. 0. 0. 0. 0. 0. 0. 0. 0. 0. 0. 0. 0. 0.
      0. 0. 0. 0. 0. 0. 0. 0. 0. 0. 0. 0. 0. 0. 0. 0. 0. 0. 0. 0. 0. 0.
      0. 0. 0. 0. 0. 0. 0. 0. 0. 0. 0. 0. 0. 0. 0. 0. 0. 0. 0. 0.</_>
    <_>
      149. 129. 13. 21. 43. 48. 54. 49. 32. 27. 76. 166. 204. 187. 188.
      181. 127. 42. 30. 48. 59. 59. 50. 37. 19. 42. 153. 182. 150. 130.
      16. 19. 40. 52. 50. 53. 47. 56. 120. 200. 234. 226. 228. 222. 172.
      73. 49. 57. 52. 40. 47. 40. 22. 35. 144. 181. 149. 124. 26. 17.
      32. 48. 55. 68. 72. 92. 156. 221. 245. 243. 246. 242. 199. 111.
      82. 86. 73. 45. 34. 32. 21. 30. 144. 186. 143. 123. 37. 15. 26.
      62. 97. 110. 110. 132. 183. 226. 244. 245. 245. 241. 214. 148.
      126. 135. 128. 89. 30. 18. 16. 39. 139. 179. 133. 121. 51. 18. 41.
      111. 169. 179. 175. 184. 210. 231. 246. 251. 249. 243. 229. 191.
      174. 183. 190. 156. 69. 18. 16. 46. 125. 161. 111. 109. 52. 20.
      75. 173. 218. 216. 210. 213. 222. 234. 248. 252. 250. 245. 241.
      222. 210. 213. 218. 204. 130. 34. 17. 45. 94. 130. 86. 72. 39. 29.
      115. 215. 238. 235. 235. 235. 237. 242. 247. 249. 249. 248. 246.
      238. 235. 232. 232. 232. 179. 58. 15. 37. 65. 96. 62. 37. 26. 40.
      144. 229. 240. 237. 239. 240. 242. 245. 247. 249. 251. 252. 245.
      240. 244. 241. 240. 244. 201. 79. 14. 31. 49. 66. 46. 36. 29. 57.
      168. 241. 251. 251. 252. 252. 252. 252. 252. 252. 253. 254. 251.
      249. 251. 249. 247. 249. 213. 104. 21. 28. 40. 45. 36. 31. 38. 92.
      195. 245. 251. 253. 254. 255. 255. 254. 254. 253. 254. 254. 254.
      254. 254. 254. 254. 253. 233. 142. 45. 23. 33. 43. 39. 24. 41.
      132. 224. 250. 252. 253. 255. 254. 254. 253. 253. 253. 253. 254.
      254. 254. 254. 254. 254. 252. 247. 195. 89. 21. 32. 55. 51. 27.
      55. 176. 238. 250. 252. 253. 255. 254. 254. 253. 253. 253. 253.
      254. 254. 254. 254. 254. 254. 251. 251. 232. 125. 29. 27. 55. 49.
      29. 79. 206. 242. 250. 252. 254. 254. 254. 253. 252. 252. 253.
      254. 254. 254. 254. 254. 254. 254. 252. 252. 247. 159. 47. 25. 48.
      47. 23. 86. 218. 247. 251. 252. 254. 254. 253. 253. 252. 252. 253.
      254. 254. 254. 254. 254. 254. 254. 253. 252. 252. 181. 62. 28. 45.
      47. 19. 85. 222. 248. 251. 251. 253. 254. 253. 253. 253. 253. 253.
      253. 254. 254. 254. 254. 254. 254. 252. 252. 253. 194. 65. 27. 46.
      41. 24. 105. 222. 247. 250. 251. 253. 254. 254. 254. 253. 253.
      253. 253. 254. 254. 255. 255. 254. 254. 252. 252. 252. 197. 56.
      21. 47. 41. 19. 99. 234. 249. 253. 252. 252. 253. 254. 254. 252.
      252. 251. 251. 252. 253. 254. 254. 254. 254. 254. 250. 249. 194.
      54. 18. 49. 47. 26. 94. 229. 249. 252. 253. 252. 252. 253. 253.
      252. 251. 249. 249. 251. 252. 254. 254. 253. 253. 253. 250. 251.
      186. 53. 24. 51. 51. 23. 99. 232. 250. 252. 254. 254. 254. 252.
      254. 253. 253. 248. 250. 252. 253. 254. 254. 252. 251. 252. 253.
      252. 192. 41. 24. 52. 41. 21. 101. 231. 250. 253. 254. 254. 254.
      254. 255. 254. 253. 250. 251. 253. 254. 253. 255. 254. 254. 253.
      252. 248. 199. 49. 28. 44. 76. 85. 144. 235. 248. 250. 251. 251.
      251. 252. 251. 251. 251. 253. 254. 254. 253. 251. 252. 252. 252.
      252. 249. 240. 210. 95. 69. 53. 157. 203. 215. 246. 248. 247. 241.
      241. 247. 249. 248. 248. 250. 252. 253. 251. 249. 247. 247. 241.
      237. 239. 245. 248. 247. 224. 205. 131. 188. 246. 244. 244. 242.
      223. 194. 191. 218. 242. 244. 246. 248. 250. 251. 249. 248. 246.
      237. 207. 182. 202. 230. 246. 223. 244. 249. 195. 172. 239. 235.
      235. 228. 172. 112. 104. 164. 225. 239. 237. 231. 225. 228. 232.
      239. 238. 212. 147. 93. 104. 181. 237. 244. 246. 240. 170. 97.
      130. 151. 189. 191. 113. 51. 45. 103. 184. 228. 218. 178. 138.
      148. 177. 214. 223. 179. 97. 36. 43. 117. 179. 198. 134. 105. 80.
      57. 61. 81. 126. 133. 74. 40. 39. 65. 121. 182. 174. 103. 43. 51.
      107. 177. 183. 120. 52. 31. 46. 74. 128. 119. 49. 33. 57. 0. 0. 0.
      0. 0. 0. 0. 0. 0. 0. 0. 0. 0. 0. 0. 0. 0. 0. 0. 0. 0. 0. 0. 0. 0.
      0. 0. 0. 0. 0. 0. 0. 0. 0. 0. 0. 0. 0. 0. 0. 0. 0. 0. 0. 0. 0. 0.
      0. 0. 0. 0. 0. 0. 0. 0. 0.</_>
    <_>
      155. 14. 20. 46. 53. 51. 53. 53. 34. 54. 113. 151. 168. 158. 121.
      61. 25. 40. 51. 52. 55. 45. 43. 18. 0. 0. 0. 0. 158. 13. 24. 50.
      51. 54. 52. 47. 29. 82. 183. 229. 251. 247. 208. 112. 26. 36. 51.
      54. 51. 57. 45. 15. 0. 0. 0. 0. 155. 11. 26. 48. 47. 45. 50. 54.
      61. 142. 231. 249. 249. 250. 250. 189. 77. 58. 56. 54. 44. 52. 39.
      14. 0. 0. 0. 0. 145. 13. 24. 43. 51. 63. 76. 76. 100. 182. 239.
      248. 242. 242. 251. 223. 118. 99. 86. 76. 44. 31. 27. 17. 0. 0. 0.
      0. 143. 15. 23. 39. 70. 124. 137. 123. 147. 202. 231. 246. 247.
      249. 249. 232. 153. 152. 145. 139. 94. 32. 26. 18. 0. 0. 0. 0.
      135. 18. 23. 50. 108. 185. 195. 178. 189. 220. 230. 246. 247. 247.
      248. 239. 195. 196. 194. 206. 169. 52. 29. 14. 0. 0. 0. 0. 127.
      16. 28. 94. 193. 228. 226. 222. 225. 233. 238. 247. 249. 251. 249.
      242. 229. 226. 225. 229. 218. 142. 40. 14. 0. 0. 0. 0. 126. 21.
      42. 131. 223. 232. 230. 229. 231. 238. 241. 248. 249. 251. 250.
      245. 242. 237. 237. 235. 234. 203. 66. 17. 0. 0. 0. 0. 115. 24.
      47. 146. 239. 247. 248. 250. 251. 252. 252. 251. 252. 253. 254.
      252. 251. 248. 248. 246. 246. 219. 89. 14. 0. 0. 0. 0. 106. 31.
      61. 159. 239. 248. 249. 251. 251. 253. 252. 252. 251. 253. 254.
      254. 253. 252. 252. 251. 251. 226. 115. 19. 0. 0. 0. 0. 97. 58.
      109. 199. 247. 252. 251. 250. 251. 252. 251. 250. 252. 254. 253.
      253. 253. 254. 253. 252. 252. 238. 164. 65. 0. 0. 0. 0. 77. 80.
      159. 229. 248. 252. 251. 250. 251. 252. 251. 250. 252. 254. 253.
      252. 253. 255. 254. 253. 253. 248. 219. 126. 0. 0. 0. 0. 44. 81.
      189. 245. 249. 250. 252. 253. 253. 254. 253. 252. 253. 254. 253.
      252. 253. 254. 254. 254. 251. 249. 242. 163. 0. 0. 0. 0. 21. 79.
      197. 244. 246. 250. 252. 253. 254. 254. 253. 252. 252. 253. 252.
      252. 253. 253. 254. 253. 250. 249. 244. 172. 0. 0. 0. 0. 16. 90.
      211. 251. 252. 251. 250. 250. 250. 250. 251. 252. 252. 253. 252.
      252. 251. 251. 253. 253. 252. 252. 243. 172. 0. 0. 0. 0. 17. 83.
      200. 244. 250. 251. 250. 249. 250. 250. 251. 250. 250. 252. 252.
      252. 251. 251. 253. 253. 253. 250. 247. 182. 0. 0. 0. 0. 20. 86.
      202. 248. 250. 251. 252. 252. 253. 253. 252. 251. 252. 253. 253.
      253. 253. 253. 253. 252. 252. 250. 250. 190. 0. 0. 0. 0. 23. 87.
      213. 250. 247. 251. 253. 252. 254. 252. 250. 251. 253. 254. 254.
      253. 253. 252. 252. 253. 254. 249. 251. 189. 0. 0. 0. 0. 18. 83.
      213. 245. 248. 250. 251. 251. 253. 251. 249. 250. 251. 252. 252.
      252. 251. 251. 251. 252. 253. 249. 251. 189. 0. 0. 0. 0. 18. 79.
      215. 247. 250. 248. 249. 250. 250. 251. 252. 252. 250. 251. 252.
      250. 247. 249. 251. 249. 249. 250. 253. 187. 0. 0. 0. 0. 21. 61.
      209. 246. 249. 244. 247. 240. 212. 214. 238. 245. 249. 249. 249.
      234. 211. 220. 242. 244. 245. 250. 249. 184. 0. 0. 0. 0. 15. 33.
      185. 236. 248. 242. 247. 215. 141. 137. 198. 232. 246. 245. 239.
      192. 133. 150. 212. 238. 243. 245. 229. 156. 0. 0. 0. 0. 30. 17.
      98. 194. 239. 239. 232. 146. 68. 71. 130. 197. 237. 239. 201. 126.
      65. 81. 160. 219. 237. 234. 184. 105. 0. 0. 0. 0. 47. 29. 55. 122.
      192. 211. 164. 73. 45. 50. 71. 144. 202. 203. 135. 67. 48. 52. 92.
      171. 207. 194. 112. 42. 0. 0. 0. 0. 60. 51. 51. 82. 125. 158. 97.
      45. 60. 55. 54. 98. 142. 138. 93. 54. 56. 53. 66. 115. 151. 134.
      65. 34. 0. 0. 0. 0. 0. 0. 0. 0. 0. 0. 0. 0. 0. 0. 0. 0. 0. 0. 0.
      0. 0. 0. 0. 0. 0. 0. 0. 0. 0. 0. 0. 0. 0. 0. 0. 0. 0. 0. 0. 0. 0.
      0. 0. 0. 0. 0. 0. 0. 0. 0. 0. 0. 0. 0. 0. 0. 0. 0. 0. 0. 0. 0. 0.
      0. 0. 0. 0. 0. 0. 0. 0. 0. 0. 0. 0. 0. 0. 0. 0. 0. 0. 0. 0. 0. 0.
      0. 0. 0.</_>
    <_>
      48. 49. 48. 45. 41. 42. 43. 42. 45. 52. 55. 63. 77. 79. 78. 74.
      68. 62. 57. 51. 44. 39. 21. 16. 82. 173. 181. 114. 48. 51. 51. 49.
      48. 50. 50. 50. 63. 92. 118. 136. 147. 135. 127. 105. 79. 63. 57.
      56. 55. 62. 47. 27. 34. 65. 80. 52. 44. 48. 48. 45. 46. 52. 59.
      71. 95. 125. 143. 149. 157. 158. 149. 126. 98. 80. 73. 70. 63. 48.
      46. 46. 43. 45. 47. 39. 42. 45. 45. 41. 40. 59. 93. 117. 136. 147.
      141. 128. 126. 131. 138. 144. 145. 139. 120. 87. 53. 44. 54. 53.
      45. 39. 40. 43. 41. 42. 37. 43. 66. 106. 143. 154. 149. 143. 138.
      130. 133. 145. 145. 144. 145. 150. 141. 109. 70. 49. 49. 48. 43.
      43. 44. 42. 30. 28. 27. 68. 121. 165. 186. 187. 180. 167. 149.
      132. 146. 161. 180. 185. 187. 191. 176. 144. 101. 70. 59. 52. 48.
      48. 45. 38. 13. 12. 57. 137. 207. 235. 237. 234. 222. 197. 168.
      153. 181. 215. 223. 225. 226. 223. 209. 181. 137. 103. 71. 48. 43.
      49. 48. 40. 14. 25. 111. 204. 237. 244. 244. 247. 248. 232. 205.
      202. 234. 249. 248. 247. 247. 247. 237. 212. 160. 123. 78. 46. 45.
      54. 53. 47. 20. 35. 132. 203. 222. 236. 236. 244. 250. 242. 220.
      213. 229. 232. 237. 244. 250. 250. 249. 232. 172. 124. 77. 48. 48.
      55. 55. 53. 15. 30. 103. 136. 183. 217. 231. 236. 244. 245. 217.
      188. 189. 202. 221. 235. 241. 245. 248. 243. 174. 122. 75. 44. 44.
      62. 76. 75. 58. 100. 126. 116. 152. 201. 223. 231. 243. 247. 216.
      177. 166. 181. 211. 229. 235. 241. 247. 241. 171. 128. 83. 44. 58.
      113. 146. 125. 148. 217. 202. 171. 187. 222. 236. 241. 247. 238.
      200. 167. 167. 192. 223. 237. 241. 243. 242. 224. 164. 138. 98.
      61. 97. 188. 229. 171. 181. 253. 218. 203. 218. 237. 241. 242.
      241. 213. 166. 145. 175. 217. 240. 245. 246. 240. 220. 191. 148.
      143. 113. 79. 123. 222. 247. 167. 135. 197. 182. 167. 205. 214.
      211. 207. 194. 168. 143. 138. 162. 189. 203. 209. 209. 197. 177.
      155. 134. 141. 115. 83. 107. 185. 200. 127. 76. 120. 129. 135.
      154. 157. 157. 156. 152. 142. 135. 135. 143. 151. 155. 157. 154.
      149. 142. 137. 135. 135. 111. 86. 65. 69. 73. 49. 51. 87. 115.
      136. 139. 136. 132. 129. 130. 130. 130. 129. 133. 137. 136. 135.
      136. 135. 134. 132. 131. 139. 124. 92. 52. 38. 45. 42. 50. 84.
      120. 139. 137. 137. 131. 126. 126. 128. 130. 130. 130. 131. 133.
      135. 136. 137. 135. 131. 130. 131. 126. 98. 54. 32. 38. 37. 48.
      83. 121. 135. 134. 136. 132. 128. 127. 129. 131. 131. 130. 130.
      132. 134. 134. 134. 134. 133. 132. 128. 123. 99. 56. 38. 47. 40.
      48. 85. 124. 139. 139. 136. 132. 132. 131. 132. 130. 128. 128.
      126. 126. 126. 126. 129. 131. 131. 132. 130. 125. 98. 52. 34. 45.
      43. 47. 85. 120. 136. 138. 134. 134. 137. 135. 131. 129. 129. 128.
      129. 131. 131. 131. 132. 133. 132. 133. 133. 127. 104. 57. 33. 39.
      37. 56. 88. 110. 120. 134. 135. 140. 140. 124. 108. 109. 123. 132.
      139. 145. 139. 120. 107. 114. 132. 144. 138. 124. 96. 56. 37. 40.
      35. 64. 80. 88. 97. 124. 137. 144. 137. 102. 65. 65. 92. 126. 146.
      147. 121. 79. 57. 75. 122. 155. 147. 115. 73. 39. 34. 46. 40. 63.
      67. 66. 74. 102. 120. 131. 121. 85. 43. 38. 67. 113. 142. 132. 84.
      42. 29. 48. 94. 136. 127. 86. 54. 31. 43. 72. 58. 56. 58. 56. 58.
      71. 84. 89. 86. 69. 43. 42. 64. 84. 96. 86. 61. 43. 41. 48. 69.
      88. 80. 49. 25. 29. 98. 130. 111. 0. 0. 0. 0. 0. 0. 0. 0. 0. 0. 0.
      0. 0. 0. 0. 0. 0. 0. 0. 0. 0. 0. 0. 0. 0. 0. 0. 0. 0. 0. 0. 0. 0.
      0. 0. 0. 0. 0. 0. 0. 0. 0. 0. 0. 0. 0. 0. 0. 0. 0. 0. 0. 0. 0. 0.
      0. 0. 0. 0. 0. 0. 0. 0. 0. 0. 0. 0. 0. 0. 0. 0. 0. 0. 0. 0. 0. 0.
      0. 0. 0. 0. 0. 0. 0. 0. 0. 0. 0. 0. 0. 0. 0. 0. 0. 0. 0. 0. 0. 0.
      0. 0. 0. 0. 0. 0. 0. 0. 0. 0. 0. 0. 0.</_>
    <_>
      51. 53. 53. 57. 52. 41. 35. 44. 67. 96. 109. 118. 122. 102. 69.
      39. 33. 45. 53. 52. 53. 49. 44. 0. 0. 0. 0. 0. 51. 56. 55. 49. 43.
      40. 54. 97. 162. 215. 235. 236. 242. 237. 198. 112. 39. 20. 35.
      43. 53. 50. 47. 0. 0. 0. 0. 0. 58. 58. 49. 32. 55. 98. 146. 195.
      234. 250. 249. 248. 251. 254. 247. 217. 168. 119. 58. 17. 37. 49.
      60. 0. 0. 0. 0. 0. 60. 50. 33. 46. 118. 198. 238. 251. 248. 244.
      249. 253. 251. 251. 252. 249. 240. 205. 119. 38. 21. 32. 58. 0. 0.
      0. 0. 0. 52. 41. 39. 110. 193. 239. 247. 250. 252. 251. 252. 253.
      251. 251. 248. 245. 249. 243. 205. 129. 41. 18. 37. 0. 0. 0. 0. 0.
      39. 49. 91. 185. 236. 249. 241. 247. 253. 254. 255. 251. 250. 252.
      253. 251. 251. 251. 245. 211. 118. 41. 21. 0. 0. 0. 0. 0. 31. 75.
      169. 234. 245. 249. 251. 253. 250. 247. 252. 254. 251. 249. 253.
      253. 251. 250. 250. 242. 196. 91. 19. 0. 0. 0. 0. 0. 33. 97. 217.
      247. 246. 246. 253. 253. 253. 251. 251. 252. 252. 251. 251. 250.
      249. 249. 248. 246. 223. 125. 19. 0. 0. 0. 0. 0. 33. 104. 227.
      249. 251. 254. 252. 246. 247. 248. 242. 240. 246. 250. 252. 249.
      247. 245. 238. 229. 205. 120. 18. 0. 0. 0. 0. 0. 32. 105. 232.
      252. 248. 252. 252. 245. 237. 214. 215. 229. 236. 246. 251. 250.
      247. 236. 214. 194. 169. 106. 29. 0. 0. 0. 0. 0. 69. 151. 232.
      253. 248. 253. 250. 243. 232. 206. 208. 225. 233. 244. 251. 250.
      248. 231. 201. 177. 154. 121. 76. 0. 0. 0. 0. 0. 130. 213. 245.
      253. 251. 253. 249. 245. 235. 212. 216. 230. 236. 245. 250. 250.
      249. 235. 213. 197. 197. 194. 135. 0. 0. 0. 0. 0. 171. 247. 247.
      252. 252. 253. 252. 248. 243. 228. 231. 236. 239. 248. 251. 252.
      251. 242. 229. 222. 227. 234. 176. 0. 0. 0. 0. 0. 173. 247. 246.
      251. 252. 253. 253. 252. 250. 245. 246. 244. 243. 251. 253. 252.
      252. 247. 242. 238. 237. 237. 180. 0. 0. 0. 0. 0. 172. 244. 246.
      251. 252. 251. 254. 253. 252. 251. 251. 248. 247. 253. 254. 251.
      251. 252. 252. 250. 248. 241. 174. 0. 0. 0. 0. 0. 176. 245. 248.
      249. 251. 250. 252. 253. 252. 252. 252. 250. 250. 253. 253. 252.
      251. 253. 253. 250. 248. 247. 175. 0. 0. 0. 0. 0. 177. 244. 248.
      248. 250. 249. 252. 254. 252. 253. 253. 253. 253. 253. 254. 254.
      254. 255. 255. 251. 252. 252. 174. 0. 0. 0. 0. 0. 170. 240. 249.
      248. 251. 250. 250. 251. 254. 253. 249. 253. 253. 253. 251. 254.
      255. 254. 255. 254. 253. 249. 173. 0. 0. 0. 0. 0. 169. 238. 249.
      249. 250. 250. 251. 250. 249. 250. 247. 252. 251. 254. 244. 252.
      252. 252. 252. 252. 250. 250. 168. 0. 0. 0. 0. 0. 178. 243. 249.
      249. 248. 247. 252. 253. 246. 249. 252. 241. 249. 253. 253. 253.
      244. 247. 245. 249. 250. 250. 175. 0. 0. 0. 0. 0. 173. 240. 247.
      246. 240. 239. 248. 250. 250. 250. 237. 202. 226. 247. 246. 250.
      249. 251. 245. 247. 246. 250. 180. 0. 0. 0. 0. 0. 170. 235. 245.
      217. 178. 193. 235. 246. 245. 240. 196. 112. 162. 232. 233. 250.
      248. 210. 168. 211. 235. 249. 192. 0. 0. 0. 0. 0. 158. 216. 219.
      155. 79. 112. 200. 242. 249. 233. 155. 39. 107. 234. 247. 246.
      218. 106. 57. 122. 188. 230. 191. 0. 0. 0. 0. 0. 96. 141. 131. 69.
      23. 51. 129. 184. 211. 198. 114. 31. 79. 196. 226. 207. 140. 40.
      26. 60. 115. 158. 135. 0. 0. 0. 0. 0. 0. 0. 0. 0. 0. 0. 0. 0. 0.
      0. 0. 0. 0. 0. 0. 0. 0. 0. 0. 0. 0. 0. 0. 0. 0. 0. 0. 0. 0. 0. 0.
      0. 0. 0. 0. 0. 0. 0. 0. 0. 0. 0. 0. 0. 0. 0. 0. 0. 0. 0. 0. 0. 0.
      0. 0. 0. 0. 0. 0. 0. 0. 0. 0. 0. 0. 0. 0. 0. 0. 0. 0. 0. 0. 0. 0.
      0. 0. 0. 0. 0. 0. 0. 0. 0. 0. 0. 0. 0. 0. 0. 0. 0. 0. 0. 0. 0. 0.
      0. 0. 0. 0. 0. 0. 0. 0. 0. 0. 0. 0. 0. 0. 0.</_>
    <_>
      51. 55. 57. 54. 45. 46. 51. 74. 124. 183. 208. 212. 222. 214. 157.
      67. 20. 18. 40. 45. 43. 43. 38. 0. 0. 0. 0. 0. 57. 59. 55. 49. 52.
      84. 129. 175. 224. 250. 248. 252. 249. 251. 240. 194. 143. 87. 42.
      25. 36. 47. 40. 0. 0. 0. 0. 0. 60. 52. 41. 48. 96. 168. 222. 243.
      248. 251. 247. 251. 246. 252. 252. 244. 233. 181. 97. 35. 21. 34.
      42. 0. 0. 0. 0. 0. 52. 41. 49. 93. 163. 226. 245. 248. 246. 253.
      254. 253. 253. 254. 250. 240. 249. 237. 183. 98. 28. 17. 33. 0. 0.
      0. 0. 0. 42. 44. 93. 169. 219. 243. 244. 246. 250. 253. 250. 253.
      245. 253. 253. 248. 252. 253. 235. 183. 84. 25. 19. 0. 0. 0. 0. 0.
      40. 69. 148. 224. 248. 248. 248. 250. 252. 252. 253. 253. 251.
      254. 254. 253. 250. 248. 249. 237. 164. 65. 16. 0. 0. 0. 0. 0. 41.
      97. 191. 245. 245. 243. 246. 252. 249. 244. 253. 253. 253. 254.
      250. 252. 250. 248. 249. 246. 222. 105. 22. 0. 0. 0. 0. 0. 39.
      107. 204. 241. 247. 251. 250. 251. 248. 240. 242. 242. 246. 252.
      248. 251. 252. 245. 238. 226. 229. 115. 26. 0. 0. 0. 0. 0. 38.
      108. 205. 241. 247. 253. 253. 249. 240. 224. 220. 232. 240. 250.
      250. 251. 249. 234. 218. 189. 181. 102. 37. 0. 0. 0. 0. 0. 65.
      140. 218. 243. 249. 253. 252. 246. 231. 209. 202. 224. 235. 249.
      250. 252. 247. 228. 206. 167. 154. 118. 66. 0. 0. 0. 0. 0. 120.
      200. 238. 245. 250. 252. 250. 246. 233. 215. 209. 225. 234. 246.
      248. 251. 247. 229. 211. 190. 178. 190. 132. 0. 0. 0. 0. 0. 162.
      227. 248. 251. 253. 253. 250. 248. 242. 233. 230. 235. 239. 248.
      248. 251. 251. 241. 233. 225. 222. 233. 166. 0. 0. 0. 0. 0. 168.
      230. 247. 252. 254. 254. 252. 250. 247. 244. 243. 243. 245. 250.
      251. 254. 254. 252. 250. 243. 245. 246. 167. 0. 0. 0. 0. 0. 162.
      230. 247. 252. 254. 254. 253. 252. 251. 250. 249. 248. 249. 252.
      252. 254. 254. 252. 252. 244. 247. 246. 166. 0. 0. 0. 0. 0. 162.
      234. 250. 253. 253. 252. 253. 254. 254. 254. 254. 255. 254. 254.
      254. 253. 253. 253. 253. 251. 248. 250. 169. 0. 0. 0. 0. 0. 160.
      236. 250. 251. 251. 251. 252. 253. 254. 254. 254. 255. 254. 253.
      253. 252. 253. 254. 253. 253. 239. 251. 175. 0. 0. 0. 0. 0. 157.
      237. 246. 249. 250. 251. 252. 252. 253. 253. 253. 253. 254. 255.
      255. 254. 253. 254. 252. 251. 249. 253. 171. 0. 0. 0. 0. 0. 154.
      236. 244. 250. 252. 252. 253. 252. 252. 253. 252. 251. 248. 248.
      255. 253. 249. 254. 253. 252. 253. 253. 172. 0. 0. 0. 0. 0. 152.
      237. 248. 253. 254. 250. 253. 253. 251. 252. 253. 253. 253. 252.
      252. 252. 251. 251. 250. 250. 249. 251. 179. 0. 0. 0. 0. 0. 145.
      239. 248. 250. 250. 245. 250. 247. 246. 252. 250. 250. 252. 251.
      242. 233. 244. 249. 246. 248. 247. 249. 184. 0. 0. 0. 0. 0. 121.
      222. 245. 245. 245. 246. 241. 206. 200. 234. 243. 244. 246. 243.
      219. 192. 208. 241. 245. 247. 247. 244. 176. 0. 0. 0. 0. 0. 77.
      169. 234. 239. 241. 243. 221. 140. 121. 183. 232. 243. 243. 231.
      184. 129. 140. 199. 235. 241. 239. 225. 146. 0. 0. 0. 0. 0. 36.
      90. 170. 191. 196. 190. 161. 83. 60. 111. 164. 179. 178. 162. 120.
      68. 70. 125. 174. 179. 180. 161. 101. 0. 0. 0. 0. 0. 0. 0. 0. 0.
      0. 0. 0. 0. 0. 0. 0. 0. 0. 0. 0. 0. 0. 0. 0. 0. 0. 0. 0. 0. 0. 0.
      0. 0. 0. 0. 0. 0. 0. 0. 0. 0. 0. 0. 0. 0. 0. 0. 0. 0. 0. 0. 0. 0.
      0. 0. 0. 0. 0. 0. 0. 0. 0. 0. 0. 0. 0. 0. 0. 0. 0. 0. 0. 0. 0. 0.
      0. 0. 0. 0. 0. 0. 0. 0. 0. 0. 0. 0. 0. 0. 0. 0. 0. 0. 0. 0. 0. 0.
      0. 0. 0. 0. 0. 0. 0. 0. 0. 0. 0. 0. 0. 0. 0. 0. 0. 0. 0. 0. 0. 0.
      0. 0. 0. 0. 0. 0. 0. 0. 0. 0. 0. 0. 0. 0. 0. 0. 0. 0. 0. 0. 0. 0.
      0. 0. 0. 0.</_>
    <_>
      41. 37. 43. 49. 52. 57. 62. 64. 54. 45. 75. 137. 183. 190. 191.
      180. 130. 65. 52. 58. 55. 58. 49. 41. 23. 0. 0. 0. 27. 32. 47. 53.
      53. 51. 51. 66. 80. 92. 139. 199. 225. 231. 232. 232. 199. 137.
      102. 84. 45. 44. 47. 42. 23. 0. 0. 0. 39. 42. 49. 54. 46. 39. 45.
      92. 157. 195. 212. 229. 237. 239. 235. 239. 232. 211. 190. 164.
      75. 40. 36. 38. 23. 0. 0. 0. 46. 45. 45. 49. 31. 40. 81. 150. 217.
      241. 238. 237. 244. 244. 243. 242. 240. 237. 233. 221. 147. 67.
      32. 30. 20. 0. 0. 0. 46. 44. 42. 36. 26. 72. 153. 212. 238. 242.
      243. 243. 244. 250. 250. 250. 246. 243. 244. 239. 215. 133. 62.
      29. 17. 0. 0. 0. 50. 49. 45. 23. 30. 128. 213. 241. 245. 246. 247.
      249. 250. 250. 250. 252. 250. 247. 247. 244. 243. 208. 125. 39.
      14. 0. 0. 0. 47. 49. 41. 20. 39. 196. 244. 242. 249. 253. 253.
      253. 253. 252. 252. 253. 253. 252. 251. 249. 246. 243. 186. 61.
      17. 0. 0. 0. 41. 50. 33. 19. 77. 220. 248. 247. 251. 254. 253.
      253. 254. 253. 253. 254. 255. 254. 253. 252. 252. 243. 226. 95.
      24. 0. 0. 0. 46. 52. 29. 12. 119. 235. 251. 252. 253. 254. 254.
      254. 254. 254. 254. 254. 255. 255. 254. 253. 252. 252. 243. 108.
      22. 0. 0. 0. 42. 33. 14. 24. 168. 244. 248. 252. 253. 254. 254.
      254. 254. 254. 254. 254. 254. 255. 255. 254. 251. 252. 251. 142.
      34. 0. 0. 0. 40. 25. 22. 74. 219. 250. 250. 251. 249. 251. 251.
      252. 253. 254. 254. 254. 253. 252. 252. 253. 251. 249. 251. 206.
      82. 0. 0. 0. 31. 19. 31. 133. 244. 251. 251. 249. 245. 247. 248.
      250. 252. 254. 254. 253. 249. 246. 246. 247. 250. 246. 250. 247.
      126. 0. 0. 0. 34. 59. 82. 187. 251. 245. 248. 243. 239. 241. 243.
      247. 250. 252. 253. 250. 245. 239. 237. 240. 247. 248. 249. 247.
      141. 0. 0. 0. 110. 194. 212. 231. 252. 243. 248. 238. 233. 232.
      235. 243. 248. 250. 251. 247. 239. 232. 229. 230. 238. 245. 246.
      241. 151. 0. 0. 0. 156. 243. 246. 248. 253. 248. 244. 240. 228.
      224. 229. 240. 245. 249. 250. 246. 237. 228. 223. 225. 238. 245.
      246. 240. 165. 0. 0. 0. 146. 233. 242. 245. 254. 252. 243. 244.
      230. 225. 231. 238. 239. 245. 247. 248. 244. 237. 229. 230. 240.
      245. 249. 240. 176. 0. 0. 0. 76. 133. 172. 228. 253. 253. 248.
      249. 239. 234. 238. 240. 241. 246. 249. 249. 247. 243. 238. 239.
      243. 245. 250. 240. 175. 0. 0. 0. 36. 44. 97. 206. 250. 252. 253.
      253. 249. 244. 247. 247. 249. 253. 254. 255. 252. 249. 246. 247.
      248. 249. 252. 241. 173. 0. 0. 0. 36. 18. 67. 188. 249. 252. 254.
      254. 253. 247. 248. 249. 250. 253. 254. 254. 253. 250. 248. 249.
      250. 249. 252. 242. 171. 0. 0. 0. 33. 14. 63. 179. 249. 252. 255.
      254. 255. 252. 252. 254. 254. 250. 249. 251. 252. 250. 248. 250.
      250. 247. 250. 241. 169. 0. 0. 0. 25. 9. 58. 172. 251. 252. 254.
      251. 254. 252. 252. 254. 254. 251. 250. 252. 252. 250. 248. 250.
      251. 249. 251. 239. 163. 0. 0. 0. 23. 10. 49. 160. 250. 252. 253.
      248. 247. 238. 232. 242. 247. 251. 251. 247. 241. 238. 237. 244.
      249. 251. 253. 234. 153. 0. 0. 0. 22. 11. 36. 148. 242. 251. 252.
      246. 237. 216. 206. 223. 237. 250. 247. 232. 217. 211. 211. 223.
      237. 247. 249. 222. 133. 0. 0. 0. 30. 18. 21. 119. 221. 246. 242.
      216. 175. 176. 193. 188. 175. 218. 214. 186. 192. 191. 175. 170.
      194. 224. 232. 200. 110. 0. 0. 0. 37. 23. 24. 111. 187. 184. 149.
      113. 98. 140. 194. 194. 113. 116. 121. 130. 183. 183. 128. 79.
      104. 146. 168. 157. 96. 0. 0. 0. 37. 21. 24. 85. 122. 107. 79. 53.
      48. 95. 153. 153. 70. 44. 44. 84. 155. 149. 81. 31. 39. 63. 80.
      80. 51. 0. 0. 0. 0. 0. 0. 0. 0. 0. 0. 0. 0. 0. 0. 0. 0. 0. 0. 0.
      0. 0. 0. 0. 0. 0. 0. 0. 0. 0. 0. 0. 0. 0. 0. 0. 0. 0. 0. 0. 0. 0.
      0. 0. 0. 0. 0. 0. 0. 0. 0. 0. 0. 0. 0. 0. 0. 0. 0. 0.</_>
    <_>
      39. 46. 33. 47. 49. 55. 46. 59. 61. 47. 83. 150. 181. 185. 189.
      175. 126. 78. 61. 70. 58. 52. 50. 37. 20. 0. 0. 0. 36. 39. 43. 43.
      51. 57. 44. 64. 90. 105. 156. 215. 234. 234. 238. 233. 197. 143.
      107. 101. 55. 40. 52. 39. 21. 0. 0. 0. 41. 39. 54. 47. 47. 40. 34.
      96. 169. 203. 221. 241. 247. 247. 247. 248. 240. 220. 195. 168.
      79. 44. 41. 37. 22. 0. 0. 0. 38. 31. 47. 50. 21. 31. 71. 168. 223.
      239. 239. 242. 247. 250. 250. 247. 246. 246. 240. 220. 151. 79.
      28. 23. 24. 0. 0. 0. 46. 47. 50. 34. 10. 79. 161. 229. 244. 246.
      246. 248. 250. 252. 251. 249. 246. 248. 247. 245. 225. 151. 55.
      18. 18. 0. 0. 0. 46. 56. 38. 19. 30. 166. 230. 247. 245. 245. 250.
      253. 253. 252. 253. 253. 253. 253. 252. 251. 247. 224. 145. 44.
      11. 0. 0. 0. 45. 87. 62. 30. 59. 222. 249. 247. 248. 250. 250.
      252. 253. 252. 252. 253. 253. 252. 251. 248. 245. 246. 213. 83.
      13. 0. 0. 0. 110. 204. 169. 56. 66. 232. 250. 249. 253. 251. 252.
      252. 254. 254. 253. 253. 253. 254. 254. 251. 246. 252. 229. 102.
      17. 0. 0. 0. 151. 243. 196. 75. 75. 234. 251. 253. 252. 249. 252.
      253. 254. 254. 252. 250. 252. 254. 253. 252. 252. 252. 230. 106.
      18. 0. 0. 0. 148. 235. 187. 86. 116. 242. 251. 254. 249. 251. 251.
      252. 252. 252. 252. 253. 253. 251. 249. 249. 250. 251. 233. 137.
      40. 0. 0. 0. 86. 137. 115. 98. 175. 249. 250. 251. 245. 250. 248.
      252. 252. 251. 251. 252. 253. 251. 249. 250. 250. 251. 240. 176.
      78. 0. 0. 0. 47. 51. 51. 117. 222. 251. 247. 245. 239. 248. 242.
      249. 250. 252. 252. 251. 250. 247. 245. 245. 247. 249. 247. 210.
      116. 0. 0. 0. 45. 26. 42. 143. 245. 249. 245. 240. 233. 238. 240.
      247. 248. 252. 253. 249. 243. 236. 230. 232. 240. 244. 247. 231.
      144. 0. 0. 0. 39. 23. 58. 166. 249. 248. 245. 236. 222. 204. 230.
      237. 239. 247. 249. 246. 235. 222. 211. 217. 235. 242. 243. 235.
      158. 0. 0. 0. 34. 18. 64. 175. 249. 248. 244. 233. 210. 183. 221.
      236. 239. 247. 248. 245. 233. 216. 201. 212. 235. 242. 244. 235.
      164. 0. 0. 0. 36. 18. 60. 173. 250. 248. 245. 232. 214. 202. 221.
      239. 240. 249. 250. 247. 238. 225. 213. 221. 238. 244. 246. 237.
      165. 0. 0. 0. 34. 15. 55. 174. 251. 250. 248. 238. 233. 230. 230.
      241. 241. 250. 251. 248. 245. 236. 229. 233. 241. 245. 247. 238.
      163. 0. 0. 0. 34. 17. 55. 169. 245. 252. 249. 243. 247. 246. 238.
      248. 247. 252. 247. 250. 249. 244. 242. 243. 246. 247. 248. 239.
      163. 0. 0. 0. 34. 16. 60. 179. 247. 251. 252. 252. 251. 251. 248.
      251. 251. 253. 245. 252. 251. 250. 250. 251. 252. 249. 247. 238.
      160. 0. 0. 0. 36. 14. 51. 176. 246. 251. 252. 251. 247. 247. 250.
      246. 247. 252. 247. 248. 248. 250. 248. 246. 247. 251. 253. 241.
      157. 0. 0. 0. 33. 13. 49. 177. 247. 251. 247. 246. 248. 248. 248.
      246. 239. 235. 235. 245. 245. 248. 241. 245. 241. 244. 250. 235.
      145. 0. 0. 0. 21. 13. 46. 176. 244. 229. 199. 199. 231. 247. 245.
      241. 206. 162. 165. 224. 248. 248. 248. 232. 199. 209. 238. 240.
      143. 0. 0. 0. 17. 10. 39. 180. 243. 194. 119. 110. 173. 232. 245.
      231. 163. 62. 57. 162. 239. 238. 228. 157. 97. 127. 202. 237. 145.
      0. 0. 0. 38. 17. 34. 174. 216. 146. 62. 40. 100. 190. 234. 218.
      143. 29. 22. 130. 238. 236. 193. 84. 29. 57. 140. 193. 123. 0. 0.
      0. 69. 27. 20. 138. 144. 79. 34. 20. 46. 123. 188. 177. 107. 25.
      23. 93. 201. 184. 122. 49. 21. 29. 81. 116. 74. 0. 0. 0. 0. 0. 0.
      0. 0. 0. 0. 0. 0. 0. 0. 0. 0. 0. 0. 0. 0. 0. 0. 0. 0. 0. 0. 0. 0.
      0. 0. 0. 0. 0. 0. 0. 0. 0. 0. 0. 0. 0. 0. 0. 0. 0. 0. 0. 0. 0. 0.
      0. 0. 0. 0. 0. 0. 0. 0. 0. 0. 0. 0. 0. 0. 0. 0. 0. 0. 0. 0. 0. 0.
      0. 0. 0. 0. 0. 0. 0. 0. 0. 0. 0. 0. 0. 0. 0.</_>
    <_>
      19. 33. 44. 61. 53. 53. 55. 46. 56. 82. 112. 140. 152. 154. 157.
      150. 118. 86. 41. 25. 46. 48. 34. 31. 40. 34. 0. 0. 16. 30. 48.
      67. 48. 46. 56. 66. 94. 146. 193. 225. 242. 245. 243. 240. 232.
      181. 100. 46. 38. 29. 28. 46. 44. 39. 0. 0. 15. 33. 49. 56. 40.
      59. 89. 142. 177. 215. 237. 246. 248. 250. 253. 250. 245. 239.
      214. 173. 123. 46. 14. 32. 37. 40. 0. 0. 15. 34. 41. 39. 42. 104.
      160. 215. 236. 245. 247. 244. 242. 246. 251. 252. 251. 251. 247.
      231. 190. 105. 33. 19. 23. 34. 0. 0. 15. 30. 33. 39. 76. 169. 223.
      240. 242. 245. 247. 251. 253. 253. 253. 251. 251. 252. 250. 243.
      231. 184. 100. 46. 18. 24. 0. 0. 15. 30. 39. 67. 138. 223. 242.
      248. 248. 245. 245. 249. 252. 253. 252. 251. 253. 253. 250. 248.
      246. 233. 180. 109. 27. 18. 0. 0. 17. 29. 48. 106. 195. 244. 241.
      246. 248. 251. 252. 253. 251. 250. 251. 253. 250. 247. 250. 248.
      243. 243. 227. 182. 48. 21. 0. 0. 19. 27. 51. 130. 226. 242. 245.
      245. 246. 249. 249. 246. 245. 247. 249. 250. 248. 244. 246. 243.
      235. 231. 226. 204. 61. 25. 0. 0. 19. 24. 54. 138. 230. 243. 242.
      245. 244. 244. 240. 235. 234. 239. 245. 249. 249. 245. 241. 236.
      225. 208. 185. 165. 53. 27. 0. 0. 20. 26. 63. 146. 231. 245. 244.
      243. 242. 238. 230. 224. 223. 228. 234. 243. 248. 245. 241. 235.
      217. 186. 154. 126. 60. 27. 0. 0. 23. 49. 107. 180. 238. 245. 244.
      242. 241. 237. 229. 221. 220. 224. 227. 238. 245. 242. 239. 233.
      217. 188. 157. 132. 114. 56. 0. 0. 30. 83. 167. 225. 245. 246.
      246. 246. 246. 244. 236. 228. 226. 228. 232. 242. 246. 243. 240.
      236. 228. 216. 197. 188. 178. 100. 0. 0. 28. 92. 183. 233. 244.
      246. 248. 248. 248. 248. 245. 238. 237. 237. 239. 247. 251. 248.
      246. 244. 242. 239. 233. 227. 205. 120. 0. 0. 26. 84. 175. 228.
      242. 246. 249. 249. 250. 252. 252. 248. 248. 244. 244. 249. 251.
      250. 249. 247. 245. 243. 240. 234. 207. 125. 0. 0. 28. 92. 183.
      234. 244. 245. 247. 250. 250. 253. 254. 255. 255. 253. 252. 251.
      251. 253. 255. 254. 253. 250. 246. 239. 210. 131. 0. 0. 30. 90.
      180. 233. 244. 245. 246. 249. 250. 252. 253. 255. 255. 253. 252.
      253. 252. 254. 255. 254. 254. 251. 247. 241. 211. 134. 0. 0. 29.
      91. 181. 233. 243. 243. 244. 248. 249. 251. 251. 254. 254. 252.
      254. 254. 250. 251. 253. 252. 251. 249. 246. 241. 214. 134. 0. 0.
      25. 90. 181. 232. 244. 246. 246. 248. 250. 252. 252. 254. 254.
      251. 254. 254. 254. 254. 254. 250. 249. 248. 246. 239. 211. 134.
      0. 0. 24. 91. 183. 230. 244. 249. 250. 250. 250. 249. 248. 255.
      255. 252. 253. 248. 249. 252. 251. 250. 250. 249. 247. 236. 202.
      131. 0. 0. 23. 89. 182. 231. 243. 245. 245. 247. 249. 249. 248.
      254. 254. 250. 252. 251. 246. 250. 252. 250. 248. 248. 245. 235.
      198. 124. 0. 0. 20. 70. 165. 226. 243. 239. 237. 240. 239. 238.
      236. 241. 242. 240. 243. 242. 227. 225. 239. 244. 243. 243. 243.
      231. 189. 109. 0. 0. 19. 42. 121. 199. 233. 240. 242. 235. 207.
      178. 182. 216. 241. 241. 241. 231. 177. 155. 188. 222. 235. 237.
      236. 212. 149. 72. 0. 0. 23. 23. 67. 137. 195. 213. 220. 203. 147.
      101. 108. 161. 201. 211. 207. 191. 115. 79. 113. 170. 201. 202.
      194. 161. 97. 42. 0. 0. 35. 21. 32. 72. 118. 139. 132. 114. 81.
      46. 44. 75. 105. 118. 120. 107. 58. 34. 57. 91. 113. 117. 107. 80.
      41. 21. 0. 0. 57. 41. 38. 55. 65. 61. 58. 57. 53. 48. 51. 63. 79.
      88. 88. 72. 58. 53. 58. 59. 57. 59. 64. 62. 44. 47. 0. 0. 73. 98.
      119. 133. 139. 135. 138. 139. 129. 121. 117. 116. 116. 120. 120.
      106. 105. 109. 114. 122. 130. 138. 145. 153. 152. 141. 0. 0. 0. 0.
      0. 0. 0. 0. 0. 0. 0. 0. 0. 0. 0. 0. 0. 0. 0. 0. 0. 0. 0. 0. 0. 0.
      0. 0. 0. 0. 0. 0. 0. 0. 0. 0. 0. 0. 0. 0. 0. 0. 0. 0. 0. 0. 0. 0.
      0. 0. 0. 0. 0. 0. 0. 0. 0. 0.</_>
    <_>
      51. 43. 38. 33. 46. 44. 41. 44. 32. 20. 48. 109. 157. 164. 161.
      143. 93. 34. 15. 38. 38. 37. 42. 26. 12. 0. 0. 0. 33. 33. 34. 42.
      44. 54. 39. 37. 32. 26. 90. 180. 236. 249. 248. 230. 162. 75. 29.
      32. 33. 34. 43. 25. 11. 0. 0. 0. 37. 45. 47. 44. 34. 35. 29. 41.
      64. 69. 138. 210. 244. 247. 246. 248. 213. 146. 101. 67. 37. 32.
      28. 25. 13. 0. 0. 0. 45. 49. 43. 40. 24. 25. 70. 92. 123. 120.
      170. 218. 245. 248. 248. 249. 221. 169. 141. 136. 115. 71. 20. 16.
      15. 0. 0. 0. 48. 48. 41. 32. 26. 67. 169. 179. 167. 158. 200. 226.
      242. 247. 248. 248. 233. 200. 182. 189. 196. 150. 57. 17. 15. 0.
      0. 0. 49. 51. 43. 23. 47. 148. 226. 227. 204. 205. 226. 231. 242.
      247. 247. 247. 240. 223. 211. 214. 223. 214. 141. 43. 15. 0. 0. 0.
      51. 51. 35. 22. 86. 223. 233. 239. 239. 239. 242. 242. 246. 250.
      249. 249. 246. 240. 234. 234. 233. 239. 215. 84. 19. 0. 0. 0. 52.
      46. 28. 32. 111. 244. 244. 246. 242. 239. 244. 244. 249. 251. 251.
      251. 249. 246. 243. 243. 241. 243. 232. 121. 28. 0. 0. 0. 53. 46.
      30. 40. 118. 239. 253. 252. 249. 251. 251. 251. 252. 252. 253.
      254. 252. 250. 246. 243. 248. 245. 230. 156. 41. 0. 0. 0. 50. 41.
      25. 47. 148. 252. 251. 244. 252. 252. 251. 252. 253. 252. 254.
      255. 253. 252. 250. 246. 250. 249. 239. 185. 55. 0. 0. 0. 44. 27.
      34. 108. 212. 246. 242. 251. 251. 251. 254. 254. 254. 254. 253.
      254. 253. 253. 253. 251. 247. 249. 246. 207. 86. 0. 0. 0. 40. 24.
      66. 162. 240. 250. 250. 251. 251. 252. 254. 254. 255. 255. 253.
      253. 253. 254. 253. 251. 251. 253. 248. 232. 175. 0. 0. 0. 37. 28.
      85. 192. 244. 249. 253. 252. 252. 253. 254. 254. 254. 254. 253.
      252. 253. 253. 253. 252. 250. 253. 252. 243. 185. 0. 0. 0. 92.
      125. 178. 235. 249. 250. 253. 252. 252. 253. 254. 254. 254. 254.
      253. 252. 253. 253. 253. 252. 250. 252. 252. 244. 191. 0. 0. 0.
      186. 238. 243. 249. 252. 252. 253. 253. 253. 253. 255. 255. 254.
      254. 252. 252. 253. 253. 253. 252. 251. 252. 250. 243. 189. 0. 0.
      0. 186. 243. 244. 245. 250. 250. 250. 254. 255. 253. 254. 254.
      253. 253. 252. 252. 252. 253. 253. 254. 252. 251. 249. 242. 184.
      0. 0. 0. 107. 165. 197. 232. 251. 249. 249. 253. 253. 253. 254.
      254. 253. 253. 252. 252. 252. 253. 252. 253. 253. 251. 249. 241.
      183. 0. 0. 0. 46. 55. 121. 211. 252. 249. 249. 252. 251. 251. 253.
      253. 253. 253. 252. 251. 252. 253. 252. 252. 253. 251. 250. 241.
      181. 0. 0. 0. 34. 15. 87. 202. 251. 250. 247. 249. 250. 252. 253.
      253. 253. 253. 252. 251. 252. 253. 253. 253. 254. 252. 250. 242.
      178. 0. 0. 0. 35. 12. 88. 205. 249. 245. 233. 233. 244. 246. 250.
      251. 250. 251. 252. 251. 250. 250. 251. 247. 232. 234. 246. 240.
      172. 0. 0. 0. 36. 14. 89. 207. 244. 222. 190. 190. 228. 246. 250.
      246. 237. 231. 236. 246. 251. 251. 239. 206. 170. 180. 221. 237.
      171. 0. 0. 0. 39. 13. 85. 203. 231. 182. 120. 111. 167. 223. 245.
      243. 212. 159. 160. 214. 239. 238. 213. 150. 102. 109. 170. 214.
      164. 0. 0. 0. 44. 17. 68. 174. 193. 142. 82. 58. 91. 169. 237.
      233. 173. 89. 76. 152. 209. 218. 174. 103. 66. 67. 112. 154. 118.
      0. 0. 0. 48. 31. 50. 114. 122. 108. 87. 63. 55. 84. 120. 132. 121.
      85. 66. 87. 124. 139. 111. 71. 65. 67. 81. 87. 57. 0. 0. 0. 0. 0.
      0. 0. 0. 0. 0. 0. 0. 0. 0. 0. 0. 0. 0. 0. 0. 0. 0. 0. 0. 0. 0. 0.
      0. 0. 0. 0. 0. 0. 0. 0. 0. 0. 0. 0. 0. 0. 0. 0. 0. 0. 0. 0. 0. 0.
      0. 0. 0. 0. 0. 0. 0. 0. 0. 0. 0. 0. 0. 0. 0. 0. 0. 0. 0. 0. 0. 0.
      0. 0. 0. 0. 0. 0. 0. 0. 0. 0. 0. 0. 0. 0. 0. 0. 0. 0. 0. 0. 0. 0.
      0. 0. 0. 0. 0. 0. 0. 0. 0. 0. 0. 0. 0. 0. 0. 0. 0. 0. 0. 0. 0. 0.</_>
    <_>
      37. 35. 36. 39. 40. 38. 34. 27. 24. 27. 70. 105. 123. 133. 130.
      127. 121. 98. 60. 34. 35. 43. 48. 53. 54. 43. 49. 0. 47. 46. 46.
      49. 48. 43. 34. 24. 27. 82. 154. 205. 217. 222. 221. 221. 217.
      185. 125. 76. 55. 47. 47. 59. 60. 42. 44. 0. 47. 46. 40. 46. 44.
      26. 39. 93. 140. 198. 225. 246. 250. 249. 250. 250. 250. 235. 206.
      174. 139. 84. 36. 27. 47. 59. 49. 0. 39. 52. 53. 31. 14. 34. 103.
      186. 225. 238. 248. 252. 252. 251. 251. 252. 251. 248. 247. 245.
      219. 152. 76. 32. 33. 54. 53. 0. 34. 43. 37. 23. 40. 103. 181.
      236. 246. 247. 250. 252. 252. 252. 252. 252. 252. 249. 249. 245.
      237. 213. 154. 76. 35. 35. 45. 0. 53. 39. 19. 33. 99. 178. 227.
      245. 244. 250. 250. 251. 251. 253. 254. 253. 253. 248. 251. 249.
      248. 247. 221. 155. 78. 27. 38. 0. 48. 24. 17. 78. 171. 228. 240.
      243. 244. 250. 250. 252. 252. 254. 254. 253. 253. 246. 250. 251.
      249. 248. 242. 213. 135. 42. 38. 0. 38. 17. 22. 102. 198. 239.
      238. 239. 245. 249. 250. 252. 253. 253. 252. 251. 251. 253. 252.
      247. 249. 248. 244. 229. 158. 55. 38. 0. 56. 26. 20. 77. 155. 200.
      220. 232. 240. 246. 247. 250. 250. 247. 241. 239. 241. 249. 247.
      250. 252. 244. 241. 230. 158. 51. 32. 0. 57. 28. 21. 59. 113. 157.
      197. 224. 235. 242. 243. 247. 247. 240. 229. 226. 228. 234. 239.
      247. 248. 241. 244. 236. 173. 82. 40. 0. 145. 100. 70. 86. 122.
      157. 193. 219. 232. 240. 243. 247. 247. 241. 228. 223. 227. 236.
      237. 245. 248. 249. 249. 242. 216. 159. 76. 0. 227. 186. 142. 145.
      169. 192. 209. 222. 231. 238. 241. 246. 245. 241. 236. 231. 229.
      239. 241. 246. 248. 251. 252. 249. 247. 218. 128. 0. 248. 215.
      186. 195. 214. 225. 230. 232. 236. 241. 243. 248. 247. 245. 243.
      239. 238. 242. 244. 248. 249. 251. 252. 253. 254. 231. 151. 0.
      179. 166. 181. 217. 236. 242. 244. 245. 248. 251. 252. 253. 252.
      253. 252. 248. 248. 249. 250. 251. 251. 252. 252. 251. 251. 218.
      129. 0. 71. 85. 154. 217. 239. 243. 245. 246. 249. 251. 252. 253.
      253. 254. 253. 251. 251. 252. 252. 253. 253. 252. 251. 248. 247.
      203. 110. 0. 17. 42. 151. 226. 244. 246. 248. 250. 252. 253. 252.
      252. 252. 254. 253. 251. 251. 252. 252. 253. 253. 252. 250. 247.
      244. 195. 100. 0. 12. 39. 163. 237. 246. 246. 247. 250. 252. 253.
      252. 252. 252. 254. 254. 252. 251. 253. 253. 254. 254. 252. 250.
      246. 243. 195. 101. 0. 14. 37. 161. 236. 245. 248. 248. 250. 251.
      252. 253. 253. 253. 254. 254. 252. 251. 253. 253. 254. 254. 252.
      251. 247. 244. 196. 102. 0. 13. 34. 155. 232. 245. 248. 248. 250.
      251. 251. 252. 253. 254. 254. 254. 253. 251. 253. 252. 253. 253.
      252. 251. 248. 244. 193. 99. 0. 10. 32. 158. 238. 249. 244. 247.
      248. 249. 250. 251. 252. 252. 253. 252. 249. 246. 246. 251. 251.
      251. 251. 250. 245. 241. 187. 93. 0. 10. 38. 144. 224. 249. 248.
      249. 249. 233. 231. 244. 252. 250. 248. 244. 231. 215. 223. 247.
      249. 248. 248. 244. 235. 240. 188. 96. 0. 20. 32. 96. 183. 247.
      247. 244. 216. 157. 147. 187. 233. 245. 242. 230. 186. 142. 181.
      239. 247. 235. 241. 212. 183. 200. 170. 93. 0. 20. 16. 39. 116.
      216. 232. 220. 166. 84. 59. 108. 188. 225. 224. 198. 129. 65. 119.
      203. 230. 225. 232. 170. 102. 109. 123. 79. 0. 38. 26. 14. 45.
      117. 132. 136. 93. 39. 21. 47. 114. 151. 151. 122. 71. 31. 65.
      116. 126. 122. 138. 90. 44. 52. 80. 58. 0. 0. 0. 0. 0. 0. 0. 0. 0.
      0. 0. 0. 0. 0. 0. 0. 0. 0. 0. 0. 0. 0. 0. 0. 0. 0. 0. 0. 0. 0. 0.
      0. 0. 0. 0. 0. 0. 0. 0. 0. 0. 0. 0. 0. 0. 0. 0. 0. 0. 0. 0. 0. 0.
      0. 0. 0. 0. 0. 0. 0. 0. 0. 0. 0. 0. 0. 0. 0. 0. 0. 0. 0. 0. 0. 0.
      0. 0. 0. 0. 0. 0. 0. 0. 0. 0. 0. 0. 0. 0. 0. 0. 0. 0. 0. 0. 0. 0.
      0. 0. 0. 0. 0. 0. 0. 0. 0. 0. 0. 0. 0. 0. 0. 0.</_>
    <_>
      36. 32. 45. 47. 36. 34. 43. 58. 90. 130. 169. 182. 177. 175. 177.
      179. 172. 125. 61. 34. 43. 45. 45. 56. 49. 44. 0. 0. 36. 41. 43.
      31. 27. 55. 94. 128. 169. 191. 210. 213. 208. 205. 197. 195. 189.
      173. 142. 116. 88. 56. 39. 54. 50. 45. 0. 0. 35. 39. 31. 24. 51.
      112. 168. 196. 210. 212. 212. 211. 210. 209. 200. 196. 193. 191.
      192. 182. 144. 83. 43. 46. 51. 47. 0. 0. 32. 25. 20. 47. 108. 173.
      210. 210. 203. 209. 217. 219. 223. 227. 230. 228. 219. 213. 207.
      205. 185. 134. 78. 53. 52. 48. 0. 0. 32. 25. 42. 102. 171. 207.
      211. 207. 208. 213. 220. 222. 225. 223. 224. 225. 223. 219. 212.
      212. 206. 185. 128. 76. 53. 49. 0. 0. 31. 35. 79. 161. 208. 210.
      205. 214. 222. 222. 223. 226. 228. 228. 228. 227. 225. 223. 218.
      213. 207. 208. 174. 117. 56. 49. 0. 0. 29. 38. 106. 190. 218. 212.
      211. 219. 224. 225. 225. 226. 226. 227. 228. 228. 227. 226. 223.
      215. 206. 212. 203. 164. 61. 53. 0. 0. 25. 30. 99. 179. 208. 216.
      222. 225. 227. 230. 230. 228. 225. 223. 224. 226. 227. 227. 228.
      223. 215. 213. 206. 171. 64. 53. 0. 0. 22. 32. 81. 143. 171. 197.
      216. 224. 227. 229. 229. 225. 219. 217. 219. 222. 225. 228. 230.
      227. 221. 213. 207. 179. 74. 49. 0. 0. 29. 58. 97. 131. 154. 184.
      206. 218. 222. 224. 223. 218. 212. 209. 210. 214. 219. 223. 227.
      225. 220. 213. 208. 186. 107. 59. 0. 0. 48. 105. 148. 161. 171.
      191. 206. 218. 222. 223. 222. 217. 210. 207. 207. 210. 214. 219.
      224. 223. 220. 214. 208. 201. 165. 90. 0. 0. 67. 152. 195. 193.
      194. 203. 206. 219. 224. 225. 224. 220. 215. 212. 210. 213. 216.
      220. 225. 224. 221. 215. 208. 211. 192. 110. 0. 0. 77. 180. 212.
      197. 197. 207. 209. 221. 224. 226. 226. 222. 219. 216. 215. 217.
      219. 224. 227. 227. 224. 217. 210. 209. 190. 112. 0. 0. 81. 186.
      210. 198. 201. 217. 221. 224. 225. 228. 229. 226. 225. 222. 220.
      222. 223. 226. 229. 227. 224. 218. 210. 209. 190. 118. 0. 0. 81.
      188. 213. 199. 201. 218. 221. 225. 226. 229. 230. 229. 229. 226.
      225. 228. 228. 230. 231. 228. 224. 216. 209. 211. 193. 122. 0. 0.
      87. 185. 214. 205. 209. 220. 220. 228. 228. 230. 230. 228. 228.
      227. 225. 228. 228. 229. 230. 227. 224. 216. 209. 210. 193. 121.
      0. 0. 90. 183. 213. 207. 212. 222. 222. 229. 228. 230. 231. 228.
      229. 230. 226. 228. 226. 224. 225. 220. 217. 212. 207. 208. 193.
      123. 0. 0. 84. 178. 215. 207. 209. 215. 216. 224. 224. 225. 226.
      225. 226. 228. 228. 229. 226. 224. 224. 219. 215. 211. 206. 207.
      193. 122. 0. 0. 89. 179. 216. 205. 202. 207. 212. 220. 220. 219.
      218. 217. 214. 215. 216. 222. 219. 222. 224. 220. 217. 213. 204.
      206. 192. 118. 0. 0. 85. 171. 207. 193. 189. 194. 200. 206. 209.
      208. 208. 208. 202. 200. 208. 212. 214. 221. 220. 210. 204. 201.
      192. 203. 191. 112. 0. 0. 84. 173. 205. 190. 182. 178. 178. 188.
      195. 192. 190. 187. 178. 177. 186. 187. 189. 194. 194. 187. 186.
      187. 185. 198. 183. 105. 0. 0. 82. 156. 184. 171. 160. 145. 146.
      177. 191. 190. 186. 181. 164. 164. 184. 188. 187. 185. 172. 160.
      161. 172. 176. 183. 162. 98. 0. 0. 50. 93. 111. 110. 105. 96. 99.
      140. 163. 167. 164. 158. 138. 137. 169. 181. 174. 160. 131. 109.
      111. 124. 131. 132. 117. 78. 0. 0. 0. 0. 0. 0. 0. 0. 0. 0. 0. 0.
      0. 0. 0. 0. 0. 0. 0. 0. 0. 0. 0. 0. 0. 0. 0. 0. 0. 0. 0. 0. 0. 0.
      0. 0. 0. 0. 0. 0. 0. 0. 0. 0. 0. 0. 0. 0. 0. 0. 0. 0. 0. 0. 0. 0.
      0. 0. 0. 0. 0. 0. 0. 0. 0. 0. 0. 0. 0. 0. 0. 0. 0. 0. 0. 0. 0. 0.
      0. 0. 0. 0. 0. 0. 0. 0. 0. 0. 0. 0. 0. 0. 0. 0. 0. 0. 0. 0. 0. 0.
      0. 0. 0. 0. 0. 0. 0. 0. 0. 0. 0. 0. 0. 0. 0. 0. 0. 0. 0. 0. 0. 0.
      0. 0. 0. 0. 0. 0. 0. 0. 0. 0. 0. 0. 0. 0. 0. 0. 0. 0. 0. 0.</_>
    <_>
      40. 42. 43. 51. 58. 56. 48. 37. 44. 82. 126. 161. 170. 169. 161.
      145. 115. 73. 54. 50. 52. 58. 60. 55. 49. 70. 0. 0. 43. 44. 52.
      50. 40. 39. 52. 81. 116. 155. 192. 205. 206. 207. 210. 206. 179.
      132. 98. 68. 45. 49. 53. 42. 41. 49. 0. 0. 42. 46. 52. 41. 31. 58.
      110. 163. 194. 207. 216. 219. 215. 214. 217. 217. 209. 193. 176.
      144. 89. 42. 32. 42. 35. 40. 0. 0. 44. 45. 40. 31. 46. 112. 185.
      215. 217. 217. 219. 222. 224. 224. 223. 221. 219. 215. 211. 200.
      154. 81. 40. 32. 24. 29. 0. 0. 49. 42. 29. 43. 101. 173. 217. 222.
      219. 223. 225. 227. 230. 231. 229. 226. 222. 217. 214. 215. 205.
      154. 78. 34. 21. 27. 0. 0. 51. 35. 33. 95. 178. 217. 221. 220.
      221. 228. 231. 233. 235. 235. 236. 234. 229. 226. 224. 220. 219.
      206. 153. 72. 24. 31. 0. 0. 47. 33. 48. 140. 215. 227. 223. 231.
      233. 235. 236. 237. 235. 234. 235. 236. 232. 229. 229. 221. 218.
      221. 202. 114. 29. 34. 0. 0. 47. 31. 56. 157. 219. 225. 227. 238.
      240. 240. 239. 235. 234. 232. 230. 234. 234. 235. 237. 230. 225.
      222. 217. 125. 36. 34. 0. 0. 39. 33. 55. 114. 201. 214. 216. 231.
      235. 240. 239. 234. 228. 223. 222. 225. 232. 240. 238. 235. 231.
      221. 217. 127. 39. 32. 0. 0. 40. 53. 74. 105. 166. 193. 210. 227.
      230. 239. 239. 232. 221. 211. 205. 209. 214. 228. 234. 235. 229.
      222. 219. 154. 65. 37. 0. 0. 86. 158. 175. 171. 172. 185. 209.
      226. 228. 236. 236. 229. 218. 207. 200. 209. 214. 229. 234. 236.
      231. 224. 222. 193. 112. 55. 0. 0. 143. 225. 224. 212. 196. 199.
      210. 223. 225. 233. 233. 228. 220. 211. 206. 212. 216. 229. 233.
      235. 231. 225. 222. 218. 154. 73. 0. 0. 146. 229. 221. 214. 211.
      213. 214. 225. 226. 234. 234. 231. 228. 218. 215. 216. 218. 230.
      233. 234. 232. 226. 223. 223. 173. 82. 0. 0. 106. 195. 220. 218.
      218. 218. 218. 229. 230. 234. 235. 234. 233. 230. 229. 229. 230.
      235. 236. 236. 234. 227. 224. 222. 187. 82. 0. 0. 66. 153. 218.
      223. 222. 221. 223. 231. 232. 235. 234. 234. 233. 230. 230. 231.
      231. 236. 236. 236. 234. 228. 223. 222. 193. 85. 0. 0. 51. 136.
      219. 224. 224. 224. 228. 233. 234. 234. 234. 234. 233. 234. 236.
      236. 236. 234. 235. 234. 233. 229. 223. 219. 190. 87. 0. 0. 50.
      127. 219. 223. 222. 225. 227. 232. 233. 235. 235. 234. 234. 236.
      237. 237. 236. 233. 234. 233. 232. 229. 224. 219. 187. 83. 0. 0.
      51. 126. 212. 223. 219. 227. 226. 228. 230. 240. 239. 231. 235.
      237. 235. 231. 231. 234. 234. 233. 233. 230. 224. 221. 196. 82. 0.
      0. 55. 124. 203. 224. 225. 228. 227. 230. 229. 231. 233. 234. 238.
      235. 232. 230. 229. 231. 232. 233. 233. 228. 219. 217. 212. 87. 0.
      0. 51. 120. 197. 226. 226. 228. 229. 227. 224. 218. 220. 224. 226.
      229. 227. 223. 221. 217. 221. 225. 225. 224. 221. 216. 213. 95. 0.
      0. 48. 110. 192. 225. 218. 217. 220. 215. 214. 208. 211. 220. 219.
      221. 226. 219. 209. 200. 207. 215. 214. 218. 225. 216. 187. 86. 0.
      0. 46. 90. 163. 211. 212. 204. 206. 202. 181. 165. 182. 207. 209.
      206. 210. 201. 172. 164. 188. 210. 209. 208. 217. 203. 135. 56. 0.
      0. 43. 59. 106. 175. 207. 207. 203. 171. 121. 101. 133. 183. 204.
      201. 201. 179. 121. 109. 149. 195. 204. 199. 191. 153. 77. 38. 0.
      0. 41. 40. 59. 116. 158. 171. 155. 115. 77. 65. 86. 136. 185. 210.
      216. 175. 86. 63. 104. 153. 178. 173. 144. 88. 55. 40. 0. 0. 42.
      42. 49. 72. 87. 93. 93. 84. 73. 67. 65. 90. 153. 212. 232. 181.
      77. 44. 67. 97. 113. 108. 84. 61. 42. 39. 0. 0. 39. 39. 48. 58.
      74. 73. 72. 71. 67. 57. 47. 62. 124. 201. 225. 163. 64. 40. 57.
      66. 77. 85. 78. 70. 42. 35. 0. 0. 48. 36. 41. 49. 61. 67. 67. 67.
      63. 55. 46. 54. 94. 159. 178. 111. 40. 38. 58. 61. 66. 70. 64. 56.
      37. 32. 0. 0. 0. 0. 0. 0. 0. 0. 0. 0. 0. 0. 0. 0. 0. 0. 0. 0. 0.
      0. 0. 0. 0. 0. 0. 0. 0. 0. 0. 0.</_>
    <_>
      55. 52. 43. 49. 57. 56. 53. 49. 46. 31. 60. 148. 201. 200. 199.
      193. 145. 54. 33. 48. 45. 46. 54. 56. 51. 51. 48. 44. 55. 47. 43.
      56. 57. 45. 38. 41. 63. 75. 120. 204. 248. 251. 252. 252. 201. 91.
      57. 66. 61. 50. 42. 50. 51. 54. 51. 45. 51. 47. 51. 59. 43. 31.
      45. 78. 116. 145. 180. 224. 244. 248. 251. 246. 208. 161. 161.
      143. 84. 34. 23. 50. 52. 56. 54. 47. 50. 47. 51. 46. 22. 43. 115.
      161. 176. 188. 205. 231. 244. 248. 249. 248. 225. 189. 190. 196.
      188. 132. 46. 21. 45. 53. 55. 47. 38. 55. 55. 26. 16. 100. 199.
      222. 215. 215. 224. 237. 244. 247. 250. 252. 240. 224. 213. 210.
      224. 193. 94. 25. 36. 47. 52. 47. 44. 57. 43. 14. 47. 179. 238.
      240. 239. 241. 243. 246. 249. 251. 253. 251. 245. 245. 247. 244.
      243. 235. 166. 45. 20. 41. 52. 55. 59. 63. 35. 17. 81. 221. 245.
      247. 247. 249. 249. 250. 251. 252. 253. 252. 250. 249. 249. 248.
      248. 248. 193. 70. 17. 45. 56. 53. 66. 59. 35. 20. 87. 233. 250.
      252. 252. 253. 253. 252. 252. 251. 251. 250. 249. 250. 252. 252.
      252. 250. 195. 75. 12. 39. 62. 71. 117. 91. 40. 24. 89. 239. 250.
      252. 252. 253. 253. 252. 252. 251. 251. 249. 248. 250. 252. 253.
      252. 246. 196. 87. 17. 41. 79. 118. 156. 160. 115. 87. 129. 242.
      247. 254. 254. 253. 253. 253. 253. 253. 253. 252. 250. 252. 249.
      249. 249. 248. 220. 155. 109. 114. 134. 153. 119. 193. 217. 225.
      231. 249. 240. 254. 254. 253. 253. 253. 253. 253. 253. 251. 250.
      252. 250. 250. 251. 251. 243. 226. 216. 210. 194. 150. 99. 205.
      240. 245. 241. 249. 251. 252. 252. 253. 253. 254. 254. 253. 253.
      251. 250. 252. 253. 253. 253. 251. 249. 248. 247. 237. 208. 138.
      119. 197. 218. 239. 247. 249. 251. 252. 252. 254. 254. 254. 255.
      254. 254. 253. 251. 253. 249. 252. 253. 251. 251. 250. 233. 200.
      180. 143. 152. 151. 141. 199. 247. 245. 253. 247. 253. 252. 253.
      252. 252. 252. 253. 253. 250. 253. 250. 250. 250. 252. 253. 247.
      184. 118. 129. 156. 135. 88. 54. 139. 248. 253. 248. 253. 253.
      252. 249. 248. 252. 252. 253. 252. 250. 252. 253. 251. 251. 252.
      253. 242. 136. 41. 68. 131. 67. 40. 44. 149. 252. 252. 246. 254.
      254. 254. 253. 251. 253. 254. 249. 252. 251. 252. 253. 253. 253.
      253. 252. 245. 137. 37. 38. 60. 38. 25. 51. 153. 246. 251. 253.
      253. 251. 254. 254. 253. 253. 254. 250. 249. 252. 253. 251. 253.
      253. 254. 253. 246. 138. 39. 32. 49. 46. 19. 32. 138. 245. 252.
      253. 254. 253. 255. 255. 254. 251. 254. 253. 249. 252. 253. 251.
      252. 251. 251. 253. 245. 131. 31. 24. 44. 38. 21. 46. 158. 252.
      251. 252. 254. 252. 248. 248. 254. 252. 253. 253. 251. 250. 241.
      245. 252. 252. 247. 251. 253. 130. 32. 23. 43. 36. 20. 44. 151.
      244. 248. 250. 252. 238. 203. 196. 233. 253. 251. 250. 250. 225.
      186. 202. 242. 252. 249. 252. 248. 115. 22. 16. 32. 45. 19. 29.
      138. 237. 249. 250. 247. 205. 123. 108. 182. 244. 249. 246. 236.
      161. 87. 116. 213. 249. 250. 252. 217. 94. 28. 38. 47. 50. 29. 18.
      68. 160. 227. 250. 211. 125. 54. 42. 104. 201. 246. 241. 190. 88.
      17. 44. 155. 232. 243. 248. 146. 39. 13. 44. 53. 46. 33. 20. 35.
      93. 162. 196. 146. 61. 28. 26. 49. 129. 202. 190. 112. 36. 27. 28.
      65. 172. 205. 184. 48. 28. 34. 46. 50. 0. 0. 0. 0. 0. 0. 0. 0. 0.
      0. 0. 0. 0. 0. 0. 0. 0. 0. 0. 0. 0. 0. 0. 0. 0. 0. 0. 0. 0. 0. 0.
      0. 0. 0. 0. 0. 0. 0. 0. 0. 0. 0. 0. 0. 0. 0. 0. 0. 0. 0. 0. 0. 0.
      0. 0. 0. 0. 0. 0. 0. 0. 0. 0. 0. 0. 0. 0. 0. 0. 0. 0. 0. 0. 0. 0.
      0. 0. 0. 0. 0. 0. 0. 0. 0. 0. 0. 0. 0. 0. 0. 0. 0. 0. 0. 0. 0. 0.
      0. 0. 0. 0. 0. 0. 0. 0. 0. 0. 0. 0. 0. 0. 0. 0. 0. 0. 0. 0. 0. 0.
      0. 0. 0. 0. 0. 0. 0. 0. 0. 0. 0. 0. 0. 0. 0. 0. 0. 0. 0. 0. 0.</_>
    <_>
      59. 61. 60. 54. 53. 50. 39. 40. 63. 80. 99. 111. 131. 118. 79. 30.
      34. 49. 54. 52. 47. 47. 49. 0. 0. 0. 0. 0. 49. 52. 52. 40. 37. 35.
      42. 90. 172. 229. 247. 242. 243. 234. 193. 94. 60. 53. 42. 45. 51.
      51. 50. 0. 0. 0. 0. 0. 49. 48. 35. 19. 49. 107. 155. 203. 239.
      249. 248. 245. 241. 250. 242. 203. 172. 137. 63. 41. 42. 53. 57.
      0. 0. 0. 0. 0. 49. 41. 28. 40. 108. 195. 243. 253. 250. 245. 246.
      252. 250. 252. 244. 240. 237. 221. 133. 70. 36. 45. 63. 0. 0. 0.
      0. 0. 32. 21. 37. 115. 202. 248. 251. 249. 251. 251. 252. 252.
      244. 253. 248. 248. 250. 245. 209. 133. 56. 37. 52. 0. 0. 0. 0. 0.
      22. 32. 104. 201. 247. 247. 248. 250. 249. 251. 254. 253. 248.
      252. 252. 253. 251. 246. 249. 201. 120. 45. 37. 0. 0. 0. 0. 0. 23.
      79. 170. 231. 247. 247. 250. 250. 250. 251. 255. 254. 251. 252.
      253. 253. 252. 250. 254. 247. 212. 68. 40. 0. 0. 0. 0. 0. 26. 109.
      210. 246. 246. 247. 252. 252. 253. 252. 253. 251. 248. 248. 250.
      251. 254. 252. 252. 254. 222. 78. 41. 0. 0. 0. 0. 0. 26. 98. 191.
      235. 239. 246. 247. 247. 253. 253. 250. 244. 238. 239. 243. 247.
      253. 253. 248. 253. 225. 86. 34. 0. 0. 0. 0. 0. 30. 76. 152. 195.
      215. 234. 238. 241. 248. 248. 245. 234. 223. 224. 234. 243. 251.
      251. 246. 253. 226. 115. 37. 0. 0. 0. 0. 0. 50. 101. 150. 175.
      202. 228. 237. 241. 245. 246. 242. 226. 213. 214. 226. 237. 246.
      248. 250. 252. 241. 173. 89. 0. 0. 0. 0. 0. 104. 171. 189. 196.
      213. 232. 239. 245. 247. 248. 245. 230. 219. 219. 229. 238. 246.
      248. 253. 252. 248. 228. 159. 0. 0. 0. 0. 0. 160. 220. 223. 223.
      228. 235. 240. 247. 249. 250. 249. 240. 233. 232. 235. 240. 248.
      250. 252. 248. 253. 248. 202. 0. 0. 0. 0. 0. 179. 239. 244. 244.
      244. 246. 247. 250. 251. 251. 251. 247. 244. 242. 240. 243. 248.
      250. 252. 245. 252. 250. 216. 0. 0. 0. 0. 0. 184. 243. 249. 249.
      249. 249. 251. 252. 253. 251. 249. 249. 252. 251. 250. 250. 251.
      251. 251. 250. 249. 249. 206. 0. 0. 0. 0. 0. 186. 244. 250. 251.
      250. 251. 253. 254. 253. 251. 250. 249. 251. 253. 253. 252. 250.
      251. 253. 252. 250. 249. 201. 0. 0. 0. 0. 0. 191. 247. 250. 252.
      252. 254. 254. 254. 252. 251. 253. 253. 252. 254. 254. 253. 252.
      253. 252. 251. 251. 248. 194. 0. 0. 0. 0. 0. 186. 250. 249. 248.
      251. 253. 253. 253. 252. 247. 251. 253. 252. 254. 251. 251. 253.
      253. 253. 251. 252. 248. 191. 0. 0. 0. 0. 0. 181. 250. 248. 247.
      250. 251. 250. 253. 253. 252. 252. 252. 251. 252. 252. 252. 250.
      251. 250. 248. 251. 246. 180. 0. 0. 0. 0. 0. 177. 247. 247. 248.
      249. 250. 252. 253. 252. 252. 250. 248. 251. 252. 246. 247. 250.
      251. 248. 247. 250. 243. 172. 0. 0. 0. 0. 0. 178. 245. 246. 241.
      230. 235. 246. 251. 247. 247. 210. 191. 228. 245. 240. 244. 247.
      235. 226. 236. 248. 244. 172. 0. 0. 0. 0. 0. 169. 233. 233. 198.
      166. 178. 229. 249. 249. 247. 153. 99. 174. 235. 245. 246. 225.
      179. 163. 194. 230. 242. 173. 0. 0. 0. 0. 0. 143. 196. 187. 111.
      63. 83. 186. 242. 245. 230. 114. 69. 141. 217. 242. 229. 172. 101.
      80. 130. 185. 212. 149. 0. 0. 0. 0. 0. 105. 135. 121. 51. 21. 42.
      121. 176. 201. 158. 59. 32. 86. 154. 184. 161. 100. 44. 34. 69.
      109. 136. 100. 0. 0. 0. 0. 0. 0. 0. 0. 0. 0. 0. 0. 0. 0. 0. 0. 0.
      0. 0. 0. 0. 0. 0. 0. 0. 0. 0. 0. 0. 0. 0. 0. 0. 0. 0. 0. 0. 0. 0.
      0. 0. 0. 0. 0. 0. 0. 0. 0. 0. 0. 0. 0. 0. 0. 0. 0. 0. 0. 0. 0. 0.
      0. 0. 0. 0. 0. 0. 0. 0. 0. 0. 0. 0. 0. 0. 0. 0. 0. 0. 0. 0. 0. 0.
      0. 0. 0. 0. 0. 0. 0. 0. 0. 0. 0. 0. 0. 0. 0. 0. 0. 0. 0. 0. 0. 0.
      0. 0. 0. 0. 0. 0. 0. 0. 0. 0. 0. 0.</_>
    <_>
      42. 18. 37. 47. 44. 46. 47. 61. 108. 137. 154. 161. 163. 160. 132.
      94. 59. 49. 55. 60. 63. 62. 61. 65. 60. 0. 0. 0. 33. 37. 42. 37.
      42. 65. 96. 130. 185. 214. 216. 214. 214. 214. 211. 194. 146. 100.
      70. 45. 54. 63. 56. 56. 54. 0. 0. 0. 35. 41. 35. 38. 77. 138. 176.
      198. 214. 220. 220. 219. 218. 218. 215. 209. 197. 186. 147. 85.
      57. 58. 55. 55. 56. 0. 0. 0. 43. 29. 30. 75. 149. 201. 221. 222.
      224. 225. 226. 227. 226. 223. 219. 217. 214. 213. 207. 154. 81.
      52. 53. 56. 57. 0. 0. 0. 40. 29. 63. 142. 204. 220. 220. 222. 229.
      230. 232. 234. 234. 230. 227. 229. 223. 209. 213. 201. 140. 79.
      56. 55. 58. 0. 0. 0. 41. 52. 129. 201. 221. 224. 223. 225. 231.
      232. 236. 238. 237. 236. 233. 232. 226. 216. 215. 218. 197. 139.
      71. 56. 61. 0. 0. 0. 50. 71. 184. 227. 222. 232. 234. 234. 232.
      233. 236. 238. 240. 240. 239. 236. 231. 232. 225. 221. 223. 182.
      87. 53. 61. 0. 0. 0. 52. 79. 187. 229. 222. 229. 234. 235. 236.
      235. 235. 230. 234. 240. 242. 241. 238. 236. 230. 226. 225. 193.
      92. 50. 57. 0. 0. 0. 44. 83. 160. 207. 214. 217. 234. 239. 240.
      238. 230. 225. 218. 221. 227. 230. 237. 237. 232. 228. 225. 194.
      96. 53. 56. 0. 0. 0. 55. 97. 142. 172. 196. 216. 234. 237. 237.
      236. 229. 219. 208. 207. 216. 222. 237. 239. 234. 223. 222. 202.
      126. 79. 58. 0. 0. 0. 93. 144. 163. 166. 189. 207. 223. 224. 231.
      232. 223. 214. 201. 200. 211. 219. 236. 237. 233. 222. 224. 223.
      194. 181. 116. 0. 0. 0. 134. 196. 203. 194. 203. 208. 222. 225.
      230. 230. 222. 217. 207. 206. 214. 218. 232. 234. 233. 227. 227.
      229. 228. 233. 178. 0. 0. 0. 161. 216. 213. 213. 217. 218. 225.
      229. 233. 232. 228. 226. 221. 221. 223. 224. 232. 233. 232. 231.
      228. 227. 228. 231. 176. 0. 0. 0. 177. 218. 213. 215. 220. 220.
      228. 230. 234. 233. 231. 231. 229. 230. 230. 230. 235. 234. 230.
      230. 228. 226. 230. 224. 98. 0. 0. 0. 178. 222. 222. 225. 229.
      229. 232. 231. 235. 234. 235. 235. 234. 233. 232. 231. 233. 234.
      230. 231. 228. 227. 225. 194. 50. 0. 0. 0. 171. 224. 226. 226.
      228. 229. 233. 231. 234. 235. 237. 236. 236. 236. 235. 234. 232.
      237. 232. 232. 225. 224. 217. 168. 53. 0. 0. 0. 168. 217. 223.
      228. 231. 234. 237. 236. 234. 233. 234. 231. 231. 236. 236. 235.
      236. 236. 231. 229. 220. 225. 223. 178. 52. 0. 0. 0. 161. 216.
      222. 230. 235. 236. 237. 233. 228. 229. 232. 228. 228. 233. 233.
      232. 233. 228. 229. 234. 227. 223. 227. 185. 52. 0. 0. 0. 163.
      222. 221. 222. 222. 223. 225. 225. 225. 227. 230. 229. 228. 226.
      226. 231. 229. 233. 233. 229. 223. 231. 224. 173. 48. 0. 0. 0.
      161. 215. 211. 212. 210. 213. 217. 220. 222. 222. 220. 211. 212.
      215. 217. 223. 226. 225. 219. 215. 212. 214. 216. 174. 51. 0. 0.
      0. 161. 207. 202. 195. 186. 193. 203. 208. 210. 212. 202. 175.
      178. 202. 210. 214. 220. 212. 196. 198. 201. 202. 212. 174. 52. 0.
      0. 0. 150. 204. 204. 169. 144. 153. 181. 198. 202. 206. 184. 136.
      142. 189. 201. 202. 207. 187. 157. 156. 181. 199. 205. 159. 49. 0.
      0. 0. 111. 164. 168. 117. 85. 98. 143. 182. 195. 194. 153. 103.
      114. 171. 201. 204. 185. 135. 99. 108. 143. 180. 203. 160. 68. 0.
      0. 0. 55. 81. 87. 63. 52. 60. 94. 133. 148. 140. 101. 68. 84. 128.
      165. 170. 128. 73. 53. 59. 86. 144. 206. 201. 118. 0. 0. 0. 87.
      89. 89. 84. 86. 84. 85. 79. 78. 67. 53. 55. 66. 68. 82. 82. 70.
      59. 53. 46. 56. 127. 210. 234. 166. 0. 0. 0. 115. 116. 115. 115.
      122. 125. 110. 75. 59. 40. 40. 54. 57. 56. 58. 59. 57. 55. 51. 41.
      49. 115. 204. 230. 159. 0. 0. 0. 83. 87. 86. 84. 93. 100. 89. 72.
      66. 50. 42. 42. 43. 51. 52. 53. 53. 52. 48. 39. 43. 87. 161. 178.
      101. 0. 0. 0. 0. 0. 0. 0. 0. 0. 0. 0. 0. 0. 0. 0. 0. 0. 0. 0. 0.
      0. 0. 0. 0. 0. 0. 0. 0. 0. 0. 0.</_>
    <_>
      43. 43. 44. 48. 53. 53. 49. 45. 48. 39. 50. 145. 200. 184. 187.
      185. 116. 46. 45. 60. 54. 53. 51. 49. 49. 47. 47. 46. 46. 43. 46.
      51. 51. 48. 42. 43. 58. 63. 86. 193. 248. 233. 242. 242. 163. 83.
      83. 88. 57. 45. 45. 48. 49. 48. 47. 46. 47. 44. 51. 54. 39. 35.
      40. 70. 105. 126. 168. 218. 247. 246. 250. 250. 205. 121. 121.
      129. 111. 60. 33. 42. 52. 51. 48. 47. 47. 48. 50. 41. 27. 52. 124.
      162. 156. 167. 194. 227. 246. 246. 250. 251. 233. 170. 164. 173.
      177. 110. 42. 31. 48. 52. 48. 47. 47. 48. 48. 29. 24. 88. 201.
      228. 209. 210. 221. 233. 245. 245. 250. 251. 242. 215. 206. 211.
      221. 169. 75. 26. 37. 49. 50. 50. 45. 45. 44. 24. 50. 152. 234.
      236. 231. 230. 233. 237. 245. 245. 250. 252. 242. 239. 230. 231.
      236. 216. 118. 34. 29. 44. 53. 52. 45. 47. 42. 21. 82. 207. 247.
      244. 244. 243. 244. 246. 250. 250. 253. 253. 248. 247. 243. 241.
      241. 240. 167. 52. 25. 40. 54. 53. 52. 51. 36. 16. 101. 228. 249.
      248. 247. 247. 248. 250. 252. 252. 254. 253. 253. 248. 249. 248.
      247. 249. 201. 58. 21. 37. 52. 53. 57. 50. 28. 25. 118. 229. 250.
      252. 253. 253. 253. 253. 253. 254. 254. 252. 253. 246. 250. 250.
      249. 250. 217. 65. 23. 34. 50. 53. 53. 41. 24. 48. 143. 231. 251.
      253. 255. 254. 253. 252. 253. 254. 254. 254. 253. 249. 251. 250.
      252. 252. 234. 107. 32. 32. 46. 52. 57. 31. 22. 108. 205. 245.
      252. 253. 254. 254. 253. 253. 253. 254. 254. 254. 253. 253. 252.
      250. 253. 251. 251. 177. 49. 30. 42. 51. 56. 29. 38. 145. 231.
      251. 253. 253. 253. 253. 254. 254. 254. 254. 255. 254. 254. 254.
      254. 254. 254. 253. 251. 249. 95. 14. 33. 48. 50. 22. 46. 168.
      242. 251. 251. 253. 253. 253. 254. 254. 254. 254. 255. 254. 254.
      254. 254. 254. 254. 253. 251. 250. 110. 17. 35. 46. 48. 18. 44.
      174. 244. 251. 252. 253. 253. 254. 254. 254. 254. 254. 255. 254.
      254. 254. 254. 254. 254. 253. 252. 247. 127. 17. 33. 45. 51. 23.
      43. 181. 245. 252. 253. 253. 253. 254. 254. 254. 254. 254. 255.
      254. 254. 254. 254. 254. 254. 253. 253. 245. 132. 12. 30. 47. 51.
      28. 41. 182. 245. 253. 253. 253. 253. 254. 254. 254. 254. 254.
      255. 254. 254. 254. 254. 254. 254. 254. 253. 242. 131. 8. 28. 50.
      48. 24. 33. 182. 242. 252. 251. 253. 253. 254. 254. 254. 254. 254.
      255. 254. 253. 253. 253. 254. 254. 254. 254. 237. 128. 8. 30. 55.
      47. 17. 26. 183. 238. 251. 252. 253. 253. 254. 254. 254. 254. 254.
      255. 254. 252. 252. 253. 252. 253. 253. 254. 235. 131. 9. 29. 55.
      51. 18. 27. 177. 239. 249. 251. 252. 251. 253. 254. 253. 253. 254.
      254. 253. 252. 252. 252. 252. 253. 253. 254. 234. 131. 8. 26. 53.
      49. 15. 25. 171. 243. 249. 249. 249. 247. 234. 237. 247. 249. 251.
      253. 253. 253. 249. 247. 247. 247. 249. 250. 228. 131. 8. 26. 56.
      50. 24. 25. 156. 242. 251. 249. 244. 232. 168. 168. 227. 251. 249.
      246. 249. 196. 150. 187. 236. 244. 243. 247. 222. 118. 12. 28. 53.
      59. 42. 22. 115. 221. 251. 244. 242. 178. 81. 69. 161. 234. 247.
      247. 227. 134. 67. 106. 191. 243. 249. 236. 177. 78. 14. 43. 70.
      112. 94. 34. 63. 165. 243. 245. 226. 105. 46. 26. 83. 192. 236.
      244. 158. 62. 23. 40. 122. 218. 250. 216. 123. 39. 27. 75. 114.
      147. 159. 116. 103. 154. 232. 248. 201. 104. 96. 98. 116. 198.
      241. 245. 178. 131. 119. 112. 165. 226. 248. 227. 168. 121. 117.
      141. 147. 119. 194. 220. 235. 239. 249. 245. 252. 253. 243. 253.
      242. 243. 248. 245. 238. 228. 225. 216. 229. 243. 246. 243. 233.
      222. 214. 195. 142. 109. 210. 238. 244. 237. 248. 248. 236. 252.
      243. 252. 252. 244. 250. 250. 251. 252. 251. 246. 249. 250. 247.
      249. 248. 244. 234. 203. 130. 121. 191. 213. 225. 229. 233. 228.
      244. 244. 244. 239. 236. 236. 235. 233. 236. 232. 230. 229. 226.
      225. 225. 225. 221. 216. 208. 191. 140. 154. 159. 134. 118. 121.
      127. 118. 105. 103. 100. 101. 100. 99. 98. 100. 108. 110. 112.
      117. 116. 122. 125. 125. 119. 117. 120. 143. 150.</_>
    <_>
      39. 38. 39. 40. 41. 44. 46. 46. 46. 46. 39. 27. 26. 49. 88. 121.
      128. 125. 119. 99. 37. 34. 55. 50. 56. 57. 54. 54. 50. 50. 50. 49.
      53. 53. 48. 47. 56. 56. 47. 41. 68. 130. 194. 233. 232. 222. 216.
      186. 86. 57. 64. 47. 54. 54. 54. 53. 48. 49. 50. 45. 52. 49. 32.
      31. 95. 141. 153. 171. 190. 215. 239. 252. 251. 249. 250. 238.
      191. 163. 129. 59. 43. 51. 56. 56. 45. 46. 49. 43. 30. 45. 53. 84.
      173. 235. 244. 242. 244. 247. 250. 251. 249. 247. 250. 249. 244.
      244. 206. 112. 51. 40. 56. 60. 43. 39. 50. 50. 38. 105. 169. 204.
      238. 250. 251. 251. 252. 252. 253. 253. 252. 251. 252. 251. 248.
      252. 243. 192. 112. 38. 49. 56. 41. 23. 78. 108. 67. 81. 159. 226.
      248. 251. 251. 251. 252. 253. 252. 252. 254. 253. 253. 253. 251.
      251. 250. 243. 191. 98. 35. 41. 48. 52. 135. 185. 113. 33. 114.
      222. 252. 252. 252. 252. 253. 253. 253. 251. 252. 252. 250. 252.
      252. 250. 249. 252. 243. 184. 38. 37. 65. 79. 108. 120. 60. 11.
      113. 225. 250. 246. 247. 249. 250. 252. 253. 252. 251. 250. 248.
      250. 251. 252. 252. 251. 250. 220. 53. 43. 84. 81. 54. 42. 14. 17.
      106. 200. 237. 238. 240. 244. 246. 249. 252. 251. 246. 240. 241.
      243. 244. 251. 253. 250. 246. 208. 45. 30. 114. 54. 19. 30. 42.
      78. 95. 132. 168. 207. 227. 239. 243. 247. 250. 245. 229. 210.
      215. 232. 237. 244. 250. 249. 248. 215. 76. 32. 108. 33. 24. 36.
      95. 122. 103. 119. 150. 190. 217. 237. 243. 247. 249. 241. 218.
      184. 189. 227. 240. 244. 250. 250. 252. 236. 147. 61. 127. 57. 30.
      85. 164. 151. 139. 175. 181. 202. 222. 240. 244. 247. 248. 242.
      224. 199. 199. 226. 242. 245. 248. 250. 252. 250. 223. 132. 99.
      53. 58. 137. 197. 178. 183. 231. 223. 230. 237. 246. 247. 249.
      250. 247. 239. 225. 228. 240. 245. 247. 249. 251. 252. 251. 233.
      144. 57. 58. 110. 167. 194. 196. 215. 250. 245. 246. 246. 251.
      252. 253. 253. 253. 252. 249. 247. 249. 250. 251. 253. 253. 252.
      250. 233. 146. 53. 103. 153. 165. 173. 199. 221. 246. 250. 249.
      248. 251. 252. 253. 253. 253. 253. 250. 248. 249. 249. 250. 252.
      253. 253. 251. 233. 147. 73. 145. 156. 144. 153. 191. 217. 244.
      250. 250. 249. 251. 253. 254. 253. 252. 253. 253. 253. 254. 252.
      251. 252. 254. 254. 253. 232. 146. 75. 154. 161. 145. 146. 179.
      216. 248. 249. 250. 250. 252. 253. 254. 253. 252. 253. 253. 253.
      254. 254. 253. 253. 254. 254. 252. 231. 145. 68. 155. 189. 170.
      153. 174. 216. 248. 246. 250. 251. 253. 252. 253. 253. 253. 252.
      252. 253. 254. 254. 254. 253. 253. 253. 251. 229. 145. 70. 150.
      196. 195. 176. 187. 219. 245. 245. 250. 251. 252. 249. 249. 253.
      253. 252. 253. 252. 252. 253. 253. 254. 253. 252. 251. 230. 146.
      64. 131. 177. 200. 201. 207. 227. 245. 248. 249. 251. 250. 245.
      251. 252. 250. 251. 252. 253. 249. 247. 251. 252. 251. 251. 250.
      230. 140. 45. 92. 146. 183. 199. 209. 225. 242. 247. 248. 250.
      245. 222. 226. 247. 250. 249. 253. 253. 223. 200. 226. 247. 249.
      249. 249. 223. 132. 34. 56. 98. 134. 150. 162. 185. 222. 242. 242.
      239. 183. 109. 122. 205. 251. 250. 247. 221. 147. 112. 164. 229.
      247. 248. 240. 191. 102. 39. 46. 60. 72. 71. 75. 118. 189. 241.
      243. 211. 117. 36. 51. 143. 220. 247. 238. 157. 74. 50. 95. 175.
      225. 234. 198. 127. 60. 41. 41. 46. 51. 44. 33. 47. 97. 154. 176.
      121. 57. 25. 32. 71. 129. 178. 167. 77. 29. 30. 42. 93. 149. 168.
      117. 52. 30. 0. 0. 0. 0. 0. 0. 0. 0. 0. 0. 0. 0. 0. 0. 0. 0. 0. 0.
      0. 0. 0. 0. 0. 0. 0. 0. 0. 0. 0. 0. 0. 0. 0. 0. 0. 0. 0. 0. 0. 0.
      0. 0. 0. 0. 0. 0. 0. 0. 0. 0. 0. 0. 0. 0. 0. 0. 0. 0. 0. 0. 0. 0.
      0. 0. 0. 0. 0. 0. 0. 0. 0. 0. 0. 0. 0. 0. 0. 0. 0. 0. 0. 0. 0. 0.
      0. 0. 0. 0. 0. 0. 0. 0. 0. 0. 0. 0. 0. 0. 0. 0. 0. 0. 0. 0. 0. 0.
      0. 0. 0. 0. 0. 0.</_>
    <_>
      50. 54. 53. 48. 46. 42. 34. 33. 51. 86. 112. 120. 112. 92. 69. 48.
      37. 38. 41. 44. 44. 44. 44. 42. 40. 38. 37. 41. 51. 55. 51. 46.
      32. 42. 27. 69. 167. 207. 224. 223. 216. 198. 148. 93. 63. 53. 51.
      54. 52. 55. 56. 54. 48. 47. 54. 57. 51. 51. 36. 25. 41. 96. 136.
      176. 229. 245. 250. 251. 251. 244. 219. 182. 144. 100. 59. 51. 49.
      57. 58. 51. 37. 41. 100. 140. 48. 35. 17. 28. 104. 189. 232. 243.
      249. 251. 251. 248. 251. 252. 249. 242. 229. 171. 94. 54. 49. 55.
      52. 52. 59. 97. 187. 246. 34. 15. 21. 90. 189. 242. 251. 249. 244.
      251. 251. 249. 252. 253. 251. 250. 252. 224. 163. 94. 63. 39. 43.
      105. 180. 217. 241. 240. 18. 24. 89. 178. 237. 250. 251. 251. 249.
      252. 251. 252. 252. 252. 250. 248. 252. 251. 232. 167. 132. 99.
      74. 110. 194. 216. 163. 121. 17. 68. 167. 231. 248. 249. 251. 252.
      253. 253. 252. 251. 248. 252. 252. 253. 251. 253. 253. 238. 211.
      166. 92. 54. 123. 162. 86. 46. 20. 95. 198. 241. 246. 249. 252.
      252. 250. 252. 252. 248. 244. 248. 250. 250. 247. 252. 253. 250.
      207. 136. 62. 40. 115. 158. 73. 40. 14. 91. 201. 238. 238. 243.
      249. 253. 252. 251. 250. 243. 238. 238. 242. 245. 247. 252. 251.
      242. 180. 89. 49. 59. 101. 118. 62. 47. 10. 73. 159. 195. 216.
      233. 243. 248. 249. 248. 245. 230. 214. 218. 232. 243. 248. 250.
      245. 246. 181. 68. 58. 98. 95. 78. 54. 51. 25. 90. 145. 173. 203.
      227. 240. 244. 245. 244. 238. 214. 186. 194. 224. 238. 240. 245.
      247. 249. 212. 148. 99. 78. 60. 53. 54. 57. 71. 145. 175. 188.
      211. 232. 243. 247. 247. 246. 239. 218. 198. 205. 229. 239. 241.
      246. 247. 246. 244. 228. 166. 79. 49. 55. 53. 51. 123. 203. 219.
      219. 231. 241. 247. 250. 250. 249. 245. 235. 226. 230. 242. 246.
      248. 252. 252. 252. 249. 248. 203. 120. 101. 97. 47. 37. 145. 230.
      243. 242. 245. 247. 248. 250. 251. 250. 248. 246. 245. 244. 245.
      247. 249. 252. 251. 252. 247. 249. 215. 152. 152. 146. 72. 35.
      144. 235. 249. 248. 250. 252. 251. 253. 254. 254. 252. 251. 251.
      252. 251. 252. 253. 253. 251. 250. 251. 245. 209. 160. 161. 166.
      127. 48. 140. 239. 250. 249. 251. 253. 253. 254. 254. 253. 251.
      250. 251. 252. 251. 252. 254. 254. 253. 253. 250. 232. 198. 164.
      152. 161. 164. 66. 136. 243. 252. 251. 253. 253. 253. 253. 254.
      251. 253. 253. 253. 253. 252. 252. 253. 253. 250. 250. 249. 231.
      198. 164. 142. 153. 167. 81. 136. 243. 249. 251. 253. 253. 250.
      251. 254. 254. 254. 250. 250. 252. 252. 252. 253. 253. 251. 251.
      248. 234. 202. 161. 138. 153. 165. 84. 139. 242. 248. 253. 251.
      250. 252. 252. 252. 253. 252. 252. 252. 249. 250. 251. 249. 250.
      252. 250. 246. 238. 207. 162. 145. 159. 157. 80. 135. 247. 252.
      252. 246. 243. 252. 251. 249. 245. 248. 250. 252. 251. 251. 252.
      251. 248. 248. 248. 247. 242. 213. 167. 155. 162. 147. 74. 129.
      240. 249. 249. 247. 249. 240. 226. 232. 247. 249. 250. 251. 243.
      224. 226. 243. 249. 248. 250. 249. 238. 209. 175. 163. 142. 101.
      48. 106. 205. 244. 250. 251. 245. 179. 119. 159. 242. 250. 250.
      246. 205. 148. 146. 195. 237. 251. 249. 239. 210. 172. 152. 143.
      111. 60. 28. 61. 143. 230. 243. 239. 193. 97. 31. 74. 174. 239.
      246. 220. 152. 84. 67. 125. 203. 239. 233. 198. 144. 93. 77. 83.
      68. 44. 46. 23. 74. 172. 189. 170. 113. 53. 25. 48. 102. 173. 172.
      136. 84. 45. 29. 61. 136. 174. 162. 121. 70. 37. 34. 48. 55. 51.
      52. 0. 0. 0. 0. 0. 0. 0. 0. 0. 0. 0. 0. 0. 0. 0. 0. 0. 0. 0. 0. 0.
      0. 0. 0. 0. 0. 0. 0. 0. 0. 0. 0. 0. 0. 0. 0. 0. 0. 0. 0. 0. 0. 0.
      0. 0. 0. 0. 0. 0. 0. 0. 0. 0. 0. 0. 0. 0. 0. 0. 0. 0. 0. 0. 0. 0.
      0. 0. 0. 0. 0. 0. 0. 0. 0. 0. 0. 0. 0. 0. 0. 0. 0. 0. 0. 0. 0. 0.
      0. 0. 0. 0. 0. 0. 0. 0. 0. 0. 0. 0. 0. 0. 0. 0. 0. 0. 0. 0. 0. 0.
      0. 0. 0.</_>
    <_>
      54. 53. 50. 55. 64. 63. 52. 28. 55. 99. 128. 144. 150. 132. 99.
      66. 42. 34. 45. 55. 55. 48. 40. 45. 0. 0. 0. 0. 52. 56. 61. 58.
      55. 58. 64. 54. 115. 194. 232. 239. 238. 230. 208. 153. 93. 64.
      57. 54. 53. 54. 50. 50. 0. 0. 0. 0. 55. 63. 64. 47. 40. 76. 127.
      180. 217. 244. 251. 252. 252. 251. 244. 220. 187. 154. 104. 49.
      34. 50. 56. 52. 0. 0. 0. 0. 65. 65. 54. 39. 58. 136. 220. 247.
      249. 251. 250. 251. 253. 253. 252. 247. 240. 225. 173. 90. 39. 36.
      47. 52. 0. 0. 0. 0. 71. 61. 44. 64. 134. 211. 247. 250. 251. 253.
      253. 254. 253. 253. 253. 251. 246. 247. 231. 172. 96. 41. 31. 47.
      0. 0. 0. 0. 69. 51. 43. 104. 205. 247. 249. 252. 252. 254. 254.
      253. 254. 254. 254. 251. 247. 248. 249. 231. 171. 83. 31. 35. 0.
      0. 0. 0. 54. 41. 75. 207. 242. 252. 247. 253. 253. 251. 251. 250.
      251. 254. 254. 252. 251. 250. 250. 249. 224. 151. 56. 20. 0. 0. 0.
      0. 67. 53. 90. 225. 248. 252. 247. 250. 251. 249. 246. 245. 248.
      252. 253. 253. 252. 249. 250. 247. 238. 196. 90. 17. 0. 0. 0. 0.
      65. 37. 89. 222. 247. 252. 251. 248. 250. 242. 233. 231. 240. 248.
      249. 252. 252. 244. 244. 234. 217. 176. 79. 17. 0. 0. 0. 0. 48.
      35. 107. 227. 248. 252. 253. 249. 248. 232. 211. 210. 231. 244.
      246. 251. 252. 243. 235. 209. 181. 150. 78. 28. 0. 0. 0. 0. 44.
      80. 170. 243. 249. 252. 250. 247. 245. 226. 202. 200. 226. 243.
      245. 251. 251. 243. 233. 198. 170. 157. 106. 45. 0. 0. 0. 0. 54.
      131. 222. 247. 247. 252. 250. 248. 246. 231. 215. 214. 230. 242.
      243. 251. 250. 242. 239. 216. 202. 201. 160. 74. 0. 0. 0. 0. 58.
      155. 238. 246. 247. 252. 252. 251. 251. 243. 238. 237. 241. 248.
      247. 254. 252. 243. 245. 236. 234. 234. 183. 86. 0. 0. 0. 0. 55.
      156. 239. 248. 249. 252. 252. 252. 253. 250. 249. 249. 250. 254.
      255. 252. 253. 249. 252. 250. 251. 250. 183. 91. 0. 0. 0. 0. 54.
      157. 240. 248. 249. 252. 251. 251. 252. 251. 251. 250. 250. 253.
      254. 249. 252. 252. 252. 247. 251. 252. 189. 97. 0. 0. 0. 0. 52.
      157. 240. 248. 249. 253. 252. 251. 253. 253. 252. 253. 253. 253.
      254. 252. 242. 252. 253. 253. 252. 252. 188. 90. 0. 0. 0. 0. 48.
      156. 240. 251. 252. 253. 254. 253. 252. 253. 252. 251. 253. 254.
      253. 251. 252. 253. 251. 249. 252. 251. 189. 91. 0. 0. 0. 0. 49.
      156. 236. 251. 253. 253. 253. 251. 250. 253. 253. 254. 254. 254.
      249. 241. 250. 254. 252. 254. 254. 253. 197. 91. 0. 0. 0. 0. 51.
      163. 235. 250. 251. 251. 251. 250. 250. 253. 252. 250. 254. 254.
      250. 255. 251. 249. 254. 253. 253. 248. 194. 90. 0. 0. 0. 0. 48.
      160. 236. 251. 248. 249. 244. 240. 244. 249. 247. 243. 250. 251.
      248. 248. 246. 248. 250. 240. 251. 250. 200. 97. 0. 0. 0. 0. 41.
      135. 222. 249. 251. 244. 207. 184. 205. 237. 250. 251. 249. 233.
      192. 179. 228. 249. 250. 248. 251. 245. 192. 106. 0. 0. 0. 0. 37.
      84. 185. 239. 248. 210. 124. 85. 128. 197. 242. 249. 229. 169.
      111. 136. 209. 225. 240. 246. 220. 167. 135. 105. 0. 0. 0. 0. 40.
      38. 122. 205. 219. 148. 55. 22. 64. 143. 214. 235. 198. 108. 50.
      113. 168. 158. 189. 217. 155. 62. 76. 97. 0. 0. 0. 0. 45. 24. 58.
      127. 132. 67. 29. 20. 20. 41. 79. 102. 83. 39. 27. 64. 77. 66. 81.
      104. 72. 29. 45. 72. 0. 0. 0. 0. 60. 55. 53. 52. 47. 37. 39. 43.
      44. 40. 42. 47. 45. 44. 48. 58. 59. 52. 62. 68. 69. 71. 56. 41. 0.
      0. 0. 0. 130. 129. 129. 128. 134. 143. 149. 152. 145. 138. 135.
      134. 133. 137. 133. 128. 123. 112. 116. 115. 119. 133. 105. 31. 0.
      0. 0. 0. 0. 0. 0. 0. 0. 0. 0. 0. 0. 0. 0. 0. 0. 0. 0. 0. 0. 0. 0.
      0. 0. 0. 0. 0. 0. 0. 0. 0. 0. 0. 0. 0. 0. 0. 0. 0. 0. 0. 0. 0. 0.
      0. 0. 0. 0. 0. 0. 0. 0. 0. 0. 0. 0. 0. 0. 0.</_>
    <_>
      47. 53. 44. 42. 34. 37. 39. 66. 132. 185. 212. 222. 220. 206. 165.
      101. 54. 46. 55. 57. 53. 44. 47. 0. 0. 0. 0. 0. 34. 60. 38. 22.
      38. 89. 131. 161. 213. 243. 251. 253. 252. 248. 230. 194. 148. 98.
      58. 44. 59. 61. 56. 0. 0. 0. 0. 0. 39. 54. 20. 20. 83. 174. 222.
      238. 248. 252. 251. 251. 251. 252. 252. 247. 233. 187. 109. 55.
      48. 51. 53. 0. 0. 0. 0. 0. 50. 25. 14. 70. 159. 228. 248. 250.
      252. 252. 250. 248. 250. 252. 252. 252. 251. 236. 181. 108. 55.
      36. 47. 0. 0. 0. 0. 0. 35. 8. 63. 157. 227. 245. 249. 249. 252.
      253. 254. 254. 254. 254. 254. 254. 249. 248. 231. 175. 104. 55.
      49. 0. 0. 0. 0. 0. 21. 28. 148. 229. 248. 249. 250. 251. 251. 251.
      253. 254. 254. 254. 254. 254. 249. 249. 248. 224. 161. 84. 49. 0.
      0. 0. 0. 0. 24. 46. 199. 248. 245. 247. 249. 250. 250. 252. 252.
      252. 251. 252. 252. 252. 253. 254. 252. 242. 190. 98. 43. 0. 0. 0.
      0. 0. 24. 48. 182. 233. 232. 242. 249. 250. 252. 253. 252. 249.
      244. 243. 246. 246. 252. 253. 251. 248. 200. 103. 42. 0. 0. 0. 0.
      0. 18. 46. 130. 194. 204. 228. 244. 247. 248. 253. 245. 232. 211.
      214. 232. 239. 247. 250. 251. 247. 203. 112. 46. 0. 0. 0. 0. 0.
      28. 67. 120. 166. 188. 227. 244. 246. 250. 251. 241. 219. 192.
      196. 222. 235. 246. 250. 251. 249. 217. 145. 77. 0. 0. 0. 0. 0.
      61. 132. 159. 184. 200. 230. 246. 246. 253. 252. 242. 222. 197.
      203. 227. 238. 247. 251. 251. 251. 242. 198. 123. 0. 0. 0. 0. 0.
      88. 197. 225. 231. 230. 234. 247. 246. 253. 253. 245. 239. 226.
      227. 238. 241. 248. 251. 251. 251. 251. 227. 151. 0. 0. 0. 0. 0.
      96. 222. 249. 249. 246. 247. 253. 252. 253. 251. 250. 250. 246.
      246. 248. 246. 250. 252. 252. 252. 251. 229. 155. 0. 0. 0. 0. 0.
      110. 224. 248. 248. 246. 249. 252. 252. 253. 250. 251. 252. 250.
      250. 251. 248. 252. 253. 252. 253. 252. 228. 152. 0. 0. 0. 0. 0.
      115. 223. 251. 251. 251. 254. 253. 253. 254. 252. 252. 253. 251.
      252. 253. 250. 251. 253. 250. 251. 252. 231. 149. 0. 0. 0. 0. 0.
      110. 219. 253. 253. 253. 253. 251. 254. 253. 252. 254. 253. 250.
      252. 255. 254. 250. 254. 251. 248. 251. 233. 150. 0. 0. 0. 0. 0.
      108. 215. 252. 252. 253. 251. 249. 253. 252. 250. 251. 254. 252.
      252. 252. 252. 251. 254. 252. 247. 250. 232. 151. 0. 0. 0. 0. 0.
      103. 215. 248. 245. 249. 252. 250. 250. 253. 251. 252. 254. 254.
      253. 252. 252. 252. 253. 248. 249. 249. 230. 140. 0. 0. 0. 0. 0.
      110. 214. 251. 250. 250. 252. 250. 248. 251. 252. 252. 250. 251.
      252. 250. 247. 251. 251. 251. 250. 249. 233. 159. 0. 0. 0. 0. 0.
      105. 210. 251. 248. 248. 249. 232. 213. 222. 244. 251. 248. 248.
      246. 226. 205. 236. 250. 249. 245. 247. 227. 145. 0. 0. 0. 0. 0.
      84. 183. 238. 249. 250. 231. 177. 131. 146. 210. 245. 250. 246.
      221. 164. 121. 182. 245. 251. 247. 251. 195. 96. 0. 0. 0. 0. 0.
      51. 124. 205. 244. 237. 184. 107. 54. 77. 154. 221. 239. 218. 163.
      88. 48. 101. 198. 249. 249. 218. 119. 39. 0. 0. 0. 0. 0. 17. 52.
      132. 181. 167. 105. 47. 20. 37. 93. 152. 180. 147. 87. 46. 35. 54.
      119. 189. 194. 127. 56. 28. 0. 0. 0. 0. 0. 0. 0. 0. 0. 0. 0. 0. 0.
      0. 0. 0. 0. 0. 0. 0. 0. 0. 0. 0. 0. 0. 0. 0. 0. 0. 0. 0. 0. 0. 0.
      0. 0. 0. 0. 0. 0. 0. 0. 0. 0. 0. 0. 0. 0. 0. 0. 0. 0. 0. 0. 0. 0.
      0. 0. 0. 0. 0. 0. 0. 0. 0. 0. 0. 0. 0. 0. 0. 0. 0. 0. 0. 0. 0. 0.
      0. 0. 0. 0. 0. 0. 0. 0. 0. 0. 0. 0. 0. 0. 0. 0. 0. 0. 0. 0. 0. 0.
      0. 0. 0. 0. 0. 0. 0. 0. 0. 0. 0. 0. 0. 0. 0. 0. 0. 0. 0. 0. 0. 0.
      0. 0. 0. 0. 0. 0. 0. 0. 0. 0. 0. 0. 0. 0. 0. 0. 0. 0. 0. 0. 0. 0.</_>
    <_>
      224. 225. 221. 203. 157. 91. 55. 76. 122. 160. 175. 181. 183. 171.
      143. 111. 72. 43. 45. 56. 66. 61. 52. 50. 0. 0. 0. 0. 221. 196.
      168. 144. 112. 86. 99. 145. 195. 226. 241. 244. 245. 245. 237.
      210. 159. 104. 83. 57. 44. 51. 61. 62. 0. 0. 0. 0. 197. 134. 86.
