<?xml version="1.0"?>
<opencv_storage>
<ghost3 type_id="opencv-ml-svm">
  <svm_type>C_SVC</svm_type>
  <kernel><type>POLY</type>
    <degree>4.</degree>
    <gamma>1.</gamma>
    <coef0>0.</coef0></kernel>
  <C>1.</C>
  <term_criteria><epsilon>2.2204460492503131e-16</epsilon>
    <iterations>5000</iterations></term_criteria>
  <var_all>784</var_all>
  <var_count>784</var_count>
  <class_count>2</class_count>
  <class_labels type_id="opencv-matrix">
    <rows>1</rows>
    <cols>2</cols>
    <dt>i</dt>
    <data>
      -1 1</data></class_labels>
  <sv_total>103</sv_total>
  <support_vectors>
    <_>
      40. 39. 38. 40. 41. 44. 46. 45. 44. 42. 40. 43. 39. 36. 30. 66.
      98. 70. 33. 28. 34. 0. 0. 0. 0. 0. 0. 0. 37. 35. 34. 34. 37. 41.
      43. 45. 47. 47. 45. 48. 47. 49. 48. 82. 78. 46. 36. 37. 39. 0. 0.
      0. 0. 0. 0. 0. 88. 83. 83. 90. 87. 84. 82. 87. 86. 84. 77. 83. 91.
      75. 73. 73. 52. 44. 38. 41. 38. 0. 0. 0. 0. 0. 0. 0. 119. 116.
      111. 107. 111. 111. 112. 118. 121. 124. 126. 130. 154. 132. 80.
      38. 28. 37. 46. 45. 38. 0. 0. 0. 0. 0. 0. 0. 84. 85. 85. 80. 80.
      73. 70. 70. 69. 69. 77. 71. 83. 75. 42. 30. 46. 52. 48. 46. 42. 0.
      0. 0. 0. 0. 0. 0. 54. 53. 51. 48. 41. 36. 56. 95. 108. 104. 100.
      114. 117. 125. 72. 29. 31. 35. 47. 50. 47. 0. 0. 0. 0. 0. 0. 0.
      45. 42. 35. 33. 49. 61. 113. 194. 242. 243. 240. 238. 236. 234.
      170. 96. 67. 45. 42. 45. 46. 0. 0. 0. 0. 0. 0. 0. 39. 33. 31. 62.
      131. 173. 202. 238. 245. 242. 243. 244. 242. 241. 225. 204. 187.
      125. 50. 40. 41. 0. 0. 0. 0. 0. 0. 0. 35. 27. 50. 124. 212. 250.
      251. 252. 246. 244. 254. 252. 251. 249. 247. 242. 243. 202. 107.
      53. 41. 0. 0. 0. 0. 0. 0. 0. 28. 38. 112. 207. 246. 248. 244. 253.
      252. 250. 252. 254. 253. 251. 252. 245. 245. 237. 187. 76. 47. 0.
      0. 0. 0. 0. 0. 0. 19. 68. 181. 247. 249. 251. 252. 253. 253. 253.
      253. 253. 253. 252. 252. 249. 247. 246. 235. 104. 48. 0. 0. 0. 0.
      0. 0. 0. 34. 102. 202. 248. 249. 251. 252. 253. 253. 253. 253.
      253. 253. 252. 252. 251. 251. 249. 244. 155. 66. 0. 0. 0. 0. 0. 0.
      0. 71. 165. 230. 249. 251. 252. 253. 254. 254. 254. 253. 253. 253.
      252. 252. 252. 251. 250. 246. 214. 129. 0. 0. 0. 0. 0. 0. 0. 116.
      217. 249. 250. 251. 253. 253. 254. 254. 254. 254. 253. 252. 252.
      252. 252. 252. 251. 249. 243. 180. 0. 0. 0. 0. 0. 0. 0. 139. 228.
      249. 250. 252. 253. 254. 255. 254. 254. 254. 253. 252. 252. 252.
      252. 252. 253. 250. 243. 201. 0. 0. 0. 0. 0. 0. 0. 146. 229. 249.
      250. 252. 253. 254. 255. 255. 255. 254. 254. 253. 252. 252. 252.
      253. 254. 251. 244. 213. 0. 0. 0. 0. 0. 0. 0. 147. 231. 248. 249.
      252. 253. 254. 255. 255. 254. 254. 254. 253. 252. 252. 252. 253.
      254. 251. 244. 206. 0. 0. 0. 0. 0. 0. 0. 146. 234. 248. 249. 251.
      253. 254. 255. 254. 254. 254. 254. 253. 252. 252. 253. 253. 253.
      250. 243. 195. 0. 0. 0. 0. 0. 0. 0. 140. 232. 247. 247. 252. 254.
      253. 251. 252. 253. 252. 251. 252. 252. 252. 253. 252. 252. 250.
      244. 189. 0. 0. 0. 0. 0. 0. 0. 124. 229. 249. 249. 252. 252. 251.
      251. 252. 252. 249. 248. 251. 254. 253. 251. 250. 250. 248. 232.
      171. 0. 0. 0. 0. 0. 0. 0. 79. 203. 243. 247. 251. 251. 251. 254.
      253. 252. 251. 249. 250. 250. 250. 250. 248. 249. 243. 196. 114.
      0. 0. 0. 0. 0. 0. 0. 62. 194. 244. 245. 251. 252. 253. 253. 252.
      252. 252. 252. 253. 254. 253. 250. 248. 249. 232. 158. 65. 0. 0.
      0. 0. 0. 0. 0. 60. 171. 242. 243. 245. 246. 252. 252. 251. 254.
      252. 251. 253. 254. 251. 251. 251. 249. 216. 125. 48. 0. 0. 0. 0.
      0. 0. 0. 45. 121. 207. 241. 243. 240. 248. 251. 253. 252. 254.
      253. 253. 248. 247. 249. 248. 228. 167. 82. 44. 0. 0. 0. 0. 0. 0.
      0. 38. 78. 147. 218. 240. 238. 245. 250. 252. 248. 253. 251. 253.
      254. 251. 250. 227. 174. 100. 50. 46. 0. 0. 0. 0. 0. 0. 0. 34. 52.
      83. 151. 192. 210. 240. 245. 250. 253. 252. 247. 248. 248. 226.
      196. 159. 105. 56. 46. 52. 0. 0. 0. 0. 0. 0. 0. 38. 42. 54. 75.
      97. 146. 207. 232. 238. 246. 253. 245. 245. 222. 158. 103. 80. 57.
      46. 52. 51. 0. 0. 0. 0. 0. 0. 0. 43. 46. 55. 54. 52. 78. 100. 158.
      172. 159. 169. 161. 146. 118. 78. 53. 48. 48. 48. 51. 46. 0. 0. 0.
      0. 0. 0. 0.</_>
    <_>
      41. 39. 39. 40. 42. 42. 36. 47. 49. 46. 34. 34. 79. 151. 167. 154.
      165. 173. 167. 151. 70. 25. 31. 42. 0. 0. 0. 0. 38. 41. 44. 47.
      47. 46. 50. 44. 33. 46. 78. 118. 169. 215. 224. 223. 223. 223.
      233. 200. 74. 19. 31. 44. 0. 0. 0. 0. 40. 43. 44. 44. 48. 47. 35.
      30. 50. 107. 170. 206. 227. 237. 235. 240. 233. 234. 238. 184. 58.
      18. 34. 47. 0. 0. 0. 0. 40. 41. 40. 41. 44. 38. 25. 57. 130. 199.
      231. 242. 242. 244. 241. 245. 245. 239. 216. 117. 24. 22. 35. 47.
      0. 0. 0. 0. 39. 41. 44. 48. 39. 29. 55. 126. 208. 237. 242. 245.
      246. 250. 248. 246. 252. 236. 172. 84. 20. 25. 34. 43. 0. 0. 0. 0.
      40. 47. 50. 41. 30. 50. 121. 204. 239. 244. 246. 248. 249. 252.
      249. 241. 247. 233. 186. 140. 79. 25. 31. 39. 0. 0. 0. 0. 42. 38.
      39. 37. 47. 102. 189. 239. 246. 248. 253. 252. 251. 253. 251. 243.
      235. 229. 224. 204. 164. 78. 28. 32. 0. 0. 0. 0. 53. 75. 71. 45.
      70. 161. 228. 245. 248. 251. 253. 253. 252. 252. 247. 236. 224.
      221. 223. 219. 202. 147. 54. 29. 0. 0. 0. 0. 94. 167. 161. 86.
      100. 192. 243. 245. 248. 252. 252. 254. 252. 247. 239. 228. 218.
      214. 217. 220. 216. 168. 59. 22. 0. 0. 0. 0. 147. 225. 225. 154.
      152. 216. 244. 246. 250. 250. 252. 252. 248. 241. 230. 223. 220.
      215. 214. 217. 219. 189. 93. 35. 0. 0. 0. 0. 160. 226. 223. 187.
      204. 233. 244. 247. 251. 250. 250. 247. 242. 235. 223. 219. 219.
      215. 212. 211. 212. 205. 157. 77. 0. 0. 0. 0. 126. 155. 150. 169.
      223. 240. 243. 246. 251. 250. 251. 248. 243. 234. 222. 217. 217.
      215. 212. 210. 211. 215. 193. 105. 0. 0. 0. 0. 74. 69. 75. 140.
      221. 240. 244. 245. 250. 252. 252. 252. 247. 239. 230. 223. 219.
      217. 214. 212. 214. 219. 200. 110. 0. 0. 0. 0. 56. 37. 43. 134.
      225. 243. 246. 245. 251. 253. 247. 250. 247. 243. 236. 229. 222.
      217. 214. 212. 213. 217. 200. 117. 0. 0. 0. 0. 54. 37. 42. 144.
      230. 243. 247. 247. 252. 253. 251. 253. 253. 251. 243. 236. 229.
      221. 217. 215. 215. 218. 205. 121. 0. 0. 0. 0. 47. 34. 45. 144.
      232. 241. 243. 245. 252. 253. 253. 254. 254. 253. 246. 242. 234.
      228. 221. 218. 219. 222. 211. 116. 0. 0. 0. 0. 42. 33. 46. 131.
      228. 237. 241. 242. 250. 251. 252. 254. 254. 254. 251. 249. 243.
      238. 229. 222. 220. 223. 203. 108. 0. 0. 0. 0. 42. 35. 42. 103.
      195. 229. 242. 241. 249. 251. 253. 253. 254. 254. 253. 251. 246.
      243. 236. 228. 222. 215. 174. 83. 0. 0. 0. 0. 44. 38. 38. 66. 141.
      210. 238. 235. 240. 246. 252. 252. 253. 254. 254. 253. 248. 246.
      242. 238. 230. 197. 122. 48. 0. 0. 0. 0. 44. 40. 35. 43. 110. 191.
      237. 236. 238. 244. 252. 251. 252. 255. 255. 254. 250. 250. 250.
      248. 235. 171. 74. 26. 0. 0. 0. 0. 41. 42. 39. 37. 85. 162. 224.
      231. 236. 237. 243. 244. 248. 251. 252. 251. 251. 252. 250. 246.
      211. 128. 48. 27. 0. 0. 0. 0. 38. 41. 43. 37. 56. 124. 189. 222.
      234. 233. 236. 243. 246. 247. 249. 248. 249. 249. 241. 225. 156.
      75. 34. 38. 0. 0. 0. 0. 31. 34. 39. 44. 31. 66. 135. 179. 191.
      208. 224. 228. 238. 238. 242. 242. 243. 233. 200. 172. 96. 39. 29.
      44. 0. 0. 0. 0. 19. 34. 44. 51. 62. 61. 83. 103. 111. 156. 202.
      217. 220. 215. 221. 225. 209. 164. 111. 68. 53. 48. 47. 47. 0. 0.
      0. 0. 36. 28. 33. 45. 52. 53. 67. 72. 75. 107. 151. 167. 170. 159.
      169. 176. 137. 73. 45. 53. 57. 55. 54. 54. 0. 0. 0. 0. 0. 0. 0. 0.
      0. 0. 0. 0. 0. 0. 0. 0. 0. 0. 0. 0. 0. 0. 0. 0. 0. 0. 0. 0. 0. 0.
      0. 0. 0. 0. 0. 0. 0. 0. 0. 0. 0. 0. 0. 0. 0. 0. 0. 0. 0. 0. 0. 0.
      0. 0. 0. 0. 0. 0. 0. 0. 0. 0. 0. 0. 0. 0. 0. 0. 0. 0. 0. 0. 0. 0.
      0. 0. 0. 0. 0. 0. 0. 0. 0. 0. 0. 0. 0. 0.</_>
    <_>
      29. 27. 43. 50. 44. 52. 40. 32. 90. 149. 152. 148. 161. 151. 88.
      45. 45. 53. 57. 59. 55. 58. 57. 0. 0. 0. 0. 0. 28. 28. 41. 48. 46.
      44. 39. 60. 145. 207. 199. 194. 197. 204. 136. 74. 55. 49. 43. 48.
      48. 55. 51. 0. 0. 0. 0. 0. 28. 29. 33. 40. 40. 57. 70. 105. 182.
      217. 201. 195. 194. 212. 170. 108. 91. 74. 45. 37. 43. 59. 53. 0.
      0. 0. 0. 0. 40. 24. 26. 53. 92. 109. 118. 143. 196. 213. 215. 220.
      218. 222. 189. 132. 117. 132. 107. 47. 27. 41. 53. 0. 0. 0. 0. 0.
      35. 22. 54. 118. 179. 182. 170. 177. 206. 214. 214. 221. 217. 221.
      206. 177. 176. 193. 183. 142. 64. 27. 43. 0. 0. 0. 0. 0. 29. 39.
      118. 197. 221. 221. 211. 208. 217. 217. 215. 218. 217. 218. 219.
      218. 223. 225. 227. 221. 141. 45. 35. 0. 0. 0. 0. 0. 35. 61. 162.
      231. 227. 230. 229. 228. 227. 224. 220. 221. 221. 221. 224. 225.
      226. 224. 227. 230. 189. 58. 32. 0. 0. 0. 0. 0. 33. 69. 175. 233.
      231. 235. 241. 243. 240. 234. 228. 228. 229. 230. 239. 240. 238.
      233. 229. 231. 190. 53. 30. 0. 0. 0. 0. 0. 31. 80. 183. 228. 227.
      230. 235. 237. 233. 227. 224. 225. 226. 229. 234. 234. 234. 236.
      230. 229. 198. 61. 26. 0. 0. 0. 0. 0. 50. 118. 204. 224. 221. 221.
      225. 225. 223. 220. 220. 220. 220. 221. 224. 224. 224. 225. 220.
      219. 218. 121. 42. 0. 0. 0. 0. 0. 91. 170. 219. 220. 217. 218.
      221. 223. 221. 220. 220. 220. 221. 220. 222. 223. 222. 220. 216.
      216. 218. 188. 80. 0. 0. 0. 0. 0. 124. 202. 223. 219. 218. 219.
      219. 220. 221. 222. 222. 223. 224. 223. 223. 222. 221. 220. 219.
      219. 217. 217. 128. 0. 0. 0. 0. 0. 127. 204. 222. 219. 219. 219.
      220. 221. 222. 222. 223. 222. 222. 222. 222. 222. 221. 221. 220.
      220. 218. 219. 154. 0. 0. 0. 0. 0. 131. 206. 222. 218. 218. 219.
      219. 219. 220. 220. 220. 220. 220. 220. 221. 221. 220. 220. 220.
      219. 219. 218. 158. 0. 0. 0. 0. 0. 134. 207. 222. 218. 218. 218.
      219. 219. 219. 220. 220. 220. 220. 220. 220. 220. 220. 220. 219.
      219. 219. 218. 163. 0. 0. 0. 0. 0. 138. 209. 222. 221. 221. 221.
      222. 222. 222. 222. 222. 222. 221. 221. 220. 220. 219. 219. 220.
      220. 219. 218. 166. 0. 0. 0. 0. 0. 135. 209. 222. 221. 221. 221.
      222. 222. 222. 222. 222. 222. 222. 222. 221. 220. 220. 220. 220.
      220. 219. 218. 166. 0. 0. 0. 0. 0. 129. 208. 221. 219. 219. 219.
      219. 218. 217. 217. 217. 217. 218. 218. 218. 218. 218. 218. 218.
      218. 218. 215. 164. 0. 0. 0. 0. 0. 125. 209. 220. 219. 218. 217.
      217. 215. 214. 213. 212. 210. 211. 213. 215. 216. 216. 215. 214.
      213. 217. 214. 157. 0. 0. 0. 0. 0. 129. 208. 215. 205. 204. 205.
      206. 212. 215. 213. 198. 186. 196. 208. 211. 212. 213. 205. 197.
      202. 212. 211. 154. 0. 0. 0. 0. 0. 122. 212. 214. 196. 165. 192.
      206. 204. 211. 212. 166. 135. 172. 203. 209. 211. 204. 178. 158.
      179. 202. 201. 149. 0. 0. 0. 0. 0. 114. 220. 214. 149. 109. 146.
      199. 204. 213. 214. 133. 84. 142. 201. 211. 215. 183. 125. 112.
      152. 196. 211. 155. 0. 0. 0. 0. 0. 86. 198. 184. 95. 74. 93. 149.
      194. 213. 192. 109. 58. 106. 184. 208. 203. 147. 77. 61. 98. 167.
      201. 128. 0. 0. 0. 0. 0. 52. 128. 122. 59. 58. 56. 88. 157. 177.
      134. 76. 51. 69. 139. 175. 158. 102. 63. 53. 67. 118. 149. 95. 0.
      0. 0. 0. 0. 0. 0. 0. 0. 0. 0. 0. 0. 0. 0. 0. 0. 0. 0. 0. 0. 0. 0.
      0. 0. 0. 0. 0. 0. 0. 0. 0. 0. 0. 0. 0. 0. 0. 0. 0. 0. 0. 0. 0. 0.
      0. 0. 0. 0. 0. 0. 0. 0. 0. 0. 0. 0. 0. 0. 0. 0. 0. 0. 0. 0. 0. 0.
      0. 0. 0. 0. 0. 0. 0. 0. 0. 0. 0. 0. 0. 0. 0. 0. 0. 0. 0. 0. 0. 0.
      0. 0. 0. 0. 0. 0. 0. 0. 0. 0. 0. 0. 0. 0. 0. 0. 0. 0. 0. 0. 0. 0.
      0. 0. 0. 0. 0. 0.</_>
    <_>
      29. 45. 44. 44. 45. 46. 51. 49. 43. 24. 48. 135. 174. 138. 31. 26.
      44. 55. 51. 48. 41. 45. 44. 0. 0. 0. 0. 0. 39. 46. 45. 48. 51. 50.
      48. 45. 38. 17. 67. 201. 237. 195. 42. 13. 39. 55. 46. 47. 39. 49.
      44. 0. 0. 0. 0. 0. 43. 51. 52. 46. 49. 56. 50. 48. 46. 19. 69.
      204. 250. 215. 52. 12. 36. 51. 41. 54. 49. 42. 48. 0. 0. 0. 0. 0.
      44. 48. 50. 51. 51. 51. 50. 45. 45. 43. 88. 182. 226. 184. 54. 18.
      34. 45. 53. 54. 52. 42. 52. 0. 0. 0. 0. 0. 49. 53. 53. 51. 54. 59.
      51. 50. 73. 97. 123. 165. 186. 152. 70. 40. 42. 45. 66. 47. 50.
      55. 49. 0. 0. 0. 0. 0. 54. 54. 52. 46. 55. 76. 84. 94. 122. 140.
      143. 150. 152. 142. 111. 89. 77. 63. 56. 49. 54. 50. 48. 0. 0. 0.
      0. 0. 52. 46. 41. 41. 66. 109. 134. 142. 147. 147. 143. 140. 136.
      140. 141. 138. 129. 99. 61. 44. 47. 48. 52. 0. 0. 0. 0. 0. 47. 36.
      34. 54. 97. 142. 162. 160. 155. 152. 145. 141. 140. 137. 139. 153.
      161. 139. 96. 53. 37. 45. 54. 0. 0. 0. 0. 0. 44. 34. 49. 94. 131.
      161. 180. 184. 183. 178. 162. 150. 147. 140. 141. 166. 188. 190.
      169. 110. 47. 35. 43. 0. 0. 0. 0. 0. 42. 41. 83. 133. 158. 180.
      212. 227. 227. 219. 198. 166. 149. 150. 169. 201. 222. 232. 232.
      182. 91. 33. 26. 0. 0. 0. 0. 0. 38. 52. 118. 152. 179. 210. 236.
      248. 251. 248. 231. 195. 160. 165. 200. 233. 247. 248. 248. 227.
      152. 54. 20. 0. 0. 0. 0. 0. 52. 54. 122. 153. 189. 233. 245. 243.
      245. 237. 229. 213. 178. 179. 217. 240. 246. 243. 241. 240. 186.
      77. 24. 0. 0. 0. 0. 0. 60. 55. 123. 160. 190. 238. 247. 238. 237.
      212. 200. 195. 174. 187. 229. 250. 244. 234. 215. 187. 144. 74.
      31. 0. 0. 0. 0. 0. 106. 85. 139. 163. 185. 238. 248. 238. 234.
      203. 176. 169. 161. 185. 229. 250. 244. 228. 207. 172. 135. 80.
      30. 0. 0. 0. 0. 0. 200. 141. 149. 154. 174. 237. 252. 239. 233.
      203. 168. 166. 168. 186. 218. 245. 246. 226. 196. 171. 139. 89.
      74. 0. 0. 0. 0. 0. 247. 182. 150. 147. 156. 213. 237. 241. 242.
      220. 182. 161. 156. 160. 187. 231. 251. 244. 228. 196. 137. 76.
      88. 0. 0. 0. 0. 0. 194. 176. 146. 145. 139. 172. 201. 224. 235.
      222. 184. 150. 144. 139. 153. 192. 224. 237. 231. 204. 158. 92.
      72. 0. 0. 0. 0. 0. 105. 150. 145. 140. 135. 147. 165. 174. 182.
      178. 161. 143. 144. 141. 140. 152. 165. 170. 169. 159. 144. 103.
      57. 0. 0. 0. 0. 0. 64. 146. 146. 134. 137. 139. 142. 139. 133.
      138. 140. 133. 134. 135. 134. 131. 133. 136. 139. 140. 141. 126.
      74. 0. 0. 0. 0. 0. 60. 148. 149. 136. 136. 135. 139. 140. 134.
      135. 137. 139. 135. 134. 134. 132. 132. 132. 129. 137. 146. 123.
      66. 0. 0. 0. 0. 0. 60. 142. 152. 142. 136. 141. 142. 131. 132.
      138. 133. 135. 135. 134. 134. 133. 132. 132. 133. 140. 143. 116.
      63. 0. 0. 0. 0. 0. 64. 141. 153. 145. 137. 139. 140. 136. 138.
      140. 134. 140. 132. 128. 133. 134. 132. 133. 140. 137. 143. 122.
      69. 0. 0. 0. 0. 0. 68. 138. 155. 141. 136. 135. 134. 131. 132.
      132. 127. 131. 131. 132. 134. 135. 134. 133. 133. 134. 146. 130.
      74. 0. 0. 0. 0. 0. 62. 127. 155. 142. 143. 138. 126. 114. 118.
      132. 139. 134. 146. 141. 118. 113. 132. 141. 136. 141. 147. 122.
      67. 0. 0. 0. 0. 0. 51. 105. 149. 154. 153. 131. 91. 65. 75. 120.
      158. 154. 154. 119. 65. 53. 96. 142. 156. 159. 144. 99. 53. 0. 0.
      0. 0. 0. 43. 78. 129. 163. 153. 116. 63. 39. 50. 95. 149. 161.
      139. 93. 46. 36. 58. 116. 159. 161. 129. 75. 44. 0. 0. 0. 0. 0.
      44. 53. 93. 130. 119. 83. 51. 38. 41. 66. 106. 125. 102. 76. 56.
      44. 48. 83. 122. 122. 96. 57. 43. 0. 0. 0. 0. 0. 0. 0. 0. 0. 0. 0.
      0. 0. 0. 0. 0. 0. 0. 0. 0. 0. 0. 0. 0. 0. 0. 0. 0. 0. 0. 0. 0. 0.</_>
    <_>
      29. 46. 50. 50. 61. 68. 73. 115. 167. 176. 181. 184. 170. 127. 84.
      74. 77. 66. 65. 59. 54. 53. 52. 55. 57. 0. 0. 0. 31. 42. 44. 48.
      75. 109. 132. 168. 211. 223. 224. 229. 222. 183. 138. 114. 93. 60.
      55. 58. 65. 61. 52. 56. 57. 0. 0. 0. 29. 37. 37. 63. 122. 177.
      204. 217. 234. 241. 242. 245. 243. 230. 213. 196. 148. 80. 44. 47.
      64. 68. 57. 55. 58. 0. 0. 0. 25. 36. 50. 115. 189. 227. 238. 240.
      243. 246. 247. 246. 246. 246. 247. 247. 210. 143. 68. 43. 45. 61.
      62. 59. 59. 0. 0. 0. 18. 47. 107. 178. 230. 238. 238. 243. 247.
      247. 246. 247. 248. 246. 245. 247. 241. 215. 127. 61. 31. 53. 71.
      66. 58. 0. 0. 0. 14. 76. 180. 221. 239. 240. 241. 246. 247. 246.
      246. 245. 247. 246. 249. 249. 249. 249. 210. 106. 24. 39. 61. 73.
      55. 0. 0. 0. 18. 120. 223. 238. 242. 242. 245. 248. 246. 245. 244.
      245. 247. 247. 245. 245. 247. 248. 246. 189. 31. 39. 97. 91. 58.
      0. 0. 0. 19. 156. 240. 240. 242. 242. 245. 247. 247. 246. 246.
      248. 248. 248. 245. 244. 245. 246. 243. 232. 56. 74. 176. 152. 80.
      0. 0. 0. 32. 173. 242. 240. 239. 241. 244. 244. 244. 246. 248.
      248. 248. 247. 245. 243. 243. 243. 231. 229. 70. 97. 236. 230.
      126. 0. 0. 0. 57. 185. 243. 242. 242. 243. 242. 240. 241. 244.
      247. 246. 244. 243. 241. 241. 239. 239. 242. 219. 96. 96. 207.
      233. 137. 0. 0. 0. 104. 205. 239. 241. 240. 238. 236. 236. 239.
      243. 246. 245. 243. 241. 238. 238. 238. 240. 242. 230. 166. 106.
      112. 144. 90. 0. 0. 0. 148. 226. 238. 239. 235. 227. 224. 228.
      234. 237. 243. 243. 238. 233. 224. 222. 227. 230. 231. 238. 220.
      138. 50. 45. 46. 0. 0. 0. 176. 236. 239. 239. 224. 203. 203. 219.
      230. 232. 239. 242. 236. 222. 202. 197. 209. 223. 235. 239. 232.
      165. 52. 26. 45. 0. 0. 0. 178. 235. 236. 234. 205. 161. 162. 196.
      217. 224. 235. 238. 239. 217. 172. 151. 180. 216. 232. 237. 237.
      177. 59. 25. 54. 0. 0. 0. 176. 237. 239. 234. 206. 169. 168. 197.
      218. 227. 237. 239. 239. 220. 184. 167. 186. 215. 230. 237. 242.
      184. 65. 30. 56. 0. 0. 0. 171. 238. 241. 238. 219. 197. 194. 213.
      227. 234. 240. 241. 242. 234. 215. 204. 213. 228. 237. 241. 244.
      184. 64. 27. 55. 0. 0. 0. 172. 238. 240. 239. 236. 230. 225. 227.
      231. 236. 241. 241. 244. 239. 232. 228. 227. 233. 239. 242. 244.
      181. 63. 27. 53. 0. 0. 0. 170. 239. 241. 242. 243. 241. 237. 237.
      239. 242. 244. 244. 244. 243. 241. 239. 239. 238. 237. 241. 246.
      187. 70. 28. 51. 0. 0. 0. 173. 241. 243. 241. 242. 240. 238. 238.
      240. 241. 243. 245. 244. 243. 244. 243. 240. 239. 239. 242. 245.
      180. 63. 27. 51. 0. 0. 0. 172. 239. 241. 238. 237. 239. 239. 241.
      243. 241. 242. 243. 241. 243. 246. 245. 238. 231. 232. 239. 242.
      170. 53. 23. 48. 0. 0. 0. 175. 236. 228. 215. 217. 231. 239. 241.
      242. 241. 243. 242. 239. 240. 243. 237. 221. 191. 203. 233. 243.
      170. 50. 22. 43. 0. 0. 0. 171. 232. 193. 127. 125. 196. 237. 236.
      237. 240. 241. 238. 234. 233. 238. 224. 174. 100. 113. 194. 239.
      174. 51. 22. 36. 0. 0. 0. 173. 207. 129. 48. 49. 125. 207. 238.
      241. 242. 242. 240. 240. 240. 235. 176. 86. 32. 43. 131. 214. 172.
      48. 20. 36. 0. 0. 0. 123. 147. 74. 23. 20. 54. 132. 204. 210. 207.
      202. 191. 193. 208. 194. 122. 40. 17. 17. 72. 153. 141. 40. 21.
      42. 0. 0. 0. 58. 80. 52. 39. 38. 31. 64. 110. 113. 89. 84. 72. 72.
      90. 92. 58. 29. 40. 38. 53. 85. 84. 31. 40. 52. 0. 0. 0. 0. 0. 0.
      0. 0. 0. 0. 0. 0. 0. 0. 0. 0. 0. 0. 0. 0. 0. 0. 0. 0. 0. 0. 0. 0.
      0. 0. 0. 0. 0. 0. 0. 0. 0. 0. 0. 0. 0. 0. 0. 0. 0. 0. 0. 0. 0. 0.
      0. 0. 0. 0. 0. 0. 0. 0. 0. 0. 0. 0. 0. 0. 0. 0. 0. 0. 0. 0. 0. 0.
      0. 0. 0. 0. 0. 0. 0. 0. 0. 0. 0. 0. 0. 0. 0.</_>
    <_>
      45. 57. 72. 64. 55. 55. 37. 62. 121. 168. 174. 177. 180. 173. 109.
      52. 42. 57. 59. 59. 57. 60. 55. 0. 0. 0. 0. 0. 56. 54. 54. 44. 48.
      71. 98. 124. 183. 216. 213. 212. 217. 214. 176. 112. 84. 64. 48.
      54. 57. 54. 56. 0. 0. 0. 0. 0. 66. 66. 51. 49. 88. 148. 192. 192.
      211. 220. 214. 213. 215. 214. 216. 189. 175. 125. 62. 43. 48. 59.
      64. 0. 0. 0. 0. 0. 54. 49. 43. 70. 142. 204. 220. 218. 220. 220.
      219. 218. 219. 217. 218. 211. 224. 202. 123. 54. 29. 56. 64. 0. 0.
      0. 0. 0. 50. 44. 70. 133. 195. 222. 220. 222. 222. 222. 224. 224.
      222. 219. 216. 207. 219. 223. 200. 121. 51. 31. 56. 0. 0. 0. 0. 0.
      44. 62. 137. 200. 217. 220. 221. 226. 226. 225. 225. 226. 225.
      224. 218. 219. 224. 224. 228. 203. 102. 33. 41. 0. 0. 0. 0. 0. 49.
      87. 172. 220. 220. 220. 224. 229. 231. 228. 227. 227. 226. 225.
      223. 224. 233. 238. 229. 238. 160. 38. 41. 0. 0. 0. 0. 0. 46. 100.
      191. 226. 224. 226. 229. 230. 229. 227. 225. 224. 223. 224. 227.
      228. 233. 236. 227. 236. 162. 36. 42. 0. 0. 0. 0. 0. 38. 104. 198.
      229. 227. 229. 232. 227. 217. 207. 206. 212. 216. 220. 227. 231.
      235. 228. 207. 209. 129. 33. 30. 0. 0. 0. 0. 0. 51. 131. 207. 225.
      224. 227. 229. 223. 199. 177. 179. 198. 212. 217. 223. 230. 234.
      212. 168. 158. 119. 67. 31. 0. 0. 0. 0. 0. 97. 183. 217. 219. 222.
      224. 226. 221. 195. 168. 171. 193. 204. 212. 224. 225. 225. 202.
      158. 158. 164. 163. 69. 0. 0. 0. 0. 0. 143. 216. 222. 217. 220.
      222. 224. 222. 204. 184. 187. 201. 206. 212. 222. 221. 223. 215.
      187. 188. 200. 196. 108. 0. 0. 0. 0. 0. 158. 219. 219. 220. 219.
      221. 221. 219. 215. 208. 208. 210. 211. 213. 216. 219. 224. 222.
      209. 207. 206. 199. 126. 0. 0. 0. 0. 0. 162. 219. 220. 221. 219.
      221. 220. 218. 219. 217. 215. 213. 212. 213. 217. 222. 225. 219.
      210. 213. 209. 200. 136. 0. 0. 0. 0. 0. 162. 221. 225. 219. 220.
      219. 221. 219. 220. 218. 221. 221. 218. 220. 221. 219. 219. 218.
      214. 216. 218. 204. 131. 0. 0. 0. 0. 0. 158. 223. 225. 221. 220.
      219. 222. 220. 220. 219. 221. 218. 220. 221. 221. 219. 219. 218.
      215. 217. 221. 206. 130. 0. 0. 0. 0. 0. 154. 226. 226. 224. 223.
      223. 226. 224. 225. 226. 225. 216. 220. 221. 222. 223. 222. 221.
      219. 219. 222. 205. 130. 0. 0. 0. 0. 0. 150. 226. 223. 219. 221.
      221. 223. 223. 225. 226. 226. 223. 222. 222. 223. 222. 220. 220.
      220. 221. 223. 205. 121. 0. 0. 0. 0. 0. 143. 226. 217. 212. 218.
      217. 213. 215. 216. 214. 215. 217. 216. 217. 218. 217. 215. 215.
      215. 216. 219. 201. 119. 0. 0. 0. 0. 0. 134. 226. 222. 213. 210.
      215. 215. 216. 214. 211. 191. 190. 201. 212. 215. 215. 213. 205.
      200. 207. 217. 200. 119. 0. 0. 0. 0. 0. 130. 223. 217. 192. 160.
      184. 209. 213. 212. 215. 142. 116. 164. 207. 215. 215. 204. 171.
      156. 187. 216. 201. 115. 0. 0. 0. 0. 0. 125. 220. 201. 144. 94.
      137. 205. 211. 211. 219. 105. 56. 135. 207. 217. 214. 181. 117.
      94. 146. 205. 203. 113. 0. 0. 0. 0. 0. 120. 218. 159. 64. 40. 59.
      154. 223. 227. 212. 80. 36. 107. 207. 225. 192. 127. 65. 48. 94.
      164. 180. 106. 0. 0. 0. 0. 0. 76. 130. 85. 47. 41. 43. 88. 139.
      146. 137. 53. 32. 70. 151. 170. 124. 64. 40. 37. 47. 88. 111. 66.
      0. 0. 0. 0. 0. 0. 0. 0. 0. 0. 0. 0. 0. 0. 0. 0. 0. 0. 0. 0. 0. 0.
      0. 0. 0. 0. 0. 0. 0. 0. 0. 0. 0. 0. 0. 0. 0. 0. 0. 0. 0. 0. 0. 0.
      0. 0. 0. 0. 0. 0. 0. 0. 0. 0. 0. 0. 0. 0. 0. 0. 0. 0. 0. 0. 0. 0.
      0. 0. 0. 0. 0. 0. 0. 0. 0. 0. 0. 0. 0. 0. 0. 0. 0. 0. 0. 0. 0. 0.
      0. 0. 0. 0. 0. 0. 0. 0. 0. 0. 0. 0. 0. 0. 0. 0. 0. 0. 0. 0. 0. 0.
      0. 0. 0. 0. 0. 0. 0.</_>
    <_>
      44. 48. 55. 59. 59. 61. 49. 48. 79. 108. 111. 106. 107. 92. 63.
      49. 59. 58. 54. 57. 40. 21. 0. 0. 0. 0. 0. 0. 47. 51. 52. 50. 53.
      66. 59. 73. 139. 198. 215. 210. 208. 170. 90. 45. 53. 59. 57. 61.
      40. 20. 0. 0. 0. 0. 0. 0. 50. 53. 46. 35. 42. 97. 128. 145. 198.
      240. 249. 249. 249. 231. 182. 139. 114. 67. 38. 53. 49. 22. 0. 0.
      0. 0. 0. 0. 48. 54. 30. 29. 80. 170. 235. 248. 250. 249. 245. 247.
      249. 248. 241. 235. 204. 114. 42. 37. 36. 25. 0. 0. 0. 0. 0. 0.
      40. 39. 17. 62. 168. 220. 248. 252. 251. 252. 253. 249. 250. 246.
      245. 249. 243. 200. 118. 47. 19. 18. 0. 0. 0. 0. 0. 0. 32. 18. 55.
      146. 234. 251. 252. 250. 246. 247. 251. 253. 252. 251. 251. 252.
      251. 238. 185. 98. 33. 13. 0. 0. 0. 0. 0. 0. 31. 25. 120. 223.
      251. 251. 252. 252. 253. 251. 249. 252. 247. 251. 253. 252. 251.
      249. 229. 160. 63. 10. 0. 0. 0. 0. 0. 0. 30. 44. 173. 252. 249.
      248. 245. 252. 253. 253. 248. 251. 251. 252. 250. 250. 252. 252.
      249. 198. 84. 7. 0. 0. 0. 0. 0. 0. 17. 47. 186. 252. 254. 254.
      251. 248. 254. 254. 252. 254. 254. 254. 249. 251. 253. 251. 252.
      210. 94. 7. 0. 0. 0. 0. 0. 0. 7. 52. 186. 252. 253. 254. 254. 247.
      252. 254. 254. 254. 252. 253. 252. 253. 254. 252. 252. 217. 108.
      17. 0. 0. 0. 0. 0. 0. 23. 102. 211. 248. 242. 252. 252. 251. 252.
      253. 252. 251. 249. 252. 253. 252. 250. 251. 253. 230. 145. 44. 0.
      0. 0. 0. 0. 0. 58. 167. 248. 250. 251. 251. 247. 247. 252. 251.
      249. 251. 250. 247. 248. 246. 243. 247. 250. 245. 192. 85. 0. 0.
      0. 0. 0. 0. 98. 218. 251. 250. 246. 242. 235. 236. 240. 242. 247.
      250. 249. 242. 237. 235. 235. 238. 243. 247. 223. 116. 0. 0. 0. 0.
      0. 0. 103. 220. 251. 250. 239. 218. 205. 215. 234. 238. 248. 246.
      247. 240. 216. 205. 212. 224. 235. 241. 239. 138. 0. 0. 0. 0. 0.
      0. 107. 221. 251. 248. 229. 185. 161. 182. 219. 238. 248. 246.
      246. 238. 193. 158. 178. 219. 239. 242. 240. 132. 0. 0. 0. 0. 0.
      0. 109. 221. 252. 249. 231. 187. 162. 181. 219. 238. 248. 248.
      246. 237. 192. 154. 173. 220. 242. 243. 243. 135. 0. 0. 0. 0. 0.
      0. 115. 221. 251. 249. 239. 217. 206. 218. 235. 241. 246. 247.
      248. 245. 223. 207. 216. 231. 243. 246. 247. 137. 0. 0. 0. 0. 0.
      0. 115. 222. 251. 247. 243. 239. 237. 242. 244. 243. 244. 245.
      246. 246. 242. 243. 245. 243. 244. 248. 248. 138. 0. 0. 0. 0. 0.
      0. 115. 221. 250. 247. 246. 246. 245. 245. 244. 244. 246. 246.
      244. 246. 243. 241. 244. 244. 243. 246. 248. 139. 0. 0. 0. 0. 0.
      0. 116. 222. 248. 244. 244. 245. 245. 244. 245. 245. 240. 236.
      241. 245. 245. 244. 244. 242. 241. 245. 250. 142. 0. 0. 0. 0. 0.
      0. 117. 220. 245. 223. 218. 233. 241. 244. 245. 232. 209. 201.
      224. 239. 244. 244. 237. 213. 217. 241. 250. 142. 0. 0. 0. 0. 0.
      0. 115. 218. 235. 198. 188. 209. 225. 237. 241. 211. 166. 168.
      188. 237. 242. 234. 216. 173. 170. 228. 245. 140. 0. 0. 0. 0. 0.
      0. 116. 209. 218. 188. 175. 171. 177. 204. 226. 209. 170. 165.
      203. 233. 227. 184. 158. 168. 183. 196. 237. 132. 0. 0. 0. 0. 0.
      0. 76. 159. 185. 189. 166. 122. 105. 128. 157. 171. 183. 183. 167.
      153. 133. 93. 81. 153. 207. 185. 167. 88. 0. 0. 0. 0. 0. 0. 31.
      71. 130. 176. 147. 71. 40. 49. 61. 99. 165. 178. 111. 67. 51. 35.
      40. 111. 175. 155. 74. 31. 0. 0. 0. 0. 0. 0. 28. 26. 72. 103. 86.
      38. 28. 38. 35. 45. 82. 99. 73. 35. 30. 34. 34. 60. 93. 84. 41. 8.
      0. 0. 0. 0. 0. 0. 0. 0. 0. 0. 0. 0. 0. 0. 0. 0. 0. 0. 0. 0. 0. 0.
      0. 0. 0. 0. 0. 0. 0. 0. 0. 0. 0. 0. 0. 0. 0. 0. 0. 0. 0. 0. 0. 0.
      0. 0. 0. 0. 0. 0. 0. 0. 0. 0. 0. 0. 0. 0. 0. 0. 0. 0.</_>
    <_>
      155. 14. 20. 46. 53. 51. 53. 53. 34. 54. 113. 151. 168. 158. 121.
      61. 25. 40. 51. 52. 55. 45. 43. 18. 0. 0. 0. 0. 158. 13. 24. 50.
      51. 54. 52. 47. 29. 82. 183. 229. 251. 247. 208. 112. 26. 36. 51.
      54. 51. 57. 45. 15. 0. 0. 0. 0. 155. 11. 26. 48. 47. 45. 50. 54.
      61. 142. 231. 249. 249. 250. 250. 189. 77. 58. 56. 54. 44. 52. 39.
      14. 0. 0. 0. 0. 145. 13. 24. 43. 51. 63. 76. 76. 100. 182. 239.
      248. 242. 242. 251. 223. 118. 99. 86. 76. 44. 31. 27. 17. 0. 0. 0.
      0. 143. 15. 23. 39. 70. 124. 137. 123. 147. 202. 231. 246. 247.
      249. 249. 232. 153. 152. 145. 139. 94. 32. 26. 18. 0. 0. 0. 0.
      135. 18. 23. 50. 108. 185. 195. 178. 189. 220. 230. 246. 247. 247.
      248. 239. 195. 196. 194. 206. 169. 52. 29. 14. 0. 0. 0. 0. 127.
      16. 28. 94. 193. 228. 226. 222. 225. 233. 238. 247. 249. 251. 249.
      242. 229. 226. 225. 229. 218. 142. 40. 14. 0. 0. 0. 0. 126. 21.
      42. 131. 223. 232. 230. 229. 231. 238. 241. 248. 249. 251. 250.
      245. 242. 237. 237. 235. 234. 203. 66. 17. 0. 0. 0. 0. 115. 24.
      47. 146. 239. 247. 248. 250. 251. 252. 252. 251. 252. 253. 254.
      252. 251. 248. 248. 246. 246. 219. 89. 14. 0. 0. 0. 0. 106. 31.
      61. 159. 239. 248. 249. 251. 251. 253. 252. 252. 251. 253. 254.
      254. 253. 252. 252. 251. 251. 226. 115. 19. 0. 0. 0. 0. 97. 58.
      109. 199. 247. 252. 251. 250. 251. 252. 251. 250. 252. 254. 253.
      253. 253. 254. 253. 252. 252. 238. 164. 65. 0. 0. 0. 0. 77. 80.
      159. 229. 248. 252. 251. 250. 251. 252. 251. 250. 252. 254. 253.
      252. 253. 255. 254. 253. 253. 248. 219. 126. 0. 0. 0. 0. 44. 81.
      189. 245. 249. 250. 252. 253. 253. 254. 253. 252. 253. 254. 253.
      252. 253. 254. 254. 254. 251. 249. 242. 163. 0. 0. 0. 0. 21. 79.
      197. 244. 246. 250. 252. 253. 254. 254. 253. 252. 252. 253. 252.
      252. 253. 253. 254. 253. 250. 249. 244. 172. 0. 0. 0. 0. 16. 90.
      211. 251. 252. 251. 250. 250. 250. 250. 251. 252. 252. 253. 252.
      252. 251. 251. 253. 253. 252. 252. 243. 172. 0. 0. 0. 0. 17. 83.
      200. 244. 250. 251. 250. 249. 250. 250. 251. 250. 250. 252. 252.
      252. 251. 251. 253. 253. 253. 250. 247. 182. 0. 0. 0. 0. 20. 86.
      202. 248. 250. 251. 252. 252. 253. 253. 252. 251. 252. 253. 253.
      253. 253. 253. 253. 252. 252. 250. 250. 190. 0. 0. 0. 0. 23. 87.
      213. 250. 247. 251. 253. 252. 254. 252. 250. 251. 253. 254. 254.
      253. 253. 252. 252. 253. 254. 249. 251. 189. 0. 0. 0. 0. 18. 83.
      213. 245. 248. 250. 251. 251. 253. 251. 249. 250. 251. 252. 252.
      252. 251. 251. 251. 252. 253. 249. 251. 189. 0. 0. 0. 0. 18. 79.
      215. 247. 250. 248. 249. 250. 250. 251. 252. 252. 250. 251. 252.
      250. 247. 249. 251. 249. 249. 250. 253. 187. 0. 0. 0. 0. 21. 61.
      209. 246. 249. 244. 247. 240. 212. 214. 238. 245. 249. 249. 249.
      234. 211. 220. 242. 244. 245. 250. 249. 184. 0. 0. 0. 0. 15. 33.
      185. 236. 248. 242. 247. 215. 141. 137. 198. 232. 246. 245. 239.
      192. 133. 150. 212. 238. 243. 245. 229. 156. 0. 0. 0. 0. 30. 17.
      98. 194. 239. 239. 232. 146. 68. 71. 130. 197. 237. 239. 201. 126.
      65. 81. 160. 219. 237. 234. 184. 105. 0. 0. 0. 0. 47. 29. 55. 122.
      192. 211. 164. 73. 45. 50. 71. 144. 202. 203. 135. 67. 48. 52. 92.
      171. 207. 194. 112. 42. 0. 0. 0. 0. 60. 51. 51. 82. 125. 158. 97.
      45. 60. 55. 54. 98. 142. 138. 93. 54. 56. 53. 66. 115. 151. 134.
      65. 34. 0. 0. 0. 0. 0. 0. 0. 0. 0. 0. 0. 0. 0. 0. 0. 0. 0. 0. 0.
      0. 0. 0. 0. 0. 0. 0. 0. 0. 0. 0. 0. 0. 0. 0. 0. 0. 0. 0. 0. 0. 0.
      0. 0. 0. 0. 0. 0. 0. 0. 0. 0. 0. 0. 0. 0. 0. 0. 0. 0. 0. 0. 0. 0.
      0. 0. 0. 0. 0. 0. 0. 0. 0. 0. 0. 0. 0. 0. 0. 0. 0. 0. 0. 0. 0. 0.
      0. 0. 0.</_>
    <_>
      46. 42. 42. 45. 50. 45. 33. 25. 79. 145. 145. 144. 149. 128. 53.
      18. 44. 57. 48. 50. 41. 23. 0. 0. 0. 0. 0. 0. 60. 62. 50. 46. 49.
      41. 37. 46. 133. 231. 231. 229. 230. 203. 74. 31. 63. 60. 46. 52.
      39. 19. 0. 0. 0. 0. 0. 0. 51. 58. 36. 16. 32. 74. 100. 105. 167.
      249. 249. 248. 243. 221. 101. 89. 115. 74. 38. 36. 44. 23. 0. 0.
      0. 0. 0. 0. 51. 35. 26. 52. 93. 133. 154. 156. 195. 247. 249. 251.
      246. 229. 142. 137. 153. 134. 84. 26. 28. 20. 0. 0. 0. 0. 0. 0.
      47. 19. 39. 127. 187. 191. 182. 184. 215. 238. 241. 246. 249. 238.
      192. 166. 177. 206. 176. 59. 19. 15. 0. 0. 0. 0. 0. 0. 36. 29. 86.
      188. 231. 223. 212. 212. 225. 231. 235. 240. 243. 238. 224. 204.
      209. 225. 225. 152. 39. 14. 0. 0. 0. 0. 0. 0. 24. 21. 134. 226.
      245. 241. 239. 239. 240. 241. 243. 246. 246. 243. 240. 235. 235.
      230. 234. 228. 34. 11. 0. 0. 0. 0. 0. 0. 25. 31. 163. 237. 248.
      248. 249. 251. 252. 251. 251. 251. 251. 248. 244. 252. 250. 247.
      251. 236. 45. 9. 0. 0. 0. 0. 0. 0. 18. 37. 167. 238. 250. 250.
      251. 251. 251. 251. 251. 250. 251. 249. 246. 252. 249. 252. 251.
      218. 50. 6. 0. 0. 0. 0. 0. 0. 16. 67. 185. 241. 251. 252. 251.
      251. 251. 250. 250. 249. 250. 249. 248. 250. 248. 252. 250. 222.
      97. 15. 0. 0. 0. 0. 0. 0. 44. 140. 222. 245. 250. 251. 251. 251.
      250. 250. 249. 249. 247. 248. 250. 250. 248. 250. 248. 242. 173.
      61. 0. 0. 0. 0. 0. 0. 78. 210. 246. 245. 249. 250. 249. 249. 249.
      249. 248. 248. 246. 246. 250. 250. 248. 247. 245. 250. 223. 116.
      0. 0. 0. 0. 0. 0. 91. 240. 248. 244. 247. 248. 248. 248. 248. 248.
      248. 247. 248. 249. 249. 249. 248. 248. 248. 250. 233. 139. 0. 0.
      0. 0. 0. 0. 93. 245. 245. 247. 246. 246. 247. 247. 247. 247. 246.
      246. 247. 247. 246. 247. 247. 248. 247. 247. 230. 142. 0. 0. 0. 0.
      0. 0. 99. 243. 244. 249. 246. 246. 246. 246. 247. 246. 246. 246.
      246. 244. 244. 248. 246. 245. 247. 247. 229. 143. 0. 0. 0. 0. 0.
      0. 101. 238. 248. 247. 246. 246. 245. 246. 246. 245. 243. 246.
      245. 243. 245. 246. 245. 247. 245. 243. 230. 144. 0. 0. 0. 0. 0.
      0. 99. 248. 248. 244. 248. 245. 247. 248. 246. 247. 247. 240. 244.
      245. 246. 245. 244. 245. 245. 244. 229. 145. 0. 0. 0. 0. 0. 0. 94.
      248. 247. 247. 247. 238. 243. 246. 240. 243. 247. 242. 244. 242.
      243. 246. 244. 241. 243. 245. 229. 149. 0. 0. 0. 0. 0. 0. 90. 243.
      244. 249. 245. 245. 245. 247. 247. 247. 246. 247. 245. 244. 241.
      245. 246. 240. 242. 246. 231. 151. 0. 0. 0. 0. 0. 0. 91. 238. 246.
      246. 242. 246. 226. 204. 234. 246. 244. 243. 245. 238. 207. 209.
      234. 241. 242. 245. 231. 142. 0. 0. 0. 0. 0. 0. 90. 223. 247. 246.
      246. 237. 160. 108. 171. 236. 245. 244. 241. 201. 137. 138. 196.
      236. 244. 243. 218. 123. 0. 0. 0. 0. 0. 0. 64. 160. 229. 247. 235.
      178. 101. 66. 111. 191. 238. 245. 202. 145. 91. 89. 143. 210. 240.
      236. 184. 83. 0. 0. 0. 0. 0. 0. 28. 77. 177. 231. 189. 101. 63.
      70. 79. 121. 184. 215. 137. 91. 88. 79. 85. 146. 198. 197. 132.
      45. 0. 0. 0. 0. 0. 0. 0. 0. 0. 0. 0. 0. 0. 0. 0. 0. 0. 0. 0. 0. 0.
      0. 0. 0. 0. 0. 0. 0. 0. 0. 0. 0. 0. 0. 0. 0. 0. 0. 0. 0. 0. 0. 0.
      0. 0. 0. 0. 0. 0. 0. 0. 0. 0. 0. 0. 0. 0. 0. 0. 0. 0. 0. 0. 0. 0.
      0. 0. 0. 0. 0. 0. 0. 0. 0. 0. 0. 0. 0. 0. 0. 0. 0. 0. 0. 0. 0. 0.
      0. 0. 0. 0. 0. 0. 0. 0. 0. 0. 0. 0. 0. 0. 0. 0. 0. 0. 0. 0. 0. 0.
      0. 0. 0. 0. 0. 0. 0. 0. 0. 0. 0. 0. 0. 0. 0. 0. 0. 0. 0. 0. 0. 0.
      0. 0. 0. 0. 0. 0. 0. 0. 0. 0. 0. 0. 0. 0. 0.</_>
    <_>
      51. 53. 53. 57. 52. 41. 35. 44. 67. 96. 109. 118. 122. 102. 69.
      39. 33. 45. 53. 52. 53. 49. 44. 0. 0. 0. 0. 0. 51. 56. 55. 49. 43.
      40. 54. 97. 162. 215. 235. 236. 242. 237. 198. 112. 39. 20. 35.
      43. 53. 50. 47. 0. 0. 0. 0. 0. 58. 58. 49. 32. 55. 98. 146. 195.
      234. 250. 249. 248. 251. 254. 247. 217. 168. 119. 58. 17. 37. 49.
      60. 0. 0. 0. 0. 0. 60. 50. 33. 46. 118. 198. 238. 251. 248. 244.
      249. 253. 251. 251. 252. 249. 240. 205. 119. 38. 21. 32. 58. 0. 0.
      0. 0. 0. 52. 41. 39. 110. 193. 239. 247. 250. 252. 251. 252. 253.
      251. 251. 248. 245. 249. 243. 205. 129. 41. 18. 37. 0. 0. 0. 0. 0.
      39. 49. 91. 185. 236. 249. 241. 247. 253. 254. 255. 251. 250. 252.
      253. 251. 251. 251. 245. 211. 118. 41. 21. 0. 0. 0. 0. 0. 31. 75.
      169. 234. 245. 249. 251. 253. 250. 247. 252. 254. 251. 249. 253.
      253. 251. 250. 250. 242. 196. 91. 19. 0. 0. 0. 0. 0. 33. 97. 217.
      247. 246. 246. 253. 253. 253. 251. 251. 252. 252. 251. 251. 250.
      249. 249. 248. 246. 223. 125. 19. 0. 0. 0. 0. 0. 33. 104. 227.
      249. 251. 254. 252. 246. 247. 248. 242. 240. 246. 250. 252. 249.
      247. 245. 238. 229. 205. 120. 18. 0. 0. 0. 0. 0. 32. 105. 232.
      252. 248. 252. 252. 245. 237. 214. 215. 229. 236. 246. 251. 250.
      247. 236. 214. 194. 169. 106. 29. 0. 0. 0. 0. 0. 69. 151. 232.
      253. 248. 253. 250. 243. 232. 206. 208. 225. 233. 244. 251. 250.
      248. 231. 201. 177. 154. 121. 76. 0. 0. 0. 0. 0. 130. 213. 245.
      253. 251. 253. 249. 245. 235. 212. 216. 230. 236. 245. 250. 250.
      249. 235. 213. 197. 197. 194. 135. 0. 0. 0. 0. 0. 171. 247. 247.
      252. 252. 253. 252. 248. 243. 228. 231. 236. 239. 248. 251. 252.
      251. 242. 229. 222. 227. 234. 176. 0. 0. 0. 0. 0. 173. 247. 246.
      251. 252. 253. 253. 252. 250. 245. 246. 244. 243. 251. 253. 252.
      252. 247. 242. 238. 237. 237. 180. 0. 0. 0. 0. 0. 172. 244. 246.
      251. 252. 251. 254. 253. 252. 251. 251. 248. 247. 253. 254. 251.
      251. 252. 252. 250. 248. 241. 174. 0. 0. 0. 0. 0. 176. 245. 248.
      249. 251. 250. 252. 253. 252. 252. 252. 250. 250. 253. 253. 252.
      251. 253. 253. 250. 248. 247. 175. 0. 0. 0. 0. 0. 177. 244. 248.
      248. 250. 249. 252. 254. 252. 253. 253. 253. 253. 253. 254. 254.
      254. 255. 255. 251. 252. 252. 174. 0. 0. 0. 0. 0. 170. 240. 249.
      248. 251. 250. 250. 251. 254. 253. 249. 253. 253. 253. 251. 254.
      255. 254. 255. 254. 253. 249. 173. 0. 0. 0. 0. 0. 169. 238. 249.
      249. 250. 250. 251. 250. 249. 250. 247. 252. 251. 254. 244. 252.
      252. 252. 252. 252. 250. 250. 168. 0. 0. 0. 0. 0. 178. 243. 249.
      249. 248. 247. 252. 253. 246. 249. 252. 241. 249. 253. 253. 253.
      244. 247. 245. 249. 250. 250. 175. 0. 0. 0. 0. 0. 173. 240. 247.
      246. 240. 239. 248. 250. 250. 250. 237. 202. 226. 247. 246. 250.
      249. 251. 245. 247. 246. 250. 180. 0. 0. 0. 0. 0. 170. 235. 245.
      217. 178. 193. 235. 246. 245. 240. 196. 112. 162. 232. 233. 250.
      248. 210. 168. 211. 235. 249. 192. 0. 0. 0. 0. 0. 158. 216. 219.
      155. 79. 112. 200. 242. 249. 233. 155. 39. 107. 234. 247. 246.
      218. 106. 57. 122. 188. 230. 191. 0. 0. 0. 0. 0. 96. 141. 131. 69.
      23. 51. 129. 184. 211. 198. 114. 31. 79. 196. 226. 207. 140. 40.
      26. 60. 115. 158. 135. 0. 0. 0. 0. 0. 0. 0. 0. 0. 0. 0. 0. 0. 0.
      0. 0. 0. 0. 0. 0. 0. 0. 0. 0. 0. 0. 0. 0. 0. 0. 0. 0. 0. 0. 0. 0.
      0. 0. 0. 0. 0. 0. 0. 0. 0. 0. 0. 0. 0. 0. 0. 0. 0. 0. 0. 0. 0. 0.
      0. 0. 0. 0. 0. 0. 0. 0. 0. 0. 0. 0. 0. 0. 0. 0. 0. 0. 0. 0. 0. 0.
      0. 0. 0. 0. 0. 0. 0. 0. 0. 0. 0. 0. 0. 0. 0. 0. 0. 0. 0. 0. 0. 0.
      0. 0. 0. 0. 0. 0. 0. 0. 0. 0. 0. 0. 0. 0. 0.</_>
    <_>
      51. 55. 57. 54. 45. 46. 51. 74. 124. 183. 208. 212. 222. 214. 157.
      67. 20. 18. 40. 45. 43. 43. 38. 0. 0. 0. 0. 0. 57. 59. 55. 49. 52.
      84. 129. 175. 224. 250. 248. 252. 249. 251. 240. 194. 143. 87. 42.
      25. 36. 47. 40. 0. 0. 0. 0. 0. 60. 52. 41. 48. 96. 168. 222. 243.
      248. 251. 247. 251. 246. 252. 252. 244. 233. 181. 97. 35. 21. 34.
      42. 0. 0. 0. 0. 0. 52. 41. 49. 93. 163. 226. 245. 248. 246. 253.
      254. 253. 253. 254. 250. 240. 249. 237. 183. 98. 28. 17. 33. 0. 0.
      0. 0. 0. 42. 44. 93. 169. 219. 243. 244. 246. 250. 253. 250. 253.
      245. 253. 253. 248. 252. 253. 235. 183. 84. 25. 19. 0. 0. 0. 0. 0.
      40. 69. 148. 224. 248. 248. 248. 250. 252. 252. 253. 253. 251.
      254. 254. 253. 250. 248. 249. 237. 164. 65. 16. 0. 0. 0. 0. 0. 41.
      97. 191. 245. 245. 243. 246. 252. 249. 244. 253. 253. 253. 254.
      250. 252. 250. 248. 249. 246. 222. 105. 22. 0. 0. 0. 0. 0. 39.
      107. 204. 241. 247. 251. 250. 251. 248. 240. 242. 242. 246. 252.
      248. 251. 252. 245. 238. 226. 229. 115. 26. 0. 0. 0. 0. 0. 38.
      108. 205. 241. 247. 253. 253. 249. 240. 224. 220. 232. 240. 250.
      250. 251. 249. 234. 218. 189. 181. 102. 37. 0. 0. 0. 0. 0. 65.
      140. 218. 243. 249. 253. 252. 246. 231. 209. 202. 224. 235. 249.
      250. 252. 247. 228. 206. 167. 154. 118. 66. 0. 0. 0. 0. 0. 120.
      200. 238. 245. 250. 252. 250. 246. 233. 215. 209. 225. 234. 246.
      248. 251. 247. 229. 211. 190. 178. 190. 132. 0. 0. 0. 0. 0. 162.
      227. 248. 251. 253. 253. 250. 248. 242. 233. 230. 235. 239. 248.
      248. 251. 251. 241. 233. 225. 222. 233. 166. 0. 0. 0. 0. 0. 168.
      230. 247. 252. 254. 254. 252. 250. 247. 244. 243. 243. 245. 250.
      251. 254. 254. 252. 250. 243. 245. 246. 167. 0. 0. 0. 0. 0. 162.
      230. 247. 252. 254. 254. 253. 252. 251. 250. 249. 248. 249. 252.
      252. 254. 254. 252. 252. 244. 247. 246. 166. 0. 0. 0. 0. 0. 162.
      234. 250. 253. 253. 252. 253. 254. 254. 254. 254. 255. 254. 254.
      254. 253. 253. 253. 253. 251. 248. 250. 169. 0. 0. 0. 0. 0. 160.
      236. 250. 251. 251. 251. 252. 253. 254. 254. 254. 255. 254. 253.
      253. 252. 253. 254. 253. 253. 239. 251. 175. 0. 0. 0. 0. 0. 157.
      237. 246. 249. 250. 251. 252. 252. 253. 253. 253. 253. 254. 255.
      255. 254. 253. 254. 252. 251. 249. 253. 171. 0. 0. 0. 0. 0. 154.
      236. 244. 250. 252. 252. 253. 252. 252. 253. 252. 251. 248. 248.
      255. 253. 249. 254. 253. 252. 253. 253. 172. 0. 0. 0. 0. 0. 152.
      237. 248. 253. 254. 250. 253. 253. 251. 252. 253. 253. 253. 252.
      252. 252. 251. 251. 250. 250. 249. 251. 179. 0. 0. 0. 0. 0. 145.
      239. 248. 250. 250. 245. 250. 247. 246. 252. 250. 250. 252. 251.
      242. 233. 244. 249. 246. 248. 247. 249. 184. 0. 0. 0. 0. 0. 121.
      222. 245. 245. 245. 246. 241. 206. 200. 234. 243. 244. 246. 243.
      219. 192. 208. 241. 245. 247. 247. 244. 176. 0. 0. 0. 0. 0. 77.
      169. 234. 239. 241. 243. 221. 140. 121. 183. 232. 243. 243. 231.
      184. 129. 140. 199. 235. 241. 239. 225. 146. 0. 0. 0. 0. 0. 36.
      90. 170. 191. 196. 190. 161. 83. 60. 111. 164. 179. 178. 162. 120.
      68. 70. 125. 174. 179. 180. 161. 101. 0. 0. 0. 0. 0. 0. 0. 0. 0.
      0. 0. 0. 0. 0. 0. 0. 0. 0. 0. 0. 0. 0. 0. 0. 0. 0. 0. 0. 0. 0. 0.
      0. 0. 0. 0. 0. 0. 0. 0. 0. 0. 0. 0. 0. 0. 0. 0. 0. 0. 0. 0. 0. 0.
      0. 0. 0. 0. 0. 0. 0. 0. 0. 0. 0. 0. 0. 0. 0. 0. 0. 0. 0. 0. 0. 0.
      0. 0. 0. 0. 0. 0. 0. 0. 0. 0. 0. 0. 0. 0. 0. 0. 0. 0. 0. 0. 0. 0.
      0. 0. 0. 0. 0. 0. 0. 0. 0. 0. 0. 0. 0. 0. 0. 0. 0. 0. 0. 0. 0. 0.
      0. 0. 0. 0. 0. 0. 0. 0. 0. 0. 0. 0. 0. 0. 0. 0. 0. 0. 0. 0. 0. 0.
      0. 0. 0. 0.</_>
    <_>
      46. 56. 55. 49. 48. 30. 33. 78. 154. 203. 215. 206. 207. 182. 121.
      56. 28. 24. 32. 35. 26. 46. 108. 0. 0. 0. 0. 0. 55. 64. 45. 32.
      52. 84. 102. 154. 214. 241. 246. 243. 246. 241. 206. 156. 110. 66.
      30. 28. 36. 47. 56. 0. 0. 0. 0. 0. 60. 57. 30. 36. 91. 212. 231.
      238. 244. 247. 249. 250. 249. 246. 242. 231. 206. 155. 75. 21. 16.
      45. 41. 0. 0. 0. 0. 0. 53. 43. 35. 79. 168. 233. 244. 248. 244.
      245. 249. 251. 249. 246. 248. 247. 240. 222. 160. 71. 20. 25. 41.
      0. 0. 0. 0. 0. 41. 38. 76. 155. 233. 245. 245. 246. 247. 248. 250.
      250. 249. 249. 250. 245. 242. 240. 217. 149. 64. 15. 21. 0. 0. 0.
      0. 0. 36. 55. 141. 222. 245. 246. 244. 244. 246. 248. 248. 248.
      250. 249. 248. 247. 247. 239. 229. 210. 142. 39. 16. 0. 0. 0. 0.
      0. 38. 78. 185. 242. 240. 240. 245. 246. 244. 242. 244. 246. 245.
      248. 246. 243. 243. 239. 236. 238. 194. 84. 25. 0. 0. 0. 0. 0. 44.
      85. 187. 248. 245. 243. 237. 239. 239. 226. 232. 238. 235. 245.
      248. 241. 237. 235. 227. 216. 176. 91. 18. 0. 0. 0. 0. 0. 38. 99.
      199. 248. 243. 244. 234. 235. 226. 198. 207. 225. 227. 241. 245.
      237. 232. 224. 195. 158. 127. 80. 26. 0. 0. 0. 0. 0. 57. 136. 217.
      245. 240. 241. 236. 231. 213. 173. 178. 216. 226. 238. 245. 238.
      231. 209. 171. 142. 128. 95. 44. 0. 0. 0. 0. 0. 104. 187. 235.
      244. 242. 241. 237. 228. 212. 177. 181. 213. 223. 235. 242. 236.
      231. 209. 180. 167. 167. 149. 93. 0. 0. 0. 0. 0. 138. 217. 243.
      246. 247. 245. 240. 234. 227. 211. 214. 223. 225. 240. 243. 234.
      231. 224. 215. 211. 213. 201. 134. 0. 0. 0. 0. 0. 143. 220. 245.
      248. 249. 249. 246. 243. 242. 238. 239. 242. 241. 248. 249. 242.
      241. 238. 235. 235. 235. 223. 146. 0. 0. 0. 0. 0. 136. 216. 245.
      248. 249. 251. 250. 247. 245. 242. 242. 243. 244. 244. 249. 246.
      245. 242. 238. 239. 239. 227. 143. 0. 0. 0. 0. 0. 143. 218. 244.
      247. 250. 252. 252. 250. 250. 250. 249. 249. 253. 243. 249. 249.
      248. 246. 242. 244. 244. 229. 142. 0. 0. 0. 0. 0. 148. 221. 243.
      246. 249. 251. 251. 250. 249. 251. 250. 250. 250. 248. 250. 244.
      245. 247. 246. 248. 246. 227. 139. 0. 0. 0. 0. 0. 147. 221. 245.
      244. 245. 249. 251. 253. 251. 247. 253. 251. 243. 251. 246. 248.
      249. 248. 246. 248. 247. 228. 137. 0. 0. 0. 0. 0. 148. 224. 245.
      243. 245. 250. 249. 247. 245. 244. 248. 251. 248. 252. 249. 248.
      248. 246. 246. 248. 245. 229. 136. 0. 0. 0. 0. 0. 141. 222. 242.
      244. 242. 240. 241. 244. 246. 246. 246. 246. 248. 243. 242. 243.
      243. 243. 246. 248. 240. 223. 123. 0. 0. 0. 0. 0. 137. 226. 243.
      242. 242. 243. 238. 233. 238. 246. 243. 238. 241. 237. 217. 218.
      235. 240. 240. 242. 244. 228. 126. 0. 0. 0. 0. 0. 120. 220. 243.
      235. 240. 233. 196. 163. 181. 222. 243. 240. 239. 225. 169. 151.
      195. 231. 238. 238. 236. 205. 110. 0. 0. 0. 0. 0. 66. 155. 227.
      243. 240. 197. 124. 71. 99. 174. 231. 241. 227. 179. 105. 69. 118.
      198. 234. 234. 213. 134. 56. 0. 0. 0. 0. 0. 21. 63. 156. 194. 189.
      142. 74. 30. 47. 110. 173. 189. 171. 114. 56. 25. 50. 128. 192.
      190. 152. 60. 21. 0. 0. 0. 0. 0. 0. 0. 0. 0. 0. 0. 0. 0. 0. 0. 0.
      0. 0. 0. 0. 0. 0. 0. 0. 0. 0. 0. 0. 0. 0. 0. 0. 0. 0. 0. 0. 0. 0.
      0. 0. 0. 0. 0. 0. 0. 0. 0. 0. 0. 0. 0. 0. 0. 0. 0. 0. 0. 0. 0. 0.
      0. 0. 0. 0. 0. 0. 0. 0. 0. 0. 0. 0. 0. 0. 0. 0. 0. 0. 0. 0. 0. 0.
      0. 0. 0. 0. 0. 0. 0. 0. 0. 0. 0. 0. 0. 0. 0. 0. 0. 0. 0. 0. 0. 0.
      0. 0. 0. 0. 0. 0. 0. 0. 0. 0. 0. 0. 0. 0. 0. 0. 0. 0. 0. 0. 0. 0.
      0. 0. 0. 0. 0. 0. 0. 0. 0. 0. 0. 0. 0. 0. 0. 0. 0. 0. 0.</_>
    <_>
      88. 62. 31. 24. 35. 35. 33. 45. 39. 38. 47. 53. 47. 24. 43. 123.
      172. 113. 27. 15. 40. 38. 36. 35. 34. 33. 0. 0. 63. 41. 28. 34.
      39. 39. 40. 46. 40. 36. 43. 45. 41. 15. 60. 209. 243. 170. 39. 8.
      35. 42. 41. 29. 31. 34. 0. 0. 44. 33. 35. 40. 38. 42. 44. 35. 37.
      52. 53. 45. 54. 48. 91. 226. 237. 153. 29. 11. 37. 40. 44. 37. 32.
      34. 0. 0. 42. 36. 38. 41. 41. 47. 41. 28. 55. 120. 140. 128. 132.
      129. 147. 209. 181. 79. 13. 20. 48. 39. 35. 40. 35. 35. 0. 0. 44.
      44. 43. 46. 45. 42. 43. 57. 114. 190. 209. 204. 195. 187. 187.
      193. 136. 54. 22. 34. 49. 46. 29. 37. 37. 37. 0. 0. 46. 47. 46.
      45. 47. 45. 65. 113. 166. 203. 196. 192. 194. 192. 196. 190. 145.
      87. 75. 48. 30. 38. 31. 43. 37. 39. 0. 0. 47. 44. 39. 44. 73. 96.
      116. 143. 166. 187. 200. 201. 204. 202. 198. 189. 157. 117. 124.
      96. 41. 30. 23. 39. 36. 40. 0. 0. 49. 42. 44. 81. 139. 167. 159.
      158. 177. 192. 201. 202. 205. 204. 199. 191. 167. 143. 159. 159.
      109. 63. 25. 27. 36. 41. 0. 0. 49. 46. 79. 148. 197. 207. 198.
      192. 198. 207. 208. 206. 206. 205. 203. 199. 191. 182. 191. 196.
      178. 125. 48. 20. 27. 38. 0. 0. 49. 58. 117. 192. 216. 210. 208.
      209. 210. 211. 211. 209. 207. 208. 208. 207. 209. 209. 210. 211.
      213. 176. 88. 36. 22. 39. 0. 0. 44. 62. 131. 203. 221. 217. 217.
      222. 225. 222. 219. 216. 213. 214. 215. 215. 216. 217. 215. 212.
      215. 194. 114. 39. 22. 43. 0. 0. 38. 57. 139. 205. 221. 217. 217.
      223. 226. 224. 221. 217. 215. 217. 219. 221. 221. 221. 221. 216.
      212. 196. 120. 38. 22. 38. 0. 0. 42. 88. 170. 212. 215. 211. 215.
      218. 219. 219. 218. 217. 215. 216. 217. 219. 219. 215. 216. 213.
      209. 199. 137. 51. 23. 28. 0. 0. 60. 147. 206. 207. 211. 213. 214.
      216. 216. 216. 217. 217. 216. 215. 215. 214. 214. 211. 209. 207.
      203. 202. 173. 99. 37. 26. 0. 0. 95. 189. 207. 207. 207. 207. 216.
      216. 215. 215. 215. 216. 216. 214. 215. 212. 213. 213. 211. 210.
      203. 202. 208. 147. 51. 25. 0. 0. 100. 197. 212. 209. 207. 210.
      219. 217. 216. 215. 215. 215. 215. 215. 215. 216. 216. 216. 215.
      211. 207. 205. 205. 161. 81. 38. 0. 0. 106. 204. 214. 208. 208.
      215. 220. 222. 222. 221. 220. 219. 219. 218. 218. 219. 218. 216.
      215. 211. 207. 205. 204. 187. 122. 55. 0. 0. 105. 211. 214. 206.
      208. 218. 221. 225. 226. 225. 225. 224. 224. 224. 224. 226. 226.
      224. 223. 220. 215. 212. 210. 207. 148. 70. 0. 0. 105. 214. 215.
      206. 209. 220. 221. 225. 225. 224. 224. 224. 224. 225. 225. 227.
      226. 224. 223. 220. 217. 213. 210. 212. 157. 76. 0. 0. 101. 209.
      216. 206. 209. 221. 222. 225. 225. 224. 224. 223. 224. 224. 225.
      226. 224. 222. 222. 219. 216. 211. 209. 210. 163. 82. 0. 0. 98.
      201. 216. 207. 209. 222. 222. 226. 226. 225. 225. 225. 225. 226.
      226. 227. 226. 224. 224. 220. 217. 211. 208. 209. 169. 93. 0. 0.
      94. 194. 214. 206. 208. 221. 222. 224. 224. 223. 223. 222. 222.
      223. 223. 225. 225. 222. 222. 218. 215. 209. 206. 206. 173. 96. 0.
      0. 92. 190. 210. 195. 200. 203. 207. 213. 214. 214. 213. 211. 211.
      211. 211. 217. 217. 217. 218. 213. 205. 197. 195. 203. 173. 94. 0.
      0. 100. 194. 210. 191. 189. 181. 187. 195. 196. 198. 196. 186.
      186. 191. 188. 195. 194. 194. 197. 193. 187. 185. 185. 201. 172.
      92. 0. 0. 100. 189. 202. 180. 170. 162. 170. 184. 191. 195. 194.
      181. 171. 175. 186. 188. 189. 187. 184. 171. 173. 179. 182. 189.
      158. 82. 0. 0. 90. 152. 162. 141. 125. 117. 127. 169. 190. 192.
      190. 167. 142. 150. 186. 191. 192. 178. 143. 120. 129. 147. 153.
      144. 123. 70. 0. 0. 67. 99. 103. 89. 80. 74. 80. 102. 121. 125.
      119. 108. 95. 103. 135. 138. 141. 126. 90. 63. 72. 92. 95. 79. 75.
      48. 0. 0. 0. 0. 0. 0. 0. 0. 0. 0. 0. 0. 0. 0. 0. 0. 0. 0. 0. 0. 0.
      0. 0. 0. 0. 0. 0. 0. 0. 0.</_>
    <_>
      54. 50. 46. 49. 58. 52. 36. 36. 79. 124. 133. 130. 130. 117. 84.
      48. 36. 45. 52. 54. 51. 44. 43. 0. 0. 0. 0. 0. 57. 56. 53. 49. 45.
      51. 55. 87. 159. 218. 231. 231. 231. 219. 170. 105. 67. 56. 49.
      46. 51. 53. 49. 0. 0. 0. 0. 0. 51. 57. 67. 50. 16. 110. 163. 200.
      231. 246. 249. 250. 243. 243. 229. 197. 167. 122. 62. 29. 39. 57.
      53. 0. 0. 0. 0. 0. 65. 56. 38. 44. 65. 209. 242. 245. 248. 248.
      249. 250. 247. 248. 248. 244. 236. 195. 116. 51. 35. 48. 57. 0. 0.
      0. 0. 0. 72. 46. 28. 85. 180. 243. 248. 248. 250. 252. 249. 251.
      252. 253. 250. 248. 250. 236. 188. 120. 56. 32. 48. 0. 0. 0. 0. 0.
      49. 36. 72. 167. 242. 248. 249. 249. 250. 252. 250. 252. 253. 249.
      250. 250. 250. 249. 238. 194. 118. 49. 32. 0. 0. 0. 0. 0. 45. 43.
      131. 238. 248. 251. 251. 253. 252. 250. 250. 252. 253. 248. 249.
      252. 253. 252. 252. 236. 181. 93. 23. 0. 0. 0. 0. 0. 47. 40. 140.
      247. 247. 251. 250. 251. 252. 249. 248. 248. 250. 251. 251. 252.
      251. 248. 248. 244. 221. 130. 25. 0. 0. 0. 0. 0. 34. 38. 148. 249.
      247. 251. 249. 247. 245. 237. 230. 234. 241. 249. 251. 251. 247.
      241. 235. 221. 196. 111. 25. 0. 0. 0. 0. 0. 27. 71. 170. 249. 247.
      249. 248. 246. 238. 213. 199. 214. 233. 244. 249. 248. 247. 239.
      218. 185. 156. 98. 39. 0. 0. 0. 0. 0. 51. 136. 212. 250. 250. 250.
      249. 246. 236. 204. 184. 207. 233. 244. 249. 247. 244. 237. 211.
      179. 163. 120. 60. 0. 0. 0. 0. 0. 83. 196. 242. 249. 251. 251.
      249. 246. 241. 219. 203. 217. 233. 248. 250. 248. 242. 235. 220.
      210. 220. 181. 96. 0. 0. 0. 0. 0. 97. 214. 247. 248. 251. 252.
      250. 247. 248. 242. 238. 236. 238. 249. 250. 251. 250. 244. 237.
      233. 234. 204. 121. 0. 0. 0. 0. 0. 100. 209. 246. 248. 251. 253.
      252. 252. 254. 252. 252. 249. 248. 250. 248. 253. 254. 255. 250.
      248. 248. 213. 125. 0. 0. 0. 0. 0. 96. 204. 247. 249. 251. 252.
      252. 252. 254. 252. 251. 250. 250. 251. 247. 249. 253. 251. 254.
      251. 249. 212. 123. 0. 0. 0. 0. 0. 98. 208. 248. 249. 251. 251.
      252. 251. 254. 254. 252. 252. 254. 250. 253. 254. 249. 254. 249.
      252. 252. 215. 130. 0. 0. 0. 0. 0. 103. 210. 248. 249. 251. 253.
      254. 254. 252. 255. 254. 254. 254. 253. 247. 254. 250. 254. 248.
      252. 253. 217. 132. 0. 0. 0. 0. 0. 103. 209. 248. 249. 251. 251.
      253. 252. 252. 254. 253. 252. 254. 253. 251. 254. 253. 252. 247.
      252. 253. 219. 134. 0. 0. 0. 0. 0. 99. 206. 247. 249. 251. 251.
      250. 249. 250. 252. 246. 243. 253. 251. 252. 254. 253. 252. 253.
      253. 244. 216. 130. 0. 0. 0. 0. 0. 103. 208. 247. 245. 239. 242.
      248. 252. 251. 249. 245. 245. 250. 245. 247. 250. 250. 244. 247.
      251. 247. 224. 128. 0. 0. 0. 0. 0. 110. 216. 242. 221. 189. 195.
      231. 250. 244. 217. 166. 98. 110. 227. 248. 250. 244. 196. 169.
      197. 248. 239. 134. 0. 0. 0. 0. 0. 112. 216. 219. 162. 95. 94.
      173. 236. 252. 228. 149. 58. 73. 206. 249. 245. 203. 119. 74. 113.
      217. 220. 132. 0. 0. 0. 0. 0. 98. 180. 165. 98. 36. 31. 104. 196.
      245. 214. 121. 43. 72. 189. 233. 206. 140. 62. 27. 46. 145. 156.
      106. 0. 0. 0. 0. 0. 58. 81. 73. 49. 26. 18. 36. 73. 99. 89. 53.
      25. 37. 84. 103. 90. 56. 36. 35. 37. 74. 85. 68. 0. 0. 0. 0. 0.
      50. 51. 41. 27. 45. 41. 30. 33. 41. 43. 40. 40. 48. 60. 68. 66.
      59. 66. 80. 73. 61. 46. 44. 0. 0. 0. 0. 0. 131. 131. 136. 147.
      149. 145. 141. 146. 150. 149. 144. 140. 131. 125. 122. 115. 115.
      119. 130. 130. 98. 29. 31. 0. 0. 0. 0. 0. 0. 0. 0. 0. 0. 0. 0. 0.
      0. 0. 0. 0. 0. 0. 0. 0. 0. 0. 0. 0. 0. 0. 0. 0. 0. 0. 0. 0. 0. 0.
      0. 0. 0. 0. 0. 0. 0. 0. 0. 0. 0. 0. 0. 0. 0. 0. 0. 0. 0. 0. 0. 0.
      0. 0. 0. 0.</_>
    <_>
      22. 45. 58. 59. 63. 58. 51. 79. 123. 141. 144. 146. 123. 81. 56.
      69. 65. 63. 61. 56. 50. 0. 0. 0. 0. 0. 0. 0. 25. 48. 54. 53. 71.
      79. 84. 130. 188. 210. 214. 213. 183. 126. 89. 97. 71. 53. 54. 58.
      54. 0. 0. 0. 0. 0. 0. 0. 27. 40. 38. 49. 100. 143. 160. 203. 239.
      240. 240. 245. 231. 190. 157. 150. 95. 52. 46. 54. 52. 0. 0. 0. 0.
      0. 0. 0. 20. 26. 36. 78. 164. 221. 236. 244. 250. 250. 250. 251.
      247. 237. 222. 210. 150. 78. 42. 37. 53. 0. 0. 0. 0. 0. 0. 0. 19.
      23. 65. 149. 218. 243. 248. 249. 250. 251. 252. 251. 251. 250.
      249. 243. 205. 131. 64. 26. 52. 0. 0. 0. 0. 0. 0. 0. 17. 46. 125.
      219. 246. 249. 251. 251. 252. 252. 252. 252. 252. 251. 251. 251.
      238. 191. 122. 48. 28. 0. 0. 0. 0. 0. 0. 0. 16. 109. 197. 241.
      247. 249. 252. 252. 253. 253. 253. 253. 253. 253. 252. 251. 251.
      237. 182. 84. 13. 0. 0. 0. 0. 0. 0. 0. 9. 154. 238. 247. 247. 251.
      254. 254. 254. 253. 253. 253. 253. 253. 252. 250. 252. 250. 220.
      123. 17. 0. 0. 0. 0. 0. 0. 0. 11. 167. 247. 249. 252. 253. 254.
      254. 254. 254. 254. 254. 254. 254. 254. 252. 252. 254. 233. 144.
      24. 0. 0. 0. 0. 0. 0. 0. 32. 183. 248. 249. 254. 254. 254. 254.
      254. 254. 254. 254. 254. 254. 254. 254. 253. 253. 234. 153. 37. 0.
      0. 0. 0. 0. 0. 0. 68. 214. 249. 250. 248. 253. 254. 254. 254. 255.
      255. 254. 254. 254. 254. 254. 253. 252. 240. 184. 82. 0. 0. 0. 0.
      0. 0. 0. 139. 240. 249. 248. 248. 249. 248. 248. 251. 252. 253.
      253. 253. 253. 251. 251. 251. 252. 252. 227. 139. 0. 0. 0. 0. 0.
      0. 0. 181. 248. 249. 246. 247. 237. 235. 241. 248. 250. 252. 251.
      248. 245. 241. 239. 241. 242. 244. 247. 191. 0. 0. 0. 0. 0. 0. 0.
      201. 249. 247. 245. 231. 214. 214. 236. 247. 248. 250. 251. 245.
      229. 211. 212. 230. 241. 246. 250. 194. 0. 0. 0. 0. 0. 0. 0. 204.
      248. 247. 244. 215. 191. 195. 228. 242. 242. 245. 248. 239. 211.
      184. 188. 218. 238. 243. 247. 188. 0. 0. 0. 0. 0. 0. 0. 201. 248.
      249. 245. 216. 195. 201. 227. 243. 243. 246. 248. 242. 218. 194.
      200. 224. 239. 243. 245. 184. 0. 0. 0. 0. 0. 0. 0. 200. 249. 250.
      246. 232. 225. 227. 238. 246. 248. 250. 251. 249. 240. 232. 234.
      241. 246. 248. 249. 186. 0. 0. 0. 0. 0. 0. 0. 202. 250. 250. 247.
      247. 250. 244. 244. 247. 248. 250. 250. 249. 248. 247. 247. 247.
      248. 249. 250. 181. 0. 0. 0. 0. 0. 0. 0. 199. 251. 249. 248. 253.
      252. 250. 249. 250. 251. 252. 249. 249. 251. 251. 251. 247. 249.
      248. 249. 182. 0. 0. 0. 0. 0. 0. 0. 197. 249. 251. 251. 251. 246.
      248. 250. 252. 252. 253. 253. 252. 250. 250. 251. 249. 250. 251.
      251. 181. 0. 0. 0. 0. 0. 0. 0. 192. 247. 251. 249. 245. 244. 243.
      239. 248. 248. 250. 248. 246. 239. 234. 244. 248. 249. 251. 250.
      176. 0. 0. 0. 0. 0. 0. 0. 180. 250. 250. 250. 245. 209. 164. 189.
      242. 248. 239. 249. 241. 171. 152. 218. 245. 244. 247. 244. 162.
      0. 0. 0. 0. 0. 0. 0. 156. 239. 245. 242. 225. 147. 62. 107. 201.
      249. 247. 248. 198. 77. 56. 156. 221. 241. 247. 223. 126. 0. 0. 0.
      0. 0. 0. 0. 86. 190. 244. 234. 159. 60. 21. 48. 122. 221. 246.
      207. 108. 27. 22. 70. 162. 236. 234. 165. 67. 0. 0. 0. 0. 0. 0. 0.
      29. 112. 184. 166. 85. 30. 32. 30. 57. 146. 187. 135. 41. 27. 30.
      25. 93. 187. 170. 89. 23. 0. 0. 0. 0. 0. 0. 0. 0. 0. 0. 0. 0. 0.
      0. 0. 0. 0. 0. 0. 0. 0. 0. 0. 0. 0. 0. 0. 0. 0. 0. 0. 0. 0. 0. 0.
      0. 0. 0. 0. 0. 0. 0. 0. 0. 0. 0. 0. 0. 0. 0. 0. 0. 0. 0. 0. 0. 0.
      0. 0. 0. 0. 0. 0. 0. 0. 0. 0. 0. 0. 0. 0. 0. 0. 0. 0. 0. 0. 0. 0.
      0. 0. 0. 0. 0. 0. 0. 0. 0. 0. 0. 0.</_>
    <_>
      37. 42. 46. 41. 35. 28. 117. 178. 172. 86. 18. 33. 46. 48. 45. 40.
      40. 43. 44. 39. 32. 24. 0. 0. 0. 0. 0. 0. 35. 42. 47. 35. 22. 24.
      151. 230. 231. 130. 13. 41. 48. 48. 45. 44. 45. 46. 45. 43. 39.
      23. 0. 0. 0. 0. 0. 0. 35. 44. 48. 34. 19. 20. 135. 230. 241. 149.
      19. 40. 53. 50. 47. 47. 49. 47. 45. 47. 51. 56. 0. 0. 0. 0. 0. 0.
      39. 48. 51. 43. 35. 14. 74. 167. 196. 144. 61. 73. 96. 73. 56. 43.
      43. 47. 48. 50. 53. 41. 0. 0. 0. 0. 0. 0. 43. 50. 51. 52. 59. 45.
      52. 100. 142. 144. 126. 127. 139. 109. 82. 56. 50. 51. 51. 50. 49.
      49. 0. 0. 0. 0. 0. 0. 46. 49. 48. 58. 80. 100. 102. 113. 137. 133.
      138. 136. 135. 132. 117. 101. 84. 65. 47. 44. 48. 44. 0. 0. 0. 0.
      0. 0. 42. 43. 47. 66. 102. 133. 142. 140. 141. 120. 122. 128. 130.
      138. 145. 144. 122. 78. 39. 38. 52. 49. 0. 0. 0. 0. 0. 0. 40. 43.
      59. 89. 131. 148. 150. 143. 135. 126. 123. 124. 126. 131. 142.
      145. 152. 131. 63. 31. 39. 48. 0. 0. 0. 0. 0. 0. 41. 55. 83. 122.
      164. 180. 186. 188. 178. 155. 130. 124. 131. 139. 169. 189. 199.
      194. 138. 62. 24. 34. 0. 0. 0. 0. 0. 0. 40. 70. 116. 159. 199.
      226. 235. 242. 233. 203. 155. 126. 139. 178. 218. 242. 247. 249.
      219. 130. 39. 21. 0. 0. 0. 0. 0. 0. 38. 78. 136. 187. 222. 240.
      245. 248. 245. 232. 194. 157. 167. 215. 237. 245. 242. 248. 240.
      187. 86. 17. 0. 0. 0. 0. 0. 0. 32. 71. 138. 203. 241. 249. 250.
      241. 227. 217. 197. 172. 188. 240. 250. 248. 237. 225. 213. 180.
      99. 23. 0. 0. 0. 0. 0. 0. 38. 76. 140. 206. 244. 249. 246. 228.
      192. 169. 164. 157. 188. 242. 248. 247. 232. 197. 167. 151. 95.
      27. 0. 0. 0. 0. 0. 0. 65. 107. 156. 205. 239. 245. 241. 226. 187.
      153. 154. 157. 188. 236. 245. 243. 231. 197. 160. 148. 102. 36. 0.
      0. 0. 0. 0. 0. 94. 139. 168. 194. 227. 242. 242. 236. 203. 164.
      154. 150. 178. 225. 242. 244. 240. 217. 183. 164. 117. 50. 0. 0.
      0. 0. 0. 0. 104. 145. 153. 162. 191. 223. 240. 244. 232. 191. 144.
      134. 153. 184. 223. 243. 248. 248. 216. 161. 107. 60. 0. 0. 0. 0.
      0. 0. 105. 142. 144. 147. 159. 185. 212. 225. 224. 189. 140. 124.
      137. 160. 184. 200. 209. 209. 185. 143. 113. 76. 0. 0. 0. 0. 0. 0.
      107. 142. 139. 136. 141. 148. 152. 151. 150. 136. 121. 126. 130.
      130. 141. 152. 160. 156. 145. 133. 123. 86. 0. 0. 0. 0. 0. 0. 110.
      142. 140. 137. 136. 137. 132. 126. 127. 122. 118. 127. 129. 127.
      130. 136. 136. 132. 131. 137. 128. 84. 0. 0. 0. 0. 0. 0. 105. 138.
      137. 137. 137. 136. 131. 129. 128. 125. 124. 126. 127. 129. 129.
      130. 128. 126. 130. 137. 129. 84. 0. 0. 0. 0. 0. 0. 108. 139. 136.
      135. 136. 132. 124. 120. 117. 119. 125. 128. 126. 130. 131. 130.
      128. 128. 134. 136. 134. 87. 0. 0. 0. 0. 0. 0. 113. 143. 138. 133.
      127. 125. 127. 130. 126. 126. 126. 123. 130. 132. 132. 133. 133.
      135. 134. 135. 137. 88. 0. 0. 0. 0. 0. 0. 113. 146. 140. 130. 128.
      123. 125. 127. 123. 125. 127. 124. 133. 129. 126. 131. 136. 135.
      133. 137. 131. 80. 0. 0. 0. 0. 0. 0. 95. 144. 152. 144. 140. 112.
      86. 87. 113. 136. 143. 138. 134. 98. 77. 89. 122. 147. 149. 138.
      125. 69. 0. 0. 0. 0. 0. 0. 79. 130. 151. 154. 142. 93. 47. 47. 85.
      134. 149. 148. 113. 69. 47. 58. 105. 149. 156. 137. 97. 48. 0. 0.
      0. 0. 0. 0. 61. 103. 131. 145. 108. 62. 20. 24. 70. 116. 131. 127.
      88. 51. 31. 46. 83. 121. 132. 117. 70. 41. 0. 0. 0. 0. 0. 0. 54.
      75. 91. 97. 62. 49. 38. 44. 64. 82. 87. 85. 68. 54. 48. 52. 61.
      78. 87. 81. 62. 45. 0. 0. 0. 0. 0. 0. 0. 0. 0. 0. 0. 0. 0. 0. 0.
      0. 0. 0. 0. 0. 0. 0. 0. 0. 0. 0. 0. 0. 0. 0. 0. 0. 0. 0.</_>
    <_>
      50. 54. 53. 48. 46. 42. 34. 33. 51. 86. 112. 120. 112. 92. 69. 48.
      37. 38. 41. 44. 44. 44. 44. 42. 40. 38. 37. 41. 51. 55. 51. 46.
      32. 42. 27. 69. 167. 207. 224. 223. 216. 198. 148. 93. 63. 53. 51.
      54. 52. 55. 56. 54. 48. 47. 54. 57. 51. 51. 36. 25. 41. 96. 136.
      176. 229. 245. 250. 251. 251. 244. 219. 182. 144. 100. 59. 51. 49.
      57. 58. 51. 37. 41. 100. 140. 48. 35. 17. 28. 104. 189. 232. 243.
      249. 251. 251. 248. 251. 252. 249. 242. 229. 171. 94. 54. 49. 55.
      52. 52. 59. 97. 187. 246. 34. 15. 21. 90. 189. 242. 251. 249. 244.
      251. 251. 249. 252. 253. 251. 250. 252. 224. 163. 94. 63. 39. 43.
      105. 180. 217. 241. 240. 18. 24. 89. 178. 237. 250. 251. 251. 249.
      252. 251. 252. 252. 252. 250. 248. 252. 251. 232. 167. 132. 99.
      74. 110. 194. 216. 163. 121. 17. 68. 167. 231. 248. 249. 251. 252.
      253. 253. 252. 251. 248. 252. 252. 253. 251. 253. 253. 238. 211.
      166. 92. 54. 123. 162. 86. 46. 20. 95. 198. 241. 246. 249. 252.
      252. 250. 252. 252. 248. 244. 248. 250. 250. 247. 252. 253. 250.
      207. 136. 62. 40. 115. 158. 73. 40. 14. 91. 201. 238. 238. 243.
      249. 253. 252. 251. 250. 243. 238. 238. 242. 245. 247. 252. 251.
      242. 180. 89. 49. 59. 101. 118. 62. 47. 10. 73. 159. 195. 216.
      233. 243. 248. 249. 248. 245. 230. 214. 218. 232. 243. 248. 250.
      245. 246. 181. 68. 58. 98. 95. 78. 54. 51. 25. 90. 145. 173. 203.
      227. 240. 244. 245. 244. 238. 214. 186. 194. 224. 238. 240. 245.
      247. 249. 212. 148. 99. 78. 60. 53. 54. 57. 71. 145. 175. 188.
      211. 232. 243. 247. 247. 246. 239. 218. 198. 205. 229. 239. 241.
      246. 247. 246. 244. 228. 166. 79. 49. 55. 53. 51. 123. 203. 219.
      219. 231. 241. 247. 250. 250. 249. 245. 235. 226. 230. 242. 246.
      248. 252. 252. 252. 249. 248. 203. 120. 101. 97. 47. 37. 145. 230.
      243. 242. 245. 247. 248. 250. 251. 250. 248. 246. 245. 244. 245.
      247. 249. 252. 251. 252. 247. 249. 215. 152. 152. 146. 72. 35.
      144. 235. 249. 248. 250. 252. 251. 253. 254. 254. 252. 251. 251.
      252. 251. 252. 253. 253. 251. 250. 251. 245. 209. 160. 161. 166.
      127. 48. 140. 239. 250. 249. 251. 253. 253. 254. 254. 253. 251.
      250. 251. 252. 251. 252. 254. 254. 253. 253. 250. 232. 198. 164.
      152. 161. 164. 66. 136. 243. 252. 251. 253. 253. 253. 253. 254.
      251. 253. 253. 253. 253. 252. 252. 253. 253. 250. 250. 249. 231.
      198. 164. 142. 153. 167. 81. 136. 243. 249. 251. 253. 253. 250.
      251. 254. 254. 254. 250. 250. 252. 252. 252. 253. 253. 251. 251.
      248. 234. 202. 161. 138. 153. 165. 84. 139. 242. 248. 253. 251.
      250. 252. 252. 252. 253. 252. 252. 252. 249. 250. 251. 249. 250.
      252. 250. 246. 238. 207. 162. 145. 159. 157. 80. 135. 247. 252.
      252. 246. 243. 252. 251. 249. 245. 248. 250. 252. 251. 251. 252.
      251. 248. 248. 248. 247. 242. 213. 167. 155. 162. 147. 74. 129.
      240. 249. 249. 247. 249. 240. 226. 232. 247. 249. 250. 251. 243.
      224. 226. 243. 249. 248. 250. 249. 238. 209. 175. 163. 142. 101.
      48. 106. 205. 244. 250. 251. 245. 179. 119. 159. 242. 250. 250.
      246. 205. 148. 146. 195. 237. 251. 249. 239. 210. 172. 152. 143.
      111. 60. 28. 61. 143. 230. 243. 239. 193. 97. 31. 74. 174. 239.
      246. 220. 152. 84. 67. 125. 203. 239. 233. 198. 144. 93. 77. 83.
      68. 44. 46. 23. 74. 172. 189. 170. 113. 53. 25. 48. 102. 173. 172.
      136. 84. 45. 29. 61. 136. 174. 162. 121. 70. 37. 34. 48. 55. 51.
      52. 0. 0. 0. 0. 0. 0. 0. 0. 0. 0. 0. 0. 0. 0. 0. 0. 0. 0. 0. 0. 0.
      0. 0. 0. 0. 0. 0. 0. 0. 0. 0. 0. 0. 0. 0. 0. 0. 0. 0. 0. 0. 0. 0.
      0. 0. 0. 0. 0. 0. 0. 0. 0. 0. 0. 0. 0. 0. 0. 0. 0. 0. 0. 0. 0. 0.
      0. 0. 0. 0. 0. 0. 0. 0. 0. 0. 0. 0. 0. 0. 0. 0. 0. 0. 0. 0. 0. 0.
      0. 0. 0. 0. 0. 0. 0. 0. 0. 0. 0. 0. 0. 0. 0. 0. 0. 0. 0. 0. 0. 0.
      0. 0. 0.</_>
    <_>
      52. 55. 49. 48. 52. 49. 41. 22. 46. 135. 179. 143. 39. 23. 41. 61.
      50. 49. 48. 50. 48. 50. 0. 0. 0. 0. 0. 0. 45. 42. 47. 48. 50. 51.
      44. 16. 56. 188. 240. 202. 52. 11. 37. 63. 46. 47. 42. 57. 48. 46.
      0. 0. 0. 0. 0. 0. 46. 49. 50. 53. 46. 48. 49. 20. 60. 193. 251.
      220. 62. 12. 37. 61. 45. 55. 46. 54. 54. 49. 0. 0. 0. 0. 0. 0. 50.
      52. 55. 56. 51. 49. 38. 23. 64. 162. 223. 188. 83. 33. 44. 60. 50.
      60. 51. 51. 59. 52. 0. 0. 0. 0. 0. 0. 53. 52. 57. 62. 56. 48. 41.
      48. 90. 146. 176. 159. 114. 75. 68. 68. 59. 54. 52. 62. 57. 49. 0.
      0. 0. 0. 0. 0. 55. 54. 55. 57. 61. 70. 83. 99. 124. 145. 147. 145.
      133. 118. 110. 100. 80. 61. 51. 61. 59. 51. 0. 0. 0. 0. 0. 0. 52.
      49. 43. 49. 80. 114. 134. 141. 144. 144. 139. 136. 136. 138. 141.
      142. 126. 92. 49. 52. 50. 53. 0. 0. 0. 0. 0. 0. 49. 37. 39. 67.
      114. 148. 158. 157. 153. 148. 143. 137. 138. 138. 143. 157. 159.
      129. 77. 50. 35. 49. 0. 0. 0. 0. 0. 0. 47. 40. 63. 106. 146. 169.
      178. 181. 179. 169. 157. 149. 146. 145. 152. 174. 191. 182. 146.
      85. 34. 36. 0. 0. 0. 0. 0. 0. 45. 62. 103. 143. 173. 199. 216.
      224. 222. 209. 186. 161. 146. 157. 184. 212. 228. 231. 216. 150.
      66. 28. 0. 0. 0. 0. 0. 0. 41. 79. 130. 171. 196. 227. 243. 247.
      250. 244. 219. 178. 154. 178. 218. 242. 251. 251. 246. 208. 114.
      36. 0. 0. 0. 0. 0. 0. 40. 81. 141. 182. 214. 241. 245. 242. 242.
      238. 228. 202. 180. 203. 234. 245. 248. 243. 240. 227. 150. 50. 0.
      0. 0. 0. 0. 0. 39. 87. 141. 179. 222. 248. 245. 243. 227. 208.
      204. 195. 175. 209. 248. 245. 243. 234. 200. 163. 125. 55. 0. 0.
      0. 0. 0. 0. 53. 110. 147. 174. 221. 249. 248. 240. 219. 187. 181.
      183. 172. 208. 245. 249. 239. 220. 186. 154. 122. 61. 0. 0. 0. 0.
      0. 0. 83. 141. 157. 169. 210. 244. 247. 237. 219. 183. 170. 174.
      171. 205. 237. 246. 238. 221. 192. 164. 130. 66. 0. 0. 0. 0. 0. 0.
      111. 151. 157. 158. 185. 224. 240. 242. 238. 209. 180. 165. 153.
      179. 215. 240. 248. 239. 214. 185. 143. 79. 0. 0. 0. 0. 0. 0. 118.
      147. 149. 146. 155. 185. 211. 235. 239. 217. 175. 145. 129. 142.
      166. 210. 236. 234. 210. 184. 149. 88. 0. 0. 0. 0. 0. 0. 108. 149.
      147. 141. 138. 150. 171. 182. 182. 171. 146. 131. 131. 138. 145.
      163. 179. 183. 172. 162. 144. 92. 0. 0. 0. 0. 0. 0. 105. 154. 145.
      140. 135. 132. 134. 134. 137. 132. 130. 129. 135. 136. 132. 131.
      135. 140. 142. 144. 141. 94. 0. 0. 0. 0. 0. 0. 108. 154. 140. 138.
      139. 137. 134. 131. 140. 136. 140. 132. 128. 126. 127. 130. 137.
      136. 138. 143. 143. 96. 0. 0. 0. 0. 0. 0. 110. 153. 144. 140. 142.
      139. 137. 135. 134. 135. 131. 128. 130. 135. 133. 130. 134. 135.
      135. 143. 142. 96. 0. 0. 0. 0. 0. 0. 102. 150. 155. 147. 137. 137.
      137. 131. 128. 128. 137. 138. 133. 136. 137. 133. 133. 135. 133.
      142. 141. 95. 0. 0. 0. 0. 0. 0. 93. 147. 149. 137. 130. 134. 131.
      126. 130. 122. 134. 136. 132. 133. 133. 133. 136. 135. 133. 145.
      144. 95. 0. 0. 0. 0. 0. 0. 87. 153. 151. 141. 140. 138. 121. 115.
      137. 138. 138. 138. 139. 132. 116. 116. 136. 137. 138. 151. 144.
      90. 0. 0. 0. 0. 0. 0. 78. 140. 161. 160. 150. 121. 77. 66. 98.
      145. 155. 158. 142. 102. 66. 69. 104. 142. 154. 159. 133. 80. 0.
      0. 0. 0. 0. 0. 57. 103. 153. 167. 140. 93. 55. 43. 58. 122. 160.
      167. 129. 72. 41. 44. 70. 142. 156. 148. 107. 63. 0. 0. 0. 0. 0.
      0. 43. 68. 112. 125. 103. 73. 55. 44. 47. 89. 125. 130. 95. 60.
      46. 49. 60. 109. 123. 110. 73. 48. 0. 0. 0. 0. 0. 0. 0. 0. 0. 0.
      0. 0. 0. 0. 0. 0. 0. 0. 0. 0. 0. 0. 0. 0. 0. 0. 0. 0. 0. 0. 0. 0.
      0. 0.</_>
    <_>
      31. 33. 43. 50. 48. 50. 53. 50. 49. 35. 20. 71. 172. 181. 113. 25.
      33. 53. 54. 51. 48. 49. 0. 0. 0. 0. 0. 0. 36. 45. 49. 52. 49. 49.
      52. 50. 45. 28. 18. 94. 235. 234. 154. 17. 24. 53. 52. 50. 46. 47.
      0. 0. 0. 0. 0. 0. 50. 51. 50. 53. 53. 48. 50. 53. 45. 29. 28. 108.
      238. 239. 159. 18. 29. 52. 49. 48. 47. 49. 0. 0. 0. 0. 0. 0. 54.
      48. 46. 53. 55. 47. 50. 56. 58. 56. 58. 122. 206. 213. 136. 17.
      30. 52. 49. 50. 52. 53. 0. 0. 0. 0. 0. 0. 54. 52. 52. 57. 59. 56.
      61. 72. 94. 118. 117. 137. 170. 162. 103. 32. 42. 53. 57. 51. 55.
      56. 0. 0. 0. 0. 0. 0. 52. 52. 51. 53. 65. 86. 106. 115. 127. 147.
      148. 141. 146. 135. 110. 82. 82. 65. 62. 48. 53. 55. 0. 0. 0. 0.
      0. 0. 55. 52. 44. 48. 75. 113. 139. 143. 137. 140. 140. 132. 136.
      135. 137. 137. 130. 91. 53. 39. 50. 49. 0. 0. 0. 0. 0. 0. 56. 44.
      39. 60. 101. 138. 153. 153. 147. 141. 136. 133. 137. 136. 140.
      155. 151. 126. 76. 40. 33. 46. 0. 0. 0. 0. 0. 0. 47. 40. 53. 96.
      145. 174. 185. 189. 186. 175. 156. 143. 145. 143. 155. 178. 187.
      192. 156. 84. 31. 41. 0. 0. 0. 0. 0. 0. 41. 53. 88. 137. 182. 208.
      223. 229. 229. 218. 189. 156. 146. 160. 191. 221. 231. 240. 227.
      162. 66. 18. 0. 0. 0. 0. 0. 0. 42. 66. 113. 164. 205. 228. 241.
      244. 243. 239. 220. 174. 155. 186. 223. 238. 240. 243. 245. 228.
      135. 11. 0. 0. 0. 0. 0. 0. 41. 63. 116. 181. 225. 240. 246. 248.
      241. 234. 227. 185. 178. 221. 248. 250. 245. 239. 236. 233. 169.
      36. 0. 0. 0. 0. 0. 0. 38. 68. 113. 181. 233. 243. 243. 245. 227.
      203. 200. 170. 182. 231. 246. 246. 246. 229. 200. 185. 142. 38. 0.
      0. 0. 0. 0. 0. 42. 93. 127. 180. 233. 243. 240. 239. 219. 184.
      177. 153. 179. 232. 248. 245. 243. 222. 176. 163. 150. 48. 0. 0.
      0. 0. 0. 0. 60. 130. 155. 180. 223. 239. 243. 240. 221. 187. 172.
      144. 174. 220. 241. 247. 241. 220. 186. 167. 144. 73. 0. 0. 0. 0.
      0. 0. 76. 151. 163. 156. 190. 223. 247. 251. 246. 217. 179. 140.
      157. 186. 220. 240. 250. 248. 222. 176. 135. 97. 0. 0. 0. 0. 0. 0.
      76. 152. 159. 138. 158. 192. 224. 231. 232. 217. 174. 140. 146.
      152. 187. 217. 237. 242. 220. 170. 135. 111. 0. 0. 0. 0. 0. 0. 73.
      146. 156. 139. 144. 154. 167. 171. 168. 170. 145. 137. 143. 133.
      144. 154. 163. 171. 172. 154. 146. 116. 0. 0. 0. 0. 0. 0. 78. 145.
      155. 141. 138. 134. 136. 138. 132. 140. 127. 129. 138. 128. 134.
      137. 135. 136. 140. 143. 149. 112. 0. 0. 0. 0. 0. 0. 81. 145. 154.
      140. 137. 134. 134. 136. 133. 137. 131. 128. 132. 133. 133. 134.
      134. 133. 136. 139. 143. 109. 0. 0. 0. 0. 0. 0. 78. 143. 154. 142.
      140. 137. 134. 132. 130. 135. 133. 131. 134. 137. 131. 128. 124.
      126. 134. 135. 141. 115. 0. 0. 0. 0. 0. 0. 80. 144. 152. 145. 143.
      135. 137. 133. 133. 132. 130. 131. 133. 132. 132. 132. 133. 134.
      135. 137. 147. 117. 0. 0. 0. 0. 0. 0. 81. 146. 158. 149. 146. 141.
      140. 135. 131. 135. 136. 133. 130. 131. 132. 133. 142. 139. 137.
      146. 158. 119. 0. 0. 0. 0. 0. 0. 88. 150. 156. 130. 115. 118. 134.
      139. 131. 122. 103. 94. 106. 131. 142. 142. 132. 113. 112. 140.
      163. 122. 0. 0. 0. 0. 0. 0. 99. 149. 142. 96. 71. 90. 133. 157.
      146. 110. 61. 53. 80. 136. 156. 154. 107. 74. 72. 112. 154. 127.
      0. 0. 0. 0. 0. 0. 88. 122. 112. 62. 37. 65. 117. 160. 168. 114.
      51. 34. 75. 136. 159. 150. 75. 45. 45. 79. 121. 112. 0. 0. 0. 0.
      0. 0. 73. 87. 81. 53. 41. 56. 78. 105. 117. 88. 52. 40. 66. 104.
      116. 105. 50. 41. 48. 63. 84. 84. 0. 0. 0. 0. 0. 0. 0. 0. 0. 0. 0.
      0. 0. 0. 0. 0. 0. 0. 0. 0. 0. 0. 0. 0. 0. 0. 0. 0. 0. 0. 0. 0. 0.
      0.</_>
    <_>
      56. 62. 63. 53. 48. 60. 76. 93. 166. 201. 198. 200. 202. 154. 72.
      49. 57. 49. 50. 55. 51. 51. 0. 0. 0. 0. 0. 0. 60. 61. 57. 55. 72.
      119. 165. 185. 226. 247. 247. 248. 248. 222. 156. 136. 106. 46.
      28. 44. 48. 49. 0. 0. 0. 0. 0. 0. 65. 60. 54. 68. 125. 196. 230.
      241. 246. 247. 247. 248. 248. 248. 242. 234. 205. 111. 32. 25. 43.
      58. 0. 0. 0. 0. 0. 0. 62. 53. 69. 120. 188. 237. 246. 253. 251.
      248. 248. 247. 248. 250. 249. 246. 249. 201. 75. 22. 25. 54. 0. 0.
      0. 0. 0. 0. 58. 61. 112. 183. 233. 246. 245. 252. 252. 249. 249.
      248. 249. 252. 252. 252. 240. 249. 201. 97. 23. 32. 0. 0. 0. 0. 0.
      0. 59. 88. 162. 226. 247. 248. 248. 252. 252. 252. 251. 250. 250.
      252. 252. 252. 246. 250. 249. 201. 60. 10. 0. 0. 0. 0. 0. 0. 58.
      103. 190. 241. 247. 249. 249. 248. 249. 247. 247. 248. 249. 250.
      247. 246. 250. 235. 243. 242. 101. 7. 0. 0. 0. 0. 0. 0. 50. 100.
      190. 243. 249. 248. 246. 242. 234. 227. 227. 235. 243. 248. 245.
      242. 244. 234. 234. 221. 99. 21. 0. 0. 0. 0. 0. 0. 56. 112. 199.
      243. 250. 246. 240. 233. 212. 193. 196. 218. 240. 248. 247. 245.
      238. 203. 179. 178. 88. 25. 0. 0. 0. 0. 0. 0. 83. 160. 224. 245.
      249. 246. 239. 225. 197. 171. 176. 206. 233. 245. 244. 244. 230.
      181. 146. 164. 126. 65. 0. 0. 0. 0. 0. 0. 122. 205. 244. 247. 248.
      250. 244. 229. 200. 177. 182. 211. 236. 245. 244. 239. 225. 215.
      179. 168. 183. 137. 0. 0. 0. 0. 0. 0. 144. 223. 249. 249. 251.
      250. 245. 237. 226. 218. 220. 230. 240. 243. 243. 240. 237. 230.
      220. 220. 221. 164. 0. 0. 0. 0. 0. 0. 145. 226. 248. 249. 251.
      250. 246. 244. 242. 241. 241. 242. 243. 243. 244. 244. 243. 241.
      239. 241. 233. 169. 0. 0. 0. 0. 0. 0. 149. 227. 247. 248. 250.
      250. 249. 249. 249. 248. 249. 248. 247. 246. 246. 248. 248. 247.
      246. 247. 237. 163. 0. 0. 0. 0. 0. 0. 148. 227. 247. 247. 250.
      249. 248. 248. 248. 247. 246. 246. 246. 247. 246. 246. 247. 246.
      245. 248. 235. 161. 0. 0. 0. 0. 0. 0. 147. 230. 246. 246. 248.
      248. 248. 248. 248. 248. 247. 247. 247. 247. 247. 246. 247. 246.
      245. 247. 235. 161. 0. 0. 0. 0. 0. 0. 150. 232. 246. 246. 248.
      248. 248. 248. 248. 248. 248. 247. 247. 247. 247. 247. 247. 246.
      246. 247. 236. 160. 0. 0. 0. 0. 0. 0. 150. 234. 246. 246. 247.
      247. 246. 246. 247. 247. 247. 246. 245. 243. 241. 243. 246. 245.
      245. 246. 234. 153. 0. 0. 0. 0. 0. 0. 145. 236. 247. 244. 248.
      247. 247. 245. 242. 243. 244. 246. 246. 245. 234. 233. 242. 244.
      244. 246. 235. 152. 0. 0. 0. 0. 0. 0. 119. 237. 245. 233. 248.
      235. 184. 153. 209. 242. 239. 242. 247. 216. 162. 169. 221. 243.
      244. 246. 231. 143. 0. 0. 0. 0. 0. 0. 102. 200. 242. 244. 247.
      182. 78. 75. 136. 219. 243. 247. 215. 139. 77. 91. 163. 225. 244.
      237. 197. 106. 0. 0. 0. 0. 0. 0. 57. 122. 205. 241. 201. 91. 37.
      50. 67. 147. 215. 229. 152. 71. 41. 47. 95. 174. 221. 198. 120.
      46. 0. 0. 0. 0. 0. 0. 34. 61. 127. 161. 123. 36. 23. 41. 35. 80.
      141. 147. 78. 38. 38. 39. 52. 103. 150. 120. 55. 26. 0. 0. 0. 0.
      0. 0. 0. 0. 0. 0. 0. 0. 0. 0. 0. 0. 0. 0. 0. 0. 0. 0. 0. 0. 0. 0.
      0. 0. 0. 0. 0. 0. 0. 0. 0. 0. 0. 0. 0. 0. 0. 0. 0. 0. 0. 0. 0. 0.
      0. 0. 0. 0. 0. 0. 0. 0. 0. 0. 0. 0. 0. 0. 0. 0. 0. 0. 0. 0. 0. 0.
      0. 0. 0. 0. 0. 0. 0. 0. 0. 0. 0. 0. 0. 0. 0. 0. 0. 0. 0. 0. 0. 0.
      0. 0. 0. 0. 0. 0. 0. 0. 0. 0. 0. 0. 0. 0. 0. 0. 0. 0. 0. 0. 0. 0.
      0. 0. 0. 0. 0. 0. 0. 0. 0. 0. 0. 0. 0. 0. 0. 0. 0. 0. 0. 0. 0. 0.
      0. 0. 0. 0. 0. 0. 0. 0. 0. 0.</_>
    <_>
      50. 59. 60. 54. 49. 50. 62. 96. 120. 125. 124. 122. 107. 88. 65.
      51. 55. 59. 50. 49. 55. 53. 44. 0. 0. 0. 0. 0. 56. 56. 52. 50. 57.
      77. 121. 170. 209. 216. 219. 220. 204. 177. 126. 72. 48. 53. 52.
      52. 55. 47. 44. 0. 0. 0. 0. 0. 57. 46. 51. 83. 122. 159. 201. 231.
      250. 251. 251. 253. 252. 234. 209. 162. 112. 66. 32. 33. 52. 59.
      51. 0. 0. 0. 0. 0. 47. 45. 81. 146. 200. 229. 246. 251. 252. 253.
      251. 253. 253. 253. 246. 244. 224. 156. 75. 36. 38. 47. 51. 0. 0.
      0. 0. 0. 38. 70. 139. 207. 240. 248. 251. 251. 251. 252. 253. 251.
      253. 253. 252. 247. 241. 220. 145. 61. 30. 40. 50. 0. 0. 0. 0. 0.
      66. 126. 198. 239. 249. 250. 252. 251. 250. 251. 251. 251. 252.
      253. 254. 253. 245. 245. 229. 142. 66. 19. 33. 0. 0. 0. 0. 0. 101.
      172. 228. 248. 249. 251. 252. 252. 250. 250. 251. 251. 253. 254.
      253. 253. 245. 246. 245. 219. 140. 39. 22. 0. 0. 0. 0. 0. 107.
      183. 235. 249. 250. 250. 252. 252. 250. 249. 250. 251. 251. 251.
      252. 251. 245. 242. 243. 240. 190. 68. 16. 0. 0. 0. 0. 0. 96. 171.
      230. 250. 252. 250. 249. 248. 244. 241. 242. 246. 247. 249. 251.
      246. 245. 240. 215. 203. 170. 79. 12. 0. 0. 0. 0. 0. 96. 169. 228.
      250. 252. 248. 245. 238. 226. 219. 224. 236. 244. 247. 247. 239.
      239. 230. 182. 146. 130. 83. 14. 0. 0. 0. 0. 0. 125. 193. 237.
      249. 248. 247. 246. 234. 214. 201. 209. 229. 244. 247. 246. 239.
      237. 225. 180. 144. 132. 97. 30. 0. 0. 0. 0. 0. 167. 229. 248.
      250. 253. 250. 247. 239. 222. 211. 216. 233. 243. 245. 247. 245.
      239. 230. 206. 186. 170. 127. 57. 0. 0. 0. 0. 0. 182. 237. 247.
      245. 250. 247. 247. 242. 235. 229. 229. 236. 242. 245. 249. 247.
      241. 238. 230. 222. 202. 155. 78. 0. 0. 0. 0. 0. 175. 233. 244.
      247. 250. 251. 252. 252. 248. 247. 248. 249. 250. 250. 251. 249.
      246. 247. 246. 242. 224. 175. 92. 0. 0. 0. 0. 0. 173. 232. 243.
      243. 245. 251. 251. 249. 249. 251. 251. 250. 250. 250. 251. 252.
      250. 252. 251. 249. 234. 187. 102. 0. 0. 0. 0. 0. 169. 233. 244.
      247. 247. 249. 246. 247. 250. 250. 250. 249. 249. 246. 247. 249.
      249. 250. 248. 247. 233. 186. 102. 0. 0. 0. 0. 0. 164. 232. 244.
      248. 249. 248. 245. 248. 250. 248. 246. 248. 249. 247. 248. 248.
      246. 248. 247. 246. 234. 189. 106. 0. 0. 0. 0. 0. 160. 225. 243.
      247. 248. 248. 247. 248. 247. 246. 247. 249. 246. 248. 249. 248.
      248. 248. 248. 248. 235. 190. 108. 0. 0. 0. 0. 0. 163. 229. 244.
      248. 248. 248. 249. 246. 245. 247. 248. 248. 247. 246. 248. 248.
      248. 248. 248. 247. 233. 188. 107. 0. 0. 0. 0. 0. 163. 229. 244.
      244. 236. 236. 245. 244. 243. 243. 224. 215. 234. 242. 246. 247.
      245. 239. 237. 243. 236. 198. 111. 0. 0. 0. 0. 0. 158. 221. 236.
      218. 202. 214. 241. 244. 237. 212. 158. 141. 190. 231. 244. 242.
      228. 204. 194. 214. 230. 202. 112. 0. 0. 0. 0. 0. 152. 198. 200.
      156. 113. 147. 208. 243. 237. 187. 109. 88. 151. 218. 241. 229.
      185. 135. 120. 153. 186. 185. 114. 0. 0. 0. 0. 0. 118. 144. 138.
      96. 59. 92. 153. 214. 223. 178. 100. 73. 127. 193. 212. 190. 124.
      64. 59. 94. 125. 136. 106. 0. 0. 0. 0. 0. 73. 84. 79. 56. 37. 60.
      84. 117. 130. 124. 77. 52. 89. 128. 131. 111. 73. 46. 49. 66. 78.
      86. 74. 0. 0. 0. 0. 0. 0. 0. 0. 0. 0. 0. 0. 0. 0. 0. 0. 0. 0. 0.
      0. 0. 0. 0. 0. 0. 0. 0. 0. 0. 0. 0. 0. 0. 0. 0. 0. 0. 0. 0. 0. 0.
      0. 0. 0. 0. 0. 0. 0. 0. 0. 0. 0. 0. 0. 0. 0. 0. 0. 0. 0. 0. 0. 0.
      0. 0. 0. 0. 0. 0. 0. 0. 0. 0. 0. 0. 0. 0. 0. 0. 0. 0. 0. 0. 0. 0.
      0. 0. 0. 0. 0. 0. 0. 0. 0. 0. 0. 0. 0. 0. 0. 0. 0. 0. 0. 0. 0. 0.
      0. 0. 0. 0. 0. 0. 0. 0. 0. 0.</_>
    <_>
      35. 43. 48. 48. 45. 43. 45. 41. 31. 26. 67. 150. 178. 130. 42. 25.
      42. 41. 39. 40. 42. 42. 39. 33. 36. 45. 0. 0. 40. 41. 51. 54. 44.
      43. 51. 45. 23. 26. 109. 218. 229. 160. 35. 11. 37. 43. 40. 42.
      44. 43. 43. 41. 39. 36. 0. 0. 47. 49. 49. 46. 44. 53. 63. 51. 22.
      25. 122. 233. 232. 149. 29. 17. 44. 46. 43. 45. 46. 43. 44. 47.
      46. 41. 0. 0. 44. 51. 46. 47. 54. 57. 51. 43. 37. 51. 124. 200.
      198. 131. 38. 24. 43. 45. 44. 46. 47. 45. 45. 46. 46. 42. 0. 0.
      54. 49. 51. 55. 57. 51. 46. 55. 73. 101. 136. 161. 162. 133. 72.
      40. 41. 53. 48. 47. 49. 52. 50. 46. 42. 40. 0. 0. 49. 49. 55. 50.
      39. 50. 80. 109. 122. 134. 141. 142. 140. 135. 116. 94. 80. 79.
      56. 47. 45. 52. 53. 46. 40. 40. 0. 0. 47. 47. 50. 39. 38. 87. 131.
      149. 141. 136. 136. 137. 132. 132. 140. 141. 129. 109. 66. 45. 37.
      46. 50. 43. 40. 45. 0. 0. 51. 45. 35. 45. 78. 133. 146. 145. 138.
      137. 134. 133. 135. 134. 133. 136. 138. 129. 98. 57. 38. 43. 54.
      50. 35. 47. 0. 0. 51. 37. 34. 79. 124. 156. 144. 144. 147. 143.
      136. 134. 135. 136. 138. 141. 140. 141. 135. 87. 50. 38. 52. 65.
      48. 42. 0. 0. 47. 39. 52. 120. 156. 171. 168. 174. 166. 148. 140.
      141. 143. 144. 150. 162. 170. 170. 160. 124. 79. 35. 32. 54. 49.
      44. 0. 0. 46. 49. 62. 147. 189. 203. 210. 220. 203. 174. 153. 146.
      152. 165. 182. 199. 209. 201. 182. 156. 104. 39. 23. 45. 50. 48.
      0. 0. 46. 48. 65. 173. 224. 238. 239. 251. 245. 217. 178. 155.
      170. 206. 233. 248. 250. 245. 229. 184. 112. 38. 24. 52. 55. 47.
      0. 0. 45. 45. 88. 208. 244. 247. 247. 253. 253. 234. 198. 179.
      201. 231. 242. 248. 249. 248. 243. 202. 117. 35. 27. 67. 80. 68.
      0. 0. 49. 69. 130. 236. 252. 250. 255. 253. 249. 246. 208. 197.
      223. 245. 248. 245. 246. 249. 247. 214. 131. 50. 59. 126. 147.
      121. 0. 0. 63. 106. 161. 241. 250. 249. 250. 247. 249. 252. 206.
      189. 221. 245. 248. 245. 246. 249. 250. 218. 139. 82. 127. 214.
      226. 176. 0. 0. 72. 124. 176. 224. 238. 238. 225. 220. 226. 245.
      196. 177. 216. 248. 242. 225. 228. 238. 242. 208. 138. 105. 156.
      232. 245. 178. 0. 0. 64. 121. 168. 201. 211. 201. 187. 196. 210.
      226. 182. 162. 189. 212. 201. 187. 191. 203. 211. 187. 137. 110.
      130. 169. 173. 116. 0. 0. 56. 116. 156. 168. 171. 159. 148. 171.
      181. 170. 143. 135. 158. 177. 173. 167. 173. 168. 168. 163. 142.
      116. 94. 85. 77. 54. 0. 0. 57. 120. 156. 148. 141. 119. 99. 117.
      117. 156. 142. 135. 140. 139. 124. 112. 111. 128. 142. 149. 149.
      130. 81. 40. 35. 40. 0. 0. 54. 112. 154. 152. 150. 145. 139. 154.
      150. 131. 132. 133. 137. 137. 130. 127. 125. 132. 137. 142. 146.
      135. 83. 33. 34. 48. 0. 0. 56. 116. 156. 150. 142. 136. 127. 131.
      130. 130. 132. 129. 129. 129. 129. 132. 134. 136. 136. 136. 138.
      134. 85. 34. 37. 48. 0. 0. 54. 112. 153. 149. 140. 142. 141. 137.
      138. 139. 137. 134. 133. 132. 132. 134. 135. 134. 132. 135. 136.
      136. 85. 33. 36. 49. 0. 0. 60. 119. 157. 150. 136. 141. 139. 133.
      137. 134. 134. 134. 134. 136. 136. 136. 136. 134. 132. 136. 138.
      141. 85. 32. 36. 51. 0. 0. 71. 125. 158. 144. 111. 111. 135. 144.
      144. 141. 109. 73. 90. 123. 141. 151. 140. 119. 107. 119. 137.
      146. 88. 35. 36. 46. 0. 0. 73. 125. 144. 116. 75. 76. 116. 150.
      158. 145. 93. 42. 62. 119. 150. 163. 137. 84. 64. 88. 125. 140.
      93. 46. 35. 40. 0. 0. 76. 106. 112. 80. 42. 45. 91. 139. 160. 141.
      85. 34. 58. 117. 147. 152. 115. 51. 41. 66. 96. 110. 78. 48. 44.
      47. 0. 0. 66. 78. 80. 61. 41. 45. 72. 100. 116. 106. 70. 34. 54.
      94. 111. 109. 74. 39. 38. 55. 69. 76. 58. 46. 48. 48. 0. 0. 0. 0.
      0. 0. 0. 0. 0. 0. 0. 0. 0. 0. 0. 0. 0. 0. 0. 0. 0. 0. 0. 0. 0. 0.
      0. 0. 0. 0.</_>
    <_>
      59. 59. 66. 70. 69. 67. 71. 99. 163. 169. 172. 174. 155. 103. 71.
      82. 78. 72. 68. 52. 34. 0. 0. 0. 0. 0. 0. 0. 61. 60. 59. 66. 85.
      106. 120. 150. 212. 222. 227. 227. 212. 160. 115. 117. 78. 63. 69.
      60. 39. 0. 0. 0. 0. 0. 0. 0. 60. 57. 51. 68. 118. 173. 198. 211.
      235. 243. 246. 246. 246. 222. 188. 188. 112. 63. 61. 58. 41. 0. 0.
      0. 0. 0. 0. 0. 44. 45. 53. 99. 176. 228. 244. 246. 248. 249. 249.
      248. 251. 249. 236. 235. 180. 96. 58. 44. 33. 0. 0. 0. 0. 0. 0. 0.
      33. 46. 95. 164. 223. 247. 251. 252. 253. 253. 252. 252. 252. 253.
      254. 254. 248. 176. 86. 40. 34. 0. 0. 0. 0. 0. 0. 0. 24. 69. 158.
      220. 244. 250. 252. 253. 254. 254. 253. 253. 253. 253. 254. 254.
      247. 233. 165. 69. 21. 0. 0. 0. 0. 0. 0. 0. 19. 108. 208. 245.
      249. 250. 252. 253. 255. 254. 253. 254. 254. 254. 255. 255. 251.
      253. 234. 109. 16. 0. 0. 0. 0. 0. 0. 0. 20. 145. 230. 247. 249.
      252. 253. 254. 255. 254. 254. 254. 254. 254. 255. 255. 254. 254.
      247. 148. 20. 0. 0. 0. 0. 0. 0. 0. 27. 169. 235. 246. 250. 253.
      254. 255. 255. 254. 253. 254. 254. 254. 254. 254. 252. 240. 246.
      170. 25. 0. 0. 0. 0. 0. 0. 0. 57. 186. 237. 249. 252. 252. 253.
      255. 254. 254. 253. 254. 254. 254. 254. 254. 252. 245. 246. 188.
      48. 0. 0. 0. 0. 0. 0. 0. 110. 217. 245. 251. 250. 252. 253. 252.
      253. 252. 252. 252. 253. 253. 253. 253. 253. 251. 247. 213. 114.
      0. 0. 0. 0. 0. 0. 0. 171. 243. 249. 251. 243. 246. 248. 249. 251.
      252. 252. 252. 252. 252. 253. 252. 252. 252. 247. 238. 185. 0. 0.
      0. 0. 0. 0. 0. 206. 248. 249. 248. 240. 228. 233. 236. 238. 248.
      254. 253. 252. 245. 235. 231. 233. 240. 248. 245. 210. 0. 0. 0. 0.
      0. 0. 0. 212. 249. 249. 243. 224. 202. 203. 226. 236. 248. 253.
      249. 241. 224. 202. 200. 221. 233. 246. 244. 211. 0. 0. 0. 0. 0.
      0. 0. 209. 248. 247. 238. 219. 194. 191. 223. 236. 246. 251. 251.
      244. 223. 196. 195. 221. 234. 246. 243. 208. 0. 0. 0. 0. 0. 0. 0.
      207. 248. 248. 240. 231. 219. 219. 232. 237. 247. 251. 252. 251.
      239. 221. 218. 229. 237. 246. 244. 207. 0. 0. 0. 0. 0. 0. 0. 203.
      250. 251. 249. 249. 248. 249. 249. 248. 252. 253. 253. 253. 249.
      243. 241. 242. 245. 249. 246. 203. 0. 0. 0. 0. 0. 0. 0. 200. 249.
      251. 253. 254. 254. 253. 249. 249. 252. 253. 252. 251. 250. 250.
      249. 248. 249. 251. 247. 201. 0. 0. 0. 0. 0. 0. 0. 199. 246. 247.
      247. 248. 253. 249. 248. 249. 249. 250. 249. 249. 251. 251. 250.
      249. 250. 251. 249. 202. 0. 0. 0. 0. 0. 0. 0. 200. 245. 247. 244.
      247. 253. 251. 252. 249. 246. 246. 247. 248. 251. 252. 251. 250.
      250. 251. 250. 200. 0. 0. 0. 0. 0. 0. 0. 190. 248. 243. 236. 247.
      244. 241. 246. 249. 248. 246. 246. 246. 244. 241. 241. 245. 248.
      249. 249. 192. 0. 0. 0. 0. 0. 0. 0. 183. 247. 246. 244. 238. 193.
      162. 227. 235. 240. 243. 245. 240. 208. 176. 196. 228. 242. 245.
      242. 175. 0. 0. 0. 0. 0. 0. 0. 113. 202. 250. 238. 184. 98. 73.
      128. 164. 219. 245. 221. 177. 120. 72. 109. 181. 231. 240. 206.
      126. 0. 0. 0. 0. 0. 0. 0. 43. 128. 209. 198. 111. 34. 29. 39. 80.
      169. 216. 159. 75. 34. 27. 35. 103. 192. 208. 133. 48. 0. 0. 0. 0.
      0. 0. 0. 19. 63. 115. 114. 64. 28. 37. 33. 43. 97. 134. 91. 42.
      32. 39. 25. 54. 111. 114. 66. 31. 0. 0. 0. 0. 0. 0. 0. 0. 0. 0. 0.
      0. 0. 0. 0. 0. 0. 0. 0. 0. 0. 0. 0. 0. 0. 0. 0. 0. 0. 0. 0. 0. 0.
      0. 0. 0. 0. 0. 0. 0. 0. 0. 0. 0. 0. 0. 0. 0. 0. 0. 0. 0. 0. 0. 0.
      0. 0. 0. 0. 0. 0. 0. 0. 0. 0. 0. 0. 0. 0. 0. 0. 0. 0. 0. 0. 0. 0.
      0. 0. 0. 0. 0. 0. 0. 0. 0. 0. 0. 0. 0. 0.</_>
    <_>
      31. 28. 50. 56. 52. 58. 64. 49. 87. 160. 179. 168. 175. 169. 89.
      65. 69. 61. 53. 58. 51. 34. 0. 0. 0. 0. 0. 0. 30. 27. 49. 49. 45.
      70. 101. 108. 141. 208. 226. 218. 227. 223. 134. 116. 117. 78. 46.
      52. 54. 33. 0. 0. 0. 0. 0. 0. 31. 26. 39. 36. 56. 118. 175. 193.
      205. 232. 234. 235. 240. 242. 197. 183. 183. 121. 53. 45. 47. 30.
      0. 0. 0. 0. 0. 0. 34. 22. 25. 34. 87. 175. 225. 231. 237. 242.
      241. 242. 242. 243. 233. 227. 232. 176. 92. 54. 37. 21. 0. 0. 0.
      0. 0. 0. 31. 16. 31. 75. 148. 216. 241. 244. 246. 247. 245. 248.
      244. 247. 248. 240. 249. 222. 155. 94. 38. 12. 0. 0. 0. 0. 0. 0.
      27. 17. 57. 138. 211. 237. 246. 250. 250. 250. 248. 251. 247. 252.
      252. 247. 248. 245. 218. 150. 61. 10. 0. 0. 0. 0. 0. 0. 33. 13.
      97. 196. 240. 248. 248. 249. 251. 253. 253. 252. 250. 253. 251.
      250. 245. 249. 249. 200. 85. 15. 0. 0. 0. 0. 0. 0. 33. 19. 134.
      224. 250. 251. 249. 247. 251. 254. 254. 252. 251. 251. 251. 250.
      250. 252. 251. 244. 94. 14. 0. 0. 0. 0. 0. 0. 33. 24. 159. 232.
      248. 248. 248. 248. 251. 253. 252. 251. 252. 252. 251. 250. 250.
      254. 253. 247. 120. 27. 0. 0. 0. 0. 0. 0. 26. 39. 177. 235. 245.
      245. 247. 249. 251. 253. 251. 250. 250. 251. 251. 249. 250. 255.
      254. 247. 168. 57. 0. 0. 0. 0. 0. 0. 22. 92. 206. 242. 242. 245.
      246. 247. 251. 253. 250. 247. 245. 246. 246. 246. 249. 255. 253.
      249. 211. 97. 0. 0. 0. 0. 0. 0. 30. 152. 223. 242. 233. 242. 243.
      243. 248. 251. 248. 242. 236. 232. 233. 239. 243. 250. 250. 252.
      240. 139. 0. 0. 0. 0. 0. 0. 38. 192. 226. 234. 224. 233. 240. 243.
      248. 250. 248. 240. 232. 226. 228. 237. 242. 248. 249. 253. 246.
      177. 0. 0. 0. 0. 0. 0. 48. 219. 232. 233. 226. 228. 240. 244. 249.
      251. 249. 244. 238. 235. 234. 237. 241. 248. 249. 254. 250. 206.
      0. 0. 0. 0. 0. 0. 53. 233. 242. 243. 238. 235. 244. 246. 250. 252.
      251. 249. 245. 240. 239. 238. 242. 248. 250. 253. 248. 221. 0. 0.
      0. 0. 0. 0. 61. 235. 248. 254. 254. 250. 251. 251. 251. 253. 253.
      253. 252. 251. 250. 250. 250. 249. 247. 251. 251. 219. 0. 0. 0. 0.
      0. 0. 66. 232. 251. 253. 254. 253. 251. 251. 252. 252. 249. 248.
      251. 253. 252. 252. 252. 250. 249. 252. 252. 215. 0. 0. 0. 0. 0.
      0. 68. 225. 253. 251. 254. 254. 252. 253. 254. 253. 253. 253. 251.
      253. 253. 252. 252. 252. 252. 253. 252. 210. 0. 0. 0. 0. 0. 0. 66.
      217. 253. 250. 253. 254. 252. 253. 253. 252. 254. 254. 252. 251.
      251. 253. 252. 252. 253. 252. 250. 207. 0. 0. 0. 0. 0. 0. 63. 205.
      253. 252. 252. 253. 248. 248. 248. 249. 252. 252. 251. 251. 249.
      250. 251. 250. 250. 251. 251. 203. 0. 0. 0. 0. 0. 0. 57. 190. 253.
      253. 253. 252. 250. 239. 243. 250. 250. 249. 251. 251. 238. 234.
      245. 249. 249. 251. 251. 196. 0. 0. 0. 0. 0. 0. 49. 174. 248. 251.
      250. 247. 227. 191. 205. 240. 247. 247. 247. 237. 199. 188. 218.
      242. 250. 251. 246. 181. 0. 0. 0. 0. 0. 0. 45. 158. 240. 249. 248.
      234. 169. 116. 138. 211. 244. 248. 240. 206. 141. 116. 170. 222.
      245. 248. 229. 152. 0. 0. 0. 0. 0. 0. 28. 107. 209. 248. 233. 194.
      113. 56. 77. 161. 220. 246. 222. 153. 82. 58. 112. 185. 234. 239.
      199. 115. 0. 0. 0. 0. 0. 0. 25. 64. 150. 218. 207. 139. 64. 27.
      37. 104. 176. 227. 189. 89. 39. 29. 52. 129. 207. 216. 142. 58. 0.
      0. 0. 0. 0. 0. 28. 31. 85. 154. 151. 83. 32. 27. 31. 60. 117. 174.
      139. 40. 27. 24. 36. 88. 146. 148. 94. 35. 0. 0. 0. 0. 0. 0. 0. 0.
      0. 0. 0. 0. 0. 0. 0. 0. 0. 0. 0. 0. 0. 0. 0. 0. 0. 0. 0. 0. 0. 0.
      0. 0. 0. 0. 0. 0. 0. 0. 0. 0. 0. 0. 0. 0. 0. 0. 0. 0. 0. 0. 0. 0.
      0. 0. 0. 0. 0. 0. 0. 0. 0. 0.</_>
    <_>
      45. 46. 49. 51. 50. 53. 52. 63. 102. 145. 134. 138. 137. 104. 51.
      32. 43. 46. 46. 40. 32. 15. 0. 0. 0. 0. 0. 0. 44. 45. 48. 43. 52.
      78. 87. 104. 164. 209. 201. 198. 190. 151. 93. 62. 64. 34. 35. 42.
      44. 19. 0. 0. 0. 0. 0. 0. 45. 43. 40. 37. 68. 121. 146. 166. 214.
      234. 233. 234. 230. 207. 170. 145. 136. 51. 29. 35. 47. 20. 0. 0.
      0. 0. 0. 0. 44. 35. 30. 57. 111. 178. 211. 220. 238. 246. 246.
      247. 245. 236. 218. 202. 186. 113. 46. 23. 31. 17. 0. 0. 0. 0. 0.
      0. 37. 24. 42. 111. 182. 226. 243. 244. 247. 249. 250. 250. 250.
      249. 244. 235. 222. 179. 94. 40. 21. 10. 0. 0. 0. 0. 0. 0. 27. 28.
      86. 180. 238. 248. 247. 247. 250. 248. 249. 249. 250. 250. 250.
      248. 245. 223. 160. 92. 30. 8. 0. 0. 0. 0. 0. 0. 20. 54. 150. 227.
      249. 250. 248. 249. 252. 253. 253. 253. 253. 252. 249. 249. 249.
      244. 221. 145. 47. 8. 0. 0. 0. 0. 0. 0. 17. 78. 195. 243. 244.
      247. 251. 251. 251. 250. 251. 252. 254. 254. 253. 253. 252. 250.
      241. 180. 56. 9. 0. 0. 0. 0. 0. 0. 16. 80. 197. 245. 245. 246.
      250. 253. 252. 251. 249. 245. 245. 246. 249. 251. 251. 251. 245.
      208. 72. 8. 0. 0. 0. 0. 0. 0. 21. 90. 199. 241. 243. 246. 250.
      253. 252. 251. 246. 239. 238. 240. 245. 249. 250. 252. 249. 225.
      98. 15. 0. 0. 0. 0. 0. 0. 38. 111. 202. 234. 238. 242. 249. 253.
      253. 250. 241. 232. 228. 233. 241. 246. 249. 252. 252. 230. 137.
      41. 0. 0. 0. 0. 0. 0. 70. 150. 214. 230. 235. 241. 249. 253. 253.
      250. 240. 228. 223. 230. 239. 244. 248. 252. 254. 242. 180. 77. 0.
      0. 0. 0. 0. 0. 112. 191. 228. 232. 236. 241. 249. 253. 254. 252.
      242. 232. 227. 233. 241. 245. 248. 252. 253. 250. 213. 107. 0. 0.
      0. 0. 0. 0. 144. 226. 237. 236. 239. 243. 249. 252. 254. 254. 246.
      239. 236. 239. 243. 246. 249. 251. 251. 252. 228. 131. 0. 0. 0. 0.
      0. 0. 163. 244. 247. 246. 246. 249. 250. 253. 254. 254. 250. 246.
      245. 245. 248. 249. 250. 251. 251. 253. 236. 146. 0. 0. 0. 0. 0.
      0. 176. 249. 248. 248. 249. 250. 249. 253. 254. 254. 251. 249.
      249. 249. 253. 253. 252. 249. 250. 253. 240. 152. 0. 0. 0. 0. 0.
      0. 179. 251. 252. 252. 251. 252. 252. 253. 253. 253. 251. 250.
      250. 251. 253. 253. 252. 250. 251. 251. 241. 147. 0. 0. 0. 0. 0.
      0. 176. 253. 251. 253. 251. 251. 253. 253. 248. 251. 252. 252.
      252. 253. 253. 252. 253. 253. 251. 252. 245. 151. 0. 0. 0. 0. 0.
      0. 174. 253. 251. 253. 252. 252. 253. 253. 247. 251. 252. 252.
      251. 252. 253. 251. 252. 249. 249. 252. 247. 148. 0. 0. 0. 0. 0.
      0. 173. 252. 253. 254. 251. 253. 252. 250. 250. 251. 250. 248.
      247. 249. 251. 252. 250. 245. 248. 250. 245. 152. 0. 0. 0. 0. 0.
      0. 166. 249. 250. 248. 242. 249. 249. 245. 249. 242. 235. 239.
      245. 248. 249. 250. 249. 236. 244. 248. 239. 152. 0. 0. 0. 0. 0.
      0. 161. 249. 244. 224. 216. 237. 247. 245. 246. 221. 195. 206.
      231. 245. 246. 245. 239. 209. 220. 240. 242. 153. 0. 0. 0. 0. 0.
      0. 156. 244. 224. 175. 161. 204. 241. 245. 244. 196. 136. 131.
      184. 239. 247. 242. 211. 157. 169. 228. 248. 150. 0. 0. 0. 0. 0.
      0. 143. 228. 191. 115. 93. 155. 220. 238. 226. 167. 82. 56. 131.
      229. 245. 218. 145. 92. 105. 185. 226. 133. 0. 0. 0. 0. 0. 0. 109.
      181. 133. 62. 51. 102. 176. 216. 200. 143. 59. 28. 110. 225. 232.
      166. 76. 44. 51. 132. 182. 115. 0. 0. 0. 0. 0. 0. 74. 125. 88. 42.
      43. 66. 123. 172. 166. 121. 54. 29. 88. 180. 186. 119. 39. 36. 51.
      95. 127. 83. 0. 0. 0. 0. 0. 0. 0. 0. 0. 0. 0. 0. 0. 0. 0. 0. 0. 0.
      0. 0. 0. 0. 0. 0. 0. 0. 0. 0. 0. 0. 0. 0. 0. 0. 0. 0. 0. 0. 0. 0.
      0. 0. 0. 0. 0. 0. 0. 0. 0. 0. 0. 0. 0. 0. 0. 0. 0. 0. 0. 0. 0. 0.</_>
    <_>
      41. 41. 44. 46. 44. 40. 34. 48. 82. 120. 140. 154. 159. 142. 102.
      56. 41. 53. 56. 56. 54. 52. 56. 0. 0. 0. 0. 0. 44. 50. 47. 35. 30.
      45. 73. 113. 166. 215. 244. 245. 243. 223. 185. 125. 89. 74. 53.
      48. 53. 55. 52. 0. 0. 0. 0. 0. 47. 53. 38. 28. 51. 113. 169. 215.
      237. 247. 249. 247. 247. 246. 237. 216. 187. 146. 85. 49. 49. 54.
      53. 0. 0. 0. 0. 0. 46. 35. 25. 53. 127. 202. 244. 251. 251. 249.
      248. 249. 249. 249. 249. 248. 241. 210. 142. 76. 47. 46. 55. 0. 0.
      0. 0. 0. 37. 29. 59. 128. 203. 241. 245. 244. 243. 246. 250. 252.
      252. 250. 243. 245. 249. 242. 204. 138. 75. 46. 50. 0. 0. 0. 0. 0.
      22. 46. 122. 203. 243. 248. 248. 249. 249. 250. 251. 251. 252.
      252. 248. 248. 249. 248. 242. 206. 128. 67. 52. 0. 0. 0. 0. 0. 24.
      88. 196. 247. 250. 252. 248. 251. 252. 253. 252. 251. 251. 252.
      252. 252. 250. 250. 251. 238. 170. 82. 48. 0. 0. 0. 0. 0. 36. 123.
      220. 248. 241. 248. 252. 253. 252. 250. 250. 249. 249. 247. 246.
      250. 251. 253. 254. 253. 194. 91. 45. 0. 0. 0. 0. 0. 31. 102. 191.
      223. 225. 234. 239. 250. 249. 248. 246. 240. 234. 232. 236. 244.
      247. 252. 253. 253. 198. 97. 39. 0. 0. 0. 0. 0. 28. 83. 154. 196.
      218. 235. 237. 246. 247. 250. 245. 224. 206. 211. 228. 241. 246.
      249. 250. 250. 209. 114. 51. 0. 0. 0. 0. 0. 49. 113. 163. 182.
      203. 231. 236. 245. 247. 252. 247. 218. 194. 203. 226. 242. 246.
      248. 248. 250. 232. 168. 99. 0. 0. 0. 0. 0. 90. 166. 206. 206.
      213. 231. 235. 247. 247. 251. 248. 230. 213. 216. 228. 243. 245.
      248. 248. 251. 251. 221. 155. 0. 0. 0. 0. 0. 129. 208. 243. 239.
      240. 244. 244. 251. 250. 250. 250. 245. 241. 236. 237. 246. 247.
      250. 250. 251. 251. 238. 162. 0. 0. 0. 0. 0. 137. 216. 247. 245.
      246. 248. 248. 251. 252. 253. 252. 252. 252. 250. 249. 250. 251.
      253. 253. 248. 251. 237. 150. 0. 0. 0. 0. 0. 141. 219. 248. 248.
      248. 250. 249. 248. 253. 253. 253. 252. 252. 250. 250. 251. 251.
      253. 253. 247. 251. 248. 159. 0. 0. 0. 0. 0. 150. 223. 248. 248.
      248. 251. 250. 250. 253. 250. 249. 251. 251. 250. 253. 253. 252.
      252. 249. 252. 251. 244. 159. 0. 0. 0. 0. 0. 147. 220. 247. 248.
      248. 251. 251. 252. 251. 249. 247. 249. 250. 251. 253. 253. 250.
      251. 247. 250. 250. 239. 158. 0. 0. 0. 0. 0. 141. 216. 246. 248.
      250. 251. 250. 250. 250. 251. 252. 252. 252. 251. 250. 250. 247.
      251. 251. 251. 249. 236. 162. 0. 0. 0. 0. 0. 148. 218. 246. 247.
      249. 249. 248. 249. 249. 251. 251. 250. 251. 250. 249. 252. 251.
      251. 250. 249. 249. 238. 162. 0. 0. 0. 0. 0. 149. 222. 247. 248.
      249. 248. 239. 230. 235. 243. 246. 245. 248. 250. 246. 244. 246.
      248. 243. 246. 249. 234. 155. 0. 0. 0. 0. 0. 128. 200. 240. 249.
      248. 239. 200. 171. 185. 222. 245. 250. 249. 238. 204. 176. 206.
      237. 247. 248. 247. 217. 128. 0. 0. 0. 0. 0. 90. 159. 221. 246.
      236. 201. 133. 90. 116. 175. 229. 247. 232. 184. 121. 94. 135.
      201. 242. 245. 220. 166. 79. 0. 0. 0. 0. 0. 55. 108. 171. 203.
      185. 131. 73. 43. 62. 124. 186. 218. 192. 120. 61. 49. 81. 149.
      203. 205. 165. 99. 37. 0. 0. 0. 0. 0. 0. 0. 0. 0. 0. 0. 0. 0. 0.
      0. 0. 0. 0. 0. 0. 0. 0. 0. 0. 0. 0. 0. 0. 0. 0. 0. 0. 0. 0. 0. 0.
      0. 0. 0. 0. 0. 0. 0. 0. 0. 0. 0. 0. 0. 0. 0. 0. 0. 0. 0. 0. 0. 0.
      0. 0. 0. 0. 0. 0. 0. 0. 0. 0. 0. 0. 0. 0. 0. 0. 0. 0. 0. 0. 0. 0.
      0. 0. 0. 0. 0. 0. 0. 0. 0. 0. 0. 0. 0. 0. 0. 0. 0. 0. 0. 0. 0. 0.
      0. 0. 0. 0. 0. 0. 0. 0. 0. 0. 0. 0. 0. 0. 0. 0. 0. 0. 0. 0. 0. 0.
      0. 0. 0. 0. 0. 0. 0. 0. 0. 0. 0. 0. 0. 0. 0. 0. 0. 0. 0. 0. 0.</_>
    <_>
      41. 44. 45. 58. 47. 45. 39. 57. 103. 140. 146. 144. 141. 127. 75.
      40. 34. 42. 48. 55. 55. 55. 53. 0. 0. 0. 0. 0. 46. 43. 35. 38. 48.
      78. 99. 130. 191. 233. 243. 242. 242. 221. 166. 106. 79. 57. 42.
      48. 55. 55. 54. 0. 0. 0. 0. 0. 35. 41. 34. 38. 81. 150. 196. 215.
      242. 251. 248. 250. 248. 247. 237. 220. 190. 129. 61. 23. 51. 54.
      55. 0. 0. 0. 0. 0. 38. 36. 40. 80. 152. 218. 246. 248. 250. 249.
      242. 249. 248. 249. 249. 248. 235. 190. 117. 51. 42. 47. 52. 0. 0.
      0. 0. 0. 32. 34. 80. 150. 222. 246. 249. 247. 249. 248. 246. 250.
      249. 247. 248. 248. 246. 240. 186. 111. 38. 45. 52. 0. 0. 0. 0. 0.
      31. 62. 147. 212. 247. 248. 249. 250. 250. 249. 248. 249. 250.
      252. 252. 250. 252. 249. 233. 188. 99. 39. 39. 0. 0. 0. 0. 0. 35.
      98. 193. 242. 249. 249. 250. 251. 251. 251. 250. 249. 250. 252.
      252. 252. 252. 252. 247. 225. 142. 47. 41. 0. 0. 0. 0. 0. 39. 116.
      210. 246. 250. 251. 252. 252. 253. 253. 253. 253. 253. 253. 254.
      253. 253. 253. 251. 236. 161. 46. 39. 0. 0. 0. 0. 0. 43. 129. 216.
      246. 250. 251. 252. 253. 253. 253. 253. 253. 254. 253. 254. 254.
      253. 251. 250. 239. 167. 48. 30. 0. 0. 0. 0. 0. 61. 149. 228. 248.
      248. 250. 250. 251. 253. 253. 254. 254. 253. 253. 253. 253. 251.
      249. 248. 240. 192. 95. 49. 0. 0. 0. 0. 0. 110. 187. 241. 248.
      246. 246. 247. 248. 251. 253. 254. 254. 252. 251. 249. 248. 248.
      248. 248. 245. 228. 179. 95. 0. 0. 0. 0. 0. 151. 223. 249. 245.
      240. 235. 232. 236. 241. 245. 249. 249. 249. 246. 239. 233. 235.
      241. 244. 246. 249. 225. 131. 0. 0. 0. 0. 0. 164. 230. 246. 243.
      236. 221. 213. 222. 236. 244. 247. 247. 248. 244. 230. 215. 216.
      231. 240. 245. 247. 221. 132. 0. 0. 0. 0. 0. 161. 229. 247. 244.
      234. 202. 180. 199. 226. 238. 242. 244. 244. 236. 216. 196. 199.
      221. 239. 246. 246. 211. 117. 0. 0. 0. 0. 0. 166. 230. 246. 242.
      236. 213. 189. 203. 228. 238. 241. 244. 245. 238. 218. 201. 205.
      225. 240. 246. 249. 210. 113. 0. 0. 0. 0. 0. 168. 233. 247. 245.
      248. 241. 228. 236. 245. 247. 247. 247. 249. 246. 237. 228. 231.
      240. 244. 246. 246. 210. 114. 0. 0. 0. 0. 0. 171. 235. 247. 250.
      250. 247. 245. 246. 248. 250. 249. 249. 250. 249. 248. 246. 246.
      247. 246. 248. 249. 208. 116. 0. 0. 0. 0. 0. 169. 238. 249. 251.
      247. 245. 247. 248. 248. 250. 250. 249. 249. 248. 249. 248. 245.
      245. 247. 248. 249. 205. 103. 0. 0. 0. 0. 0. 164. 237. 248. 249.
      244. 248. 249. 250. 249. 250. 250. 249. 249. 249. 250. 249. 245.
      245. 249. 246. 246. 204. 100. 0. 0. 0. 0. 0. 160. 235. 247. 248.
      248. 247. 237. 224. 232. 244. 245. 245. 246. 242. 231. 231. 242.
      248. 248. 245. 245. 204. 108. 0. 0. 0. 0. 0. 152. 233. 246. 250.
      249. 226. 178. 151. 189. 233. 241. 243. 242. 209. 165. 162. 209.
      242. 247. 247. 237. 181. 86. 0. 0. 0. 0. 0. 85. 178. 236. 244.
      247. 160. 95. 68. 122. 201. 235. 246. 218. 149. 80. 84. 157. 224.
      242. 244. 206. 126. 50. 0. 0. 0. 0. 0. 60. 123. 165. 184. 171. 83.
      41. 69. 132. 189. 188. 187. 143. 78. 41. 54. 108. 165. 200. 209.
      140. 54. 25. 0. 0. 0. 0. 0. 44. 76. 93. 103. 84. 33. 36. 132. 205.
      212. 122. 71. 62. 42. 31. 41. 70. 96. 110. 102. 59. 33. 38. 0. 0.
      0. 0. 0. 42. 54. 58. 55. 39. 20. 61. 183. 248. 225. 84. 12. 26.
