<?xml version="1.0"?>
<opencv_storage>
<ghost5 type_id="opencv-ml-svm">
  <svm_type>C_SVC</svm_type>
  <kernel><type>POLY</type>
    <degree>4.</degree>
    <gamma>1.</gamma>
    <coef0>0.</coef0></kernel>
  <C>1.</C>
  <term_criteria><epsilon>2.2204460492503131e-16</epsilon>
    <iterations>5000</iterations></term_criteria>
  <var_all>784</var_all>
  <var_count>784</var_count>
  <class_count>2</class_count>
  <class_labels type_id="opencv-matrix">
    <rows>1</rows>
    <cols>2</cols>
    <dt>i</dt>
    <data>
      -1 1</data></class_labels>
  <sv_total>70</sv_total>
  <support_vectors>
    <_>
      41. 39. 39. 40. 42. 42. 36. 47. 49. 46. 34. 34. 79. 151. 167. 154.
      165. 173. 167. 151. 70. 25. 31. 42. 0. 0. 0. 0. 38. 41. 44. 47.
      47. 46. 50. 44. 33. 46. 78. 118. 169. 215. 224. 223. 223. 223.
      233. 200. 74. 19. 31. 44. 0. 0. 0. 0. 40. 43. 44. 44. 48. 47. 35.
      30. 50. 107. 170. 206. 227. 237. 235. 240. 233. 234. 238. 184. 58.
      18. 34. 47. 0. 0. 0. 0. 40. 41. 40. 41. 44. 38. 25. 57. 130. 199.
      231. 242. 242. 244. 241. 245. 245. 239. 216. 117. 24. 22. 35. 47.
      0. 0. 0. 0. 39. 41. 44. 48. 39. 29. 55. 126. 208. 237. 242. 245.
      246. 250. 248. 246. 252. 236. 172. 84. 20. 25. 34. 43. 0. 0. 0. 0.
      40. 47. 50. 41. 30. 50. 121. 204. 239. 244. 246. 248. 249. 252.
      249. 241. 247. 233. 186. 140. 79. 25. 31. 39. 0. 0. 0. 0. 42. 38.
      39. 37. 47. 102. 189. 239. 246. 248. 253. 252. 251. 253. 251. 243.
      235. 229. 224. 204. 164. 78. 28. 32. 0. 0. 0. 0. 53. 75. 71. 45.
      70. 161. 228. 245. 248. 251. 253. 253. 252. 252. 247. 236. 224.
      221. 223. 219. 202. 147. 54. 29. 0. 0. 0. 0. 94. 167. 161. 86.
      100. 192. 243. 245. 248. 252. 252. 254. 252. 247. 239. 228. 218.
      214. 217. 220. 216. 168. 59. 22. 0. 0. 0. 0. 147. 225. 225. 154.
      152. 216. 244. 246. 250. 250. 252. 252. 248. 241. 230. 223. 220.
      215. 214. 217. 219. 189. 93. 35. 0. 0. 0. 0. 160. 226. 223. 187.
      204. 233. 244. 247. 251. 250. 250. 247. 242. 235. 223. 219. 219.
      215. 212. 211. 212. 205. 157. 77. 0. 0. 0. 0. 126. 155. 150. 169.
      223. 240. 243. 246. 251. 250. 251. 248. 243. 234. 222. 217. 217.
      215. 212. 210. 211. 215. 193. 105. 0. 0. 0. 0. 74. 69. 75. 140.
      221. 240. 244. 245. 250. 252. 252. 252. 247. 239. 230. 223. 219.
      217. 214. 212. 214. 219. 200. 110. 0. 0. 0. 0. 56. 37. 43. 134.
      225. 243. 246. 245. 251. 253. 247. 250. 247. 243. 236. 229. 222.
      217. 214. 212. 213. 217. 200. 117. 0. 0. 0. 0. 54. 37. 42. 144.
      230. 243. 247. 247. 252. 253. 251. 253. 253. 251. 243. 236. 229.
      221. 217. 215. 215. 218. 205. 121. 0. 0. 0. 0. 47. 34. 45. 144.
      232. 241. 243. 245. 252. 253. 253. 254. 254. 253. 246. 242. 234.
      228. 221. 218. 219. 222. 211. 116. 0. 0. 0. 0. 42. 33. 46. 131.
      228. 237. 241. 242. 250. 251. 252. 254. 254. 254. 251. 249. 243.
      238. 229. 222. 220. 223. 203. 108. 0. 0. 0. 0. 42. 35. 42. 103.
      195. 229. 242. 241. 249. 251. 253. 253. 254. 254. 253. 251. 246.
      243. 236. 228. 222. 215. 174. 83. 0. 0. 0. 0. 44. 38. 38. 66. 141.
      210. 238. 235. 240. 246. 252. 252. 253. 254. 254. 253. 248. 246.
      242. 238. 230. 197. 122. 48. 0. 0. 0. 0. 44. 40. 35. 43. 110. 191.
      237. 236. 238. 244. 252. 251. 252. 255. 255. 254. 250. 250. 250.
      248. 235. 171. 74. 26. 0. 0. 0. 0. 41. 42. 39. 37. 85. 162. 224.
      231. 236. 237. 243. 244. 248. 251. 252. 251. 251. 252. 250. 246.
      211. 128. 48. 27. 0. 0. 0. 0. 38. 41. 43. 37. 56. 124. 189. 222.
      234. 233. 236. 243. 246. 247. 249. 248. 249. 249. 241. 225. 156.
      75. 34. 38. 0. 0. 0. 0. 31. 34. 39. 44. 31. 66. 135. 179. 191.
      208. 224. 228. 238. 238. 242. 242. 243. 233. 200. 172. 96. 39. 29.
      44. 0. 0. 0. 0. 19. 34. 44. 51. 62. 61. 83. 103. 111. 156. 202.
      217. 220. 215. 221. 225. 209. 164. 111. 68. 53. 48. 47. 47. 0. 0.
      0. 0. 36. 28. 33. 45. 52. 53. 67. 72. 75. 107. 151. 167. 170. 159.
      169. 176. 137. 73. 45. 53. 57. 55. 54. 54. 0. 0. 0. 0. 0. 0. 0. 0.
      0. 0. 0. 0. 0. 0. 0. 0. 0. 0. 0. 0. 0. 0. 0. 0. 0. 0. 0. 0. 0. 0.
      0. 0. 0. 0. 0. 0. 0. 0. 0. 0. 0. 0. 0. 0. 0. 0. 0. 0. 0. 0. 0. 0.
      0. 0. 0. 0. 0. 0. 0. 0. 0. 0. 0. 0. 0. 0. 0. 0. 0. 0. 0. 0. 0. 0.
      0. 0. 0. 0. 0. 0. 0. 0. 0. 0. 0. 0. 0. 0.</_>
    <_>
      29. 27. 43. 50. 44. 52. 40. 32. 90. 149. 152. 148. 161. 151. 88.
      45. 45. 53. 57. 59. 55. 58. 57. 0. 0. 0. 0. 0. 28. 28. 41. 48. 46.
      44. 39. 60. 145. 207. 199. 194. 197. 204. 136. 74. 55. 49. 43. 48.
      48. 55. 51. 0. 0. 0. 0. 0. 28. 29. 33. 40. 40. 57. 70. 105. 182.
      217. 201. 195. 194. 212. 170. 108. 91. 74. 45. 37. 43. 59. 53. 0.
      0. 0. 0. 0. 40. 24. 26. 53. 92. 109. 118. 143. 196. 213. 215. 220.
      218. 222. 189. 132. 117. 132. 107. 47. 27. 41. 53. 0. 0. 0. 0. 0.
      35. 22. 54. 118. 179. 182. 170. 177. 206. 214. 214. 221. 217. 221.
      206. 177. 176. 193. 183. 142. 64. 27. 43. 0. 0. 0. 0. 0. 29. 39.
      118. 197. 221. 221. 211. 208. 217. 217. 215. 218. 217. 218. 219.
      218. 223. 225. 227. 221. 141. 45. 35. 0. 0. 0. 0. 0. 35. 61. 162.
      231. 227. 230. 229. 228. 227. 224. 220. 221. 221. 221. 224. 225.
      226. 224. 227. 230. 189. 58. 32. 0. 0. 0. 0. 0. 33. 69. 175. 233.
      231. 235. 241. 243. 240. 234. 228. 228. 229. 230. 239. 240. 238.
      233. 229. 231. 190. 53. 30. 0. 0. 0. 0. 0. 31. 80. 183. 228. 227.
      230. 235. 237. 233. 227. 224. 225. 226. 229. 234. 234. 234. 236.
      230. 229. 198. 61. 26. 0. 0. 0. 0. 0. 50. 118. 204. 224. 221. 221.
      225. 225. 223. 220. 220. 220. 220. 221. 224. 224. 224. 225. 220.
      219. 218. 121. 42. 0. 0. 0. 0. 0. 91. 170. 219. 220. 217. 218.
      221. 223. 221. 220. 220. 220. 221. 220. 222. 223. 222. 220. 216.
      216. 218. 188. 80. 0. 0. 0. 0. 0. 124. 202. 223. 219. 218. 219.
      219. 220. 221. 222. 222. 223. 224. 223. 223. 222. 221. 220. 219.
      219. 217. 217. 128. 0. 0. 0. 0. 0. 127. 204. 222. 219. 219. 219.
      220. 221. 222. 222. 223. 222. 222. 222. 222. 222. 221. 221. 220.
      220. 218. 219. 154. 0. 0. 0. 0. 0. 131. 206. 222. 218. 218. 219.
      219. 219. 220. 220. 220. 220. 220. 220. 221. 221. 220. 220. 220.
      219. 219. 218. 158. 0. 0. 0. 0. 0. 134. 207. 222. 218. 218. 218.
      219. 219. 219. 220. 220. 220. 220. 220. 220. 220. 220. 220. 219.
      219. 219. 218. 163. 0. 0. 0. 0. 0. 138. 209. 222. 221. 221. 221.
      222. 222. 222. 222. 222. 222. 221. 221. 220. 220. 219. 219. 220.
      220. 219. 218. 166. 0. 0. 0. 0. 0. 135. 209. 222. 221. 221. 221.
      222. 222. 222. 222. 222. 222. 222. 222. 221. 220. 220. 220. 220.
      220. 219. 218. 166. 0. 0. 0. 0. 0. 129. 208. 221. 219. 219. 219.
      219. 218. 217. 217. 217. 217. 218. 218. 218. 218. 218. 218. 218.
      218. 218. 215. 164. 0. 0. 0. 0. 0. 125. 209. 220. 219. 218. 217.
      217. 215. 214. 213. 212. 210. 211. 213. 215. 216. 216. 215. 214.
      213. 217. 214. 157. 0. 0. 0. 0. 0. 129. 208. 215. 205. 204. 205.
      206. 212. 215. 213. 198. 186. 196. 208. 211. 212. 213. 205. 197.
      202. 212. 211. 154. 0. 0. 0. 0. 0. 122. 212. 214. 196. 165. 192.
      206. 204. 211. 212. 166. 135. 172. 203. 209. 211. 204. 178. 158.
      179. 202. 201. 149. 0. 0. 0. 0. 0. 114. 220. 214. 149. 109. 146.
      199. 204. 213. 214. 133. 84. 142. 201. 211. 215. 183. 125. 112.
      152. 196. 211. 155. 0. 0. 0. 0. 0. 86. 198. 184. 95. 74. 93. 149.
      194. 213. 192. 109. 58. 106. 184. 208. 203. 147. 77. 61. 98. 167.
      201. 128. 0. 0. 0. 0. 0. 52. 128. 122. 59. 58. 56. 88. 157. 177.
      134. 76. 51. 69. 139. 175. 158. 102. 63. 53. 67. 118. 149. 95. 0.
      0. 0. 0. 0. 0. 0. 0. 0. 0. 0. 0. 0. 0. 0. 0. 0. 0. 0. 0. 0. 0. 0.
      0. 0. 0. 0. 0. 0. 0. 0. 0. 0. 0. 0. 0. 0. 0. 0. 0. 0. 0. 0. 0. 0.
      0. 0. 0. 0. 0. 0. 0. 0. 0. 0. 0. 0. 0. 0. 0. 0. 0. 0. 0. 0. 0. 0.
      0. 0. 0. 0. 0. 0. 0. 0. 0. 0. 0. 0. 0. 0. 0. 0. 0. 0. 0. 0. 0. 0.
      0. 0. 0. 0. 0. 0. 0. 0. 0. 0. 0. 0. 0. 0. 0. 0. 0. 0. 0. 0. 0. 0.
      0. 0. 0. 0. 0. 0.</_>
    <_>
      29. 45. 44. 44. 45. 46. 51. 49. 43. 24. 48. 135. 174. 138. 31. 26.
      44. 55. 51. 48. 41. 45. 44. 0. 0. 0. 0. 0. 39. 46. 45. 48. 51. 50.
      48. 45. 38. 17. 67. 201. 237. 195. 42. 13. 39. 55. 46. 47. 39. 49.
      44. 0. 0. 0. 0. 0. 43. 51. 52. 46. 49. 56. 50. 48. 46. 19. 69.
      204. 250. 215. 52. 12. 36. 51. 41. 54. 49. 42. 48. 0. 0. 0. 0. 0.
      44. 48. 50. 51. 51. 51. 50. 45. 45. 43. 88. 182. 226. 184. 54. 18.
      34. 45. 53. 54. 52. 42. 52. 0. 0. 0. 0. 0. 49. 53. 53. 51. 54. 59.
      51. 50. 73. 97. 123. 165. 186. 152. 70. 40. 42. 45. 66. 47. 50.
      55. 49. 0. 0. 0. 0. 0. 54. 54. 52. 46. 55. 76. 84. 94. 122. 140.
      143. 150. 152. 142. 111. 89. 77. 63. 56. 49. 54. 50. 48. 0. 0. 0.
      0. 0. 52. 46. 41. 41. 66. 109. 134. 142. 147. 147. 143. 140. 136.
      140. 141. 138. 129. 99. 61. 44. 47. 48. 52. 0. 0. 0. 0. 0. 47. 36.
      34. 54. 97. 142. 162. 160. 155. 152. 145. 141. 140. 137. 139. 153.
      161. 139. 96. 53. 37. 45. 54. 0. 0. 0. 0. 0. 44. 34. 49. 94. 131.
      161. 180. 184. 183. 178. 162. 150. 147. 140. 141. 166. 188. 190.
      169. 110. 47. 35. 43. 0. 0. 0. 0. 0. 42. 41. 83. 133. 158. 180.
      212. 227. 227. 219. 198. 166. 149. 150. 169. 201. 222. 232. 232.
      182. 91. 33. 26. 0. 0. 0. 0. 0. 38. 52. 118. 152. 179. 210. 236.
      248. 251. 248. 231. 195. 160. 165. 200. 233. 247. 248. 248. 227.
      152. 54. 20. 0. 0. 0. 0. 0. 52. 54. 122. 153. 189. 233. 245. 243.
      245. 237. 229. 213. 178. 179. 217. 240. 246. 243. 241. 240. 186.
      77. 24. 0. 0. 0. 0. 0. 60. 55. 123. 160. 190. 238. 247. 238. 237.
      212. 200. 195. 174. 187. 229. 250. 244. 234. 215. 187. 144. 74.
      31. 0. 0. 0. 0. 0. 106. 85. 139. 163. 185. 238. 248. 238. 234.
      203. 176. 169. 161. 185. 229. 250. 244. 228. 207. 172. 135. 80.
      30. 0. 0. 0. 0. 0. 200. 141. 149. 154. 174. 237. 252. 239. 233.
      203. 168. 166. 168. 186. 218. 245. 246. 226. 196. 171. 139. 89.
      74. 0. 0. 0. 0. 0. 247. 182. 150. 147. 156. 213. 237. 241. 242.
      220. 182. 161. 156. 160. 187. 231. 251. 244. 228. 196. 137. 76.
      88. 0. 0. 0. 0. 0. 194. 176. 146. 145. 139. 172. 201. 224. 235.
      222. 184. 150. 144. 139. 153. 192. 224. 237. 231. 204. 158. 92.
      72. 0. 0. 0. 0. 0. 105. 150. 145. 140. 135. 147. 165. 174. 182.
      178. 161. 143. 144. 141. 140. 152. 165. 170. 169. 159. 144. 103.
      57. 0. 0. 0. 0. 0. 64. 146. 146. 134. 137. 139. 142. 139. 133.
      138. 140. 133. 134. 135. 134. 131. 133. 136. 139. 140. 141. 126.
      74. 0. 0. 0. 0. 0. 60. 148. 149. 136. 136. 135. 139. 140. 134.
      135. 137. 139. 135. 134. 134. 132. 132. 132. 129. 137. 146. 123.
      66. 0. 0. 0. 0. 0. 60. 142. 152. 142. 136. 141. 142. 131. 132.
      138. 133. 135. 135. 134. 134. 133. 132. 132. 133. 140. 143. 116.
      63. 0. 0. 0. 0. 0. 64. 141. 153. 145. 137. 139. 140. 136. 138.
      140. 134. 140. 132. 128. 133. 134. 132. 133. 140. 137. 143. 122.
      69. 0. 0. 0. 0. 0. 68. 138. 155. 141. 136. 135. 134. 131. 132.
      132. 127. 131. 131. 132. 134. 135. 134. 133. 133. 134. 146. 130.
      74. 0. 0. 0. 0. 0. 62. 127. 155. 142. 143. 138. 126. 114. 118.
      132. 139. 134. 146. 141. 118. 113. 132. 141. 136. 141. 147. 122.
      67. 0. 0. 0. 0. 0. 51. 105. 149. 154. 153. 131. 91. 65. 75. 120.
      158. 154. 154. 119. 65. 53. 96. 142. 156. 159. 144. 99. 53. 0. 0.
      0. 0. 0. 43. 78. 129. 163. 153. 116. 63. 39. 50. 95. 149. 161.
      139. 93. 46. 36. 58. 116. 159. 161. 129. 75. 44. 0. 0. 0. 0. 0.
      44. 53. 93. 130. 119. 83. 51. 38. 41. 66. 106. 125. 102. 76. 56.
      44. 48. 83. 122. 122. 96. 57. 43. 0. 0. 0. 0. 0. 0. 0. 0. 0. 0. 0.
      0. 0. 0. 0. 0. 0. 0. 0. 0. 0. 0. 0. 0. 0. 0. 0. 0. 0. 0. 0. 0. 0.</_>
    <_>
      64. 28. 29. 45. 44. 44. 45. 46. 51. 49. 43. 24. 48. 135. 174. 138.
      31. 26. 44. 55. 51. 48. 41. 45. 44. 0. 0. 0. 41. 34. 39. 46. 45.
      48. 51. 50. 48. 45. 38. 17. 67. 201. 237. 195. 42. 13. 39. 55. 46.
      47. 39. 49. 44. 0. 0. 0. 36. 38. 43. 51. 52. 46. 49. 56. 50. 48.
      46. 19. 69. 204. 250. 215. 52. 12. 36. 51. 41. 54. 49. 42. 48. 0.
      0. 0. 44. 45. 44. 48. 50. 51. 51. 51. 50. 45. 45. 43. 88. 182.
      226. 184. 54. 18. 34. 45. 53. 54. 52. 42. 52. 0. 0. 0. 50. 49. 49.
      53. 53. 51. 54. 59. 51. 50. 73. 97. 123. 165. 186. 152. 70. 40.
      42. 45. 66. 47. 50. 55. 49. 0. 0. 0. 51. 52. 54. 54. 52. 46. 55.
      76. 84. 94. 122. 140. 143. 150. 152. 142. 111. 89. 77. 63. 56. 49.
      54. 50. 48. 0. 0. 0. 48. 52. 52. 46. 41. 41. 66. 109. 134. 142.
      147. 147. 143. 140. 136. 140. 141. 138. 129. 99. 61. 44. 47. 48.
      52. 0. 0. 0. 45. 53. 47. 36. 34. 54. 97. 142. 162. 160. 155. 152.
      145. 141. 140. 137. 139. 153. 161. 139. 96. 53. 37. 45. 54. 0. 0.
      0. 50. 56. 44. 34. 49. 94. 131. 161. 180. 184. 183. 178. 162. 150.
      147. 140. 141. 166. 188. 190. 169. 110. 47. 35. 43. 0. 0. 0. 59.
      61. 42. 41. 83. 133. 158. 180. 212. 227. 227. 219. 198. 166. 149.
      150. 169. 201. 222. 232. 232. 182. 91. 33. 26. 0. 0. 0. 65. 63.
      38. 52. 118. 152. 179. 210. 236. 248. 251. 248. 231. 195. 160.
      165. 200. 233. 247. 248. 248. 227. 152. 54. 20. 0. 0. 0. 72. 71.
      52. 54. 122. 153. 189. 233. 245. 243. 245. 237. 229. 213. 178.
      179. 217. 240. 246. 243. 241. 240. 186. 77. 24. 0. 0. 0. 64. 70.
      60. 55. 123. 160. 190. 238. 247. 238. 237. 212. 200. 195. 174.
      187. 229. 250. 244. 234. 215. 187. 144. 74. 31. 0. 0. 0. 61. 110.
      106. 85. 139. 163. 185. 238. 248. 238. 234. 203. 176. 169. 161.
      185. 229. 250. 244. 228. 207. 172. 135. 80. 30. 0. 0. 0. 80. 196.
      200. 141. 149. 154. 174. 237. 252. 239. 233. 203. 168. 166. 168.
      186. 218. 245. 246. 226. 196. 171. 139. 89. 74. 0. 0. 0. 91. 235.
      247. 182. 150. 147. 156. 213. 237. 241. 242. 220. 182. 161. 156.
      160. 187. 231. 251. 244. 228. 196. 137. 76. 88. 0. 0. 0. 73. 176.
      194. 176. 146. 145. 139. 172. 201. 224. 235. 222. 184. 150. 144.
      139. 153. 192. 224. 237. 231. 204. 158. 92. 72. 0. 0. 0. 44. 80.
      105. 150. 145. 140. 135. 147. 165. 174. 182. 178. 161. 143. 144.
      141. 140. 152. 165. 170. 169. 159. 144. 103. 57. 0. 0. 0. 35. 32.
      64. 146. 146. 134. 137. 139. 142. 139. 133. 138. 140. 133. 134.
      135. 134. 131. 133. 136. 139. 140. 141. 126. 74. 0. 0. 0. 41. 30.
      60. 148. 149. 136. 136. 135. 139. 140. 134. 135. 137. 139. 135.
      134. 134. 132. 132. 132. 129. 137. 146. 123. 66. 0. 0. 0. 41. 33.
      60. 142. 152. 142. 136. 141. 142. 131. 132. 138. 133. 135. 135.
      134. 134. 133. 132. 132. 133. 140. 143. 116. 63. 0. 0. 0. 37. 32.
      64. 141. 153. 145. 137. 139. 140. 136. 138. 140. 134. 140. 132.
      128. 133. 134. 132. 133. 140. 137. 143. 122. 69. 0. 0. 0. 38. 31.
      68. 138. 155. 141. 136. 135. 134. 131. 132. 132. 127. 131. 131.
      132. 134. 135. 134. 133. 133. 134. 146. 130. 74. 0. 0. 0. 43. 32.
      62. 127. 155. 142. 143. 138. 126. 114. 118. 132. 139. 134. 146.
      141. 118. 113. 132. 141. 136. 141. 147. 122. 67. 0. 0. 0. 48. 33.
      51. 105. 149. 154. 153. 131. 91. 65. 75. 120. 158. 154. 154. 119.
      65. 53. 96. 142. 156. 159. 144. 99. 53. 0. 0. 0. 51. 38. 43. 78.
      129. 163. 153. 116. 63. 39. 50. 95. 149. 161. 139. 93. 46. 36. 58.
      116. 159. 161. 129. 75. 44. 0. 0. 0. 51. 45. 44. 53. 93. 130. 119.
      83. 51. 38. 41. 66. 106. 125. 102. 76. 56. 44. 48. 83. 122. 122.
      96. 57. 43. 0. 0. 0. 0. 0. 0. 0. 0. 0. 0. 0. 0. 0. 0. 0. 0. 0. 0.
      0. 0. 0. 0. 0. 0. 0. 0. 0. 0. 0. 0. 0.</_>
    <_>
      44. 48. 55. 59. 59. 61. 49. 48. 79. 108. 111. 106. 107. 92. 63.
      49. 59. 58. 54. 57. 40. 21. 0. 0. 0. 0. 0. 0. 47. 51. 52. 50. 53.
      66. 59. 73. 139. 198. 215. 210. 208. 170. 90. 45. 53. 59. 57. 61.
      40. 20. 0. 0. 0. 0. 0. 0. 50. 53. 46. 35. 42. 97. 128. 145. 198.
      240. 249. 249. 249. 231. 182. 139. 114. 67. 38. 53. 49. 22. 0. 0.
      0. 0. 0. 0. 48. 54. 30. 29. 80. 170. 235. 248. 250. 249. 245. 247.
      249. 248. 241. 235. 204. 114. 42. 37. 36. 25. 0. 0. 0. 0. 0. 0.
      40. 39. 17. 62. 168. 220. 248. 252. 251. 252. 253. 249. 250. 246.
      245. 249. 243. 200. 118. 47. 19. 18. 0. 0. 0. 0. 0. 0. 32. 18. 55.
      146. 234. 251. 252. 250. 246. 247. 251. 253. 252. 251. 251. 252.
      251. 238. 185. 98. 33. 13. 0. 0. 0. 0. 0. 0. 31. 25. 120. 223.
      251. 251. 252. 252. 253. 251. 249. 252. 247. 251. 253. 252. 251.
      249. 229. 160. 63. 10. 0. 0. 0. 0. 0. 0. 30. 44. 173. 252. 249.
      248. 245. 252. 253. 253. 248. 251. 251. 252. 250. 250. 252. 252.
      249. 198. 84. 7. 0. 0. 0. 0. 0. 0. 17. 47. 186. 252. 254. 254.
      251. 248. 254. 254. 252. 254. 254. 254. 249. 251. 253. 251. 252.
      210. 94. 7. 0. 0. 0. 0. 0. 0. 7. 52. 186. 252. 253. 254. 254. 247.
      252. 254. 254. 254. 252. 253. 252. 253. 254. 252. 252. 217. 108.
      17. 0. 0. 0. 0. 0. 0. 23. 102. 211. 248. 242. 252. 252. 251. 252.
      253. 252. 251. 249. 252. 253. 252. 250. 251. 253. 230. 145. 44. 0.
      0. 0. 0. 0. 0. 58. 167. 248. 250. 251. 251. 247. 247. 252. 251.
      249. 251. 250. 247. 248. 246. 243. 247. 250. 245. 192. 85. 0. 0.
      0. 0. 0. 0. 98. 218. 251. 250. 246. 242. 235. 236. 240. 242. 247.
      250. 249. 242. 237. 235. 235. 238. 243. 247. 223. 116. 0. 0. 0. 0.
      0. 0. 103. 220. 251. 250. 239. 218. 205. 215. 234. 238. 248. 246.
      247. 240. 216. 205. 212. 224. 235. 241. 239. 138. 0. 0. 0. 0. 0.
      0. 107. 221. 251. 248. 229. 185. 161. 182. 219. 238. 248. 246.
      246. 238. 193. 158. 178. 219. 239. 242. 240. 132. 0. 0. 0. 0. 0.
      0. 109. 221. 252. 249. 231. 187. 162. 181. 219. 238. 248. 248.
      246. 237. 192. 154. 173. 220. 242. 243. 243. 135. 0. 0. 0. 0. 0.
      0. 115. 221. 251. 249. 239. 217. 206. 218. 235. 241. 246. 247.
      248. 245. 223. 207. 216. 231. 243. 246. 247. 137. 0. 0. 0. 0. 0.
      0. 115. 222. 251. 247. 243. 239. 237. 242. 244. 243. 244. 245.
      246. 246. 242. 243. 245. 243. 244. 248. 248. 138. 0. 0. 0. 0. 0.
      0. 115. 221. 250. 247. 246. 246. 245. 245. 244. 244. 246. 246.
      244. 246. 243. 241. 244. 244. 243. 246. 248. 139. 0. 0. 0. 0. 0.
      0. 116. 222. 248. 244. 244. 245. 245. 244. 245. 245. 240. 236.
      241. 245. 245. 244. 244. 242. 241. 245. 250. 142. 0. 0. 0. 0. 0.
      0. 117. 220. 245. 223. 218. 233. 241. 244. 245. 232. 209. 201.
      224. 239. 244. 244. 237. 213. 217. 241. 250. 142. 0. 0. 0. 0. 0.
      0. 115. 218. 235. 198. 188. 209. 225. 237. 241. 211. 166. 168.
      188. 237. 242. 234. 216. 173. 170. 228. 245. 140. 0. 0. 0. 0. 0.
      0. 116. 209. 218. 188. 175. 171. 177. 204. 226. 209. 170. 165.
      203. 233. 227. 184. 158. 168. 183. 196. 237. 132. 0. 0. 0. 0. 0.
      0. 76. 159. 185. 189. 166. 122. 105. 128. 157. 171. 183. 183. 167.
      153. 133. 93. 81. 153. 207. 185. 167. 88. 0. 0. 0. 0. 0. 0. 31.
      71. 130. 176. 147. 71. 40. 49. 61. 99. 165. 178. 111. 67. 51. 35.
      40. 111. 175. 155. 74. 31. 0. 0. 0. 0. 0. 0. 28. 26. 72. 103. 86.
      38. 28. 38. 35. 45. 82. 99. 73. 35. 30. 34. 34. 60. 93. 84. 41. 8.
      0. 0. 0. 0. 0. 0. 0. 0. 0. 0. 0. 0. 0. 0. 0. 0. 0. 0. 0. 0. 0. 0.
      0. 0. 0. 0. 0. 0. 0. 0. 0. 0. 0. 0. 0. 0. 0. 0. 0. 0. 0. 0. 0. 0.
      0. 0. 0. 0. 0. 0. 0. 0. 0. 0. 0. 0. 0. 0. 0. 0. 0. 0.</_>
    <_>
      155. 14. 20. 46. 53. 51. 53. 53. 34. 54. 113. 151. 168. 158. 121.
      61. 25. 40. 51. 52. 55. 45. 43. 18. 0. 0. 0. 0. 158. 13. 24. 50.
      51. 54. 52. 47. 29. 82. 183. 229. 251. 247. 208. 112. 26. 36. 51.
      54. 51. 57. 45. 15. 0. 0. 0. 0. 155. 11. 26. 48. 47. 45. 50. 54.
      61. 142. 231. 249. 249. 250. 250. 189. 77. 58. 56. 54. 44. 52. 39.
      14. 0. 0. 0. 0. 145. 13. 24. 43. 51. 63. 76. 76. 100. 182. 239.
      248. 242. 242. 251. 223. 118. 99. 86. 76. 44. 31. 27. 17. 0. 0. 0.
      0. 143. 15. 23. 39. 70. 124. 137. 123. 147. 202. 231. 246. 247.
      249. 249. 232. 153. 152. 145. 139. 94. 32. 26. 18. 0. 0. 0. 0.
      135. 18. 23. 50. 108. 185. 195. 178. 189. 220. 230. 246. 247. 247.
      248. 239. 195. 196. 194. 206. 169. 52. 29. 14. 0. 0. 0. 0. 127.
      16. 28. 94. 193. 228. 226. 222. 225. 233. 238. 247. 249. 251. 249.
      242. 229. 226. 225. 229. 218. 142. 40. 14. 0. 0. 0. 0. 126. 21.
      42. 131. 223. 232. 230. 229. 231. 238. 241. 248. 249. 251. 250.
      245. 242. 237. 237. 235. 234. 203. 66. 17. 0. 0. 0. 0. 115. 24.
      47. 146. 239. 247. 248. 250. 251. 252. 252. 251. 252. 253. 254.
      252. 251. 248. 248. 246. 246. 219. 89. 14. 0. 0. 0. 0. 106. 31.
      61. 159. 239. 248. 249. 251. 251. 253. 252. 252. 251. 253. 254.
      254. 253. 252. 252. 251. 251. 226. 115. 19. 0. 0. 0. 0. 97. 58.
      109. 199. 247. 252. 251. 250. 251. 252. 251. 250. 252. 254. 253.
      253. 253. 254. 253. 252. 252. 238. 164. 65. 0. 0. 0. 0. 77. 80.
      159. 229. 248. 252. 251. 250. 251. 252. 251. 250. 252. 254. 253.
      252. 253. 255. 254. 253. 253. 248. 219. 126. 0. 0. 0. 0. 44. 81.
      189. 245. 249. 250. 252. 253. 253. 254. 253. 252. 253. 254. 253.
      252. 253. 254. 254. 254. 251. 249. 242. 163. 0. 0. 0. 0. 21. 79.
      197. 244. 246. 250. 252. 253. 254. 254. 253. 252. 252. 253. 252.
      252. 253. 253. 254. 253. 250. 249. 244. 172. 0. 0. 0. 0. 16. 90.
      211. 251. 252. 251. 250. 250. 250. 250. 251. 252. 252. 253. 252.
      252. 251. 251. 253. 253. 252. 252. 243. 172. 0. 0. 0. 0. 17. 83.
      200. 244. 250. 251. 250. 249. 250. 250. 251. 250. 250. 252. 252.
      252. 251. 251. 253. 253. 253. 250. 247. 182. 0. 0. 0. 0. 20. 86.
      202. 248. 250. 251. 252. 252. 253. 253. 252. 251. 252. 253. 253.
      253. 253. 253. 253. 252. 252. 250. 250. 190. 0. 0. 0. 0. 23. 87.
      213. 250. 247. 251. 253. 252. 254. 252. 250. 251. 253. 254. 254.
      253. 253. 252. 252. 253. 254. 249. 251. 189. 0. 0. 0. 0. 18. 83.
      213. 245. 248. 250. 251. 251. 253. 251. 249. 250. 251. 252. 252.
      252. 251. 251. 251. 252. 253. 249. 251. 189. 0. 0. 0. 0. 18. 79.
      215. 247. 250. 248. 249. 250. 250. 251. 252. 252. 250. 251. 252.
      250. 247. 249. 251. 249. 249. 250. 253. 187. 0. 0. 0. 0. 21. 61.
      209. 246. 249. 244. 247. 240. 212. 214. 238. 245. 249. 249. 249.
      234. 211. 220. 242. 244. 245. 250. 249. 184. 0. 0. 0. 0. 15. 33.
      185. 236. 248. 242. 247. 215. 141. 137. 198. 232. 246. 245. 239.
      192. 133. 150. 212. 238. 243. 245. 229. 156. 0. 0. 0. 0. 30. 17.
      98. 194. 239. 239. 232. 146. 68. 71. 130. 197. 237. 239. 201. 126.
      65. 81. 160. 219. 237. 234. 184. 105. 0. 0. 0. 0. 47. 29. 55. 122.
      192. 211. 164. 73. 45. 50. 71. 144. 202. 203. 135. 67. 48. 52. 92.
      171. 207. 194. 112. 42. 0. 0. 0. 0. 60. 51. 51. 82. 125. 158. 97.
      45. 60. 55. 54. 98. 142. 138. 93. 54. 56. 53. 66. 115. 151. 134.
      65. 34. 0. 0. 0. 0. 0. 0. 0. 0. 0. 0. 0. 0. 0. 0. 0. 0. 0. 0. 0.
      0. 0. 0. 0. 0. 0. 0. 0. 0. 0. 0. 0. 0. 0. 0. 0. 0. 0. 0. 0. 0. 0.
      0. 0. 0. 0. 0. 0. 0. 0. 0. 0. 0. 0. 0. 0. 0. 0. 0. 0. 0. 0. 0. 0.
      0. 0. 0. 0. 0. 0. 0. 0. 0. 0. 0. 0. 0. 0. 0. 0. 0. 0. 0. 0. 0. 0.
      0. 0. 0.</_>
    <_>
      71. 59. 39. 38. 40. 53. 53. 49. 54. 45. 55. 36. 12. 59. 156. 174.
      102. 25. 22. 37. 40. 39. 36. 0. 0. 0. 0. 0. 51. 27. 32. 36. 45.
      55. 47. 48. 60. 51. 50. 32. 14. 87. 219. 243. 145. 34. 20. 35. 42.
      42. 38. 0. 0. 0. 0. 0. 45. 36. 40. 46. 46. 37. 51. 67. 53. 42. 47.
      36. 20. 97. 233. 251. 148. 33. 20. 32. 42. 46. 41. 0. 0. 0. 0. 0.
      47. 50. 52. 44. 33. 32. 74. 121. 129. 124. 123. 114. 95. 102. 179.
      193. 110. 22. 24. 33. 41. 46. 45. 0. 0. 0. 0. 0. 56. 52. 48. 46.
      51. 85. 149. 199. 200. 195. 198. 198. 186. 126. 112. 111. 50. 15.
      29. 46. 43. 35. 41. 0. 0. 0. 0. 0. 43. 27. 52. 106. 143. 172. 205.
      226. 220. 216. 220. 224. 226. 178. 146. 141. 72. 28. 20. 43. 47.
      38. 45. 0. 0. 0. 0. 0. 36. 44. 105. 179. 210. 215. 218. 218. 215.
      215. 215. 217. 221. 215. 214. 219. 160. 80. 28. 29. 38. 43. 47. 0.
      0. 0. 0. 0. 39. 92. 170. 213. 224. 222. 218. 214. 211. 213. 214.
      214. 211. 216. 219. 220. 223. 162. 53. 25. 41. 66. 52. 0. 0. 0. 0.
      0. 35. 118. 202. 230. 228. 223. 218. 214. 215. 214. 213. 215. 210.
      216. 213. 207. 227. 207. 50. 35. 98. 137. 79. 0. 0. 0. 0. 0. 43.
      142. 218. 235. 230. 228. 224. 218. 218. 216. 213. 216. 215. 217.
      215. 213. 220. 206. 96. 108. 189. 208. 110. 0. 0. 0. 0. 0. 113.
      202. 237. 240. 238. 237. 235. 228. 220. 215. 218. 217. 215. 212.
      213. 216. 217. 214. 202. 205. 232. 229. 122. 0. 0. 0. 0. 0. 173.
      232. 244. 245. 245. 244. 242. 236. 229. 222. 219. 217. 211. 210.
      209. 213. 224. 227. 240. 235. 245. 237. 114. 0. 0. 0. 0. 0. 198.
      239. 245. 246. 248. 248. 246. 242. 235. 226. 220. 216. 210. 209.
      210. 215. 227. 231. 244. 242. 246. 237. 114. 0. 0. 0. 0. 0. 200.
      242. 245. 248. 250. 251. 251. 247. 240. 232. 225. 219. 214. 215.
      218. 224. 235. 238. 246. 248. 246. 238. 121. 0. 0. 0. 0. 0. 194.
      243. 246. 248. 249. 251. 251. 249. 244. 237. 231. 223. 218. 219.
      222. 229. 239. 242. 249. 249. 247. 238. 117. 0. 0. 0. 0. 0. 198.
      245. 246. 249. 250. 253. 254. 253. 250. 247. 241. 234. 230. 232.
      235. 240. 246. 248. 251. 246. 243. 223. 95. 0. 0. 0. 0. 0. 194.
      243. 245. 249. 250. 253. 254. 254. 254. 250. 247. 241. 237. 239.
      241. 245. 249. 250. 252. 247. 235. 178. 59. 0. 0. 0. 0. 0. 166.
      237. 241. 248. 250. 252. 252. 253. 253. 254. 253. 248. 246. 247.
      248. 250. 251. 251. 253. 251. 219. 116. 23. 0. 0. 0. 0. 0. 113.
      208. 239. 246. 249. 252. 251. 252. 252. 254. 255. 252. 250. 250.
      251. 252. 253. 252. 251. 243. 189. 66. 20. 0. 0. 0. 0. 0. 45. 134.
      235. 242. 242. 251. 250. 252. 250. 251. 251. 251. 252. 252. 252.
      252. 252. 251. 246. 217. 141. 40. 33. 0. 0. 0. 0. 0. 45. 109. 215.
      245. 242. 244. 243. 252. 252. 251. 251. 252. 253. 253. 254. 252.
      251. 248. 232. 172. 79. 20. 31. 0. 0. 0. 0. 0. 43. 75. 166. 236.
      242. 245. 243. 249. 249. 249. 252. 253. 251. 251. 253. 252. 248.
      233. 187. 104. 42. 23. 32. 0. 0. 0. 0. 0. 44. 49. 94. 178. 226.
      240. 243. 246. 248. 250. 254. 254. 251. 251. 250. 241. 227. 178.
      102. 43. 31. 42. 42. 0. 0. 0. 0. 0. 48. 41. 48. 101. 140. 174.
      217. 237. 243. 246. 248. 248. 250. 243. 227. 191. 149. 93. 43. 33.
      46. 53. 46. 0. 0. 0. 0. 0. 49. 45. 46. 65. 66. 91. 159. 194. 205.
      212. 215. 215. 215. 196. 156. 101. 50. 37. 45. 50. 50. 45. 40. 0.
      0. 0. 0. 0. 46. 47. 52. 57. 43. 50. 95. 123. 130. 141. 142. 141.
      134. 109. 78. 51. 36. 42. 54. 49. 42. 42. 40. 0. 0. 0. 0. 0. 0. 0.
      0. 0. 0. 0. 0. 0. 0. 0. 0. 0. 0. 0. 0. 0. 0. 0. 0. 0. 0. 0. 0. 0.
      0. 0. 0. 0. 0. 0. 0. 0. 0. 0. 0. 0. 0. 0. 0. 0. 0. 0. 0. 0. 0. 0.
      0. 0. 0. 0. 0. 0. 0. 0. 0. 0.</_>
    <_>
      51. 54. 56. 58. 60. 61. 57. 54. 65. 103. 135. 135. 138. 147. 105.
      62. 61. 58. 61. 54. 48. 44. 42. 42. 0. 0. 0. 0. 51. 54. 53. 58.
      56. 57. 61. 66. 96. 161. 206. 191. 185. 192. 147. 94. 80. 61. 58.
      55. 50. 46. 43. 43. 0. 0. 0. 0. 52. 53. 50. 57. 51. 62. 99. 124.
      162. 206. 205. 199. 195. 200. 185. 149. 143. 108. 67. 47. 48. 40.
      41. 60. 0. 0. 0. 0. 52. 52. 52. 36. 54. 109. 167. 190. 198. 210.
      207. 202. 200. 202. 198. 185. 188. 167. 107. 49. 41. 29. 60. 125.
      0. 0. 0. 0. 49. 47. 40. 39. 105. 181. 210. 215. 212. 214. 216.
      215. 215. 215. 211. 204. 208. 201. 166. 87. 41. 25. 122. 213. 0.
      0. 0. 0. 44. 37. 34. 89. 178. 216. 217. 215. 213. 214. 218. 220.
      221. 221. 219. 213. 214. 209. 205. 153. 68. 29. 132. 223. 0. 0. 0.
      0. 39. 30. 58. 163. 211. 213. 213. 217. 218. 218. 219. 222. 224.
      223. 222. 219. 216. 209. 210. 216. 128. 53. 94. 181. 0. 0. 0. 0.
      37. 25. 97. 212. 222. 215. 217. 219. 218. 219. 222. 224. 225. 223.
      224. 224. 221. 212. 215. 221. 187. 71. 41. 95. 0. 0. 0. 0. 39. 31.
      133. 223. 229. 226. 227. 225. 218. 221. 224. 224. 223. 221. 223.
      225. 224. 218. 218. 222. 227. 92. 35. 47. 0. 0. 0. 0. 41. 38. 159.
      224. 228. 229. 230. 230. 223. 223. 224. 222. 222. 221. 224. 228.
      229. 231. 225. 221. 232. 106. 36. 20. 0. 0. 0. 0. 23. 53. 180.
      225. 230. 227. 231. 234. 230. 228. 225. 222. 223. 225. 227. 230.
      232. 234. 230. 227. 228. 146. 58. 26. 0. 0. 0. 0. 35. 103. 205.
      225. 226. 224. 232. 235. 233. 232. 227. 225. 226. 228. 230. 232.
      233. 234. 233. 226. 221. 189. 97. 25. 0. 0. 0. 0. 54. 162. 222.
      222. 220. 221. 225. 227. 228. 228. 225. 226. 226. 223. 222. 226.
      231. 232. 228. 226. 226. 220. 139. 33. 0. 0. 0. 0. 68. 199. 226.
      218. 217. 218. 202. 198. 209. 219. 221. 222. 221. 220. 210. 198.
      194. 200. 209. 215. 218. 222. 170. 44. 0. 0. 0. 0. 74. 207. 229.
      213. 216. 215. 175. 160. 185. 207. 211. 206. 208. 216. 205. 175.
      161. 183. 209. 212. 213. 218. 177. 48. 0. 0. 0. 0. 76. 202. 231.
      211. 212. 210. 168. 154. 179. 190. 200. 201. 203. 206. 197. 171.
      160. 178. 200. 213. 213. 216. 175. 50. 0. 0. 0. 0. 77. 196. 230.
      212. 210. 210. 185. 176. 185. 184. 196. 201. 201. 195. 189. 185.
      182. 184. 194. 209. 214. 216. 175. 53. 0. 0. 0. 0. 80. 193. 229.
      216. 210. 210. 201. 196. 182. 157. 159. 166. 162. 155. 160. 184.
      203. 207. 204. 205. 215. 216. 176. 58. 0. 0. 0. 0. 81. 190. 228.
      219. 213. 209. 199. 194. 164. 124. 137. 142. 137. 127. 128. 152.
      181. 201. 207. 210. 214. 213. 175. 65. 0. 0. 0. 0. 79. 184. 227.
      217. 211. 198. 165. 153. 142. 133. 137. 141. 134. 128. 131. 132.
      136. 156. 188. 216. 218. 208. 176. 68. 0. 0. 0. 0. 74. 180. 233.
      221. 184. 146. 131. 135. 138. 146. 137. 137. 132. 131. 136. 133.
      127. 130. 153. 197. 220. 210. 175. 59. 0. 0. 0. 0. 68. 172. 227.
      201. 144. 122. 144. 152. 145. 147. 139. 134. 130. 128. 136. 146.
      147. 137. 123. 149. 204. 219. 166. 56. 0. 0. 0. 0. 78. 177. 209.
      151. 104. 128. 177. 181. 153. 137. 135. 133. 124. 122. 142. 166.
      172. 153. 121. 110. 164. 214. 153. 60. 0. 0. 0. 0. 86. 183. 195.
      119. 108. 166. 212. 216. 190. 154. 124. 125. 111. 122. 170. 200.
      205. 192. 151. 97. 133. 209. 158. 54. 0. 0. 0. 0. 72. 137. 141.
      104. 154. 216. 239. 240. 224. 192. 124. 110. 96. 135. 206. 235.
      240. 238. 199. 114. 103. 150. 113. 37. 0. 0. 0. 0. 63. 64. 64. 98.
      193. 241. 243. 245. 238. 220. 148. 91. 82. 157. 230. 243. 242.
      247. 235. 154. 76. 51. 37. 36. 0. 0. 0. 0. 61. 30. 39. 117. 219.
      244. 239. 243. 240. 235. 186. 77. 72. 181. 243. 247. 238. 235.
      244. 184. 105. 54. 26. 35. 0. 0. 0. 0. 0. 0. 0. 0. 0. 0. 0. 0. 0.
      0. 0. 0. 0. 0. 0. 0. 0. 0. 0. 0. 0. 0. 0. 0. 0. 0. 0. 0.</_>
    <_>
      51. 53. 53. 57. 52. 41. 35. 44. 67. 96. 109. 118. 122. 102. 69.
      39. 33. 45. 53. 52. 53. 49. 44. 0. 0. 0. 0. 0. 51. 56. 55. 49. 43.
      40. 54. 97. 162. 215. 235. 236. 242. 237. 198. 112. 39. 20. 35.
      43. 53. 50. 47. 0. 0. 0. 0. 0. 58. 58. 49. 32. 55. 98. 146. 195.
      234. 250. 249. 248. 251. 254. 247. 217. 168. 119. 58. 17. 37. 49.
      60. 0. 0. 0. 0. 0. 60. 50. 33. 46. 118. 198. 238. 251. 248. 244.
      249. 253. 251. 251. 252. 249. 240. 205. 119. 38. 21. 32. 58. 0. 0.
      0. 0. 0. 52. 41. 39. 110. 193. 239. 247. 250. 252. 251. 252. 253.
      251. 251. 248. 245. 249. 243. 205. 129. 41. 18. 37. 0. 0. 0. 0. 0.
      39. 49. 91. 185. 236. 249. 241. 247. 253. 254. 255. 251. 250. 252.
      253. 251. 251. 251. 245. 211. 118. 41. 21. 0. 0. 0. 0. 0. 31. 75.
      169. 234. 245. 249. 251. 253. 250. 247. 252. 254. 251. 249. 253.
      253. 251. 250. 250. 242. 196. 91. 19. 0. 0. 0. 0. 0. 33. 97. 217.
      247. 246. 246. 253. 253. 253. 251. 251. 252. 252. 251. 251. 250.
      249. 249. 248. 246. 223. 125. 19. 0. 0. 0. 0. 0. 33. 104. 227.
      249. 251. 254. 252. 246. 247. 248. 242. 240. 246. 250. 252. 249.
      247. 245. 238. 229. 205. 120. 18. 0. 0. 0. 0. 0. 32. 105. 232.
      252. 248. 252. 252. 245. 237. 214. 215. 229. 236. 246. 251. 250.
      247. 236. 214. 194. 169. 106. 29. 0. 0. 0. 0. 0. 69. 151. 232.
      253. 248. 253. 250. 243. 232. 206. 208. 225. 233. 244. 251. 250.
      248. 231. 201. 177. 154. 121. 76. 0. 0. 0. 0. 0. 130. 213. 245.
      253. 251. 253. 249. 245. 235. 212. 216. 230. 236. 245. 250. 250.
      249. 235. 213. 197. 197. 194. 135. 0. 0. 0. 0. 0. 171. 247. 247.
      252. 252. 253. 252. 248. 243. 228. 231. 236. 239. 248. 251. 252.
      251. 242. 229. 222. 227. 234. 176. 0. 0. 0. 0. 0. 173. 247. 246.
      251. 252. 253. 253. 252. 250. 245. 246. 244. 243. 251. 253. 252.
      252. 247. 242. 238. 237. 237. 180. 0. 0. 0. 0. 0. 172. 244. 246.
      251. 252. 251. 254. 253. 252. 251. 251. 248. 247. 253. 254. 251.
      251. 252. 252. 250. 248. 241. 174. 0. 0. 0. 0. 0. 176. 245. 248.
      249. 251. 250. 252. 253. 252. 252. 252. 250. 250. 253. 253. 252.
      251. 253. 253. 250. 248. 247. 175. 0. 0. 0. 0. 0. 177. 244. 248.
      248. 250. 249. 252. 254. 252. 253. 253. 253. 253. 253. 254. 254.
      254. 255. 255. 251. 252. 252. 174. 0. 0. 0. 0. 0. 170. 240. 249.
      248. 251. 250. 250. 251. 254. 253. 249. 253. 253. 253. 251. 254.
      255. 254. 255. 254. 253. 249. 173. 0. 0. 0. 0. 0. 169. 238. 249.
      249. 250. 250. 251. 250. 249. 250. 247. 252. 251. 254. 244. 252.
      252. 252. 252. 252. 250. 250. 168. 0. 0. 0. 0. 0. 178. 243. 249.
      249. 248. 247. 252. 253. 246. 249. 252. 241. 249. 253. 253. 253.
      244. 247. 245. 249. 250. 250. 175. 0. 0. 0. 0. 0. 173. 240. 247.
      246. 240. 239. 248. 250. 250. 250. 237. 202. 226. 247. 246. 250.
      249. 251. 245. 247. 246. 250. 180. 0. 0. 0. 0. 0. 170. 235. 245.
      217. 178. 193. 235. 246. 245. 240. 196. 112. 162. 232. 233. 250.
      248. 210. 168. 211. 235. 249. 192. 0. 0. 0. 0. 0. 158. 216. 219.
      155. 79. 112. 200. 242. 249. 233. 155. 39. 107. 234. 247. 246.
      218. 106. 57. 122. 188. 230. 191. 0. 0. 0. 0. 0. 96. 141. 131. 69.
      23. 51. 129. 184. 211. 198. 114. 31. 79. 196. 226. 207. 140. 40.
      26. 60. 115. 158. 135. 0. 0. 0. 0. 0. 0. 0. 0. 0. 0. 0. 0. 0. 0.
      0. 0. 0. 0. 0. 0. 0. 0. 0. 0. 0. 0. 0. 0. 0. 0. 0. 0. 0. 0. 0. 0.
      0. 0. 0. 0. 0. 0. 0. 0. 0. 0. 0. 0. 0. 0. 0. 0. 0. 0. 0. 0. 0. 0.
      0. 0. 0. 0. 0. 0. 0. 0. 0. 0. 0. 0. 0. 0. 0. 0. 0. 0. 0. 0. 0. 0.
      0. 0. 0. 0. 0. 0. 0. 0. 0. 0. 0. 0. 0. 0. 0. 0. 0. 0. 0. 0. 0. 0.
      0. 0. 0. 0. 0. 0. 0. 0. 0. 0. 0. 0. 0. 0. 0.</_>
    <_>
      37. 40. 36. 34. 33. 28. 16. 37. 102. 120. 81. 21. 23. 36. 42. 37.
      34. 35. 38. 38. 35. 29. 32. 50. 64. 0. 0. 0. 39. 38. 35. 31. 32.
      24. 9. 59. 176. 212. 140. 18. 16. 33. 44. 41. 38. 38. 39. 36. 35.
      32. 21. 20. 39. 0. 0. 0. 39. 37. 38. 41. 42. 29. 15. 72. 197. 235.
      169. 38. 28. 38. 43. 39. 34. 38. 42. 38. 37. 40. 31. 18. 23. 0. 0.
      0. 40. 36. 40. 42. 39. 32. 25. 82. 190. 227. 193. 111. 89. 85. 64.
      41. 27. 33. 43. 46. 38. 43. 57. 62. 61. 0. 0. 0. 43. 46. 49. 40.
      36. 36. 49. 108. 188. 214. 204. 181. 172. 161. 131. 80. 44. 31.
      33. 35. 42. 54. 78. 106. 119. 0. 0. 0. 51. 46. 39. 30. 64. 101.
      127. 159. 196. 204. 195. 196. 200. 204. 202. 174. 124. 79. 43. 41.
      65. 96. 111. 117. 123. 0. 0. 0. 55. 44. 35. 50. 113. 169. 190.
      197. 202. 200. 198. 201. 203. 197. 195. 205. 201. 169. 97. 77. 96.
      111. 115. 119. 121. 0. 0. 0. 46. 42. 50. 112. 167. 199. 204. 201.
      202. 203. 204. 204. 202. 198. 198. 205. 213. 208. 123. 108. 118.
      120. 118. 118. 117. 0. 0. 0. 33. 52. 97. 174. 203. 207. 201. 201.
      207. 209. 208. 204. 202. 203. 201. 201. 207. 189. 122. 118. 123.
      123. 121. 113. 110. 0. 0. 0. 30. 72. 160. 203. 210. 207. 205. 208.
      211. 213. 213. 209. 209. 214. 213. 213. 214. 157. 131. 136. 142.
      134. 123. 112. 114. 0. 0. 0. 38. 91. 204. 213. 207. 205. 207. 210.
      211. 212. 214. 213. 212. 214. 216. 218. 210. 126. 155. 180. 185.
      172. 145. 120. 118. 0. 0. 0. 46. 101. 218. 217. 210. 210. 215.
      215. 214. 213. 213. 209. 205. 208. 217. 217. 197. 130. 186. 225.
      229. 221. 193. 144. 107. 0. 0. 0. 50. 115. 216. 212. 212. 215.
      217. 214. 207. 199. 190. 192. 200. 204. 217. 217. 203. 187. 221.
      236. 241. 243. 235. 189. 116. 0. 0. 0. 70. 153. 211. 208. 214.
      216. 217. 213. 205. 193. 182. 184. 194. 200. 211. 213. 211. 221.
      238. 228. 227. 230. 242. 231. 158. 0. 0. 0. 116. 199. 218. 211.
      214. 216. 217. 213. 208. 199. 190. 189. 192. 198. 207. 208. 205.
      211. 233. 227. 222. 223. 225. 227. 194. 0. 0. 0. 146. 221. 215.
      211. 212. 218. 219. 218. 216. 210. 205. 202. 201. 204. 210. 209.
      199. 193. 215. 215. 210. 216. 219. 225. 200. 0. 0. 0. 152. 219.
      206. 211. 213. 218. 219. 220. 219. 216. 214. 211. 209. 210. 214.
      212. 193. 165. 178. 182. 165. 175. 176. 186. 177. 0. 0. 0. 150.
      217. 211. 211. 213. 221. 222. 225. 224. 221. 220. 219. 216. 216.
      219. 216. 190. 139. 138. 140. 135. 148. 146. 157. 157. 0. 0. 0.
      138. 210. 216. 212. 214. 222. 224. 227. 227. 225. 224. 226. 224.
      222. 224. 221. 191. 128. 120. 124. 131. 142. 137. 141. 145. 0. 0.
      0. 103. 180. 219. 215. 217. 224. 225. 227. 227. 224. 223. 227.
      225. 222. 222. 222. 195. 134. 128. 135. 129. 134. 130. 129. 132.
      0. 0. 0. 71. 150. 219. 217. 219. 225. 225. 227. 227. 223. 223.
      226. 224. 219. 218. 223. 200. 141. 136. 139. 133. 130. 129. 127.
      125. 0. 0. 0. 73. 142. 221. 220. 218. 223. 226. 224. 223. 222.
      223. 224. 223. 220. 219. 226. 203. 142. 132. 133. 134. 124. 127.
      126. 123. 0. 0. 0. 73. 144. 224. 224. 221. 224. 226. 221. 216.
      215. 218. 222. 223. 225. 224. 224. 195. 148. 139. 139. 139. 128.
      126. 123. 121. 0. 0. 0. 68. 144. 221. 221. 219. 217. 219. 217.
      208. 203. 208. 221. 218. 215. 218. 218. 189. 151. 140. 138. 139.
      138. 133. 128. 129. 0. 0. 0. 63. 128. 201. 216. 212. 201. 202.
      199. 184. 182. 198. 205. 204. 204. 209. 200. 168. 143. 140. 142.
      151. 148. 133. 119. 125. 0. 0. 0. 52. 89. 155. 205. 212. 208. 198.
      174. 126. 128. 180. 199. 205. 204. 197. 152. 110. 102. 116. 133.
      153. 142. 109. 74. 76. 0. 0. 0. 43. 52. 93. 156. 195. 199. 176.
      122. 69. 65. 106. 153. 170. 165. 146. 91. 56. 63. 79. 97. 119.
      109. 83. 52. 50. 0. 0. 0. 43. 41. 52. 81. 115. 120. 94. 75. 60.
      56. 68. 87. 102. 98. 90. 61. 47. 52. 51. 55. 72. 71. 61. 52. 49.
      0. 0. 0.</_>
    <_>
      33. 43. 52. 57. 64. 69. 55. 57. 89. 130. 147. 147. 147. 135. 104.
      68. 70. 65. 58. 54. 50. 32. 15. 0. 0. 0. 0. 0. 38. 44. 50. 53. 57.
      63. 77. 94. 142. 190. 204. 201. 202. 198. 165. 104. 97. 77. 65.
      54. 52. 35. 17. 0. 0. 0. 0. 0. 33. 45. 56. 47. 52. 113. 154. 164.
      189. 210. 209. 199. 201. 209. 208. 201. 174. 124. 77. 51. 46. 32.
      18. 0. 0. 0. 0. 0. 52. 40. 39. 52. 97. 179. 209. 212. 211. 212.
      213. 214. 215. 215. 212. 207. 208. 196. 142. 77. 50. 36. 17. 0. 0.
      0. 0. 0. 51. 34. 39. 92. 167. 217. 217. 217. 216. 216. 217. 217.
      218. 218. 216. 213. 207. 205. 190. 145. 76. 32. 19. 0. 0. 0. 0. 0.
      40. 37. 75. 161. 212. 222. 221. 222. 222. 223. 225. 227. 228. 229.
      227. 224. 219. 215. 215. 204. 134. 42. 24. 0. 0. 0. 0. 0. 42. 46.
      120. 214. 223. 220. 222. 222. 224. 224. 226. 227. 229. 230. 228.
      226. 226. 219. 217. 223. 197. 72. 29. 0. 0. 0. 0. 0. 46. 53. 148.
      230. 220. 228. 225. 225. 229. 230. 231. 231. 231. 232. 232. 230.
      228. 224. 223. 224. 221. 105. 37. 0. 0. 0. 0. 0. 40. 62. 164. 231.
      221. 231. 229. 228. 231. 231. 233. 232. 232. 233. 234. 233. 231.
      230. 230. 223. 218. 129. 48. 0. 0. 0. 0. 0. 35. 86. 186. 231. 226.
      231. 236. 236. 241. 239. 236. 234. 233. 233. 233. 233. 235. 236.
      234. 226. 219. 161. 56. 0. 0. 0. 0. 0. 51. 129. 210. 229. 229.
      231. 238. 238. 242. 241. 236. 234. 232. 233. 232. 233. 236. 236.
      233. 232. 229. 202. 80. 0. 0. 0. 0. 0. 92. 182. 225. 222. 221.
      223. 228. 229. 238. 237. 234. 232. 230. 229. 227. 228. 229. 227.
      228. 233. 231. 219. 123. 0. 0. 0. 0. 0. 105. 197. 228. 223. 220.
      220. 224. 225. 231. 232. 232. 230. 226. 223. 221. 217. 216. 219.
      224. 226. 224. 218. 139. 0. 0. 0. 0. 0. 115. 207. 229. 223. 223.
      218. 207. 205. 209. 217. 224. 225. 223. 221. 214. 203. 202. 211.
      218. 219. 221. 219. 159. 0. 0. 0. 0. 0. 116. 206. 229. 226. 227.
      217. 193. 183. 179. 187. 196. 198. 204. 212. 196. 174. 181. 200.
      211. 217. 220. 215. 166. 0. 0. 0. 0. 0. 120. 208. 231. 227. 224.
      208. 180. 167. 158. 157. 158. 159. 165. 175. 171. 157. 176. 202.
      212. 218. 220. 212. 164. 0. 0. 0. 0. 0. 114. 207. 232. 219. 202.
      185. 165. 155. 146. 142. 140. 140. 145. 154. 154. 154. 189. 216.
      218. 219. 220. 209. 168. 0. 0. 0. 0. 0. 94. 204. 228. 207. 186.
      166. 156. 147. 137. 133. 138. 143. 149. 150. 130. 132. 177. 218.
      225. 220. 216. 210. 171. 0. 0. 0. 0. 0. 71. 194. 221. 208. 195.
      170. 150. 141. 129. 127. 143. 161. 169. 163. 145. 126. 148. 196.
      228. 226. 216. 211. 167. 0. 0. 0. 0. 0. 82. 196. 232. 228. 225.
      196. 155. 134. 125. 139. 174. 207. 228. 224. 208. 151. 123. 165.
      217. 227. 219. 211. 161. 0. 0. 0. 0. 0. 119. 214. 246. 243. 245.
      234. 189. 136. 120. 164. 241. 242. 237. 238. 240. 206. 142. 150.
      207. 225. 216. 207. 156. 0. 0. 0. 0. 0. 133. 215. 239. 234. 237.
      245. 220. 164. 131. 161. 225. 242. 237. 239. 247. 234. 161. 146.
      199. 225. 217. 193. 132. 0. 0. 0. 0. 0. 106. 182. 217. 225. 229.
      241. 228. 174. 128. 126. 162. 200. 216. 231. 244. 243. 178. 142.
      184. 222. 217. 164. 94. 0. 0. 0. 0. 0. 83. 150. 193. 217. 228.
      242. 235. 184. 129. 112. 131. 184. 215. 230. 244. 244. 192. 141.
      161. 198. 190. 119. 52. 0. 0. 0. 0. 0. 103. 153. 189. 217. 229.
      242. 224. 165. 115. 105. 134. 195. 225. 234. 245. 233. 189. 142.
      143. 159. 131. 68. 30. 0. 0. 0. 0. 0. 125. 176. 214. 230. 233.
      232. 208. 165. 128. 123. 154. 207. 234. 236. 237. 202. 165. 140.
      136. 125. 78. 34. 18. 0. 0. 0. 0. 0. 130. 171. 208. 225. 224. 195.
      167. 148. 133. 130. 148. 184. 212. 217. 204. 167. 136. 135. 137.
      113. 54. 23. 16. 0. 0. 0. 0. 0. 139. 141. 155. 171. 171. 162. 139.
      131. 130. 128. 131. 144. 167. 166. 156. 143. 124. 135. 135. 112.
      56. 27. 18. 0. 0. 0. 0. 0.</_>
    <_>
      90. 93. 93. 95. 95. 97. 96. 93. 87. 82. 83. 76. 72. 83. 94. 99.
      92. 70. 50. 36. 36. 36. 37. 37. 33. 0. 0. 0. 54. 56. 56. 59. 59.
      55. 52. 53. 54. 61. 68. 66. 67. 72. 75. 70. 55. 40. 44. 45. 43.
      36. 39. 42. 36. 0. 0. 0. 40. 40. 40. 43. 41. 35. 40. 58. 83. 110.
      144. 165. 168. 160. 142. 109. 71. 44. 40. 40. 41. 38. 41. 44. 38.
      0. 0. 0. 38. 37. 36. 38. 42. 54. 79. 113. 165. 203. 202. 192. 185.
      189. 191. 176. 136. 90. 68. 47. 36. 35. 40. 39. 33. 0. 0. 0. 35.
      35. 34. 39. 68. 120. 179. 199. 194. 192. 197. 200. 200. 200. 197.
      191. 177. 159. 135. 93. 47. 32. 40. 43. 33. 0. 0. 0. 32. 34. 39.
      68. 129. 180. 202. 206. 199. 195. 200. 203. 205. 205. 199. 194.
      192. 192. 188. 152. 89. 39. 28. 38. 39. 0. 0. 0. 32. 39. 64. 119.
      190. 216. 210. 210. 216. 216. 217. 216. 215. 214. 210. 206. 200.
      196. 200. 190. 143. 81. 30. 20. 34. 0. 0. 0. 37. 56. 113. 173.
      211. 218. 212. 214. 219. 221. 222. 221. 220. 219. 216. 214. 209.
      203. 203. 205. 197. 156. 77. 35. 36. 0. 0. 0. 43. 68. 157. 211.
      213. 212. 218. 222. 228. 230. 226. 224. 222. 221. 221. 221. 218.
      214. 211. 209. 214. 202. 115. 32. 27. 0. 0. 0. 43. 70. 178. 217.
      209. 214. 222. 222. 231. 230. 225. 223. 222. 222. 226. 227. 226.
      227. 223. 218. 217. 206. 118. 39. 28. 0. 0. 0. 44. 81. 185. 213.
      210. 216. 227. 227. 230. 224. 215. 212. 214. 216. 224. 227. 228.
      228. 222. 212. 201. 173. 95. 36. 26. 0. 0. 0. 52. 108. 199. 212.
      212. 216. 221. 231. 228. 217. 202. 199. 204. 209. 222. 226. 228.
      231. 219. 190. 163. 129. 90. 55. 33. 0. 0. 0. 80. 192. 213. 215.
      213. 216. 225. 229. 220. 214. 201. 197. 203. 210. 221. 224. 222.
      228. 220. 182. 153. 141. 150. 135. 55. 0. 0. 0. 98. 204. 216. 217.
      214. 216. 227. 228. 217. 214. 207. 205. 209. 214. 219. 220. 222.
      222. 219. 209. 192. 184. 189. 189. 82. 0. 0. 0. 117. 211. 217.
      216. 215. 217. 227. 227. 222. 220. 216. 216. 217. 218. 221. 221.
      223. 223. 220. 215. 202. 197. 199. 202. 81. 0. 0. 0. 119. 210.
      215. 215. 215. 218. 228. 227. 226. 225. 223. 223. 224. 224. 225.
      225. 228. 229. 226. 222. 213. 209. 207. 208. 80. 0. 0. 0. 122.
      207. 214. 214. 215. 219. 228. 228. 229. 228. 226. 226. 225. 225.
      226. 225. 228. 228. 226. 225. 217. 215. 210. 210. 80. 0. 0. 0.
      123. 207. 215. 215. 215. 219. 228. 229. 232. 231. 230. 229. 229.
      229. 230. 230. 231. 231. 229. 226. 220. 218. 213. 212. 77. 0. 0.
      0. 124. 205. 216. 216. 215. 220. 228. 229. 232. 232. 230. 229.
      228. 229. 231. 231. 232. 232. 230. 227. 221. 218. 215. 214. 81. 0.
      0. 0. 120. 202. 215. 216. 215. 220. 229. 230. 231. 231. 228. 227.
      225. 226. 227. 228. 229. 229. 227. 224. 218. 217. 213. 214. 80. 0.
      0. 0. 117. 196. 213. 209. 209. 213. 220. 224. 228. 228. 226. 225.
      223. 225. 225. 226. 227. 228. 225. 221. 215. 213. 212. 205. 83. 0.
      0. 0. 122. 190. 204. 194. 196. 200. 201. 209. 218. 219. 212. 208.
      202. 197. 207. 213. 217. 215. 214. 210. 202. 199. 203. 197. 87. 0.
      0. 0. 123. 187. 203. 191. 183. 180. 189. 203. 205. 205. 207. 197.
      177. 186. 206. 205. 206. 211. 204. 189. 184. 191. 195. 187. 89. 0.
      0. 0. 108. 165. 198. 190. 158. 140. 159. 187. 190. 189. 189. 168.
      141. 162. 194. 196. 204. 199. 172. 141. 151. 185. 197. 176. 83. 0.
      0. 0. 80. 123. 156. 149. 110. 89. 115. 161. 185. 191. 186. 152.
      122. 150. 187. 192. 188. 154. 115. 91. 109. 146. 171. 150. 62. 0.
      0. 0. 67. 85. 95. 88. 66. 56. 79. 105. 123. 131. 114. 84. 71. 95.
      131. 144. 133. 97. 67. 63. 76. 93. 102. 87. 40. 0. 0. 0. 0. 0. 0.
      0. 0. 0. 0. 0. 0. 0. 0. 0. 0. 0. 0. 0. 0. 0. 0. 0. 0. 0. 0. 0. 0.
      0. 0. 0. 0. 0. 0. 0. 0. 0. 0. 0. 0. 0. 0. 0. 0. 0. 0. 0. 0. 0. 0.
      0. 0. 0. 0. 0. 0. 0. 0. 0.</_>
    <_>
      27. 19. 30. 35. 35. 37. 33. 28. 21. 42. 122. 179. 150. 62. 23. 30.
      36. 39. 39. 39. 38. 41. 41. 38. 38. 43. 0. 0. 24. 21. 29. 33. 35.
      46. 46. 36. 23. 58. 170. 239. 192. 72. 24. 31. 38. 41. 40. 40. 39.
      41. 41. 37. 33. 34. 0. 0. 20. 24. 31. 32. 35. 37. 40. 36. 27. 83.
      198. 237. 209. 100. 52. 45. 40. 41. 48. 47. 40. 38. 40. 40. 41.
      43. 0. 0. 20. 22. 32. 37. 36. 32. 23. 28. 63. 141. 210. 222. 207.
      186. 157. 119. 71. 41. 44. 50. 48. 46. 47. 47. 46. 50. 0. 0. 17.
      19. 33. 42. 36. 30. 27. 48. 124. 194. 211. 203. 197. 199. 197.
      179. 122. 71. 56. 54. 59. 58. 54. 48. 44. 48. 0. 0. 17. 18. 28.
      37. 27. 36. 68. 98. 160. 205. 205. 198. 195. 192. 197. 194. 152.
      110. 91. 68. 53. 52. 54. 54. 51. 50. 0. 0. 20. 15. 25. 53. 54. 86.
      122. 136. 169. 198. 201. 204. 202. 200. 199. 193. 158. 132. 125.
      101. 78. 52. 44. 52. 59. 53. 0. 0. 19. 13. 51. 121. 151. 174. 178.
      171. 183. 200. 203. 206. 205. 201. 200. 195. 170. 161. 168. 158.
      144. 88. 56. 44. 51. 51. 0. 0. 22. 33. 111. 202. 227. 216. 212.
      206. 206. 216. 216. 214. 218. 212. 209. 209. 202. 199. 204. 200.
      195. 158. 87. 44. 48. 55. 0. 0. 31. 60. 156. 226. 218. 216. 217.
      218. 215. 222. 223. 220. 230. 224. 222. 225. 223. 222. 222. 218.
      218. 218. 119. 58. 56. 60. 0. 0. 28. 65. 162. 220. 222. 225. 227.
      235. 233. 233. 231. 226. 230. 229. 227. 229. 229. 227. 226. 219.
      217. 222. 119. 53. 57. 57. 0. 0. 39. 93. 186. 221. 219. 225. 229.
      238. 239. 237. 234. 229. 229. 232. 233. 235. 235. 233. 231. 223.
      217. 218. 148. 55. 48. 55. 0. 0. 62. 137. 207. 218. 215. 224. 227.
      234. 236. 235. 232. 228. 228. 230. 231. 233. 234. 232. 229. 222.
      216. 218. 172. 89. 72. 58. 0. 0. 89. 170. 219. 218. 217. 223. 226.
      233. 234. 233. 230. 227. 228. 230. 230. 231. 232. 231. 229. 223.
      219. 217. 202. 170. 163. 100. 0. 0. 109. 189. 219. 218. 221. 224.
      227. 231. 232. 232. 230. 229. 229. 231. 231. 232. 232. 231. 230.
      225. 224. 219. 217. 220. 215. 145. 0. 0. 118. 192. 218. 218. 222.
      225. 226. 229. 230. 231. 230. 231. 231. 232. 232. 232. 232. 232.
      230. 227. 225. 222. 221. 226. 213. 122. 0. 0. 121. 191. 219. 222.
      224. 227. 227. 229. 229. 230. 231. 233. 232. 231. 231. 231. 232.
      231. 230. 227. 225. 221. 222. 214. 157. 70. 0. 0. 119. 190. 220.
      222. 224. 228. 228. 228. 229. 229. 231. 235. 234. 232. 232. 233.
      233. 233. 231. 227. 223. 218. 222. 200. 117. 46. 0. 0. 125. 194.
      226. 225. 224. 228. 226. 226. 228. 229. 231. 234. 235. 233. 233.
      234. 234. 233. 231. 227. 224. 218. 219. 192. 107. 45. 0. 0. 124.
      193. 222. 227. 226. 226. 225. 224. 227. 231. 232. 232. 233. 235.
      230. 225. 226. 227. 228. 229. 225. 220. 222. 187. 96. 50. 0. 0.
      132. 196. 217. 224. 223. 223. 226. 224. 225. 228. 230. 231. 228.
      229. 232. 229. 229. 229. 230. 226. 220. 222. 225. 184. 94. 53. 0.
      0. 123. 199. 218. 222. 222. 222. 220. 219. 221. 224. 226. 226.
      227. 229. 225. 220. 219. 221. 224. 222. 219. 219. 220. 187. 97.
      48. 0. 0. 112. 192. 216. 215. 215. 214. 211. 207. 208. 212. 220.
      226. 229. 223. 213. 210. 211. 214. 217. 220. 217. 214. 216. 180.
      96. 50. 0. 0. 98. 174. 205. 205. 198. 199. 200. 189. 183. 192.
      197. 195. 198. 199. 196. 191. 193. 199. 205. 207. 208. 210. 207.
      158. 79. 50. 0. 0. 71. 126. 180. 203. 199. 201. 189. 147. 127.
      155. 189. 195. 198. 198. 176. 144. 138. 168. 193. 198. 202. 205.
      178. 115. 54. 44. 0. 0. 57. 76. 132. 173. 182. 180. 138. 82. 60.
      101. 164. 195. 191. 175. 133. 86. 78. 123. 169. 184. 185. 173.
      120. 60. 39. 47. 0. 0. 62. 53. 81. 106. 115. 102. 71. 51. 45. 59.
      89. 106. 106. 98. 71. 49. 49. 78. 110. 124. 125. 100. 56. 34. 38.
      48. 0. 0. 0. 0. 0. 0. 0. 0. 0. 0. 0. 0. 0. 0. 0. 0. 0. 0. 0. 0. 0.
      0. 0. 0. 0. 0. 0. 0. 0. 0.</_>
    <_>
      37. 42. 46. 41. 35. 28. 117. 178. 172. 86. 18. 33. 46. 48. 45. 40.
      40. 43. 44. 39. 32. 24. 0. 0. 0. 0. 0. 0. 35. 42. 47. 35. 22. 24.
      151. 230. 231. 130. 13. 41. 48. 48. 45. 44. 45. 46. 45. 43. 39.
      23. 0. 0. 0. 0. 0. 0. 35. 44. 48. 34. 19. 20. 135. 230. 241. 149.
      19. 40. 53. 50. 47. 47. 49. 47. 45. 47. 51. 56. 0. 0. 0. 0. 0. 0.
      39. 48. 51. 43. 35. 14. 74. 167. 196. 144. 61. 73. 96. 73. 56. 43.
      43. 47. 48. 50. 53. 41. 0. 0. 0. 0. 0. 0. 43. 50. 51. 52. 59. 45.
      52. 100. 142. 144. 126. 127. 139. 109. 82. 56. 50. 51. 51. 50. 49.
      49. 0. 0. 0. 0. 0. 0. 46. 49. 48. 58. 80. 100. 102. 113. 137. 133.
      138. 136. 135. 132. 117. 101. 84. 65. 47. 44. 48. 44. 0. 0. 0. 0.
      0. 0. 42. 43. 47. 66. 102. 133. 142. 140. 141. 120. 122. 128. 130.
      138. 145. 144. 122. 78. 39. 38. 52. 49. 0. 0. 0. 0. 0. 0. 40. 43.
      59. 89. 131. 148. 150. 143. 135. 126. 123. 124. 126. 131. 142.
      145. 152. 131. 63. 31. 39. 48. 0. 0. 0. 0. 0. 0. 41. 55. 83. 122.
      164. 180. 186. 188. 178. 155. 130. 124. 131. 139. 169. 189. 199.
      194. 138. 62. 24. 34. 0. 0. 0. 0. 0. 0. 40. 70. 116. 159. 199.
      226. 235. 242. 233. 203. 155. 126. 139. 178. 218. 242. 247. 249.
      219. 130. 39. 21. 0. 0. 0. 0. 0. 0. 38. 78. 136. 187. 222. 240.
      245. 248. 245. 232. 194. 157. 167. 215. 237. 245. 242. 248. 240.
      187. 86. 17. 0. 0. 0. 0. 0. 0. 32. 71. 138. 203. 241. 249. 250.
      241. 227. 217. 197. 172. 188. 240. 250. 248. 237. 225. 213. 180.
      99. 23. 0. 0. 0. 0. 0. 0. 38. 76. 140. 206. 244. 249. 246. 228.
      192. 169. 164. 157. 188. 242. 248. 247. 232. 197. 167. 151. 95.
      27. 0. 0. 0. 0. 0. 0. 65. 107. 156. 205. 239. 245. 241. 226. 187.
      153. 154. 157. 188. 236. 245. 243. 231. 197. 160. 148. 102. 36. 0.
      0. 0. 0. 0. 0. 94. 139. 168. 194. 227. 242. 242. 236. 203. 164.
      154. 150. 178. 225. 242. 244. 240. 217. 183. 164. 117. 50. 0. 0.
      0. 0. 0. 0. 104. 145. 153. 162. 191. 223. 240. 244. 232. 191. 144.
      134. 153. 184. 223. 243. 248. 248. 216. 161. 107. 60. 0. 0. 0. 0.
      0. 0. 105. 142. 144. 147. 159. 185. 212. 225. 224. 189. 140. 124.
      137. 160. 184. 200. 209. 209. 185. 143. 113. 76. 0. 0. 0. 0. 0. 0.
      107. 142. 139. 136. 141. 148. 152. 151. 150. 136. 121. 126. 130.
      130. 141. 152. 160. 156. 145. 133. 123. 86. 0. 0. 0. 0. 0. 0. 110.
      142. 140. 137. 136. 137. 132. 126. 127. 122. 118. 127. 129. 127.
      130. 136. 136. 132. 131. 137. 128. 84. 0. 0. 0. 0. 0. 0. 105. 138.
      137. 137. 137. 136. 131. 129. 128. 125. 124. 126. 127. 129. 129.
      130. 128. 126. 130. 137. 129. 84. 0. 0. 0. 0. 0. 0. 108. 139. 136.
      135. 136. 132. 124. 120. 117. 119. 125. 128. 126. 130. 131. 130.
      128. 128. 134. 136. 134. 87. 0. 0. 0. 0. 0. 0. 113. 143. 138. 133.
      127. 125. 127. 130. 126. 126. 126. 123. 130. 132. 132. 133. 133.
      135. 134. 135. 137. 88. 0. 0. 0. 0. 0. 0. 113. 146. 140. 130. 128.
      123. 125. 127. 123. 125. 127. 124. 133. 129. 126. 131. 136. 135.
      133. 137. 131. 80. 0. 0. 0. 0. 0. 0. 95. 144. 152. 144. 140. 112.
      86. 87. 113. 136. 143. 138. 134. 98. 77. 89. 122. 147. 149. 138.
      125. 69. 0. 0. 0. 0. 0. 0. 79. 130. 151. 154. 142. 93. 47. 47. 85.
      134. 149. 148. 113. 69. 47. 58. 105. 149. 156. 137. 97. 48. 0. 0.
      0. 0. 0. 0. 61. 103. 131. 145. 108. 62. 20. 24. 70. 116. 131. 127.
      88. 51. 31. 46. 83. 121. 132. 117. 70. 41. 0. 0. 0. 0. 0. 0. 54.
      75. 91. 97. 62. 49. 38. 44. 64. 82. 87. 85. 68. 54. 48. 52. 61.
      78. 87. 81. 62. 45. 0. 0. 0. 0. 0. 0. 0. 0. 0. 0. 0. 0. 0. 0. 0.
      0. 0. 0. 0. 0. 0. 0. 0. 0. 0. 0. 0. 0. 0. 0. 0. 0. 0. 0.</_>
    <_>
      50. 54. 53. 48. 46. 42. 34. 33. 51. 86. 112. 120. 112. 92. 69. 48.
      37. 38. 41. 44. 44. 44. 44. 42. 40. 38. 37. 41. 51. 55. 51. 46.
      32. 42. 27. 69. 167. 207. 224. 223. 216. 198. 148. 93. 63. 53. 51.
      54. 52. 55. 56. 54. 48. 47. 54. 57. 51. 51. 36. 25. 41. 96. 136.
      176. 229. 245. 250. 251. 251. 244. 219. 182. 144. 100. 59. 51. 49.
      57. 58. 51. 37. 41. 100. 140. 48. 35. 17. 28. 104. 189. 232. 243.
      249. 251. 251. 248. 251. 252. 249. 242. 229. 171. 94. 54. 49. 55.
      52. 52. 59. 97. 187. 246. 34. 15. 21. 90. 189. 242. 251. 249. 244.
      251. 251. 249. 252. 253. 251. 250. 252. 224. 163. 94. 63. 39. 43.
      105. 180. 217. 241. 240. 18. 24. 89. 178. 237. 250. 251. 251. 249.
      252. 251. 252. 252. 252. 250. 248. 252. 251. 232. 167. 132. 99.
      74. 110. 194. 216. 163. 121. 17. 68. 167. 231. 248. 249. 251. 252.
      253. 253. 252. 251. 248. 252. 252. 253. 251. 253. 253. 238. 211.
      166. 92. 54. 123. 162. 86. 46. 20. 95. 198. 241. 246. 249. 252.
      252. 250. 252. 252. 248. 244. 248. 250. 250. 247. 252. 253. 250.
      207. 136. 62. 40. 115. 158. 73. 40. 14. 91. 201. 238. 238. 243.
      249. 253. 252. 251. 250. 243. 238. 238. 242. 245. 247. 252. 251.
      242. 180. 89. 49. 59. 101. 118. 62. 47. 10. 73. 159. 195. 216.
      233. 243. 248. 249. 248. 245. 230. 214. 218. 232. 243. 248. 250.
      245. 246. 181. 68. 58. 98. 95. 78. 54. 51. 25. 90. 145. 173. 203.
      227. 240. 244. 245. 244. 238. 214. 186. 194. 224. 238. 240. 245.
      247. 249. 212. 148. 99. 78. 60. 53. 54. 57. 71. 145. 175. 188.
      211. 232. 243. 247. 247. 246. 239. 218. 198. 205. 229. 239. 241.
      246. 247. 246. 244. 228. 166. 79. 49. 55. 53. 51. 123. 203. 219.
      219. 231. 241. 247. 250. 250. 249. 245. 235. 226. 230. 242. 246.
      248. 252. 252. 252. 249. 248. 203. 120. 101. 97. 47. 37. 145. 230.
      243. 242. 245. 247. 248. 250. 251. 250. 248. 246. 245. 244. 245.
      247. 249. 252. 251. 252. 247. 249. 215. 152. 152. 146. 72. 35.
      144. 235. 249. 248. 250. 252. 251. 253. 254. 254. 252. 251. 251.
      252. 251. 252. 253. 253. 251. 250. 251. 245. 209. 160. 161. 166.
      127. 48. 140. 239. 250. 249. 251. 253. 253. 254. 254. 253. 251.
      250. 251. 252. 251. 252. 254. 254. 253. 253. 250. 232. 198. 164.
      152. 161. 164. 66. 136. 243. 252. 251. 253. 253. 253. 253. 254.
      251. 253. 253. 253. 253. 252. 252. 253. 253. 250. 250. 249. 231.
      198. 164. 142. 153. 167. 81. 136. 243. 249. 251. 253. 253. 250.
      251. 254. 254. 254. 250. 250. 252. 252. 252. 253. 253. 251. 251.
      248. 234. 202. 161. 138. 153. 165. 84. 139. 242. 248. 253. 251.
      250. 252. 252. 252. 253. 252. 252. 252. 249. 250. 251. 249. 250.
      252. 250. 246. 238. 207. 162. 145. 159. 157. 80. 135. 247. 252.
      252. 246. 243. 252. 251. 249. 245. 248. 250. 252. 251. 251. 252.
      251. 248. 248. 248. 247. 242. 213. 167. 155. 162. 147. 74. 129.
      240. 249. 249. 247. 249. 240. 226. 232. 247. 249. 250. 251. 243.
      224. 226. 243. 249. 248. 250. 249. 238. 209. 175. 163. 142. 101.
      48. 106. 205. 244. 250. 251. 245. 179. 119. 159. 242. 250. 250.
      246. 205. 148. 146. 195. 237. 251. 249. 239. 210. 172. 152. 143.
      111. 60. 28. 61. 143. 230. 243. 239. 193. 97. 31. 74. 174. 239.
      246. 220. 152. 84. 67. 125. 203. 239. 233. 198. 144. 93. 77. 83.
      68. 44. 46. 23. 74. 172. 189. 170. 113. 53. 25. 48. 102. 173. 172.
      136. 84. 45. 29. 61. 136. 174. 162. 121. 70. 37. 34. 48. 55. 51.
      52. 0. 0. 0. 0. 0. 0. 0. 0. 0. 0. 0. 0. 0. 0. 0. 0. 0. 0. 0. 0. 0.
      0. 0. 0. 0. 0. 0. 0. 0. 0. 0. 0. 0. 0. 0. 0. 0. 0. 0. 0. 0. 0. 0.
      0. 0. 0. 0. 0. 0. 0. 0. 0. 0. 0. 0. 0. 0. 0. 0. 0. 0. 0. 0. 0. 0.
      0. 0. 0. 0. 0. 0. 0. 0. 0. 0. 0. 0. 0. 0. 0. 0. 0. 0. 0. 0. 0. 0.
      0. 0. 0. 0. 0. 0. 0. 0. 0. 0. 0. 0. 0. 0. 0. 0. 0. 0. 0. 0. 0. 0.
      0. 0. 0.</_>
    <_>
      81. 88. 90. 102. 106. 102. 96. 93. 90. 85. 78. 75. 69. 69. 77. 75.
      85. 95. 80. 76. 85. 87. 84. 0. 0. 0. 0. 0. 101. 65. 35. 41. 51.
      46. 44. 41. 47. 64. 72. 64. 62. 66. 66. 41. 40. 54. 49. 53. 52.
      52. 48. 0. 0. 0. 0. 0. 94. 40. 34. 48. 50. 48. 51. 50. 82. 154.
      202. 207. 205. 187. 144. 66. 35. 48. 46. 56. 55. 57. 54. 0. 0. 0.
      0. 0. 74. 17. 37. 45. 40. 68. 103. 120. 155. 218. 248. 246. 245.
      242. 219. 156. 126. 108. 52. 29. 51. 56. 57. 0. 0. 0. 0. 0. 70.
      20. 31. 36. 45. 102. 186. 233. 239. 245. 251. 250. 250. 251. 245.
      230. 219. 186. 93. 26. 33. 48. 53. 0. 0. 0. 0. 0. 75. 19. 24. 38.
      91. 174. 231. 247. 248. 249. 249. 248. 250. 250. 250. 249. 249.
      228. 165. 86. 35. 31. 47. 0. 0. 0. 0. 0. 71. 15. 28. 86. 174. 237.
      252. 252. 254. 251. 251. 253. 252. 252. 253. 252. 253. 247. 226.
      172. 85. 24. 32. 0. 0. 0. 0. 0. 65. 17. 59. 166. 235. 251. 249.
      252. 253. 248. 250. 253. 253. 253. 253. 253. 252. 252. 251. 233.
      164. 54. 16. 0. 0. 0. 0. 0. 61. 23. 89. 211. 245. 251. 254. 253.
      253. 250. 249. 251. 250. 251. 253. 254. 252. 250. 249. 250. 214.
      95. 14. 0. 0. 0. 0. 0. 59. 17. 93. 215. 245. 252. 254. 247. 249.
      250. 244. 246. 247. 249. 253. 254. 254. 250. 245. 245. 218. 111.
      16. 0. 0. 0. 0. 0. 56. 17. 109. 223. 247. 252. 251. 240. 243. 241.
      233. 234. 238. 246. 251. 251. 252. 249. 239. 235. 208. 107. 17. 0.
      0. 0. 0. 0. 54. 39. 155. 236. 247. 251. 252. 250. 243. 225. 211.
      217. 230. 245. 251. 247. 248. 246. 229. 221. 198. 120. 41. 0. 0.
      0. 0. 0. 51. 106. 225. 251. 253. 251. 251. 248. 240. 220. 204.
      213. 230. 243. 248. 247. 248. 244. 227. 212. 198. 166. 95. 0. 0.
      0. 0. 0. 46. 129. 242. 254. 254. 251. 252. 247. 242. 231. 219.
      226. 235. 242. 244. 246. 248. 245. 233. 222. 224. 221. 139. 0. 0.
      0. 0. 0. 47. 150. 248. 253. 254. 254. 254. 252. 250. 246. 241.
      243. 245. 248. 247. 248. 250. 250. 247. 244. 245. 240. 150. 0. 0.
      0. 0. 0. 44. 161. 248. 253. 254. 255. 255. 253. 253. 253. 252.
      251. 253. 253. 252. 252. 253. 253. 253. 250. 250. 247. 147. 0. 0.
      0. 0. 0. 45. 164. 247. 251. 252. 253. 253. 252. 251. 252. 253.
      251. 253. 253. 253. 253. 253. 253. 251. 249. 249. 247. 147. 0. 0.
      0. 0. 0. 54. 160. 247. 250. 251. 253. 253. 253. 252. 253. 254.
      252. 254. 254. 254. 252. 252. 250. 249. 252. 253. 252. 149. 0. 0.
      0. 0. 0. 61. 154. 247. 251. 252. 253. 253. 254. 254. 253. 253.
      254. 254. 254. 253. 252. 252. 250. 250. 253. 253. 252. 140. 0. 0.
      0. 0. 0. 65. 154. 248. 252. 252. 252. 252. 253. 253. 253. 253.
      252. 252. 252. 252. 252. 252. 252. 252. 251. 250. 252. 141. 0. 0.
      0. 0. 0. 75. 153. 248. 251. 252. 249. 250. 252. 252. 252. 252.
      246. 249. 252. 252. 253. 252. 251. 250. 250. 252. 253. 148. 0. 0.
      0. 0. 0. 80. 153. 248. 246. 231. 225. 244. 252. 251. 249. 242.
      210. 221. 243. 251. 254. 254. 249. 233. 237. 249. 249. 161. 0. 0.
      0. 0. 0. 82. 152. 247. 226. 174. 169. 219. 247. 249. 241. 209.
      130. 145. 194. 246. 249. 254. 218. 157. 182. 241. 251. 163. 0. 0.
      0. 0. 0. 79. 148. 229. 182. 103. 99. 163. 224. 248. 234. 163. 60.
      66. 144. 247. 248. 230. 152. 70. 101. 201. 244. 159. 0. 0. 0. 0.
      0. 71. 119. 181. 122. 55. 46. 102. 178. 236. 217. 116. 30. 31.
      109. 245. 237. 173. 76. 31. 53. 141. 195. 135. 0. 0. 0. 0. 0. 62.
      74. 116. 83. 43. 38. 70. 125. 184. 169. 84. 26. 33. 86. 186. 178.
      112. 33. 37. 54. 96. 129. 91. 0. 0. 0. 0. 0. 0. 0. 0. 0. 0. 0. 0.
      0. 0. 0. 0. 0. 0. 0. 0. 0. 0. 0. 0. 0. 0. 0. 0. 0. 0. 0. 0. 0. 0.
      0. 0. 0. 0. 0. 0. 0. 0. 0. 0. 0. 0. 0. 0. 0. 0. 0. 0. 0. 0. 0. 0.
      0. 0. 0. 0. 0.</_>
    <_>
      67. 78. 95. 129. 127. 128. 128. 127. 129. 134. 138. 143. 144. 146.
      150. 151. 142. 132. 131. 129. 119. 109. 109. 0. 0. 0. 0. 0. 117.
      115. 57. 47. 52. 49. 53. 52. 48. 48. 50. 51. 50. 48. 45. 50. 54.
      55. 59. 61. 60. 65. 82. 0. 0. 0. 0. 0. 132. 73. 30. 35. 47. 56.
      50. 49. 50. 51. 54. 56. 58. 59. 68. 77. 74. 60. 53. 53. 67. 105.
      149. 0. 0. 0. 0. 0. 121. 19. 21. 48. 55. 64. 56. 58. 64. 68. 72.
      74. 78. 81. 77. 72. 61. 58. 77. 107. 138. 178. 209. 0. 0. 0. 0. 0.
      113. 21. 25. 56. 61. 57. 56. 64. 71. 76. 78. 78. 80. 83. 80. 64.
      50. 71. 137. 187. 202. 213. 223. 0. 0. 0. 0. 0. 105. 18. 20. 54.
      60. 58. 52. 75. 79. 84. 86. 80. 85. 88. 83. 58. 64. 121. 188. 220.
      229. 231. 233. 0. 0. 0. 0. 0. 108. 18. 33. 68. 63. 64. 93. 75. 58.
      91. 118. 109. 112. 122. 101. 85. 119. 183. 218. 225. 233. 239.
      242. 0. 0. 0. 0. 0. 111. 24. 26. 52. 63. 74. 61. 51. 63. 139. 198.
      197. 196. 202. 171. 156. 181. 217. 231. 230. 236. 242. 244. 0. 0.
      0. 0. 0. 120. 30. 24. 48. 57. 56. 80. 117. 151. 209. 240. 239.
      238. 238. 226. 216. 219. 228. 234. 235. 242. 245. 245. 0. 0. 0. 0.
      0. 123. 30. 37. 55. 47. 64. 179. 218. 234. 242. 250. 250. 252.
      247. 245. 243. 242. 242. 244. 245. 249. 248. 245. 0. 0. 0. 0. 0.
      117. 29. 31. 34. 66. 152. 232. 243. 247. 248. 251. 249. 254. 252.
      247. 251. 251. 251. 251. 251. 253. 253. 247. 0. 0. 0. 0. 0. 121.
      29. 20. 58. 148. 236. 248. 249. 249. 251. 252. 251. 253. 253. 250.
      253. 251. 250. 252. 252. 252. 253. 247. 0. 0. 0. 0. 0. 128. 33.
      43. 142. 226. 246. 248. 251. 250. 251. 253. 252. 254. 252. 251.
      253. 253. 251. 254. 253. 251. 252. 246. 0. 0. 0. 0. 0. 121. 31.
      72. 181. 247. 252. 253. 253. 252. 251. 250. 251. 254. 253. 250.
      252. 253. 254. 254. 253. 249. 252. 245. 0. 0. 0. 0. 0. 124. 31.
      78. 197. 252. 253. 254. 254. 253. 251. 248. 250. 254. 254. 251.
      250. 251. 253. 253. 253. 250. 249. 243. 0. 0. 0. 0. 0. 121. 32.
      92. 211. 251. 250. 253. 254. 252. 252. 250. 250. 253. 253. 252.
      252. 253. 253. 254. 253. 250. 248. 242. 0. 0. 0. 0. 0. 113. 47.
      126. 228. 250. 249. 254. 253. 252. 252. 250. 251. 253. 253. 254.
      254. 255. 255. 255. 254. 252. 250. 247. 0. 0. 0. 0. 0. 0. 0. 0. 0.
      0. 0. 0. 0. 0. 0. 0. 0. 0. 0. 0. 0. 0. 0. 0. 0. 0. 0. 0. 0. 0. 0.
      0. 0. 0. 0. 0. 0. 0. 0. 0. 0. 0. 0. 0. 0. 0. 0. 0. 0. 0. 0. 0. 0.
      0. 0. 0. 0. 0. 0. 0. 0. 0. 0. 0. 0. 0. 0. 0. 0. 0. 0. 0. 0. 0. 0.
      0. 0. 0. 0. 0. 0. 0. 0. 0. 0. 0. 0. 0. 0. 0. 0. 0. 0. 0. 0. 0. 0.
      0. 0. 0. 0. 0. 0. 0. 0. 0. 0. 0. 0. 0. 0. 0. 0. 0. 0. 0. 0. 0. 0.
      0. 0. 0. 0. 0. 0. 0. 0. 0. 0. 0. 0. 0. 0. 0. 0. 0. 0. 0. 0. 0. 0.
      0. 0. 0. 0. 0. 0. 0. 0. 0. 0. 0. 0. 0. 0. 0. 0. 0. 0. 0. 0. 0. 0.
      0. 0. 0. 0. 0. 0. 0. 0. 0. 0. 0. 0. 0. 0. 0. 0. 0. 0. 0. 0. 0. 0.
      0. 0. 0. 0. 0. 0. 0. 0. 0. 0. 0. 0. 0. 0. 0. 0. 0. 0. 0. 0. 0. 0.
      0. 0. 0. 0. 0. 0. 0. 0. 0. 0. 0. 0. 0. 0. 0. 0. 0. 0. 0. 0. 0. 0.
      0. 0. 0. 0. 0. 0. 0. 0. 0. 0. 0. 0. 0. 0. 0. 0. 0. 0. 0. 0. 0. 0.
      0. 0. 0. 0. 0. 0. 0. 0. 0. 0. 0. 0. 0. 0. 0. 0. 0. 0. 0. 0. 0. 0.
      0. 0. 0. 0. 0. 0. 0. 0. 0. 0. 0. 0. 0. 0. 0. 0. 0. 0. 0. 0. 0. 0.
      0. 0. 0. 0. 0. 0. 0. 0. 0. 0. 0. 0. 0. 0. 0. 0. 0. 0.</_>
    <_>
      31. 28. 50. 56. 52. 58. 64. 49. 87. 160. 179. 168. 175. 169. 89.
      65. 69. 61. 53. 58. 51. 34. 0. 0. 0. 0. 0. 0. 30. 27. 49. 49. 45.
      70. 101. 108. 141. 208. 226. 218. 227. 223. 134. 116. 117. 78. 46.
      52. 54. 33. 0. 0. 0. 0. 0. 0. 31. 26. 39. 36. 56. 118. 175. 193.
      205. 232. 234. 235. 240. 242. 197. 183. 183. 121. 53. 45. 47. 30.
      0. 0. 0. 0. 0. 0. 34. 22. 25. 34. 87. 175. 225. 231. 237. 242.
      241. 242. 242. 243. 233. 227. 232. 176. 92. 54. 37. 21. 0. 0. 0.
      0. 0. 0. 31. 16. 31. 75. 148. 216. 241. 244. 246. 247. 245. 248.
      244. 247. 248. 240. 249. 222. 155. 94. 38. 12. 0. 0. 0. 0. 0. 0.
      27. 17. 57. 138. 211. 237. 246. 250. 250. 250. 248. 251. 247. 252.
      252. 247. 248. 245. 218. 150. 61. 10. 0. 0. 0. 0. 0. 0. 33. 13.
      97. 196. 240. 248. 248. 249. 251. 253. 253. 252. 250. 253. 251.
      250. 245. 249. 249. 200. 85. 15. 0. 0. 0. 0. 0. 0. 33. 19. 134.
      224. 250. 251. 249. 247. 251. 254. 254. 252. 251. 251. 251. 250.
      250. 252. 251. 244. 94. 14. 0. 0. 0. 0. 0. 0. 33. 24. 159. 232.
      248. 248. 248. 248. 251. 253. 252. 251. 252. 252. 251. 250. 250.
      254. 253. 247. 120. 27. 0. 0. 0. 0. 0. 0. 26. 39. 177. 235. 245.
      245. 247. 249. 251. 253. 251. 250. 250. 251. 251. 249. 250. 255.
      254. 247. 168. 57. 0. 0. 0. 0. 0. 0. 22. 92. 206. 242. 242. 245.
      246. 247. 251. 253. 250. 247. 245. 246. 246. 246. 249. 255. 253.
      249. 211. 97. 0. 0. 0. 0. 0. 0. 30. 152. 223. 242. 233. 242. 243.
      243. 248. 251. 248. 242. 236. 232. 233. 239. 243. 250. 250. 252.
      240. 139. 0. 0. 0. 0. 0. 0. 38. 192. 226. 234. 224. 233. 240. 243.
      248. 250. 248. 240. 232. 226. 228. 237. 242. 248. 249. 253. 246.
      177. 0. 0. 0. 0. 0. 0. 48. 219. 232. 233. 226. 228. 240. 244. 249.
      251. 249. 244. 238. 235. 234. 237. 241. 248. 249. 254. 250. 206.
      0. 0. 0. 0. 0. 0. 53. 233. 242. 243. 238. 235. 244. 246. 250. 252.
      251. 249. 245. 240. 239. 238. 242. 248. 250. 253. 248. 221. 0. 0.
      0. 0. 0. 0. 61. 235. 248. 254. 254. 250. 251. 251. 251. 253. 253.
      253. 252. 251. 250. 250. 250. 249. 247. 251. 251. 219. 0. 0. 0. 0.
      0. 0. 66. 232. 251. 253. 254. 253. 251. 251. 252. 252. 249. 248.
      251. 253. 252. 252. 252. 250. 249. 252. 252. 215. 0. 0. 0. 0. 0.
      0. 68. 225. 253. 251. 254. 254. 252. 253. 254. 253. 253. 253. 251.
      253. 253. 252. 252. 252. 252. 253. 252. 210. 0. 0. 0. 0. 0. 0. 66.
      217. 253. 250. 253. 254. 252. 253. 253. 252. 254. 254. 252. 251.
      251. 253. 252. 252. 253. 252. 250. 207. 0. 0. 0. 0. 0. 0. 63. 205.
      253. 252. 252. 253. 248. 248. 248. 249. 252. 252. 251. 251. 249.
      250. 251. 250. 250. 251. 251. 203. 0. 0. 0. 0. 0. 0. 57. 190. 253.
      253. 253. 252. 250. 239. 243. 250. 250. 249. 251. 251. 238. 234.
      245. 249. 249. 251. 251. 196. 0. 0. 0. 0. 0. 0. 49. 174. 248. 251.
      250. 247. 227. 191. 205. 240. 247. 247. 247. 237. 199. 188. 218.
      242. 250. 251. 246. 181. 0. 0. 0. 0. 0. 0. 45. 158. 240. 249. 248.
      234. 169. 116. 138. 211. 244. 248. 240. 206. 141. 116. 170. 222.
      245. 248. 229. 152. 0. 0. 0. 0. 0. 0. 28. 107. 209. 248. 233. 194.
      113. 56. 77. 161. 220. 246. 222. 153. 82. 58. 112. 185. 234. 239.
      199. 115. 0. 0. 0. 0. 0. 0. 25. 64. 150. 218. 207. 139. 64. 27.
      37. 104. 176. 227. 189. 89. 39. 29. 52. 129. 207. 216. 142. 58. 0.
      0. 0. 0. 0. 0. 28. 31. 85. 154. 151. 83. 32. 27. 31. 60. 117. 174.
      139. 40. 27. 24. 36. 88. 146. 148. 94. 35. 0. 0. 0. 0. 0. 0. 0. 0.
      0. 0. 0. 0. 0. 0. 0. 0. 0. 0. 0. 0. 0. 0. 0. 0. 0. 0. 0. 0. 0. 0.
      0. 0. 0. 0. 0. 0. 0. 0. 0. 0. 0. 0. 0. 0. 0. 0. 0. 0. 0. 0. 0. 0.
      0. 0. 0. 0. 0. 0. 0. 0. 0. 0.</_>
    <_>
      45. 46. 49. 51. 50. 53. 52. 63. 102. 145. 134. 138. 137. 104. 51.
      32. 43. 46. 46. 40. 32. 15. 0. 0. 0. 0. 0. 0. 44. 45. 48. 43. 52.
      78. 87. 104. 164. 209. 201. 198. 190. 151. 93. 62. 64. 34. 35. 42.
      44. 19. 0. 0. 0. 0. 0. 0. 45. 43. 40. 37. 68. 121. 146. 166. 214.
      234. 233. 234. 230. 207. 170. 145. 136. 51. 29. 35. 47. 20. 0. 0.
      0. 0. 0. 0. 44. 35. 30. 57. 111. 178. 211. 220. 238. 246. 246.
      247. 245. 236. 218. 202. 186. 113. 46. 23. 31. 17. 0. 0. 0. 0. 0.
      0. 37. 24. 42. 111. 182. 226. 243. 244. 247. 249. 250. 250. 250.
      249. 244. 235. 222. 179. 94. 40. 21. 10. 0. 0. 0. 0. 0. 0. 27. 28.
      86. 180. 238. 248. 247. 247. 250. 248. 249. 249. 250. 250. 250.
      248. 245. 223. 160. 92. 30. 8. 0. 0. 0. 0. 0. 0. 20. 54. 150. 227.
      249. 250. 248. 249. 252. 253. 253. 253. 253. 252. 249. 249. 249.
      244. 221. 145. 47. 8. 0. 0. 0. 0. 0. 0. 17. 78. 195. 243. 244.
      247. 251. 251. 251. 250. 251. 252. 254. 254. 253. 253. 252. 250.
      241. 180. 56. 9. 0. 0. 0. 0. 0. 0. 16. 80. 197. 245. 245. 246.
      250. 253. 252. 251. 249. 245. 245. 246. 249. 251. 251. 251. 245.
      208. 72. 8. 0. 0. 0. 0. 0. 0. 21. 90. 199. 241. 243. 246. 250.
      253. 252. 251. 246. 239. 238. 240. 245. 249. 250. 252. 249. 225.
      98. 15. 0. 0. 0. 0. 0. 0. 38. 111. 202. 234. 238. 242. 249. 253.
      253. 250. 241. 232. 228. 233. 241. 246. 249. 252. 252. 230. 137.
      41. 0. 0. 0. 0. 0. 0. 70. 150. 214. 230. 235. 241. 249. 253. 253.
      250. 240. 228. 223. 230. 239. 244. 248. 252. 254. 242. 180. 77. 0.
      0. 0. 0. 0. 0. 112. 191. 228. 232. 236. 241. 249. 253. 254. 252.
      242. 232. 227. 233. 241. 245. 248. 252. 253. 250. 213. 107. 0. 0.
      0. 0. 0. 0. 144. 226. 237. 236. 239. 243. 249. 252. 254. 254. 246.
      239. 236. 239. 243. 246. 249. 251. 251. 252. 228. 131. 0. 0. 0. 0.
      0. 0. 163. 244. 247. 246. 246. 249. 250. 253. 254. 254. 250. 246.
      245. 245. 248. 249. 250. 251. 251. 253. 236. 146. 0. 0. 0. 0. 0.
      0. 176. 249. 248. 248. 249. 250. 249. 253. 254. 254. 251. 249.
      249. 249. 253. 253. 252. 249. 250. 253. 240. 152. 0. 0. 0. 0. 0.
      0. 179. 251. 252. 252. 251. 252. 252. 253. 253. 253. 251. 250.
      250. 251. 253. 253. 252. 250. 251. 251. 241. 147. 0. 0. 0. 0. 0.
      0. 176. 253. 251. 253. 251. 251. 253. 253. 248. 251. 252. 252.
      252. 253. 253. 252. 253. 253. 251. 252. 245. 151. 0. 0. 0. 0. 0.
      0. 174. 253. 251. 253. 252. 252. 253. 253. 247. 251. 252. 252.
      251. 252. 253. 251. 252. 249. 249. 252. 247. 148. 0. 0. 0. 0. 0.
      0. 173. 252. 253. 254. 251. 253. 252. 250. 250. 251. 250. 248.
      247. 249. 251. 252. 250. 245. 248. 250. 245. 152. 0. 0. 0. 0. 0.
      0. 166. 249. 250. 248. 242. 249. 249. 245. 249. 242. 235. 239.
      245. 248. 249. 250. 249. 236. 244. 248. 239. 152. 0. 0. 0. 0. 0.
      0. 161. 249. 244. 224. 216. 237. 247. 245. 246. 221. 195. 206.
      231. 245. 246. 245. 239. 209. 220. 240. 242. 153. 0. 0. 0. 0. 0.
      0. 156. 244. 224. 175. 161. 204. 241. 245. 244. 196. 136. 131.
      184. 239. 247. 242. 211. 157. 169. 228. 248. 150. 0. 0. 0. 0. 0.
      0. 143. 228. 191. 115. 93. 155. 220. 238. 226. 167. 82. 56. 131.
      229. 245. 218. 145. 92. 105. 185. 226. 133. 0. 0. 0. 0. 0. 0. 109.
      181. 133. 62. 51. 102. 176. 216. 200. 143. 59. 28. 110. 225. 232.
      166. 76. 44. 51. 132. 182. 115. 0. 0. 0. 0. 0. 0. 74. 125. 88. 42.
      43. 66. 123. 172. 166. 121. 54. 29. 88. 180. 186. 119. 39. 36. 51.
      95. 127. 83. 0. 0. 0. 0. 0. 0. 0. 0. 0. 0. 0. 0. 0. 0. 0. 0. 0. 0.
      0. 0. 0. 0. 0. 0. 0. 0. 0. 0. 0. 0. 0. 0. 0. 0. 0. 0. 0. 0. 0. 0.
      0. 0. 0. 0. 0. 0. 0. 0. 0. 0. 0. 0. 0. 0. 0. 0. 0. 0. 0. 0. 0. 0.</_>
    <_>
      42. 40. 44. 49. 50. 49. 44. 32. 59. 94. 117. 132. 144. 135. 118.
      72. 49. 38. 43. 49. 49. 49. 53. 50. 0. 0. 0. 0. 39. 43. 46. 42.
      40. 51. 66. 73. 118. 177. 212. 230. 236. 219. 198. 156. 114. 72.
      59. 57. 52. 49. 51. 51. 0. 0. 0. 0. 41. 46. 44. 36. 44. 84. 126.
      166. 197. 230. 242. 240. 241. 237. 228. 227. 193. 152. 111. 79.
      54. 48. 54. 53. 0. 0. 0. 0. 42. 39. 35. 43. 80. 138. 192. 234.
      240. 241. 238. 232. 235. 239. 239. 234. 230. 209. 168. 110. 64.
      51. 59. 54. 0. 0. 0. 0. 34. 33. 40. 72. 132. 196. 233. 234. 235.
      235. 235. 236. 237. 235. 234. 235. 237. 234. 211. 163. 105. 65.
      49. 54. 0. 0. 0. 0. 26. 36. 67. 120. 187. 230. 235. 236. 236. 235.
      236. 235. 235. 233. 233. 235. 237. 237. 232. 211. 159. 93. 50. 55.
      0. 0. 0. 0. 26. 43. 98. 160. 209. 234. 239. 239. 238. 235. 234.
      234. 234. 234. 234. 235. 236. 237. 238. 233. 194. 121. 68. 51. 0.
      0. 0. 0. 29. 43. 103. 183. 226. 236. 237. 239. 238. 236. 236. 236.
      236. 237. 237. 237. 237. 238. 239. 238. 209. 134. 72. 43. 0. 0. 0.
      0. 32. 38. 98. 184. 234. 236. 233. 233. 235. 237. 237. 238. 237.
      237. 238. 238. 238. 237. 238. 238. 211. 138. 67. 35. 0. 0. 0. 0.
      32. 55. 122. 201. 236. 233. 229. 229. 231. 234. 235. 236. 236.
      236. 235. 234. 234. 233. 234. 235. 216. 153. 80. 40. 0. 0. 0. 0.
      38. 96. 180. 230. 236. 232. 230. 228. 230. 232. 233. 234. 235.
      235. 234. 229. 226. 228. 230. 235. 228. 186. 122. 66. 0. 0. 0. 0.
      53. 130. 211. 240. 235. 226. 218. 214. 220. 225. 229. 233. 233.
      232. 230. 221. 214. 219. 227. 232. 234. 213. 158. 98. 0. 0. 0. 0.
      65. 146. 213. 237. 233. 219. 197. 190. 205. 219. 228. 233. 232.
      229. 223. 205. 192. 201. 216. 226. 232. 219. 173. 109. 0. 0. 0. 0.
      72. 152. 215. 237. 229. 203. 176. 165. 185. 214. 228. 230. 230.
      226. 213. 189. 174. 186. 209. 225. 233. 221. 175. 107. 0. 0. 0. 0.
      76. 160. 219. 237. 229. 209. 187. 178. 196. 219. 227. 226. 229.
      226. 213. 194. 178. 186. 212. 230. 236. 219. 175. 106. 0. 0. 0. 0.
      84. 172. 227. 238. 235. 226. 217. 216. 223. 231. 231. 231. 232.
      232. 229. 222. 214. 217. 226. 232. 235. 222. 180. 108. 0. 0. 0. 0.
      89. 183. 231. 238. 238. 237. 234. 235. 236. 236. 237. 239. 238.
      237. 236. 236. 236. 237. 236. 236. 239. 226. 177. 104. 0. 0. 0. 0.
      87. 185. 235. 239. 239. 240. 239. 240. 240. 238. 242. 244. 242.
      240. 238. 238. 237. 238. 238. 238. 240. 223. 169. 94. 0. 0. 0. 0.
      91. 187. 235. 241. 241. 241. 242. 242. 243. 242. 245. 247. 246.
      246. 243. 241. 240. 241. 242. 242. 245. 228. 168. 94. 0. 0. 0. 0.
      88. 184. 236. 245. 245. 242. 234. 220. 222. 236. 242. 244. 246.
      246. 235. 233. 234. 241. 244. 243. 247. 234. 170. 91. 0. 0. 0. 0.
      81. 173. 230. 244. 245. 238. 198. 161. 162. 203. 234. 244. 244.
      231. 193. 172. 180. 216. 239. 244. 243. 219. 150. 79. 0. 0. 0. 0.
      51. 121. 193. 234. 246. 202. 129. 92. 95. 150. 211. 238. 235. 200.
      128. 95. 102. 168. 227. 243. 229. 185. 119. 61. 0. 0. 0. 0. 26.
      75. 172. 234. 244. 143. 60. 49. 53. 91. 158. 200. 179. 137. 75.
      54. 63. 117. 179. 195. 163. 116. 69. 44. 0. 0. 0. 0. 17. 63. 174.
      245. 238. 103. 17. 29. 42. 64. 91. 108. 93. 64. 57. 41. 51. 80.
      95. 87. 70. 47. 27. 26. 0. 0. 0. 0. 18. 68. 190. 250. 227. 80. 4.
      24. 45. 55. 59. 60. 52. 42. 46. 34. 42. 50. 39. 51. 76. 77. 73.
      67. 0. 0. 0. 0. 20. 72. 180. 224. 183. 51. 9. 23. 39. 47. 49. 50.
      47. 42. 48. 42. 38. 32. 39. 80. 121. 127. 126. 122. 0. 0. 0. 0.
      29. 60. 130. 152. 104. 23. 20. 28. 37. 39. 39. 39. 39. 36. 38. 40.
      37. 45. 71. 94. 102. 98. 100. 100. 0. 0. 0. 0. 0. 0. 0. 0. 0. 0.
      0. 0. 0. 0. 0. 0. 0. 0. 0. 0. 0. 0. 0. 0. 0. 0. 0. 0. 0. 0. 0. 0.</_>
    <_>
      41. 44. 45. 58. 47. 45. 39. 57. 103. 140. 146. 144. 141. 127. 75.
      40. 34. 42. 48. 55. 55. 55. 53. 0. 0. 0. 0. 0. 46. 43. 35. 38. 48.
      78. 99. 130. 191. 233. 243. 242. 242. 221. 166. 106. 79. 57. 42.
      48. 55. 55. 54. 0. 0. 0. 0. 0. 35. 41. 34. 38. 81. 150. 196. 215.
      242. 251. 248. 250. 248. 247. 237. 220. 190. 129. 61. 23. 51. 54.
      55. 0. 0. 0. 0. 0. 38. 36. 40. 80. 152. 218. 246. 248. 250. 249.
      242. 249. 248. 249. 249. 248. 235. 190. 117. 51. 42. 47. 52. 0. 0.
      0. 0. 0. 32. 34. 80. 150. 222. 246. 249. 247. 249. 248. 246. 250.
      249. 247. 248. 248. 246. 240. 186. 111. 38. 45. 52. 0. 0. 0. 0. 0.
      31. 62. 147. 212. 247. 248. 249. 250. 250. 249. 248. 249. 250.
      252. 252. 250. 252. 249. 233. 188. 99. 39. 39. 0. 0. 0. 0. 0. 35.
      98. 193. 242. 249. 249. 250. 251. 251. 251. 250. 249. 250. 252.
      252. 252. 252. 252. 247. 225. 142. 47. 41. 0. 0. 0. 0. 0. 39. 116.
      210. 246. 250. 251. 252. 252. 253. 253. 253. 253. 253. 253. 254.
      253. 253. 253. 251. 236. 161. 46. 39. 0. 0. 0. 0. 0. 43. 129. 216.
      246. 250. 251. 252. 253. 253. 253. 253. 253. 254. 253. 254. 254.
      253. 251. 250. 239. 167. 48. 30. 0. 0. 0. 0. 0. 61. 149. 228. 248.
      248. 250. 250. 251. 253. 253. 254. 254. 253. 253. 253. 253. 251.
      249. 248. 240. 192. 95. 49. 0. 0. 0. 0. 0. 110. 187. 241. 248.
      246. 246. 247. 248. 251. 253. 254. 254. 252. 251. 249. 248. 248.
      248. 248. 245. 228. 179. 95. 0. 0. 0. 0. 0. 151. 223. 249. 245.
      240. 235. 232. 236. 241. 245. 249. 249. 249. 246. 239. 233. 235.
      241. 244. 246. 249. 225. 131. 0. 0. 0. 0. 0. 164. 230. 246. 243.
      236. 221. 213. 222. 236. 244. 247. 247. 248. 244. 230. 215. 216.
      231. 240. 245. 247. 221. 132. 0. 0. 0. 0. 0. 161. 229. 247. 244.
      234. 202. 180. 199. 226. 238. 242. 244. 244. 236. 216. 196. 199.
      221. 239. 246. 246. 211. 117. 0. 0. 0. 0. 0. 166. 230. 246. 242.
      236. 213. 189. 203. 228. 238. 241. 244. 245. 238. 218. 201. 205.
      225. 240. 246. 249. 210. 113. 0. 0. 0. 0. 0. 168. 233. 247. 245.
      248. 241. 228. 236. 245. 247. 247. 247. 249. 246. 237. 228. 231.
      240. 244. 246. 246. 210. 114. 0. 0. 0. 0. 0. 171. 235. 247. 250.
      250. 247. 245. 246. 248. 250. 249. 249. 250. 249. 248. 246. 246.
      247. 246. 248. 249. 208. 116. 0. 0. 0. 0. 0. 169. 238. 249. 251.
      247. 245. 247. 248. 248. 250. 250. 249. 249. 248. 249. 248. 245.
      245. 247. 248. 249. 205. 103. 0. 0. 0. 0. 0. 164. 237. 248. 249.
      244. 248. 249. 250. 249. 250. 250. 249. 249. 249. 250. 249. 245.
      245. 249. 246. 246. 204. 100. 0. 0. 0. 0. 0. 160. 235. 247. 248.
      248. 247. 237. 224. 232. 244. 245. 245. 246. 242. 231. 231. 242.
      248. 248. 245. 245. 204. 108. 0. 0. 0. 0. 0. 152. 233. 246. 250.
      249. 226. 178. 151. 189. 233. 241. 243. 242. 209. 165. 162. 209.
      242. 247. 247. 237. 181. 86. 0. 0. 0. 0. 0. 85. 178. 236. 244.
      247. 160. 95. 68. 122. 201. 235. 246. 218. 149. 80. 84. 157. 224.
      242. 244. 206. 126. 50. 0. 0. 0. 0. 0. 60. 123. 165. 184. 171. 83.
      41. 69. 132. 189. 188. 187. 143. 78. 41. 54. 108. 165. 200. 209.
      140. 54. 25. 0. 0. 0. 0. 0. 44. 76. 93. 103. 84. 33. 36. 132. 205.
      212. 122. 71. 62. 42. 31. 41. 70. 96. 110. 102. 59. 33. 38. 0. 0.
      0. 0. 0. 42. 54. 58. 55. 39. 20. 61. 183. 248. 225. 84. 12. 26.
      39. 46. 50. 55. 58. 58. 54. 31. 28. 32. 0. 0. 0. 0. 0. 38. 43. 44.
      43. 25. 19. 77. 174. 228. 188. 55. 9. 26. 43. 49. 46. 45. 46. 45.
      55. 44. 30. 20. 0. 0. 0. 0. 0. 35. 38. 39. 39. 27. 22. 65. 118.
      160. 105. 25. 21. 32. 42. 41. 36. 36. 39. 40. 32. 38. 36. 42. 0.
      0. 0. 0. 0. 0. 0. 0. 0. 0. 0. 0. 0. 0. 0. 0. 0. 0. 0. 0. 0. 0. 0.
      0. 0. 0. 0. 0. 0. 0. 0. 0. 0.</_>
    <_>
      30. 35. 45. 47. 42. 38. 34. 69. 103. 128. 143. 149. 127. 99. 64.
      32. 33. 53. 47. 41. 47. 51. 46. 46. 47. 0. 0. 0. 24. 47. 38. 24.
      33. 61. 87. 135. 187. 216. 229. 232. 219. 197. 136. 87. 63. 56.
      41. 44. 56. 49. 44. 44. 44. 0. 0. 0. 22. 44. 30. 36. 82. 135. 180.
      208. 234. 243. 241. 239. 236. 230. 210. 189. 155. 90. 31. 26. 45.
      45. 46. 45. 44. 0. 0. 0. 21. 33. 31. 75. 147. 205. 232. 239. 240.
      239. 237. 237. 237. 238. 238. 238. 224. 163. 82. 34. 32. 41. 41.
      42. 42. 0. 0. 0. 20. 34. 70. 139. 203. 237. 241. 238. 236. 235.
      236. 236. 234. 233. 237. 232. 233. 227. 164. 74. 24. 28. 42. 42.
      42. 0. 0. 0. 25. 58. 127. 192. 233. 244. 241. 238. 235. 236. 235.
      235. 237. 238. 238. 237. 242. 239. 224. 163. 76. 24. 25. 38. 43.
      0. 0. 0. 33. 86. 173. 228. 243. 243. 241. 237. 233. 235. 235. 235.
      239. 241. 239. 239. 238. 236. 236. 212. 129. 43. 20. 39. 44. 0. 0.
      0. 38. 103. 189. 239. 245. 241. 239. 235. 229. 228. 228. 230. 236.
      238. 239. 238. 231. 231. 230. 220. 153. 49. 21. 39. 43. 0. 0. 0.
      43. 111. 192. 235. 243. 240. 236. 233. 220. 207. 210. 222. 233.
      236. 237. 237. 230. 225. 205. 183. 130. 41. 22. 39. 41. 0. 0. 0.
      62. 138. 204. 236. 242. 238. 233. 227. 201. 173. 177. 205. 225.
      232. 236. 232. 228. 217. 172. 141. 115. 59. 59. 74. 54. 0. 0. 0.
      97. 177. 226. 242. 241. 236. 234. 225. 193. 163. 167. 201. 225.
      233. 236. 229. 227. 211. 167. 145. 149. 138. 153. 156. 85. 0. 0.
      0. 135. 209. 236. 241. 239. 235. 234. 227. 211. 195. 195. 213.
      230. 236. 236. 232. 231. 219. 193. 187. 202. 211. 230. 207. 107.
      0. 0. 0. 151. 220. 236. 239. 237. 234. 234. 231. 228. 227. 225.
      226. 232. 235. 236. 236. 234. 228. 222. 223. 226. 226. 221. 177.
      79. 0. 0. 0. 151. 218. 232. 236. 235. 232. 236. 240. 238. 236.
      235. 232. 232. 234. 237. 237. 236. 235. 235. 236. 224. 196. 156.
      96. 36. 0. 0. 0. 148. 217. 232. 235. 233. 236. 237. 236. 237. 237.
      235. 232. 230. 231. 236. 237. 237. 237. 237. 238. 223. 173. 97.
      37. 24. 0. 0. 0. 155. 220. 235. 236. 233. 237. 235. 235. 239. 236.
      232. 230. 230. 233. 236. 236. 236. 236. 236. 238. 228. 173. 85.
      30. 26. 0. 0. 0. 158. 221. 235. 234. 232. 235. 234. 236. 239. 234.
      230. 231. 232. 236. 236. 233. 234. 235. 235. 237. 229. 173. 78.
      22. 29. 0. 0. 0. 158. 216. 235. 232. 232. 234. 234. 235. 235. 234.
      234. 235. 233. 234. 235. 231. 233. 236. 236. 238. 227. 171. 76.
      19. 30. 0. 0. 0. 158. 220. 238. 234. 235. 236. 237. 236. 233. 235.
      234. 228. 227. 229. 233. 232. 234. 235. 235. 239. 227. 175. 76.
      22. 31. 0. 0. 0. 164. 222. 237. 212. 208. 215. 234. 237. 232. 220.
      187. 173. 196. 220. 235. 235. 224. 210. 213. 229. 226. 174. 81.
      26. 28. 0. 0. 0. 161. 214. 214. 157. 131. 177. 226. 237. 227. 183.
      108. 91. 155. 212. 235. 230. 192. 149. 152. 192. 210. 168. 81. 29.
      26. 0. 0. 0. 141. 188. 158. 85. 67. 112. 204. 228. 217. 172. 73.
      51. 130. 211. 230. 207. 140. 86. 89. 144. 178. 155. 82. 30. 25. 0.
      0. 0. 98. 122. 99. 50. 48. 76. 142. 162. 166. 163. 109. 79. 110.
      166. 180. 148. 85. 46. 57. 94. 126. 112. 68. 24. 17. 0. 0. 0. 56.
      71. 58. 39. 51. 63. 82. 86. 112. 167. 191. 152. 82. 79. 99. 85.
      50. 42. 56. 70. 79. 64. 45. 40. 42. 0. 0. 0. 38. 56. 54. 48. 61.
      61. 56. 46. 87. 181. 244. 200. 63. 31. 59. 64. 52. 55. 64. 62. 55.
      53. 37. 39. 37. 0. 0. 0. 28. 48. 51. 47. 53. 50. 46. 34. 77. 166.
      216. 174. 48. 15. 47. 60. 54. 51. 51. 49. 49. 58. 33. 24. 27. 0.
      0. 0. 21. 41. 48. 45. 42. 41. 45. 34. 65. 121. 141. 98. 32. 19.
      42. 50. 45. 43. 41. 42. 48. 35. 27. 27. 49. 0. 0. 0. 0. 0. 0. 0.
      0. 0. 0. 0. 0. 0. 0. 0. 0. 0. 0. 0. 0. 0. 0. 0. 0. 0. 0. 0. 0. 0.
      0. 0.</_>
    <_>
      26. 33. 34. 35. 39. 35. 25. 7. 40. 139. 188. 132. 35. 10. 35. 40.
      40. 38. 38. 39. 41. 41. 39. 38. 0. 0. 0. 0. 31. 28. 33. 30. 33.
      31. 18. 8. 80. 218. 246. 182. 41. 5. 36. 35. 39. 37. 43. 38. 37.
      40. 38. 31. 0. 0. 0. 0. 39. 27. 37. 32. 39. 39. 27. 26. 98. 230.
      247. 194. 49. 15. 44. 34. 38. 35. 44. 41. 37. 39. 41. 38. 0. 0. 0.
      0. 37. 29. 37. 37. 49. 38. 13. 26. 110. 223. 248. 219. 120. 85.
      94. 66. 52. 42. 40. 42. 43. 43. 42. 41. 0. 0. 0. 0. 31. 33. 29.
      25. 43. 36. 30. 71. 147. 223. 243. 238. 206. 191. 179. 133. 89.
      57. 53. 47. 46. 46. 43. 40. 0. 0. 0. 0. 32. 40. 35. 22. 48. 81.
      120. 174. 214. 234. 242. 243. 243. 240. 233. 206. 156. 114. 106.
      69. 44. 47. 51. 46. 0. 0. 0. 0. 31. 30. 27. 43. 88. 161. 209. 232.
      243. 243. 246. 246. 246. 244. 245. 244. 226. 209. 168. 100. 46.
      43. 59. 55. 0. 0. 0. 0. 26. 26. 50. 108. 164. 211. 234. 244. 248.
      246. 248. 249. 249. 248. 248. 248. 243. 237. 209. 158. 83. 38. 39.
      56. 0. 0. 0. 0. 15. 32. 96. 184. 227. 240. 245. 248. 251. 250.
      250. 251. 251. 250. 250. 250. 246. 243. 235. 202. 147. 90. 56. 49.
      0. 0. 0. 0. 19. 70. 166. 227. 245. 246. 248. 250. 253. 252. 251.
      253. 253. 251. 252. 253. 252. 249. 245. 237. 198. 132. 74. 46. 0.
      0. 0. 0. 32. 105. 193. 230. 235. 238. 242. 245. 250. 250. 251.
      250. 248. 246. 248. 250. 251. 250. 245. 239. 206. 144. 80. 46. 0.
      0. 0. 0. 23. 85. 158. 198. 217. 232. 236. 241. 248. 249. 247. 242.
      236. 234. 236. 241. 245. 247. 249. 242. 210. 145. 76. 40. 0. 0. 0.
      0. 19. 68. 125. 165. 198. 222. 229. 238. 246. 246. 241. 231. 220.
      218. 225. 236. 240. 243. 248. 246. 220. 156. 86. 43. 0. 0. 0. 0.
      36. 90. 130. 161. 194. 217. 225. 237. 243. 243. 236. 220. 206.
      205. 215. 228. 236. 240. 247. 247. 230. 185. 120. 67. 0. 0. 0. 0.
      80. 122. 163. 193. 209. 221. 229. 239. 241. 242. 238. 222. 208.
      207. 218. 230. 238. 243. 249. 246. 236. 210. 157. 100. 0. 0. 0. 0.
      105. 156. 199. 225. 229. 231. 236. 240. 240. 241. 240. 238. 234.
      233. 236. 240. 241. 245. 248. 245. 241. 225. 180. 116. 0. 0. 0. 0.
      119. 179. 223. 241. 241. 241. 242. 243. 242. 241. 241. 242. 242.
      242. 242. 242. 243. 246. 248. 245. 243. 229. 184. 117. 0. 0. 0. 0.
      122. 186. 229. 245. 245. 246. 248. 248. 247. 245. 247. 249. 250.
      250. 248. 248. 249. 249. 249. 246. 243. 227. 182. 116. 0. 0. 0. 0.
      121. 191. 229. 245. 244. 246. 248. 248. 247. 248. 249. 249. 248.
      248. 248. 249. 249. 249. 249. 247. 243. 226. 184. 116. 0. 0. 0. 0.
      128. 193. 230. 245. 245. 246. 247. 247. 247. 248. 248. 247. 247.
      248. 249. 249. 248. 248. 248. 247. 243. 227. 184. 117. 0. 0. 0. 0.
      130. 192. 227. 244. 245. 246. 246. 247. 247. 248. 248. 248. 249.
      249. 249. 249. 249. 247. 247. 246. 242. 224. 185. 119. 0. 0. 0. 0.
      126. 189. 226. 245. 245. 245. 245. 245. 247. 246. 247. 247. 247.
      246. 245. 246. 247. 246. 247. 245. 237. 220. 184. 118. 0. 0. 0. 0.
      124. 190. 231. 247. 246. 242. 238. 240. 245. 246. 247. 247. 242.
      232. 231. 238. 244. 247. 248. 244. 231. 213. 179. 118. 0. 0. 0. 0.
      111. 179. 228. 246. 240. 215. 172. 173. 222. 243. 246. 245. 223.
      184. 166. 197. 236. 244. 244. 239. 220. 198. 171. 119. 0. 0. 0. 0.
      77. 150. 217. 240. 210. 144. 89. 104. 169. 238. 246. 237. 187.
      120. 102. 152. 221. 239. 233. 219. 184. 146. 141. 123. 0. 0. 0. 0.
      52. 107. 173. 199. 163. 92. 34. 38. 93. 193. 208. 190. 124. 61.
      57. 114. 178. 201. 190. 163. 122. 85. 92. 94. 0. 0. 0. 0. 0. 0. 0.
      0. 0. 0. 0. 0. 0. 0. 0. 0. 0. 0. 0. 0. 0. 0. 0. 0. 0. 0. 0. 0. 0.
      0. 0. 0. 0. 0. 0. 0. 0. 0. 0. 0. 0. 0. 0. 0. 0. 0. 0. 0. 0. 0. 0.
      0. 0. 0. 0. 0. 0. 0. 0. 0.</_>
    <_>
      53. 58. 60. 53. 52. 54. 46. 85. 128. 152. 157. 154. 152. 143. 111.
      65. 35. 41. 48. 54. 52. 41. 25. 0. 0. 0. 0. 0. 54. 62. 60. 52. 55.
      84. 107. 159. 199. 217. 222. 221. 221. 218. 197. 136. 75. 59. 43.
      39. 45. 46. 33. 0. 0. 0. 0. 0. 67. 63. 50. 57. 101. 160. 200. 211.
      218. 223. 224. 226. 227. 227. 222. 208. 185. 149. 95. 51. 39. 44.
      32. 0. 0. 0. 0. 0. 68. 56. 47. 101. 176. 219. 221. 223. 225. 227.
      229. 231. 230. 228. 227. 222. 220. 210. 160. 79. 38. 37. 30. 0. 0.
      0. 0. 0. 57. 55. 90. 172. 218. 232. 223. 230. 232. 239. 241. 242.
      242. 239. 237. 230. 224. 224. 199. 141. 85. 39. 22. 0. 0. 0. 0. 0.
      52. 74. 162. 213. 224. 230. 230. 232. 233. 238. 241. 243. 242.
      239. 238. 232. 226. 225. 219. 197. 151. 70. 18. 0. 0. 0. 0. 0. 52.
      91. 217. 232. 231. 233. 235. 237. 238. 240. 240. 241. 240. 240.
      239. 237. 231. 227. 227. 224. 194. 110. 27. 0. 0. 0. 0. 0. 53. 98.
      230. 232. 233. 235. 235. 239. 239. 240. 240. 240. 240. 240. 240.
      240. 237. 232. 231. 231. 207. 129. 37. 0. 0. 0. 0. 0. 51. 105.
      229. 232. 238. 241. 242. 252. 250. 245. 242. 241. 242. 244. 245.
      242. 244. 243. 236. 232. 213. 141. 46. 0. 0. 0. 0. 0. 65. 136.
      232. 237. 238. 242. 245. 253. 253. 248. 245. 243. 244. 246. 248.
      246. 249. 248. 239. 233. 221. 157. 65. 0. 0. 0. 0. 0. 106. 189.
      233. 237. 238. 243. 246. 248. 248. 246. 245. 243. 243. 243. 243.
      246. 247. 243. 236. 230. 226. 188. 106. 0. 0. 0. 0. 0. 153. 231.
      230. 230. 238. 241. 239. 243. 244. 244. 244. 242. 240. 237. 235.
      234. 231. 234. 234. 230. 229. 219. 159. 0. 0. 0. 0. 0. 161. 231.
      227. 226. 226. 222. 211. 216. 220. 233. 235. 237. 235. 227. 223.
      213. 210. 221. 229. 227. 225. 226. 177. 0. 0. 0. 0. 0. 161. 229.
      225. 223. 222. 213. 201. 203. 211. 227. 229. 234. 232. 218. 210.
      197. 197. 209. 216. 221. 224. 225. 179. 0. 0. 0. 0. 0. 166. 229.
      225. 223. 221. 214. 204. 205. 213. 227. 229. 234. 232. 219. 209.
      200. 202. 211. 216. 220. 223. 226. 181. 0. 0. 0. 0. 0. 169. 229.
      226. 225. 223. 219. 213. 212. 217. 228. 230. 235. 234. 225. 217.
      212. 214. 218. 220. 222. 223. 225. 181. 0. 0. 0. 0. 0. 175. 231.
      231. 231. 230. 229. 227. 225. 228. 232. 232. 236. 236. 232. 230.
      223. 223. 223. 222. 223. 223. 224. 183. 0. 0. 0. 0. 0. 177. 231.
      233. 234. 234. 234. 234. 234. 236. 237. 236. 237. 239. 242. 241.
      237. 240. 235. 233. 230. 225. 225. 185. 0. 0. 0. 0. 0. 179. 228.
      231. 231. 232. 233. 234. 235. 236. 234. 233. 233. 235. 238. 239.
      238. 240. 234. 232. 231. 225. 227. 192. 0. 0. 0. 0. 0. 178. 223.
      226. 225. 224. 229. 232. 234. 232. 224. 219. 217. 220. 229. 230.
      232. 234. 224. 222. 221. 217. 221. 195. 0. 0. 0. 0. 0. 180. 219.
      217. 212. 210. 214. 222. 225. 222. 215. 202. 193. 205. 222. 229.
      226. 226. 212. 206. 212. 205. 214. 190. 0. 0. 0. 0. 0. 180. 221.
      208. 185. 173. 177. 199. 215. 214. 212. 181. 126. 155. 216. 211.
      211. 210. 175. 146. 170. 203. 212. 180. 0. 0. 0. 0. 0. 170. 210.
      190. 138. 105. 119. 172. 209. 211. 202. 159. 104. 136. 211. 213.
      211. 177. 114. 93. 128. 186. 191. 150. 0. 0. 0. 0. 0. 126. 147.
      127. 86. 56. 65. 122. 168. 178. 164. 120. 80. 105. 172. 182. 159.
      115. 62. 51. 81. 126. 126. 91. 0. 0. 0. 0. 0. 0. 0. 0. 0. 0. 0. 0.
      0. 0. 0. 0. 0. 0. 0. 0. 0. 0. 0. 0. 0. 0. 0. 0. 0. 0. 0. 0. 0. 0.
      0. 0. 0. 0. 0. 0. 0. 0. 0. 0. 0. 0. 0. 0. 0. 0. 0. 0. 0. 0. 0. 0.
      0. 0. 0. 0. 0. 0. 0. 0. 0. 0. 0. 0. 0. 0. 0. 0. 0. 0. 0. 0. 0. 0.
      0. 0. 0. 0. 0. 0. 0. 0. 0. 0. 0. 0. 0. 0. 0. 0. 0. 0. 0. 0. 0. 0.
      0. 0. 0. 0. 0. 0. 0. 0. 0. 0. 0. 0. 0. 0. 0. 0. 0.</_>
    <_>
      78. 81. 86. 66. 43. 41. 43. 42. 47. 51. 56. 48. 46. 28. 18. 73.
      149. 138. 63. 21. 26. 39. 46. 40. 34. 0. 0. 0. 135. 97. 64. 38.
      35. 50. 54. 46. 49. 55. 58. 50. 51. 24. 22. 117. 220. 218. 105.
      25. 22. 35. 40. 37. 34. 0. 0. 0. 103. 72. 52. 45. 46. 51. 53. 49.
      47. 47. 43. 43. 55. 28. 28. 151. 236. 247. 121. 27. 23. 35. 38.
      37. 37. 0. 0. 0. 58. 47. 39. 52. 59. 48. 39. 45. 70. 101. 110.
      112. 118. 100. 94. 168. 214. 197. 92. 22. 28. 40. 41. 44. 42. 0.
      0. 0. 54. 58. 58. 49. 41. 43. 56. 101. 156. 185. 190. 189. 190.
      184. 177. 189. 190. 117. 59. 30. 36. 45. 32. 44. 46. 0. 0. 0. 44.
      50. 48. 48. 64. 102. 143. 175. 204. 217. 218. 218. 219. 215. 209.
      213. 202. 132. 105. 65. 29. 40. 49. 39. 36. 0. 0. 0. 59. 46. 39.
      65. 120. 176. 207. 214. 216. 220. 220. 221. 224. 222. 217. 217.
      214. 199. 210. 168. 72. 34. 37. 43. 41. 0. 0. 0. 55. 46. 58. 121.
      182. 210. 219. 221. 222. 225. 227. 228. 230. 228. 225. 222. 217.
      217. 218. 211. 151. 74. 34. 36. 39. 0. 0. 0. 41. 52. 109. 184.
      215. 216. 218. 223. 227. 232. 235. 237. 239. 237. 235. 232. 225.
      225. 207. 211. 212. 145. 66. 37. 36. 0. 0. 0. 47. 81. 166. 216.
      220. 219. 222. 227. 230. 234. 238. 240. 241. 240. 241. 240. 234.
      233. 224. 221. 213. 189. 126. 54. 34. 0. 0. 0. 42. 109. 203. 220.
      219. 223. 226. 231. 232. 235. 237. 237. 236. 237. 239. 238. 236.
      229. 225. 222. 208. 215. 180. 69. 33. 0. 0. 0. 42. 124. 215. 219.
      220. 229. 229. 237. 239. 240. 240. 239. 238. 239. 240. 239. 236.
      234. 230. 227. 213. 219. 189. 73. 32. 0. 0. 0. 50. 138. 215. 219.
      222. 233. 234. 245. 250. 249. 247. 243. 240. 243. 247. 249. 249.
      247. 243. 231. 220. 226. 184. 84. 37. 0. 0. 0. 82. 166. 218. 220.
      224. 233. 236. 246. 249. 248. 246. 242. 240. 243. 247. 250. 251.
      247. 245. 235. 225. 230. 197. 123. 48. 0. 0. 0. 127. 202. 223.
      222. 225. 231. 235. 240. 241. 241. 241. 241. 241. 240. 240. 241.
      239. 234. 236. 232. 224. 225. 215. 178. 72. 0. 0. 0. 161. 219.
      220. 219. 222. 221. 229. 229. 230. 232. 234. 237. 237. 235. 231.
      226. 220. 217. 225. 227. 218. 217. 220. 213. 101. 0. 0. 0. 169.
      216. 213. 212. 215. 211. 216. 212. 212. 219. 223. 228. 229. 226.
      221. 214. 206. 206. 212. 216. 213. 212. 217. 214. 104. 0. 0. 0.
      172. 216. 213. 212. 214. 208. 212. 207. 210. 217. 222. 226. 227.
      223. 217. 211. 205. 205. 205. 207. 209. 210. 214. 207. 113. 0. 0.
      0. 171. 217. 214. 214. 215. 212. 218. 214. 215. 221. 223. 227.
      227. 226. 222. 218. 215. 212. 210. 210. 211. 212. 213. 204. 114.
      0. 0. 0. 167. 216. 216. 215. 218. 219. 222. 218. 219. 224. 225.
      228. 229. 229. 228. 225. 224. 222. 220. 219. 216. 213. 211. 202.
      112. 0. 0. 0. 165. 219. 220. 218. 225. 232. 234. 234. 233. 228.
      232. 233. 232. 234. 233. 233. 232. 228. 225. 223. 217. 210. 209.
      203. 125. 0. 0. 0. 158. 220. 219. 219. 226. 234. 236. 237. 238.
      232. 235. 235. 232. 236. 236. 237. 238. 235. 230. 225. 220. 213.
      208. 198. 126. 0. 0. 0. 154. 220. 213. 210. 216. 223. 228. 234.
      235. 229. 230. 226. 219. 226. 230. 228. 230. 231. 232. 228. 217.
      207. 204. 193. 124. 0. 0. 0. 148. 213. 199. 197. 204. 211. 220.
      225. 224. 212. 214. 209. 200. 208. 212. 212. 215. 213. 207. 200.
      192. 190. 199. 191. 127. 0. 0. 0. 147. 211. 200. 191. 192. 195.
      203. 205. 205. 195. 196. 191. 184. 192. 195. 196. 203. 201. 193.
      188. 186. 188. 193. 183. 124. 0. 0. 0. 146. 201. 192. 179. 166.
      158. 171. 193. 195. 190. 188. 177. 167. 178. 182. 183. 183. 172.
      156. 153. 172. 188. 192. 170. 105. 0. 0. 0. 101. 135. 136. 127.
      112. 97. 117. 158. 168. 166. 166. 148. 140. 157. 172. 179. 182.
      150. 113. 99. 114. 129. 134. 118. 79. 0. 0. 0. 60. 74. 79. 82. 71.
      58. 71. 96. 105. 101. 99. 80. 68. 79. 90. 82. 86. 72. 59. 55. 67.
      74. 73. 66. 55. 0. 0. 0.</_>
    <_>
      46. 51. 55. 56. 52. 48. 34. 39. 60. 106. 151. 176. 186. 187. 174.
      157. 91. 33. 25. 37. 44. 51. 50. 47. 45. 0. 0. 0. 41. 49. 50. 45.
      42. 40. 59. 81. 135. 191. 227. 234. 231. 228. 229. 221. 171. 122.
      86. 50. 31. 40. 51. 51. 50. 0. 0. 0. 45. 49. 40. 34. 46. 69. 151.
      194. 233. 236. 234. 235. 233. 230. 231. 232. 225. 210. 196. 126.
      52. 25. 36. 45. 51. 0. 0. 0. 47. 45. 31. 37. 83. 145. 215. 235.
      243. 241. 242. 250. 251. 249. 248. 248. 246. 236. 239. 208. 117.
      40. 23. 30. 40. 0. 0. 0. 44. 37. 35. 72. 155. 222. 237. 237. 242.
      244. 250. 251. 253. 252. 251. 253. 252. 242. 242. 240. 189. 111.
      34. 30. 36. 0. 0. 0. 40. 33. 57. 144. 223. 242. 244. 245. 249.
      248. 251. 253. 253. 252. 254. 253. 252. 249. 244. 243. 231. 195.
      74. 35. 28. 0. 0. 0. 36. 42. 92. 198. 237. 242. 247. 246. 249.
      247. 249. 253. 252. 254. 253. 252. 253. 252. 246. 244. 244. 239.
      158. 33. 11. 0. 0. 0. 32. 44. 118. 226. 241. 243. 248. 248. 251.
      252. 253. 253. 252. 253. 253. 252. 253. 252. 248. 248. 246. 240.
      196. 23. 21. 0. 0. 0. 30. 49. 129. 222. 237. 243. 247. 249. 250.
      245. 248. 254. 251. 251. 250. 242. 244. 250. 250. 250. 248. 241.
      213. 31. 21. 0. 0. 0. 41. 85. 168. 223. 237. 247. 252. 249. 231.
      210. 222. 249. 253. 250. 238. 218. 224. 245. 251. 250. 247. 242.
      201. 72. 14. 0. 0. 0. 70. 156. 222. 240. 242. 247. 252. 249. 228.
      201. 215. 247. 253. 251. 234. 209. 216. 243. 252. 250. 247. 247.
      231. 172. 60. 0. 0. 0. 97. 204. 246. 247. 246. 248. 251. 251. 242.
      228. 236. 251. 252. 251. 245. 226. 231. 249. 252. 249. 245. 245.
      239. 210. 92. 0. 0. 0. 117. 217. 244. 245. 246. 250. 252. 252.
      250. 247. 250. 253. 251. 253. 252. 247. 249. 254. 252. 251. 247.
      244. 244. 218. 108. 0. 0. 0. 100. 199. 239. 242. 243. 242. 246.
      252. 252. 252. 253. 252. 252. 253. 253. 252. 253. 252. 252. 253.
      250. 245. 245. 210. 102. 0. 0. 0. 99. 193. 236. 241. 241. 245.
      249. 250. 251. 252. 253. 249. 246. 244. 248. 251. 250. 251. 250.
      250. 248. 245. 245. 218. 116. 0. 0. 0. 90. 186. 231. 239. 238.
      228. 225. 232. 240. 248. 251. 241. 229. 229. 241. 249. 248. 242.
      228. 228. 243. 247. 245. 214. 112. 0. 0. 0. 84. 176. 226. 237.
      238. 224. 226. 232. 231. 231. 237. 233. 220. 230. 240. 231. 227.
      218. 208. 216. 228. 233. 240. 211. 109. 0. 0. 0. 79. 169. 222.
      235. 237. 238. 241. 246. 235. 218. 222. 236. 237. 242. 237. 217.
      216. 227. 237. 245. 243. 233. 234. 210. 107. 0. 0. 0. 75. 165.
      222. 234. 235. 244. 241. 247. 246. 233. 232. 243. 246. 244. 243.
      237. 243. 251. 248. 246. 241. 234. 234. 209. 111. 0. 0. 0. 74.
      163. 223. 232. 231. 237. 232. 238. 246. 245. 243. 238. 222. 227.
      242. 245. 250. 252. 239. 232. 236. 236. 236. 211. 107. 0. 0. 0.
      71. 168. 227. 229. 224. 194. 206. 228. 235. 234. 237. 213. 155.
      181. 221. 233. 236. 239. 223. 211. 221. 229. 232. 210. 106. 0. 0.
      0. 57. 165. 213. 227. 175. 109. 140. 203. 226. 227. 233. 188. 89.
      135. 208. 235. 238. 226. 171. 128. 141. 191. 221. 207. 105. 0. 0.
      0. 45. 174. 215. 225. 107. 39. 66. 154. 203. 212. 207. 142. 76.
      116. 192. 225. 228. 179. 81. 49. 77. 148. 178. 159. 78. 0. 0. 0.
      54. 184. 235. 227. 81. 17. 31. 96. 148. 156. 124. 64. 34. 46. 129.
      161. 122. 71. 36. 34. 41. 68. 87. 76. 44. 0. 0. 0. 65. 198. 245.
      225. 72. 17. 32. 62. 80. 83. 61. 35. 46. 61. 73. 71. 57. 34. 33.
      66. 82. 70. 68. 67. 66. 0. 0. 0. 72. 186. 224. 188. 53. 10. 39.
      54. 50. 54. 53. 44. 53. 63. 55. 37. 32. 41. 70. 109. 129. 120.
      114. 112. 118. 0. 0. 0. 66. 135. 158. 113. 25. 18. 43. 48. 43. 49.
      51. 43. 36. 33. 42. 39. 43. 72. 94. 97. 101. 100. 100. 98. 100. 0.
      0. 0. 0. 0. 0. 0. 0. 0. 0. 0. 0. 0. 0. 0. 0. 0. 0. 0. 0. 0. 0. 0.
      0. 0. 0. 0. 0. 0. 0. 0.</_>
    <_>
      56. 54. 54. 56. 56. 53. 47. 46. 71. 134. 166. 148. 152. 161. 126.
      62. 41. 37. 37. 44. 52. 53. 47. 41. 0. 0. 0. 0. 54. 51. 58. 55.
      47. 59. 88. 110. 145. 187. 209. 204. 206. 214. 183. 116. 81. 60.
      38. 31. 35. 39. 41. 41. 0. 0. 0. 0. 60. 68. 59. 48. 59. 102. 158.
      182. 193. 199. 198. 198. 201. 200. 199. 199. 196. 166. 82. 34. 30.
      34. 34. 36. 0. 0. 0. 0. 66. 63. 51. 59. 102. 164. 205. 211. 203.
      204. 204. 203. 208. 207. 204. 203. 204. 208. 157. 76. 23. 22. 41.
      43. 0. 0. 0. 0. 64. 48. 59. 107. 162. 203. 216. 212. 210. 211.
      212. 212. 216. 216. 211. 210. 200. 203. 204. 149. 69. 31. 34. 38.
      0. 0. 0. 0. 58. 47. 95. 166. 205. 214. 212. 210. 213. 214. 215.
      214. 216. 216. 211. 210. 201. 199. 213. 207. 144. 60. 24. 29. 0.
      0. 0. 0. 56. 53. 129. 199. 217. 214. 213. 217. 220. 221. 222. 220.
      217. 218. 217. 216. 218. 216. 220. 224. 187. 88. 24. 28. 0. 0. 0.
      0. 60. 52. 142. 207. 218. 217. 216. 219. 222. 222. 220. 217. 217.
      219. 219. 219. 220. 222. 218. 222. 195. 98. 27. 24. 0. 0. 0. 0.
      60. 51. 157. 215. 222. 221. 221. 223. 224. 218. 209. 205. 207.
      212. 219. 220. 223. 222. 209. 208. 181. 98. 36. 23. 0. 0. 0. 0.
      51. 79. 178. 220. 223. 224. 225. 225. 221. 207. 193. 192. 201.
      211. 219. 220. 229. 226. 203. 185. 158. 109. 66. 37. 0. 0. 0. 0.
      51. 133. 199. 217. 218. 226. 230. 229. 219. 201. 188. 190. 201.
      210. 220. 221. 229. 226. 207. 180. 155. 150. 127. 72. 0. 0. 0. 0.
      69. 175. 217. 220. 218. 227. 232. 229. 223. 211. 200. 200. 204.
      210. 220. 222. 228. 226. 213. 196. 182. 202. 201. 129. 0. 0. 0. 0.
      77. 197. 223. 222. 222. 230. 232. 231. 230. 223. 216. 214. 214.
      218. 225. 226. 230. 228. 218. 211. 198. 208. 209. 142. 0. 0. 0. 0.
      73. 199. 223. 223. 225. 231. 228. 230. 232. 227. 222. 221. 220.
