<?xml version="1.0"?>
<opencv_storage>
<pacman0 type_id="opencv-ml-svm">
  <svm_type>C_SVC</svm_type>
  <kernel><type>POLY</type>
    <degree>4.</degree>
    <gamma>1.</gamma>
    <coef0>0.</coef0></kernel>
  <C>1.</C>
  <term_criteria><epsilon>2.2204460492503131e-16</epsilon>
    <iterations>5000</iterations></term_criteria>
  <var_all>784</var_all>
  <var_count>784</var_count>
  <class_count>2</class_count>
  <class_labels type_id="opencv-matrix">
    <rows>1</rows>
    <cols>2</cols>
    <dt>i</dt>
    <data>
      -1 1</data></class_labels>
  <sv_total>15</sv_total>
  <support_vectors>
    <_>
      73. 43. 29. 34. 43. 48. 46. 49. 52. 46. 45. 36. 23. 78. 174. 179.
      107. 17. 25. 45. 48. 47. 44. 0. 0. 0. 0. 0. 54. 32. 34. 44. 49.
      51. 49. 48. 50. 48. 45. 32. 18. 96. 235. 234. 157. 9. 14. 45. 49.
      50. 46. 0. 0. 0. 0. 0. 31. 41. 50. 50. 51. 54. 53. 47. 52. 59. 53.
      33. 28. 108. 240. 238. 156. 14. 14. 47. 50. 51. 48. 0. 0. 0. 0. 0.
      47. 47. 52. 49. 49. 56. 56. 47. 57. 74. 75. 68. 67. 118. 199. 187.
      104. 16. 17. 52. 50. 49. 49. 0. 0. 0. 0. 0. 49. 50. 49. 51. 55.
      53. 51. 59. 85. 117. 133. 135. 128. 132. 147. 109. 56. 36. 36. 57.
      50. 46. 47. 0. 0. 0. 0. 0. 48. 50. 54. 48. 48. 63. 85. 108. 127.
      143. 150. 149. 147. 144. 137. 100. 70. 74. 54. 52. 52. 47. 46. 0.
      0. 0. 0. 0. 47. 49. 42. 40. 55. 91. 127. 144. 146. 144. 141. 136.
      134. 140. 144. 136. 118. 107. 69. 37. 47. 54. 51. 0. 0. 0. 0. 0.
      47. 45. 30. 45. 82. 125. 154. 161. 156. 152. 148. 139. 134. 133.
      136. 147. 149. 145. 109. 57. 41. 42. 51. 0. 0. 0. 0. 0. 50. 39.
      46. 76. 118. 157. 183. 194. 193. 187. 169. 147. 141. 139. 147.
      170. 185. 196. 178. 122. 55. 24. 38. 0. 0. 0. 0. 0. 51. 35. 72.
      117. 159. 187. 209. 224. 229. 224. 197. 167. 148. 148. 174. 207.
      225. 236. 233. 196. 109. 35. 20. 0. 0. 0. 0. 0. 50. 32. 82. 137.
      190. 214. 232. 242. 244. 240. 231. 203. 160. 161. 201. 229. 239.
      244. 245. 231. 169. 73. 15. 0. 0. 0. 0. 0. 50. 32. 80. 137. 199.
      229. 246. 250. 245. 239. 241. 220. 165. 178. 230. 249. 246. 245.
      241. 228. 185. 87. 22. 0. 0. 0. 0. 0. 41. 32. 84. 132. 198. 234.
      247. 248. 240. 219. 210. 197. 149. 185. 239. 250. 239. 231. 217.
      195. 160. 76. 22. 0. 0. 0. 0. 0. 44. 54. 112. 142. 197. 234. 246.
      245. 237. 198. 179. 173. 139. 185. 241. 252. 247. 234. 200. 170.
      153. 90. 26. 0. 0. 0. 0. 0. 55. 95. 148. 157. 186. 225. 248. 248.
      237. 204. 180. 167. 139. 181. 232. 248. 246. 233. 204. 177. 154.
      104. 45. 0. 0. 0. 0. 0. 62. 119. 161. 160. 159. 199. 240. 248.
      248. 233. 196. 165. 141. 159. 201. 229. 247. 253. 238. 200. 158.
      116. 61. 0. 0. 0. 0. 0. 59. 121. 160. 159. 140. 161. 205. 221.
      227. 226. 188. 156. 143. 135. 163. 197. 226. 243. 234. 194. 153.
      126. 74. 0. 0. 0. 0. 0. 54. 110. 156. 160. 136. 135. 160. 165.
      171. 171. 154. 137. 143. 129. 141. 150. 162. 170. 171. 157. 146.
      140. 86. 0. 0. 0. 0. 0. 51. 102. 153. 158. 139. 134. 142. 139.
      138. 135. 136. 132. 142. 131. 135. 132. 134. 136. 139. 141. 149.
      140. 78. 0. 0. 0. 0. 0. 52. 104. 157. 151. 136. 138. 137. 131.
      134. 134. 138. 137. 135. 132. 132. 129. 135. 137. 139. 140. 148.
      132. 69. 0. 0. 0. 0. 0. 50. 105. 158. 144. 132. 138. 136. 128.
      132. 134. 137. 138. 131. 136. 134. 129. 133. 133. 134. 133. 145.
      133. 74. 0. 0. 0. 0. 0. 45. 106. 156. 142. 138. 140. 139. 138.
      136. 134. 134. 136. 131. 126. 133. 136. 137. 137. 133. 136. 150.
      137. 73. 0. 0. 0. 0. 0. 48. 110. 160. 151. 140. 136. 136. 135.
      135. 139. 132. 134. 139. 139. 139. 137. 138. 139. 137. 145. 160.
      146. 72. 0. 0. 0. 0. 0. 58. 115. 155. 150. 125. 115. 134. 147.
      145. 140. 111. 94. 101. 128. 139. 144. 139. 127. 111. 133. 155.
      150. 78. 0. 0. 0. 0. 0. 69. 120. 148. 130. 80. 67. 111. 150. 149.
      132. 83. 52. 58. 109. 149. 158. 135. 89. 65. 98. 129. 146. 91. 0.
      0. 0. 0. 0. 76. 110. 117. 86. 36. 30. 81. 139. 162. 148. 65. 31.
      51. 115. 160. 161. 114. 45. 37. 69. 97. 124. 94. 0. 0. 0. 0. 0.
      63. 81. 81. 62. 44. 50. 72. 95. 122. 124. 56. 41. 59. 95. 114.
      113. 85. 40. 42. 58. 69. 88. 77. 0. 0. 0. 0. 0. 0. 0. 0. 0. 0. 0.
      0. 0. 0. 0. 0. 0. 0. 0. 0. 0. 0. 0. 0. 0. 0. 0. 0. 0. 0. 0. 0. 0.</_>
    <_>
      33. 17. 44. 105. 121. 73. 28. 31. 46. 44. 45. 43. 45. 41. 38. 40.
      35. 54. 66. 62. 0. 0. 0. 0. 0. 0. 0. 0. 25. 6. 121. 207. 221. 134.
      41. 25. 43. 46. 45. 43. 43. 43. 46. 46. 36. 29. 31. 55. 0. 0. 0.
      0. 0. 0. 0. 0. 19. 5. 132. 229. 244. 133. 35. 25. 44. 48. 51. 51.
      49. 49. 51. 49. 44. 36. 23. 52. 0. 0. 0. 0. 0. 0. 0. 0. 9. 11.
      124. 229. 230. 116. 30. 33. 51. 54. 63. 67. 66. 62. 57. 52. 49.
      54. 38. 40. 0. 0. 0. 0. 0. 0. 0. 0. 37. 24. 53. 98. 94. 49. 41.
      79. 114. 124. 124. 116. 101. 83. 66. 51. 44. 51. 47. 50. 0. 0. 0.
      0. 0. 0. 0. 0. 45. 37. 34. 58. 64. 67. 95. 129. 149. 156. 156.
      147. 131. 110. 87. 64. 49. 47. 43. 47. 0. 0. 0. 0. 0. 0. 0. 0. 42.
      33. 37. 72. 96. 112. 133. 144. 146. 145. 145. 142. 138. 132. 123.
      111. 94. 69. 49. 44. 0. 0. 0. 0. 0. 0. 0. 0. 37. 33. 61. 99. 126.
      133. 139. 141. 139. 139. 140. 139. 140. 142. 143. 139. 122. 78.
      47. 36. 0. 0. 0. 0. 0. 0. 0. 0. 36. 45. 98. 122. 140. 139. 138.
      137. 136. 136. 137. 136. 134. 136. 138. 139. 133. 108. 76. 58. 0.
      0. 0. 0. 0. 0. 0. 0. 53. 75. 126. 144. 153. 150. 146. 151. 147.
      141. 140. 142. 144. 145. 149. 152. 154. 145. 110. 81. 0. 0. 0. 0.
      0. 0. 0. 0. 73. 92. 139. 169. 184. 184. 179. 183. 169. 146. 139.
      153. 168. 176. 182. 189. 189. 175. 136. 100. 0. 0. 0. 0. 0. 0. 0.
      0. 63. 101. 167. 211. 228. 232. 228. 222. 197. 166. 155. 177. 205.
      219. 223. 224. 220. 207. 165. 103. 0. 0. 0. 0. 0. 0. 0. 0. 53.
      135. 214. 245. 254. 251. 252. 250. 232. 202. 197. 223. 246. 251.
      252. 252. 253. 243. 196. 115. 0. 0. 0. 0. 0. 0. 0. 0. 75. 190.
      247. 248. 251. 245. 248. 251. 246. 230. 230. 243. 250. 248. 245.
      249. 253. 252. 219. 139. 0. 0. 0. 0. 0. 0. 0. 0. 103. 224. 252.
      244. 246. 243. 243. 247. 252. 241. 239. 246. 251. 253. 248. 243.
      244. 246. 229. 168. 0. 0. 0. 0. 0. 0. 0. 0. 113. 222. 247. 241.
      244. 238. 238. 242. 247. 243. 244. 245. 241. 241. 241. 240. 241.
      244. 232. 181. 0. 0. 0. 0. 0. 0. 0. 0. 116. 195. 222. 228. 224.
      207. 221. 222. 224. 214. 215. 218. 209. 203. 205. 210. 216. 225.
      211. 166. 0. 0. 0. 0. 0. 0. 0. 0. 123. 159. 177. 185. 169. 157.
      186. 184. 192. 159. 150. 168. 181. 181. 178. 175. 182. 193. 175.
      141. 0. 0. 0. 0. 0. 0. 0. 0. 0. 0. 0. 0. 0. 0. 0. 0. 0. 0. 0. 0.
      0. 0. 0. 0. 0. 0. 0. 0. 0. 0. 0. 0. 0. 0. 0. 0. 0. 0. 0. 0. 0. 0.
      0. 0. 0. 0. 0. 0. 0. 0. 0. 0. 0. 0. 0. 0. 0. 0. 0. 0. 0. 0. 0. 0.
      0. 0. 0. 0. 0. 0. 0. 0. 0. 0. 0. 0. 0. 0. 0. 0. 0. 0. 0. 0. 0. 0.
      0. 0. 0. 0. 0. 0. 0. 0. 0. 0. 0. 0. 0. 0. 0. 0. 0. 0. 0. 0. 0. 0.
      0. 0. 0. 0. 0. 0. 0. 0. 0. 0. 0. 0. 0. 0. 0. 0. 0. 0. 0. 0. 0. 0.
      0. 0. 0. 0. 0. 0. 0. 0. 0. 0. 0. 0. 0. 0. 0. 0. 0. 0. 0. 0. 0. 0.
      0. 0. 0. 0. 0. 0. 0. 0. 0. 0. 0. 0. 0. 0. 0. 0. 0. 0. 0. 0. 0. 0.
      0. 0. 0. 0. 0. 0. 0. 0. 0. 0. 0. 0. 0. 0. 0. 0. 0. 0. 0. 0. 0. 0.
      0. 0. 0. 0. 0. 0. 0. 0. 0. 0. 0. 0. 0. 0. 0. 0. 0. 0. 0. 0. 0. 0.
      0. 0. 0. 0. 0. 0. 0. 0. 0. 0. 0. 0. 0. 0. 0. 0. 0. 0. 0. 0. 0. 0.
      0. 0. 0. 0. 0. 0. 0. 0. 0. 0. 0. 0. 0. 0. 0. 0. 0. 0. 0. 0. 0. 0.
      0. 0. 0. 0. 0. 0. 0. 0. 0. 0. 0. 0. 0. 0. 0. 0. 0. 0. 0. 0. 0. 0.
      0. 0. 0. 0.</_>
    <_>
      17. 31. 45. 44. 39. 37. 63. 85. 78. 92. 96. 93. 94. 81. 55. 53.
      57. 56. 47. 48. 47. 0. 0. 0. 0. 0. 0. 0. 28. 29. 23. 29. 54. 56.
      79. 132. 141. 142. 133. 145. 140. 103. 86. 85. 77. 47. 33. 53. 58.
      0. 0. 0. 0. 0. 0. 0. 15. 12. 23. 91. 176. 187. 166. 149. 167. 165.
      153. 166. 159. 127. 149. 177. 163. 80. 22. 35. 54. 0. 0. 0. 0. 0.
      0. 0. 18. 15. 74. 166. 230. 236. 199. 145. 146. 159. 162. 165.
      145. 139. 206. 247. 242. 163. 61. 14. 29. 0. 0. 0. 0. 0. 0. 0. 13.
      34. 149. 232. 245. 246. 213. 150. 132. 151. 162. 153. 132. 146.
      229. 245. 246. 234. 144. 28. 23. 0. 0. 0. 0. 0. 0. 0. 13. 73. 192.
      247. 250. 249. 230. 186. 141. 135. 147. 136. 138. 178. 235. 247.
      244. 253. 193. 34. 10. 0. 0. 0. 0. 0. 0. 0. 30. 118. 217. 250.
      251. 252. 245. 218. 158. 123. 133. 124. 160. 225. 242. 251. 247.
      250. 237. 56. 17. 0. 0. 0. 0. 0. 0. 0. 71. 181. 239. 251. 247.
      250. 250. 231. 168. 120. 126. 122. 170. 235. 243. 250. 248. 251.
      251. 165. 76. 0. 0. 0. 0. 0. 0. 0. 113. 217. 248. 251. 246. 249.
      252. 236. 169. 112. 111. 118. 177. 239. 244. 253. 251. 253. 252.
      239. 109. 0. 0. 0. 0. 0. 0. 0. 144. 230. 250. 250. 250. 252. 252.
      238. 175. 116. 99. 121. 194. 239. 246. 253. 252. 248. 241. 245.
      107. 0. 0. 0. 0. 0. 0. 0. 153. 233. 249. 249. 253. 252. 252. 245.
      205. 142. 102. 149. 224. 245. 247. 250. 254. 252. 250. 241. 113.
      0. 0. 0. 0. 0. 0. 0. 150. 233. 248. 249. 253. 251. 249. 252. 237.
      174. 131. 179. 238. 245. 246. 253. 253. 252. 252. 234. 124. 0. 0.
      0. 0. 0. 0. 0. 138. 235. 248. 250. 253. 252. 251. 252. 246. 206.
      187. 215. 245. 249. 248. 253. 251. 248. 250. 228. 122. 0. 0. 0. 0.
      0. 0. 0. 112. 239. 248. 247. 253. 253. 253. 249. 244. 234. 235.
      235. 241. 249. 250. 251. 251. 250. 250. 223. 107. 0. 0. 0. 0. 0.
      0. 0. 80. 218. 246. 242. 252. 252. 251. 248. 250. 251. 252. 251.
      250. 251. 254. 252. 250. 252. 245. 195. 73. 0. 0. 0. 0. 0. 0. 0.
      54. 156. 242. 245. 251. 252. 251. 250. 251. 250. 251. 252. 253.
      253. 254. 251. 247. 248. 219. 137. 39. 0. 0. 0. 0. 0. 0. 0. 35.
      92. 230. 245. 245. 246. 249. 253. 254. 253. 250. 252. 254. 253.
      252. 250. 247. 244. 192. 82. 23. 0. 0. 0. 0. 0. 0. 0. 29. 56. 200.
      242. 247. 237. 251. 254. 254. 254. 253. 254. 254. 251. 250. 249.
      248. 234. 163. 56. 29. 0. 0. 0. 0. 0. 0. 0. 30. 44. 140. 215. 243.
      241. 245. 248. 245. 250. 251. 249. 249. 247. 246. 245. 233. 194.
      114. 42. 35. 0. 0. 0. 0. 0. 0. 0. 35. 36. 70. 145. 225. 228. 235.
      247. 242. 248. 250. 246. 247. 245. 229. 214. 187. 125. 62. 38. 41.
      0. 0. 0. 0. 0. 0. 0. 43. 47. 42. 90. 148. 147. 199. 233. 236. 238.
      240. 238. 241. 232. 176. 142. 118. 72. 42. 46. 50. 0. 0. 0. 0. 0.
      0. 0. 51. 68. 50. 70. 83. 66. 126. 197. 210. 206. 201. 198. 205.
      177. 105. 68. 63. 53. 47. 51. 47. 0. 0. 0. 0. 0. 0. 0. 47. 55. 59.
      64. 67. 63. 83. 125. 146. 142. 136. 133. 139. 113. 69. 50. 53. 60.
      56. 57. 52. 0. 0. 0. 0. 0. 0. 0. 0. 0. 0. 0. 0. 0. 0. 0. 0. 0. 0.
      0. 0. 0. 0. 0. 0. 0. 0. 0. 0. 0. 0. 0. 0. 0. 0. 0. 0. 0. 0. 0. 0.
      0. 0. 0. 0. 0. 0. 0. 0. 0. 0. 0. 0. 0. 0. 0. 0. 0. 0. 0. 0. 0. 0.
      0. 0. 0. 0. 0. 0. 0. 0. 0. 0. 0. 0. 0. 0. 0. 0. 0. 0. 0. 0. 0. 0.
      0. 0. 0. 0. 0. 0. 0. 0. 0. 0. 0. 0. 0. 0. 0. 0. 0. 0. 0. 0. 0. 0.
      0. 0. 0. 0. 0. 0. 0. 0. 0. 0. 0. 0. 0. 0. 0. 0. 0. 0. 0. 0. 0. 0.
      0. 0. 0. 0. 0. 0. 0. 0. 0. 0. 0. 0. 0. 0. 0. 0. 0. 0. 0.</_>
    <_>
      238. 226. 220. 222. 221. 215. 206. 192. 182. 181. 183. 182. 177.
      177. 198. 209. 218. 225. 215. 212. 220. 0. 0. 0. 0. 0. 0. 0. 233.
      228. 224. 226. 223. 212. 198. 180. 162. 155. 154. 154. 152. 156.
      174. 180. 201. 225. 224. 218. 222. 0. 0. 0. 0. 0. 0. 0. 229. 232.
      229. 220. 202. 189. 177. 162. 149. 142. 141. 141. 141. 146. 160.
      166. 180. 212. 229. 231. 228. 0. 0. 0. 0. 0. 0. 0. 209. 235. 222.
      191. 193. 200. 190. 167. 140. 131. 136. 136. 136. 154. 180. 181.
      169. 164. 192. 229. 229. 0. 0. 0. 0. 0. 0. 0. 178. 210. 188. 182.
      207. 227. 227. 196. 148. 122. 129. 124. 131. 184. 232. 241. 207.
      175. 146. 187. 214. 0. 0. 0. 0. 0. 0. 0. 149. 172. 152. 200. 234.
      241. 246. 227. 186. 137. 114. 119. 156. 212. 241. 248. 241. 209.
      138. 138. 180. 0. 0. 0. 0. 0. 0. 0. 130. 144. 129. 222. 251. 250.
      252. 245. 222. 152. 101. 112. 178. 236. 248. 245. 250. 236. 164.
      115. 150. 0. 0. 0. 0. 0. 0. 0. 107. 123. 120. 238. 251. 244. 248.
      242. 236. 165. 103. 116. 187. 241. 244. 230. 241. 245. 199. 117.
      128. 0. 0. 0. 0. 0. 0. 0. 86. 110. 124. 245. 245. 235. 233. 238.
      245. 175. 114. 128. 200. 243. 239. 232. 236. 241. 221. 125. 106.
      0. 0. 0. 0. 0. 0. 0. 78. 113. 138. 245. 243. 233. 231. 244. 246.
      178. 121. 132. 203. 241. 236. 235. 234. 235. 223. 133. 93. 0. 0.
      0. 0. 0. 0. 0. 82. 125. 148. 232. 231. 220. 214. 235. 237. 179.
      130. 129. 191. 225. 219. 214. 216. 224. 214. 154. 105. 0. 0. 0. 0.
      0. 0. 0. 89. 134. 150. 211. 208. 186. 179. 209. 218. 178. 143.
      128. 178. 202. 184. 174. 187. 202. 191. 170. 130. 0. 0. 0. 0. 0.
      0. 0. 98. 145. 157. 172. 174. 153. 154. 172. 187. 171. 145. 129.
      153. 166. 156. 149. 161. 175. 165. 163. 134. 0. 0. 0. 0. 0. 0. 0.
      100. 145. 147. 146. 146. 150. 152. 157. 159. 148. 130. 126. 134.
      138. 145. 147. 143. 148. 162. 162. 116. 0. 0. 0. 0. 0. 0. 0. 104.
      152. 146. 132. 129. 135. 140. 142. 138. 131. 124. 122. 128. 128.
      132. 135. 136. 140. 156. 163. 121. 0. 0. 0. 0. 0. 0. 0. 105. 154.
      143. 128. 123. 121. 125. 127. 128. 127. 126. 121. 117. 118. 119.
      122. 123. 124. 134. 147. 119. 0. 0. 0. 0. 0. 0. 0. 107. 150. 137.
      124. 122. 116. 116. 119. 123. 123. 121. 118. 117. 118. 118. 123.
      127. 126. 132. 146. 121. 0. 0. 0. 0. 0. 0. 0. 109. 149. 140. 129.
      124. 115. 107. 107. 118. 124. 118. 119. 124. 109. 104. 114. 124.
      127. 135. 144. 113. 0. 0. 0. 0. 0. 0. 0. 102. 144. 145. 134. 120.
      103. 91. 89. 111. 136. 137. 124. 115. 88. 81. 93. 113. 126. 134.
      135. 99. 0. 0. 0. 0. 0. 0. 0. 85. 131. 141. 128. 105. 87. 79. 79.
      98. 127. 138. 114. 83. 81. 76. 78. 95. 115. 125. 121. 85. 0. 0. 0.
      0. 0. 0. 0. 75. 105. 114. 101. 81. 74. 80. 79. 75. 80. 87. 83. 70.
      84. 73. 59. 67. 86. 98. 96. 68. 0. 0. 0. 0. 0. 0. 0. 0. 0. 0. 0.
      0. 0. 0. 0. 0. 0. 0. 0. 0. 0. 0. 0. 0. 0. 0. 0. 0. 0. 0. 0. 0. 0.
      0. 0. 0. 0. 0. 0. 0. 0. 0. 0. 0. 0. 0. 0. 0. 0. 0. 0. 0. 0. 0. 0.
      0. 0. 0. 0. 0. 0. 0. 0. 0. 0. 0. 0. 0. 0. 0. 0. 0. 0. 0. 0. 0. 0.
      0. 0. 0. 0. 0. 0. 0. 0. 0. 0. 0. 0. 0. 0. 0. 0. 0. 0. 0. 0. 0. 0.
      0. 0. 0. 0. 0. 0. 0. 0. 0. 0. 0. 0. 0. 0. 0. 0. 0. 0. 0. 0. 0. 0.
      0. 0. 0. 0. 0. 0. 0. 0. 0. 0. 0. 0. 0. 0. 0. 0. 0. 0. 0. 0. 0. 0.
      0. 0. 0. 0. 0. 0. 0. 0. 0. 0. 0. 0. 0. 0. 0. 0. 0. 0. 0. 0. 0. 0.
      0. 0. 0. 0. 0. 0. 0. 0. 0. 0. 0. 0. 0. 0. 0. 0. 0. 0. 0. 0. 0. 0.
      0. 0. 0. 0. 0. 0. 0. 0. 0. 0. 0. 0. 0. 0. 0. 0.</_>
    <_>
      139. 153. 172. 165. 150. 138. 127. 127. 133. 137. 147. 167. 167.
      155. 137. 130. 141. 105. 97. 142. 75. 36. 46. 55. 0. 0. 0. 0. 124.
      132. 144. 142. 140. 138. 130. 125. 131. 135. 138. 145. 148. 146.
      140. 132. 127. 107. 146. 222. 131. 55. 37. 43. 0. 0. 0. 0. 121.
      127. 127. 130. 135. 134. 130. 126. 128. 132. 137. 139. 134. 133.
      138. 139. 128. 100. 156. 240. 183. 106. 52. 38. 0. 0. 0. 0. 119.
      125. 124. 125. 128. 130. 128. 126. 128. 131. 135. 140. 139. 133.
      128. 130. 124. 110. 174. 233. 213. 166. 100. 47. 0. 0. 0. 0. 115.
      121. 125. 125. 126. 127. 126. 125. 127. 128. 128. 133. 140. 134.
      133. 139. 128. 120. 184. 227. 222. 205. 152. 56. 0. 0. 0. 0. 116.
      120. 125. 124. 125. 124. 123. 124. 126. 126. 128. 134. 131. 123.
      129. 139. 126. 126. 189. 228. 216. 210. 181. 59. 0. 0. 0. 0. 121.
      123. 118. 123. 128. 130. 129. 128. 130. 130. 128. 131. 131. 129.
      137. 139. 120. 133. 194. 231. 211. 205. 180. 56. 0. 0. 0. 0. 123.
      121. 107. 124. 139. 140. 130. 122. 121. 124. 131. 136. 136. 133.
      133. 124. 111. 143. 202. 230. 215. 213. 191. 66. 0. 0. 0. 0. 117.
      110. 112. 140. 165. 160. 132. 112. 116. 131. 163. 166. 149. 126.
      111. 104. 114. 166. 215. 225. 214. 214. 202. 106. 0. 0. 0. 0. 117.
      125. 150. 178. 200. 193. 156. 137. 152. 179. 203. 201. 186. 159.
      139. 132. 154. 198. 223. 218. 208. 206. 201. 151. 0. 0. 0. 0. 133.
      200. 215. 217. 223. 227. 219. 211. 209. 215. 221. 220. 215. 204.
      194. 190. 201. 218. 219. 215. 209. 205. 200. 160. 0. 0. 0. 0. 144.
      226. 214. 212. 215. 219. 218. 214. 215. 217. 219. 219. 219. 216.
      214. 212. 212. 213. 213. 211. 206. 203. 194. 146. 0. 0. 0. 0. 149.
      231. 213. 212. 209. 211. 210. 209. 210. 212. 213. 213. 212. 211.
      210. 209. 208. 208. 210. 209. 204. 202. 192. 140. 0. 0. 0. 0. 144.
      221. 213. 210. 207. 210. 210. 209. 209. 210. 210. 210. 210. 210.
      209. 208. 206. 205. 208. 210. 205. 203. 190. 136. 0. 0. 0. 0. 146.
      214. 207. 205. 205. 208. 208. 208. 209. 209. 211. 211. 211. 211.
      210. 209. 208. 207. 208. 209. 205. 203. 188. 133. 0. 0. 0. 0. 150.
      218. 206. 205. 205. 207. 207. 207. 208. 208. 210. 210. 211. 211.
      210. 211. 210. 209. 208. 207. 202. 200. 184. 128. 0. 0. 0. 0. 147.
      214. 211. 209. 207. 208. 206. 205. 206. 207. 209. 210. 211. 210.
      208. 208. 208. 208. 208. 208. 203. 200. 181. 124. 0. 0. 0. 0. 147.
      206. 210. 208. 206. 204. 200. 197. 198. 203. 205. 206. 206. 204.
      199. 197. 200. 203. 203. 203. 200. 197. 176. 122. 0. 0. 0. 0. 137.
      199. 202. 192. 191. 192. 189. 176. 183. 195. 194. 198. 199. 192.
      184. 182. 189. 196. 196. 196. 194. 193. 170. 117. 0. 0. 0. 0. 101.
      168. 195. 189. 184. 180. 162. 137. 157. 188. 183. 182. 190. 178.
      137. 145. 177. 188. 188. 193. 192. 172. 137. 96. 0. 0. 0. 0. 55.
      114. 170. 188. 183. 154. 104. 81. 105. 162. 187. 190. 191. 150.
      96. 101. 154. 178. 189. 186. 165. 121. 84. 70. 0. 0. 0. 0. 35. 69.
      118. 147. 145. 105. 54. 47. 55. 95. 136. 135. 116. 74. 38. 45. 89.
      120. 143. 138. 108. 73. 55. 56. 0. 0. 0. 0. 0. 0. 0. 0. 0. 0. 0.
      0. 0. 0. 0. 0. 0. 0. 0. 0. 0. 0. 0. 0. 0. 0. 0. 0. 0. 0. 0. 0. 0.
      0. 0. 0. 0. 0. 0. 0. 0. 0. 0. 0. 0. 0. 0. 0. 0. 0. 0. 0. 0. 0. 0.
      0. 0. 0. 0. 0. 0. 0. 0. 0. 0. 0. 0. 0. 0. 0. 0. 0. 0. 0. 0. 0. 0.
      0. 0. 0. 0. 0. 0. 0. 0. 0. 0. 0. 0. 0. 0. 0. 0. 0. 0. 0. 0. 0. 0.
      0. 0. 0. 0. 0. 0. 0. 0. 0. 0. 0. 0. 0. 0. 0. 0. 0. 0. 0. 0. 0. 0.
      0. 0. 0. 0. 0. 0. 0. 0. 0. 0. 0. 0. 0. 0. 0. 0. 0. 0. 0. 0. 0. 0.
      0. 0. 0. 0. 0. 0. 0. 0. 0. 0. 0. 0. 0. 0. 0. 0. 0. 0. 0. 0. 0. 0.
      0. 0. 0. 0. 0. 0. 0.</_>
    <_>
      37. 60. 122. 107. 113. 123. 100. 56. 35. 44. 47. 48. 48. 48. 47.
      45. 0. 0. 0. 0. 0. 0. 0. 0. 0. 0. 0. 0. 39. 111. 191. 187. 186.
      194. 161. 78. 28. 33. 45. 47. 46. 48. 47. 46. 0. 0. 0. 0. 0. 0. 0.
      0. 0. 0. 0. 0. 76. 151. 227. 229. 228. 231. 213. 120. 50. 54. 51.
      46. 38. 53. 46. 54. 0. 0. 0. 0. 0. 0. 0. 0. 0. 0. 0. 0. 122. 184.
      235. 237. 240. 243. 236. 162. 96. 99. 91. 61. 23. 24. 42. 45. 0.
      0. 0. 0. 0. 0. 0. 0. 0. 0. 0. 0. 161. 212. 236. 239. 242. 244.
      239. 190. 133. 129. 148. 126. 55. 25. 32. 31. 0. 0. 0. 0. 0. 0. 0.
      0. 0. 0. 0. 0. 193. 226. 239. 243. 247. 246. 242. 216. 179. 173.
      191. 198. 145. 48. 20. 24. 0. 0. 0. 0. 0. 0. 0. 0. 0. 0. 0. 0.
      218. 230. 241. 245. 253. 250. 247. 241. 224. 223. 218. 225. 214.
      96. 16. 25. 0. 0. 0. 0. 0. 0. 0. 0. 0. 0. 0. 0. 231. 236. 243.
      247. 252. 249. 246. 242. 229. 229. 225. 226. 226. 139. 16. 24. 0.
      0. 0. 0. 0. 0. 0. 0. 0. 0. 0. 0. 241. 243. 248. 250. 254. 254.
      252. 247. 244. 244. 241. 238. 237. 169. 21. 17. 0. 0. 0. 0. 0. 0.
      0. 0. 0. 0. 0. 0. 245. 246. 248. 249. 253. 254. 254. 252. 246.
      245. 242. 244. 242. 182. 27. 22. 0. 0. 0. 0. 0. 0. 0. 0. 0. 0. 0.
      0. 253. 254. 253. 252. 252. 252. 254. 254. 253. 252. 249. 250.
      244. 204. 88. 26. 0. 0. 0. 0. 0. 0. 0. 0. 0. 0. 0. 0. 254. 254.
      253. 252. 252. 253. 254. 254. 254. 252. 248. 252. 249. 232. 152.
      43. 0. 0. 0. 0. 0. 0. 0. 0. 0. 0. 0. 0. 254. 253. 253. 253. 252.
      253. 254. 254. 254. 253. 251. 251. 250. 246. 190. 72. 0. 0. 0. 0.
      0. 0. 0. 0. 0. 0. 0. 0. 252. 252. 253. 252. 252. 253. 254. 254.
      254. 254. 252. 249. 249. 251. 217. 106. 0. 0. 0. 0. 0. 0. 0. 0. 0.
      0. 0. 0. 250. 252. 254. 253. 252. 253. 254. 254. 254. 252. 251.
      250. 251. 253. 232. 135. 0. 0. 0. 0. 0. 0. 0. 0. 0. 0. 0. 0. 253.
      253. 254. 253. 252. 253. 254. 254. 254. 252. 251. 253. 252. 252.
      238. 147. 0. 0. 0. 0. 0. 0. 0. 0. 0. 0. 0. 0. 254. 254. 254. 252.
      252. 253. 254. 254. 254. 253. 252. 253. 251. 250. 238. 150. 0. 0.
      0. 0. 0. 0. 0. 0. 0. 0. 0. 0. 252. 253. 254. 252. 252. 253. 254.
      254. 254. 253. 253. 251. 249. 249. 235. 145. 0. 0. 0. 0. 0. 0. 0.
      0. 0. 0. 0. 0. 252. 251. 251. 253. 253. 254. 251. 250. 252. 253.
      252. 250. 249. 252. 237. 134. 0. 0. 0. 0. 0. 0. 0. 0. 0. 0. 0. 0.
      251. 251. 250. 252. 254. 253. 252. 250. 252. 252. 250. 252. 248.
      249. 236. 130. 0. 0. 0. 0. 0. 0. 0. 0. 0. 0. 0. 0. 250. 250. 246.
      246. 250. 247. 251. 252. 250. 249. 247. 250. 247. 249. 238. 128.
      0. 0. 0. 0. 0. 0. 0. 0. 0. 0. 0. 0. 250. 249. 246. 236. 236. 235.
      248. 250. 246. 245. 240. 239. 243. 246. 235. 117. 0. 0. 0. 0. 0.
      0. 0. 0. 0. 0. 0. 0. 242. 242. 237. 192. 183. 206. 240. 244. 243.
      236. 220. 206. 228. 244. 232. 112. 0. 0. 0. 0. 0. 0. 0. 0. 0. 0.
      0. 0. 237. 239. 212. 117. 103. 157. 229. 236. 237. 204. 159. 138.
      190. 231. 229. 108. 0. 0. 0. 0. 0. 0. 0. 0. 0. 0. 0. 0. 225. 235.
      178. 61. 47. 114. 219. 230. 226. 145. 84. 67. 137. 206. 214. 94.
      0. 0. 0. 0. 0. 0. 0. 0. 0. 0. 0. 0. 194. 211. 138. 40. 36. 76.
      193. 210. 183. 83. 42. 40. 100. 158. 165. 74. 0. 0. 0. 0. 0. 0. 0.
      0. 0. 0. 0. 0. 0. 0. 0. 0. 0. 0. 0. 0. 0. 0. 0. 0. 0. 0. 0. 0. 0.
      0. 0. 0. 0. 0. 0. 0. 0. 0. 0. 0. 0. 0. 0. 0. 0. 0. 0. 0. 0. 0. 0.
      0. 0. 0. 0. 0. 0. 0. 0. 0. 0. 0. 0. 0. 0. 0. 0. 0.</_>
    <_>
      67. 78. 95. 129. 127. 128. 128. 127. 129. 134. 138. 143. 144. 146.
      150. 151. 142. 132. 131. 129. 119. 109. 109. 0. 0. 0. 0. 0. 117.
      115. 57. 47. 52. 49. 53. 52. 48. 48. 50. 51. 50. 48. 45. 50. 54.
      55. 59. 61. 60. 65. 82. 0. 0. 0. 0. 0. 132. 73. 30. 35. 47. 56.
      50. 49. 50. 51. 54. 56. 58. 59. 68. 77. 74. 60. 53. 53. 67. 105.
      149. 0. 0. 0. 0. 0. 121. 19. 21. 48. 55. 64. 56. 58. 64. 68. 72.
      74. 78. 81. 77. 72. 61. 58. 77. 107. 138. 178. 209. 0. 0. 0. 0. 0.
      113. 21. 25. 56. 61. 57. 56. 64. 71. 76. 78. 78. 80. 83. 80. 64.
      50. 71. 137. 187. 202. 213. 223. 0. 0. 0. 0. 0. 105. 18. 20. 54.
      60. 58. 52. 75. 79. 84. 86. 80. 85. 88. 83. 58. 64. 121. 188. 220.
      229. 231. 233. 0. 0. 0. 0. 0. 108. 18. 33. 68. 63. 64. 93. 75. 58.
      91. 118. 109. 112. 122. 101. 85. 119. 183. 218. 225. 233. 239.
      242. 0. 0. 0. 0. 0. 111. 24. 26. 52. 63. 74. 61. 51. 63. 139. 198.
      197. 196. 202. 171. 156. 181. 217. 231. 230. 236. 242. 244. 0. 0.
      0. 0. 0. 120. 30. 24. 48. 57. 56. 80. 117. 151. 209. 240. 239.
      238. 238. 226. 216. 219. 228. 234. 235. 242. 245. 245. 0. 0. 0. 0.
      0. 123. 30. 37. 55. 47. 64. 179. 218. 234. 242. 250. 250. 252.
      247. 245. 243. 242. 242. 244. 245. 249. 248. 245. 0. 0. 0. 0. 0.
      117. 29. 31. 34. 66. 152. 232. 243. 247. 248. 251. 249. 254. 252.
      247. 251. 251. 251. 251. 251. 253. 253. 247. 0. 0. 0. 0. 0. 121.
      29. 20. 58. 148. 236. 248. 249. 249. 251. 252. 251. 253. 253. 250.
      253. 251. 250. 252. 252. 252. 253. 247. 0. 0. 0. 0. 0. 128. 33.
      43. 142. 226. 246. 248. 251. 250. 251. 253. 252. 254. 252. 251.
      253. 253. 251. 254. 253. 251. 252. 246. 0. 0. 0. 0. 0. 121. 31.
      72. 181. 247. 252. 253. 253. 252. 251. 250. 251. 254. 253. 250.
      252. 253. 254. 254. 253. 249. 252. 245. 0. 0. 0. 0. 0. 124. 31.
      78. 197. 252. 253. 254. 254. 253. 251. 248. 250. 254. 254. 251.
      250. 251. 253. 253. 253. 250. 249. 243. 0. 0. 0. 0. 0. 121. 32.
      92. 211. 251. 250. 253. 254. 252. 252. 250. 250. 253. 253. 252.
      252. 253. 253. 254. 253. 250. 248. 242. 0. 0. 0. 0. 0. 113. 47.
      126. 228. 250. 249. 254. 253. 252. 252. 250. 251. 253. 253. 254.
      254. 255. 255. 255. 254. 252. 250. 247. 0. 0. 0. 0. 0. 0. 0. 0. 0.
      0. 0. 0. 0. 0. 0. 0. 0. 0. 0. 0. 0. 0. 0. 0. 0. 0. 0. 0. 0. 0. 0.
      0. 0. 0. 0. 0. 0. 0. 0. 0. 0. 0. 0. 0. 0. 0. 0. 0. 0. 0. 0. 0. 0.
      0. 0. 0. 0. 0. 0. 0. 0. 0. 0. 0. 0. 0. 0. 0. 0. 0. 0. 0. 0. 0. 0.
      0. 0. 0. 0. 0. 0. 0. 0. 0. 0. 0. 0. 0. 0. 0. 0. 0. 0. 0. 0. 0. 0.
      0. 0. 0. 0. 0. 0. 0. 0. 0. 0. 0. 0. 0. 0. 0. 0. 0. 0. 0. 0. 0. 0.
      0. 0. 0. 0. 0. 0. 0. 0. 0. 0. 0. 0. 0. 0. 0. 0. 0. 0. 0. 0. 0. 0.
      0. 0. 0. 0. 0. 0. 0. 0. 0. 0. 0. 0. 0. 0. 0. 0. 0. 0. 0. 0. 0. 0.
      0. 0. 0. 0. 0. 0. 0. 0. 0. 0. 0. 0. 0. 0. 0. 0. 0. 0. 0. 0. 0. 0.
      0. 0. 0. 0. 0. 0. 0. 0. 0. 0. 0. 0. 0. 0. 0. 0. 0. 0. 0. 0. 0. 0.
      0. 0. 0. 0. 0. 0. 0. 0. 0. 0. 0. 0. 0. 0. 0. 0. 0. 0. 0. 0. 0. 0.
      0. 0. 0. 0. 0. 0. 0. 0. 0. 0. 0. 0. 0. 0. 0. 0. 0. 0. 0. 0. 0. 0.
      0. 0. 0. 0. 0. 0. 0. 0. 0. 0. 0. 0. 0. 0. 0. 0. 0. 0. 0. 0. 0. 0.
      0. 0. 0. 0. 0. 0. 0. 0. 0. 0. 0. 0. 0. 0. 0. 0. 0. 0. 0. 0. 0. 0.
      0. 0. 0. 0. 0. 0. 0. 0. 0. 0. 0. 0. 0. 0. 0. 0. 0. 0.</_>
    <_>
      188. 194. 195. 184. 168. 138. 97. 50. 31. 43. 49. 63. 85. 91. 89.
      91. 86. 64. 40. 27. 31. 40. 45. 45. 41. 41. 0. 0. 239. 241. 243.
      239. 232. 216. 165. 75. 40. 61. 80. 103. 124. 130. 133. 135. 127.
      106. 80. 62. 53. 47. 46. 49. 52. 55. 0. 0. 245. 248. 250. 250.
      243. 241. 211. 114. 68. 96. 113. 124. 138. 144. 145. 144. 138.
      128. 115. 103. 83. 58. 44. 38. 44. 48. 0. 0. 249. 250. 250. 248.
      247. 243. 222. 161. 118. 127. 137. 138. 146. 152. 151. 148. 146.
      145. 140. 134. 117. 88. 57. 37. 38. 44. 0. 0. 253. 253. 251. 248.
      242. 238. 229. 204. 166. 145. 148. 150. 153. 157. 155. 152. 153.
      153. 149. 146. 137. 124. 88. 42. 25. 33. 0. 0. 253. 253. 248. 242.
      233. 227. 227. 221. 187. 154. 150. 154. 156. 156. 154. 153. 154.
      155. 153. 151. 143. 135. 114. 77. 40. 20. 0. 0. 252. 251. 246.
      241. 234. 213. 203. 199. 179. 153. 152. 158. 157. 156. 158. 158.
      157. 156. 156. 157. 152. 149. 139. 120. 67. 22. 0. 0. 252. 251.
      238. 236. 214. 186. 168. 161. 154. 150. 156. 158. 158. 155. 158.
      162. 159. 156. 156. 156. 153. 149. 144. 143. 85. 29. 0. 0. 250.
      225. 181. 168. 152. 147. 146. 143. 148. 160. 172. 171. 174. 156.
      155. 166. 171. 171. 169. 157. 151. 145. 139. 145. 91. 36. 0. 0.
      223. 154. 89. 83. 102. 119. 141. 149. 158. 178. 198. 200. 202.
      169. 158. 178. 194. 198. 198. 172. 153. 144. 136. 141. 88. 35. 0.
      0. 164. 79. 46. 74. 109. 123. 146. 155. 163. 187. 211. 215. 219.
      178. 163. 190. 210. 217. 218. 183. 155. 143. 135. 141. 108. 59. 0.
      0. 135. 52. 48. 102. 133. 141. 149. 153. 158. 177. 198. 203. 204.
      172. 163. 185. 202. 208. 210. 179. 158. 146. 135. 145. 137. 84. 0.
      0. 180. 99. 73. 106. 142. 150. 154. 151. 151. 156. 163. 166. 159.
      154. 151. 155. 161. 163. 158. 150. 149. 149. 149. 145. 155. 110.
      0. 0. 231. 179. 132. 129. 159. 158. 156. 153. 153. 154. 154. 151.
      150. 152. 154. 154. 150. 148. 149. 150. 147. 148. 149. 145. 158.
      114. 0. 0. 245. 231. 204. 192. 190. 180. 167. 158. 159. 159. 159.
      156. 160. 161. 161. 159. 157. 156. 158. 159. 157. 154. 151. 146.
      155. 115. 0. 0. 249. 247. 240. 234. 218. 210. 198. 190. 185. 179.
      169. 164. 168. 174. 176. 170. 163. 161. 167. 172. 184. 173. 157.
      148. 151. 116. 0. 0. 253. 251. 245. 240. 233. 230. 226. 222. 213.
      198. 179. 168. 183. 193. 198. 190. 174. 168. 183. 198. 196. 184.
      163. 152. 151. 115. 0. 0. 251. 250. 248. 245. 239. 237. 231. 226.
      214. 207. 198. 197. 199. 190. 184. 187. 193. 195. 192. 188. 177.
      169. 155. 153. 148. 117. 0. 0. 251. 251. 250. 251. 253. 250. 239.
      223. 202. 190. 196. 200. 189. 169. 157. 166. 186. 191. 177. 159.
      152. 150. 143. 149. 141. 117. 0. 0. 253. 253. 248. 247. 251. 248.
      234. 202. 165. 143. 142. 150. 153. 151. 149. 149. 151. 152. 150.
      146. 145. 144. 139. 147. 137. 118. 0. 0. 253. 253. 251. 247. 246.
      246. 227. 183. 145. 129. 131. 139. 146. 153. 151. 144. 141. 139.
      135. 129. 137. 148. 139. 144. 156. 121. 0. 0. 232. 236. 238. 237.
      233. 230. 202. 160. 138. 129. 117. 118. 137. 145. 142. 143. 144.
      126. 117. 121. 129. 147. 145. 146. 151. 109. 0. 0. 156. 159. 160.
      153. 146. 158. 157. 142. 128. 102. 69. 69. 102. 137. 141. 138.
      125. 79. 47. 64. 105. 145. 159. 143. 111. 67. 0. 0. 72. 64. 49.
      39. 43. 84. 134. 150. 126. 75. 41. 39. 67. 106. 120. 113. 95. 56.
      24. 38. 79. 121. 144. 119. 70. 38. 0. 0. 67. 66. 61. 51. 41. 49.
      62. 59. 44. 34. 43. 48. 44. 60. 75. 76. 61. 48. 44. 48. 55. 75.
      91. 78. 48. 36. 0. 0. 0. 0. 0. 0. 0. 0. 0. 0. 0. 0. 0. 0. 0. 0. 0.
      0. 0. 0. 0. 0. 0. 0. 0. 0. 0. 0. 0. 0. 0. 0. 0. 0. 0. 0. 0. 0. 0.
      0. 0. 0. 0. 0. 0. 0. 0. 0. 0. 0. 0. 0. 0. 0. 0. 0. 0. 0. 0. 0. 0.
      0. 0. 0. 0. 0. 0. 0. 0. 0. 0. 0. 0. 0. 0. 0. 0. 0. 0. 0. 0. 0. 0.
      0. 0. 0.</_>
    <_>
      50. 43. 20. 68. 172. 184. 115. 26. 36. 58. 60. 60. 58. 58. 60. 58.
      54. 44. 43. 77. 93. 102. 110. 0. 0. 0. 0. 0. 49. 47. 17. 79. 224.
      236. 160. 22. 30. 60. 66. 67. 69. 68. 70. 72. 59. 58. 32. 29. 61.
      119. 149. 0. 0. 0. 0. 0. 44. 31. 19. 94. 228. 240. 168. 29. 43.
      83. 92. 92. 99. 93. 91. 93. 67. 63. 54. 46. 53. 72. 81. 0. 0. 0.
      0. 0. 50. 34. 22. 73. 153. 176. 140. 72. 117. 160. 170. 169. 172.
      164. 157. 155. 116. 59. 54. 64. 63. 49. 49. 0. 0. 0. 0. 0. 53. 45.
      28. 42. 86. 117. 133. 160. 212. 235. 243. 243. 246. 241. 235. 234.
      199. 126. 79. 63. 70. 67. 71. 0. 0. 0. 0. 0. 50. 40. 34. 63. 121.
      160. 188. 228. 244. 251. 252. 252. 253. 252. 251. 249. 249. 213.
      188. 152. 81. 42. 57. 0. 0. 0. 0. 0. 46. 34. 54. 122. 197. 234.
      242. 246. 247. 254. 254. 253. 253. 252. 252. 250. 249. 246. 244.
      221. 144. 66. 46. 0. 0. 0. 0. 0. 42. 42. 99. 184. 235. 246. 248.
      250. 252. 255. 255. 255. 255. 255. 254. 253. 253. 250. 250. 246.
      207. 118. 48. 0. 0. 0. 0. 0. 35. 54. 140. 221. 244. 245. 246. 249.
      253. 254. 253. 253. 253. 253. 254. 254. 254. 249. 246. 247. 245.
      164. 57. 0. 0. 0. 0. 0. 32. 74. 170. 232. 241. 244. 249. 251. 252.
      253. 253. 254. 254. 254. 254. 254. 254. 255. 252. 250. 250. 183.
      75. 0. 0. 0. 0. 0. 54. 125. 200. 231. 231. 235. 242. 245. 247.
      251. 252. 253. 254. 255. 255. 253. 253. 255. 252. 243. 248. 219.
      146. 0. 0. 0. 0. 0. 91. 181. 223. 224. 222. 223. 228. 233. 236.
      241. 243. 247. 249. 251. 252. 254. 254. 254. 253. 248. 251. 243.
      202. 0. 0. 0. 0. 0. 107. 199. 225. 218. 217. 220. 223. 224. 227.
      233. 236. 241. 246. 251. 252. 254. 254. 253. 253. 251. 250. 242.
      172. 0. 0. 0. 0. 0. 104. 199. 223. 221. 211. 212. 218. 216. 216.
      217. 219. 223. 228. 234. 239. 246. 248. 252. 252. 251. 251. 231.
      106. 0. 0. 0. 0. 0. 106. 206. 223. 221. 218. 218. 216. 214. 216.
      216. 218. 222. 227. 234. 238. 245. 247. 250. 252. 252. 250. 223.
      80. 0. 0. 0. 0. 0. 100. 206. 221. 218. 218. 218. 216. 218. 222.
      225. 227. 231. 235. 240. 243. 248. 248. 249. 254. 253. 251. 221.
      79. 0. 0. 0. 0. 0. 98. 210. 223. 217. 216. 216. 218. 223. 228.
      230. 233. 236. 239. 244. 246. 250. 251. 252. 251. 252. 251. 221.
      83. 0. 0. 0. 0. 0. 87. 200. 226. 225. 224. 224. 228. 232. 241.
      245. 246. 248. 249. 250. 251. 253. 254. 253. 251. 253. 246. 195.
      74. 0. 0. 0. 0. 0. 53. 137. 207. 228. 229. 230. 234. 236. 245.
      249. 250. 250. 251. 251. 252. 254. 254. 254. 253. 250. 223. 137.
      52. 0. 0. 0. 0. 0. 26. 66. 176. 234. 242. 243. 248. 249. 252. 253.
      254. 254. 253. 253. 254. 254. 252. 251. 253. 241. 183. 73. 38. 0.
      0. 0. 0. 0. 25. 27. 160. 236. 244. 245. 248. 250. 253. 254. 255.
      255. 254. 254. 254. 255. 251. 251. 251. 232. 152. 41. 51. 0. 0. 0.
      0. 0. 34. 22. 96. 206. 241. 245. 247. 247. 250. 251. 251. 251.
      252. 252. 252. 251. 249. 250. 238. 188. 104. 40. 67. 0. 0. 0. 0.
      0. 53. 26. 33. 114. 211. 244. 247. 247. 249. 250. 250. 251. 251.
      250. 250. 251. 248. 237. 193. 112. 53. 51. 68. 0. 0. 0. 0. 0. 51.
      48. 20. 40. 118. 162. 190. 236. 239. 251. 253. 249. 251. 252. 249.
      233. 206. 171. 119. 62. 49. 66. 72. 0. 0. 0. 0. 0. 52. 67. 53. 45.
      59. 56. 90. 175. 226. 251. 253. 235. 234. 239. 220. 171. 109. 80.
      68. 53. 60. 72. 68. 0. 0. 0. 0. 0. 55. 58. 59. 65. 62. 40. 44. 86.
      118. 136. 144. 139. 140. 147. 131. 93. 47. 46. 65. 68. 66. 65. 62.
      0. 0. 0. 0. 0. 0. 0. 0. 0. 0. 0. 0. 0. 0. 0. 0. 0. 0. 0. 0. 0. 0.
      0. 0. 0. 0. 0. 0. 0. 0. 0. 0. 0. 0. 0. 0. 0. 0. 0. 0. 0. 0. 0. 0.
      0. 0. 0. 0. 0. 0. 0. 0. 0. 0. 0. 0. 0. 0. 0. 0. 0.</_>
    <_>
      17. 26. 21. 65. 133. 103. 27. 12. 9. 21. 13. 15. 63. 100. 104.
      106. 100. 88. 111. 108. 48. 14. 19. 0. 0. 0. 0. 0. 18. 17. 51.
      129. 205. 195. 94. 10. 10. 16. 9. 29. 114. 178. 186. 183. 182.
      184. 200. 193. 117. 34. 12. 0. 0. 0. 0. 0. 14. 20. 119. 218. 238.
      238. 171. 23. 6. 16. 21. 70. 178. 232. 223. 212. 204. 212. 217.
      226. 201. 98. 20. 0. 0. 0. 0. 0. 11. 48. 175. 245. 244. 241. 186.
      28. 8. 23. 25. 119. 233. 233. 168. 103. 98. 122. 191. 230. 231.
      182. 37. 0. 0. 0. 0. 0. 12. 53. 166. 242. 244. 237. 184. 34. 7.
      15. 28. 116. 197. 167. 95. 45. 62. 125. 205. 231. 237. 215. 56. 0.
      0. 0. 0. 0. 18. 30. 104. 210. 247. 241. 180. 28. 9. 17. 22. 46.
      74. 73. 75. 95. 125. 192. 228. 235. 235. 188. 71. 0. 0. 0. 0. 0.
      32. 18. 60. 181. 246. 242. 182. 29. 13. 38. 43. 27. 36. 70. 139.
      199. 210. 229. 235. 233. 204. 122. 63. 0. 0. 0. 0. 0. 53. 32. 65.
      183. 246. 239. 176. 40. 16. 41. 44. 38. 77. 144. 204. 233. 235.
      236. 238. 221. 144. 54. 48. 0. 0. 0. 0. 0. 50. 32. 66. 183. 249.
      243. 177. 49. 15. 28. 29. 59. 133. 202. 228. 234. 236. 232. 220.
      160. 72. 24. 41. 0. 0. 0. 0. 0. 41. 32. 74. 185. 249. 244. 181.
      66. 22. 30. 49. 124. 204. 234. 239. 237. 220. 189. 153. 87. 38.
      27. 31. 0. 0. 0. 0. 0. 45. 54. 102. 193. 243. 244. 197. 96. 40.
      33. 61. 163. 236. 242. 242. 231. 180. 124. 103. 90. 88. 64. 28. 0.
      0. 0. 0. 0. 96. 157. 179. 215. 238. 235. 228. 193. 152. 87. 66.
      170. 242. 240. 240. 234. 203. 172. 171. 179. 184. 144. 60. 0. 0.
      0. 0. 0. 122. 218. 237. 239. 240. 240. 237. 235. 219. 133. 72.
      147. 225. 234. 227. 226. 221. 214. 218. 222. 215. 174. 82. 0. 0.
      0. 0. 0. 83. 145. 147. 139. 138. 141. 136. 138. 139. 78. 32. 67.
      112. 128. 123. 118. 116. 116. 123. 120. 122. 106. 54. 0. 0. 0. 0.
      0. 0. 0. 0. 0. 0. 0. 0. 0. 0. 0. 0. 0. 0. 0. 0. 0. 0. 0. 0. 0. 0.
      0. 0. 0. 0. 0. 0. 0. 0. 0. 0. 0. 0. 0. 0. 0. 0. 0. 0. 0. 0. 0. 0.
      0. 0. 0. 0. 0. 0. 0. 0. 0. 0. 0. 0. 0. 0. 0. 0. 0. 0. 0. 0. 0. 0.
      0. 0. 0. 0. 0. 0. 0. 0. 0. 0. 0. 0. 0. 0. 0. 0. 0. 0. 0. 0. 0. 0.
      0. 0. 0. 0. 0. 0. 0. 0. 0. 0. 0. 0. 0. 0. 0. 0. 0. 0. 0. 0. 0. 0.
      0. 0. 0. 0. 0. 0. 0. 0. 0. 0. 0. 0. 0. 0. 0. 0. 0. 0. 0. 0. 0. 0.
      0. 0. 0. 0. 0. 0. 0. 0. 0. 0. 0. 0. 0. 0. 0. 0. 0. 0. 0. 0. 0. 0.
      0. 0. 0. 0. 0. 0. 0. 0. 0. 0. 0. 0. 0. 0. 0. 0. 0. 0. 0. 0. 0. 0.
      0. 0. 0. 0. 0. 0. 0. 0. 0. 0. 0. 0. 0. 0. 0. 0. 0. 0. 0. 0. 0. 0.
      0. 0. 0. 0. 0. 0. 0. 0. 0. 0. 0. 0. 0. 0. 0. 0. 0. 0. 0. 0. 0. 0.
      0. 0. 0. 0. 0. 0. 0. 0. 0. 0. 0. 0. 0. 0. 0. 0. 0. 0. 0. 0. 0. 0.
      0. 0. 0. 0. 0. 0. 0. 0. 0. 0. 0. 0. 0. 0. 0. 0. 0. 0. 0. 0. 0. 0.
      0. 0. 0. 0. 0. 0. 0. 0. 0. 0. 0. 0. 0. 0. 0. 0. 0. 0. 0. 0. 0. 0.
      0. 0. 0. 0. 0. 0. 0. 0. 0. 0. 0. 0. 0. 0. 0. 0. 0. 0. 0. 0. 0. 0.
      0. 0. 0. 0. 0. 0. 0. 0. 0. 0. 0. 0. 0. 0. 0. 0. 0. 0. 0. 0. 0. 0.
      0. 0. 0. 0. 0. 0. 0. 0. 0. 0. 0. 0. 0. 0. 0. 0. 0. 0. 0. 0. 0. 0.
      0. 0. 0. 0. 0. 0. 0. 0. 0. 0. 0. 0. 0. 0. 0. 0. 0. 0. 0. 0. 0. 0.
      0. 0. 0. 0. 0. 0. 0. 0. 0. 0. 0. 0. 0. 0. 0. 0. 0. 0. 0.</_>
    <_>
      69. 33. 18. 23. 25. 29. 72. 152. 174. 119. 12. 25. 40. 38. 40. 27.
      23. 92. 169. 161. 87. 32. 21. 30. 0. 0. 0. 0. 71. 50. 29. 20. 27.
      63. 153. 216. 224. 155. 23. 17. 30. 43. 32. 18. 32. 138. 216. 215.
      157. 74. 26. 24. 0. 0. 0. 0. 58. 69. 57. 34. 44. 117. 213. 231.
      221. 166. 50. 24. 23. 32. 27. 15. 45. 169. 226. 229. 211. 120. 35.
      20. 0. 0. 0. 0. 39. 62. 78. 58. 62. 147. 224. 223. 218. 192. 129.
      42. 19. 26. 19. 25. 125. 209. 222. 223. 225. 148. 48. 21. 0. 0. 0.
      0. 22. 39. 86. 98. 98. 165. 223. 223. 219. 214. 179. 71. 23. 36.
      21. 60. 188. 226. 218. 220. 221. 178. 91. 37. 0. 0. 0. 0. 18. 31.
      100. 146. 152. 192. 219. 220. 216. 221. 199. 87. 26. 39. 29. 83.
      218. 226. 216. 221. 216. 212. 166. 69. 0. 0. 0. 0. 19. 30. 112.
      176. 201. 222. 220. 219. 215. 218. 191. 92. 29. 35. 34. 78. 213.
      229. 211. 220. 216. 228. 224. 101. 0. 0. 0. 0. 16. 24. 110. 195.
      227. 235. 228. 222. 222. 221. 196. 122. 60. 36. 49. 105. 205. 230.
      214. 221. 227. 231. 241. 119. 0. 0. 0. 0. 16. 22. 102. 201. 236.
      237. 232. 226. 225. 224. 215. 175. 104. 44. 76. 173. 214. 227.
      224. 227. 238. 236. 248. 127. 0. 0. 0. 0. 28. 32. 83. 193. 242.
      245. 242. 238. 233. 228. 228. 207. 135. 59. 112. 221. 225. 225.
      231. 233. 243. 240. 249. 138. 0. 0. 0. 0. 54. 46. 58. 172. 238.
      246. 247. 246. 236. 229. 230. 214. 148. 82. 136. 225. 226. 229.
      236. 238. 248. 248. 253. 151. 0. 0. 0. 0. 87. 61. 49. 177. 240.
      248. 249. 249. 246. 239. 234. 221. 178. 140. 172. 221. 228. 236.
      240. 241. 249. 248. 246. 159. 0. 0. 0. 0. 74. 35. 32. 171. 239.
      249. 249. 250. 250. 245. 240. 234. 216. 201. 212. 225. 234. 239.
      249. 249. 253. 254. 249. 158. 0. 0. 0. 0. 49. 30. 33. 163. 236.
      251. 250. 251. 251. 247. 245. 243. 234. 225. 226. 231. 237. 241.
      248. 248. 248. 251. 244. 131. 0. 0. 0. 0. 36. 32. 35. 147. 232.
      251. 251. 252. 252. 250. 248. 246. 242. 239. 238. 241. 246. 249.
      253. 253. 254. 254. 236. 110. 0. 0. 0. 0. 36. 39. 27. 115. 207.
      244. 249. 250. 251. 251. 251. 249. 247. 244. 242. 244. 248. 250.
      253. 253. 254. 248. 205. 80. 0. 0. 0. 0. 43. 48. 24. 70. 159. 234.
      247. 249. 248. 252. 253. 254. 255. 254. 253. 253. 255. 252. 250.
      251. 250. 225. 142. 45. 0. 0. 0. 0. 36. 43. 27. 43. 109. 215. 243.
      248. 246. 250. 252. 254. 255. 254. 253. 254. 255. 250. 249. 253.
      247. 200. 86. 30. 0. 0. 0. 0. 35. 44. 42. 33. 74. 184. 230. 245.
      243. 248. 251. 253. 254. 254. 252. 252. 252. 249. 248. 248. 229.
      161. 59. 36. 0. 0. 0. 0. 37. 41. 41. 34. 48. 125. 196. 236. 239.
      245. 248. 249. 250. 252. 250. 250. 251. 246. 245. 233. 186. 111.
      43. 43. 0. 0. 0. 0. 38. 38. 37. 39. 41. 62. 134. 195. 213. 224.
      234. 240. 238. 240. 238. 237. 237. 226. 209. 178. 120. 62. 39. 44.
      0. 0. 0. 0. 35. 36. 40. 45. 49. 52. 86. 114. 133. 169. 220. 240.
      238. 233. 235. 236. 216. 166. 126. 102. 75. 48. 44. 46. 0. 0. 0.
      0. 32. 33. 39. 46. 51. 57. 65. 64. 71. 113. 173. 199. 193. 185.
      189. 192. 162. 102. 61. 59. 61. 55. 51. 50. 0. 0. 0. 0. 0. 0. 0.
      0. 0. 0. 0. 0. 0. 0. 0. 0. 0. 0. 0. 0. 0. 0. 0. 0. 0. 0. 0. 0. 0.
      0. 0. 0. 0. 0. 0. 0. 0. 0. 0. 0. 0. 0. 0. 0. 0. 0. 0. 0. 0. 0. 0.
      0. 0. 0. 0. 0. 0. 0. 0. 0. 0. 0. 0. 0. 0. 0. 0. 0. 0. 0. 0. 0. 0.
      0. 0. 0. 0. 0. 0. 0. 0. 0. 0. 0. 0. 0. 0. 0. 0. 0. 0. 0. 0. 0. 0.
      0. 0. 0. 0. 0. 0. 0. 0. 0. 0. 0. 0. 0. 0. 0. 0. 0. 0. 0. 0. 0. 0.
      0. 0. 0. 0. 0. 0. 0. 0. 0. 0. 0. 0. 0. 0. 0. 0. 0. 0. 0. 0. 0. 0.
      0. 0. 0. 0. 0.</_>
    <_>
      46. 19. 13. 33. 81. 112. 89. 46. 50. 60. 59. 67. 67. 45. 39. 94.
      112. 67. 20. 17. 33. 0. 0. 0. 0. 0. 0. 0. 48. 15. 20. 70. 145.
      187. 150. 75. 61. 79. 89. 92. 82. 55. 59. 175. 197. 128. 49. 18.
      30. 0. 0. 0. 0. 0. 0. 0. 50. 17. 49. 130. 204. 231. 194. 100. 67.
      87. 106. 100. 79. 64. 104. 219. 233. 189. 106. 35. 24. 0. 0. 0. 0.
      0. 0. 0. 52. 20. 86. 188. 233. 237. 215. 136. 73. 77. 92. 81. 68.
      82. 159. 228. 236. 227. 173. 64. 22. 0. 0. 0. 0. 0. 0. 0. 42. 37.
      132. 222. 240. 236. 234. 191. 103. 74. 77. 71. 76. 124. 214. 234.
      233. 240. 222. 90. 27. 0. 0. 0. 0. 0. 0. 0. 34. 79. 178. 237. 241.
      240. 242. 222. 152. 68. 74. 70. 77. 175. 228. 237. 239. 241. 240.
      143. 49. 0. 0. 0. 0. 0. 0. 0. 47. 139. 220. 241. 241. 243. 244.
      231. 162. 65. 67. 71. 85. 191. 233. 239. 243. 239. 241. 205. 87.
      0. 0. 0. 0. 0. 0. 0. 77. 194. 242. 242. 244. 247. 246. 240. 174.
      79. 64. 72. 108. 203. 237. 241. 243. 241. 245. 235. 137. 0. 0. 0.
      0. 0. 0. 0. 103. 212. 244. 244. 247. 244. 244. 245. 201. 116. 71.
      82. 148. 221. 238. 244. 245. 245. 246. 247. 178. 0. 0. 0. 0. 0. 0.
      0. 109. 217. 246. 249. 252. 249. 248. 248. 230. 161. 82. 97. 193.
      237. 240. 247. 249. 249. 244. 246. 194. 0. 0. 0. 0. 0. 0. 0. 109.
      217. 249. 250. 253. 254. 252. 247. 239. 187. 105. 122. 222. 242.
      242. 252. 252. 250. 244. 247. 204. 0. 0. 0. 0. 0. 0. 0. 111. 219.
      248. 249. 251. 254. 251. 248. 243. 211. 151. 166. 234. 243. 246.
      254. 252. 248. 250. 246. 205. 0. 0. 0. 0. 0. 0. 0. 119. 227. 245.
      248. 253. 253. 251. 251. 244. 233. 208. 211. 237. 243. 249. 254.
      253. 248. 252. 243. 191. 0. 0. 0. 0. 0. 0. 0. 107. 222. 245. 244.
      251. 252. 252. 251. 247. 246. 243. 240. 242. 244. 250. 253. 252.
      249. 249. 227. 166. 0. 0. 0. 0. 0. 0. 0. 67. 179. 241. 246. 247.
      251. 252. 252. 250. 250. 249. 249. 249. 251. 253. 252. 246. 244.
      250. 218. 120. 0. 0. 0. 0. 0. 0. 0. 37. 112. 214. 243. 245. 249.
      251. 252. 252. 251. 249. 250. 251. 252. 252. 253. 252. 253. 236.
      164. 63. 0. 0. 0. 0. 0. 0. 0. 29. 58. 166. 238. 246. 245. 251.
      253. 254. 253. 251. 252. 253. 252. 251. 248. 247. 246. 214. 117.
      30. 0. 0. 0. 0. 0. 0. 0. 28. 39. 126. 221. 241. 234. 246. 248.
      250. 251. 252. 252. 252. 250. 247. 245. 241. 230. 180. 87. 27. 0.
      0. 0. 0. 0. 0. 0. 34. 36. 78. 168. 222. 227. 236. 237. 241. 243.
      244. 243. 240. 238. 237. 235. 229. 199. 131. 55. 29. 0. 0. 0. 0.
      0. 0. 0. 41. 35. 43. 101. 179. 213. 212. 227. 237. 239. 239. 237.
      237. 237. 225. 206. 178. 135. 75. 32. 27. 0. 0. 0. 0. 0. 0. 0. 42.
      36. 41. 68. 113. 147. 154. 201. 225. 226. 225. 228. 228. 221. 180.
      137. 104. 76. 45. 29. 24. 0. 0. 0. 0. 0. 0. 0. 38. 39. 48. 59. 62.
      62. 83. 149. 198. 196. 184. 188. 185. 170. 114. 72. 58. 54. 47.
      36. 19. 0. 0. 0. 0. 0. 0. 0. 37. 40. 44. 47. 50. 52. 59. 96. 127.
      128. 122. 120. 115. 104. 69. 49. 49. 53. 51. 36. 17. 0. 0. 0. 0.
      0. 0. 0. 0. 0. 0. 0. 0. 0. 0. 0. 0. 0. 0. 0. 0. 0. 0. 0. 0. 0. 0.
      0. 0. 0. 0. 0. 0. 0. 0. 0. 0. 0. 0. 0. 0. 0. 0. 0. 0. 0. 0. 0. 0.
      0. 0. 0. 0. 0. 0. 0. 0. 0. 0. 0. 0. 0. 0. 0. 0. 0. 0. 0. 0. 0. 0.
      0. 0. 0. 0. 0. 0. 0. 0. 0. 0. 0. 0. 0. 0. 0. 0. 0. 0. 0. 0. 0. 0.
      0. 0. 0. 0. 0. 0. 0. 0. 0. 0. 0. 0. 0. 0. 0. 0. 0. 0. 0. 0. 0. 0.
      0. 0. 0. 0. 0. 0. 0. 0. 0. 0. 0. 0. 0. 0. 0. 0. 0. 0. 0. 0. 0. 0.
      0. 0. 0. 0. 0. 0. 0. 0. 0. 0. 0.</_>
    <_>
      198. 55. 6. 19. 70. 113. 96. 43. 11. 40. 145. 245. 209. 81. 22.
      81. 113. 80. 19. 13. 28. 0. 0. 0. 0. 0. 0. 0. 162. 41. 11. 62.
      143. 193. 157. 65. 13. 42. 138. 217. 177. 69. 48. 162. 209. 138.
      48. 14. 25. 0. 0. 0. 0. 0. 0. 0. 87. 24. 38. 127. 199. 228. 184.
      78. 18. 35. 98. 136. 94. 38. 68. 185. 228. 198. 129. 41. 18. 0. 0.
      0. 0. 0. 0. 0. 27. 18. 74. 180. 220. 225. 189. 107. 40. 25. 47.
      56. 32. 40. 112. 201. 224. 222. 179. 60. 12. 0. 0. 0. 0. 0. 0. 0.
      12. 31. 106. 202. 221. 215. 204. 164. 81. 25. 20. 21. 24. 84. 177.
      219. 217. 218. 189. 87. 24. 0. 0. 0. 0. 0. 0. 0. 12. 80. 157. 212.
      218. 211. 213. 203. 108. 31. 20. 27. 45. 121. 206. 222. 214. 214.
      199. 143. 66. 0. 0. 0. 0. 0. 0. 0. 22. 142. 215. 216. 217. 209.
      210. 211. 96. 32. 36. 32. 49. 137. 215. 217. 213. 213. 213. 195.
      126. 0. 0. 0. 0. 0. 0. 0. 44. 194. 234. 220. 212. 208. 211. 222.
      116. 37. 24. 26. 57. 144. 214. 217. 212. 214. 220. 219. 168. 0. 0.
      0. 0. 0. 0. 0. 62. 225. 242. 226. 214. 215. 215. 216. 149. 66. 34.
      39. 94. 168. 209. 214. 215. 220. 227. 231. 185. 0. 0. 0. 0. 0. 0.
      0. 69. 229. 242. 231. 226. 222. 211. 211. 203. 124. 57. 69. 153.
      204. 212. 215. 220. 226. 232. 239. 188. 0. 0. 0. 0. 0. 0. 0. 74.
      226. 246. 241. 240. 239. 215. 214. 218. 151. 70. 87. 178. 220.
      218. 222. 229. 232. 235. 240. 185. 0. 0. 0. 0. 0. 0. 0. 85. 224.
      247. 240. 241. 240. 229. 216. 217. 164. 94. 113. 190. 216. 221.
      229. 235. 239. 242. 245. 183. 0. 0. 0. 0. 0. 0. 0. 85. 216. 248.
      240. 245. 245. 243. 228. 219. 196. 148. 163. 205. 218. 225. 234.
      237. 241. 245. 246. 177. 0. 0. 0. 0. 0. 0. 0. 80. 202. 247. 242.
      247. 246. 246. 232. 220. 219. 183. 196. 218. 227. 232. 240. 242.
      246. 249. 242. 160. 0. 0. 0. 0. 0. 0. 0. 67. 170. 236. 243. 239.
      247. 243. 239. 233. 229. 207. 212. 224. 232. 235. 242. 241. 244.
      248. 229. 132. 0. 0. 0. 0. 0. 0. 0. 52. 119. 196. 242. 241. 246.
      244. 242. 241. 234. 226. 225. 231. 237. 239. 244. 238. 244. 243.
      181. 81. 0. 0. 0. 0. 0. 0. 0. 40. 74. 154. 236. 240. 240. 241.
      242. 243. 240. 238. 237. 238. 240. 239. 243. 244. 247. 219. 140.
      53. 0. 0. 0. 0. 0. 0. 0. 45. 51. 127. 216. 237. 235. 238. 243.
      244. 244. 246. 248. 248. 247. 244. 237. 241. 238. 187. 98. 38. 0.
      0. 0. 0. 0. 0. 0. 49. 40. 97. 177. 220. 229. 233. 237. 239. 239.
      242. 244. 242. 246. 242. 235. 237. 215. 145. 65. 29. 0. 0. 0. 0.
      0. 0. 0. 51. 32. 64. 125. 182. 206. 213. 225. 233. 234. 237. 241.
      236. 239. 229. 218. 202. 155. 91. 41. 30. 0. 0. 0. 0. 0. 0. 0. 51.
      25. 39. 81. 133. 154. 170. 206. 226. 227. 232. 236. 230. 233. 204.
      154. 136. 98. 61. 38. 36. 0. 0. 0. 0. 0. 0. 0. 49. 20. 31. 61. 90.
      92. 110. 164. 197. 193. 198. 198. 192. 189. 146. 84. 83. 67. 52.
      45. 39. 0. 0. 0. 0. 0. 0. 0. 43. 21. 30. 54. 66. 58. 71. 116. 146.
      140. 140. 137. 133. 129. 82. 55. 64. 57. 46. 42. 35. 0. 0. 0. 0.
      0. 0. 0. 0. 0. 0. 0. 0. 0. 0. 0. 0. 0. 0. 0. 0. 0. 0. 0. 0. 0. 0.
      0. 0. 0. 0. 0. 0. 0. 0. 0. 0. 0. 0. 0. 0. 0. 0. 0. 0. 0. 0. 0. 0.
      0. 0. 0. 0. 0. 0. 0. 0. 0. 0. 0. 0. 0. 0. 0. 0. 0. 0. 0. 0. 0. 0.
      0. 0. 0. 0. 0. 0. 0. 0. 0. 0. 0. 0. 0. 0. 0. 0. 0. 0. 0. 0. 0. 0.
      0. 0. 0. 0. 0. 0. 0. 0. 0. 0. 0. 0. 0. 0. 0. 0. 0. 0. 0. 0. 0. 0.
      0. 0. 0. 0. 0. 0. 0. 0. 0. 0. 0. 0. 0. 0. 0. 0. 0. 0. 0. 0. 0. 0.
      0. 0. 0. 0. 0. 0. 0. 0. 0. 0. 0.</_>
    <_>
      32. 19. 29. 84. 147. 151. 86. 35. 49. 58. 57. 55. 41. 38. 101.
      163. 146. 70. 15. 24. 36. 0. 0. 0. 0. 0. 0. 0. 21. 26. 74. 155.
      215. 217. 126. 36. 44. 69. 73. 61. 46. 55. 149. 227. 217. 136. 42.
      17. 32. 0. 0. 0. 0. 0. 0. 0. 14. 46. 145. 216. 239. 238. 154. 59.
      44. 65. 73. 53. 45. 89. 186. 236. 234. 192. 92. 23. 26. 0. 0. 0.
      0. 0. 0. 0. 15. 81. 195. 241. 241. 239. 183. 93. 44. 51. 61. 48.
      65. 142. 226. 238. 238. 223. 139. 34. 19. 0. 0. 0. 0. 0. 0. 0. 37.
      132. 220. 246. 246. 247. 236. 160. 65. 41. 50. 53. 105. 198. 246.
      246. 244. 238. 186. 66. 20. 0. 0. 0. 0. 0. 0. 0. 81. 184. 237.
      247. 247. 247. 246. 190. 85. 47. 50. 60. 139. 228. 248. 246. 247.
      247. 221. 123. 38. 0. 0. 0. 0. 0. 0. 0. 133. 229. 246. 250. 251.
      248. 250. 212. 92. 39. 40. 59. 153. 238. 247. 247. 249. 249. 237.
      181. 77. 0. 0. 0. 0. 0. 0. 0. 170. 239. 243. 250. 252. 250. 250.
      217. 109. 45. 42. 74. 169. 241. 249. 250. 252. 248. 246. 215. 108.
      0. 0. 0. 0. 0. 0. 0. 188. 242. 242. 250. 252. 252. 252. 230. 162.
      74. 55. 117. 198. 241. 248. 250. 250. 248. 246. 222. 121. 0. 0. 0.
      0. 0. 0. 0. 198. 246. 246. 251. 250. 251. 252. 241. 213. 104. 68.
      160. 225. 241. 248. 249. 250. 252. 250. 224. 123. 0. 0. 0. 0. 0.
      0. 0. 197. 246. 249. 253. 252. 251. 249. 246. 238. 140. 99. 187.
      234. 243. 249. 252. 253. 252. 249. 222. 126. 0. 0. 0. 0. 0. 0. 0.
      196. 242. 249. 251. 254. 254. 245. 246. 243. 181. 159. 211. 236.
      246. 248. 251. 252. 251. 248. 223. 119. 0. 0. 0. 0. 0. 0. 0. 151.
      245. 241. 248. 249. 254. 247. 247. 246. 217. 214. 232. 241. 248.
      246. 249. 248. 246. 250. 225. 111. 0. 0. 0. 0. 0. 0. 0. 146. 241.
      245. 249. 247. 255. 252. 250. 250. 235. 237. 242. 246. 248. 249.
      248. 251. 247. 247. 196. 82. 0. 0. 0. 0. 0. 0. 0. 102. 193. 243.
      246. 245. 254. 254. 248. 250. 243. 243. 247. 243. 247. 250. 249.
      248. 250. 229. 145. 49. 0. 0. 0. 0. 0. 0. 0. 58. 141. 236. 245.
      245. 254. 254. 246. 250. 248. 251. 252. 245. 251. 252. 250. 249.
      248. 186. 83. 25. 0. 0. 0. 0. 0. 0. 0. 39. 110. 220. 242. 241.
      245. 249. 250. 253. 253. 252. 249. 254. 251. 248. 247. 250. 244.
      148. 48. 19. 0. 0. 0. 0. 0. 0. 0. 30. 79. 181. 231. 238. 240. 244.
      251. 248. 251. 250. 245. 254. 241. 238. 238. 241. 203. 112. 40.
      26. 0. 0. 0. 0. 0. 0. 0. 22. 50. 125. 195. 225. 231. 238. 245.
      237. 243. 250. 242. 254. 239. 245. 237. 210. 129. 62. 37. 31. 0.
      0. 0. 0. 0. 0. 0. 21. 32. 72. 131. 171. 179. 211. 236. 232. 234.
      240. 237. 236. 231. 198. 175. 142. 65. 37. 38. 36. 0. 0. 0. 0. 0.
      0. 0. 21. 30. 52. 77. 93. 106. 158. 215. 222. 218. 220. 235. 213.
      201. 106. 76. 72. 45. 44. 42. 42. 0. 0. 0. 0. 0. 0. 0. 21. 32. 52.
      59. 56. 64. 99. 143. 163. 160. 152. 150. 140. 112. 68. 47. 51. 50.
      52. 44. 43. 0. 0. 0. 0. 0. 0. 0. 0. 0. 0. 0. 0. 0. 0. 0. 0. 0. 0.
      0. 0. 0. 0. 0. 0. 0. 0. 0. 0. 0. 0. 0. 0. 0. 0. 0. 0. 0. 0. 0. 0.
      0. 0. 0. 0. 0. 0. 0. 0. 0. 0. 0. 0. 0. 0. 0. 0. 0. 0. 0. 0. 0. 0.
      0. 0. 0. 0. 0. 0. 0. 0. 0. 0. 0. 0. 0. 0. 0. 0. 0. 0. 0. 0. 0. 0.
      0. 0. 0. 0. 0. 0. 0. 0. 0. 0. 0. 0. 0. 0. 0. 0. 0. 0. 0. 0. 0. 0.
      0. 0. 0. 0. 0. 0. 0. 0. 0. 0. 0. 0. 0. 0. 0. 0. 0. 0. 0. 0. 0. 0.
      0. 0. 0. 0. 0. 0. 0. 0. 0. 0. 0. 0. 0. 0. 0. 0. 0. 0. 0. 0. 0. 0.
      0. 0. 0. 0. 0. 0. 0. 0. 0. 0. 0. 0. 0. 0. 0. 0. 0. 0. 0. 0. 0. 0.
      0. 0. 0.</_>
    <_>
      35. 41. 46. 46. 53. 66. 62. 48. 46. 42. 22. 35. 135. 225. 170. 42.
      14. 48. 46. 55. 45. 39. 0. 0. 0. 0. 0. 0. 35. 42. 38. 35. 67. 112.
      113. 66. 34. 28. 13. 53. 179. 250. 222. 132. 94. 77. 30. 31. 35.
      40. 0. 0. 0. 0. 0. 0. 53. 41. 32. 53. 132. 200. 196. 104. 34. 23.
      17. 47. 151. 229. 216. 209. 216. 178. 93. 37. 21. 38. 0. 0. 0. 0.
      0. 0. 55. 29. 44. 120. 203. 236. 223. 134. 60. 49. 43. 30. 64.
      104. 110. 181. 232. 221. 166. 79. 23. 33. 0. 0. 0. 0. 0. 0. 60.
      41. 88. 204. 230. 229. 222. 172. 114. 84. 71. 51. 39. 46. 97. 192.
      229. 227. 208. 121. 29. 27. 0. 0. 0. 0. 0. 0. 77. 67. 109. 199.
      228. 229. 233. 226. 175. 110. 86. 85. 73. 92. 162. 217. 225. 224.
      216. 143. 34. 27. 0. 0. 0. 0. 0. 0. 85. 114. 164. 222. 229. 224.
      229. 232. 194. 115. 91. 100. 88. 127. 205. 223. 219. 217. 220.
      183. 92. 34. 0. 0. 0. 0. 0. 0. 94. 172. 211. 229. 229. 226. 226.
      229. 196. 111. 92. 101. 93. 146. 211. 217. 217. 222. 227. 223.
      166. 54. 0. 0. 0. 0. 0. 0. 155. 216. 229. 231. 229. 228. 226. 228.
      192. 114. 90. 91. 90. 151. 211. 217. 221. 229. 231. 234. 194. 70.
      0. 0. 0. 0. 0. 0. 206. 234. 241. 238. 234. 233. 230. 232. 208.
      152. 106. 88. 114. 178. 221. 224. 228. 235. 238. 238. 190. 69. 0.
      0. 0. 0. 0. 0. 216. 234. 242. 242. 240. 237. 231. 234. 226. 202.
      132. 94. 156. 211. 227. 228. 231. 240. 244. 244. 193. 70. 0. 0. 0.
      0. 0. 0. 211. 236. 247. 249. 248. 247. 239. 239. 237. 230. 154.
      116. 190. 231. 235. 236. 239. 245. 245. 244. 193. 75. 0. 0. 0. 0.
      0. 0. 211. 239. 250. 249. 249. 251. 246. 241. 239. 236. 181. 163.
      214. 237. 241. 244. 247. 249. 249. 246. 192. 75. 0. 0. 0. 0. 0. 0.
      209. 238. 248. 248. 249. 251. 249. 243. 246. 241. 217. 218. 238.
      243. 245. 247. 247. 248. 251. 246. 179. 66. 0. 0. 0. 0. 0. 0. 201.
      232. 241. 250. 250. 251. 251. 244. 251. 248. 241. 245. 248. 249.
      249. 250. 250. 251. 252. 222. 131. 43. 0. 0. 0. 0. 0. 0. 177. 226.
      232. 242. 249. 251. 251. 249. 253. 252. 248. 247. 250. 250. 250.
      251. 251. 253. 249. 173. 69. 22. 0. 0. 0. 0. 0. 0. 127. 191. 227.
      235. 248. 250. 253. 252. 255. 255. 249. 248. 253. 252. 254. 254.
      247. 250. 245. 140. 37. 25. 0. 0. 0. 0. 0. 0. 94. 158. 227. 234.
      245. 248. 253. 254. 254. 253. 250. 250. 253. 253. 253. 252. 253.
      253. 206. 104. 35. 30. 0. 0. 0. 0. 0. 0. 91. 140. 220. 235. 241.
      242. 249. 254. 253. 253. 252. 252. 253. 252. 253. 246. 248. 236.
      135. 38. 21. 39. 0. 0. 0. 0. 0. 0. 91. 113. 179. 222. 235. 233.
      238. 246. 248. 249. 252. 251. 252. 252. 252. 247. 223. 159. 52.
      23. 37. 48. 0. 0. 0. 0. 0. 0. 101. 102. 133. 183. 209. 215. 231.
      238. 239. 241. 246. 245. 245. 243. 231. 190. 113. 55. 24. 43. 51.
      54. 0. 0. 0. 0. 0. 0. 110. 107. 111. 138. 155. 177. 215. 236. 236.
      236. 241. 239. 241. 196. 118. 71. 32. 30. 48. 45. 49. 56. 0. 0. 0.
      0. 0. 0. 93. 95. 100. 112. 112. 129. 174. 205. 206. 205. 207. 198.
      202. 93. 21. 41. 67. 48. 52. 55. 52. 55. 0. 0. 0. 0. 0. 0. 68. 74.
      86. 102. 104. 103. 121. 134. 126. 116. 103. 79. 64. 45. 48. 45.
      64. 51. 54. 54. 50. 55. 0. 0. 0. 0. 0. 0. 0. 0. 0. 0. 0. 0. 0. 0.
      0. 0. 0. 0. 0. 0. 0. 0. 0. 0. 0. 0. 0. 0. 0. 0. 0. 0. 0. 0. 0. 0.
      0. 0. 0. 0. 0. 0. 0. 0. 0. 0. 0. 0. 0. 0. 0. 0. 0. 0. 0. 0. 0. 0.
      0. 0. 0. 0. 0. 0. 0. 0. 0. 0. 0. 0. 0. 0. 0. 0. 0. 0. 0. 0. 0. 0.
      0. 0. 0. 0. 0. 0. 0. 0. 0. 0. 0. 0. 0. 0. 0. 0. 0. 0. 0. 0. 0. 0.
      0. 0. 0. 0. 0. 0. 0. 0. 0. 0. 0. 0. 0. 0. 0. 0.</_></support_vectors>
  <decision_functions>
    <_>
      <sv_count>15</sv_count>
      <rho>-1.0687138088728632e+00</rho>
      <alpha>
        1.8547015710927831e-30 4.4254049807587789e-30
        1.9626315004344492e-28 1.7315220924498109e-29
        1.0311490797929943e-29 3.7166290153062582e-31
        1.9766587925096807e-30 5.6368499043809504e-30
        7.6682694529617231e-31 7.1732709699191011e-30
        6.4835020594899415e-30 -1.1588878090357015e-28
        -5.1143477754443405e-29 -4.4027527306858367e-29
        -4.1518953926020093e-29</alpha>
      <index>
        0 1 2 3 4 5 6 7 8 9 10 11 12 13 14</index></_></decision_functions></pacman0>
</opencv_storage>
