<?xml version="1.0"?>
<opencv_storage>
<pacman7 type_id="opencv-ml-svm">
  <svm_type>C_SVC</svm_type>
  <kernel><type>POLY</type>
    <degree>4.</degree>
    <gamma>1.</gamma>
    <coef0>0.</coef0></kernel>
  <C>1.</C>
  <term_criteria><epsilon>2.2204460492503131e-16</epsilon>
    <iterations>5000</iterations></term_criteria>
  <var_all>784</var_all>
  <var_count>784</var_count>
  <class_count>2</class_count>
  <class_labels type_id="opencv-matrix">
    <rows>1</rows>
    <cols>2</cols>
    <dt>i</dt>
    <data>
      -1 1</data></class_labels>
  <sv_total>16</sv_total>
  <support_vectors>
    <_>
      29. 50. 68. 69. 67. 70. 70. 107. 168. 199. 204. 202. 199. 169.
      107. 71. 70. 70. 71. 69. 57. 33. 0. 0. 0. 0. 0. 0. 25. 44. 57. 56.
      69. 111. 152. 186. 222. 238. 242. 245. 246. 230. 182. 142. 113.
      81. 59. 55. 49. 29. 0. 0. 0. 0. 0. 0. 21. 36. 51. 65. 127. 194.
      224. 238. 246. 248. 248. 248. 248. 248. 241. 230. 197. 126. 61.
      42. 48. 35. 0. 0. 0. 0. 0. 0. 18. 35. 72. 122. 190. 234. 243. 250.
      252. 251. 251. 251. 251. 252. 253. 251. 246. 204. 119. 49. 34. 25.
      0. 0. 0. 0. 0. 0. 19. 46. 121. 195. 234. 245. 247. 252. 253. 252.
      252. 252. 252. 253. 253. 251. 248. 240. 201. 115. 39. 20. 0. 0. 0.
      0. 0. 0. 23. 81. 182. 236. 247. 245. 249. 253. 254. 253. 253. 253.
      253. 254. 254. 251. 252. 251. 243. 193. 82. 21. 0. 0. 0. 0. 0. 0.
      25. 119. 230. 249. 248. 249. 252. 254. 254. 253. 253. 254. 254.
      254. 254. 253. 250. 248. 248. 239. 131. 32. 0. 0. 0. 0. 0. 0. 30.
      137. 246. 249. 247. 253. 254. 254. 254. 254. 254. 254. 254. 254.
      254. 254. 239. 248. 251. 244. 143. 39. 0. 0. 0. 0. 0. 0. 47. 153.
      245. 248. 248. 254. 254. 254. 254. 254. 254. 254. 254. 254. 254.
      254. 251. 250. 245. 248. 170. 44. 0. 0. 0. 0. 0. 0. 82. 184. 245.
      250. 249. 254. 254. 253. 253. 253. 253. 254. 254. 254. 254. 254.
      255. 247. 238. 249. 212. 80. 0. 0. 0. 0. 0. 0. 131. 224. 248. 251.
      250. 249. 250. 250. 252. 252. 252. 254. 253. 253. 253. 254. 254.
      250. 251. 249. 238. 156. 0. 0. 0. 0. 0. 0. 158. 247. 251. 251.
      249. 242. 238. 242. 247. 251. 251. 251. 251. 248. 245. 240. 245.
      247. 246. 251. 247. 223. 0. 0. 0. 0. 0. 0. 170. 252. 252. 249.
      244. 235. 224. 231. 241. 248. 250. 251. 250. 245. 238. 221. 233.
      244. 246. 251. 251. 240. 0. 0. 0. 0. 0. 0. 180. 253. 251. 246.
      240. 227. 213. 224. 232. 243. 246. 251. 249. 242. 233. 205. 218.
      231. 236. 247. 247. 244. 0. 0. 0. 0. 0. 0. 180. 252. 250. 246.
      242. 229. 217. 227. 235. 244. 247. 251. 250. 244. 235. 214. 222.
      232. 235. 245. 245. 243. 0. 0. 0. 0. 0. 0. 183. 249. 249. 249.
      247. 239. 232. 235. 241. 248. 250. 253. 253. 249. 244. 237. 239.
      240. 241. 248. 247. 235. 0. 0. 0. 0. 0. 0. 183. 247. 251. 251.
      250. 246. 244. 242. 245. 250. 250. 253. 254. 253. 251. 244. 244.
      242. 243. 249. 248. 233. 0. 0. 0. 0. 0. 0. 185. 247. 253. 253.
      251. 251. 251. 252. 254. 253. 252. 252. 253. 254. 254. 253. 252.
      251. 249. 251. 248. 228. 0. 0. 0. 0. 0. 0. 184. 247. 252. 250.
      248. 250. 251. 251. 253. 253. 252. 251. 253. 254. 254. 255. 255.
      254. 253. 252. 249. 218. 0. 0. 0. 0. 0. 0. 180. 245. 247. 247.
      245. 247. 249. 249. 252. 253. 252. 253. 253. 252. 251. 250. 253.
      252. 251. 250. 249. 214. 0. 0. 0. 0. 0. 0. 183. 239. 238. 227.
      221. 236. 248. 251. 252. 254. 253. 254. 254. 253. 253. 251. 238.
      210. 211. 239. 247. 210. 0. 0. 0. 0. 0. 0. 173. 236. 215. 149.
      127. 187. 237. 244. 247. 249. 251. 252. 250. 249. 250. 242. 197.
      132. 131. 195. 240. 202. 0. 0. 0. 0. 0. 0. 137. 211. 160. 59. 35.
      114. 210. 245. 249. 238. 221. 216. 227. 244. 244. 204. 131. 61.
      51. 124. 211. 186. 0. 0. 0. 0. 0. 0. 92. 144. 79. 32. 25. 43. 136.
      197. 195. 144. 86. 87. 134. 193. 203. 141. 68. 29. 25. 74. 149.
      138. 0. 0. 0. 0. 0. 0. 0. 0. 0. 0. 0. 0. 0. 0. 0. 0. 0. 0. 0. 0.
      0. 0. 0. 0. 0. 0. 0. 0. 0. 0. 0. 0. 0. 0. 0. 0. 0. 0. 0. 0. 0. 0.
      0. 0. 0. 0. 0. 0. 0. 0. 0. 0. 0. 0. 0. 0. 0. 0. 0. 0. 0. 0. 0. 0.
      0. 0. 0. 0. 0. 0. 0. 0. 0. 0. 0. 0. 0. 0. 0. 0. 0. 0. 0. 0. 0. 0.
      0. 0. 0. 0. 0. 0. 0. 0. 0. 0. 0. 0. 0. 0. 0. 0. 0. 0. 0. 0. 0. 0.
      0. 0. 0. 0. 0. 0. 0. 0. 0. 0.</_>
    <_>
      17. 31. 45. 44. 39. 37. 63. 85. 78. 92. 96. 93. 94. 81. 55. 53.
      57. 56. 47. 48. 47. 0. 0. 0. 0. 0. 0. 0. 28. 29. 23. 29. 54. 56.
      79. 132. 141. 142. 133. 145. 140. 103. 86. 85. 77. 47. 33. 53. 58.
      0. 0. 0. 0. 0. 0. 0. 15. 12. 23. 91. 176. 187. 166. 149. 167. 165.
      153. 166. 159. 127. 149. 177. 163. 80. 22. 35. 54. 0. 0. 0. 0. 0.
      0. 0. 18. 15. 74. 166. 230. 236. 199. 145. 146. 159. 162. 165.
      145. 139. 206. 247. 242. 163. 61. 14. 29. 0. 0. 0. 0. 0. 0. 0. 13.
      34. 149. 232. 245. 246. 213. 150. 132. 151. 162. 153. 132. 146.
      229. 245. 246. 234. 144. 28. 23. 0. 0. 0. 0. 0. 0. 0. 13. 73. 192.
      247. 250. 249. 230. 186. 141. 135. 147. 136. 138. 178. 235. 247.
      244. 253. 193. 34. 10. 0. 0. 0. 0. 0. 0. 0. 30. 118. 217. 250.
      251. 252. 245. 218. 158. 123. 133. 124. 160. 225. 242. 251. 247.
      250. 237. 56. 17. 0. 0. 0. 0. 0. 0. 0. 71. 181. 239. 251. 247.
      250. 250. 231. 168. 120. 126. 122. 170. 235. 243. 250. 248. 251.
      251. 165. 76. 0. 0. 0. 0. 0. 0. 0. 113. 217. 248. 251. 246. 249.
      252. 236. 169. 112. 111. 118. 177. 239. 244. 253. 251. 253. 252.
      239. 109. 0. 0. 0. 0. 0. 0. 0. 144. 230. 250. 250. 250. 252. 252.
      238. 175. 116. 99. 121. 194. 239. 246. 253. 252. 248. 241. 245.
      107. 0. 0. 0. 0. 0. 0. 0. 153. 233. 249. 249. 253. 252. 252. 245.
      205. 142. 102. 149. 224. 245. 247. 250. 254. 252. 250. 241. 113.
      0. 0. 0. 0. 0. 0. 0. 150. 233. 248. 249. 253. 251. 249. 252. 237.
      174. 131. 179. 238. 245. 246. 253. 253. 252. 252. 234. 124. 0. 0.
      0. 0. 0. 0. 0. 138. 235. 248. 250. 253. 252. 251. 252. 246. 206.
      187. 215. 245. 249. 248. 253. 251. 248. 250. 228. 122. 0. 0. 0. 0.
      0. 0. 0. 112. 239. 248. 247. 253. 253. 253. 249. 244. 234. 235.
      235. 241. 249. 250. 251. 251. 250. 250. 223. 107. 0. 0. 0. 0. 0.
      0. 0. 80. 218. 246. 242. 252. 252. 251. 248. 250. 251. 252. 251.
      250. 251. 254. 252. 250. 252. 245. 195. 73. 0. 0. 0. 0. 0. 0. 0.
      54. 156. 242. 245. 251. 252. 251. 250. 251. 250. 251. 252. 253.
      253. 254. 251. 247. 248. 219. 137. 39. 0. 0. 0. 0. 0. 0. 0. 35.
      92. 230. 245. 245. 246. 249. 253. 254. 253. 250. 252. 254. 253.
      252. 250. 247. 244. 192. 82. 23. 0. 0. 0. 0. 0. 0. 0. 29. 56. 200.
      242. 247. 237. 251. 254. 254. 254. 253. 254. 254. 251. 250. 249.
      248. 234. 163. 56. 29. 0. 0. 0. 0. 0. 0. 0. 30. 44. 140. 215. 243.
      241. 245. 248. 245. 250. 251. 249. 249. 247. 246. 245. 233. 194.
      114. 42. 35. 0. 0. 0. 0. 0. 0. 0. 35. 36. 70. 145. 225. 228. 235.
      247. 242. 248. 250. 246. 247. 245. 229. 214. 187. 125. 62. 38. 41.
      0. 0. 0. 0. 0. 0. 0. 43. 47. 42. 90. 148. 147. 199. 233. 236. 238.
      240. 238. 241. 232. 176. 142. 118. 72. 42. 46. 50. 0. 0. 0. 0. 0.
      0. 0. 51. 68. 50. 70. 83. 66. 126. 197. 210. 206. 201. 198. 205.
      177. 105. 68. 63. 53. 47. 51. 47. 0. 0. 0. 0. 0. 0. 0. 47. 55. 59.
      64. 67. 63. 83. 125. 146. 142. 136. 133. 139. 113. 69. 50. 53. 60.
      56. 57. 52. 0. 0. 0. 0. 0. 0. 0. 0. 0. 0. 0. 0. 0. 0. 0. 0. 0. 0.
      0. 0. 0. 0. 0. 0. 0. 0. 0. 0. 0. 0. 0. 0. 0. 0. 0. 0. 0. 0. 0. 0.
      0. 0. 0. 0. 0. 0. 0. 0. 0. 0. 0. 0. 0. 0. 0. 0. 0. 0. 0. 0. 0. 0.
      0. 0. 0. 0. 0. 0. 0. 0. 0. 0. 0. 0. 0. 0. 0. 0. 0. 0. 0. 0. 0. 0.
      0. 0. 0. 0. 0. 0. 0. 0. 0. 0. 0. 0. 0. 0. 0. 0. 0. 0. 0. 0. 0. 0.
      0. 0. 0. 0. 0. 0. 0. 0. 0. 0. 0. 0. 0. 0. 0. 0. 0. 0. 0. 0. 0. 0.
      0. 0. 0. 0. 0. 0. 0. 0. 0. 0. 0. 0. 0. 0. 0. 0. 0. 0. 0.</_>
    <_>
      58. 60. 57. 51. 41. 36. 41. 62. 101. 125. 123. 118. 105. 75. 43.
      40. 54. 50. 51. 54. 54. 51. 0. 0. 0. 0. 0. 0. 60. 55. 56. 57. 52.
      60. 86. 158. 216. 233. 227. 223. 212. 158. 85. 53. 58. 51. 51. 54.
      54. 51. 0. 0. 0. 0. 0. 0. 65. 55. 46. 65. 106. 157. 200. 235. 245.
      250. 250. 250. 248. 229. 181. 141. 106. 58. 37. 44. 53. 51. 0. 0.
      0. 0. 0. 0. 58. 37. 40. 109. 195. 236. 245. 250. 248. 251. 253.
      249. 250. 252. 241. 225. 181. 97. 38. 30. 44. 52. 0. 0. 0. 0. 0.
      0. 42. 47. 105. 193. 242. 249. 248. 250. 250. 252. 249. 251. 252.
      250. 252. 253. 231. 172. 89. 34. 27. 45. 0. 0. 0. 0. 0. 0. 44.
      106. 191. 239. 248. 247. 252. 251. 251. 251. 251. 253. 253. 250.
      251. 252. 252. 230. 165. 79. 26. 31. 0. 0. 0. 0. 0. 0. 75. 166.
      236. 249. 250. 251. 252. 250. 250. 253. 254. 253. 253. 253. 253.
      251. 252. 247. 227. 157. 60. 22. 0. 0. 0. 0. 0. 0. 96. 197. 247.
      249. 249. 252. 252. 246. 249. 249. 249. 249. 250. 253. 253. 250.
      250. 250. 249. 197. 86. 24. 0. 0. 0. 0. 0. 0. 91. 187. 245. 248.
      248. 252. 252. 243. 237. 234. 240. 246. 248. 252. 253. 251. 245.
      234. 228. 187. 88. 21. 0. 0. 0. 0. 0. 0. 97. 194. 247. 250. 250.
      252. 248. 238. 215. 208. 228. 242. 243. 249. 252. 251. 237. 207.
      183. 153. 81. 21. 0. 0. 0. 0. 0. 0. 144. 225. 248. 251. 251. 251.
      242. 231. 197. 187. 218. 236. 238. 246. 251. 244. 232. 199. 174.
      162. 116. 46. 0. 0. 0. 0. 0. 0. 186. 244. 247. 248. 251. 249. 245.
      232. 205. 198. 223. 239. 241. 248. 251. 244. 238. 215. 198. 200.
      174. 82. 0. 0. 0. 0. 0. 0. 190. 246. 249. 249. 250. 246. 251. 239.
      230. 227. 237. 247. 248. 250. 251. 249. 249. 239. 227. 233. 211.
      105. 0. 0. 0. 0. 0. 0. 183. 244. 249. 251. 250. 247. 252. 247.
      247. 248. 247. 249. 249. 251. 249. 249. 250. 248. 246. 247. 228.
      107. 0. 0. 0. 0. 0. 0. 181. 245. 247. 250. 250. 250. 252. 253.
      251. 252. 252. 250. 251. 252. 248. 245. 250. 251. 248. 250. 232.
      105. 0. 0. 0. 0. 0. 0. 183. 245. 248. 249. 248. 250. 252. 251.
      249. 251. 250. 245. 248. 251. 247. 251. 245. 246. 245. 250. 230.
      101. 0. 0. 0. 0. 0. 0. 181. 244. 249. 250. 250. 248. 249. 249.
      247. 251. 251. 249. 248. 250. 248. 249. 249. 249. 245. 249. 238.
      112. 0. 0. 0. 0. 0. 0. 176. 241. 249. 250. 250. 247. 246. 247.
      246. 250. 250. 249. 250. 250. 248. 248. 248. 249. 248. 250. 238.
      117. 0. 0. 0. 0. 0. 0. 179. 240. 247. 248. 250. 250. 249. 249.
      249. 248. 245. 243. 248. 248. 247. 248. 246. 241. 248. 249. 232.
      112. 0. 0. 0. 0. 0. 0. 176. 238. 247. 247. 249. 246. 238. 236.
      245. 248. 246. 246. 249. 244. 228. 236. 248. 246. 243. 248. 238.
      112. 0. 0. 0. 0. 0. 0. 163. 230. 247. 249. 241. 218. 179. 173.
      215. 244. 248. 248. 238. 200. 155. 169. 237. 248. 244. 244. 225.
      103. 0. 0. 0. 0. 0. 0. 128. 201. 241. 249. 221. 165. 94. 87. 162.
      225. 247. 243. 211. 131. 63. 93. 184. 235. 247. 238. 168. 58. 0.
      0. 0. 0. 0. 0. 70. 133. 207. 231. 173. 77. 29. 38. 87. 165. 232.
      224. 148. 65. 32. 52. 108. 187. 223. 201. 83. 22. 0. 0. 0. 0. 0.
      0. 47. 76. 116. 129. 98. 45. 36. 48. 54. 84. 126. 128. 76. 34. 37.
      53. 62. 97. 118. 111. 34. 31. 0. 0. 0. 0. 0. 0. 0. 0. 0. 0. 0. 0.
      0. 0. 0. 0. 0. 0. 0. 0. 0. 0. 0. 0. 0. 0. 0. 0. 0. 0. 0. 0. 0. 0.
      0. 0. 0. 0. 0. 0. 0. 0. 0. 0. 0. 0. 0. 0. 0. 0. 0. 0. 0. 0. 0. 0.
      0. 0. 0. 0. 0. 0. 0. 0. 0. 0. 0. 0. 0. 0. 0. 0. 0. 0. 0. 0. 0. 0.
      0. 0. 0. 0. 0. 0. 0. 0. 0. 0. 0. 0. 0. 0. 0. 0. 0. 0. 0. 0. 0. 0.
      0. 0. 0. 0. 0. 0. 0. 0. 0. 0. 0. 0. 0. 0. 0. 0. 0. 0.</_>
    <_>
      38. 27. 25. 74. 127. 140. 137. 161. 212. 236. 239. 242. 244. 239.
      190. 133. 129. 148. 126. 55. 0. 0. 0. 0. 0. 0. 0. 0. 23. 27. 73.
      147. 195. 193. 181. 193. 226. 239. 243. 247. 246. 242. 216. 179.
      173. 191. 198. 145. 0. 0. 0. 0. 0. 0. 0. 0. 24. 44. 131. 208. 225.
      218. 213. 218. 230. 241. 245. 253. 250. 247. 241. 224. 223. 218.
      225. 214. 0. 0. 0. 0. 0. 0. 0. 0. 23. 64. 167. 237. 237. 229. 228.
      231. 236. 243. 247. 252. 249. 246. 242. 229. 229. 225. 226. 226.
      0. 0. 0. 0. 0. 0. 0. 0. 24. 80. 193. 246. 243. 238. 238. 241. 243.
      248. 250. 254. 254. 252. 247. 244. 244. 241. 238. 237. 0. 0. 0. 0.
      0. 0. 0. 0. 33. 115. 214. 248. 247. 247. 247. 245. 246. 248. 249.
      253. 254. 254. 252. 246. 245. 242. 244. 242. 0. 0. 0. 0. 0. 0. 0.
      0. 56. 151. 231. 250. 251. 253. 252. 253. 254. 253. 252. 252. 252.
      254. 254. 253. 252. 249. 250. 244. 0. 0. 0. 0. 0. 0. 0. 0. 85.
      187. 243. 250. 249. 251. 253. 254. 254. 253. 252. 252. 253. 254.
      254. 254. 252. 248. 252. 249. 0. 0. 0. 0. 0. 0. 0. 0. 110. 214.
      248. 251. 250. 252. 254. 254. 253. 253. 253. 252. 253. 254. 254.
      254. 253. 251. 251. 250. 0. 0. 0. 0. 0. 0. 0. 0. 133. 225. 248.
      250. 252. 252. 254. 252. 252. 253. 252. 252. 253. 254. 254. 254.
      254. 252. 249. 249. 0. 0. 0. 0. 0. 0. 0. 0. 151. 232. 248. 249.
      251. 252. 254. 250. 252. 254. 253. 252. 253. 254. 254. 254. 252.
      251. 250. 251. 0. 0. 0. 0. 0. 0. 0. 0. 165. 238. 247. 249. 249.
      251. 253. 253. 253. 254. 253. 252. 253. 254. 254. 254. 252. 251.
      253. 252. 0. 0. 0. 0. 0. 0. 0. 0. 176. 238. 246. 249. 249. 250.
      253. 254. 254. 254. 252. 252. 253. 254. 254. 254. 253. 252. 253.
      251. 0. 0. 0. 0. 0. 0. 0. 0. 176. 234. 246. 249. 251. 250. 253.
      252. 253. 254. 252. 252. 253. 254. 254. 254. 253. 253. 251. 249.
      0. 0. 0. 0. 0. 0. 0. 0. 181. 234. 247. 250. 252. 246. 252. 252.
      251. 251. 253. 253. 254. 251. 250. 252. 253. 252. 250. 249. 0. 0.
      0. 0. 0. 0. 0. 0. 168. 246. 249. 250. 252. 252. 252. 251. 251.
      250. 252. 254. 253. 252. 250. 252. 252. 250. 252. 248. 0. 0. 0. 0.
      0. 0. 0. 0. 164. 247. 244. 241. 249. 251. 246. 250. 250. 246. 246.
      250. 247. 251. 252. 250. 249. 247. 250. 247. 0. 0. 0. 0. 0. 0. 0.
      0. 159. 243. 232. 245. 242. 250. 243. 250. 249. 246. 236. 236.
      235. 248. 250. 246. 245. 240. 239. 243. 0. 0. 0. 0. 0. 0. 0. 0.
      139. 230. 237. 235. 201. 228. 239. 242. 242. 237. 192. 183. 206.
      240. 244. 243. 236. 220. 206. 228. 0. 0. 0. 0. 0. 0. 0. 0. 127.
      228. 228. 173. 119. 172. 229. 237. 239. 212. 117. 103. 157. 229.
      236. 237. 204. 159. 138. 190. 0. 0. 0. 0. 0. 0. 0. 0. 112. 194.
      174. 97. 57. 107. 191. 225. 235. 178. 61. 47. 114. 219. 230. 226.
      145. 84. 67. 137. 0. 0. 0. 0. 0. 0. 0. 0. 81. 149. 117. 61. 42.
      61. 138. 194. 211. 138. 40. 36. 76. 193. 210. 183. 83. 42. 40.
      100. 0. 0. 0. 0. 0. 0. 0. 0. 46. 80. 82. 55. 48. 59. 95. 141. 153.
      94. 38. 38. 52. 149. 160. 117. 50. 36. 51. 84. 0. 0. 0. 0. 0. 0.
      0. 0. 0. 0. 0. 0. 0. 0. 0. 0. 0. 0. 0. 0. 0. 0. 0. 0. 0. 0. 0. 0.
      0. 0. 0. 0. 0. 0. 0. 0. 0. 0. 0. 0. 0. 0. 0. 0. 0. 0. 0. 0. 0. 0.
      0. 0. 0. 0. 0. 0. 0. 0. 0. 0. 0. 0. 0. 0. 0. 0. 0. 0. 0. 0. 0. 0.
      0. 0. 0. 0. 0. 0. 0. 0. 0. 0. 0. 0. 0. 0. 0. 0. 0. 0. 0. 0. 0. 0.
      0. 0. 0. 0. 0. 0. 0. 0. 0. 0. 0. 0. 0. 0. 0. 0. 0. 0. 0. 0. 0. 0.
      0. 0. 0. 0. 0. 0. 0. 0. 0. 0. 0. 0. 0. 0. 0. 0. 0. 0. 0. 0. 0. 0.
      0. 0. 0. 0. 0. 0. 0. 0. 0. 0.</_>
    <_>
      41. 45. 61. 66. 67. 63. 67. 75. 82. 84. 94. 105. 106. 100. 95. 81.
      67. 67. 72. 74. 68. 62. 67. 0. 0. 0. 0. 0. 58. 60. 60. 61. 61. 58.
      93. 138. 179. 190. 191. 195. 194. 188. 171. 154. 119. 73. 40. 40.
      49. 47. 50. 0. 0. 0. 0. 0. 64. 58. 48. 55. 88. 121. 175. 213. 237.
      242. 245. 247. 250. 250. 242. 236. 206. 138. 77. 68. 66. 41. 41.
      0. 0. 0. 0. 0. 53. 43. 60. 114. 178. 214. 231. 239. 246. 245. 249.
      250. 252. 248. 239. 233. 227. 196. 163. 154. 112. 39. 36. 0. 0. 0.
      0. 0. 55. 46. 95. 179. 227. 236. 242. 243. 248. 247. 251. 252.
      252. 247. 240. 225. 224. 221. 216. 221. 183. 98. 34. 0. 0. 0. 0.
      0. 53. 68. 157. 224. 237. 240. 249. 249. 248. 251. 253. 251. 248.
      238. 230. 220. 213. 212. 208. 221. 217. 174. 55. 0. 0. 0. 0. 0.
      49. 86. 177. 233. 238. 242. 251. 252. 251. 253. 251. 245. 242.
      227. 220. 216. 208. 215. 208. 211. 212. 195. 87. 0. 0. 0. 0. 0.
      69. 130. 202. 237. 242. 245. 252. 253. 252. 252. 246. 237. 234.
      222. 219. 214. 210. 215. 202. 179. 164. 144. 61. 0. 0. 0. 0. 0.
      104. 182. 228. 240. 245. 247. 254. 251. 248. 250. 241. 232. 228.
      217. 210. 196. 202. 202. 179. 109. 62. 46. 48. 0. 0. 0. 0. 0. 129.
      212. 240. 243. 247. 250. 254. 250. 247. 247. 235. 226. 225. 213.
      183. 137. 128. 127. 112. 60. 37. 49. 55. 0. 0. 0. 0. 0. 131. 217.
      241. 243. 249. 249. 250. 250. 247. 232. 196. 178. 183. 174. 124.
      61. 42. 46. 48. 29. 53. 100. 100. 0. 0. 0. 0. 0. 126. 214. 242.
      245. 250. 250. 250. 250. 240. 201. 134. 94. 95. 96. 73. 40. 47.
      59. 50. 34. 86. 176. 186. 0. 0. 0. 0. 0. 125. 214. 244. 246. 250.
      250. 251. 248. 238. 199. 132. 88. 83. 82. 60. 34. 50. 64. 43. 33.
      109. 225. 245. 0. 0. 0. 0. 0. 125. 213. 240. 245. 249. 251. 250.
      248. 244. 228. 195. 174. 173. 159. 106. 57. 57. 68. 48. 32. 103.
      216. 248. 0. 0. 0. 0. 0. 126. 213. 239. 245. 248. 250. 251. 250.
      248. 243. 237. 228. 222. 216. 176. 128. 117. 120. 91. 43. 49. 121.
      153. 0. 0. 0. 0. 0. 105. 184. 224. 240. 245. 249. 251. 252. 252.
      248. 243. 232. 223. 218. 208. 207. 213. 208. 167. 99. 66. 57. 34.
      0. 0. 0. 0. 0. 63. 113. 162. 214. 238. 248. 253. 253. 252. 249.
      245. 239. 231. 226. 221. 218. 219. 220. 208. 179. 160. 123. 54. 0.
      0. 0. 0. 0. 41. 53. 94. 178. 230. 245. 249. 253. 254. 252. 251.
      248. 243. 232. 221. 212. 212. 218. 221. 223. 227. 199. 93. 0. 0.
      0. 0. 0. 61. 51. 59. 135. 215. 242. 247. 252. 254. 252. 253. 254.
      249. 242. 236. 227. 220. 213. 212. 212. 212. 174. 79. 0. 0. 0. 0.
      0. 76. 61. 48. 91. 165. 230. 244. 250. 250. 248. 249. 252. 251.
      245. 243. 232. 218. 212. 214. 213. 183. 108. 49. 0. 0. 0. 0. 0.
      72. 61. 54. 56. 94. 179. 212. 233. 243. 248. 251. 254. 253. 248.
      252. 243. 236. 213. 192. 171. 122. 50. 30. 0. 0. 0. 0. 0. 64. 61.
      61. 50. 58. 97. 129. 174. 216. 238. 247. 248. 243. 247. 251. 243.
      224. 144. 68. 58. 53. 43. 52. 0. 0. 0. 0. 0. 51. 57. 57. 56. 63.
      58. 52. 73. 132. 185. 205. 207. 209. 206. 215. 200. 144. 72. 33.
      34. 51. 50. 54. 0. 0. 0. 0. 0. 0. 0. 0. 0. 0. 0. 0. 0. 0. 0. 0. 0.
      0. 0. 0. 0. 0. 0. 0. 0. 0. 0. 0. 0. 0. 0. 0. 0. 0. 0. 0. 0. 0. 0.
      0. 0. 0. 0. 0. 0. 0. 0. 0. 0. 0. 0. 0. 0. 0. 0. 0. 0. 0. 0. 0. 0.
      0. 0. 0. 0. 0. 0. 0. 0. 0. 0. 0. 0. 0. 0. 0. 0. 0. 0. 0. 0. 0. 0.
      0. 0. 0. 0. 0. 0. 0. 0. 0. 0. 0. 0. 0. 0. 0. 0. 0. 0. 0. 0. 0. 0.
      0. 0. 0. 0. 0. 0. 0. 0. 0. 0. 0. 0. 0. 0. 0. 0. 0. 0. 0. 0. 0. 0.
      0. 0. 0. 0. 0. 0. 0. 0. 0. 0. 0. 0. 0. 0. 0. 0. 0. 0.</_>
    <_>
      59. 59. 66. 70. 69. 67. 71. 99. 163. 169. 172. 174. 155. 103. 71.
      82. 78. 72. 68. 52. 34. 0. 0. 0. 0. 0. 0. 0. 61. 60. 59. 66. 85.
      106. 120. 150. 212. 222. 227. 227. 212. 160. 115. 117. 78. 63. 69.
      60. 39. 0. 0. 0. 0. 0. 0. 0. 60. 57. 51. 68. 118. 173. 198. 211.
      235. 243. 246. 246. 246. 222. 188. 188. 112. 63. 61. 58. 41. 0. 0.
      0. 0. 0. 0. 0. 44. 45. 53. 99. 176. 228. 244. 246. 248. 249. 249.
      248. 251. 249. 236. 235. 180. 96. 58. 44. 33. 0. 0. 0. 0. 0. 0. 0.
      33. 46. 95. 164. 223. 247. 251. 252. 253. 253. 252. 252. 252. 253.
      254. 254. 248. 176. 86. 40. 34. 0. 0. 0. 0. 0. 0. 0. 24. 69. 158.
      220. 244. 250. 252. 253. 254. 254. 253. 253. 253. 253. 254. 254.
      247. 233. 165. 69. 21. 0. 0. 0. 0. 0. 0. 0. 19. 108. 208. 245.
      249. 250. 252. 253. 255. 254. 253. 254. 254. 254. 255. 255. 251.
      253. 234. 109. 16. 0. 0. 0. 0. 0. 0. 0. 20. 145. 230. 247. 249.
      252. 253. 254. 255. 254. 254. 254. 254. 254. 255. 255. 254. 254.
      247. 148. 20. 0. 0. 0. 0. 0. 0. 0. 27. 169. 235. 246. 250. 253.
      254. 255. 255. 254. 253. 254. 254. 254. 254. 254. 252. 240. 246.
      170. 25. 0. 0. 0. 0. 0. 0. 0. 57. 186. 237. 249. 252. 252. 253.
      255. 254. 254. 253. 254. 254. 254. 254. 254. 252. 245. 246. 188.
      48. 0. 0. 0. 0. 0. 0. 0. 110. 217. 245. 251. 250. 252. 253. 252.
      253. 252. 252. 252. 253. 253. 253. 253. 253. 251. 247. 213. 114.
      0. 0. 0. 0. 0. 0. 0. 171. 243. 249. 251. 243. 246. 248. 249. 251.
      252. 252. 252. 252. 252. 253. 252. 252. 252. 247. 238. 185. 0. 0.
      0. 0. 0. 0. 0. 206. 248. 249. 248. 240. 228. 233. 236. 238. 248.
      254. 253. 252. 245. 235. 231. 233. 240. 248. 245. 210. 0. 0. 0. 0.
      0. 0. 0. 212. 249. 249. 243. 224. 202. 203. 226. 236. 248. 253.
      249. 241. 224. 202. 200. 221. 233. 246. 244. 211. 0. 0. 0. 0. 0.
      0. 0. 209. 248. 247. 238. 219. 194. 191. 223. 236. 246. 251. 251.
      244. 223. 196. 195. 221. 234. 246. 243. 208. 0. 0. 0. 0. 0. 0. 0.
      207. 248. 248. 240. 231. 219. 219. 232. 237. 247. 251. 252. 251.
      239. 221. 218. 229. 237. 246. 244. 207. 0. 0. 0. 0. 0. 0. 0. 203.
      250. 251. 249. 249. 248. 249. 249. 248. 252. 253. 253. 253. 249.
      243. 241. 242. 245. 249. 246. 203. 0. 0. 0. 0. 0. 0. 0. 200. 249.
      251. 253. 254. 254. 253. 249. 249. 252. 253. 252. 251. 250. 250.
      249. 248. 249. 251. 247. 201. 0. 0. 0. 0. 0. 0. 0. 199. 246. 247.
      247. 248. 253. 249. 248. 249. 249. 250. 249. 249. 251. 251. 250.
      249. 250. 251. 249. 202. 0. 0. 0. 0. 0. 0. 0. 200. 245. 247. 244.
      247. 253. 251. 252. 249. 246. 246. 247. 248. 251. 252. 251. 250.
      250. 251. 250. 200. 0. 0. 0. 0. 0. 0. 0. 190. 248. 243. 236. 247.
      244. 241. 246. 249. 248. 246. 246. 246. 244. 241. 241. 245. 248.
      249. 249. 192. 0. 0. 0. 0. 0. 0. 0. 183. 247. 246. 244. 238. 193.
      162. 227. 235. 240. 243. 245. 240. 208. 176. 196. 228. 242. 245.
      242. 175. 0. 0. 0. 0. 0. 0. 0. 113. 202. 250. 238. 184. 98. 73.
      128. 164. 219. 245. 221. 177. 120. 72. 109. 181. 231. 240. 206.
      126. 0. 0. 0. 0. 0. 0. 0. 43. 128. 209. 198. 111. 34. 29. 39. 80.
      169. 216. 159. 75. 34. 27. 35. 103. 192. 208. 133. 48. 0. 0. 0. 0.
      0. 0. 0. 19. 63. 115. 114. 64. 28. 37. 33. 43. 97. 134. 91. 42.
      32. 39. 25. 54. 111. 114. 66. 31. 0. 0. 0. 0. 0. 0. 0. 0. 0. 0. 0.
      0. 0. 0. 0. 0. 0. 0. 0. 0. 0. 0. 0. 0. 0. 0. 0. 0. 0. 0. 0. 0. 0.
      0. 0. 0. 0. 0. 0. 0. 0. 0. 0. 0. 0. 0. 0. 0. 0. 0. 0. 0. 0. 0. 0.
      0. 0. 0. 0. 0. 0. 0. 0. 0. 0. 0. 0. 0. 0. 0. 0. 0. 0. 0. 0. 0. 0.
      0. 0. 0. 0. 0. 0. 0. 0. 0. 0. 0. 0. 0. 0.</_>
    <_>
      49. 52. 52. 45. 45. 37. 61. 101. 113. 133. 130. 127. 124. 119. 95.
      64. 56. 59. 55. 53. 50. 39. 35. 0. 0. 0. 0. 0. 55. 53. 49. 48. 68.
      82. 116. 180. 202. 202. 200. 208. 207. 189. 148. 104. 86. 76. 64.
      59. 60. 54. 41. 0. 0. 0. 0. 0. 53. 47. 51. 77. 127. 162. 183. 219.
      228. 225. 230. 236. 238. 234. 214. 189. 160. 117. 77. 62. 60. 59.
      47. 0. 0. 0. 0. 0. 47. 47. 79. 138. 192. 218. 223. 223. 227. 231.
      235. 237. 237. 240. 240. 238. 223. 179. 115. 70. 49. 47. 47. 0. 0.
      0. 0. 0. 47. 59. 121. 197. 224. 226. 233. 233. 239. 246. 251. 251.
      248. 250. 248. 247. 246. 234. 185. 111. 57. 38. 43. 0. 0. 0. 0. 0.
      53. 80. 156. 222. 228. 227. 237. 241. 247. 246. 250. 250. 252.
      252. 249. 243. 246. 247. 228. 170. 90. 41. 39. 0. 0. 0. 0. 0. 57.
      104. 181. 227. 234. 236. 247. 250. 253. 245. 250. 250. 249. 253.
      251. 248. 248. 240. 235. 206. 129. 58. 37. 0. 0. 0. 0. 0. 74. 141.
      205. 228. 237. 243. 248. 248. 255. 254. 254. 254. 253. 253. 244.
      237. 242. 232. 228. 219. 153. 71. 38. 0. 0. 0. 0. 0. 117. 192.
      226. 233. 240. 246. 251. 251. 252. 247. 251. 248. 238. 238. 234.
      230. 227. 225. 223. 217. 164. 90. 45. 0. 0. 0. 0. 0. 120. 195.
      228. 234. 240. 246. 251. 251. 253. 253. 245. 200. 170. 192. 221.
      227. 222. 222. 221. 219. 195. 138. 76. 0. 0. 0. 0. 0. 114. 198.
      235. 239. 243. 247. 246. 243. 245. 237. 206. 135. 89. 120. 180.
      211. 215. 216. 217. 218. 219. 183. 106. 0. 0. 0. 0. 0. 104. 195.
      236. 239. 243. 247. 246. 235. 230. 213. 169. 114. 70. 84. 141.
      194. 212. 215. 217. 213. 222. 200. 117. 0. 0. 0. 0. 0. 104. 199.
      240. 242. 243. 247. 247. 241. 231. 217. 188. 149. 111. 108. 142.
      186. 205. 209. 218. 212. 222. 206. 119. 0. 0. 0. 0. 0. 106. 201.
      240. 244. 244. 246. 248. 243. 236. 231. 216. 188. 159. 164. 179.
      192. 201. 205. 218. 215. 225. 216. 124. 0. 0. 0. 0. 0. 89. 182.
      232. 245. 244. 247. 250. 246. 240. 237. 230. 210. 196. 204. 207.
      206. 205. 208. 216. 220. 228. 224. 128. 0. 0. 0. 0. 0. 65. 148.
      220. 243. 244. 247. 250. 246. 241. 236. 231. 224. 216. 218. 216.
      214. 211. 210. 213. 222. 227. 222. 126. 0. 0. 0. 0. 0. 39. 91.
      205. 242. 243. 247. 246. 243. 240. 235. 231. 228. 219. 217. 221.
      224. 224. 215. 215. 223. 224. 216. 112. 0. 0. 0. 0. 0. 39. 81.
      188. 236. 238. 240. 244. 245. 239. 231. 227. 225. 220. 222. 225.
      224. 233. 227. 221. 219. 207. 191. 81. 0. 0. 0. 0. 0. 44. 49. 131.
      216. 237. 237. 240. 240. 237. 231. 226. 223. 219. 222. 223. 221.
      229. 231. 221. 206. 168. 138. 59. 0. 0. 0. 0. 0. 49. 40. 65. 151.
      221. 239. 239. 236. 234. 231. 227. 223. 215. 218. 220. 222. 226.
      221. 211. 199. 141. 83. 38. 0. 0. 0. 0. 0. 52. 48. 39. 89. 186.
      228. 228. 230. 231. 227. 225. 224. 221. 217. 199. 185. 199. 208.
      205. 204. 134. 54. 29. 0. 0. 0. 0. 0. 52. 51. 39. 53. 139. 198.
      212. 225. 213. 201. 200. 197. 197. 181. 134. 101. 147. 207. 216.
      194. 111. 39. 28. 0. 0. 0. 0. 0. 52. 54. 43. 30. 80. 153. 201.
      206. 155. 123. 117. 116. 118. 101. 61. 55. 131. 211. 201. 143. 63.
      29. 32. 0. 0. 0. 0. 0. 52. 49. 56. 37. 37. 94. 154. 146. 84. 43.
      32. 45. 81. 100. 71. 56. 110. 166. 138. 76. 26. 29. 34. 0. 0. 0.
      0. 0. 0. 0. 0. 0. 0. 0. 0. 0. 0. 0. 0. 0. 0. 0. 0. 0. 0. 0. 0. 0.
      0. 0. 0. 0. 0. 0. 0. 0. 0. 0. 0. 0. 0. 0. 0. 0. 0. 0. 0. 0. 0. 0.
      0. 0. 0. 0. 0. 0. 0. 0. 0. 0. 0. 0. 0. 0. 0. 0. 0. 0. 0. 0. 0. 0.
      0. 0. 0. 0. 0. 0. 0. 0. 0. 0. 0. 0. 0. 0. 0. 0. 0. 0. 0. 0. 0. 0.
      0. 0. 0. 0. 0. 0. 0. 0. 0. 0. 0. 0. 0. 0. 0. 0. 0. 0. 0. 0. 0. 0.
      0. 0. 0. 0.</_>
    <_>
      50. 51. 52. 48. 44. 34. 48. 70. 81. 99. 138. 154. 147. 146. 156.
      153. 120. 71. 38. 34. 40. 43. 45. 0. 0. 0. 0. 0. 52. 56. 49. 48.
      55. 55. 105. 175. 207. 220. 236. 235. 232. 229. 226. 227. 214.
      154. 93. 60. 42. 28. 35. 0. 0. 0. 0. 0. 48. 46. 40. 58. 95. 117.
      174. 230. 242. 243. 250. 248. 245. 251. 247. 251. 249. 221. 197.
      161. 99. 35. 21. 0. 0. 0. 0. 0. 42. 32. 57. 101. 162. 198. 225.
      242. 244. 247. 252. 251. 251. 254. 250. 253. 252. 248. 248. 237.
      178. 85. 26. 0. 0. 0. 0. 0. 41. 41. 108. 147. 195. 232. 242. 243.
      243. 248. 253. 251. 249. 253. 253. 253. 249. 252. 248. 249. 229.
      165. 61. 0. 0. 0. 0. 0. 36. 50. 138. 161. 187. 229. 241. 244. 247.
      250. 252. 252. 252. 254. 255. 253. 247. 252. 246. 245. 246. 211.
      90. 0. 0. 0. 0. 0. 32. 48. 126. 158. 201. 239. 248. 251. 252. 252.
      252. 253. 254. 253. 250. 253. 247. 251. 247. 228. 212. 171. 74. 0.
      0. 0. 0. 0. 46. 86. 135. 173. 219. 243. 248. 251. 253. 252. 252.
      254. 254. 251. 249. 251. 243. 242. 245. 197. 129. 79. 43. 0. 0. 0.
      0. 0. 66. 139. 148. 184. 226. 247. 250. 251. 252. 253. 253. 253.
      251. 249. 243. 231. 219. 216. 228. 171. 70. 27. 35. 0. 0. 0. 0. 0.
      62. 139. 129. 177. 229. 248. 251. 251. 252. 253. 249. 242. 240.
      237. 216. 185. 180. 179. 191. 158. 61. 34. 35. 0. 0. 0. 0. 0. 70.
      134. 129. 179. 235. 247. 251. 249. 250. 245. 218. 198. 198. 200.
      172. 146. 157. 164. 175. 159. 68. 38. 37. 0. 0. 0. 0. 0. 65. 124.
      128. 177. 235. 246. 252. 249. 250. 241. 204. 172. 173. 168. 145.
      136. 153. 161. 161. 143. 73. 32. 40. 0. 0. 0. 0. 0. 70. 124. 127.
      174. 235. 248. 252. 251. 252. 249. 234. 224. 227. 217. 178. 138.
      133. 149. 165. 140. 71. 37. 42. 0. 0. 0. 0. 0. 78. 123. 124. 171.
      235. 250. 252. 251. 253. 252. 252. 250. 248. 243. 227. 203. 194.
      195. 185. 130. 51. 22. 31. 0. 0. 0. 0. 0. 69. 105. 114. 158. 221.
      248. 248. 248. 252. 253. 252. 250. 245. 240. 240. 240. 237. 233.
      219. 167. 91. 50. 19. 0. 0. 0. 0. 0. 50. 76. 103. 136. 178. 243.
      244. 247. 251. 253. 251. 252. 249. 247. 251. 250. 246. 246. 242.
      221. 180. 134. 36. 0. 0. 0. 0. 0. 41. 57. 93. 116. 130. 231. 244.
      248. 250. 254. 250. 252. 253. 253. 253. 250. 248. 248. 246. 244.
      235. 205. 68. 0. 0. 0. 0. 0. 46. 53. 86. 104. 108. 202. 238. 246.
      245. 252. 250. 252. 253. 253. 252. 251. 251. 250. 248. 248. 243.
      203. 69. 0. 0. 0. 0. 0. 52. 52. 71. 90. 102. 164. 227. 245. 243.
      252. 253. 254. 253. 254. 254. 251. 251. 250. 249. 245. 215. 134.
      40. 0. 0. 0. 0. 0. 51. 48. 46. 62. 86. 103. 171. 232. 237. 241.
      246. 250. 251. 252. 250. 246. 248. 239. 224. 205. 148. 62. 25. 0.
      0. 0. 0. 0. 44. 45. 43. 51. 58. 56. 105. 158. 177. 206. 241. 250.
      247. 248. 249. 247. 235. 188. 140. 113. 76. 36. 31. 0. 0. 0. 0. 0.
      39. 43. 41. 38. 41. 49. 65. 80. 78. 115. 183. 204. 204. 195. 196.
      194. 177. 112. 51. 39. 42. 40. 40. 0. 0. 0. 0. 0. 36. 43. 44. 44.
      43. 43. 54. 58. 44. 57. 102. 114. 116. 111. 108. 107. 99. 61. 34.
      36. 40. 39. 43. 0. 0. 0. 0. 0. 0. 0. 0. 0. 0. 0. 0. 0. 0. 0. 0. 0.
      0. 0. 0. 0. 0. 0. 0. 0. 0. 0. 0. 0. 0. 0. 0. 0. 0. 0. 0. 0. 0. 0.
      0. 0. 0. 0. 0. 0. 0. 0. 0. 0. 0. 0. 0. 0. 0. 0. 0. 0. 0. 0. 0. 0.
      0. 0. 0. 0. 0. 0. 0. 0. 0. 0. 0. 0. 0. 0. 0. 0. 0. 0. 0. 0. 0. 0.
      0. 0. 0. 0. 0. 0. 0. 0. 0. 0. 0. 0. 0. 0. 0. 0. 0. 0. 0. 0. 0. 0.
      0. 0. 0. 0. 0. 0. 0. 0. 0. 0. 0. 0. 0. 0. 0. 0. 0. 0. 0. 0. 0. 0.
      0. 0. 0. 0. 0. 0. 0. 0. 0. 0. 0. 0. 0. 0. 0. 0. 0. 0.</_>
    <_>
      52. 46. 39. 41. 62. 93. 115. 125. 154. 168. 174. 162. 160. 158.
      150. 126. 63. 40. 33. 36. 46. 56. 56. 52. 47. 45. 46. 0. 36. 41.
      54. 68. 124. 185. 203. 212. 231. 241. 247. 244. 244. 245. 238.
      221. 139. 96. 58. 36. 32. 37. 42. 40. 37. 38. 42. 0. 41. 92. 134.
      158. 194. 233. 239. 244. 251. 251. 254. 254. 254. 254. 251. 251.
      235. 227. 177. 90. 33. 26. 36. 39. 36. 40. 44. 0. 78. 153. 200.
      219. 230. 240. 243. 248. 251. 252. 254. 254. 254. 254. 251. 251.
      248. 250. 232. 174. 94. 42. 25. 35. 42. 40. 42. 0. 139. 204. 228.
      235. 238. 242. 245. 249. 253. 253. 255. 255. 255. 255. 253. 253.
      246. 253. 246. 226. 157. 69. 27. 51. 67. 45. 32. 0. 153. 204. 228.
      238. 241. 246. 249. 250. 253. 253. 254. 255. 255. 254. 253. 253.
      254. 250. 245. 243. 206. 129. 83. 112. 126. 82. 32. 0. 106. 151.
      210. 240. 245. 248. 250. 251. 253. 254. 254. 254. 254. 254. 254.
      253. 253. 251. 245. 248. 234. 195. 166. 184. 189. 140. 64. 0. 55.
      109. 200. 242. 246. 249. 251. 252. 253. 254. 254. 254. 254. 254.
      254. 254. 248. 250. 248. 246. 239. 229. 215. 210. 197. 172. 106.
      0. 40. 111. 213. 246. 249. 252. 253. 253. 253. 252. 252. 252. 253.
      253. 254. 254. 251. 252. 252. 249. 238. 238. 226. 196. 154. 145.
      110. 0. 37. 124. 221. 245. 248. 252. 251. 251. 253. 252. 252. 252.
      253. 253. 254. 254. 252. 250. 253. 252. 237. 240. 227. 184. 124.
      105. 86. 0. 30. 120. 219. 244. 246. 249. 251. 253. 254. 254. 254.
      254. 253. 253. 254. 254. 253. 251. 251. 250. 236. 237. 223. 182.
      128. 97. 73. 0. 26. 115. 221. 246. 248. 248. 250. 253. 254. 254.
      255. 254. 254. 254. 253. 254. 254. 253. 250. 248. 239. 234. 206.
      180. 136. 98. 64. 0. 25. 116. 230. 248. 248. 245. 250. 254. 255.
      255. 255. 254. 254. 253. 253. 253. 253. 250. 250. 251. 240. 239.
      177. 157. 153. 104. 49. 0. 25. 104. 230. 245. 247. 245. 250. 254.
      255. 255. 255. 254. 254. 253. 253. 253. 253. 249. 248. 250. 242.
      236. 128. 83. 97. 68. 36. 0. 39. 92. 216. 242. 248. 250. 250. 254.
      255. 255. 255. 254. 254. 253. 253. 253. 253. 253. 248. 248. 239.
      198. 88. 36. 38. 44. 43. 0. 97. 142. 223. 243. 248. 250. 248. 253.
      255. 255. 255. 254. 254. 253. 253. 252. 251. 250. 249. 248. 220.
      104. 51. 31. 40. 47. 45. 0. 158. 207. 233. 240. 242. 249. 249.
      253. 254. 254. 254. 254. 254. 254. 253. 253. 251. 245. 245. 246.
      206. 50. 30. 33. 49. 46. 38. 0. 169. 217. 224. 239. 241. 249. 249.
      253. 253. 254. 254. 254. 255. 254. 254. 253. 252. 251. 247. 234.
      177. 55. 33. 36. 40. 38. 36. 0. 80. 168. 226. 229. 236. 240. 243.
      249. 252. 252. 251. 253. 253. 253. 253. 250. 247. 250. 236. 177.
      97. 38. 30. 39. 44. 42. 37. 0. 45. 98. 160. 168. 205. 235. 238.
      248. 250. 248. 247. 250. 251. 248. 250. 245. 234. 224. 179. 108.
      49. 30. 34. 41. 44. 39. 34. 0. 40. 58. 92. 89. 145. 213. 213. 229.
      236. 239. 246. 246. 243. 247. 248. 229. 180. 119. 83. 55. 34. 36.
      47. 42. 38. 38. 37. 0. 49. 52. 58. 45. 87. 142. 145. 163. 183.
      196. 218. 216. 201. 203. 198. 159. 94. 46. 39. 39. 32. 43. 53. 37.
      34. 39. 39. 0. 45. 46. 46. 41. 50. 57. 85. 110. 115. 92. 116. 122.
      107. 96. 87. 73. 50. 41. 48. 47. 36. 42. 46. 28. 34. 36. 34. 0. 0.
      0. 0. 0. 0. 0. 0. 0. 0. 0. 0. 0. 0. 0. 0. 0. 0. 0. 0. 0. 0. 0. 0.
      0. 0. 0. 0. 0. 0. 0. 0. 0. 0. 0. 0. 0. 0. 0. 0. 0. 0. 0. 0. 0. 0.
      0. 0. 0. 0. 0. 0. 0. 0. 0. 0. 0. 0. 0. 0. 0. 0. 0. 0. 0. 0. 0. 0.
      0. 0. 0. 0. 0. 0. 0. 0. 0. 0. 0. 0. 0. 0. 0. 0. 0. 0. 0. 0. 0. 0.
      0. 0. 0. 0. 0. 0. 0. 0. 0. 0. 0. 0. 0. 0. 0. 0. 0. 0. 0. 0. 0. 0.
      0. 0. 0. 0. 0. 0. 0. 0. 0. 0. 0. 0. 0. 0. 0. 0. 0. 0. 0. 0. 0. 0.
      0. 0. 0. 0. 0. 0. 0.</_>
    <_>
      142. 150. 147. 151. 168. 191. 213. 215. 219. 219. 214. 212. 209.
      204. 183. 165. 154. 148. 135. 95. 46. 0. 0. 0. 0. 0. 0. 0. 129.
      165. 180. 185. 204. 219. 240. 242. 252. 253. 251. 251. 251. 243.
      227. 216. 193. 155. 106. 64. 49. 0. 0. 0. 0. 0. 0. 0. 128. 193.
      219. 222. 229. 232. 244. 244. 250. 251. 251. 251. 249. 246. 237.
      234. 221. 189. 118. 60. 48. 0. 0. 0. 0. 0. 0. 0. 151. 223. 241.
      245. 248. 249. 251. 251. 252. 252. 253. 253. 253. 252. 249. 247.
      244. 232. 161. 79. 46. 0. 0. 0. 0. 0. 0. 0. 170. 236. 243. 246.
      248. 249. 251. 251. 252. 252. 253. 252. 252. 253. 251. 249. 250.
      249. 198. 104. 46. 0. 0. 0. 0. 0. 0. 0. 145. 214. 242. 244. 248.
      249. 252. 251. 251. 249. 254. 247. 246. 253. 251. 250. 249. 246.
      218. 138. 63. 0. 0. 0. 0. 0. 0. 0. 91. 170. 238. 241. 244. 246.
      251. 253. 254. 254. 254. 252. 252. 254. 250. 249. 248. 245. 234.
      187. 104. 0. 0. 0. 0. 0. 0. 0. 59. 152. 234. 236. 236. 239. 243.
      243. 247. 251. 254. 254. 254. 254. 253. 251. 250. 249. 246. 230.
      142. 0. 0. 0. 0. 0. 0. 0. 56. 156. 234. 232. 225. 224. 231. 236.
      243. 250. 250. 251. 252. 253. 254. 254. 253. 252. 249. 242. 157.
      0. 0. 0. 0. 0. 0. 0. 50. 152. 227. 225. 221. 221. 225. 227. 232.
      238. 243. 245. 249. 251. 253. 253. 253. 252. 252. 247. 159. 0. 0.
      0. 0. 0. 0. 0. 51. 158. 227. 226. 222. 222. 225. 225. 227. 232.
      240. 242. 248. 250. 252. 252. 251. 251. 249. 247. 156. 0. 0. 0. 0.
      0. 0. 0. 54. 166. 232. 229. 221. 219. 225. 230. 233. 237. 243.
      244. 250. 251. 252. 252. 252. 251. 247. 247. 159. 0. 0. 0. 0. 0.
      0. 0. 45. 162. 228. 230. 226. 226. 230. 235. 239. 242. 245. 247.
      252. 252. 254. 254. 253. 250. 251. 244. 160. 0. 0. 0. 0. 0. 0. 0.
      57. 164. 227. 238. 239. 240. 242. 244. 246. 248. 250. 251. 253.
      253. 254. 254. 252. 250. 251. 215. 135. 0. 0. 0. 0. 0. 0. 0. 93.
      192. 234. 243. 244. 245. 247. 250. 251. 252. 255. 255. 254. 253.
      254. 253. 249. 248. 243. 158. 88. 0. 0. 0. 0. 0. 0. 0. 178. 234.
      245. 247. 249. 249. 250. 251. 252. 254. 254. 253. 253. 254. 253.
      252. 249. 247. 232. 109. 49. 0. 0. 0. 0. 0. 0. 0. 174. 239. 251.
      250. 251. 253. 253. 253. 254. 255. 254. 251. 252. 253. 253. 250.
      248. 248. 204. 95. 43. 0. 0. 0. 0. 0. 0. 0. 118. 203. 237. 247.
      249. 251. 252. 253. 254. 252. 252. 254. 252. 247. 248. 253. 246.
      220. 123. 60. 37. 0. 0. 0. 0. 0. 0. 0. 63. 153. 202. 231. 244.
      248. 250. 251. 253. 246. 244. 251. 252. 250. 248. 241. 208. 160.
      67. 47. 47. 0. 0. 0. 0. 0. 0. 0. 41. 88. 121. 165. 207. 235. 246.
      248. 249. 251. 252. 252. 252. 243. 210. 160. 117. 88. 48. 47. 55.
      0. 0. 0. 0. 0. 0. 0. 47. 53. 51. 74. 128. 183. 213. 225. 230. 236.
      232. 226. 213. 181. 125. 74. 57. 60. 54. 50. 52. 0. 0. 0. 0. 0. 0.
      0. 46. 55. 43. 45. 73. 103. 119. 124. 133. 135. 131. 126. 116. 95.
      68. 47. 47. 57. 57. 49. 46. 0. 0. 0. 0. 0. 0. 0. 0. 0. 0. 0. 0. 0.
      0. 0. 0. 0. 0. 0. 0. 0. 0. 0. 0. 0. 0. 0. 0. 0. 0. 0. 0. 0. 0. 0.
      0. 0. 0. 0. 0. 0. 0. 0. 0. 0. 0. 0. 0. 0. 0. 0. 0. 0. 0. 0. 0. 0.
      0. 0. 0. 0. 0. 0. 0. 0. 0. 0. 0. 0. 0. 0. 0. 0. 0. 0. 0. 0. 0. 0.
      0. 0. 0. 0. 0. 0. 0. 0. 0. 0. 0. 0. 0. 0. 0. 0. 0. 0. 0. 0. 0. 0.
      0. 0. 0. 0. 0. 0. 0. 0. 0. 0. 0. 0. 0. 0. 0. 0. 0. 0. 0. 0. 0. 0.
      0. 0. 0. 0. 0. 0. 0. 0. 0. 0. 0. 0. 0. 0. 0. 0. 0. 0. 0. 0. 0. 0.
      0. 0. 0. 0. 0. 0. 0. 0. 0. 0. 0. 0. 0. 0. 0. 0. 0. 0. 0. 0. 0. 0.
      0. 0. 0. 0. 0. 0. 0. 0.</_>
    <_>
      44. 48. 48. 45. 44. 49. 82. 138. 189. 204. 216. 213. 203. 199.
      178. 154. 97. 47. 32. 42. 41. 0. 0. 0. 0. 0. 0. 0. 45. 38. 38. 59.
      92. 122. 169. 222. 231. 238. 245. 246. 248. 247. 238. 224. 179.
      127. 83. 60. 44. 0. 0. 0. 0. 0. 0. 0. 43. 40. 57. 112. 183. 223.
      235. 241. 244. 244. 248. 246. 249. 250. 249. 244. 234. 216. 181.
      121. 63. 0. 0. 0. 0. 0. 0. 0. 37. 55. 107. 181. 234. 240. 241.
      244. 246. 248. 252. 251. 252. 252. 251. 249. 240. 239. 235. 192.
      125. 0. 0. 0. 0. 0. 0. 0. 37. 73. 157. 226. 239. 235. 238. 244.
      247. 249. 254. 254. 254. 254. 251. 249. 246. 241. 243. 243. 193.
      0. 0. 0. 0. 0. 0. 0. 50. 102. 185. 237. 242. 241. 247. 250. 252.
      253. 254. 254. 253. 254. 252. 250. 248. 249. 246. 237. 177. 0. 0.
      0. 0. 0. 0. 0. 69. 138. 206. 234. 238. 244. 248. 249. 254. 254.
      254. 254. 253. 253. 250. 250. 246. 246. 242. 192. 99. 0. 0. 0. 0.
      0. 0. 0. 114. 201. 235. 241. 246. 248. 251. 251. 254. 253. 254.
      253. 251. 249. 246. 245. 243. 236. 233. 183. 78. 0. 0. 0. 0. 0. 0.
      0. 136. 214. 238. 243. 248. 249. 251. 251. 251. 250. 248. 246.
      243. 240. 234. 230. 224. 224. 214. 193. 78. 0. 0. 0. 0. 0. 0. 0.
      148. 218. 234. 240. 246. 248. 249. 249. 246. 242. 238. 235. 231.
      227. 224. 219. 211. 219. 222. 204. 82. 0. 0. 0. 0. 0. 0. 0. 146.
      217. 232. 239. 246. 247. 249. 248. 244. 238. 232. 226. 221. 217.
      215. 212. 209. 211. 216. 193. 79. 0. 0. 0. 0. 0. 0. 0. 149. 220.
      235. 242. 247. 248. 251. 251. 247. 241. 234. 228. 223. 217. 213.
      212. 212. 209. 214. 187. 79. 0. 0. 0. 0. 0. 0. 0. 145. 219. 238.
      245. 248. 250. 252. 254. 252. 247. 242. 237. 232. 227. 222. 218.
      212. 211. 216. 183. 76. 0. 0. 0. 0. 0. 0. 0. 124. 206. 233. 242.
      245. 250. 252. 254. 254. 251. 248. 243. 238. 233. 228. 223. 217.
      217. 216. 173. 67. 0. 0. 0. 0. 0. 0. 0. 99. 181. 225. 237. 242.
      249. 251. 253. 254. 254. 254. 253. 253. 251. 247. 244. 239. 234.
      224. 174. 83. 0. 0. 0. 0. 0. 0. 0. 59. 133. 212. 236. 239. 247.
      249. 252. 253. 253. 254. 253. 253. 252. 251. 249. 245. 242. 237.
      203. 129. 0. 0. 0. 0. 0. 0. 0. 46. 102. 195. 232. 235. 243. 246.
      252. 251. 250. 252. 254. 252. 249. 250. 251. 249. 245. 244. 226.
      169. 0. 0. 0. 0. 0. 0. 0. 46. 80. 154. 214. 234. 242. 242. 251.
      253. 254. 253. 254. 254. 252. 252. 248. 246. 247. 246. 220. 155.
      0. 0. 0. 0. 0. 0. 0. 48. 51. 96. 176. 220. 233. 237. 244. 246.
      248. 248. 250. 252. 252. 250. 247. 245. 239. 223. 179. 104. 0. 0.
      0. 0. 0. 0. 0. 55. 45. 58. 117. 165. 196. 227. 241. 246. 251. 250.
      251. 252. 252. 248. 246. 227. 193. 153. 105. 52. 0. 0. 0. 0. 0. 0.
      0. 57. 48. 48. 70. 82. 113. 172. 216. 231. 240. 243. 245. 245.
      241. 232. 211. 168. 114. 71. 45. 31. 0. 0. 0. 0. 0. 0. 0. 46. 42.
      47. 62. 53. 56. 95. 141. 160. 178. 188. 190. 183. 173. 163. 128.
      92. 56. 36. 35. 40. 0. 0. 0. 0. 0. 0. 0. 0. 0. 0. 0. 0. 0. 0. 0.
      0. 0. 0. 0. 0. 0. 0. 0. 0. 0. 0. 0. 0. 0. 0. 0. 0. 0. 0. 0. 0. 0.
      0. 0. 0. 0. 0. 0. 0. 0. 0. 0. 0. 0. 0. 0. 0. 0. 0. 0. 0. 0. 0. 0.
      0. 0. 0. 0. 0. 0. 0. 0. 0. 0. 0. 0. 0. 0. 0. 0. 0. 0. 0. 0. 0. 0.
      0. 0. 0. 0. 0. 0. 0. 0. 0. 0. 0. 0. 0. 0. 0. 0. 0. 0. 0. 0. 0. 0.
      0. 0. 0. 0. 0. 0. 0. 0. 0. 0. 0. 0. 0. 0. 0. 0. 0. 0. 0. 0. 0. 0.
      0. 0. 0. 0. 0. 0. 0. 0. 0. 0. 0. 0. 0. 0. 0. 0. 0. 0. 0. 0. 0. 0.
      0. 0. 0. 0. 0. 0. 0. 0. 0. 0. 0. 0. 0. 0. 0. 0. 0. 0. 0. 0. 0. 0.
      0. 0. 0. 0. 0. 0.</_>
    <_>
      53. 59. 58. 53. 54. 47. 48. 55. 63. 82. 91. 96. 99. 93. 94. 85.
      58. 37. 38. 48. 44. 40. 0. 0. 0. 0. 0. 0. 55. 58. 54. 52. 45. 34.
      70. 134. 171. 187. 196. 203. 201. 197. 189. 169. 119. 68. 40. 38.
      47. 33. 0. 0. 0. 0. 0. 0. 62. 55. 45. 38. 70. 93. 147. 216. 237.
      241. 242. 247. 250. 249. 248. 239. 206. 151. 97. 61. 41. 18. 0. 0.
      0. 0. 0. 0. 44. 26. 32. 83. 171. 211. 223. 244. 247. 248. 248.
      252. 255. 252. 249. 248. 246. 231. 202. 155. 69. 25. 0. 0. 0. 0.
      0. 0. 47. 34. 78. 171. 227. 242. 238. 244. 249. 253. 254. 253.
      253. 251. 246. 245. 249. 250. 247. 228. 160. 73. 0. 0. 0. 0. 0. 0.
      38. 44. 127. 223. 239. 243. 242. 248. 252. 254. 252. 251. 252.
      252. 252. 253. 253. 250. 243. 241. 222. 130. 0. 0. 0. 0. 0. 0. 33.
      53. 158. 241. 243. 245. 247. 251. 252. 253. 251. 253. 253. 251.
      252. 253. 251. 250. 252. 248. 223. 145. 0. 0. 0. 0. 0. 0. 49. 97.
      199. 245. 245. 247. 248. 252. 252. 254. 254. 255. 254. 253. 254.
      253. 252. 251. 249. 218. 147. 81. 0. 0. 0. 0. 0. 0. 72. 152. 232.
      248. 249. 250. 251. 253. 253. 254. 254. 253. 250. 249. 250. 250.
      248. 247. 248. 200. 101. 41. 0. 0. 0. 0. 0. 0. 88. 187. 242. 251.
      252. 253. 254. 255. 255. 254. 254. 252. 250. 246. 244. 239. 233.
      233. 236. 202. 105. 33. 0. 0. 0. 0. 0. 0. 94. 197. 241. 251. 251.
      253. 253. 254. 253. 251. 250. 247. 245. 242. 237. 229. 223. 224.
      231. 207. 111. 32. 0. 0. 0. 0. 0. 0. 95. 198. 240. 250. 251. 252.
      252. 251. 250. 247. 246. 234. 230. 229. 226. 221. 219. 220. 225.
      197. 103. 31. 0. 0. 0. 0. 0. 0. 97. 197. 241. 249. 250. 251. 251.
      251. 250. 247. 245. 233. 230. 229. 226. 221. 218. 219. 222. 192.
      103. 34. 0. 0. 0. 0. 0. 0. 101. 195. 242. 248. 249. 251. 252. 253.
      252. 251. 249. 247. 245. 239. 235. 229. 224. 224. 226. 194. 100.
      33. 0. 0. 0. 0. 0. 0. 95. 188. 242. 246. 248. 251. 252. 253. 253.
      252. 251. 249. 249. 243. 242. 235. 232. 230. 231. 198. 95. 30. 0.
      0. 0. 0. 0. 0. 75. 156. 228. 244. 245. 249. 251. 255. 255. 253.
      247. 250. 250. 248. 248. 246. 245. 243. 242. 207. 117. 47. 0. 0.
      0. 0. 0. 0. 49. 103. 186. 238. 244. 247. 248. 252. 255. 255. 253.
      251. 251. 248. 249. 251. 249. 248. 247. 227. 180. 99. 0. 0. 0. 0.
      0. 0. 43. 61. 151. 229. 242. 245. 248. 253. 252. 249. 248. 253.
      253. 252. 252. 253. 251. 249. 249. 245. 233. 145. 0. 0. 0. 0. 0.
      0. 49. 50. 122. 206. 240. 244. 246. 252. 252. 251. 251. 250. 253.
      255. 254. 251. 251. 253. 254. 241. 208. 117. 0. 0. 0. 0. 0. 0. 51.
      44. 74. 148. 218. 241. 245. 248. 246. 247. 253. 252. 253. 254.
      252. 250. 249. 249. 245. 218. 140. 66. 0. 0. 0. 0. 0. 0. 53. 45.
      43. 87. 153. 197. 228. 246. 248. 250. 252. 252. 253. 253. 250.
      251. 244. 223. 193. 146. 69. 34. 0. 0. 0. 0. 0. 0. 59. 53. 48. 55.
      69. 99. 144. 200. 233. 244. 245. 248. 247. 247. 243. 234. 203.
      140. 83. 55. 36. 29. 0. 0. 0. 0. 0. 0. 57. 52. 57. 55. 51. 56. 78.
      123. 162. 184. 190. 199. 196. 200. 193. 170. 123. 67. 30. 37. 54.
      53. 0. 0. 0. 0. 0. 0. 48. 49. 60. 48. 54. 56. 59. 74. 95. 111.
      111. 114. 111. 109. 100. 76. 48. 39. 50. 45. 49. 47. 0. 0. 0. 0.
      0. 0. 0. 0. 0. 0. 0. 0. 0. 0. 0. 0. 0. 0. 0. 0. 0. 0. 0. 0. 0. 0.
      0. 0. 0. 0. 0. 0. 0. 0. 0. 0. 0. 0. 0. 0. 0. 0. 0. 0. 0. 0. 0. 0.
      0. 0. 0. 0. 0. 0. 0. 0. 0. 0. 0. 0. 0. 0. 0. 0. 0. 0. 0. 0. 0. 0.
      0. 0. 0. 0. 0. 0. 0. 0. 0. 0. 0. 0. 0. 0. 0. 0. 0. 0. 0. 0. 0. 0.
      0. 0. 0. 0. 0. 0. 0. 0. 0. 0. 0. 0. 0. 0. 0. 0. 0. 0. 0. 0. 0. 0.
      0. 0. 0. 0.</_>
    <_>
      40. 43. 47. 40. 41. 37. 42. 53. 79. 86. 84. 70. 68. 62. 49. 29.
      21. 19. 32. 34. 35. 0. 0. 0. 0. 0. 0. 0. 46. 47. 47. 39. 41. 49.
      79. 136. 192. 208. 219. 216. 223. 226. 192. 146. 60. 28. 25. 27.
      35. 0. 0. 0. 0. 0. 0. 0. 48. 43. 39. 48. 84. 119. 164. 221. 244.
      247. 246. 243. 246. 246. 242. 218. 146. 107. 68. 34. 24. 0. 0. 0.
      0. 0. 0. 0. 47. 39. 51. 94. 164. 213. 231. 243. 251. 251. 249.
      243. 247. 251. 250. 245. 227. 215. 162. 76. 23. 0. 0. 0. 0. 0. 0.
      0. 47. 44. 96. 174. 224. 242. 242. 243. 248. 250. 252. 251. 251.
      252. 251. 249. 250. 250. 229. 153. 60. 0. 0. 0. 0. 0. 0. 0. 46.
      55. 143. 226. 242. 243. 247. 251. 254. 252. 249. 247. 247. 249.
      253. 253. 247. 243. 248. 218. 109. 0. 0. 0. 0. 0. 0. 0. 45. 69.
      165. 236. 242. 244. 250. 251. 254. 254. 253. 253. 253. 253. 254.
      253. 250. 244. 249. 229. 113. 0. 0. 0. 0. 0. 0. 0. 55. 104. 191.
      242. 247. 248. 250. 253. 254. 254. 253. 254. 254. 254. 252. 252.
      248. 247. 244. 207. 85. 0. 0. 0. 0. 0. 0. 0. 90. 170. 226. 244.
      248. 251. 253. 254. 254. 255. 254. 254. 254. 252. 248. 246. 242.
      242. 238. 200. 82. 0. 0. 0. 0. 0. 0. 0. 103. 208. 240. 243. 247.
      251. 252. 252. 252. 252. 252. 251. 248. 244. 239. 237. 235. 231.
      235. 218. 104. 0. 0. 0. 0. 0. 0. 0. 91. 207. 238. 244. 248. 250.
      251. 251. 249. 248. 245. 242. 238. 234. 231. 229. 227. 219. 228.
      227. 114. 0. 0. 0. 0. 0. 0. 0. 86. 208. 235. 245. 249. 251. 252.
      250. 247. 245. 241. 236. 231. 228. 227. 226. 224. 218. 227. 225.
      109. 0. 0. 0. 0. 0. 0. 0. 97. 221. 236. 244. 248. 251. 253. 250.
      248. 246. 243. 239. 233. 230. 226. 224. 222. 221. 227. 223. 104.
      0. 0. 0. 0. 0. 0. 0. 98. 222. 237. 243. 247. 251. 253. 252. 251.
      250. 249. 247. 242. 237. 230. 226. 223. 224. 229. 219. 99. 0. 0.
      0. 0. 0. 0. 0. 91. 211. 236. 246. 247. 251. 253. 253. 253. 253.
      253. 251. 249. 245. 241. 237. 233. 232. 233. 214. 87. 0. 0. 0. 0.
      0. 0. 0. 74. 164. 223. 243. 244. 249. 252. 252. 251. 252. 252.
      252. 250. 249. 247. 245. 241. 237. 232. 207. 80. 0. 0. 0. 0. 0. 0.
      0. 50. 99. 194. 240. 244. 247. 253. 250. 249. 251. 253. 254. 253.
      253. 254. 253. 252. 252. 247. 230. 114. 0. 0. 0. 0. 0. 0. 0. 40.
      68. 166. 237. 243. 243. 251. 250. 248. 251. 252. 253. 254. 254.
      254. 254. 252. 250. 249. 236. 138. 0. 0. 0. 0. 0. 0. 0. 48. 54.
      125. 216. 241. 243. 248. 250. 252. 253. 252. 250. 252. 254. 254.
      252. 249. 250. 242. 202. 106. 0. 0. 0. 0. 0. 0. 0. 58. 45. 74.
      160. 220. 241. 246. 246. 249. 253. 254. 254. 254. 253. 248. 247.
      251. 248. 220. 138. 50. 0. 0. 0. 0. 0. 0. 0. 63. 49. 47. 92. 153.
      198. 222. 241. 247. 250. 250. 251. 252. 252. 250. 246. 222. 189.
      147. 76. 28. 0. 0. 0. 0. 0. 0. 0. 58. 54. 49. 55. 71. 108. 151.
      220. 240. 249. 248. 246. 249. 248. 241. 201. 135. 93. 68. 45. 36.
      0. 0. 0. 0. 0. 0. 0. 49. 49. 53. 56. 52. 51. 56. 131. 169. 200.
      204. 199. 193. 181. 161. 122. 67. 40. 41. 45. 46. 0. 0. 0. 0. 0.
      0. 0. 0. 0. 0. 0. 0. 0. 0. 0. 0. 0. 0. 0. 0. 0. 0. 0. 0. 0. 0. 0.
      0. 0. 0. 0. 0. 0. 0. 0. 0. 0. 0. 0. 0. 0. 0. 0. 0. 0. 0. 0. 0. 0.
      0. 0. 0. 0. 0. 0. 0. 0. 0. 0. 0. 0. 0. 0. 0. 0. 0. 0. 0. 0. 0. 0.
      0. 0. 0. 0. 0. 0. 0. 0. 0. 0. 0. 0. 0. 0. 0. 0. 0. 0. 0. 0. 0. 0.
      0. 0. 0. 0. 0. 0. 0. 0. 0. 0. 0. 0. 0. 0. 0. 0. 0. 0. 0. 0. 0. 0.
      0. 0. 0. 0. 0. 0. 0. 0. 0. 0. 0. 0. 0. 0. 0. 0. 0. 0. 0. 0. 0. 0.
      0. 0. 0. 0. 0. 0. 0. 0. 0. 0.</_>
    <_>
      56. 58. 54. 66. 40. 53. 105. 153. 189. 202. 189. 199. 187. 182.
      169. 119. 59. 35. 39. 45. 43. 0. 0. 0. 0. 0. 0. 0. 51. 53. 58. 70.
      87. 131. 187. 223. 232. 240. 238. 242. 236. 237. 237. 204. 129.
      81. 74. 50. 37. 0. 0. 0. 0. 0. 0. 0. 48. 57. 74. 116. 171. 220.
      233. 242. 241. 245. 251. 250. 249. 247. 246. 241. 216. 189. 155.
      83. 36. 0. 0. 0. 0. 0. 0. 0. 55. 71. 107. 188. 225. 237. 236. 244.
      246. 252. 253. 251. 252. 251. 250. 251. 250. 240. 219. 156. 60. 0.
      0. 0. 0. 0. 0. 0. 56. 81. 177. 227. 234. 241. 243. 249. 250. 254.
      254. 254. 254. 253. 253. 251. 250. 247. 244. 213. 115. 0. 0. 0. 0.
      0. 0. 0. 59. 101. 187. 230. 235. 242. 244. 250. 251. 255. 255.
      254. 254. 253. 252. 251. 251. 249. 247. 225. 144. 0. 0. 0. 0. 0.
      0. 0. 77. 139. 210. 238. 243. 248. 249. 252. 253. 253. 253. 253.
      254. 252. 252. 250. 249. 248. 244. 212. 119. 0. 0. 0. 0. 0. 0. 0.
      113. 183. 229. 242. 245. 250. 250. 253. 254. 253. 253. 254. 252.
      251. 248. 245. 243. 241. 238. 211. 122. 0. 0. 0. 0. 0. 0. 0. 134.
      208. 236. 245. 248. 251. 251. 253. 252. 251. 250. 249. 246. 242.
      239. 235. 233. 232. 232. 218. 150. 0. 0. 0. 0. 0. 0. 0. 136. 212.
      236. 245. 248. 251. 251. 252. 251. 248. 244. 241. 237. 232. 229.
      226. 226. 227. 228. 221. 163. 0. 0. 0. 0. 0. 0. 0. 134. 209. 235.
      246. 249. 251. 251. 251. 248. 243. 238. 234. 231. 228. 225. 223.
      223. 224. 225. 222. 163. 0. 0. 0. 0. 0. 0. 0. 134. 208. 236. 246.
      249. 251. 251. 251. 247. 239. 234. 231. 229. 227. 225. 222. 221.
      220. 222. 225. 162. 0. 0. 0. 0. 0. 0. 0. 128. 201. 236. 246. 249.
      251. 251. 252. 250. 245. 242. 240. 235. 231. 228. 225. 223. 220.
      223. 228. 165. 0. 0. 0. 0. 0. 0. 0. 126. 198. 238. 247. 248. 249.
      251. 252. 252. 251. 249. 248. 244. 239. 236. 233. 229. 225. 226.
      224. 163. 0. 0. 0. 0. 0. 0. 0. 103. 177. 226. 242. 247. 248. 251.
      251. 250. 252. 252. 251. 250. 249. 244. 239. 236. 235. 233. 212.
      143. 0. 0. 0. 0. 0. 0. 0. 67. 127. 197. 235. 246. 246. 250. 251.
      249. 252. 255. 255. 253. 252. 249. 245. 244. 244. 239. 205. 119.
      0. 0. 0. 0. 0. 0. 0. 52. 91. 180. 231. 241. 237. 245. 250. 251.
      253. 253. 254. 253. 252. 252. 251. 249. 245. 242. 230. 147. 0. 0.
      0. 0. 0. 0. 0. 51. 67. 151. 218. 240. 238. 245. 249. 252. 253.
      252. 253. 253. 252. 251. 253. 251. 243. 239. 221. 148. 0. 0. 0. 0.
      0. 0. 0. 52. 52. 96. 167. 223. 238. 243. 244. 249. 251. 252. 252.
      252. 248. 246. 249. 251. 250. 237. 152. 70. 0. 0. 0. 0. 0. 0. 0.
      60. 51. 60. 102. 165. 205. 226. 235. 245. 249. 250. 251. 250. 250.
      249. 245. 231. 213. 187. 91. 28. 0. 0. 0. 0. 0. 0. 0. 61. 57. 54.
      66. 89. 119. 159. 202. 233. 241. 243. 243. 243. 246. 238. 207.
      142. 80. 46. 37. 34. 0. 0. 0. 0. 0. 0. 0. 56. 58. 58. 57. 50. 51.
      80. 130. 171. 182. 193. 191. 192. 194. 173. 118. 61. 33. 47. 52.
      53. 0. 0. 0. 0. 0. 0. 0. 0. 0. 0. 0. 0. 0. 0. 0. 0. 0. 0. 0. 0. 0.
      0. 0. 0. 0. 0. 0. 0. 0. 0. 0. 0. 0. 0. 0. 0. 0. 0. 0. 0. 0. 0. 0.
      0. 0. 0. 0. 0. 0. 0. 0. 0. 0. 0. 0. 0. 0. 0. 0. 0. 0. 0. 0. 0. 0.
      0. 0. 0. 0. 0. 0. 0. 0. 0. 0. 0. 0. 0. 0. 0. 0. 0. 0. 0. 0. 0. 0.
      0. 0. 0. 0. 0. 0. 0. 0. 0. 0. 0. 0. 0. 0. 0. 0. 0. 0. 0. 0. 0. 0.
      0. 0. 0. 0. 0. 0. 0. 0. 0. 0. 0. 0. 0. 0. 0. 0. 0. 0. 0. 0. 0. 0.
      0. 0. 0. 0. 0. 0. 0. 0. 0. 0. 0. 0. 0. 0. 0. 0. 0. 0. 0. 0. 0. 0.
      0. 0. 0. 0. 0. 0. 0. 0. 0. 0. 0. 0. 0. 0. 0. 0. 0. 0. 0. 0. 0. 0.</_>
    <_>
      53. 56. 57. 52. 50. 51. 65. 100. 153. 182. 191. 189. 191. 191.
      175. 126. 69. 45. 48. 52. 50. 53. 0. 0. 0. 0. 0. 0. 57. 56. 53.
      59. 84. 111. 163. 207. 240. 243. 247. 246. 246. 244. 242. 208.
      146. 105. 78. 49. 39. 53. 0. 0. 0. 0. 0. 0. 68. 63. 60. 86. 149.
      203. 229. 237. 243. 241. 244. 247. 250. 247. 248. 242. 230. 216.
      161. 87. 49. 64. 0. 0. 0. 0. 0. 0. 54. 53. 78. 140. 219. 241. 249.
      249. 246. 250. 254. 254. 251. 250. 250. 249. 246. 247. 226. 154.
      97. 88. 0. 0. 0. 0. 0. 0. 58. 58. 119. 206. 242. 244. 243. 250.
      254. 254. 254. 245. 245. 251. 249. 251. 250. 251. 247. 213. 162.
      128. 0. 0. 0. 0. 0. 0. 54. 66. 153. 238. 246. 246. 251. 251. 252.
      253. 252. 250. 253. 254. 253. 254. 250. 244. 245. 240. 199. 148.
      0. 0. 0. 0. 0. 0. 52. 94. 186. 237. 244. 243. 249. 249. 254. 254.
      254. 253. 253. 247. 250. 251. 252. 250. 235. 225. 195. 144. 0. 0.
      0. 0. 0. 0. 70. 153. 225. 238. 250. 251. 251. 251. 255. 253. 245.
      248. 251. 250. 251. 253. 247. 211. 162. 152. 155. 140. 0. 0. 0. 0.
      0. 0. 95. 200. 238. 238. 251. 251. 252. 252. 254. 249. 245. 252.
      250. 242. 226. 225. 196. 136. 94. 110. 145. 153. 0. 0. 0. 0. 0. 0.
      105. 207. 241. 242. 252. 251. 246. 247. 253. 251. 245. 242. 209.
      150. 106. 112. 95. 78. 90. 124. 150. 154. 0. 0. 0. 0. 0. 0. 101.
      194. 241. 247. 254. 253. 252. 248. 236. 211. 191. 181. 135. 69.
      45. 48. 52. 77. 115. 138. 149. 157. 0. 0. 0. 0. 0. 0. 105. 206.
      245. 247. 253. 250. 249. 246. 210. 152. 125. 119. 87. 45. 40. 44.
      66. 103. 133. 144. 151. 161. 0. 0. 0. 0. 0. 0. 101. 200. 244. 248.
      252. 252. 251. 249. 233. 213. 202. 186. 142. 88. 60. 62. 89. 121.
      138. 147. 153. 154. 0. 0. 0. 0. 0. 0. 102. 198. 242. 247. 250.
      251. 252. 250. 246. 244. 244. 238. 218. 185. 147. 139. 145. 153.
      152. 152. 154. 154. 0. 0. 0. 0. 0. 0. 92. 188. 236. 246. 249. 248.
      249. 252. 251. 248. 245. 245. 244. 238. 224. 216. 210. 202. 184.
      174. 169. 165. 0. 0. 0. 0. 0. 0. 67. 139. 210. 242. 245. 247. 252.
      254. 254. 252. 249. 250. 249. 248. 247. 244. 241. 232. 218. 210.
      204. 195. 0. 0. 0. 0. 0. 0. 47. 81. 175. 233. 242. 249. 254. 255.
      250. 248. 251. 254. 253. 252. 252. 251. 251. 246. 239. 235. 229.
      215. 0. 0. 0. 0. 0. 0. 47. 53. 136. 220. 242. 246. 251. 253. 251.
      250. 252. 253. 253. 253. 252. 251. 251. 249. 245. 239. 224. 199.
      0. 0. 0. 0. 0. 0. 57. 47. 103. 193. 236. 248. 249. 249. 251. 254.
      254. 254. 254. 252. 250. 251. 251. 250. 248. 239. 213. 178. 0. 0.
      0. 0. 0. 0. 59. 53. 60. 112. 196. 234. 242. 245. 245. 248. 252.
      253. 253. 253. 252. 250. 250. 247. 240. 225. 194. 161. 0. 0. 0. 0.
      0. 0. 61. 65. 50. 63. 118. 158. 196. 232. 244. 247. 249. 249. 249.
      250. 251. 247. 241. 224. 197. 175. 155. 147. 0. 0. 0. 0. 0. 0. 56.
      69. 61. 50. 62. 71. 112. 170. 209. 230. 235. 235. 235. 231. 226.
      221. 206. 169. 123. 108. 119. 139. 0. 0. 0. 0. 0. 0. 50. 61. 64.
      59. 63. 55. 62. 89. 126. 153. 165. 163. 163. 156. 146. 133. 129.
      115. 88. 89. 112. 131. 0. 0. 0. 0. 0. 0. 0. 0. 0. 0. 0. 0. 0. 0.
      0. 0. 0. 0. 0. 0. 0. 0. 0. 0. 0. 0. 0. 0. 0. 0. 0. 0. 0. 0. 0. 0.
      0. 0. 0. 0. 0. 0. 0. 0. 0. 0. 0. 0. 0. 0. 0. 0. 0. 0. 0. 0. 0. 0.
      0. 0. 0. 0. 0. 0. 0. 0. 0. 0. 0. 0. 0. 0. 0. 0. 0. 0. 0. 0. 0. 0.
      0. 0. 0. 0. 0. 0. 0. 0. 0. 0. 0. 0. 0. 0. 0. 0. 0. 0. 0. 0. 0. 0.
      0. 0. 0. 0. 0. 0. 0. 0. 0. 0. 0. 0. 0. 0. 0. 0. 0. 0. 0. 0. 0. 0.
      0. 0. 0. 0. 0. 0. 0. 0. 0. 0. 0. 0. 0. 0. 0. 0. 0. 0. 0. 0. 0. 0.</_>
    <_>
      65. 66. 65. 64. 53. 52. 91. 123. 123. 129. 131. 149. 149. 135.
      115. 112. 107. 76. 40. 22. 43. 59. 49. 0. 0. 0. 0. 0. 66. 63. 59.
      64. 71. 92. 159. 213. 215. 220. 230. 237. 244. 246. 242. 244. 235.
      180. 101. 60. 39. 38. 48. 0. 0. 0. 0. 0. 56. 56. 67. 108. 151.
      174. 211. 242. 244. 246. 245. 247. 245. 248. 249. 250. 249. 242.
      213. 173. 115. 56. 32. 0. 0. 0. 0. 0. 52. 65. 108. 184. 227. 233.
      235. 244. 244. 248. 247. 254. 247. 244. 253. 254. 253. 252. 244.
      239. 219. 135. 46. 0. 0. 0. 0. 0. 53. 95. 169. 221. 233. 235. 238.
      247. 247. 251. 252. 253. 248. 254. 254. 250. 248. 251. 249. 245.
      247. 202. 105. 0. 0. 0. 0. 0. 52. 121. 211. 235. 237. 242. 247.
      252. 252. 254. 254. 253. 255. 254. 254. 253. 250. 251. 253. 243.
      244. 235. 144. 0. 0. 0. 0. 0. 72. 144. 216. 236. 238. 243. 247.
      251. 251. 252. 254. 255. 252. 245. 249. 254. 253. 254. 253. 245.
      214. 194. 114. 0. 0. 0. 0. 0. 119. 190. 231. 238. 240. 245. 249.
      252. 252. 253. 253. 249. 247. 250. 250. 250. 247. 249. 249. 185.
      120. 93. 61. 0. 0. 0. 0. 0. 160. 221. 236. 238. 242. 246. 250.
      252. 253. 254. 254. 253. 252. 251. 247. 220. 195. 181. 171. 101.
      43. 37. 46. 0. 0. 0. 0. 0. 178. 228. 236. 242. 245. 249. 251. 252.
      252. 251. 246. 240. 244. 243. 207. 129. 82. 85. 93. 64. 38. 46.
      59. 0. 0. 0. 0. 0. 179. 226. 235. 242. 246. 248. 250. 251. 249.
      244. 220. 170. 140. 130. 110. 63. 41. 53. 62. 57. 57. 61. 59. 0.
      0. 0. 0. 0. 180. 228. 234. 241. 245. 247. 249. 249. 247. 242. 200.
      124. 92. 88. 77. 46. 43. 64. 68. 59. 66. 63. 57. 0. 0. 0. 0. 0.
      182. 228. 232. 238. 245. 247. 249. 251. 249. 245. 232. 207. 190.
      182. 147. 79. 51. 66. 71. 57. 60. 54. 59. 0. 0. 0. 0. 0. 189. 226.
      232. 235. 242. 246. 251. 253. 251. 250. 251. 244. 240. 242. 216.
      161. 128. 121. 110. 71. 40. 39. 49. 0. 0. 0. 0. 0. 164. 222. 233.
      236. 242. 244. 248. 253. 254. 253. 253. 250. 247. 249. 242. 226.
      218. 215. 198. 145. 67. 58. 50. 0. 0. 0. 0. 0. 99. 181. 224. 233.
      241. 245. 248. 252. 253. 253. 253. 253. 251. 250. 249. 248. 249.
      250. 246. 222. 165. 141. 96. 0. 0. 0. 0. 0. 51. 132. 220. 230.
      234. 243. 250. 252. 253. 253. 253. 255. 253. 251. 251. 252. 252.
      251. 249. 245. 243. 233. 158. 0. 0. 0. 0. 0. 46. 115. 221. 232.
      234. 237. 244. 248. 252. 252. 253. 255. 253. 252. 252. 252. 251.
      250. 248. 244. 246. 226. 149. 0. 0. 0. 0. 0. 45. 78. 158. 218.
      238. 238. 240. 246. 250. 251. 253. 255. 254. 254. 255. 253. 250.
      250. 251. 247. 231. 172. 81. 0. 0. 0. 0. 0. 45. 42. 79. 165. 207.
      213. 229. 239. 244. 247. 251. 251. 253. 254. 254. 252. 250. 247.
      237. 219. 179. 105. 34. 0. 0. 0. 0. 0. 66. 49. 55. 93. 108. 137.
      202. 231. 234. 241. 248. 248. 251. 252. 247. 248. 243. 218. 170.
      119. 79. 41. 30. 0. 0. 0. 0. 0. 61. 58. 55. 63. 55. 71. 136. 179.
      182. 191. 211. 215. 217. 215. 207. 208. 197. 145. 75. 35. 41. 55.
      60. 0. 0. 0. 0. 0. 57. 60. 68. 62. 53. 48. 78. 102. 97. 103. 120.
      122. 117. 115. 111. 99. 76. 53. 44. 48. 57. 64. 65. 0. 0. 0. 0. 0.
      0. 0. 0. 0. 0. 0. 0. 0. 0. 0. 0. 0. 0. 0. 0. 0. 0. 0. 0. 0. 0. 0.
      0. 0. 0. 0. 0. 0. 0. 0. 0. 0. 0. 0. 0. 0. 0. 0. 0. 0. 0. 0. 0. 0.
      0. 0. 0. 0. 0. 0. 0. 0. 0. 0. 0. 0. 0. 0. 0. 0. 0. 0. 0. 0. 0. 0.
      0. 0. 0. 0. 0. 0. 0. 0. 0. 0. 0. 0. 0. 0. 0. 0. 0. 0. 0. 0. 0. 0.
      0. 0. 0. 0. 0. 0. 0. 0. 0. 0. 0. 0. 0. 0. 0. 0. 0. 0. 0. 0. 0. 0.
      0. 0. 0. 0. 0. 0. 0. 0. 0. 0. 0. 0. 0. 0. 0. 0. 0. 0. 0. 0. 0. 0.
      0. 0. 0. 0. 0. 0. 0. 0.</_></support_vectors>
  <decision_functions>
    <_>
      <sv_count>16</sv_count>
      <rho>-3.9765554769514391e+00</rho>
      <alpha>
        2.4090503822994698e-29 1.9214115470699104e-30
        7.6760341037290028e-30 2.8917949468674280e-29
        6.3303567312861951e-29 3.0191176713121884e-30
        1.2440599309376923e-29 9.5769876021180821e-29
        1.0292942475559565e-29 2.5777790824000981e-29
        -3.0777541436256278e-29 -4.8105605384665252e-29
        -3.5992633844506724e-29 -4.2865609386840512e-29
        -6.5266736369402834e-29 -5.0201666135088758e-29</alpha>
      <index>
        0 1 2 3 4 5 6 7 8 9 10 11 12 13 14 15</index></_></decision_functions></pacman7>
</opencv_storage>
