<?xml version="1.0"?>
<opencv_storage>
<pacman12 type_id="opencv-ml-svm">
  <svm_type>C_SVC</svm_type>
  <kernel><type>POLY</type>
    <degree>4.</degree>
    <gamma>1.</gamma>
    <coef0>0.</coef0></kernel>
  <C>1.</C>
  <term_criteria><epsilon>2.2204460492503131e-16</epsilon>
    <iterations>5000</iterations></term_criteria>
  <var_all>784</var_all>
  <var_count>784</var_count>
  <class_count>2</class_count>
  <class_labels type_id="opencv-matrix">
    <rows>1</rows>
    <cols>2</cols>
    <dt>i</dt>
    <data>
      -1 1</data></class_labels>
  <sv_total>16</sv_total>
  <support_vectors>
    <_>
      52. 53. 53. 53. 62. 59. 42. 46. 133. 195. 208. 204. 199. 148. 68.
      38. 50. 54. 48. 49. 48. 22. 0. 0. 0. 0. 0. 0. 53. 52. 46. 41. 42.
      58. 66. 79. 182. 240. 251. 249. 250. 200. 112. 77. 80. 65. 40. 39.
      46. 22. 0. 0. 0. 0. 0. 0. 54. 47. 27. 40. 68. 103. 138. 156. 221.
      246. 248. 251. 253. 216. 165. 151. 143. 100. 49. 28. 29. 21. 0. 0.
      0. 0. 0. 0. 49. 31. 15. 85. 171. 180. 193. 211. 231. 241. 246.
      247. 249. 242. 222. 203. 190. 178. 140. 62. 19. 16. 0. 0. 0. 0. 0.
      0. 33. 12. 59. 175. 232. 233. 235. 236. 242. 244. 248. 249. 247.
      246. 241. 236. 231. 227. 198. 106. 26. 11. 0. 0. 0. 0. 0. 0. 26.
      24. 128. 238. 249. 249. 249. 247. 248. 250. 251. 251. 251. 251.
      249. 249. 248. 247. 229. 153. 50. 8. 0. 0. 0. 0. 0. 0. 26. 49.
      180. 250. 248. 248. 249. 251. 252. 252. 253. 253. 253. 253. 250.
      247. 248. 251. 247. 190. 75. 8. 0. 0. 0. 0. 0. 0. 19. 57. 194.
      250. 252. 253. 253. 253. 254. 254. 254. 253. 252. 253. 253. 251.
      251. 251. 252. 204. 87. 8. 0. 0. 0. 0. 0. 0. 11. 61. 195. 253.
      253. 253. 252. 251. 252. 251. 251. 251. 252. 253. 254. 254. 254.
      252. 252. 214. 101. 13. 0. 0. 0. 0. 0. 0. 29. 109. 215. 252. 254.
      254. 254. 253. 254. 254. 253. 253. 253. 254. 252. 252. 253. 252.
      252. 230. 143. 38. 0. 0. 0. 0. 0. 0. 73. 179. 250. 252. 252. 254.
      254. 254. 255. 254. 253. 253. 253. 254. 251. 252. 252. 252. 248.
      246. 197. 84. 0. 0. 0. 0. 0. 0. 117. 234. 251. 252. 254. 254. 254.
      253. 254. 254. 253. 253. 253. 253. 253. 253. 253. 253. 248. 250.
      233. 123. 0. 0. 0. 0. 0. 0. 121. 235. 252. 253. 254. 254. 254.
      253. 253. 254. 254. 254. 253. 253. 253. 253. 253. 253. 253. 253.
      243. 141. 0. 0. 0. 0. 0. 0. 122. 233. 252. 253. 253. 253. 253.
      253. 253. 253. 253. 253. 252. 252. 252. 253. 253. 253. 253. 253.
      245. 135. 0. 0. 0. 0. 0. 0. 123. 232. 253. 253. 253. 253. 253.
      252. 252. 252. 253. 253. 251. 252. 252. 252. 252. 252. 252. 252.
      249. 138. 0. 0. 0. 0. 0. 0. 129. 231. 253. 253. 253. 253. 252.
      252. 252. 252. 253. 253. 252. 252. 251. 251. 252. 252. 252. 252.
      252. 141. 0. 0. 0. 0. 0. 0. 129. 232. 253. 252. 253. 253. 252.
      252. 252. 252. 252. 252. 252. 252. 251. 251. 251. 251. 251. 251.
      254. 144. 0. 0. 0. 0. 0. 0. 131. 232. 252. 252. 253. 253. 252.
      252. 252. 252. 252. 252. 252. 251. 251. 250. 250. 251. 251. 251.
      253. 145. 0. 0. 0. 0. 0. 0. 135. 233. 252. 252. 253. 253. 253.
      253. 252. 252. 252. 253. 251. 251. 250. 249. 250. 250. 251. 251.
      252. 144. 0. 0. 0. 0. 0. 0. 128. 226. 248. 248. 251. 248. 237.
      234. 245. 251. 250. 251. 249. 247. 242. 243. 247. 249. 250. 251.
      251. 143. 0. 0. 0. 0. 0. 0. 116. 219. 248. 246. 247. 233. 189.
      172. 214. 243. 244. 246. 243. 226. 165. 161. 236. 250. 241. 249.
      246. 119. 0. 0. 0. 0. 0. 0. 90. 184. 239. 248. 241. 195. 119. 90.
      151. 222. 245. 247. 227. 158. 79. 86. 170. 241. 248. 248. 215. 93.
      0. 0. 0. 0. 0. 0. 45. 126. 211. 243. 211. 130. 52. 27. 79. 170.
      231. 235. 181. 87. 28. 35. 93. 193. 249. 235. 134. 56. 0. 0. 0. 0.
      0. 0. 20. 69. 162. 205. 153. 66. 30. 28. 45. 108. 186. 191. 115.
      55. 30. 26. 47. 124. 189. 175. 53. 21. 0. 0. 0. 0. 0. 0. 20. 37.
      86. 116. 82. 32. 32. 37. 25. 47. 104. 111. 68. 42. 35. 31. 31. 66.
      98. 81. 27. 13. 0. 0. 0. 0. 0. 0. 0. 0. 0. 0. 0. 0. 0. 0. 0. 0. 0.
      0. 0. 0. 0. 0. 0. 0. 0. 0. 0. 0. 0. 0. 0. 0. 0. 0. 0. 0. 0. 0. 0.
      0. 0. 0. 0. 0. 0. 0. 0. 0. 0. 0. 0. 0. 0. 0. 0. 0. 0. 0. 0. 0. 0.
      0. 0. 0. 0. 0. 0. 0. 0. 0. 0. 0. 0. 0. 0. 0. 0. 0. 0. 0. 0. 0. 0.
      0. 0. 0. 0. 0. 0. 0.</_>
    <_>
      29. 50. 68. 69. 67. 70. 70. 107. 168. 199. 204. 202. 199. 169.
      107. 71. 70. 70. 71. 69. 57. 33. 0. 0. 0. 0. 0. 0. 25. 44. 57. 56.
      69. 111. 152. 186. 222. 238. 242. 245. 246. 230. 182. 142. 113.
      81. 59. 55. 49. 29. 0. 0. 0. 0. 0. 0. 21. 36. 51. 65. 127. 194.
      224. 238. 246. 248. 248. 248. 248. 248. 241. 230. 197. 126. 61.
      42. 48. 35. 0. 0. 0. 0. 0. 0. 18. 35. 72. 122. 190. 234. 243. 250.
      252. 251. 251. 251. 251. 252. 253. 251. 246. 204. 119. 49. 34. 25.
      0. 0. 0. 0. 0. 0. 19. 46. 121. 195. 234. 245. 247. 252. 253. 252.
      252. 252. 252. 253. 253. 251. 248. 240. 201. 115. 39. 20. 0. 0. 0.
      0. 0. 0. 23. 81. 182. 236. 247. 245. 249. 253. 254. 253. 253. 253.
      253. 254. 254. 251. 252. 251. 243. 193. 82. 21. 0. 0. 0. 0. 0. 0.
      25. 119. 230. 249. 248. 249. 252. 254. 254. 253. 253. 254. 254.
      254. 254. 253. 250. 248. 248. 239. 131. 32. 0. 0. 0. 0. 0. 0. 30.
      137. 246. 249. 247. 253. 254. 254. 254. 254. 254. 254. 254. 254.
      254. 254. 239. 248. 251. 244. 143. 39. 0. 0. 0. 0. 0. 0. 47. 153.
      245. 248. 248. 254. 254. 254. 254. 254. 254. 254. 254. 254. 254.
      254. 251. 250. 245. 248. 170. 44. 0. 0. 0. 0. 0. 0. 82. 184. 245.
      250. 249. 254. 254. 253. 253. 253. 253. 254. 254. 254. 254. 254.
      255. 247. 238. 249. 212. 80. 0. 0. 0. 0. 0. 0. 131. 224. 248. 251.
      250. 249. 250. 250. 252. 252. 252. 254. 253. 253. 253. 254. 254.
      250. 251. 249. 238. 156. 0. 0. 0. 0. 0. 0. 158. 247. 251. 251.
      249. 242. 238. 242. 247. 251. 251. 251. 251. 248. 245. 240. 245.
      247. 246. 251. 247. 223. 0. 0. 0. 0. 0. 0. 170. 252. 252. 249.
      244. 235. 224. 231. 241. 248. 250. 251. 250. 245. 238. 221. 233.
      244. 246. 251. 251. 240. 0. 0. 0. 0. 0. 0. 180. 253. 251. 246.
      240. 227. 213. 224. 232. 243. 246. 251. 249. 242. 233. 205. 218.
      231. 236. 247. 247. 244. 0. 0. 0. 0. 0. 0. 180. 252. 250. 246.
      242. 229. 217. 227. 235. 244. 247. 251. 250. 244. 235. 214. 222.
      232. 235. 245. 245. 243. 0. 0. 0. 0. 0. 0. 183. 249. 249. 249.
      247. 239. 232. 235. 241. 248. 250. 253. 253. 249. 244. 237. 239.
      240. 241. 248. 247. 235. 0. 0. 0. 0. 0. 0. 183. 247. 251. 251.
      250. 246. 244. 242. 245. 250. 250. 253. 254. 253. 251. 244. 244.
      242. 243. 249. 248. 233. 0. 0. 0. 0. 0. 0. 185. 247. 253. 253.
      251. 251. 251. 252. 254. 253. 252. 252. 253. 254. 254. 253. 252.
      251. 249. 251. 248. 228. 0. 0. 0. 0. 0. 0. 184. 247. 252. 250.
      248. 250. 251. 251. 253. 253. 252. 251. 253. 254. 254. 255. 255.
      254. 253. 252. 249. 218. 0. 0. 0. 0. 0. 0. 180. 245. 247. 247.
      245. 247. 249. 249. 252. 253. 252. 253. 253. 252. 251. 250. 253.
      252. 251. 250. 249. 214. 0. 0. 0. 0. 0. 0. 183. 239. 238. 227.
      221. 236. 248. 251. 252. 254. 253. 254. 254. 253. 253. 251. 238.
      210. 211. 239. 247. 210. 0. 0. 0. 0. 0. 0. 173. 236. 215. 149.
      127. 187. 237. 244. 247. 249. 251. 252. 250. 249. 250. 242. 197.
      132. 131. 195. 240. 202. 0. 0. 0. 0. 0. 0. 137. 211. 160. 59. 35.
      114. 210. 245. 249. 238. 221. 216. 227. 244. 244. 204. 131. 61.
      51. 124. 211. 186. 0. 0. 0. 0. 0. 0. 92. 144. 79. 32. 25. 43. 136.
      197. 195. 144. 86. 87. 134. 193. 203. 141. 68. 29. 25. 74. 149.
      138. 0. 0. 0. 0. 0. 0. 0. 0. 0. 0. 0. 0. 0. 0. 0. 0. 0. 0. 0. 0.
      0. 0. 0. 0. 0. 0. 0. 0. 0. 0. 0. 0. 0. 0. 0. 0. 0. 0. 0. 0. 0. 0.
      0. 0. 0. 0. 0. 0. 0. 0. 0. 0. 0. 0. 0. 0. 0. 0. 0. 0. 0. 0. 0. 0.
      0. 0. 0. 0. 0. 0. 0. 0. 0. 0. 0. 0. 0. 0. 0. 0. 0. 0. 0. 0. 0. 0.
      0. 0. 0. 0. 0. 0. 0. 0. 0. 0. 0. 0. 0. 0. 0. 0. 0. 0. 0. 0. 0. 0.
      0. 0. 0. 0. 0. 0. 0. 0. 0. 0.</_>
    <_>
      17. 31. 45. 44. 39. 37. 63. 85. 78. 92. 96. 93. 94. 81. 55. 53.
      57. 56. 47. 48. 47. 0. 0. 0. 0. 0. 0. 0. 28. 29. 23. 29. 54. 56.
      79. 132. 141. 142. 133. 145. 140. 103. 86. 85. 77. 47. 33. 53. 58.
      0. 0. 0. 0. 0. 0. 0. 15. 12. 23. 91. 176. 187. 166. 149. 167. 165.
      153. 166. 159. 127. 149. 177. 163. 80. 22. 35. 54. 0. 0. 0. 0. 0.
      0. 0. 18. 15. 74. 166. 230. 236. 199. 145. 146. 159. 162. 165.
      145. 139. 206. 247. 242. 163. 61. 14. 29. 0. 0. 0. 0. 0. 0. 0. 13.
      34. 149. 232. 245. 246. 213. 150. 132. 151. 162. 153. 132. 146.
      229. 245. 246. 234. 144. 28. 23. 0. 0. 0. 0. 0. 0. 0. 13. 73. 192.
      247. 250. 249. 230. 186. 141. 135. 147. 136. 138. 178. 235. 247.
      244. 253. 193. 34. 10. 0. 0. 0. 0. 0. 0. 0. 30. 118. 217. 250.
      251. 252. 245. 218. 158. 123. 133. 124. 160. 225. 242. 251. 247.
      250. 237. 56. 17. 0. 0. 0. 0. 0. 0. 0. 71. 181. 239. 251. 247.
      250. 250. 231. 168. 120. 126. 122. 170. 235. 243. 250. 248. 251.
      251. 165. 76. 0. 0. 0. 0. 0. 0. 0. 113. 217. 248. 251. 246. 249.
      252. 236. 169. 112. 111. 118. 177. 239. 244. 253. 251. 253. 252.
      239. 109. 0. 0. 0. 0. 0. 0. 0. 144. 230. 250. 250. 250. 252. 252.
      238. 175. 116. 99. 121. 194. 239. 246. 253. 252. 248. 241. 245.
      107. 0. 0. 0. 0. 0. 0. 0. 153. 233. 249. 249. 253. 252. 252. 245.
      205. 142. 102. 149. 224. 245. 247. 250. 254. 252. 250. 241. 113.
      0. 0. 0. 0. 0. 0. 0. 150. 233. 248. 249. 253. 251. 249. 252. 237.
      174. 131. 179. 238. 245. 246. 253. 253. 252. 252. 234. 124. 0. 0.
      0. 0. 0. 0. 0. 138. 235. 248. 250. 253. 252. 251. 252. 246. 206.
      187. 215. 245. 249. 248. 253. 251. 248. 250. 228. 122. 0. 0. 0. 0.
      0. 0. 0. 112. 239. 248. 247. 253. 253. 253. 249. 244. 234. 235.
      235. 241. 249. 250. 251. 251. 250. 250. 223. 107. 0. 0. 0. 0. 0.
      0. 0. 80. 218. 246. 242. 252. 252. 251. 248. 250. 251. 252. 251.
      250. 251. 254. 252. 250. 252. 245. 195. 73. 0. 0. 0. 0. 0. 0. 0.
      54. 156. 242. 245. 251. 252. 251. 250. 251. 250. 251. 252. 253.
      253. 254. 251. 247. 248. 219. 137. 39. 0. 0. 0. 0. 0. 0. 0. 35.
      92. 230. 245. 245. 246. 249. 253. 254. 253. 250. 252. 254. 253.
      252. 250. 247. 244. 192. 82. 23. 0. 0. 0. 0. 0. 0. 0. 29. 56. 200.
      242. 247. 237. 251. 254. 254. 254. 253. 254. 254. 251. 250. 249.
      248. 234. 163. 56. 29. 0. 0. 0. 0. 0. 0. 0. 30. 44. 140. 215. 243.
      241. 245. 248. 245. 250. 251. 249. 249. 247. 246. 245. 233. 194.
      114. 42. 35. 0. 0. 0. 0. 0. 0. 0. 35. 36. 70. 145. 225. 228. 235.
      247. 242. 248. 250. 246. 247. 245. 229. 214. 187. 125. 62. 38. 41.
      0. 0. 0. 0. 0. 0. 0. 43. 47. 42. 90. 148. 147. 199. 233. 236. 238.
      240. 238. 241. 232. 176. 142. 118. 72. 42. 46. 50. 0. 0. 0. 0. 0.
      0. 0. 51. 68. 50. 70. 83. 66. 126. 197. 210. 206. 201. 198. 205.
      177. 105. 68. 63. 53. 47. 51. 47. 0. 0. 0. 0. 0. 0. 0. 47. 55. 59.
      64. 67. 63. 83. 125. 146. 142. 136. 133. 139. 113. 69. 50. 53. 60.
      56. 57. 52. 0. 0. 0. 0. 0. 0. 0. 0. 0. 0. 0. 0. 0. 0. 0. 0. 0. 0.
      0. 0. 0. 0. 0. 0. 0. 0. 0. 0. 0. 0. 0. 0. 0. 0. 0. 0. 0. 0. 0. 0.
      0. 0. 0. 0. 0. 0. 0. 0. 0. 0. 0. 0. 0. 0. 0. 0. 0. 0. 0. 0. 0. 0.
      0. 0. 0. 0. 0. 0. 0. 0. 0. 0. 0. 0. 0. 0. 0. 0. 0. 0. 0. 0. 0. 0.
      0. 0. 0. 0. 0. 0. 0. 0. 0. 0. 0. 0. 0. 0. 0. 0. 0. 0. 0. 0. 0. 0.
      0. 0. 0. 0. 0. 0. 0. 0. 0. 0. 0. 0. 0. 0. 0. 0. 0. 0. 0. 0. 0. 0.
      0. 0. 0. 0. 0. 0. 0. 0. 0. 0. 0. 0. 0. 0. 0. 0. 0. 0. 0.</_>
    <_>
      59. 57. 56. 49. 41. 51. 50. 74. 136. 184. 207. 209. 208. 207. 174.
      103. 42. 29. 39. 48. 52. 47. 37. 38. 49. 0. 0. 0. 49. 66. 51. 36.
      45. 95. 132. 170. 214. 237. 247. 248. 248. 248. 233. 195. 142. 95.
      67. 33. 18. 34. 51. 48. 42. 0. 0. 0. 56. 64. 40. 37. 89. 169. 214.
      236. 245. 247. 249. 250. 250. 250. 249. 245. 242. 227. 168. 82.
      21. 18. 34. 42. 40. 0. 0. 0. 66. 48. 37. 85. 163. 224. 243. 243.
      246. 247. 249. 250. 250. 249. 249. 250. 250. 248. 227. 178. 111.
      51. 21. 24. 38. 0. 0. 0. 52. 35. 75. 160. 225. 241. 248. 245. 249.
      251. 252. 252. 253. 253. 254. 253. 244. 240. 242. 230. 190. 116.
      44. 22. 33. 0. 0. 0. 44. 50. 146. 222. 246. 246. 250. 249. 251.
      251. 252. 251. 252. 253. 254. 249. 248. 249. 245. 241. 226. 175.
      98. 39. 28. 0. 0. 0. 46. 59. 187. 243. 248. 247. 253. 249. 252.
      250. 249. 250. 252. 253. 254. 253. 249. 246. 241. 238. 235. 209.
      139. 57. 27. 0. 0. 0. 44. 57. 189. 242. 250. 248. 249. 250. 250.
      244. 242. 248. 252. 250. 250. 252. 248. 246. 239. 228. 215. 184.
      121. 54. 28. 0. 0. 0. 41. 72. 193. 238. 251. 252. 241. 248. 237.
      231. 224. 227. 236. 241. 247. 249. 244. 241. 229. 207. 178. 139.
      95. 51. 29. 0. 0. 0. 55. 121. 216. 240. 249. 251. 247. 247. 236.
      228. 220. 222. 233. 239. 246. 247. 245. 241. 225. 203. 168. 138.
      113. 77. 41. 0. 0. 0. 89. 185. 241. 245. 249. 249. 248. 244. 237.
      230. 222. 223. 233. 239. 245. 246. 248. 244. 230. 216. 194. 176.
      161. 128. 69. 0. 0. 0. 116. 222. 246. 247. 250. 247. 248. 243.
      240. 237. 232. 232. 237. 241. 246. 247. 249. 247. 237. 230. 219.
      212. 205. 173. 92. 0. 0. 0. 123. 229. 246. 249. 251. 246. 254.
      253. 251. 249. 246. 246. 248. 248. 251. 251. 252. 251. 244. 242.
      236. 231. 225. 191. 99. 0. 0. 0. 130. 227. 242. 249. 251. 247.
      254. 253. 252. 252. 250. 250. 252. 252. 252. 252. 253. 254. 250.
      251. 247. 245. 236. 195. 98. 0. 0. 0. 133. 229. 246. 249. 251.
      251. 254. 254. 254. 254. 253. 253. 254. 253. 252. 252. 253. 253.
      249. 251. 247. 246. 237. 197. 100. 0. 0. 0. 128. 227. 247. 249.
      251. 253. 253. 251. 253. 254. 254. 254. 254. 253. 253. 252. 250.
      251. 250. 252. 251. 250. 240. 197. 105. 0. 0. 0. 124. 219. 243.
      244. 251. 251. 252. 251. 252. 251. 253. 253. 254. 254. 254. 251.
      251. 249. 251. 252. 252. 251. 239. 196. 103. 0. 0. 0. 127. 218.
      245. 246. 247. 243. 246. 252. 252. 251. 251. 248. 251. 251. 252.
      250. 254. 248. 253. 254. 250. 249. 235. 203. 108. 0. 0. 0. 115.
      210. 246. 250. 250. 249. 249. 249. 247. 252. 250. 249. 250. 250.
      251. 254. 253. 252. 253. 253. 245. 249. 242. 213. 118. 0. 0. 0.
      121. 214. 247. 248. 249. 251. 246. 245. 247. 247. 250. 252. 251.
      252. 251. 248. 249. 252. 251. 250. 247. 250. 240. 194. 110. 0. 0.
      0. 109. 197. 238. 244. 247. 248. 245. 233. 216. 218. 238. 247.
      247. 249. 243. 222. 225. 237. 246. 239. 242. 250. 232. 168. 72. 0.
      0. 0. 64. 134. 203. 238. 245. 240. 228. 186. 141. 157. 211. 237.
      234. 234. 214. 161. 143. 186. 231. 239. 240. 238. 190. 112. 34. 0.
      0. 0. 28. 63. 137. 180. 188. 171. 150. 100. 60. 87. 144. 182. 178.
      174. 147. 82. 59. 115. 185. 209. 189. 164. 112. 47. 21. 0. 0. 0.
      0. 0. 0. 0. 0. 0. 0. 0. 0. 0. 0. 0. 0. 0. 0. 0. 0. 0. 0. 0. 0. 0.
      0. 0. 0. 0. 0. 0. 0. 0. 0. 0. 0. 0. 0. 0. 0. 0. 0. 0. 0. 0. 0. 0.
      0. 0. 0. 0. 0. 0. 0. 0. 0. 0. 0. 0. 0. 0. 0. 0. 0. 0. 0. 0. 0. 0.
      0. 0. 0. 0. 0. 0. 0. 0. 0. 0. 0. 0. 0. 0. 0. 0. 0. 0. 0. 0. 0. 0.
      0. 0. 0. 0. 0. 0. 0. 0. 0. 0. 0. 0. 0. 0. 0. 0. 0. 0. 0. 0. 0. 0.
      0. 0. 0. 0. 0. 0. 0. 0. 0. 0. 0. 0. 0. 0. 0. 0. 0. 0. 0. 0. 0. 0.
      0. 0. 0. 0. 0. 0. 0. 0.</_>
    <_>
      38. 27. 25. 74. 127. 140. 137. 161. 212. 236. 239. 242. 244. 239.
      190. 133. 129. 148. 126. 55. 0. 0. 0. 0. 0. 0. 0. 0. 23. 27. 73.
      147. 195. 193. 181. 193. 226. 239. 243. 247. 246. 242. 216. 179.
      173. 191. 198. 145. 0. 0. 0. 0. 0. 0. 0. 0. 24. 44. 131. 208. 225.
      218. 213. 218. 230. 241. 245. 253. 250. 247. 241. 224. 223. 218.
      225. 214. 0. 0. 0. 0. 0. 0. 0. 0. 23. 64. 167. 237. 237. 229. 228.
      231. 236. 243. 247. 252. 249. 246. 242. 229. 229. 225. 226. 226.
      0. 0. 0. 0. 0. 0. 0. 0. 24. 80. 193. 246. 243. 238. 238. 241. 243.
      248. 250. 254. 254. 252. 247. 244. 244. 241. 238. 237. 0. 0. 0. 0.
      0. 0. 0. 0. 33. 115. 214. 248. 247. 247. 247. 245. 246. 248. 249.
      253. 254. 254. 252. 246. 245. 242. 244. 242. 0. 0. 0. 0. 0. 0. 0.
      0. 56. 151. 231. 250. 251. 253. 252. 253. 254. 253. 252. 252. 252.
      254. 254. 253. 252. 249. 250. 244. 0. 0. 0. 0. 0. 0. 0. 0. 85.
      187. 243. 250. 249. 251. 253. 254. 254. 253. 252. 252. 253. 254.
      254. 254. 252. 248. 252. 249. 0. 0. 0. 0. 0. 0. 0. 0. 110. 214.
      248. 251. 250. 252. 254. 254. 253. 253. 253. 252. 253. 254. 254.
      254. 253. 251. 251. 250. 0. 0. 0. 0. 0. 0. 0. 0. 133. 225. 248.
      250. 252. 252. 254. 252. 252. 253. 252. 252. 253. 254. 254. 254.
      254. 252. 249. 249. 0. 0. 0. 0. 0. 0. 0. 0. 151. 232. 248. 249.
      251. 252. 254. 250. 252. 254. 253. 252. 253. 254. 254. 254. 252.
      251. 250. 251. 0. 0. 0. 0. 0. 0. 0. 0. 165. 238. 247. 249. 249.
      251. 253. 253. 253. 254. 253. 252. 253. 254. 254. 254. 252. 251.
      253. 252. 0. 0. 0. 0. 0. 0. 0. 0. 176. 238. 246. 249. 249. 250.
      253. 254. 254. 254. 252. 252. 253. 254. 254. 254. 253. 252. 253.
      251. 0. 0. 0. 0. 0. 0. 0. 0. 176. 234. 246. 249. 251. 250. 253.
      252. 253. 254. 252. 252. 253. 254. 254. 254. 253. 253. 251. 249.
      0. 0. 0. 0. 0. 0. 0. 0. 181. 234. 247. 250. 252. 246. 252. 252.
      251. 251. 253. 253. 254. 251. 250. 252. 253. 252. 250. 249. 0. 0.
      0. 0. 0. 0. 0. 0. 168. 246. 249. 250. 252. 252. 252. 251. 251.
      250. 252. 254. 253. 252. 250. 252. 252. 250. 252. 248. 0. 0. 0. 0.
      0. 0. 0. 0. 164. 247. 244. 241. 249. 251. 246. 250. 250. 246. 246.
      250. 247. 251. 252. 250. 249. 247. 250. 247. 0. 0. 0. 0. 0. 0. 0.
      0. 159. 243. 232. 245. 242. 250. 243. 250. 249. 246. 236. 236.
      235. 248. 250. 246. 245. 240. 239. 243. 0. 0. 0. 0. 0. 0. 0. 0.
      139. 230. 237. 235. 201. 228. 239. 242. 242. 237. 192. 183. 206.
      240. 244. 243. 236. 220. 206. 228. 0. 0. 0. 0. 0. 0. 0. 0. 127.
      228. 228. 173. 119. 172. 229. 237. 239. 212. 117. 103. 157. 229.
      236. 237. 204. 159. 138. 190. 0. 0. 0. 0. 0. 0. 0. 0. 112. 194.
      174. 97. 57. 107. 191. 225. 235. 178. 61. 47. 114. 219. 230. 226.
      145. 84. 67. 137. 0. 0. 0. 0. 0. 0. 0. 0. 81. 149. 117. 61. 42.
      61. 138. 194. 211. 138. 40. 36. 76. 193. 210. 183. 83. 42. 40.
      100. 0. 0. 0. 0. 0. 0. 0. 0. 46. 80. 82. 55. 48. 59. 95. 141. 153.
      94. 38. 38. 52. 149. 160. 117. 50. 36. 51. 84. 0. 0. 0. 0. 0. 0.
      0. 0. 0. 0. 0. 0. 0. 0. 0. 0. 0. 0. 0. 0. 0. 0. 0. 0. 0. 0. 0. 0.
      0. 0. 0. 0. 0. 0. 0. 0. 0. 0. 0. 0. 0. 0. 0. 0. 0. 0. 0. 0. 0. 0.
      0. 0. 0. 0. 0. 0. 0. 0. 0. 0. 0. 0. 0. 0. 0. 0. 0. 0. 0. 0. 0. 0.
      0. 0. 0. 0. 0. 0. 0. 0. 0. 0. 0. 0. 0. 0. 0. 0. 0. 0. 0. 0. 0. 0.
      0. 0. 0. 0. 0. 0. 0. 0. 0. 0. 0. 0. 0. 0. 0. 0. 0. 0. 0. 0. 0. 0.
      0. 0. 0. 0. 0. 0. 0. 0. 0. 0. 0. 0. 0. 0. 0. 0. 0. 0. 0. 0. 0. 0.
      0. 0. 0. 0. 0. 0. 0. 0. 0. 0.</_>
    <_>
      55. 59. 56. 46. 48. 84. 137. 168. 172. 171. 172. 170. 154. 100.
      47. 37. 38. 40. 42. 44. 45. 45. 0. 0. 0. 0. 0. 0. 49. 49. 71. 92.
      113. 152. 201. 221. 223. 224. 226. 225. 214. 162. 113. 92. 63. 40.
      36. 41. 44. 46. 0. 0. 0. 0. 0. 0. 48. 42. 112. 176. 205. 215. 221.
      220. 219. 215. 217. 221. 223. 213. 206. 189. 131. 50. 30. 37. 43.
      48. 0. 0. 0. 0. 0. 0. 46. 80. 164. 217. 224. 222. 220. 218. 209.
      213. 213. 216. 217. 216. 219. 220. 197. 118. 50. 37. 45. 51. 0. 0.
      0. 0. 0. 0. 53. 126. 185. 214. 220. 214. 205. 213. 213. 211. 206.
      210. 214. 213. 210. 214. 216. 168. 72. 34. 40. 51. 0. 0. 0. 0. 0.
      0. 65. 141. 191. 209. 207. 200. 193. 200. 200. 200. 201. 202. 205.
      207. 200. 197. 204. 166. 91. 49. 52. 46. 0. 0. 0. 0. 0. 0. 88.
      166. 209. 217. 200. 186. 185. 194. 188. 185. 198. 191. 187. 193.
      189. 179. 183. 170. 147. 134. 129. 59. 0. 0. 0. 0. 0. 0. 120. 219.
      234. 235. 212. 183. 168. 178. 183. 178. 183. 175. 172. 178. 168.
      157. 166. 192. 211. 221. 215. 96. 0. 0. 0. 0. 0. 0. 134. 233. 237.
      241. 235. 205. 163. 154. 163. 175. 165. 162. 169. 164. 145. 146.
      173. 218. 234. 242. 241. 111. 0. 0. 0. 0. 0. 0. 137. 231. 240.
      248. 251. 237. 195. 157. 139. 155. 154. 159. 160. 147. 141. 168.
      210. 238. 241. 243. 244. 113. 0. 0. 0. 0. 0. 0. 136. 230. 244.
      248. 245. 250. 234. 186. 130. 126. 148. 159. 141. 125. 154. 210.
      238. 245. 244. 245. 249. 118. 0. 0. 0. 0. 0. 0. 138. 232. 243.
      245. 248. 251. 246. 226. 182. 122. 129. 129. 124. 141. 195. 237.
      244. 248. 246. 246. 246. 133. 0. 0. 0. 0. 0. 0. 139. 226. 245.
      247. 248. 250. 249. 246. 225. 168. 130. 114. 140. 191. 230. 244.
      244. 250. 251. 250. 247. 135. 0. 0. 0. 0. 0. 0. 130. 218. 242.
      245. 247. 251. 252. 252. 244. 214. 166. 150. 186. 226. 239. 244.
      245. 248. 251. 252. 234. 126. 0. 0. 0. 0. 0. 0. 104. 183. 229.
      245. 247. 251. 253. 252. 248. 235. 215. 206. 226. 242. 244. 247.
      250. 252. 251. 242. 187. 77. 0. 0. 0. 0. 0. 0. 67. 124. 201. 238.
      244. 248. 251. 252. 249. 247. 245. 244. 246. 247. 247. 249. 249.
      251. 252. 223. 111. 18. 0. 0. 0. 0. 0. 0. 50. 95. 182. 234. 244.
      247. 249. 252. 252. 252. 252. 252. 253. 254. 253. 251. 246. 248.
      249. 203. 63. 8. 0. 0. 0. 0. 0. 0. 52. 76. 151. 215. 238. 243.
      246. 250. 252. 252. 252. 253. 253. 252. 251. 252. 252. 250. 233.
      158. 39. 14. 0. 0. 0. 0. 0. 0. 52. 51. 99. 172. 222. 240. 244.
      247. 249. 252. 253. 253. 253. 250. 249. 250. 248. 229. 171. 82.
      24. 25. 0. 0. 0. 0. 0. 0. 55. 43. 55. 108. 166. 199. 220. 235.
      244. 248. 250. 249. 250. 252. 248. 232. 214. 183. 94. 23. 26. 43.
      0. 0. 0. 0. 0. 0. 53. 47. 49. 71. 95. 117. 159. 199. 227. 235.
      237. 236. 235. 236. 212. 144. 73. 43. 36. 29. 36. 47. 0. 0. 0. 0.
      0. 0. 48. 47. 52. 57. 55. 56. 87. 133. 174. 186. 188. 189. 187.
      169. 126. 55. 32. 42. 38. 38. 42. 46. 0. 0. 0. 0. 0. 0. 0. 0. 0.
      0. 0. 0. 0. 0. 0. 0. 0. 0. 0. 0. 0. 0. 0. 0. 0. 0. 0. 0. 0. 0. 0.
      0. 0. 0. 0. 0. 0. 0. 0. 0. 0. 0. 0. 0. 0. 0. 0. 0. 0. 0. 0. 0. 0.
      0. 0. 0. 0. 0. 0. 0. 0. 0. 0. 0. 0. 0. 0. 0. 0. 0. 0. 0. 0. 0. 0.
      0. 0. 0. 0. 0. 0. 0. 0. 0. 0. 0. 0. 0. 0. 0. 0. 0. 0. 0. 0. 0. 0.
      0. 0. 0. 0. 0. 0. 0. 0. 0. 0. 0. 0. 0. 0. 0. 0. 0. 0. 0. 0. 0. 0.
      0. 0. 0. 0. 0. 0. 0. 0. 0. 0. 0. 0. 0. 0. 0. 0. 0. 0. 0. 0. 0. 0.
      0. 0. 0. 0. 0. 0. 0. 0. 0. 0. 0. 0. 0. 0. 0. 0. 0. 0. 0. 0. 0. 0.
      0. 0. 0. 0. 0. 0. 0. 0. 0. 0. 0.</_>
    <_>
      49. 55. 53. 47. 57. 77. 72. 111. 182. 194. 197. 196. 182. 126. 91.
      82. 63. 49. 47. 48. 50. 0. 0. 0. 0. 0. 0. 0. 50. 53. 38. 41. 81.
      138. 142. 174. 230. 235. 237. 239. 231. 183. 155. 136. 89. 49. 39.
      45. 48. 0. 0. 0. 0. 0. 0. 0. 48. 38. 31. 74. 138. 209. 224. 226.
      247. 248. 245. 248. 249. 229. 221. 203. 138. 68. 35. 41. 47. 0. 0.
      0. 0. 0. 0. 0. 38. 38. 64. 133. 195. 240. 247. 243. 250. 250. 247.
      250. 250. 246. 248. 245. 205. 134. 65. 34. 35. 0. 0. 0. 0. 0. 0.
      0. 16. 42. 119. 196. 239. 248. 249. 247. 252. 251. 250. 251. 251.
      247. 248. 250. 232. 194. 121. 49. 22. 0. 0. 0. 0. 0. 0. 0. 15. 71.
      179. 236. 249. 248. 250. 250. 252. 250. 251. 252. 252. 250. 251.
      252. 251. 245. 186. 81. 18. 0. 0. 0. 0. 0. 0. 0. 28. 114. 220.
      250. 250. 246. 252. 253. 253. 248. 249. 251. 253. 252. 251. 251.
      251. 251. 216. 108. 23. 0. 0. 0. 0. 0. 0. 0. 30. 133. 235. 253.
      252. 249. 254. 253. 254. 251. 251. 252. 254. 254. 253. 250. 250.
      251. 226. 121. 29. 0. 0. 0. 0. 0. 0. 0. 42. 152. 241. 253. 253.
      253. 252. 250. 253. 253. 254. 253. 254. 254. 254. 253. 253. 253.
      240. 146. 44. 0. 0. 0. 0. 0. 0. 0. 83. 189. 248. 253. 253. 254.
      251. 249. 252. 251. 253. 253. 252. 251. 251. 252. 253. 253. 250.
      188. 86. 0. 0. 0. 0. 0. 0. 0. 139. 226. 251. 251. 249. 249. 248.
      249. 251. 249. 251. 252. 252. 247. 245. 247. 247. 246. 248. 229.
      138. 0. 0. 0. 0. 0. 0. 0. 176. 244. 250. 248. 241. 235. 233. 237.
      241. 244. 248. 247. 248. 244. 232. 231. 234. 234. 245. 246. 176.
      0. 0. 0. 0. 0. 0. 0. 192. 247. 250. 246. 229. 210. 212. 229. 240.
      243. 248. 247. 245. 225. 199. 200. 221. 230. 245. 248. 189. 0. 0.
      0. 0. 0. 0. 0. 196. 249. 250. 240. 204. 174. 181. 215. 240. 244.
      247. 246. 242. 212. 175. 177. 214. 231. 242. 250. 190. 0. 0. 0. 0.
      0. 0. 0. 198. 248. 250. 240. 205. 176. 182. 217. 240. 243. 246.
      246. 243. 220. 185. 185. 219. 233. 244. 251. 190. 0. 0. 0. 0. 0.
      0. 0. 202. 248. 250. 247. 235. 225. 225. 236. 244. 246. 249. 248.
      248. 238. 217. 217. 235. 239. 249. 252. 189. 0. 0. 0. 0. 0. 0. 0.
      203. 249. 250. 248. 247. 246. 244. 244. 246. 248. 250. 248. 249.
      249. 242. 244. 246. 246. 252. 250. 192. 0. 0. 0. 0. 0. 0. 0. 198.
      248. 252. 248. 246. 246. 246. 247. 248. 248. 249. 247. 248. 249.
      247. 249. 248. 245. 251. 248. 194. 0. 0. 0. 0. 0. 0. 0. 213. 247.
      251. 250. 249. 248. 248. 248. 247. 247. 247. 247. 248. 246. 241.
      244. 248. 247. 249. 248. 191. 0. 0. 0. 0. 0. 0. 0. 224. 249. 249.
      247. 249. 230. 206. 215. 237. 245. 246. 247. 242. 221. 207. 225.
      246. 248. 248. 249. 181. 0. 0. 0. 0. 0. 0. 0. 198. 240. 250. 248.
      234. 180. 131. 152. 213. 244. 246. 241. 211. 151. 120. 172. 237.
      246. 247. 248. 153. 0. 0. 0. 0. 0. 0. 0. 142. 216. 247. 248. 193.
      111. 56. 80. 166. 232. 248. 224. 157. 81. 60. 105. 190. 248. 246.
      210. 97. 0. 0. 0. 0. 0. 0. 0. 66. 165. 226. 221. 131. 58. 21. 31.
      104. 198. 240. 196. 105. 32. 19. 41. 124. 222. 221. 139. 41. 0. 0.
      0. 0. 0. 0. 0. 35. 101. 164. 156. 73. 37. 30. 22. 57. 142. 189.
      144. 65. 22. 23. 26. 69. 145. 149. 81. 17. 0. 0. 0. 0. 0. 0. 0. 0.
      0. 0. 0. 0. 0. 0. 0. 0. 0. 0. 0. 0. 0. 0. 0. 0. 0. 0. 0. 0. 0. 0.
      0. 0. 0. 0. 0. 0. 0. 0. 0. 0. 0. 0. 0. 0. 0. 0. 0. 0. 0. 0. 0. 0.
      0. 0. 0. 0. 0. 0. 0. 0. 0. 0. 0. 0. 0. 0. 0. 0. 0. 0. 0. 0. 0. 0.
      0. 0. 0. 0. 0. 0. 0. 0. 0. 0. 0. 0. 0. 0. 0. 0. 0. 0. 0. 0. 0. 0.
      0. 0. 0. 0. 0. 0. 0. 0. 0. 0. 0. 0. 0. 0. 0. 0. 0. 0. 0. 0. 0. 0.
      0.</_>
    <_>
      50. 51. 52. 48. 44. 34. 48. 70. 81. 99. 138. 154. 147. 146. 156.
      153. 120. 71. 38. 34. 40. 43. 45. 0. 0. 0. 0. 0. 52. 56. 49. 48.
      55. 55. 105. 175. 207. 220. 236. 235. 232. 229. 226. 227. 214.
      154. 93. 60. 42. 28. 35. 0. 0. 0. 0. 0. 48. 46. 40. 58. 95. 117.
      174. 230. 242. 243. 250. 248. 245. 251. 247. 251. 249. 221. 197.
      161. 99. 35. 21. 0. 0. 0. 0. 0. 42. 32. 57. 101. 162. 198. 225.
      242. 244. 247. 252. 251. 251. 254. 250. 253. 252. 248. 248. 237.
      178. 85. 26. 0. 0. 0. 0. 0. 41. 41. 108. 147. 195. 232. 242. 243.
      243. 248. 253. 251. 249. 253. 253. 253. 249. 252. 248. 249. 229.
      165. 61. 0. 0. 0. 0. 0. 36. 50. 138. 161. 187. 229. 241. 244. 247.
      250. 252. 252. 252. 254. 255. 253. 247. 252. 246. 245. 246. 211.
      90. 0. 0. 0. 0. 0. 32. 48. 126. 158. 201. 239. 248. 251. 252. 252.
      252. 253. 254. 253. 250. 253. 247. 251. 247. 228. 212. 171. 74. 0.
      0. 0. 0. 0. 46. 86. 135. 173. 219. 243. 248. 251. 253. 252. 252.
      254. 254. 251. 249. 251. 243. 242. 245. 197. 129. 79. 43. 0. 0. 0.
      0. 0. 66. 139. 148. 184. 226. 247. 250. 251. 252. 253. 253. 253.
      251. 249. 243. 231. 219. 216. 228. 171. 70. 27. 35. 0. 0. 0. 0. 0.
      62. 139. 129. 177. 229. 248. 251. 251. 252. 253. 249. 242. 240.
      237. 216. 185. 180. 179. 191. 158. 61. 34. 35. 0. 0. 0. 0. 0. 70.
      134. 129. 179. 235. 247. 251. 249. 250. 245. 218. 198. 198. 200.
      172. 146. 157. 164. 175. 159. 68. 38. 37. 0. 0. 0. 0. 0. 65. 124.
      128. 177. 235. 246. 252. 249. 250. 241. 204. 172. 173. 168. 145.
      136. 153. 161. 161. 143. 73. 32. 40. 0. 0. 0. 0. 0. 70. 124. 127.
      174. 235. 248. 252. 251. 252. 249. 234. 224. 227. 217. 178. 138.
      133. 149. 165. 140. 71. 37. 42. 0. 0. 0. 0. 0. 78. 123. 124. 171.
      235. 250. 252. 251. 253. 252. 252. 250. 248. 243. 227. 203. 194.
      195. 185. 130. 51. 22. 31. 0. 0. 0. 0. 0. 69. 105. 114. 158. 221.
      248. 248. 248. 252. 253. 252. 250. 245. 240. 240. 240. 237. 233.
      219. 167. 91. 50. 19. 0. 0. 0. 0. 0. 50. 76. 103. 136. 178. 243.
      244. 247. 251. 253. 251. 252. 249. 247. 251. 250. 246. 246. 242.
      221. 180. 134. 36. 0. 0. 0. 0. 0. 41. 57. 93. 116. 130. 231. 244.
      248. 250. 254. 250. 252. 253. 253. 253. 250. 248. 248. 246. 244.
      235. 205. 68. 0. 0. 0. 0. 0. 46. 53. 86. 104. 108. 202. 238. 246.
      245. 252. 250. 252. 253. 253. 252. 251. 251. 250. 248. 248. 243.
      203. 69. 0. 0. 0. 0. 0. 52. 52. 71. 90. 102. 164. 227. 245. 243.
      252. 253. 254. 253. 254. 254. 251. 251. 250. 249. 245. 215. 134.
      40. 0. 0. 0. 0. 0. 51. 48. 46. 62. 86. 103. 171. 232. 237. 241.
      246. 250. 251. 252. 250. 246. 248. 239. 224. 205. 148. 62. 25. 0.
      0. 0. 0. 0. 44. 45. 43. 51. 58. 56. 105. 158. 177. 206. 241. 250.
      247. 248. 249. 247. 235. 188. 140. 113. 76. 36. 31. 0. 0. 0. 0. 0.
      39. 43. 41. 38. 41. 49. 65. 80. 78. 115. 183. 204. 204. 195. 196.
      194. 177. 112. 51. 39. 42. 40. 40. 0. 0. 0. 0. 0. 36. 43. 44. 44.
      43. 43. 54. 58. 44. 57. 102. 114. 116. 111. 108. 107. 99. 61. 34.
      36. 40. 39. 43. 0. 0. 0. 0. 0. 0. 0. 0. 0. 0. 0. 0. 0. 0. 0. 0. 0.
      0. 0. 0. 0. 0. 0. 0. 0. 0. 0. 0. 0. 0. 0. 0. 0. 0. 0. 0. 0. 0. 0.
      0. 0. 0. 0. 0. 0. 0. 0. 0. 0. 0. 0. 0. 0. 0. 0. 0. 0. 0. 0. 0. 0.
      0. 0. 0. 0. 0. 0. 0. 0. 0. 0. 0. 0. 0. 0. 0. 0. 0. 0. 0. 0. 0. 0.
      0. 0. 0. 0. 0. 0. 0. 0. 0. 0. 0. 0. 0. 0. 0. 0. 0. 0. 0. 0. 0. 0.
      0. 0. 0. 0. 0. 0. 0. 0. 0. 0. 0. 0. 0. 0. 0. 0. 0. 0. 0. 0. 0. 0.
      0. 0. 0. 0. 0. 0. 0. 0. 0. 0. 0. 0. 0. 0. 0. 0. 0. 0.</_>
    <_>
      142. 150. 147. 151. 168. 191. 213. 215. 219. 219. 214. 212. 209.
      204. 183. 165. 154. 148. 135. 95. 46. 0. 0. 0. 0. 0. 0. 0. 129.
      165. 180. 185. 204. 219. 240. 242. 252. 253. 251. 251. 251. 243.
      227. 216. 193. 155. 106. 64. 49. 0. 0. 0. 0. 0. 0. 0. 128. 193.
      219. 222. 229. 232. 244. 244. 250. 251. 251. 251. 249. 246. 237.
      234. 221. 189. 118. 60. 48. 0. 0. 0. 0. 0. 0. 0. 151. 223. 241.
      245. 248. 249. 251. 251. 252. 252. 253. 253. 253. 252. 249. 247.
      244. 232. 161. 79. 46. 0. 0. 0. 0. 0. 0. 0. 170. 236. 243. 246.
      248. 249. 251. 251. 252. 252. 253. 252. 252. 253. 251. 249. 250.
      249. 198. 104. 46. 0. 0. 0. 0. 0. 0. 0. 145. 214. 242. 244. 248.
      249. 252. 251. 251. 249. 254. 247. 246. 253. 251. 250. 249. 246.
      218. 138. 63. 0. 0. 0. 0. 0. 0. 0. 91. 170. 238. 241. 244. 246.
      251. 253. 254. 254. 254. 252. 252. 254. 250. 249. 248. 245. 234.
      187. 104. 0. 0. 0. 0. 0. 0. 0. 59. 152. 234. 236. 236. 239. 243.
      243. 247. 251. 254. 254. 254. 254. 253. 251. 250. 249. 246. 230.
      142. 0. 0. 0. 0. 0. 0. 0. 56. 156. 234. 232. 225. 224. 231. 236.
      243. 250. 250. 251. 252. 253. 254. 254. 253. 252. 249. 242. 157.
      0. 0. 0. 0. 0. 0. 0. 50. 152. 227. 225. 221. 221. 225. 227. 232.
      238. 243. 245. 249. 251. 253. 253. 253. 252. 252. 247. 159. 0. 0.
      0. 0. 0. 0. 0. 51. 158. 227. 226. 222. 222. 225. 225. 227. 232.
      240. 242. 248. 250. 252. 252. 251. 251. 249. 247. 156. 0. 0. 0. 0.
      0. 0. 0. 54. 166. 232. 229. 221. 219. 225. 230. 233. 237. 243.
      244. 250. 251. 252. 252. 252. 251. 247. 247. 159. 0. 0. 0. 0. 0.
      0. 0. 45. 162. 228. 230. 226. 226. 230. 235. 239. 242. 245. 247.
      252. 252. 254. 254. 253. 250. 251. 244. 160. 0. 0. 0. 0. 0. 0. 0.
      57. 164. 227. 238. 239. 240. 242. 244. 246. 248. 250. 251. 253.
      253. 254. 254. 252. 250. 251. 215. 135. 0. 0. 0. 0. 0. 0. 0. 93.
      192. 234. 243. 244. 245. 247. 250. 251. 252. 255. 255. 254. 253.
      254. 253. 249. 248. 243. 158. 88. 0. 0. 0. 0. 0. 0. 0. 178. 234.
      245. 247. 249. 249. 250. 251. 252. 254. 254. 253. 253. 254. 253.
      252. 249. 247. 232. 109. 49. 0. 0. 0. 0. 0. 0. 0. 174. 239. 251.
      250. 251. 253. 253. 253. 254. 255. 254. 251. 252. 253. 253. 250.
      248. 248. 204. 95. 43. 0. 0. 0. 0. 0. 0. 0. 118. 203. 237. 247.
      249. 251. 252. 253. 254. 252. 252. 254. 252. 247. 248. 253. 246.
      220. 123. 60. 37. 0. 0. 0. 0. 0. 0. 0. 63. 153. 202. 231. 244.
      248. 250. 251. 253. 246. 244. 251. 252. 250. 248. 241. 208. 160.
      67. 47. 47. 0. 0. 0. 0. 0. 0. 0. 41. 88. 121. 165. 207. 235. 246.
      248. 249. 251. 252. 252. 252. 243. 210. 160. 117. 88. 48. 47. 55.
      0. 0. 0. 0. 0. 0. 0. 47. 53. 51. 74. 128. 183. 213. 225. 230. 236.
      232. 226. 213. 181. 125. 74. 57. 60. 54. 50. 52. 0. 0. 0. 0. 0. 0.
      0. 46. 55. 43. 45. 73. 103. 119. 124. 133. 135. 131. 126. 116. 95.
      68. 47. 47. 57. 57. 49. 46. 0. 0. 0. 0. 0. 0. 0. 0. 0. 0. 0. 0. 0.
      0. 0. 0. 0. 0. 0. 0. 0. 0. 0. 0. 0. 0. 0. 0. 0. 0. 0. 0. 0. 0. 0.
      0. 0. 0. 0. 0. 0. 0. 0. 0. 0. 0. 0. 0. 0. 0. 0. 0. 0. 0. 0. 0. 0.
      0. 0. 0. 0. 0. 0. 0. 0. 0. 0. 0. 0. 0. 0. 0. 0. 0. 0. 0. 0. 0. 0.
      0. 0. 0. 0. 0. 0. 0. 0. 0. 0. 0. 0. 0. 0. 0. 0. 0. 0. 0. 0. 0. 0.
      0. 0. 0. 0. 0. 0. 0. 0. 0. 0. 0. 0. 0. 0. 0. 0. 0. 0. 0. 0. 0. 0.
      0. 0. 0. 0. 0. 0. 0. 0. 0. 0. 0. 0. 0. 0. 0. 0. 0. 0. 0. 0. 0. 0.
      0. 0. 0. 0. 0. 0. 0. 0. 0. 0. 0. 0. 0. 0. 0. 0. 0. 0. 0. 0. 0. 0.
      0. 0. 0. 0. 0. 0. 0. 0.</_>
    <_>
      42. 39. 42. 46. 38. 33. 29. 68. 148. 187. 190. 188. 187. 159. 90.
      31. 31. 38. 45. 49. 38. 25. 0. 0. 0. 0. 0. 0. 40. 50. 42. 26. 38.
      78. 111. 164. 218. 236. 237. 236. 235. 222. 165. 109. 92. 50. 31.
      38. 37. 26. 0. 0. 0. 0. 0. 0. 43. 42. 23. 26. 88. 170. 215. 233.
      244. 246. 247. 246. 246. 243. 221. 202. 183. 110. 35. 22. 31. 22.
      0. 0. 0. 0. 0. 0. 38. 22. 22. 86. 181. 234. 244. 243. 245. 246.
      247. 247. 247. 247. 244. 242. 233. 183. 95. 30. 17. 18. 0. 0. 0.
      0. 0. 0. 26. 27. 88. 186. 238. 244. 247. 246. 249. 251. 252. 252.
      251. 251. 251. 249. 246. 233. 178. 90. 32. 17. 0. 0. 0. 0. 0. 0.
      25. 67. 174. 236. 245. 242. 247. 248. 250. 252. 252. 253. 253.
      253. 252. 249. 245. 245. 232. 173. 80. 17. 0. 0. 0. 0. 0. 0. 26.
      110. 228. 246. 246. 247. 250. 251. 252. 253. 251. 252. 254. 253.
      252. 249. 247. 246. 246. 219. 119. 19. 0. 0. 0. 0. 0. 0. 16. 134.
      238. 244. 247. 249. 245. 250. 252. 254. 250. 252. 254. 250. 250.
      251. 250. 248. 247. 230. 135. 26. 0. 0. 0. 0. 0. 0. 36. 177. 235.
      248. 252. 253. 244. 229. 232. 250. 251. 251. 248. 234. 231. 243.
      249. 249. 250. 238. 154. 45. 0. 0. 0. 0. 0. 0. 103. 220. 246. 249.
      252. 252. 239. 215. 216. 242. 249. 246. 239. 216. 206. 232. 251.
      249. 247. 247. 214. 110. 0. 0. 0. 0. 0. 0. 160. 241. 248. 249.
      252. 253. 243. 223. 225. 245. 250. 247. 243. 226. 218. 238. 249.
      252. 250. 247. 236. 148. 0. 0. 0. 0. 0. 0. 186. 245. 245. 248.
      253. 253. 251. 242. 243. 253. 254. 254. 254. 244. 240. 251. 250.
      252. 250. 245. 248. 180. 0. 0. 0. 0. 0. 0. 195. 246. 247. 250.
      253. 253. 254. 253. 252. 254. 254. 253. 255. 252. 249. 253. 254.
      254. 250. 241. 247. 191. 0. 0. 0. 0. 0. 0. 194. 246. 248. 250.
      253. 253. 254. 254. 254. 254. 253. 253. 254. 254. 252. 254. 254.
      250. 249. 247. 250. 205. 0. 0. 0. 0. 0. 0. 192. 246. 248. 250.
      253. 253. 254. 254. 253. 253. 253. 254. 253. 253. 254. 254. 253.
      244. 247. 249. 250. 215. 0. 0. 0. 0. 0. 0. 192. 246. 247. 248.
      249. 252. 253. 252. 252. 250. 252. 252. 249. 250. 252. 247. 245.
      246. 248. 249. 251. 219. 0. 0. 0. 0. 0. 0. 180. 245. 247. 249.
      247. 251. 250. 249. 252. 250. 252. 253. 248. 249. 252. 246. 245.
      252. 248. 247. 251. 222. 0. 0. 0. 0. 0. 0. 183. 245. 245. 247.
      246. 251. 247. 245. 246. 245. 249. 252. 247. 242. 243. 243. 243.
      243. 250. 251. 250. 223. 0. 0. 0. 0. 0. 0. 185. 245. 245. 245.
      247. 249. 242. 240. 242. 248. 245. 244. 254. 251. 235. 246. 245.
      242. 251. 248. 251. 229. 0. 0. 0. 0. 0. 0. 177. 247. 248. 249.
      248. 242. 231. 229. 240. 245. 248. 248. 245. 242. 237. 235. 243.
      242. 251. 246. 251. 226. 0. 0. 0. 0. 0. 0. 163. 240. 241. 240.
      242. 231. 201. 182. 220. 240. 245. 245. 240. 219. 191. 181. 230.
      242. 245. 248. 248. 196. 0. 0. 0. 0. 0. 0. 131. 214. 233. 228.
      233. 203. 133. 103. 161. 225. 229. 229. 229. 169. 94. 112. 199.
      226. 230. 239. 223. 134. 0. 0. 0. 0. 0. 0. 75. 160. 222. 226. 206.
      137. 63. 54. 103. 195. 231. 225. 188. 100. 49. 74. 131. 197. 216.
      220. 161. 63. 0. 0. 0. 0. 0. 0. 36. 101. 171. 185. 139. 71. 38.
      44. 63. 128. 187. 176. 109. 60. 46. 57. 76. 143. 180. 168. 91. 26.
      0. 0. 0. 0. 0. 0. 0. 0. 0. 0. 0. 0. 0. 0. 0. 0. 0. 0. 0. 0. 0. 0.
      0. 0. 0. 0. 0. 0. 0. 0. 0. 0. 0. 0. 0. 0. 0. 0. 0. 0. 0. 0. 0. 0.
      0. 0. 0. 0. 0. 0. 0. 0. 0. 0. 0. 0. 0. 0. 0. 0. 0. 0. 0. 0. 0. 0.
      0. 0. 0. 0. 0. 0. 0. 0. 0. 0. 0. 0. 0. 0. 0. 0. 0. 0. 0. 0. 0. 0.
      0. 0. 0. 0. 0. 0. 0. 0. 0. 0. 0. 0. 0. 0. 0. 0. 0. 0. 0. 0. 0. 0.
      0. 0. 0. 0. 0. 0. 0. 0.</_>
    <_>
      27. 39. 35. 27. 33. 34. 36. 76. 106. 118. 119. 120. 127. 113. 68.
      35. 34. 34. 35. 33. 37. 0. 0. 0. 0. 0. 0. 0. 43. 31. 22. 19. 62.
      91. 99. 156. 192. 203. 205. 199. 195. 177. 132. 105. 106. 69. 29.
      28. 30. 0. 0. 0. 0. 0. 0. 0. 47. 22. 14. 44. 168. 207. 204. 213.
      218. 212. 208. 206. 207. 208. 197. 194. 200. 150. 64. 25. 23. 0.
      0. 0. 0. 0. 0. 0. 26. 12. 44. 129. 234. 245. 243. 228. 216. 209.
      208. 206. 205. 213. 222. 232. 241. 219. 140. 51. 24. 0. 0. 0. 0.
      0. 0. 0. 17. 21. 107. 232. 247. 243. 239. 227. 219. 212. 210. 208.
      205. 213. 225. 236. 243. 244. 204. 103. 26. 0. 0. 0. 0. 0. 0. 0.
      21. 39. 155. 249. 247. 249. 241. 235. 228. 216. 211. 210. 210.
      221. 233. 241. 247. 248. 232. 141. 19. 0. 0. 0. 0. 0. 0. 0. 26.
      77. 202. 249. 244. 249. 249. 236. 230. 217. 208. 209. 214. 228.
      238. 244. 249. 251. 247. 183. 59. 0. 0. 0. 0. 0. 0. 0. 50. 161.
      247. 251. 246. 252. 253. 244. 235. 222. 214. 215. 218. 231. 236.
      243. 248. 250. 249. 234. 151. 0. 0. 0. 0. 0. 0. 0. 81. 226. 248.
      250. 250. 253. 248. 248. 234. 218. 213. 216. 220. 233. 239. 248.
      252. 252. 248. 247. 182. 0. 0. 0. 0. 0. 0. 0. 96. 231. 249. 248.
      248. 251. 249. 248. 240. 222. 211. 214. 223. 236. 242. 248. 246.
      249. 252. 250. 182. 0. 0. 0. 0. 0. 0. 0. 108. 230. 248. 249. 249.
      250. 250. 248. 245. 230. 216. 218. 231. 240. 241. 248. 249. 251.
      254. 250. 183. 0. 0. 0. 0. 0. 0. 0. 112. 227. 247. 251. 251. 249.
      251. 249. 247. 235. 223. 225. 235. 242. 243. 248. 251. 254. 255.
      253. 182. 0. 0. 0. 0. 0. 0. 0. 112. 222. 248. 249. 251. 250. 253.
      251. 249. 241. 233. 234. 242. 247. 246. 248. 252. 254. 251. 252.
      184. 0. 0. 0. 0. 0. 0. 0. 108. 209. 245. 246. 248. 253. 253. 252.
      251. 246. 243. 242. 245. 248. 248. 252. 253. 249. 248. 251. 181.
      0. 0. 0. 0. 0. 0. 0. 96. 186. 243. 246. 247. 254. 253. 253. 253.
      252. 250. 250. 252. 252. 252. 254. 254. 249. 251. 245. 154. 0. 0.
      0. 0. 0. 0. 0. 76. 137. 221. 247. 249. 254. 252. 253. 253. 253.
      252. 252. 252. 252. 252. 253. 254. 253. 253. 207. 103. 0. 0. 0. 0.
      0. 0. 0. 55. 88. 187. 245. 250. 254. 253. 252. 253. 255. 254. 254.
      253. 253. 254. 252. 253. 252. 249. 152. 54. 0. 0. 0. 0. 0. 0. 0.
      48. 65. 163. 235. 249. 252. 253. 252. 253. 255. 254. 254. 252.
      253. 253. 253. 253. 249. 239. 100. 29. 0. 0. 0. 0. 0. 0. 0. 42.
      55. 128. 209. 242. 247. 250. 252. 253. 253. 250. 251. 253. 253.
      253. 250. 251. 239. 180. 65. 27. 0. 0. 0. 0. 0. 0. 0. 34. 38. 79.
      160. 221. 237. 244. 251. 251. 252. 254. 253. 253. 254. 252. 239.
      231. 191. 103. 41. 33. 0. 0. 0. 0. 0. 0. 0. 34. 36. 46. 97. 158.
      180. 200. 233. 242. 243. 246. 245. 243. 242. 225. 176. 165. 118.
      57. 32. 39. 0. 0. 0. 0. 0. 0. 0. 38. 45. 49. 61. 82. 92. 136. 206.
      233. 228. 226. 224. 222. 214. 165. 88. 84. 66. 44. 40. 50. 0. 0.
      0. 0. 0. 0. 0. 39. 46. 61. 60. 52. 54. 81. 129. 155. 153. 153.
      155. 156. 146. 94. 46. 51. 55. 52. 50. 48. 0. 0. 0. 0. 0. 0. 0. 0.
      0. 0. 0. 0. 0. 0. 0. 0. 0. 0. 0. 0. 0. 0. 0. 0. 0. 0. 0. 0. 0. 0.
      0. 0. 0. 0. 0. 0. 0. 0. 0. 0. 0. 0. 0. 0. 0. 0. 0. 0. 0. 0. 0. 0.
      0. 0. 0. 0. 0. 0. 0. 0. 0. 0. 0. 0. 0. 0. 0. 0. 0. 0. 0. 0. 0. 0.
      0. 0. 0. 0. 0. 0. 0. 0. 0. 0. 0. 0. 0. 0. 0. 0. 0. 0. 0. 0. 0. 0.
      0. 0. 0. 0. 0. 0. 0. 0. 0. 0. 0. 0. 0. 0. 0. 0. 0. 0. 0. 0. 0. 0.
      0. 0. 0. 0. 0. 0. 0. 0. 0. 0. 0. 0. 0. 0. 0. 0. 0. 0. 0. 0. 0. 0.
      0. 0. 0. 0. 0. 0. 0.</_>
    <_>
      58. 48. 40. 39. 36. 75. 141. 182. 200. 207. 205. 209. 209. 177.
      104. 45. 44. 47. 38. 54. 56. 0. 0. 0. 0. 0. 0. 0. 35. 27. 39. 87.
      124. 178. 223. 243. 241. 240. 242. 243. 241. 241. 213. 152. 100.
      58. 29. 45. 48. 0. 0. 0. 0. 0. 0. 0. 19. 40. 96. 179. 217. 247.
      249. 249. 251. 253. 249. 249. 244. 246. 249. 240. 211. 146. 62.
      28. 38. 0. 0. 0. 0. 0. 0. 0. 28. 88. 175. 236. 243. 245. 248. 247.
      250. 252. 252. 250. 247. 246. 248. 248. 245. 214. 131. 45. 29. 0.
      0. 0. 0. 0. 0. 0. 44. 132. 228. 245. 241. 241. 249. 253. 250. 250.
      253. 248. 251. 254. 253. 248. 247. 243. 181. 71. 25. 0. 0. 0. 0.
      0. 0. 0. 53. 151. 241. 246. 246. 249. 249. 252. 253. 254. 249.
      249. 253. 249. 251. 252. 251. 250. 204. 101. 35. 0. 0. 0. 0. 0. 0.
      0. 58. 160. 243. 248. 247. 249. 251. 253. 250. 253. 254. 254. 254.
      250. 250. 248. 247. 249. 229. 155. 68. 0. 0. 0. 0. 0. 0. 0. 71.
      177. 246. 246. 247. 249. 250. 253. 253. 254. 250. 252. 252. 253.
      253. 250. 248. 246. 248. 211. 113. 0. 0. 0. 0. 0. 0. 0. 87. 197.
      247. 245. 246. 247. 247. 249. 250. 251. 250. 251. 250. 253. 254.
      254. 253. 249. 246. 225. 142. 0. 0. 0. 0. 0. 0. 0. 96. 207. 245.
      244. 245. 246. 247. 248. 249. 250. 250. 250. 249. 253. 254. 254.
      254. 253. 252. 225. 139. 0. 0. 0. 0. 0. 0. 0. 105. 216. 245. 242.
      243. 245. 245. 248. 248. 250. 250. 250. 250. 252. 254. 255. 254.
      252. 251. 231. 146. 0. 0. 0. 0. 0. 0. 0. 99. 208. 243. 242. 243.
      245. 246. 248. 248. 250. 250. 250. 250. 252. 253. 255. 253. 250.
      251. 233. 145. 0. 0. 0. 0. 0. 0. 0. 109. 210. 244. 244. 244. 245.
      247. 249. 250. 251. 251. 250. 251. 252. 253. 255. 252. 249. 251.
      232. 141. 0. 0. 0. 0. 0. 0. 0. 108. 208. 245. 245. 245. 247. 248.
      251. 251. 253. 253. 251. 251. 254. 254. 253. 251. 250. 251. 223.
      133. 0. 0. 0. 0. 0. 0. 0. 71. 182. 240. 246. 247. 249. 250. 252.
      253. 254. 253. 252. 251. 254. 254. 248. 251. 250. 242. 187. 104.
      0. 0. 0. 0. 0. 0. 0. 47. 171. 238. 247. 248. 250. 251. 253. 254.
      254. 254. 252. 248. 255. 255. 246. 253. 250. 218. 133. 65. 0. 0.
      0. 0. 0. 0. 0. 53. 162. 232. 246. 247. 248. 250. 253. 253. 254.
      254. 251. 245. 255. 255. 245. 254. 249. 197. 92. 40. 0. 0. 0. 0.
      0. 0. 0. 47. 129. 216. 243. 246. 247. 249. 253. 253. 252. 251.
      250. 251. 254. 247. 243. 250. 232. 163. 69. 39. 0. 0. 0. 0. 0. 0.
      0. 29. 78. 171. 221. 241. 247. 249. 252. 252. 253. 252. 246. 246.
      253. 253. 248. 242. 183. 97. 48. 43. 0. 0. 0. 0. 0. 0. 0. 20. 38.
      103. 158. 204. 232. 246. 249. 247. 248. 250. 246. 246. 244. 234.
      208. 177. 117. 50. 41. 45. 0. 0. 0. 0. 0. 0. 0. 25. 30. 46. 79.
      119. 170. 216. 243. 250. 252. 248. 244. 241. 216. 165. 120. 87.
      62. 44. 44. 47. 0. 0. 0. 0. 0. 0. 0. 29. 36. 40. 43. 49. 77. 129.
      179. 199. 196. 192. 191. 187. 152. 100. 64. 44. 43. 50. 44. 44. 0.
      0. 0. 0. 0. 0. 0. 0. 0. 0. 0. 0. 0. 0. 0. 0. 0. 0. 0. 0. 0. 0. 0.
      0. 0. 0. 0. 0. 0. 0. 0. 0. 0. 0. 0. 0. 0. 0. 0. 0. 0. 0. 0. 0. 0.
      0. 0. 0. 0. 0. 0. 0. 0. 0. 0. 0. 0. 0. 0. 0. 0. 0. 0. 0. 0. 0. 0.
      0. 0. 0. 0. 0. 0. 0. 0. 0. 0. 0. 0. 0. 0. 0. 0. 0. 0. 0. 0. 0. 0.
      0. 0. 0. 0. 0. 0. 0. 0. 0. 0. 0. 0. 0. 0. 0. 0. 0. 0. 0. 0. 0. 0.
      0. 0. 0. 0. 0. 0. 0. 0. 0. 0. 0. 0. 0. 0. 0. 0. 0. 0. 0. 0. 0. 0.
      0. 0. 0. 0. 0. 0. 0. 0. 0. 0. 0. 0. 0. 0. 0. 0. 0. 0. 0. 0. 0. 0.
      0. 0. 0. 0. 0. 0. 0. 0. 0. 0. 0. 0. 0. 0. 0. 0. 0. 0. 0. 0.</_>
    <_>
      41. 38. 30. 35. 19. 22. 91. 155. 172. 170. 173. 174. 171. 131. 71.
      41. 35. 39. 48. 47. 36. 0. 0. 0. 0. 0. 0. 0. 33. 16. 14. 43. 60.
      91. 171. 220. 231. 231. 232. 236. 237. 203. 145. 101. 65. 40. 37.
      44. 43. 0. 0. 0. 0. 0. 0. 0. 24. 12. 40. 116. 199. 206. 231. 241.
      239. 242. 242. 242. 241. 232. 219. 203. 158. 83. 28. 32. 52. 0. 0.
      0. 0. 0. 0. 0. 25. 26. 103. 215. 242. 240. 243. 242. 242. 244.
      242. 245. 244. 239. 239. 242. 231. 175. 85. 37. 37. 0. 0. 0. 0. 0.
      0. 0. 15. 60. 195. 242. 245. 243. 244. 245. 247. 246. 239. 242.
      246. 245. 238. 237. 239. 212. 140. 62. 36. 0. 0. 0. 0. 0. 0. 0.
      23. 94. 222. 245. 245. 245. 246. 247. 246. 246. 245. 244. 244.
      243. 245. 242. 241. 233. 167. 69. 33. 0. 0. 0. 0. 0. 0. 0. 59.
      155. 237. 246. 245. 245. 246. 247. 247. 246. 245. 244. 244. 244.
      244. 242. 242. 241. 192. 106. 52. 0. 0. 0. 0. 0. 0. 0. 117. 214.
      245. 243. 245. 245. 246. 246. 247. 246. 245. 245. 246. 247. 245.
      243. 245. 246. 222. 159. 80. 0. 0. 0. 0. 0. 0. 0. 158. 243. 245.
      241. 245. 245. 245. 246. 246. 246. 245. 245. 246. 248. 243. 244.
      243. 246. 242. 195. 99. 0. 0. 0. 0. 0. 0. 0. 174. 248. 244. 242.
      245. 245. 245. 245. 245. 245. 246. 246. 245. 248. 242. 246. 242.
      244. 248. 207. 105. 0. 0. 0. 0. 0. 0. 0. 174. 245. 245. 245. 244.
      245. 245. 245. 245. 245. 246. 246. 244. 247. 242. 248. 242. 243.
      248. 207. 106. 0. 0. 0. 0. 0. 0. 0. 177. 245. 245. 244. 244. 244.
      244. 244. 245. 245. 245. 245. 245. 245. 242. 247. 244. 244. 247.
      210. 107. 0. 0. 0. 0. 0. 0. 0. 179. 246. 244. 242. 244. 244. 244.
      244. 245. 245. 245. 245. 246. 245. 241. 246. 244. 244. 245. 213.
      103. 0. 0. 0. 0. 0. 0. 0. 168. 239. 241. 242. 244. 243. 243. 242.
      243. 244. 244. 245. 245. 244. 243. 246. 241. 243. 243. 209. 98. 0.
      0. 0. 0. 0. 0. 0. 140. 216. 240. 242. 241. 243. 245. 246. 246.
      245. 244. 244. 244. 244. 242. 243. 239. 241. 235. 181. 82. 0. 0.
      0. 0. 0. 0. 0. 86. 173. 229. 241. 243. 244. 245. 244. 242. 242.
      243. 244. 245. 245. 243. 239. 243. 245. 204. 119. 56. 0. 0. 0. 0.
      0. 0. 0. 40. 135. 217. 242. 245. 244. 244. 243. 243. 244. 245.
      245. 243. 244. 245. 239. 244. 240. 162. 63. 39. 0. 0. 0. 0. 0. 0.
      0. 25. 114. 206. 239. 241. 241. 243. 244. 245. 245. 245. 244. 243.
      239. 243. 242. 244. 225. 124. 49. 40. 0. 0. 0. 0. 0. 0. 0. 28. 94.
      182. 231. 242. 242. 242. 243. 244. 245. 243. 242. 243. 235. 239.
      238. 232. 180. 83. 46. 48. 0. 0. 0. 0. 0. 0. 0. 34. 65. 124. 192.
      225. 232. 237. 240. 242. 243. 243. 243. 243. 239. 231. 221. 177.
      98. 41. 43. 51. 0. 0. 0. 0. 0. 0. 0. 41. 42. 72. 117. 156. 193.
      223. 237. 240. 240. 240. 240. 233. 216. 178. 145. 97. 48. 37. 45.
      45. 0. 0. 0. 0. 0. 0. 0. 39. 43. 53. 63. 88. 129. 173. 202. 212.
      213. 212. 209. 200. 157. 86. 54. 51. 51. 57. 42. 37. 0. 0. 0. 0.
      0. 0. 0. 35. 40. 45. 45. 52. 73. 97. 120. 132. 135. 131. 123. 107.
      74. 47. 42. 49. 52. 49. 38. 41. 0. 0. 0. 0. 0. 0. 0. 0. 0. 0. 0.
      0. 0. 0. 0. 0. 0. 0. 0. 0. 0. 0. 0. 0. 0. 0. 0. 0. 0. 0. 0. 0. 0.
      0. 0. 0. 0. 0. 0. 0. 0. 0. 0. 0. 0. 0. 0. 0. 0. 0. 0. 0. 0. 0. 0.
      0. 0. 0. 0. 0. 0. 0. 0. 0. 0. 0. 0. 0. 0. 0. 0. 0. 0. 0. 0. 0. 0.
      0. 0. 0. 0. 0. 0. 0. 0. 0. 0. 0. 0. 0. 0. 0. 0. 0. 0. 0. 0. 0. 0.
      0. 0. 0. 0. 0. 0. 0. 0. 0. 0. 0. 0. 0. 0. 0. 0. 0. 0. 0. 0. 0. 0.
      0. 0. 0. 0. 0. 0. 0. 0. 0. 0. 0. 0. 0. 0. 0. 0. 0. 0. 0. 0. 0. 0.
      0. 0. 0. 0.</_>
    <_>
      24. 39. 49. 56. 85. 67. 93. 149. 162. 165. 161. 171. 167. 130. 79.
      53. 51. 62. 54. 48. 49. 0. 0. 0. 0. 0. 0. 0. 26. 30. 47. 107. 154.
      144. 161. 213. 222. 223. 220. 228. 230. 201. 161. 148. 131. 62.
      17. 29. 44. 0. 0. 0. 0. 0. 0. 0. 27. 43. 99. 182. 226. 228. 229.
      227. 225. 220. 218. 221. 227. 233. 231. 236. 218. 130. 46. 27. 31.
      0. 0. 0. 0. 0. 0. 0. 32. 88. 178. 235. 246. 245. 238. 227. 224.
      220. 219. 218. 223. 232. 237. 244. 242. 220. 140. 45. 17. 0. 0. 0.
      0. 0. 0. 0. 42. 140. 232. 248. 248. 245. 236. 234. 231. 228. 228.
      226. 228. 234. 239. 248. 245. 246. 196. 61. 10. 0. 0. 0. 0. 0. 0.
      0. 65. 171. 247. 247. 247. 250. 245. 239. 231. 222. 220. 224. 232.
      239. 243. 247. 244. 251. 217. 98. 16. 0. 0. 0. 0. 0. 0. 0. 113.
      204. 246. 251. 248. 249. 251. 246. 238. 231. 228. 230. 234. 239.
      244. 250. 248. 248. 239. 175. 65. 0. 0. 0. 0. 0. 0. 0. 168. 234.
      249. 251. 252. 253. 252. 247. 239. 232. 229. 230. 235. 240. 244.
      251. 252. 251. 251. 224. 130. 0. 0. 0. 0. 0. 0. 0. 198. 244. 247.
      250. 252. 253. 252. 248. 241. 234. 232. 234. 239. 243. 243. 247.
      251. 250. 251. 244. 168. 0. 0. 0. 0. 0. 0. 0. 197. 242. 250. 252.
      252. 253. 252. 249. 243. 236. 234. 236. 240. 244. 247. 250. 251.
      250. 251. 246. 165. 0. 0. 0. 0. 0. 0. 0. 204. 243. 250. 252. 249.
      251. 252. 251. 246. 241. 240. 242. 245. 248. 251. 253. 253. 254.
      251. 240. 154. 0. 0. 0. 0. 0. 0. 0. 209. 244. 247. 250. 253. 253.
      252. 252. 248. 245. 244. 245. 248. 249. 249. 251. 252. 253. 250.
      240. 153. 0. 0. 0. 0. 0. 0. 0. 202. 242. 246. 250. 253. 253. 252.
      252. 250. 249. 249. 250. 251. 252. 251. 252. 252. 252. 251. 245.
      155. 0. 0. 0. 0. 0. 0. 0. 194. 240. 251. 251. 252. 252. 252. 252.
      251. 251. 251. 252. 253. 253. 253. 254. 252. 252. 253. 241. 153.
      0. 0. 0. 0. 0. 0. 0. 156. 231. 247. 243. 252. 247. 252. 254. 254.
      253. 252. 253. 253. 252. 253. 253. 250. 251. 247. 210. 116. 0. 0.
      0. 0. 0. 0. 0. 76. 205. 245. 244. 251. 252. 253. 254. 254. 254.
      253. 253. 253. 253. 251. 250. 251. 252. 233. 146. 48. 0. 0. 0. 0.
      0. 0. 0. 22. 154. 243. 243. 248. 252. 254. 253. 253. 253. 253.
      253. 253. 253. 252. 250. 251. 252. 218. 91. 23. 0. 0. 0. 0. 0. 0.
      0. 36. 119. 242. 246. 251. 244. 254. 254. 253. 254. 253. 253. 253.
      253. 249. 250. 251. 243. 185. 67. 24. 0. 0. 0. 0. 0. 0. 0. 39. 68.
      165. 234. 248. 245. 250. 250. 252. 252. 252. 253. 252. 252. 246.
      252. 248. 198. 102. 38. 28. 0. 0. 0. 0. 0. 0. 0. 24. 34. 70. 168.
      197. 219. 241. 249. 252. 251. 253. 253. 252. 252. 238. 213. 199.
      114. 45. 49. 51. 0. 0. 0. 0. 0. 0. 0. 22. 48. 54. 102. 106. 132.
      204. 230. 241. 239. 239. 243. 242. 236. 179. 98. 90. 44. 47. 51.
      41. 0. 0. 0. 0. 0. 0. 0. 20. 47. 69. 70. 68. 71. 123. 164. 187.
      183. 180. 189. 186. 171. 87. 40. 59. 58. 72. 50. 40. 0. 0. 0. 0.
      0. 0. 0. 0. 0. 0. 0. 0. 0. 0. 0. 0. 0. 0. 0. 0. 0. 0. 0. 0. 0. 0.
      0. 0. 0. 0. 0. 0. 0. 0. 0. 0. 0. 0. 0. 0. 0. 0. 0. 0. 0. 0. 0. 0.
      0. 0. 0. 0. 0. 0. 0. 0. 0. 0. 0. 0. 0. 0. 0. 0. 0. 0. 0. 0. 0. 0.
      0. 0. 0. 0. 0. 0. 0. 0. 0. 0. 0. 0. 0. 0. 0. 0. 0. 0. 0. 0. 0. 0.
      0. 0. 0. 0. 0. 0. 0. 0. 0. 0. 0. 0. 0. 0. 0. 0. 0. 0. 0. 0. 0. 0.
      0. 0. 0. 0. 0. 0. 0. 0. 0. 0. 0. 0. 0. 0. 0. 0. 0. 0. 0. 0. 0. 0.
      0. 0. 0. 0. 0. 0. 0. 0. 0. 0. 0. 0. 0. 0. 0. 0. 0. 0. 0. 0. 0. 0.
      0. 0. 0. 0. 0. 0. 0. 0. 0. 0. 0. 0. 0. 0. 0. 0. 0.</_>
    <_>
      45. 53. 50. 52. 45. 79. 129. 158. 170. 174. 177. 176. 174. 155.
      117. 71. 47. 50. 51. 52. 0. 0. 0. 0. 0. 0. 0. 0. 59. 50. 46. 94.
      104. 151. 206. 232. 237. 238. 240. 241. 239. 224. 194. 146. 104.
      81. 59. 53. 0. 0. 0. 0. 0. 0. 0. 0. 58. 45. 72. 166. 193. 216.
      238. 242. 244. 244. 247. 248. 248. 246. 242. 222. 190. 145. 81.
      40. 0. 0. 0. 0. 0. 0. 0. 0. 51. 65. 136. 224. 240. 239. 241. 243.
      247. 247. 249. 249. 249. 247. 246. 246. 241. 213. 144. 69. 0. 0.
      0. 0. 0. 0. 0. 0. 54. 105. 198. 235. 246. 244. 244. 249. 253. 252.
      252. 251. 251. 250. 249. 252. 251. 245. 202. 110. 0. 0. 0. 0. 0.
      0. 0. 0. 61. 142. 228. 238. 250. 250. 254. 254. 253. 249. 250.
      252. 252. 253. 254. 252. 248. 249. 224. 126. 0. 0. 0. 0. 0. 0. 0.
      0. 87. 173. 237. 245. 247. 248. 252. 253. 253. 253. 251. 251. 253.
      254. 251. 249. 247. 241. 212. 117. 0. 0. 0. 0. 0. 0. 0. 0. 142.
      215. 244. 243. 248. 249. 252. 253. 253. 253. 252. 253. 252. 250.
      249. 246. 243. 240. 220. 125. 0. 0. 0. 0. 0. 0. 0. 0. 179. 239.
      245. 244. 253. 253. 254. 255. 255. 254. 251. 251. 245. 239. 239.
      239. 235. 237. 230. 139. 0. 0. 0. 0. 0. 0. 0. 0. 183. 240. 247.
      248. 253. 253. 253. 252. 250. 247. 244. 242. 242. 226. 231. 232.
      225. 235. 238. 148. 0. 0. 0. 0. 0. 0. 0. 0. 180. 239. 248. 250.
      252. 251. 249. 247. 242. 238. 234. 232. 229. 220. 225. 226. 220.
      229. 235. 147. 0. 0. 0. 0. 0. 0. 0. 0. 186. 241. 246. 249. 252.
      251. 249. 246. 241. 237. 232. 229. 227. 223. 225. 224. 222. 228.
      233. 141. 0. 0. 0. 0. 0. 0. 0. 0. 186. 243. 248. 249. 251. 251.
      251. 249. 247. 243. 240. 237. 233. 232. 231. 227. 228. 233. 235.
      142. 0. 0. 0. 0. 0. 0. 0. 0. 183. 242. 250. 251. 251. 251. 252.
      251. 250. 248. 244. 242. 235. 237. 234. 228. 233. 236. 235. 144.
      0. 0. 0. 0. 0. 0. 0. 0. 175. 234. 240. 244. 251. 252. 251. 250.
      251. 252. 250. 248. 244. 246. 241. 239. 235. 240. 229. 122. 0. 0.
      0. 0. 0. 0. 0. 0. 95. 187. 235. 239. 242. 248. 252. 252. 252. 252.
      252. 251. 250. 250. 244. 246. 242. 244. 218. 97. 0. 0. 0. 0. 0. 0.
      0. 0. 52. 149. 222. 245. 251. 252. 252. 252. 250. 249. 252. 253.
      251. 252. 248. 251. 249. 248. 225. 109. 0. 0. 0. 0. 0. 0. 0. 0.
      45. 125. 211. 244. 247. 247. 251. 253. 253. 253. 251. 250. 254.
      254. 252. 250. 250. 250. 224. 114. 0. 0. 0. 0. 0. 0. 0. 0. 36. 81.
      181. 235. 244. 246. 247. 248. 251. 252. 251. 249. 252. 253. 252.
      249. 246. 233. 171. 66. 0. 0. 0. 0. 0. 0. 0. 0. 47. 43. 106. 187.
      226. 241. 246. 247. 248. 251. 252. 251. 252. 252. 251. 245. 219.
      174. 102. 26. 0. 0. 0. 0. 0. 0. 0. 0. 63. 40. 51. 95. 133. 176.
      220. 243. 247. 248. 249. 250. 251. 249. 235. 199. 144. 89. 51. 32.
      0. 0. 0. 0. 0. 0. 0. 0. 55. 62. 57. 56. 58. 87. 151. 203. 221.
      223. 227. 227. 220. 211. 176. 116. 63. 42. 42. 52. 0. 0. 0. 0. 0.
      0. 0. 0. 58. 62. 60. 56. 50. 54. 81. 112. 125. 130. 135. 136. 132.
      123. 97. 58. 41. 50. 60. 62. 0. 0. 0. 0. 0. 0. 0. 0. 0. 0. 0. 0.
      0. 0. 0. 0. 0. 0. 0. 0. 0. 0. 0. 0. 0. 0. 0. 0. 0. 0. 0. 0. 0. 0.
      0. 0. 0. 0. 0. 0. 0. 0. 0. 0. 0. 0. 0. 0. 0. 0. 0. 0. 0. 0. 0. 0.
      0. 0. 0. 0. 0. 0. 0. 0. 0. 0. 0. 0. 0. 0. 0. 0. 0. 0. 0. 0. 0. 0.
      0. 0. 0. 0. 0. 0. 0. 0. 0. 0. 0. 0. 0. 0. 0. 0. 0. 0. 0. 0. 0. 0.
      0. 0. 0. 0. 0. 0. 0. 0. 0. 0. 0. 0. 0. 0. 0. 0. 0. 0. 0. 0. 0. 0.
      0. 0. 0. 0. 0. 0. 0. 0. 0. 0. 0. 0. 0. 0. 0. 0. 0. 0. 0. 0. 0. 0.
      0. 0. 0. 0.</_>
    <_>
      47. 53. 58. 48. 35. 41. 85. 143. 165. 171. 167. 164. 149. 146. 96.
      54. 37. 44. 49. 50. 50. 52. 0. 0. 0. 0. 0. 0. 59. 46. 40. 63. 88.
      117. 171. 217. 231. 233. 240. 238. 230. 229. 181. 111. 64. 52. 41.
      35. 39. 42. 0. 0. 0. 0. 0. 0. 54. 40. 53. 119. 180. 204. 227. 243.
      246. 245. 250. 249. 247. 248. 241. 206. 178. 124. 50. 23. 30. 42.
      0. 0. 0. 0. 0. 0. 42. 55. 115. 186. 226. 237. 244. 248. 248. 248.
      252. 252. 251. 252. 249. 245. 248. 206. 105. 40. 22. 34. 0. 0. 0.
      0. 0. 0. 36. 87. 183. 228. 239. 245. 248. 250. 250. 251. 253. 252.
      250. 252. 248. 243. 247. 248. 197. 99. 28. 33. 0. 0. 0. 0. 0. 0.
      31. 114. 211. 239. 241. 247. 250. 251. 253. 254. 254. 252. 251.
      252. 252. 249. 246. 247. 235. 136. 34. 26. 0. 0. 0. 0. 0. 0. 60.
      154. 224. 244. 247. 249. 250. 252. 253. 254. 252. 251. 252. 251.
      247. 249. 233. 226. 234. 168. 69. 25. 0. 0. 0. 0. 0. 0. 122. 210.
      236. 248. 248. 250. 252. 253. 254. 252. 250. 250. 247. 242. 232.
      237. 227. 225. 227. 211. 144. 43. 0. 0. 0. 0. 0. 0. 163. 234. 243.
      249. 247. 250. 251. 250. 250. 245. 241. 240. 233. 227. 227. 220.
      212. 222. 214. 226. 202. 57. 0. 0. 0. 0. 0. 0. 182. 239. 244. 251.
      251. 251. 247. 241. 238. 236. 233. 227. 220. 218. 213. 209. 214.
      214. 217. 224. 218. 61. 0. 0. 0. 0. 0. 0. 187. 241. 243. 251. 250.
      245. 238. 230. 228. 227. 225. 221. 219. 215. 211. 211. 215. 214.
      219. 222. 215. 56. 0. 0. 0. 0. 0. 0. 185. 244. 241. 250. 250. 240.
      233. 227. 223. 221. 219. 215. 214. 213. 211. 213. 215. 214. 218.
      222. 212. 58. 0. 0. 0. 0. 0. 0. 181. 245. 241. 249. 250. 243. 239.
      233. 231. 227. 223. 218. 215. 214. 213. 213. 213. 213. 217. 223.
      210. 71. 0. 0. 0. 0. 0. 0. 170. 242. 243. 248. 250. 253. 252. 249.
      247. 244. 238. 234. 230. 227. 224. 220. 214. 214. 220. 223. 199.
      76. 0. 0. 0. 0. 0. 0. 140. 223. 244. 247. 249. 253. 252. 251. 251.
      248. 245. 241. 239. 236. 232. 227. 221. 221. 223. 211. 160. 60. 0.
      0. 0. 0. 0. 0. 89. 171. 238. 244. 247. 253. 252. 253. 254. 253.
      251. 250. 249. 246. 240. 237. 233. 231. 224. 182. 98. 39. 0. 0. 0.
      0. 0. 0. 51. 126. 228. 241. 247. 254. 254. 254. 255. 254. 253.
      252. 253. 252. 247. 245. 244. 240. 222. 151. 51. 29. 0. 0. 0. 0.
      0. 0. 49. 104. 203. 242. 237. 244. 246. 249. 250. 252. 252. 253.
      253. 253. 249. 246. 246. 239. 206. 126. 34. 31. 0. 0. 0. 0. 0. 0.
      37. 64. 151. 227. 241. 244. 244. 247. 246. 250. 251. 254. 254.
      250. 250. 248. 245. 222. 149. 73. 33. 27. 0. 0. 0. 0. 0. 0. 43.
      42. 84. 158. 205. 222. 238. 248. 247. 248. 250. 252. 252. 245.
      244. 234. 218. 175. 97. 40. 25. 32. 0. 0. 0. 0. 0. 0. 55. 43. 51.
      85. 123. 159. 204. 239. 246. 243. 246. 246. 244. 237. 214. 162.
      115. 69. 39. 35. 46. 48. 0. 0. 0. 0. 0. 0. 51. 47. 48. 58. 66. 84.
      138. 185. 203. 204. 207. 210. 207. 188. 143. 78. 42. 34. 38. 48.
      48. 40. 0. 0. 0. 0. 0. 0. 42. 42. 47. 49. 45. 47. 78. 108. 122.
      127. 129. 127. 117. 92. 71. 46. 44. 51. 47. 43. 37. 33. 0. 0. 0.
      0. 0. 0. 0. 0. 0. 0. 0. 0. 0. 0. 0. 0. 0. 0. 0. 0. 0. 0. 0. 0. 0.
      0. 0. 0. 0. 0. 0. 0. 0. 0. 0. 0. 0. 0. 0. 0. 0. 0. 0. 0. 0. 0. 0.
      0. 0. 0. 0. 0. 0. 0. 0. 0. 0. 0. 0. 0. 0. 0. 0. 0. 0. 0. 0. 0. 0.
      0. 0. 0. 0. 0. 0. 0. 0. 0. 0. 0. 0. 0. 0. 0. 0. 0. 0. 0. 0. 0. 0.
      0. 0. 0. 0. 0. 0. 0. 0. 0. 0. 0. 0. 0. 0. 0. 0. 0. 0. 0. 0. 0. 0.
      0. 0. 0. 0. 0. 0. 0. 0. 0. 0. 0. 0. 0. 0. 0. 0. 0. 0. 0. 0. 0. 0.
      0. 0. 0. 0. 0. 0. 0. 0. 0. 0. 0.</_></support_vectors>
  <decision_functions>
    <_>
      <sv_count>16</sv_count>
      <rho>-3.6969240316315126e+00</rho>
      <alpha>
        2.8011179101008659e-31 1.3339587484304622e-29
        1.2345845190961861e-28 2.3091396633599443e-31
        2.7634337982999633e-29 7.4847403905056793e-30
        6.3358779870328144e-30 2.1161634850009223e-30
        6.0810714913707900e-29 5.5340960233296543e-30
        -1.1035264775814734e-28 -1.6591084538171669e-29
        -6.0404028000777516e-29 -4.1790711580155842e-29
        -1.6843728261277777e-29 -1.2427957953126769e-30</alpha>
      <index>
        0 1 2 3 4 5 6 7 8 9 10 11 12 13 14 15</index></_></decision_functions></pacman12>
</opencv_storage>
