<?xml version="1.0"?>
<opencv_storage>
<pacman22 type_id="opencv-ml-svm">
  <svm_type>C_SVC</svm_type>
  <kernel><type>POLY</type>
    <degree>4.</degree>
    <gamma>1.</gamma>
    <coef0>0.</coef0></kernel>
  <C>1.</C>
  <term_criteria><epsilon>2.2204460492503131e-16</epsilon>
    <iterations>5000</iterations></term_criteria>
  <var_all>784</var_all>
  <var_count>784</var_count>
  <class_count>2</class_count>
  <class_labels type_id="opencv-matrix">
    <rows>1</rows>
    <cols>2</cols>
    <dt>i</dt>
    <data>
      -1 1</data></class_labels>
  <sv_total>13</sv_total>
  <support_vectors>
    <_>
      247. 249. 250. 250. 251. 252. 253. 252. 253. 254. 254. 254. 254.
      255. 254. 253. 252. 241. 122. 76. 187. 218. 126. 0. 0. 0. 0. 0.
      248. 250. 252. 251. 251. 253. 254. 252. 251. 253. 254. 253. 251.
      254. 254. 254. 248. 244. 152. 134. 247. 250. 188. 0. 0. 0. 0. 0.
      250. 251. 254. 253. 253. 255. 255. 253. 250. 252. 255. 252. 250.
      253. 254. 253. 249. 249. 239. 226. 235. 235. 174. 0. 0. 0. 0. 0.
      251. 251. 253. 254. 253. 254. 254. 252. 252. 253. 255. 255. 253.
      254. 254. 252. 249. 235. 246. 215. 121. 115. 65. 0. 0. 0. 0. 0.
      251. 252. 253. 253. 254. 254. 254. 254. 254. 254. 254. 254. 255.
      254. 253. 253. 252. 251. 247. 200. 53. 26. 40. 0. 0. 0. 0. 0. 251.
      252. 253. 253. 254. 254. 254. 254. 254. 254. 254. 254. 255. 255.
      254. 253. 252. 250. 247. 201. 48. 17. 43. 0. 0. 0. 0. 0. 251. 252.
      253. 253. 254. 254. 254. 254. 254. 254. 255. 255. 255. 255. 255.
      254. 252. 248. 249. 204. 52. 16. 49. 0. 0. 0. 0. 0. 251. 252. 253.
      253. 254. 254. 254. 254. 254. 254. 254. 254. 254. 254. 254. 254.
      251. 248. 251. 200. 54. 15. 53. 0. 0. 0. 0. 0. 251. 252. 253. 253.
      254. 254. 254. 254. 253. 254. 254. 254. 254. 254. 254. 253. 252.
      250. 251. 199. 57. 14. 52. 0. 0. 0. 0. 0. 251. 252. 253. 253. 254.
      254. 254. 253. 253. 253. 254. 254. 255. 255. 254. 254. 253. 252.
      251. 200. 67. 17. 50. 0. 0. 0. 0. 0. 251. 252. 253. 253. 254. 254.
      254. 252. 249. 250. 251. 251. 252. 252. 253. 251. 250. 252. 251.
      201. 80. 18. 47. 0. 0. 0. 0. 0. 249. 250. 251. 252. 253. 253. 253.
      247. 243. 244. 247. 249. 251. 252. 252. 248. 247. 252. 251. 205.
      86. 21. 47. 0. 0. 0. 0. 0. 240. 228. 227. 241. 250. 247. 247. 246.
      233. 233. 244. 246. 248. 249. 235. 212. 217. 237. 241. 203. 93.
      23. 42. 0. 0. 0. 0. 0. 214. 159. 152. 211. 244. 243. 244. 242.
      235. 239. 245. 246. 247. 236. 197. 149. 156. 209. 237. 194. 85.
      22. 40. 0. 0. 0. 0. 0. 158. 83. 83. 153. 214. 234. 237. 241. 244.
      246. 246. 246. 245. 210. 147. 85. 89. 162. 222. 177. 66. 21. 37.
      0. 0. 0. 0. 0. 96. 52. 55. 84. 153. 217. 223. 235. 243. 240. 224.
      218. 202. 148. 79. 48. 56. 112. 178. 138. 54. 21. 33. 0. 0. 0. 0.
      0. 74. 56. 54. 51. 95. 154. 153. 144. 151. 145. 138. 146. 135. 92.
      52. 50. 57. 83. 122. 97. 48. 29. 44. 0. 0. 0. 0. 0. 77. 67. 60.
      64. 84. 98. 99. 72. 71. 69. 77. 98. 96. 77. 67. 65. 70. 73. 87.
      71. 45. 48. 75. 0. 0. 0. 0. 0. 0. 0. 0. 0. 0. 0. 0. 0. 0. 0. 0. 0.
      0. 0. 0. 0. 0. 0. 0. 0. 0. 0. 0. 0. 0. 0. 0. 0. 0. 0. 0. 0. 0. 0.
      0. 0. 0. 0. 0. 0. 0. 0. 0. 0. 0. 0. 0. 0. 0. 0. 0. 0. 0. 0. 0. 0.
      0. 0. 0. 0. 0. 0. 0. 0. 0. 0. 0. 0. 0. 0. 0. 0. 0. 0. 0. 0. 0. 0.
      0. 0. 0. 0. 0. 0. 0. 0. 0. 0. 0. 0. 0. 0. 0. 0. 0. 0. 0. 0. 0. 0.
      0. 0. 0. 0. 0. 0. 0. 0. 0. 0. 0. 0. 0. 0. 0. 0. 0. 0. 0. 0. 0. 0.
      0. 0. 0. 0. 0. 0. 0. 0. 0. 0. 0. 0. 0. 0. 0. 0. 0. 0. 0. 0. 0. 0.
      0. 0. 0. 0. 0. 0. 0. 0. 0. 0. 0. 0. 0. 0. 0. 0. 0. 0. 0. 0. 0. 0.
      0. 0. 0. 0. 0. 0. 0. 0. 0. 0. 0. 0. 0. 0. 0. 0. 0. 0. 0. 0. 0. 0.
      0. 0. 0. 0. 0. 0. 0. 0. 0. 0. 0. 0. 0. 0. 0. 0. 0. 0. 0. 0. 0. 0.
      0. 0. 0. 0. 0. 0. 0. 0. 0. 0. 0. 0. 0. 0. 0. 0. 0. 0. 0. 0. 0. 0.
      0. 0. 0. 0. 0. 0. 0. 0. 0. 0. 0. 0. 0. 0. 0. 0. 0. 0. 0. 0. 0. 0.
      0. 0. 0. 0. 0. 0. 0. 0. 0. 0. 0. 0. 0. 0. 0. 0. 0. 0. 0. 0. 0. 0.
      0. 0. 0. 0.</_>
    <_>
      17. 31. 45. 44. 39. 37. 63. 85. 78. 92. 96. 93. 94. 81. 55. 53.
      57. 56. 47. 48. 47. 0. 0. 0. 0. 0. 0. 0. 28. 29. 23. 29. 54. 56.
      79. 132. 141. 142. 133. 145. 140. 103. 86. 85. 77. 47. 33. 53. 58.
      0. 0. 0. 0. 0. 0. 0. 15. 12. 23. 91. 176. 187. 166. 149. 167. 165.
      153. 166. 159. 127. 149. 177. 163. 80. 22. 35. 54. 0. 0. 0. 0. 0.
      0. 0. 18. 15. 74. 166. 230. 236. 199. 145. 146. 159. 162. 165.
      145. 139. 206. 247. 242. 163. 61. 14. 29. 0. 0. 0. 0. 0. 0. 0. 13.
      34. 149. 232. 245. 246. 213. 150. 132. 151. 162. 153. 132. 146.
      229. 245. 246. 234. 144. 28. 23. 0. 0. 0. 0. 0. 0. 0. 13. 73. 192.
      247. 250. 249. 230. 186. 141. 135. 147. 136. 138. 178. 235. 247.
      244. 253. 193. 34. 10. 0. 0. 0. 0. 0. 0. 0. 30. 118. 217. 250.
      251. 252. 245. 218. 158. 123. 133. 124. 160. 225. 242. 251. 247.
      250. 237. 56. 17. 0. 0. 0. 0. 0. 0. 0. 71. 181. 239. 251. 247.
      250. 250. 231. 168. 120. 126. 122. 170. 235. 243. 250. 248. 251.
      251. 165. 76. 0. 0. 0. 0. 0. 0. 0. 113. 217. 248. 251. 246. 249.
      252. 236. 169. 112. 111. 118. 177. 239. 244. 253. 251. 253. 252.
      239. 109. 0. 0. 0. 0. 0. 0. 0. 144. 230. 250. 250. 250. 252. 252.
      238. 175. 116. 99. 121. 194. 239. 246. 253. 252. 248. 241. 245.
      107. 0. 0. 0. 0. 0. 0. 0. 153. 233. 249. 249. 253. 252. 252. 245.
      205. 142. 102. 149. 224. 245. 247. 250. 254. 252. 250. 241. 113.
      0. 0. 0. 0. 0. 0. 0. 150. 233. 248. 249. 253. 251. 249. 252. 237.
      174. 131. 179. 238. 245. 246. 253. 253. 252. 252. 234. 124. 0. 0.
      0. 0. 0. 0. 0. 138. 235. 248. 250. 253. 252. 251. 252. 246. 206.
      187. 215. 245. 249. 248. 253. 251. 248. 250. 228. 122. 0. 0. 0. 0.
      0. 0. 0. 112. 239. 248. 247. 253. 253. 253. 249. 244. 234. 235.
      235. 241. 249. 250. 251. 251. 250. 250. 223. 107. 0. 0. 0. 0. 0.
      0. 0. 80. 218. 246. 242. 252. 252. 251. 248. 250. 251. 252. 251.
      250. 251. 254. 252. 250. 252. 245. 195. 73. 0. 0. 0. 0. 0. 0. 0.
      54. 156. 242. 245. 251. 252. 251. 250. 251. 250. 251. 252. 253.
      253. 254. 251. 247. 248. 219. 137. 39. 0. 0. 0. 0. 0. 0. 0. 35.
      92. 230. 245. 245. 246. 249. 253. 254. 253. 250. 252. 254. 253.
      252. 250. 247. 244. 192. 82. 23. 0. 0. 0. 0. 0. 0. 0. 29. 56. 200.
      242. 247. 237. 251. 254. 254. 254. 253. 254. 254. 251. 250. 249.
      248. 234. 163. 56. 29. 0. 0. 0. 0. 0. 0. 0. 30. 44. 140. 215. 243.
      241. 245. 248. 245. 250. 251. 249. 249. 247. 246. 245. 233. 194.
      114. 42. 35. 0. 0. 0. 0. 0. 0. 0. 35. 36. 70. 145. 225. 228. 235.
      247. 242. 248. 250. 246. 247. 245. 229. 214. 187. 125. 62. 38. 41.
      0. 0. 0. 0. 0. 0. 0. 43. 47. 42. 90. 148. 147. 199. 233. 236. 238.
      240. 238. 241. 232. 176. 142. 118. 72. 42. 46. 50. 0. 0. 0. 0. 0.
      0. 0. 51. 68. 50. 70. 83. 66. 126. 197. 210. 206. 201. 198. 205.
      177. 105. 68. 63. 53. 47. 51. 47. 0. 0. 0. 0. 0. 0. 0. 47. 55. 59.
      64. 67. 63. 83. 125. 146. 142. 136. 133. 139. 113. 69. 50. 53. 60.
      56. 57. 52. 0. 0. 0. 0. 0. 0. 0. 0. 0. 0. 0. 0. 0. 0. 0. 0. 0. 0.
      0. 0. 0. 0. 0. 0. 0. 0. 0. 0. 0. 0. 0. 0. 0. 0. 0. 0. 0. 0. 0. 0.
      0. 0. 0. 0. 0. 0. 0. 0. 0. 0. 0. 0. 0. 0. 0. 0. 0. 0. 0. 0. 0. 0.
      0. 0. 0. 0. 0. 0. 0. 0. 0. 0. 0. 0. 0. 0. 0. 0. 0. 0. 0. 0. 0. 0.
      0. 0. 0. 0. 0. 0. 0. 0. 0. 0. 0. 0. 0. 0. 0. 0. 0. 0. 0. 0. 0. 0.
      0. 0. 0. 0. 0. 0. 0. 0. 0. 0. 0. 0. 0. 0. 0. 0. 0. 0. 0. 0. 0. 0.
      0. 0. 0. 0. 0. 0. 0. 0. 0. 0. 0. 0. 0. 0. 0. 0. 0. 0. 0.</_>
    <_>
      223. 223. 222. 220. 215. 201. 189. 188. 188. 186. 186. 190. 203.
      216. 225. 228. 228. 224. 224. 190. 0. 0. 0. 0. 0. 0. 0. 0. 224.
      229. 224. 214. 200. 181. 161. 152. 147. 145. 147. 159. 179. 200.
      218. 232. 230. 225. 223. 188. 0. 0. 0. 0. 0. 0. 0. 0. 226. 224.
      206. 195. 180. 157. 149. 143. 134. 133. 137. 142. 152. 160. 171.
      205. 229. 228. 232. 187. 0. 0. 0. 0. 0. 0. 0. 0. 226. 208. 189.
      194. 193. 175. 147. 135. 134. 133. 138. 153. 178. 191. 187. 184.
      200. 230. 236. 181. 0. 0. 0. 0. 0. 0. 0. 0. 199. 194. 201. 225.
      233. 221. 169. 138. 139. 137. 146. 179. 216. 231. 221. 188. 170.
      203. 227. 175. 0. 0. 0. 0. 0. 0. 0. 0. 152. 189. 226. 251. 249.
      246. 209. 153. 136. 132. 161. 206. 235. 244. 242. 215. 164. 157.
      199. 167. 0. 0. 0. 0. 0. 0. 0. 0. 125. 201. 249. 254. 250. 251.
      248. 170. 132. 131. 181. 223. 243. 248. 250. 240. 185. 132. 158.
      139. 0. 0. 0. 0. 0. 0. 0. 0. 126. 216. 254. 252. 245. 251. 249.
      182. 130. 132. 192. 231. 241. 246. 249. 248. 208. 136. 118. 95. 0.
      0. 0. 0. 0. 0. 0. 0. 130. 214. 245. 237. 240. 243. 249. 196. 125.
      126. 199. 236. 236. 240. 244. 246. 215. 146. 98. 66. 0. 0. 0. 0.
      0. 0. 0. 0. 141. 212. 243. 239. 241. 237. 248. 207. 114. 115. 203.
      238. 233. 232. 240. 245. 213. 154. 104. 57. 0. 0. 0. 0. 0. 0. 0.
      0. 156. 212. 245. 230. 225. 229. 241. 202. 119. 119. 200. 230.
      220. 215. 227. 237. 210. 166. 120. 52. 0. 0. 0. 0. 0. 0. 0. 0.
      162. 195. 211. 196. 194. 204. 222. 193. 130. 126. 185. 206. 194.
      189. 201. 211. 197. 170. 118. 52. 0. 0. 0. 0. 0. 0. 0. 0. 161.
      171. 175. 167. 173. 184. 193. 175. 136. 129. 162. 174. 170. 174.
      182. 185. 171. 157. 118. 53. 0. 0. 0. 0. 0. 0. 0. 0. 154. 150.
      150. 153. 165. 171. 165. 152. 135. 130. 143. 149. 154. 161. 164.
      164. 152. 154. 122. 58. 0. 0. 0. 0. 0. 0. 0. 0. 149. 136. 134.
      141. 151. 153. 145. 134. 130. 129. 131. 137. 142. 142. 144. 148.
      146. 156. 125. 60. 0. 0. 0. 0. 0. 0. 0. 0. 151. 132. 127. 133.
      137. 134. 132. 125. 126. 126. 120. 124. 129. 124. 122. 128. 137.
      150. 122. 62. 0. 0. 0. 0. 0. 0. 0. 0. 151. 125. 120. 130. 134.
      131. 127. 118. 114. 116. 118. 126. 133. 130. 121. 120. 133. 148.
      126. 67. 0. 0. 0. 0. 0. 0. 0. 0. 143. 109. 105. 123. 137. 140.
      129. 106. 86. 90. 116. 138. 143. 137. 120. 101. 118. 142. 131. 68.
      0. 0. 0. 0. 0. 0. 0. 0. 124. 85. 81. 105. 134. 146. 131. 93. 56.
      64. 106. 138. 136. 121. 103. 72. 91. 123. 130. 66. 0. 0. 0. 0. 0.
      0. 0. 0. 102. 62. 56. 79. 120. 144. 122. 73. 30. 34. 83. 140. 141.
      107. 73. 51. 65. 100. 109. 56. 0. 0. 0. 0. 0. 0. 0. 0. 0. 0. 0. 0.
      0. 0. 0. 0. 0. 0. 0. 0. 0. 0. 0. 0. 0. 0. 0. 0. 0. 0. 0. 0. 0. 0.
      0. 0. 0. 0. 0. 0. 0. 0. 0. 0. 0. 0. 0. 0. 0. 0. 0. 0. 0. 0. 0. 0.
      0. 0. 0. 0. 0. 0. 0. 0. 0. 0. 0. 0. 0. 0. 0. 0. 0. 0. 0. 0. 0. 0.
      0. 0. 0. 0. 0. 0. 0. 0. 0. 0. 0. 0. 0. 0. 0. 0. 0. 0. 0. 0. 0. 0.
      0. 0. 0. 0. 0. 0. 0. 0. 0. 0. 0. 0. 0. 0. 0. 0. 0. 0. 0. 0. 0. 0.
      0. 0. 0. 0. 0. 0. 0. 0. 0. 0. 0. 0. 0. 0. 0. 0. 0. 0. 0. 0. 0. 0.
      0. 0. 0. 0. 0. 0. 0. 0. 0. 0. 0. 0. 0. 0. 0. 0. 0. 0. 0. 0. 0. 0.
      0. 0. 0. 0. 0. 0. 0. 0. 0. 0. 0. 0. 0. 0. 0. 0. 0. 0. 0. 0. 0. 0.
      0. 0. 0. 0. 0. 0. 0. 0. 0. 0. 0. 0. 0. 0. 0. 0. 0. 0. 0. 0. 0. 0.
      0. 0. 0. 0. 0. 0. 0. 0. 0. 0. 0. 0. 0. 0. 0. 0. 0. 0. 0. 0. 0. 0.</_>
    <_>
      238. 226. 220. 222. 221. 215. 206. 192. 182. 181. 183. 182. 177.
      177. 198. 209. 218. 225. 215. 212. 220. 0. 0. 0. 0. 0. 0. 0. 233.
      228. 224. 226. 223. 212. 198. 180. 162. 155. 154. 154. 152. 156.
      174. 180. 201. 225. 224. 218. 222. 0. 0. 0. 0. 0. 0. 0. 229. 232.
      229. 220. 202. 189. 177. 162. 149. 142. 141. 141. 141. 146. 160.
      166. 180. 212. 229. 231. 228. 0. 0. 0. 0. 0. 0. 0. 209. 235. 222.
      191. 193. 200. 190. 167. 140. 131. 136. 136. 136. 154. 180. 181.
      169. 164. 192. 229. 229. 0. 0. 0. 0. 0. 0. 0. 178. 210. 188. 182.
      207. 227. 227. 196. 148. 122. 129. 124. 131. 184. 232. 241. 207.
      175. 146. 187. 214. 0. 0. 0. 0. 0. 0. 0. 149. 172. 152. 200. 234.
      241. 246. 227. 186. 137. 114. 119. 156. 212. 241. 248. 241. 209.
      138. 138. 180. 0. 0. 0. 0. 0. 0. 0. 130. 144. 129. 222. 251. 250.
      252. 245. 222. 152. 101. 112. 178. 236. 248. 245. 250. 236. 164.
      115. 150. 0. 0. 0. 0. 0. 0. 0. 107. 123. 120. 238. 251. 244. 248.
      242. 236. 165. 103. 116. 187. 241. 244. 230. 241. 245. 199. 117.
      128. 0. 0. 0. 0. 0. 0. 0. 86. 110. 124. 245. 245. 235. 233. 238.
      245. 175. 114. 128. 200. 243. 239. 232. 236. 241. 221. 125. 106.
      0. 0. 0. 0. 0. 0. 0. 78. 113. 138. 245. 243. 233. 231. 244. 246.
      178. 121. 132. 203. 241. 236. 235. 234. 235. 223. 133. 93. 0. 0.
      0. 0. 0. 0. 0. 82. 125. 148. 232. 231. 220. 214. 235. 237. 179.
      130. 129. 191. 225. 219. 214. 216. 224. 214. 154. 105. 0. 0. 0. 0.
      0. 0. 0. 89. 134. 150. 211. 208. 186. 179. 209. 218. 178. 143.
      128. 178. 202. 184. 174. 187. 202. 191. 170. 130. 0. 0. 0. 0. 0.
      0. 0. 98. 145. 157. 172. 174. 153. 154. 172. 187. 171. 145. 129.
      153. 166. 156. 149. 161. 175. 165. 163. 134. 0. 0. 0. 0. 0. 0. 0.
      100. 145. 147. 146. 146. 150. 152. 157. 159. 148. 130. 126. 134.
      138. 145. 147. 143. 148. 162. 162. 116. 0. 0. 0. 0. 0. 0. 0. 104.
      152. 146. 132. 129. 135. 140. 142. 138. 131. 124. 122. 128. 128.
      132. 135. 136. 140. 156. 163. 121. 0. 0. 0. 0. 0. 0. 0. 105. 154.
      143. 128. 123. 121. 125. 127. 128. 127. 126. 121. 117. 118. 119.
      122. 123. 124. 134. 147. 119. 0. 0. 0. 0. 0. 0. 0. 107. 150. 137.
      124. 122. 116. 116. 119. 123. 123. 121. 118. 117. 118. 118. 123.
      127. 126. 132. 146. 121. 0. 0. 0. 0. 0. 0. 0. 109. 149. 140. 129.
      124. 115. 107. 107. 118. 124. 118. 119. 124. 109. 104. 114. 124.
      127. 135. 144. 113. 0. 0. 0. 0. 0. 0. 0. 102. 144. 145. 134. 120.
      103. 91. 89. 111. 136. 137. 124. 115. 88. 81. 93. 113. 126. 134.
      135. 99. 0. 0. 0. 0. 0. 0. 0. 85. 131. 141. 128. 105. 87. 79. 79.
      98. 127. 138. 114. 83. 81. 76. 78. 95. 115. 125. 121. 85. 0. 0. 0.
      0. 0. 0. 0. 75. 105. 114. 101. 81. 74. 80. 79. 75. 80. 87. 83. 70.
      84. 73. 59. 67. 86. 98. 96. 68. 0. 0. 0. 0. 0. 0. 0. 0. 0. 0. 0.
      0. 0. 0. 0. 0. 0. 0. 0. 0. 0. 0. 0. 0. 0. 0. 0. 0. 0. 0. 0. 0. 0.
      0. 0. 0. 0. 0. 0. 0. 0. 0. 0. 0. 0. 0. 0. 0. 0. 0. 0. 0. 0. 0. 0.
      0. 0. 0. 0. 0. 0. 0. 0. 0. 0. 0. 0. 0. 0. 0. 0. 0. 0. 0. 0. 0. 0.
      0. 0. 0. 0. 0. 0. 0. 0. 0. 0. 0. 0. 0. 0. 0. 0. 0. 0. 0. 0. 0. 0.
      0. 0. 0. 0. 0. 0. 0. 0. 0. 0. 0. 0. 0. 0. 0. 0. 0. 0. 0. 0. 0. 0.
      0. 0. 0. 0. 0. 0. 0. 0. 0. 0. 0. 0. 0. 0. 0. 0. 0. 0. 0. 0. 0. 0.
      0. 0. 0. 0. 0. 0. 0. 0. 0. 0. 0. 0. 0. 0. 0. 0. 0. 0. 0. 0. 0. 0.
      0. 0. 0. 0. 0. 0. 0. 0. 0. 0. 0. 0. 0. 0. 0. 0. 0. 0. 0. 0. 0. 0.
      0. 0. 0. 0. 0. 0. 0. 0. 0. 0. 0. 0. 0. 0. 0. 0.</_>
    <_>
      43. 44. 46. 48. 50. 52. 52. 53. 47. 31. 50. 114. 155. 153. 153.
      150. 100. 36. 33. 56. 55. 51. 54. 48. 46. 46. 44. 44. 47. 50. 44.
      49. 54. 43. 46. 46. 49. 44. 82. 177. 239. 244. 244. 242. 165. 61.
      41. 63. 55. 46. 49. 47. 48. 47. 46. 45. 46. 50. 47. 55. 51. 26.
      33. 51. 80. 100. 140. 209. 240. 241. 246. 249. 185. 116. 118. 112.
      66. 35. 33. 42. 45. 51. 51. 46. 50. 51. 55. 47. 30. 30. 65. 121.
      140. 144. 170. 221. 240. 241. 246. 248. 207. 154. 141. 151. 137.
      87. 34. 25. 48. 52. 49. 44. 55. 46. 46. 30. 20. 80. 165. 197. 197.
      193. 204. 227. 236. 243. 247. 246. 225. 192. 176. 191. 205. 159.
      67. 21. 33. 40. 47. 57. 107. 84. 45. 32. 49. 160. 230. 235. 229.
      225. 225. 233. 236. 246. 249. 246. 235. 221. 214. 217. 223. 205.
      130. 47. 27. 44. 75. 107. 150. 154. 112. 96. 125. 221. 249. 250.
      244. 245. 246. 245. 244. 250. 251. 250. 247. 247. 245. 239. 239.
      240. 201. 134. 107. 112. 133. 148. 114. 184. 207. 230. 235. 252.
      242. 252. 250. 247. 247. 246. 245. 250. 252. 248. 250. 252. 250.
      248. 250. 250. 241. 223. 212. 202. 180. 137. 94. 200. 235. 243.
      242. 252. 252. 252. 252. 250. 250. 250. 249. 250. 252. 247. 249.
      247. 246. 250. 250. 249. 251. 249. 245. 233. 201. 131. 114. 192.
      211. 236. 243. 251. 252. 252. 252. 247. 248. 250. 251. 250. 252.
      249. 249. 247. 249. 252. 251. 250. 248. 248. 232. 201. 181. 141.
      143. 146. 140. 200. 242. 238. 253. 251. 251. 251. 251. 252. 252.
      249. 249. 251. 251. 250. 252. 253. 252. 252. 249. 247. 188. 119.
      126. 150. 130. 88. 51. 131. 243. 253. 253. 251. 251. 252. 252.
      252. 252. 249. 249. 251. 251. 252. 252. 253. 252. 253. 253. 245.
      130. 35. 67. 130. 65. 43. 41. 144. 250. 252. 253. 253. 253. 254.
      254. 253. 253. 251. 251. 251. 251. 253. 253. 253. 253. 253. 253.
      245. 131. 31. 39. 64. 36. 27. 54. 158. 248. 248. 253. 254. 254.
      254. 254. 253. 253. 252. 252. 252. 252. 253. 253. 253. 253. 253.
      253. 242. 128. 30. 27. 41. 47. 21. 32. 144. 249. 250. 251. 251.
      252. 253. 253. 253. 253. 253. 253. 252. 252. 253. 253. 253. 253.
      253. 253. 244. 130. 35. 31. 46. 42. 22. 40. 155. 252. 251. 251.
      251. 252. 253. 253. 254. 254. 253. 253. 253. 253. 254. 254. 253.
      253. 253. 252. 248. 122. 28. 26. 44. 38. 20. 38. 151. 247. 251.
      252. 253. 253. 253. 253. 253. 253. 253. 253. 253. 253. 253. 253.
      253. 253. 252. 252. 251. 118. 22. 25. 49. 42. 18. 32. 154. 250.
      251. 251. 253. 253. 254. 253. 253. 253. 253. 253. 253. 253. 253.
      253. 253. 253. 252. 252. 253. 123. 26. 24. 46. 34. 19. 30. 147.
      245. 252. 252. 252. 252. 249. 249. 252. 252. 251. 252. 252. 250.
      244. 248. 252. 252. 252. 252. 250. 119. 27. 26. 45. 44. 23. 31.
      148. 242. 249. 246. 249. 238. 204. 201. 232. 250. 249. 247. 247.
      233. 193. 211. 244. 247. 249. 251. 252. 108. 17. 28. 51. 48. 23.
      22. 129. 227. 248. 247. 240. 198. 125. 108. 175. 238. 247. 241.
      232. 176. 93. 105. 219. 250. 231. 248. 222. 94. 19. 36. 53. 43.
      29. 17. 80. 173. 232. 248. 205. 125. 59. 44. 105. 195. 241. 237.
      189. 94. 32. 50. 148. 245. 249. 247. 135. 52. 19. 40. 48. 40. 44.
      27. 41. 101. 170. 200. 136. 62. 46. 40. 54. 125. 202. 195. 109.
      37. 39. 46. 65. 167. 222. 184. 62. 28. 26. 45. 46. 0. 0. 0. 0. 0.
      0. 0. 0. 0. 0. 0. 0. 0. 0. 0. 0. 0. 0. 0. 0. 0. 0. 0. 0. 0. 0. 0.
      0. 0. 0. 0. 0. 0. 0. 0. 0. 0. 0. 0. 0. 0. 0. 0. 0. 0. 0. 0. 0. 0.
      0. 0. 0. 0. 0. 0. 0. 0. 0. 0. 0. 0. 0. 0. 0. 0. 0. 0. 0. 0. 0. 0.
      0. 0. 0. 0. 0. 0. 0. 0. 0. 0. 0. 0. 0. 0. 0. 0. 0. 0. 0. 0. 0. 0.
      0. 0. 0. 0. 0. 0. 0. 0. 0. 0. 0. 0. 0. 0. 0. 0. 0. 0. 0. 0. 0. 0.
      0. 0. 0. 0. 0. 0. 0. 0. 0. 0. 0. 0. 0. 0. 0. 0. 0. 0. 0. 0. 0. 0.
      0. 0. 0.</_>
    <_>
      24. 40. 93. 136. 113. 51. 24. 36. 49. 47. 44. 44. 46. 51. 47. 40.
      41. 52. 75. 72. 0. 0. 0. 0. 0. 0. 0. 0. 20. 42. 145. 218. 197.
      107. 24. 28. 50. 51. 47. 44. 47. 51. 48. 44. 37. 38. 55. 70. 0. 0.
      0. 0. 0. 0. 0. 0. 24. 42. 157. 240. 229. 128. 34. 30. 52. 55. 52.
      50. 52. 52. 51. 47. 45. 45. 42. 55. 0. 0. 0. 0. 0. 0. 0. 0. 27.
      31. 116. 210. 210. 122. 49. 53. 72. 76. 71. 66. 63. 57. 52. 50.
      47. 47. 50. 52. 0. 0. 0. 0. 0. 0. 0. 0. 42. 30. 66. 122. 134. 99.
      84. 105. 119. 118. 104. 90. 74. 57. 50. 52. 53. 53. 57. 58. 0. 0.
      0. 0. 0. 0. 0. 0. 59. 49. 56. 79. 99. 109. 126. 141. 143. 142.
      134. 122. 101. 74. 62. 60. 57. 52. 53. 53. 0. 0. 0. 0. 0. 0. 0. 0.
      60. 68. 87. 117. 130. 137. 141. 138. 133. 137. 143. 146. 135. 115.
      98. 80. 61. 51. 54. 58. 0. 0. 0. 0. 0. 0. 0. 0. 63. 91. 123. 143.
      147. 145. 142. 139. 133. 130. 135. 143. 147. 144. 130. 102. 69.
      50. 49. 53. 0. 0. 0. 0. 0. 0. 0. 0. 90. 127. 147. 157. 163. 164.
      157. 152. 143. 131. 135. 147. 156. 167. 166. 145. 108. 68. 37. 39.
      0. 0. 0. 0. 0. 0. 0. 0. 127. 157. 194. 211. 218. 214. 205. 186.
      164. 142. 158. 183. 195. 208. 214. 213. 183. 119. 49. 34. 0. 0. 0.
      0. 0. 0. 0. 0. 154. 186. 232. 248. 252. 248. 249. 235. 213. 172.
      185. 225. 244. 250. 248. 250. 246. 194. 89. 26. 0. 0. 0. 0. 0. 0.
      0. 0. 170. 223. 243. 249. 247. 242. 246. 236. 229. 208. 224. 244.
      248. 246. 235. 239. 246. 222. 154. 49. 0. 0. 0. 0. 0. 0. 0. 0.
      171. 241. 249. 246. 241. 239. 237. 211. 209. 201. 227. 245. 253.
      244. 241. 234. 211. 179. 142. 54. 0. 0. 0. 0. 0. 0. 0. 0. 168.
      241. 248. 247. 241. 237. 223. 173. 174. 186. 227. 246. 251. 242.
      245. 232. 169. 125. 122. 55. 0. 0. 0. 0. 0. 0. 0. 0. 167. 232.
      245. 249. 243. 235. 218. 172. 170. 181. 221. 247. 250. 235. 233.
      219. 172. 142. 139. 65. 0. 0. 0. 0. 0. 0. 0. 0. 166. 207. 227.
      245. 246. 244. 239. 207. 189. 161. 178. 232. 247. 248. 241. 236.
      221. 179. 124. 73. 0. 0. 0. 0. 0. 0. 0. 0. 156. 170. 194. 230.
      238. 240. 238. 219. 189. 139. 147. 191. 219. 243. 247. 247. 235.
      185. 106. 84. 0. 0. 0. 0. 0. 0. 0. 0. 143. 146. 162. 188. 196.
      191. 188. 180. 161. 128. 142. 145. 165. 183. 193. 182. 177. 166.
      119. 93. 0. 0. 0. 0. 0. 0. 0. 0. 0. 0. 0. 0. 0. 0. 0. 0. 0. 0. 0.
      0. 0. 0. 0. 0. 0. 0. 0. 0. 0. 0. 0. 0. 0. 0. 0. 0. 0. 0. 0. 0. 0.
      0. 0. 0. 0. 0. 0. 0. 0. 0. 0. 0. 0. 0. 0. 0. 0. 0. 0. 0. 0. 0. 0.
      0. 0. 0. 0. 0. 0. 0. 0. 0. 0. 0. 0. 0. 0. 0. 0. 0. 0. 0. 0. 0. 0.
      0. 0. 0. 0. 0. 0. 0. 0. 0. 0. 0. 0. 0. 0. 0. 0. 0. 0. 0. 0. 0. 0.
      0. 0. 0. 0. 0. 0. 0. 0. 0. 0. 0. 0. 0. 0. 0. 0. 0. 0. 0. 0. 0. 0.
      0. 0. 0. 0. 0. 0. 0. 0. 0. 0. 0. 0. 0. 0. 0. 0. 0. 0. 0. 0. 0. 0.
      0. 0. 0. 0. 0. 0. 0. 0. 0. 0. 0. 0. 0. 0. 0. 0. 0. 0. 0. 0. 0. 0.
      0. 0. 0. 0. 0. 0. 0. 0. 0. 0. 0. 0. 0. 0. 0. 0. 0. 0. 0. 0. 0. 0.
      0. 0. 0. 0. 0. 0. 0. 0. 0. 0. 0. 0. 0. 0. 0. 0. 0. 0. 0. 0. 0. 0.
      0. 0. 0. 0. 0. 0. 0. 0. 0. 0. 0. 0. 0. 0. 0. 0. 0. 0. 0. 0. 0. 0.
      0. 0. 0. 0. 0. 0. 0. 0. 0. 0. 0. 0. 0. 0. 0. 0. 0. 0. 0. 0. 0. 0.
      0. 0. 0. 0. 0. 0. 0. 0. 0. 0. 0. 0. 0. 0. 0. 0. 0. 0. 0. 0. 0. 0.
      0. 0. 0. 0. 0.</_>
    <_>
      87. 164. 230. 242. 227. 200. 173. 155. 142. 136. 133. 133. 131.
      129. 134. 140. 131. 104. 69. 47. 0. 0. 0. 0. 0. 0. 0. 0. 168. 232.
      246. 225. 197. 170. 148. 145. 131. 128. 130. 128. 131. 134. 139.
      145. 146. 131. 95. 57. 0. 0. 0. 0. 0. 0. 0. 0. 225. 243. 248. 232.
      219. 205. 186. 169. 141. 130. 130. 125. 144. 163. 173. 176. 167.
      153. 123. 95. 0. 0. 0. 0. 0. 0. 0. 0. 249. 249. 246. 241. 241.
      239. 236. 212. 181. 150. 134. 135. 172. 207. 227. 230. 218. 195.
      158. 121. 0. 0. 0. 0. 0. 0. 0. 0. 251. 242. 247. 246. 245. 246.
      250. 243. 224. 174. 139. 170. 220. 243. 249. 252. 251. 233. 192.
      147. 0. 0. 0. 0. 0. 0. 0. 0. 246. 241. 245. 243. 238. 240. 245.
      249. 244. 195. 137. 191. 229. 236. 236. 241. 249. 246. 216. 164.
      0. 0. 0. 0. 0. 0. 0. 0. 245. 241. 232. 213. 215. 232. 241. 245.
      248. 215. 133. 173. 187. 210. 232. 238. 245. 247. 215. 158. 0. 0.
      0. 0. 0. 0. 0. 0. 246. 231. 199. 171. 191. 227. 237. 243. 248.
      218. 128. 142. 145. 185. 225. 237. 244. 246. 212. 157. 0. 0. 0. 0.
      0. 0. 0. 0. 245. 217. 170. 150. 190. 230. 236. 240. 238. 194. 128.
      134. 146. 186. 223. 238. 245. 239. 204. 164. 0. 0. 0. 0. 0. 0. 0.
      0. 238. 200. 163. 165. 209. 238. 243. 230. 207. 160. 129. 131.
      168. 220. 238. 242. 238. 211. 170. 151. 0. 0. 0. 0. 0. 0. 0. 0.
      231. 188. 161. 179. 214. 229. 230. 200. 163. 140. 126. 131. 170.
      211. 226. 221. 203. 172. 142. 142. 0. 0. 0. 0. 0. 0. 0. 0. 226.
      184. 156. 162. 181. 185. 171. 162. 150. 142. 134. 132. 149. 171.
      176. 173. 158. 144. 131. 143. 0. 0. 0. 0. 0. 0. 0. 0. 223. 185.
      155. 151. 152. 146. 141. 141. 132. 127. 122. 125. 137. 140. 145.
      142. 132. 129. 125. 137. 0. 0. 0. 0. 0. 0. 0. 0. 226. 188. 156.
      147. 141. 133. 141. 137. 129. 124. 121. 124. 133. 133. 132. 131.
      122. 125. 124. 129. 0. 0. 0. 0. 0. 0. 0. 0. 227. 185. 152. 142.
      137. 131. 133. 131. 129. 131. 131. 128. 129. 128. 129. 130. 121.
      125. 127. 131. 0. 0. 0. 0. 0. 0. 0. 0. 224. 181. 148. 140. 137.
      132. 132. 129. 128. 130. 132. 128. 128. 129. 130. 134. 124. 125.
      129. 132. 0. 0. 0. 0. 0. 0. 0. 0. 217. 175. 147. 141. 138. 132.
      132. 133. 130. 127. 127. 128. 129. 127. 124. 135. 127. 126. 130.
      132. 0. 0. 0. 0. 0. 0. 0. 0. 209. 169. 145. 140. 135. 127. 129.
      138. 137. 130. 129. 131. 127. 122. 127. 141. 135. 130. 132. 132.
      0. 0. 0. 0. 0. 0. 0. 0. 203. 165. 148. 150. 134. 109. 124. 166.
      172. 152. 140. 135. 112. 97. 137. 171. 160. 136. 125. 118. 0. 0.
      0. 0. 0. 0. 0. 0. 0. 0. 0. 0. 0. 0. 0. 0. 0. 0. 0. 0. 0. 0. 0. 0.
      0. 0. 0. 0. 0. 0. 0. 0. 0. 0. 0. 0. 0. 0. 0. 0. 0. 0. 0. 0. 0. 0.
      0. 0. 0. 0. 0. 0. 0. 0. 0. 0. 0. 0. 0. 0. 0. 0. 0. 0. 0. 0. 0. 0.
      0. 0. 0. 0. 0. 0. 0. 0. 0. 0. 0. 0. 0. 0. 0. 0. 0. 0. 0. 0. 0. 0.
      0. 0. 0. 0. 0. 0. 0. 0. 0. 0. 0. 0. 0. 0. 0. 0. 0. 0. 0. 0. 0. 0.
      0. 0. 0. 0. 0. 0. 0. 0. 0. 0. 0. 0. 0. 0. 0. 0. 0. 0. 0. 0. 0. 0.
      0. 0. 0. 0. 0. 0. 0. 0. 0. 0. 0. 0. 0. 0. 0. 0. 0. 0. 0. 0. 0. 0.
      0. 0. 0. 0. 0. 0. 0. 0. 0. 0. 0. 0. 0. 0. 0. 0. 0. 0. 0. 0. 0. 0.
      0. 0. 0. 0. 0. 0. 0. 0. 0. 0. 0. 0. 0. 0. 0. 0. 0. 0. 0. 0. 0. 0.
      0. 0. 0. 0. 0. 0. 0. 0. 0. 0. 0. 0. 0. 0. 0. 0. 0. 0. 0. 0. 0. 0.
      0. 0. 0. 0. 0. 0. 0. 0. 0. 0. 0. 0. 0. 0. 0. 0. 0. 0. 0. 0. 0. 0.
      0. 0. 0. 0. 0. 0. 0. 0. 0. 0. 0. 0. 0. 0. 0. 0.</_>
    <_>
      142. 150. 147. 151. 168. 191. 213. 215. 219. 219. 214. 212. 209.
      204. 183. 165. 154. 148. 135. 95. 46. 0. 0. 0. 0. 0. 0. 0. 129.
      165. 180. 185. 204. 219. 240. 242. 252. 253. 251. 251. 251. 243.
      227. 216. 193. 155. 106. 64. 49. 0. 0. 0. 0. 0. 0. 0. 128. 193.
      219. 222. 229. 232. 244. 244. 250. 251. 251. 251. 249. 246. 237.
      234. 221. 189. 118. 60. 48. 0. 0. 0. 0. 0. 0. 0. 151. 223. 241.
      245. 248. 249. 251. 251. 252. 252. 253. 253. 253. 252. 249. 247.
      244. 232. 161. 79. 46. 0. 0. 0. 0. 0. 0. 0. 170. 236. 243. 246.
      248. 249. 251. 251. 252. 252. 253. 252. 252. 253. 251. 249. 250.
      249. 198. 104. 46. 0. 0. 0. 0. 0. 0. 0. 145. 214. 242. 244. 248.
      249. 252. 251. 251. 249. 254. 247. 246. 253. 251. 250. 249. 246.
      218. 138. 63. 0. 0. 0. 0. 0. 0. 0. 91. 170. 238. 241. 244. 246.
      251. 253. 254. 254. 254. 252. 252. 254. 250. 249. 248. 245. 234.
      187. 104. 0. 0. 0. 0. 0. 0. 0. 59. 152. 234. 236. 236. 239. 243.
      243. 247. 251. 254. 254. 254. 254. 253. 251. 250. 249. 246. 230.
      142. 0. 0. 0. 0. 0. 0. 0. 56. 156. 234. 232. 225. 224. 231. 236.
      243. 250. 250. 251. 252. 253. 254. 254. 253. 252. 249. 242. 157.
      0. 0. 0. 0. 0. 0. 0. 50. 152. 227. 225. 221. 221. 225. 227. 232.
      238. 243. 245. 249. 251. 253. 253. 253. 252. 252. 247. 159. 0. 0.
      0. 0. 0. 0. 0. 51. 158. 227. 226. 222. 222. 225. 225. 227. 232.
      240. 242. 248. 250. 252. 252. 251. 251. 249. 247. 156. 0. 0. 0. 0.
      0. 0. 0. 54. 166. 232. 229. 221. 219. 225. 230. 233. 237. 243.
      244. 250. 251. 252. 252. 252. 251. 247. 247. 159. 0. 0. 0. 0. 0.
      0. 0. 45. 162. 228. 230. 226. 226. 230. 235. 239. 242. 245. 247.
      252. 252. 254. 254. 253. 250. 251. 244. 160. 0. 0. 0. 0. 0. 0. 0.
      57. 164. 227. 238. 239. 240. 242. 244. 246. 248. 250. 251. 253.
      253. 254. 254. 252. 250. 251. 215. 135. 0. 0. 0. 0. 0. 0. 0. 93.
      192. 234. 243. 244. 245. 247. 250. 251. 252. 255. 255. 254. 253.
      254. 253. 249. 248. 243. 158. 88. 0. 0. 0. 0. 0. 0. 0. 178. 234.
      245. 247. 249. 249. 250. 251. 252. 254. 254. 253. 253. 254. 253.
      252. 249. 247. 232. 109. 49. 0. 0. 0. 0. 0. 0. 0. 174. 239. 251.
      250. 251. 253. 253. 253. 254. 255. 254. 251. 252. 253. 253. 250.
      248. 248. 204. 95. 43. 0. 0. 0. 0. 0. 0. 0. 118. 203. 237. 247.
      249. 251. 252. 253. 254. 252. 252. 254. 252. 247. 248. 253. 246.
      220. 123. 60. 37. 0. 0. 0. 0. 0. 0. 0. 63. 153. 202. 231. 244.
      248. 250. 251. 253. 246. 244. 251. 252. 250. 248. 241. 208. 160.
      67. 47. 47. 0. 0. 0. 0. 0. 0. 0. 41. 88. 121. 165. 207. 235. 246.
      248. 249. 251. 252. 252. 252. 243. 210. 160. 117. 88. 48. 47. 55.
      0. 0. 0. 0. 0. 0. 0. 47. 53. 51. 74. 128. 183. 213. 225. 230. 236.
      232. 226. 213. 181. 125. 74. 57. 60. 54. 50. 52. 0. 0. 0. 0. 0. 0.
      0. 46. 55. 43. 45. 73. 103. 119. 124. 133. 135. 131. 126. 116. 95.
      68. 47. 47. 57. 57. 49. 46. 0. 0. 0. 0. 0. 0. 0. 0. 0. 0. 0. 0. 0.
      0. 0. 0. 0. 0. 0. 0. 0. 0. 0. 0. 0. 0. 0. 0. 0. 0. 0. 0. 0. 0. 0.
      0. 0. 0. 0. 0. 0. 0. 0. 0. 0. 0. 0. 0. 0. 0. 0. 0. 0. 0. 0. 0. 0.
      0. 0. 0. 0. 0. 0. 0. 0. 0. 0. 0. 0. 0. 0. 0. 0. 0. 0. 0. 0. 0. 0.
      0. 0. 0. 0. 0. 0. 0. 0. 0. 0. 0. 0. 0. 0. 0. 0. 0. 0. 0. 0. 0. 0.
      0. 0. 0. 0. 0. 0. 0. 0. 0. 0. 0. 0. 0. 0. 0. 0. 0. 0. 0. 0. 0. 0.
      0. 0. 0. 0. 0. 0. 0. 0. 0. 0. 0. 0. 0. 0. 0. 0. 0. 0. 0. 0. 0. 0.
      0. 0. 0. 0. 0. 0. 0. 0. 0. 0. 0. 0. 0. 0. 0. 0. 0. 0. 0. 0. 0. 0.
      0. 0. 0. 0. 0. 0. 0. 0.</_>
    <_>
      15. 12. 23. 91. 176. 187. 166. 149. 167. 165. 153. 166. 159. 127.
      149. 177. 163. 80. 22. 35. 54. 0. 0. 0. 0. 0. 0. 0. 18. 15. 74.
      166. 230. 236. 199. 145. 146. 159. 162. 165. 145. 139. 206. 247.
      242. 163. 61. 14. 29. 0. 0. 0. 0. 0. 0. 0. 13. 34. 149. 232. 245.
      246. 213. 150. 132. 151. 162. 153. 132. 146. 229. 245. 246. 234.
      144. 28. 23. 0. 0. 0. 0. 0. 0. 0. 13. 73. 192. 247. 250. 249. 230.
      186. 141. 135. 147. 136. 138. 178. 235. 247. 244. 253. 193. 34.
      10. 0. 0. 0. 0. 0. 0. 0. 30. 118. 217. 250. 251. 252. 245. 218.
      158. 123. 133. 124. 160. 225. 242. 251. 247. 250. 237. 56. 17. 0.
      0. 0. 0. 0. 0. 0. 71. 181. 239. 251. 247. 250. 250. 231. 168. 120.
      126. 122. 170. 235. 243. 250. 248. 251. 251. 165. 76. 0. 0. 0. 0.
      0. 0. 0. 113. 217. 248. 251. 246. 249. 252. 236. 169. 112. 111.
      118. 177. 239. 244. 253. 251. 253. 252. 239. 109. 0. 0. 0. 0. 0.
      0. 0. 144. 230. 250. 250. 250. 252. 252. 238. 175. 116. 99. 121.
      194. 239. 246. 253. 252. 248. 241. 245. 107. 0. 0. 0. 0. 0. 0. 0.
      153. 233. 249. 249. 253. 252. 252. 245. 205. 142. 102. 149. 224.
      245. 247. 250. 254. 252. 250. 241. 113. 0. 0. 0. 0. 0. 0. 0. 150.
      233. 248. 249. 253. 251. 249. 252. 237. 174. 131. 179. 238. 245.
      246. 253. 253. 252. 252. 234. 124. 0. 0. 0. 0. 0. 0. 0. 138. 235.
      248. 250. 253. 252. 251. 252. 246. 206. 187. 215. 245. 249. 248.
      253. 251. 248. 250. 228. 122. 0. 0. 0. 0. 0. 0. 0. 112. 239. 248.
      247. 253. 253. 253. 249. 244. 234. 235. 235. 241. 249. 250. 251.
      251. 250. 250. 223. 107. 0. 0. 0. 0. 0. 0. 0. 80. 218. 246. 242.
      252. 252. 251. 248. 250. 251. 252. 251. 250. 251. 254. 252. 250.
      252. 245. 195. 73. 0. 0. 0. 0. 0. 0. 0. 54. 156. 242. 245. 251.
      252. 251. 250. 251. 250. 251. 252. 253. 253. 254. 251. 247. 248.
      219. 137. 39. 0. 0. 0. 0. 0. 0. 0. 35. 92. 230. 245. 245. 246.
      249. 253. 254. 253. 250. 252. 254. 253. 252. 250. 247. 244. 192.
      82. 23. 0. 0. 0. 0. 0. 0. 0. 29. 56. 200. 242. 247. 237. 251. 254.
      254. 254. 253. 254. 254. 251. 250. 249. 248. 234. 163. 56. 29. 0.
      0. 0. 0. 0. 0. 0. 30. 44. 140. 215. 243. 241. 245. 248. 245. 250.
      251. 249. 249. 247. 246. 245. 233. 194. 114. 42. 35. 0. 0. 0. 0.
      0. 0. 0. 35. 36. 70. 145. 225. 228. 235. 247. 242. 248. 250. 246.
      247. 245. 229. 214. 187. 125. 62. 38. 41. 0. 0. 0. 0. 0. 0. 0. 43.
      47. 42. 90. 148. 147. 199. 233. 236. 238. 240. 238. 241. 232. 176.
      142. 118. 72. 42. 46. 50. 0. 0. 0. 0. 0. 0. 0. 51. 68. 50. 70. 83.
      66. 126. 197. 210. 206. 201. 198. 205. 177. 105. 68. 63. 53. 47.
      51. 47. 0. 0. 0. 0. 0. 0. 0. 47. 55. 59. 64. 67. 63. 83. 125. 146.
      142. 136. 133. 139. 113. 69. 50. 53. 60. 56. 57. 52. 0. 0. 0. 0.
      0. 0. 0. 0. 0. 0. 0. 0. 0. 0. 0. 0. 0. 0. 0. 0. 0. 0. 0. 0. 0. 0.
      0. 0. 0. 0. 0. 0. 0. 0. 0. 0. 0. 0. 0. 0. 0. 0. 0. 0. 0. 0. 0. 0.
      0. 0. 0. 0. 0. 0. 0. 0. 0. 0. 0. 0. 0. 0. 0. 0. 0. 0. 0. 0. 0. 0.
      0. 0. 0. 0. 0. 0. 0. 0. 0. 0. 0. 0. 0. 0. 0. 0. 0. 0. 0. 0. 0. 0.
      0. 0. 0. 0. 0. 0. 0. 0. 0. 0. 0. 0. 0. 0. 0. 0. 0. 0. 0. 0. 0. 0.
      0. 0. 0. 0. 0. 0. 0. 0. 0. 0. 0. 0. 0. 0. 0. 0. 0. 0. 0. 0. 0. 0.
      0. 0. 0. 0. 0. 0. 0. 0. 0. 0. 0. 0. 0. 0. 0. 0. 0. 0. 0. 0. 0. 0.
      0. 0. 0. 0. 0. 0. 0. 0. 0. 0. 0. 0. 0. 0. 0. 0. 0. 0. 0. 0. 0. 0.
      0. 0. 0. 0. 0. 0. 0. 0. 0. 0. 0. 0. 0. 0. 0. 0. 0. 0. 0. 0. 0. 0.
      0.</_>
    <_>
      13. 15. 27. 58. 138. 163. 91. 25. 45. 43. 51. 51. 36. 25. 77. 144.
      142. 63. 18. 30. 40. 0. 0. 0. 0. 0. 0. 0. 15. 15. 52. 134. 211.
      222. 129. 27. 38. 47. 54. 52. 32. 41. 136. 209. 202. 120. 42. 16.
      25. 0. 0. 0. 0. 0. 0. 0. 20. 43. 113. 203. 234. 229. 147. 46. 35.
      47. 54. 47. 28. 62. 176. 226. 229. 190. 103. 38. 22. 0. 0. 0. 0.
      0. 0. 0. 45. 115. 188. 228. 229. 224. 179. 95. 42. 42. 55. 42. 36.
      111. 201. 222. 225. 224. 177. 104. 41. 0. 0. 0. 0. 0. 0. 0. 72.
      182. 229. 231. 227. 227. 216. 154. 60. 41. 52. 39. 63. 182. 227.
      225. 226. 227. 219. 175. 71. 0. 0. 0. 0. 0. 0. 0. 99. 219. 240.
      236. 233. 228. 227. 186. 77. 39. 42. 35. 80. 215. 231. 228. 229.
      227. 233. 217. 88. 0. 0. 0. 0. 0. 0. 0. 123. 234. 240. 240. 239.
      232. 231. 198. 82. 37. 37. 36. 88. 218. 232. 233. 237. 239. 244.
      234. 100. 0. 0. 0. 0. 0. 0. 0. 138. 236. 241. 243. 242. 241. 242.
      205. 87. 39. 44. 41. 108. 229. 238. 240. 239. 246. 245. 239. 110.
      0. 0. 0. 0. 0. 0. 0. 142. 234. 244. 247. 244. 244. 248. 223. 144.
      63. 43. 67. 184. 234. 240. 246. 247. 245. 248. 239. 117. 0. 0. 0.
      0. 0. 0. 0. 147. 236. 242. 247. 251. 250. 246. 240. 199. 108. 54.
      122. 224. 242. 243. 250. 251. 245. 253. 242. 114. 0. 0. 0. 0. 0.
      0. 0. 152. 234. 241. 245. 251. 248. 243. 248. 230. 151. 91. 168.
      237. 245. 244. 249. 250. 247. 249. 250. 110. 0. 0. 0. 0. 0. 0. 0.
      142. 226. 245. 247. 250. 254. 251. 249. 243. 207. 172. 211. 242.
      246. 245. 250. 250. 249. 248. 240. 96. 0. 0. 0. 0. 0. 0. 0. 118.
      210. 244. 245. 246. 251. 251. 248. 246. 242. 234. 239. 247. 248.
      248. 251. 249. 251. 248. 201. 71. 0. 0. 0. 0. 0. 0. 0. 86. 177.
      233. 244. 245. 249. 251. 250. 249. 249. 247. 246. 247. 249. 250.
      250. 246. 247. 230. 136. 43. 0. 0. 0. 0. 0. 0. 0. 56. 136. 214.
      241. 245. 247. 249. 251. 251. 251. 250. 249. 248. 249. 249. 249.
      246. 241. 195. 81. 29. 0. 0. 0. 0. 0. 0. 0. 36. 100. 195. 235.
      241. 242. 247. 250. 247. 248. 251. 249. 250. 247. 242. 245. 246.
      225. 151. 47. 30. 0. 0. 0. 0. 0. 0. 0. 29. 59. 146. 211. 228. 227.
      234. 241. 241. 242. 245. 244. 244. 239. 231. 236. 231. 187. 97.
      34. 33. 0. 0. 0. 0. 0. 0. 0. 24. 47. 92. 160. 207. 219. 229. 235.
      236. 239. 239. 237. 238. 232. 219. 214. 190. 125. 63. 41. 42. 0.
      0. 0. 0. 0. 0. 0. 20. 34. 61. 109. 146. 166. 196. 220. 226. 229.
      226. 227. 231. 215. 178. 146. 121. 76. 44. 44. 44. 0. 0. 0. 0. 0.
      0. 0. 19. 30. 58. 76. 85. 100. 143. 183. 195. 193. 193. 194. 196.
      166. 110. 75. 64. 53. 47. 47. 46. 0. 0. 0. 0. 0. 0. 0. 14. 29. 45.
      58. 61. 70. 99. 130. 142. 140. 143. 142. 137. 109. 67. 51. 55. 56.
      53. 49. 47. 0. 0. 0. 0. 0. 0. 0. 0. 0. 0. 0. 0. 0. 0. 0. 0. 0. 0.
      0. 0. 0. 0. 0. 0. 0. 0. 0. 0. 0. 0. 0. 0. 0. 0. 0. 0. 0. 0. 0. 0.
      0. 0. 0. 0. 0. 0. 0. 0. 0. 0. 0. 0. 0. 0. 0. 0. 0. 0. 0. 0. 0. 0.
      0. 0. 0. 0. 0. 0. 0. 0. 0. 0. 0. 0. 0. 0. 0. 0. 0. 0. 0. 0. 0. 0.
      0. 0. 0. 0. 0. 0. 0. 0. 0. 0. 0. 0. 0. 0. 0. 0. 0. 0. 0. 0. 0. 0.
      0. 0. 0. 0. 0. 0. 0. 0. 0. 0. 0. 0. 0. 0. 0. 0. 0. 0. 0. 0. 0. 0.
      0. 0. 0. 0. 0. 0. 0. 0. 0. 0. 0. 0. 0. 0. 0. 0. 0. 0. 0. 0. 0. 0.
      0. 0. 0. 0. 0. 0. 0. 0. 0. 0. 0. 0. 0. 0. 0. 0. 0. 0. 0. 0. 0. 0.
      0. 0. 0. 0. 0. 0. 0. 0. 0. 0. 0. 0. 0. 0. 0. 0. 0. 0. 0. 0. 0. 0.
      0. 0. 0. 0. 0. 0. 0. 0. 0.</_>
    <_>
      41. 24. 17. 40. 106. 174. 186. 115. 38. 41. 55. 58. 54. 31. 45.
      123. 206. 202. 105. 15. 24. 40. 0. 0. 0. 0. 0. 0. 35. 16. 31. 96.
      180. 233. 239. 152. 49. 41. 57. 66. 68. 52. 68. 171. 242. 237.
      177. 72. 22. 26. 0. 0. 0. 0. 0. 0. 23. 27. 77. 173. 222. 234. 236.
      158. 62. 42. 58. 72. 61. 44. 94. 194. 233. 231. 215. 143. 53. 28.
      0. 0. 0. 0. 0. 0. 21. 77. 154. 220. 238. 229. 233. 180. 94. 48.
      51. 56. 48. 64. 136. 222. 230. 225. 229. 203. 142. 65. 0. 0. 0. 0.
      0. 0. 32. 141. 221. 236. 232. 225. 227. 217. 158. 76. 46. 51. 50.
      95. 180. 227. 228. 228. 237. 239. 219. 111. 0. 0. 0. 0. 0. 0. 47.
      179. 236. 240. 239. 233. 230. 230. 171. 78. 51. 54. 51. 113. 202.
      232. 232. 237. 242. 247. 229. 139. 0. 0. 0. 0. 0. 0. 60. 209. 247.
      247. 249. 244. 237. 242. 181. 73. 42. 44. 45. 117. 209. 236. 239.
      243. 245. 249. 231. 149. 0. 0. 0. 0. 0. 0. 65. 215. 247. 250. 250.
      249. 245. 244. 195. 95. 45. 38. 56. 137. 218. 238. 242. 247. 248.
      251. 234. 143. 0. 0. 0. 0. 0. 0. 69. 215. 246. 251. 251. 254. 252.
      247. 229. 165. 76. 45. 95. 180. 233. 241. 244. 249. 250. 252. 239.
      153. 0. 0. 0. 0. 0. 0. 71. 218. 248. 250. 253. 254. 252. 243. 242.
      223. 114. 70. 148. 220. 243. 244. 247. 251. 252. 254. 240. 151. 0.
      0. 0. 0. 0. 0. 69. 201. 248. 246. 253. 252. 254. 246. 248. 247.
      163. 128. 195. 239. 246. 247. 249. 251. 253. 254. 229. 136. 0. 0.
      0. 0. 0. 0. 59. 176. 248. 246. 253. 252. 254. 252. 246. 250. 218.
      205. 234. 247. 249. 251. 252. 251. 252. 251. 216. 115. 0. 0. 0. 0.
      0. 0. 75. 101. 240. 241. 248. 249. 250. 254. 250. 252. 247. 246.
      249. 249. 250. 251. 253. 249. 249. 245. 185. 76. 0. 0. 0. 0. 0. 0.
      57. 69. 192. 242. 245. 248. 252. 254. 252. 248. 249. 247. 248.
      250. 251. 252. 253. 252. 245. 216. 122. 37. 0. 0. 0. 0. 0. 0. 55.
      39. 136. 238. 246. 249. 252. 254. 252. 248. 251. 249. 250. 252.
      251. 252. 250. 252. 251. 180. 77. 26. 0. 0. 0. 0. 0. 0. 71. 32.
      91. 202. 246. 248. 246. 252. 254. 254. 255. 253. 254. 253. 251.
      252. 245. 248. 236. 137. 46. 25. 0. 0. 0. 0. 0. 0. 81. 29. 62.
      147. 221. 239. 239. 245. 249. 248. 252. 252. 253. 245. 251. 252.
      246. 232. 180. 88. 32. 31. 0. 0. 0. 0. 0. 0. 88. 26. 42. 94. 166.
      198. 211. 228. 241. 240. 243. 246. 247. 241. 243. 228. 213. 187.
      105. 53. 37. 41. 0. 0. 0. 0. 0. 0. 93. 23. 33. 65. 106. 135. 150.
      186. 227. 234. 234. 236. 240. 237. 226. 150. 125. 121. 63. 46. 43.
      43. 0. 0. 0. 0. 0. 0. 97. 23. 32. 56. 72. 87. 88. 127. 182. 197.
      195. 191. 191. 193. 157. 81. 62. 72. 56. 53. 45. 39. 0. 0. 0. 0.
      0. 0. 94. 21. 33. 54. 62. 67. 64. 85. 118. 128. 127. 127. 120.
      127. 99. 73. 53. 56. 66. 49. 48. 39. 0. 0. 0. 0. 0. 0. 0. 0. 0. 0.
      0. 0. 0. 0. 0. 0. 0. 0. 0. 0. 0. 0. 0. 0. 0. 0. 0. 0. 0. 0. 0. 0.
      0. 0. 0. 0. 0. 0. 0. 0. 0. 0. 0. 0. 0. 0. 0. 0. 0. 0. 0. 0. 0. 0.
      0. 0. 0. 0. 0. 0. 0. 0. 0. 0. 0. 0. 0. 0. 0. 0. 0. 0. 0. 0. 0. 0.
      0. 0. 0. 0. 0. 0. 0. 0. 0. 0. 0. 0. 0. 0. 0. 0. 0. 0. 0. 0. 0. 0.
      0. 0. 0. 0. 0. 0. 0. 0. 0. 0. 0. 0. 0. 0. 0. 0. 0. 0. 0. 0. 0. 0.
      0. 0. 0. 0. 0. 0. 0. 0. 0. 0. 0. 0. 0. 0. 0. 0. 0. 0. 0. 0. 0. 0.
      0. 0. 0. 0. 0. 0. 0. 0. 0. 0. 0. 0. 0. 0. 0. 0. 0. 0. 0. 0. 0. 0.
      0. 0. 0. 0. 0. 0. 0. 0. 0. 0. 0. 0. 0. 0. 0. 0. 0. 0. 0. 0. 0. 0.
      0. 0. 0. 0. 0. 0. 0. 0. 0. 0. 0. 0. 0. 0. 0. 0.</_>
    <_>
      23. 23. 45. 122. 178. 156. 74. 34. 48. 57. 57. 57. 50. 62. 119.
      168. 141. 69. 33. 39. 45. 0. 0. 0. 0. 0. 0. 0. 23. 60. 98. 178.
      229. 211. 109. 39. 49. 62. 59. 57. 46. 70. 165. 227. 208. 134. 61.
      29. 28. 0. 0. 0. 0. 0. 0. 0. 46. 92. 163. 209. 227. 211. 129. 48.
      52. 66. 61. 54. 48. 87. 183. 231. 231. 200. 135. 65. 28. 0. 0. 0.
      0. 0. 0. 0. 110. 181. 219. 222. 211. 200. 164. 82. 51. 57. 61. 48.
      63. 125. 194. 219. 222. 225. 204. 146. 61. 0. 0. 0. 0. 0. 0. 0.
      171. 234. 244. 234. 211. 197. 192. 125. 54. 45. 56. 44. 84. 168.
      207. 215. 222. 233. 238. 217. 113. 0. 0. 0. 0. 0. 0. 0. 194. 246.
      244. 242. 231. 205. 191. 133. 57. 40. 53. 46. 95. 182. 206. 227.
      233. 238. 242. 235. 127. 0. 0. 0. 0. 0. 0. 0. 194. 251. 249. 248.
      247. 228. 197. 119. 55. 41. 53. 47. 89. 173. 217. 234. 237. 238.
      242. 239. 129. 0. 0. 0. 0. 0. 0. 0. 192. 252. 251. 245. 252. 246.
      220. 141. 61. 38. 47. 51. 100. 189. 234. 241. 245. 247. 251. 246.
      129. 0. 0. 0. 0. 0. 0. 0. 191. 253. 251. 247. 253. 251. 243. 200.
      107. 43. 42. 85. 160. 227. 239. 243. 246. 250. 250. 244. 127. 0.
      0. 0. 0. 0. 0. 0. 193. 251. 251. 252. 253. 251. 250. 239. 184. 79.
      55. 150. 226. 240. 239. 245. 251. 251. 253. 252. 128. 0. 0. 0. 0.
      0. 0. 0. 161. 245. 247. 250. 251. 251. 252. 246. 240. 152. 114.
      206. 241. 239. 244. 251. 251. 244. 253. 245. 114. 0. 0. 0. 0. 0.
      0. 0. 119. 219. 243. 248. 250. 253. 252. 252. 250. 229. 216. 237.
      248. 249. 250. 251. 251. 248. 251. 188. 75. 0. 0. 0. 0. 0. 0. 0.
      83. 181. 244. 247. 249. 252. 251. 253. 253. 248. 243. 249. 249.
      250. 250. 251. 251. 251. 240. 121. 37. 0. 0. 0. 0. 0. 0. 0. 61.
      149. 239. 246. 248. 252. 253. 253. 254. 255. 254. 253. 253. 250.
      250. 241. 250. 248. 217. 67. 24. 0. 0. 0. 0. 0. 0. 0. 43. 110.
      201. 243. 248. 250. 251. 253. 253. 254. 254. 253. 253. 254. 254.
      251. 253. 241. 164. 43. 30. 0. 0. 0. 0. 0. 0. 0. 29. 60. 136. 214.
      236. 238. 244. 249. 249. 250. 250. 252. 253. 254. 252. 249. 239.
      190. 84. 34. 31. 0. 0. 0. 0. 0. 0. 0. 24. 37. 82. 158. 191. 207.
      233. 246. 248. 251. 252. 253. 254. 249. 225. 188. 171. 116. 35.
      44. 37. 0. 0. 0. 0. 0. 0. 0. 23. 42. 62. 100. 121. 135. 187. 223.
      226. 234. 234. 235. 235. 216. 165. 100. 96. 71. 43. 57. 46. 0. 0.
      0. 0. 0. 0. 0. 22. 48. 63. 77. 78. 75. 128. 172. 174. 178. 173.
      173. 172. 144. 94. 67. 69. 64. 62. 54. 42. 0. 0. 0. 0. 0. 0. 0. 0.
      0. 0. 0. 0. 0. 0. 0. 0. 0. 0. 0. 0. 0. 0. 0. 0. 0. 0. 0. 0. 0. 0.
      0. 0. 0. 0. 0. 0. 0. 0. 0. 0. 0. 0. 0. 0. 0. 0. 0. 0. 0. 0. 0. 0.
      0. 0. 0. 0. 0. 0. 0. 0. 0. 0. 0. 0. 0. 0. 0. 0. 0. 0. 0. 0. 0. 0.
      0. 0. 0. 0. 0. 0. 0. 0. 0. 0. 0. 0. 0. 0. 0. 0. 0. 0. 0. 0. 0. 0.
      0. 0. 0. 0. 0. 0. 0. 0. 0. 0. 0. 0. 0. 0. 0. 0. 0. 0. 0. 0. 0. 0.
      0. 0. 0. 0. 0. 0. 0. 0. 0. 0. 0. 0. 0. 0. 0. 0. 0. 0. 0. 0. 0. 0.
      0. 0. 0. 0. 0. 0. 0. 0. 0. 0. 0. 0. 0. 0. 0. 0. 0. 0. 0. 0. 0. 0.
      0. 0. 0. 0. 0. 0. 0. 0. 0. 0. 0. 0. 0. 0. 0. 0. 0. 0. 0. 0. 0. 0.
      0. 0. 0. 0. 0. 0. 0. 0. 0. 0. 0. 0. 0. 0. 0. 0. 0. 0. 0. 0. 0. 0.
      0. 0. 0. 0. 0. 0. 0. 0. 0. 0. 0. 0. 0. 0. 0. 0. 0. 0. 0. 0. 0. 0.
      0. 0. 0. 0. 0. 0. 0. 0. 0. 0. 0. 0. 0. 0. 0. 0. 0. 0. 0. 0. 0. 0.
      0. 0. 0. 0. 0. 0. 0. 0. 0.</_>
    <_>
      64. 13. 37. 122. 172. 135. 29. 31. 48. 50. 49. 47. 26. 56. 142.
      159. 106. 52. 32. 28. 0. 0. 0. 0. 0. 0. 0. 0. 70. 73. 123. 196.
      223. 178. 36. 26. 46. 51. 56. 42. 25. 100. 207. 225. 165. 96. 68.
      49. 0. 0. 0. 0. 0. 0. 0. 0. 134. 177. 205. 224. 226. 193. 69. 33.
      37. 47. 50. 33. 42. 126. 208. 228. 224. 211. 184. 94. 0. 0. 0. 0.
      0. 0. 0. 0. 199. 225. 229. 227. 222. 205. 133. 61. 33. 46. 39. 31.
      81. 175. 219. 227. 231. 235. 231. 132. 0. 0. 0. 0. 0. 0. 0. 0.
      225. 234. 232. 230. 225. 223. 192. 97. 35. 49. 35. 42. 133. 220.
      235. 231. 235. 238. 243. 160. 0. 0. 0. 0. 0. 0. 0. 0. 234. 241.
      241. 240. 235. 231. 218. 121. 31. 42. 33. 50. 168. 227. 233. 232.
      242. 243. 246. 179. 0. 0. 0. 0. 0. 0. 0. 0. 240. 244. 244. 244.
      242. 238. 228. 143. 31. 27. 35. 61. 188. 237. 245. 243. 251. 243.
      249. 195. 0. 0. 0. 0. 0. 0. 0. 0. 243. 244. 244. 246. 245. 244.
      236. 173. 61. 26. 44. 87. 212. 238. 246. 242. 253. 251. 254. 201.
      0. 0. 0. 0. 0. 0. 0. 0. 242. 244. 246. 249. 250. 251. 246. 222.
      145. 46. 67. 183. 242. 246. 250. 247. 254. 251. 253. 201. 0. 0. 0.
      0. 0. 0. 0. 0. 238. 244. 246. 250. 252. 252. 252. 243. 192. 118.
      134. 218. 245. 246. 251. 250. 253. 249. 252. 198. 0. 0. 0. 0. 0.
      0. 0. 0. 234. 244. 246. 249. 252. 249. 251. 252. 232. 198. 202.
      238. 251. 248. 252. 252. 252. 251. 252. 191. 0. 0. 0. 0. 0. 0. 0.
      0. 221. 240. 245. 248. 251. 248. 250. 253. 248. 237. 232. 243.
      251. 248. 253. 252. 250. 253. 240. 162. 0. 0. 0. 0. 0. 0. 0. 0.
      189. 225. 243. 247. 251. 253. 254. 254. 254. 252. 248. 250. 252.
      249. 252. 250. 248. 247. 208. 107. 0. 0. 0. 0. 0. 0. 0. 0. 141.
      198. 239. 247. 250. 253. 253. 252. 253. 253. 251. 252. 254. 252.
      253. 249. 247. 238. 164. 58. 0. 0. 0. 0. 0. 0. 0. 0. 91. 165. 226.
      240. 244. 251. 252. 252. 254. 254. 252. 253. 254. 253. 252. 250.
      242. 218. 119. 32. 0. 0. 0. 0. 0. 0. 0. 0. 68. 134. 213. 237. 243.
      249. 250. 252. 254. 252. 252. 252. 250. 248. 247. 245. 227. 180.
      76. 26. 0. 0. 0. 0. 0. 0. 0. 0. 79. 78. 170. 216. 231. 237. 239.
      244. 247. 245. 246. 244. 241. 240. 236. 230. 197. 128. 44. 26. 0.
      0. 0. 0. 0. 0. 0. 0. 66. 50. 121. 194. 208. 216. 229. 240. 241.
      240. 242. 240. 238. 226. 201. 182. 137. 69. 36. 37. 0. 0. 0. 0. 0.
      0. 0. 0. 64. 32. 73. 114. 121. 152. 200. 228. 231. 229. 230. 230.
      219. 178. 133. 105. 74. 44. 44. 55. 0. 0. 0. 0. 0. 0. 0. 0. 63.
      27. 51. 66. 61. 97. 157. 186. 188. 185. 183. 182. 160. 110. 68.
      59. 55. 46. 48. 53. 0. 0. 0. 0. 0. 0. 0. 0. 58. 21. 43. 60. 48.
      69. 109. 121. 121. 123. 118. 112. 98. 68. 49. 58. 63. 55. 46. 43.
      0. 0. 0. 0. 0. 0. 0. 0. 0. 0. 0. 0. 0. 0. 0. 0. 0. 0. 0. 0. 0. 0.
      0. 0. 0. 0. 0. 0. 0. 0. 0. 0. 0. 0. 0. 0. 0. 0. 0. 0. 0. 0. 0. 0.
      0. 0. 0. 0. 0. 0. 0. 0. 0. 0. 0. 0. 0. 0. 0. 0. 0. 0. 0. 0. 0. 0.
      0. 0. 0. 0. 0. 0. 0. 0. 0. 0. 0. 0. 0. 0. 0. 0. 0. 0. 0. 0. 0. 0.
      0. 0. 0. 0. 0. 0. 0. 0. 0. 0. 0. 0. 0. 0. 0. 0. 0. 0. 0. 0. 0. 0.
      0. 0. 0. 0. 0. 0. 0. 0. 0. 0. 0. 0. 0. 0. 0. 0. 0. 0. 0. 0. 0. 0.
      0. 0. 0. 0. 0. 0. 0. 0. 0. 0. 0. 0. 0. 0. 0. 0. 0. 0. 0. 0. 0. 0.
      0. 0. 0. 0. 0. 0. 0. 0. 0. 0. 0. 0. 0. 0. 0. 0. 0. 0. 0. 0. 0. 0.
      0. 0. 0. 0. 0. 0. 0. 0. 0. 0. 0. 0. 0. 0. 0. 0. 0. 0. 0. 0. 0. 0.
      0. 0. 0. 0. 0. 0.</_></support_vectors>
  <decision_functions>
    <_>
      <sv_count>13</sv_count>
      <rho>-1.2055314612352603e+00</rho>
      <alpha>
        1.3452321516044463e-29 4.6411875606524498e-29
        2.7973966109712982e-30 5.9601628105123334e-30
        2.2328633833284128e-32 4.1018284340924438e-29
        1.5136268496095506e-29 1.1203173321982093e-29
        -3.8068258045699432e-29 -4.2951566130677666e-29
        -6.7884380755961349e-30 -4.5301895027963603e-29
        -2.8916540569510098e-30</alpha>
      <index>
        0 1 2 3 4 5 6 7 8 9 10 11 12</index></_></decision_functions></pacman22>
</opencv_storage>
