<?xml version="1.0"?>
<opencv_storage>
<pacman14 type_id="opencv-ml-svm">
  <svm_type>C_SVC</svm_type>
  <kernel><type>POLY</type>
    <degree>4.</degree>
    <gamma>1.</gamma>
    <coef0>0.</coef0></kernel>
  <C>1.</C>
  <term_criteria><epsilon>2.2204460492503131e-16</epsilon>
    <iterations>5000</iterations></term_criteria>
  <var_all>784</var_all>
  <var_count>784</var_count>
  <class_count>2</class_count>
  <class_labels type_id="opencv-matrix">
    <rows>1</rows>
    <cols>2</cols>
    <dt>i</dt>
    <data>
      -1 1</data></class_labels>
  <sv_total>18</sv_total>
  <support_vectors>
    <_>
      141. 145. 116. 97. 110. 114. 104. 102. 95. 102. 114. 123. 126.
      130. 135. 133. 133. 136. 137. 139. 138. 140. 144. 138. 125. 117.
      132. 144. 117. 187. 212. 224. 238. 240. 234. 242. 236. 236. 243.
      244. 238. 234. 233. 232. 227. 223. 221. 220. 221. 224. 229. 230.
      222. 211. 191. 143. 100. 203. 239. 243. 244. 249. 249. 245. 234.
      225. 233. 242. 243. 249. 251. 243. 235. 224. 219. 229. 240. 249.
      251. 249. 246. 233. 199. 128. 114. 189. 216. 217. 223. 231. 237.
      231. 203. 188. 207. 234. 241. 249. 249. 248. 234. 208. 192. 207.
      230. 238. 228. 218. 215. 205. 183. 132. 146. 154. 129. 113. 108.
      137. 222. 224. 191. 177. 203. 232. 238. 247. 248. 247. 234. 204.
      187. 200. 223. 215. 157. 116. 111. 116. 139. 149. 127. 98. 49. 25.
      53. 141. 222. 229. 216. 206. 219. 236. 238. 248. 248. 245. 240.
      221. 210. 215. 228. 214. 126. 41. 13. 31. 87. 130. 69. 55. 30. 22.
      81. 206. 247. 246. 242. 239. 243. 248. 248. 251. 250. 250. 249.
      242. 239. 237. 239. 240. 194. 77. 22. 36. 57. 60. 64. 57. 40. 30.
      98. 225. 245. 248. 249. 249. 250. 251. 251. 252. 252. 253. 253.
      251. 251. 249. 249. 249. 227. 93. 32. 56. 62. 55. 63. 57. 39. 29.
      110. 236. 249. 251. 253. 252. 251. 252. 253. 251. 251. 253. 253.
      251. 252. 251. 250. 250. 228. 90. 23. 45. 60. 62. 70. 59. 34. 40.
      129. 228. 249. 254. 254. 252. 251. 253. 254. 250. 249. 251. 253.
      252. 254. 254. 254. 253. 238. 124. 35. 31. 55. 70. 55. 34. 24. 82.
      188. 245. 252. 254. 253. 252. 252. 252. 253. 251. 251. 251. 254.
      253. 253. 253. 251. 253. 250. 181. 78. 23. 34. 54. 54. 33. 47.
      147. 238. 249. 249. 253. 252. 252. 253. 253. 252. 252. 253. 252.
      254. 250. 252. 251. 247. 251. 252. 246. 167. 52. 32. 56. 58. 33.
      50. 167. 252. 251. 250. 253. 252. 252. 253. 253. 252. 253. 252.
      253. 253. 247. 252. 252. 252. 252. 252. 253. 200. 52. 16. 55. 50.
      27. 55. 176. 254. 252. 251. 253. 252. 251. 252. 252. 253. 253.
      251. 252. 251. 250. 252. 255. 253. 250. 252. 252. 201. 55. 19. 61.
      50. 26. 56. 185. 253. 253. 253. 254. 253. 252. 252. 252. 253. 254.
      253. 251. 251. 252. 253. 255. 254. 253. 253. 253. 196. 48. 20. 60.
      55. 26. 52. 187. 251. 253. 254. 254. 254. 254. 253. 253. 254. 255.
      254. 252. 254. 254. 254. 254. 254. 255. 254. 253. 192. 41. 22. 56.
      57. 29. 47. 187. 249. 253. 253. 253. 254. 254. 254. 254. 254. 253.
      254. 254. 254. 254. 253. 253. 254. 255. 251. 252. 197. 31. 22. 51.
      50. 29. 43. 187. 248. 252. 253. 253. 254. 254. 254. 254. 254. 254.
      254. 254. 254. 252. 251. 253. 255. 254. 251. 247. 206. 27. 18. 45.
      42. 29. 42. 195. 248. 252. 254. 254. 253. 253. 253. 253. 253. 253.
      253. 254. 254. 254. 254. 255. 255. 254. 253. 246. 205. 21. 14. 38.
      38. 30. 41. 196. 246. 253. 253. 252. 251. 252. 252. 251. 247. 241.
      243. 250. 251. 252. 252. 250. 244. 247. 253. 244. 194. 23. 15. 28.
      42. 29. 42. 196. 244. 251. 228. 219. 239. 250. 251. 247. 229. 205.
      221. 238. 243. 251. 249. 237. 221. 226. 243. 242. 173. 26. 22. 18.
      38. 32. 39. 199. 245. 227. 149. 123. 196. 239. 246. 238. 168. 72.
      71. 173. 244. 243. 241. 193. 123. 138. 209. 239. 182. 27. 29. 14.
      36. 39. 28. 189. 236. 156. 71. 60. 127. 203. 245. 246. 153. 51.
      56. 168. 247. 243. 205. 120. 56. 64. 149. 228. 181. 27. 26. 15.
      69. 40. 21. 149. 189. 91. 58. 53. 72. 126. 197. 198. 122. 65. 60.
      128. 182. 178. 127. 66. 54. 58. 104. 168. 138. 27. 19. 37. 0. 0.
      0. 0. 0. 0. 0. 0. 0. 0. 0. 0. 0. 0. 0. 0. 0. 0. 0. 0. 0. 0. 0. 0.
      0. 0. 0. 0. 0. 0. 0. 0. 0. 0. 0. 0. 0. 0. 0. 0. 0. 0. 0. 0. 0. 0.
      0. 0. 0. 0. 0. 0. 0. 0. 0. 0. 0. 0. 0. 0. 0. 0. 0. 0. 0. 0. 0. 0.
      0. 0. 0. 0. 0. 0. 0. 0. 0. 0. 0. 0. 0. 0. 0. 0. 0. 0. 0. 0. 0. 0.
      0. 0. 0. 0. 0. 0. 0. 0. 0. 0. 0. 0. 0. 0. 0. 0. 0. 0. 0. 0. 0. 0.</_>
    <_>
      47. 43. 46. 51. 46. 45. 57. 49. 32. 32. 75. 143. 174. 172. 177.
      166. 113. 42. 28. 40. 47. 51. 49. 49. 0. 0. 0. 0. 47. 43. 48. 52.
      44. 45. 52. 46. 41. 51. 113. 200. 226. 228. 231. 221. 175. 80. 44.
      48. 55. 48. 44. 46. 0. 0. 0. 0. 49. 44. 51. 54. 43. 32. 47. 63.
      88. 104. 157. 224. 235. 243. 247. 240. 213. 133. 94. 90. 75. 44.
      36. 41. 0. 0. 0. 0. 55. 40. 41. 37. 29. 51. 118. 140. 128. 144.
      191. 229. 232. 246. 251. 242. 223. 168. 152. 161. 150. 80. 41. 37.
      0. 0. 0. 0. 59. 52. 47. 29. 40. 130. 194. 203. 175. 187. 216. 229.
      233. 250. 253. 243. 232. 204. 186. 194. 213. 172. 84. 37. 0. 0. 0.
      0. 55. 54. 44. 25. 83. 202. 229. 228. 218. 225. 231. 234. 239.
      253. 253. 245. 242. 228. 217. 222. 225. 226. 171. 50. 0. 0. 0. 0.
      53. 57. 38. 28. 125. 233. 238. 234. 234. 239. 238. 238. 244. 253.
      252. 248. 248. 241. 240. 238. 238. 242. 229. 81. 0. 0. 0. 0. 85.
      106. 69. 38. 144. 245. 245. 244. 244. 247. 246. 245. 249. 253.
      252. 250. 250. 246. 246. 243. 242. 243. 231. 107. 0. 0. 0. 0. 156.
      201. 147. 87. 153. 247. 249. 250. 250. 251. 252. 253. 252. 253.
      254. 254. 254. 254. 255. 254. 253. 252. 241. 122. 0. 0. 0. 0. 190.
      242. 214. 161. 188. 248. 250. 252. 251. 251. 253. 254. 252. 251.
      253. 254. 253. 251. 254. 254. 254. 248. 244. 152. 0. 0. 0. 0. 171.
      231. 238. 221. 228. 250. 251. 254. 253. 253. 255. 255. 253. 250.
      252. 255. 252. 250. 253. 254. 253. 249. 249. 239. 0. 0. 0. 0. 81.
      117. 166. 228. 248. 251. 251. 253. 254. 253. 254. 254. 252. 252.
      253. 255. 255. 253. 254. 254. 252. 249. 235. 246. 0. 0. 0. 0. 40.
      44. 107. 215. 250. 251. 252. 253. 253. 254. 254. 254. 254. 254.
      254. 254. 254. 255. 254. 253. 253. 252. 251. 247. 0. 0. 0. 0. 37.
      27. 102. 212. 250. 251. 252. 253. 253. 254. 254. 254. 254. 254.
      254. 254. 254. 255. 255. 254. 253. 252. 250. 247. 0. 0. 0. 0. 35.
      23. 108. 220. 250. 251. 252. 253. 253. 254. 254. 254. 254. 254.
      254. 255. 255. 255. 255. 255. 254. 252. 248. 249. 0. 0. 0. 0. 34.
      24. 116. 219. 249. 251. 252. 253. 253. 254. 254. 254. 254. 254.
      254. 254. 254. 254. 254. 254. 254. 251. 248. 251. 0. 0. 0. 0. 34.
      21. 113. 219. 249. 251. 252. 253. 253. 254. 254. 254. 254. 253.
      254. 254. 254. 254. 254. 254. 253. 252. 250. 251. 0. 0. 0. 0. 36.
      20. 112. 219. 250. 251. 252. 253. 253. 254. 254. 254. 253. 253.
      253. 254. 254. 255. 255. 254. 254. 253. 252. 251. 0. 0. 0. 0. 35.
      22. 116. 215. 249. 251. 252. 253. 253. 254. 254. 254. 252. 249.
      250. 251. 251. 252. 252. 253. 251. 250. 252. 251. 0. 0. 0. 0. 34.
      26. 106. 210. 246. 249. 250. 251. 252. 253. 253. 253. 247. 243.
      244. 247. 249. 251. 252. 252. 248. 247. 252. 251. 0. 0. 0. 0. 33.
      24. 91. 208. 246. 240. 228. 227. 241. 250. 247. 247. 246. 233.
      233. 244. 246. 248. 249. 235. 212. 217. 237. 241. 0. 0. 0. 0. 31.
      14. 80. 204. 244. 214. 159. 152. 211. 244. 243. 244. 242. 235.
      239. 245. 246. 247. 236. 197. 149. 156. 209. 237. 0. 0. 0. 0. 38.
      15. 53. 187. 223. 158. 83. 83. 153. 214. 234. 237. 241. 244. 246.
      246. 246. 245. 210. 147. 85. 89. 162. 222. 0. 0. 0. 0. 32. 22. 42.
      147. 176. 96. 52. 55. 84. 153. 217. 223. 235. 243. 240. 224. 218.
      202. 148. 79. 48. 56. 112. 178. 0. 0. 0. 0. 0. 0. 0. 0. 0. 0. 0.
      0. 0. 0. 0. 0. 0. 0. 0. 0. 0. 0. 0. 0. 0. 0. 0. 0. 0. 0. 0. 0. 0.
      0. 0. 0. 0. 0. 0. 0. 0. 0. 0. 0. 0. 0. 0. 0. 0. 0. 0. 0. 0. 0. 0.
      0. 0. 0. 0. 0. 0. 0. 0. 0. 0. 0. 0. 0. 0. 0. 0. 0. 0. 0. 0. 0. 0.
      0. 0. 0. 0. 0. 0. 0. 0. 0. 0. 0. 0. 0. 0. 0. 0. 0. 0. 0. 0. 0. 0.
      0. 0. 0. 0. 0. 0. 0. 0. 0. 0. 0. 0. 0. 0. 0. 0. 0.</_>
    <_>
      46. 45. 42. 42. 39. 37. 47. 73. 102. 121. 124. 120. 114. 107. 88.
      57. 38. 38. 40. 46. 53. 56. 56. 57. 0. 0. 0. 0. 53. 52. 47. 50.
      55. 63. 93. 146. 189. 212. 228. 234. 227. 211. 175. 126. 73. 41.
      41. 45. 53. 56. 55. 55. 0. 0. 0. 0. 61. 56. 47. 58. 93. 134. 175.
      214. 239. 246. 248. 250. 250. 249. 237. 208. 166. 117. 76. 44. 42.
      53. 59. 59. 0. 0. 0. 0. 50. 41. 50. 102. 173. 219. 237. 241. 244.
      247. 249. 251. 251. 252. 251. 243. 229. 205. 146. 71. 33. 35. 53.
      58. 0. 0. 0. 0. 45. 54. 100. 173. 226. 241. 245. 246. 249. 251.
      252. 252. 250. 251. 252. 250. 248. 243. 213. 140. 65. 33. 36. 48.
      0. 0. 0. 0. 49. 87. 158. 217. 238. 238. 242. 247. 249. 251. 252.
      253. 251. 250. 250. 250. 243. 244. 242. 208. 139. 68. 30. 33. 0.
      0. 0. 0. 81. 146. 205. 234. 241. 246. 251. 252. 250. 252. 253.
      253. 253. 253. 252. 252. 248. 248. 245. 237. 197. 124. 47. 24. 0.
      0. 0. 0. 99. 183. 232. 239. 242. 247. 251. 247. 250. 253. 252.
      251. 253. 254. 253. 253. 252. 250. 246. 245. 221. 161. 68. 20. 0.
      0. 0. 0. 78. 170. 232. 240. 246. 251. 251. 252. 253. 254. 252.
      252. 253. 253. 253. 253. 247. 250. 249. 248. 228. 178. 74. 22. 0.
      0. 0. 0. 75. 170. 226. 236. 249. 252. 244. 251. 251. 252. 253.
      253. 254. 254. 254. 253. 251. 252. 248. 248. 231. 188. 76. 24. 0.
      0. 0. 0. 101. 179. 226. 237. 244. 244. 251. 253. 253. 253. 253.
      253. 253. 253. 253. 252. 250. 247. 243. 245. 238. 197. 114. 37. 0.
      0. 0. 0. 160. 224. 239. 239. 242. 241. 244. 242. 246. 250. 252.
      253. 251. 251. 248. 244. 240. 240. 240. 242. 242. 218. 172. 73. 0.
      0. 0. 0. 194. 237. 245. 239. 238. 232. 228. 218. 230. 233. 244.
      246. 246. 246. 238. 230. 218. 228. 233. 234. 239. 235. 212. 109.
      0. 0. 0. 0. 187. 235. 243. 238. 236. 224. 212. 194. 220. 228. 240.
      243. 245. 241. 230. 219. 197. 216. 227. 228. 236. 238. 224. 121.
      0. 0. 0. 0. 173. 231. 245. 241. 236. 223. 207. 188. 216. 221. 239.
      240. 244. 241. 229. 218. 192. 211. 225. 227. 236. 236. 221. 121.
      0. 0. 0. 0. 156. 222. 244. 241. 237. 229. 215. 209. 218. 221. 239.
      240. 245. 243. 231. 225. 208. 217. 226. 229. 237. 235. 222. 127.
      0. 0. 0. 0. 147. 214. 239. 240. 241. 238. 237. 234. 236. 239. 246.
      246. 248. 247. 241. 237. 233. 233. 234. 235. 240. 236. 225. 134.
      0. 0. 0. 0. 150. 215. 240. 242. 245. 243. 244. 243. 245. 247. 250.
      249. 250. 250. 247. 245. 245. 245. 244. 242. 244. 240. 227. 128.
      0. 0. 0. 0. 138. 211. 239. 241. 245. 246. 250. 250. 250. 250. 251.
      250. 249. 243. 250. 248. 246. 247. 246. 243. 244. 240. 227. 127.
      0. 0. 0. 0. 128. 210. 239. 240. 245. 247. 250. 249. 246. 245. 251.
      250. 249. 245. 250. 244. 246. 246. 244. 242. 241. 236. 220. 136.
      0. 0. 0. 0. 123. 204. 230. 233. 238. 238. 239. 241. 240. 239. 235.
      218. 215. 233. 239. 233. 242. 241. 234. 227. 234. 233. 219. 143.
      0. 0. 0. 0. 121. 200. 225. 222. 212. 201. 212. 232. 236. 231. 206.
      155. 138. 192. 224. 232. 237. 224. 198. 183. 207. 224. 218. 148.
      0. 0. 0. 0. 108. 182. 205. 187. 145. 123. 164. 213. 232. 229. 188.
      116. 90. 164. 218. 233. 222. 175. 127. 106. 145. 187. 195. 139. 0.
      0. 0. 0. 89. 129. 145. 124. 79. 60. 99. 160. 199. 197. 159. 94.
      79. 157. 222. 226. 183. 95. 50. 44. 80. 120. 139. 111. 0. 0. 0. 0.
      66. 72. 79. 75. 51. 39. 55. 81. 110. 112. 87. 54. 65. 156. 234.
      214. 126. 32. 23. 42. 59. 67. 78. 74. 0. 0. 0. 0. 50. 53. 61. 60.
      50. 51. 51. 48. 57. 59. 41. 27. 50. 157. 246. 207. 95. 15. 30. 57.
      58. 52. 54. 53. 0. 0. 0. 0. 36. 42. 50. 54. 52. 56. 55. 49. 51.
      54. 49. 30. 47. 143. 231. 190. 83. 23. 41. 55. 53. 57. 61. 53. 0.
      0. 0. 0. 47. 43. 46. 50. 50. 53. 52. 52. 48. 53. 57. 34. 37. 102.
      161. 138. 57. 24. 43. 54. 53. 57. 53. 51. 0. 0. 0. 0.</_>
    <_>
      51. 48. 47. 53. 55. 62. 61. 65. 73. 73. 89. 140. 173. 178. 178.
      172. 136. 80. 62. 69. 64. 62. 62. 52. 31. 0. 0. 0. 52. 56. 61. 65.
      59. 56. 52. 72. 106. 121. 149. 198. 227. 227. 227. 227. 200. 146.
      113. 94. 65. 47. 47. 45. 32. 0. 0. 0. 53. 53. 57. 65. 53. 45. 52.
      106. 173. 190. 207. 231. 239. 241. 239. 241. 236. 217. 200. 167.
      106. 56. 38. 35. 29. 0. 0. 0. 55. 53. 58. 56. 42. 49. 97. 169.
      222. 233. 236. 243. 246. 247. 242. 242. 242. 241. 243. 229. 169.
      92. 45. 33. 25. 0. 0. 0. 67. 64. 62. 41. 44. 92. 164. 218. 237.
      245. 246. 250. 254. 253. 252. 252. 251. 250. 248. 243. 227. 165.
      83. 32. 22. 0. 0. 0. 77. 78. 61. 33. 62. 160. 218. 239. 243. 248.
      249. 253. 254. 253. 252. 252. 251. 250. 250. 248. 247. 219. 154.
      65. 24. 0. 0. 0. 141. 165. 140. 60. 86. 211. 241. 247. 246. 250.
      251. 254. 254. 253. 253. 253. 253. 253. 253. 250. 251. 250. 208.
      89. 24. 0. 0. 0. 185. 234. 222. 86. 107. 229. 245. 249. 248. 252.
      251. 254. 255. 253. 253. 253. 253. 253. 253. 251. 250. 250. 227.
      103. 29. 0. 0. 0. 192. 250. 247. 89. 124. 235. 248. 253. 252. 253.
      254. 254. 254. 254. 253. 254. 254. 254. 254. 255. 254. 252. 239.
      135. 36. 0. 0. 0. 131. 172. 173. 93. 158. 246. 250. 253. 252. 252.
      254. 254. 254. 253. 254. 254. 254. 254. 254. 255. 254. 253. 249.
      179. 60. 0. 0. 0. 64. 70. 77. 126. 209. 251. 251. 252. 252. 252.
      253. 253. 253. 253. 253. 254. 254. 253. 251. 248. 250. 251. 250.
      217. 109. 0. 0. 0. 46. 30. 45. 163. 242. 249. 249. 250. 252. 251.
      251. 252. 252. 253. 253. 254. 254. 251. 249. 253. 253. 250. 248.
      241. 156. 0. 0. 0. 47. 25. 46. 182. 246. 247. 249. 249. 246. 240.
      242. 246. 248. 252. 251. 251. 250. 244. 241. 241. 245. 247. 247.
      249. 198. 0. 0. 0. 45. 23. 50. 191. 248. 249. 249. 246. 237. 231.
      236. 243. 247. 252. 251. 250. 247. 238. 231. 232. 241. 245. 248.
      252. 212. 0. 0. 0. 43. 23. 60. 195. 248. 248. 249. 240. 226. 219.
      227. 237. 240. 247. 247. 246. 242. 230. 219. 224. 237. 242. 246.
      250. 214. 0. 0. 0. 44. 23. 64. 197. 247. 246. 247. 238. 221. 215.
      225. 237. 240. 247. 247. 246. 241. 228. 218. 224. 235. 242. 246.
      249. 217. 0. 0. 0. 42. 21. 69. 194. 248. 247. 248. 240. 227. 225.
      233. 241. 244. 250. 250. 250. 245. 236. 228. 233. 240. 246. 248.
      250. 221. 0. 0. 0. 40. 20. 70. 194. 249. 250. 250. 245. 240. 234.
      237. 243. 245. 251. 251. 252. 249. 243. 240. 240. 244. 248. 249.
      250. 213. 0. 0. 0. 40. 21. 73. 193. 250. 253. 252. 252. 251. 247.
      248. 248. 250. 253. 253. 253. 252. 249. 247. 245. 247. 250. 249.
      247. 210. 0. 0. 0. 40. 22. 77. 191. 249. 251. 250. 252. 252. 248.
      248. 249. 251. 253. 253. 253. 252. 251. 249. 247. 248. 250. 249.
      246. 207. 0. 0. 0. 37. 24. 72. 189. 243. 242. 245. 245. 245. 245.
      247. 248. 250. 249. 253. 251. 249. 247. 246. 247. 247. 245. 244.
      243. 198. 0. 0. 0. 25. 26. 74. 182. 243. 246. 234. 232. 246. 245.
      244. 249. 252. 252. 250. 248. 249. 246. 244. 241. 227. 225. 236.
      242. 199. 0. 0. 0. 27. 14. 50. 154. 232. 224. 172. 161. 206. 233.
      239. 243. 227. 197. 181. 205. 241. 243. 241. 212. 159. 162. 207.
      243. 197. 0. 0. 0. 52. 26. 42. 151. 227. 191. 96. 72. 140. 211.
      241. 235. 175. 99. 74. 142. 227. 241. 224. 159. 72. 75. 150. 226.
      184. 0. 0. 0. 72. 48. 45. 134. 184. 128. 47. 22. 71. 161. 219.
      217. 127. 37. 23. 102. 200. 225. 182. 90. 25. 30. 92. 177. 159. 0.
      0. 0. 95. 97. 48. 86. 102. 63. 34. 24. 38. 97. 156. 161. 88. 30.
      29. 75. 147. 171. 116. 44. 23. 29. 54. 105. 100. 0. 0. 0. 0. 0. 0.
      0. 0. 0. 0. 0. 0. 0. 0. 0. 0. 0. 0. 0. 0. 0. 0. 0. 0. 0. 0. 0. 0.
      0. 0. 0. 0. 0. 0. 0. 0. 0. 0. 0. 0. 0. 0. 0. 0. 0. 0. 0. 0. 0. 0.
      0. 0. 0. 0. 0. 0. 0. 0. 0.</_>
    <_>
      41. 44. 45. 58. 47. 45. 39. 57. 103. 140. 146. 144. 141. 127. 75.
      40. 34. 42. 48. 55. 55. 55. 53. 0. 0. 0. 0. 0. 46. 43. 35. 38. 48.
      78. 99. 130. 191. 233. 243. 242. 242. 221. 166. 106. 79. 57. 42.
      48. 55. 55. 54. 0. 0. 0. 0. 0. 35. 41. 34. 38. 81. 150. 196. 215.
      242. 251. 248. 250. 248. 247. 237. 220. 190. 129. 61. 23. 51. 54.
      55. 0. 0. 0. 0. 0. 38. 36. 40. 80. 152. 218. 246. 248. 250. 249.
      242. 249. 248. 249. 249. 248. 235. 190. 117. 51. 42. 47. 52. 0. 0.
      0. 0. 0. 32. 34. 80. 150. 222. 246. 249. 247. 249. 248. 246. 250.
      249. 247. 248. 248. 246. 240. 186. 111. 38. 45. 52. 0. 0. 0. 0. 0.
      31. 62. 147. 212. 247. 248. 249. 250. 250. 249. 248. 249. 250.
      252. 252. 250. 252. 249. 233. 188. 99. 39. 39. 0. 0. 0. 0. 0. 35.
      98. 193. 242. 249. 249. 250. 251. 251. 251. 250. 249. 250. 252.
      252. 252. 252. 252. 247. 225. 142. 47. 41. 0. 0. 0. 0. 0. 39. 116.
      210. 246. 250. 251. 252. 252. 253. 253. 253. 253. 253. 253. 254.
      253. 253. 253. 251. 236. 161. 46. 39. 0. 0. 0. 0. 0. 43. 129. 216.
      246. 250. 251. 252. 253. 253. 253. 253. 253. 254. 253. 254. 254.
      253. 251. 250. 239. 167. 48. 30. 0. 0. 0. 0. 0. 61. 149. 228. 248.
      248. 250. 250. 251. 253. 253. 254. 254. 253. 253. 253. 253. 251.
      249. 248. 240. 192. 95. 49. 0. 0. 0. 0. 0. 110. 187. 241. 248.
      246. 246. 247. 248. 251. 253. 254. 254. 252. 251. 249. 248. 248.
      248. 248. 245. 228. 179. 95. 0. 0. 0. 0. 0. 151. 223. 249. 245.
      240. 235. 232. 236. 241. 245. 249. 249. 249. 246. 239. 233. 235.
      241. 244. 246. 249. 225. 131. 0. 0. 0. 0. 0. 164. 230. 246. 243.
      236. 221. 213. 222. 236. 244. 247. 247. 248. 244. 230. 215. 216.
      231. 240. 245. 247. 221. 132. 0. 0. 0. 0. 0. 161. 229. 247. 244.
      234. 202. 180. 199. 226. 238. 242. 244. 244. 236. 216. 196. 199.
      221. 239. 246. 246. 211. 117. 0. 0. 0. 0. 0. 166. 230. 246. 242.
      236. 213. 189. 203. 228. 238. 241. 244. 245. 238. 218. 201. 205.
      225. 240. 246. 249. 210. 113. 0. 0. 0. 0. 0. 168. 233. 247. 245.
      248. 241. 228. 236. 245. 247. 247. 247. 249. 246. 237. 228. 231.
      240. 244. 246. 246. 210. 114. 0. 0. 0. 0. 0. 171. 235. 247. 250.
      250. 247. 245. 246. 248. 250. 249. 249. 250. 249. 248. 246. 246.
      247. 246. 248. 249. 208. 116. 0. 0. 0. 0. 0. 169. 238. 249. 251.
      247. 245. 247. 248. 248. 250. 250. 249. 249. 248. 249. 248. 245.
      245. 247. 248. 249. 205. 103. 0. 0. 0. 0. 0. 164. 237. 248. 249.
      244. 248. 249. 250. 249. 250. 250. 249. 249. 249. 250. 249. 245.
      245. 249. 246. 246. 204. 100. 0. 0. 0. 0. 0. 160. 235. 247. 248.
      248. 247. 237. 224. 232. 244. 245. 245. 246. 242. 231. 231. 242.
      248. 248. 245. 245. 204. 108. 0. 0. 0. 0. 0. 152. 233. 246. 250.
      249. 226. 178. 151. 189. 233. 241. 243. 242. 209. 165. 162. 209.
      242. 247. 247. 237. 181. 86. 0. 0. 0. 0. 0. 85. 178. 236. 244.
      247. 160. 95. 68. 122. 201. 235. 246. 218. 149. 80. 84. 157. 224.
      242. 244. 206. 126. 50. 0. 0. 0. 0. 0. 60. 123. 165. 184. 171. 83.
      41. 69. 132. 189. 188. 187. 143. 78. 41. 54. 108. 165. 200. 209.
      140. 54. 25. 0. 0. 0. 0. 0. 44. 76. 93. 103. 84. 33. 36. 132. 205.
      212. 122. 71. 62. 42. 31. 41. 70. 96. 110. 102. 59. 33. 38. 0. 0.
      0. 0. 0. 42. 54. 58. 55. 39. 20. 61. 183. 248. 225. 84. 12. 26.
      39. 46. 50. 55. 58. 58. 54. 31. 28. 32. 0. 0. 0. 0. 0. 38. 43. 44.
      43. 25. 19. 77. 174. 228. 188. 55. 9. 26. 43. 49. 46. 45. 46. 45.
      55. 44. 30. 20. 0. 0. 0. 0. 0. 35. 38. 39. 39. 27. 22. 65. 118.
      160. 105. 25. 21. 32. 42. 41. 36. 36. 39. 40. 32. 38. 36. 42. 0.
      0. 0. 0. 0. 0. 0. 0. 0. 0. 0. 0. 0. 0. 0. 0. 0. 0. 0. 0. 0. 0. 0.
      0. 0. 0. 0. 0. 0. 0. 0. 0. 0.</_>
    <_>
      45. 57. 56. 49. 56. 68. 32. 57. 153. 202. 195. 196. 198. 143. 58.
      38. 50. 48. 56. 63. 58. 55. 0. 0. 0. 0. 0. 0. 55. 64. 48. 31. 40.
      94. 95. 139. 218. 247. 243. 246. 246. 217. 141. 108. 92. 53. 39.
      51. 58. 56. 0. 0. 0. 0. 0. 0. 59. 55. 28. 34. 83. 198. 216. 232.
      247. 250. 250. 251. 240. 239. 220. 206. 165. 93. 42. 36. 48. 55.
      0. 0. 0. 0. 0. 0. 48. 33. 28. 84. 172. 219. 224. 228. 245. 250.
      246. 251. 248. 244. 238. 226. 212. 166. 87. 37. 35. 51. 0. 0. 0.
      0. 0. 0. 36. 31. 75. 168. 232. 229. 233. 239. 242. 249. 249. 252.
      252. 243. 239. 227. 230. 218. 165. 84. 34. 38. 0. 0. 0. 0. 0. 0.
      26. 59. 163. 227. 236. 234. 236. 241. 243. 249. 250. 253. 253.
      242. 241. 233. 235. 234. 223. 146. 54. 27. 0. 0. 0. 0. 0. 0. 23.
      81. 221. 245. 240. 244. 244. 247. 248. 251. 251. 253. 253. 247.
      247. 244. 243. 243. 242. 194. 80. 26. 0. 0. 0. 0. 0. 0. 26. 91.
      226. 244. 241. 246. 247. 249. 249. 251. 251. 253. 253. 251. 252.
      250. 250. 250. 250. 227. 92. 26. 0. 0. 0. 0. 0. 0. 29. 100. 224.
      251. 252. 253. 253. 252. 252. 252. 253. 253. 253. 253. 251. 252.
      252. 250. 249. 242. 109. 27. 0. 0. 0. 0. 0. 0. 44. 135. 232. 252.
      253. 254. 253. 253. 253. 253. 253. 253. 253. 254. 250. 252. 254.
      249. 249. 250. 153. 46. 0. 0. 0. 0. 0. 0. 93. 191. 240. 249. 249.
      252. 252. 252. 252. 254. 254. 253. 253. 253. 250. 250. 254. 249.
      251. 253. 214. 99. 0. 0. 0. 0. 0. 0. 152. 237. 249. 251. 250. 251.
      252. 252. 253. 254. 254. 254. 253. 252. 251. 250. 254. 249. 254.
      251. 250. 157. 0. 0. 0. 0. 0. 0. 173. 247. 249. 250. 252. 252.
      252. 253. 253. 254. 254. 254. 254. 253. 253. 252. 254. 250. 253.
      243. 253. 184. 0. 0. 0. 0. 0. 0. 178. 248. 249. 250. 252. 252.
      252. 252. 253. 254. 254. 254. 254. 254. 254. 253. 253. 252. 252.
      252. 252. 177. 0. 0. 0. 0. 0. 0. 181. 248. 250. 251. 253. 253.
      253. 253. 253. 254. 254. 254. 254. 254. 254. 254. 253. 251. 250.
      251. 252. 180. 0. 0. 0. 0. 0. 0. 185. 247. 252. 252. 254. 254.
      254. 254. 254. 254. 255. 255. 255. 254. 254. 254. 254. 252. 251.
      252. 251. 184. 0. 0. 0. 0. 0. 0. 192. 247. 253. 253. 254. 254.
      254. 254. 254. 254. 254. 255. 254. 254. 253. 254. 254. 253. 252.
      252. 248. 183. 0. 0. 0. 0. 0. 0. 192. 247. 254. 254. 253. 254.
      254. 254. 254. 254. 254. 254. 253. 251. 252. 252. 254. 253. 253.
      252. 245. 183. 0. 0. 0. 0. 0. 0. 190. 245. 252. 253. 253. 253.
      253. 253. 253. 253. 254. 254. 253. 254. 254. 255. 254. 253. 253.
      252. 244. 179. 0. 0. 0. 0. 0. 0. 188. 244. 251. 251. 251. 251.
      252. 252. 251. 250. 249. 248. 250. 253. 253. 253. 252. 250. 249.
      251. 245. 183. 0. 0. 0. 0. 0. 0. 188. 240. 247. 220. 221. 241.
      250. 249. 249. 231. 216. 216. 235. 251. 253. 250. 241. 233. 234.
      243. 245. 185. 0. 0. 0. 0. 0. 0. 199. 240. 222. 147. 135. 200.
      244. 246. 249. 174. 82. 86. 187. 248. 246. 243. 201. 135. 143.
      215. 238. 184. 0. 0. 0. 0. 0. 0. 200. 236. 163. 76. 47. 124. 221.
      247. 247. 130. 36. 42. 162. 247. 251. 210. 119. 52. 71. 160. 224.
      181. 0. 0. 0. 0. 0. 0. 162. 193. 98. 36. 21. 63. 158. 204. 215.
      115. 41. 39. 137. 209. 215. 156. 72. 30. 38. 95. 164. 137. 0. 0.
      0. 0. 0. 0. 99. 121. 68. 42. 52. 45. 78. 102. 118. 69. 34. 24. 46.
      79. 87. 61. 42. 49. 51. 62. 90. 76. 0. 0. 0. 0. 0. 0. 117. 121.
      117. 102. 113. 94. 93. 104. 106. 113. 123. 127. 124. 133. 132.
      125. 132. 145. 152. 146. 143. 139. 0. 0. 0. 0. 0. 0. 0. 0. 0. 0.
      0. 0. 0. 0. 0. 0. 0. 0. 0. 0. 0. 0. 0. 0. 0. 0. 0. 0. 0. 0. 0. 0.
      0. 0. 0. 0. 0. 0. 0. 0. 0. 0. 0. 0. 0. 0. 0. 0. 0. 0. 0. 0. 0. 0.
      0. 0. 0. 0. 0. 0. 0. 0.</_>
    <_>
      22. 33. 43. 47. 55. 58. 56. 62. 122. 173. 180. 182. 186. 169. 112.
      62. 55. 62. 52. 49. 49. 47. 45. 0. 0. 0. 0. 0. 22. 36. 42. 38. 52.
      83. 113. 150. 203. 231. 230. 226. 227. 215. 173. 126. 103. 84. 55.
      44. 48. 50. 46. 0. 0. 0. 0. 0. 20. 27. 33. 42. 96. 161. 208. 228.
      231. 233. 234. 233. 234. 231. 217. 199. 184. 138. 77. 41. 40. 50.
      51. 0. 0. 0. 0. 0. 15. 17. 35. 86. 167. 223. 239. 238. 243. 246.
      248. 248. 247. 243. 238. 236. 231. 200. 128. 61. 33. 37. 49. 0. 0.
      0. 0. 0. 18. 25. 78. 158. 224. 238. 236. 240. 245. 246. 248. 250.
      250. 249. 246. 244. 238. 228. 193. 119. 50. 28. 38. 0. 0. 0. 0. 0.
      15. 42. 152. 229. 242. 243. 245. 247. 247. 251. 252. 251. 252.
      252. 250. 248. 241. 238. 236. 192. 99. 31. 28. 0. 0. 0. 0. 0. 17.
      84. 205. 241. 241. 244. 248. 248. 252. 255. 253. 252. 253. 254.
      251. 250. 249. 244. 245. 241. 148. 44. 25. 0. 0. 0. 0. 0. 20. 122.
      245. 247. 245. 245. 251. 250. 254. 254. 251. 251. 253. 254. 252.
      252. 251. 248. 246. 241. 168. 62. 28. 0. 0. 0. 0. 0. 27. 134. 245.
      247. 247. 244. 251. 251. 252. 254. 252. 252. 253. 250. 249. 252.
      251. 251. 250. 247. 190. 70. 17. 0. 0. 0. 0. 0. 47. 161. 245. 247.
      250. 247. 250. 240. 237. 246. 253. 254. 249. 234. 232. 245. 250.
      250. 249. 248. 209. 100. 28. 0. 0. 0. 0. 0. 96. 210. 247. 244.
      249. 250. 246. 221. 218. 237. 251. 252. 242. 217. 211. 231. 250.
      248. 245. 244. 236. 181. 73. 0. 0. 0. 0. 0. 145. 238. 247. 245.
      248. 251. 243. 223. 224. 242. 251. 252. 243. 226. 222. 236. 250.
      252. 250. 248. 246. 228. 90. 0. 0. 0. 0. 0. 169. 242. 245. 248.
      250. 251. 244. 243. 243. 253. 253. 251. 253. 252. 251. 253. 247.
      253. 253. 252. 247. 232. 91. 0. 0. 0. 0. 0. 170. 242. 247. 250.
      252. 253. 248. 252. 250. 252. 252. 250. 253. 253. 251. 251. 249.
      254. 247. 250. 249. 234. 96. 0. 0. 0. 0. 0. 174. 242. 249. 250.
      254. 254. 251. 251. 249. 250. 253. 253. 252. 252. 254. 254. 251.
      254. 249. 251. 250. 233. 90. 0. 0. 0. 0. 0. 173. 239. 247. 248.
      252. 253. 251. 250. 247. 249. 251. 251. 251. 251. 251. 251. 246.
      254. 248. 250. 251. 235. 91. 0. 0. 0. 0. 0. 166. 235. 244. 245.
      248. 250. 249. 248. 245. 247. 248. 248. 249. 247. 246. 245. 241.
      252. 248. 248. 250. 239. 94. 0. 0. 0. 0. 0. 166. 233. 244. 245.
      247. 248. 248. 246. 244. 245. 246. 247. 247. 245. 243. 242. 241.
      251. 249. 246. 247. 243. 95. 0. 0. 0. 0. 0. 165. 234. 244. 245.
      248. 250. 249. 248. 245. 246. 248. 249. 248. 246. 242. 242. 244.
      248. 248. 245. 246. 246. 92. 0. 0. 0. 0. 0. 163. 232. 243. 243.
      246. 246. 246. 244. 243. 244. 246. 247. 246. 245. 242. 242. 245.
      245. 246. 245. 245. 242. 92. 0. 0. 0. 0. 0. 163. 227. 239. 237.
      237. 236. 232. 231. 229. 231. 235. 236. 235. 235. 233. 234. 235.
      234. 237. 240. 241. 235. 90. 0. 0. 0. 0. 0. 150. 219. 230. 223.
      218. 216. 221. 225. 225. 226. 226. 226. 226. 227. 228. 227. 224.
      218. 225. 233. 234. 219. 83. 0. 0. 0. 0. 0. 133. 204. 206. 183.
      162. 156. 189. 217. 215. 192. 164. 162. 176. 206. 225. 209. 173.
      157. 178. 200. 218. 203. 74. 0. 0. 0. 0. 0. 103. 164. 155. 102.
      71. 78. 137. 202. 203. 143. 90. 84. 117. 175. 213. 176. 103. 84.
      108. 132. 172. 162. 61. 0. 0. 0. 0. 0. 63. 91. 81. 49. 33. 44. 91.
      147. 146. 88. 42. 43. 75. 129. 161. 119. 55. 46. 57. 77. 110. 107.
      50. 0. 0. 0. 0. 0. 0. 0. 0. 0. 0. 0. 0. 0. 0. 0. 0. 0. 0. 0. 0. 0.
      0. 0. 0. 0. 0. 0. 0. 0. 0. 0. 0. 0. 0. 0. 0. 0. 0. 0. 0. 0. 0. 0.
      0. 0. 0. 0. 0. 0. 0. 0. 0. 0. 0. 0. 0. 0. 0. 0. 0. 0. 0. 0. 0. 0.
      0. 0. 0. 0. 0. 0. 0. 0. 0. 0. 0. 0. 0. 0. 0. 0. 0. 0. 0. 0. 0. 0.
      0. 0.</_>
    <_>
      51. 54. 54. 44. 44. 43. 44. 106. 179. 197. 202. 207. 192. 130. 56.
      35. 49. 51. 50. 53. 47. 50. 0. 0. 0. 0. 0. 0. 53. 48. 45. 43. 49.
      58. 68. 144. 224. 245. 250. 250. 241. 184. 92. 52. 50. 42. 45. 51.
      45. 49. 0. 0. 0. 0. 0. 0. 46. 34. 41. 66. 81. 91. 107. 176. 229.
      244. 247. 245. 245. 208. 145. 113. 98. 68. 38. 33. 48. 53. 0. 0.
      0. 0. 0. 0. 31. 34. 73. 121. 133. 139. 153. 202. 229. 239. 243.
      245. 248. 224. 170. 146. 160. 147. 86. 30. 26. 44. 0. 0. 0. 0. 0.
      0. 21. 65. 140. 190. 190. 186. 193. 218. 231. 241. 246. 248. 250.
      233. 194. 179. 203. 214. 162. 71. 16. 26. 0. 0. 0. 0. 0. 0. 24.
      119. 202. 231. 226. 220. 221. 232. 236. 246. 250. 250. 249. 242.
      238. 229. 224. 230. 229. 149. 45. 13. 0. 0. 0. 0. 0. 0. 34. 160.
      235. 242. 240. 235. 234. 240. 241. 247. 250. 251. 250. 243. 242.
      234. 228. 235. 239. 188. 73. 12. 0. 0. 0. 0. 0. 0. 40. 177. 244.
      246. 249. 246. 245. 249. 250. 248. 251. 252. 253. 249. 243. 246.
      249. 252. 251. 212. 92. 23. 0. 0. 0. 0. 0. 0. 50. 190. 245. 247.
      251. 249. 248. 250. 250. 248. 251. 253. 253. 251. 251. 251. 249.
      251. 252. 236. 115. 27. 0. 0. 0. 0. 0. 0. 88. 210. 248. 253. 254.
      252. 252. 253. 253. 253. 253. 254. 254. 253. 253. 254. 254. 254.
      254. 244. 147. 40. 0. 0. 0. 0. 0. 0. 155. 239. 250. 254. 254. 252.
      252. 253. 253. 253. 253. 254. 254. 253. 253. 255. 255. 254. 254.
      251. 200. 93. 0. 0. 0. 0. 0. 0. 208. 251. 246. 254. 254. 252. 252.
      253. 253. 253. 253. 254. 254. 253. 253. 255. 255. 254. 254. 252.
      240. 146. 0. 0. 0. 0. 0. 0. 229. 250. 243. 254. 254. 252. 252.
      253. 253. 253. 253. 254. 254. 253. 253. 255. 255. 254. 254. 251.
      248. 166. 0. 0. 0. 0. 0. 0. 229. 248. 247. 254. 253. 252. 252.
      253. 253. 254. 254. 253. 253. 253. 253. 255. 255. 254. 254. 251.
      249. 174. 0. 0. 0. 0. 0. 0. 224. 251. 252. 254. 253. 252. 252.
      253. 253. 254. 254. 253. 253. 253. 253. 255. 255. 254. 254. 251.
      251. 187. 0. 0. 0. 0. 0. 0. 222. 252. 251. 253. 253. 252. 252.
      253. 253. 254. 254. 253. 252. 252. 253. 255. 255. 254. 254. 248.
      251. 194. 0. 0. 0. 0. 0. 0. 220. 250. 247. 253. 252. 252. 252.
      253. 253. 254. 254. 253. 252. 252. 253. 255. 255. 254. 254. 249.
      249. 191. 0. 0. 0. 0. 0. 0. 219. 248. 251. 251. 248. 253. 251.
      247. 253. 253. 249. 251. 253. 253. 253. 254. 253. 250. 254. 250.
      248. 188. 0. 0. 0. 0. 0. 0. 224. 250. 250. 253. 251. 250. 252.
      249. 248. 253. 253. 251. 253. 251. 247. 251. 253. 252. 252. 249.
      246. 193. 0. 0. 0. 0. 0. 0. 215. 248. 248. 250. 249. 250. 252.
      251. 249. 248. 250. 250. 250. 251. 250. 250. 251. 252. 251. 249.
      246. 192. 0. 0. 0. 0. 0. 0. 194. 247. 247. 248. 250. 247. 239.
      239. 246. 248. 248. 249. 245. 242. 233. 228. 241. 251. 250. 248.
      244. 182. 0. 0. 0. 0. 0. 0. 161. 237. 244. 244. 243. 220. 172.
      164. 208. 239. 241. 245. 239. 203. 158. 166. 219. 246. 244. 246.
      230. 150. 0. 0. 0. 0. 0. 0. 124. 212. 239. 243. 228. 168. 90. 75.
      150. 219. 241. 241. 211. 141. 79. 98. 178. 232. 243. 239. 196. 97.
      0. 0. 0. 0. 0. 0. 79. 149. 204. 217. 178. 105. 52. 47. 94. 169.
      216. 207. 150. 87. 50. 62. 117. 187. 223. 208. 138. 54. 0. 0. 0.
      0. 0. 0. 40. 91. 161. 173. 116. 61. 52. 52. 57. 109. 162. 153.
      100. 59. 49. 51. 72. 124. 168. 149. 85. 41. 0. 0. 0. 0. 0. 0. 55.
      79. 103. 106. 89. 69. 61. 63. 70. 89. 108. 105. 86. 69. 63. 61.
      67. 88. 110. 99. 67. 53. 0. 0. 0. 0. 0. 0. 0. 0. 0. 0. 0. 0. 0. 0.
      0. 0. 0. 0. 0. 0. 0. 0. 0. 0. 0. 0. 0. 0. 0. 0. 0. 0. 0. 0. 0. 0.
      0. 0. 0. 0. 0. 0. 0. 0. 0. 0. 0. 0. 0. 0. 0. 0. 0. 0. 0. 0. 0. 0.
      0. 0. 0. 0.</_>
    <_>
      49. 52. 52. 45. 45. 37. 61. 101. 113. 133. 130. 127. 124. 119. 95.
      64. 56. 59. 55. 53. 50. 39. 35. 0. 0. 0. 0. 0. 55. 53. 49. 48. 68.
      82. 116. 180. 202. 202. 200. 208. 207. 189. 148. 104. 86. 76. 64.
      59. 60. 54. 41. 0. 0. 0. 0. 0. 53. 47. 51. 77. 127. 162. 183. 219.
      228. 225. 230. 236. 238. 234. 214. 189. 160. 117. 77. 62. 60. 59.
      47. 0. 0. 0. 0. 0. 47. 47. 79. 138. 192. 218. 223. 223. 227. 231.
      235. 237. 237. 240. 240. 238. 223. 179. 115. 70. 49. 47. 47. 0. 0.
      0. 0. 0. 47. 59. 121. 197. 224. 226. 233. 233. 239. 246. 251. 251.
      248. 250. 248. 247. 246. 234. 185. 111. 57. 38. 43. 0. 0. 0. 0. 0.
      53. 80. 156. 222. 228. 227. 237. 241. 247. 246. 250. 250. 252.
      252. 249. 243. 246. 247. 228. 170. 90. 41. 39. 0. 0. 0. 0. 0. 57.
      104. 181. 227. 234. 236. 247. 250. 253. 245. 250. 250. 249. 253.
      251. 248. 248. 240. 235. 206. 129. 58. 37. 0. 0. 0. 0. 0. 74. 141.
      205. 228. 237. 243. 248. 248. 255. 254. 254. 254. 253. 253. 244.
      237. 242. 232. 228. 219. 153. 71. 38. 0. 0. 0. 0. 0. 117. 192.
      226. 233. 240. 246. 251. 251. 252. 247. 251. 248. 238. 238. 234.
      230. 227. 225. 223. 217. 164. 90. 45. 0. 0. 0. 0. 0. 120. 195.
      228. 234. 240. 246. 251. 251. 253. 253. 245. 200. 170. 192. 221.
      227. 222. 222. 221. 219. 195. 138. 76. 0. 0. 0. 0. 0. 114. 198.
      235. 239. 243. 247. 246. 243. 245. 237. 206. 135. 89. 120. 180.
      211. 215. 216. 217. 218. 219. 183. 106. 0. 0. 0. 0. 0. 104. 195.
      236. 239. 243. 247. 246. 235. 230. 213. 169. 114. 70. 84. 141.
      194. 212. 215. 217. 213. 222. 200. 117. 0. 0. 0. 0. 0. 104. 199.
      240. 242. 243. 247. 247. 241. 231. 217. 188. 149. 111. 108. 142.
      186. 205. 209. 218. 212. 222. 206. 119. 0. 0. 0. 0. 0. 106. 201.
      240. 244. 244. 246. 248. 243. 236. 231. 216. 188. 159. 164. 179.
      192. 201. 205. 218. 215. 225. 216. 124. 0. 0. 0. 0. 0. 89. 182.
      232. 245. 244. 247. 250. 246. 240. 237. 230. 210. 196. 204. 207.
      206. 205. 208. 216. 220. 228. 224. 128. 0. 0. 0. 0. 0. 65. 148.
      220. 243. 244. 247. 250. 246. 241. 236. 231. 224. 216. 218. 216.
      214. 211. 210. 213. 222. 227. 222. 126. 0. 0. 0. 0. 0. 39. 91.
      205. 242. 243. 247. 246. 243. 240. 235. 231. 228. 219. 217. 221.
      224. 224. 215. 215. 223. 224. 216. 112. 0. 0. 0. 0. 0. 39. 81.
      188. 236. 238. 240. 244. 245. 239. 231. 227. 225. 220. 222. 225.
      224. 233. 227. 221. 219. 207. 191. 81. 0. 0. 0. 0. 0. 44. 49. 131.
      216. 237. 237. 240. 240. 237. 231. 226. 223. 219. 222. 223. 221.
      229. 231. 221. 206. 168. 138. 59. 0. 0. 0. 0. 0. 49. 40. 65. 151.
      221. 239. 239. 236. 234. 231. 227. 223. 215. 218. 220. 222. 226.
      221. 211. 199. 141. 83. 38. 0. 0. 0. 0. 0. 52. 48. 39. 89. 186.
      228. 228. 230. 231. 227. 225. 224. 221. 217. 199. 185. 199. 208.
      205. 204. 134. 54. 29. 0. 0. 0. 0. 0. 52. 51. 39. 53. 139. 198.
      212. 225. 213. 201. 200. 197. 197. 181. 134. 101. 147. 207. 216.
      194. 111. 39. 28. 0. 0. 0. 0. 0. 52. 54. 43. 30. 80. 153. 201.
      206. 155. 123. 117. 116. 118. 101. 61. 55. 131. 211. 201. 143. 63.
      29. 32. 0. 0. 0. 0. 0. 52. 49. 56. 37. 37. 94. 154. 146. 84. 43.
      32. 45. 81. 100. 71. 56. 110. 166. 138. 76. 26. 29. 34. 0. 0. 0.
      0. 0. 0. 0. 0. 0. 0. 0. 0. 0. 0. 0. 0. 0. 0. 0. 0. 0. 0. 0. 0. 0.
      0. 0. 0. 0. 0. 0. 0. 0. 0. 0. 0. 0. 0. 0. 0. 0. 0. 0. 0. 0. 0. 0.
      0. 0. 0. 0. 0. 0. 0. 0. 0. 0. 0. 0. 0. 0. 0. 0. 0. 0. 0. 0. 0. 0.
      0. 0. 0. 0. 0. 0. 0. 0. 0. 0. 0. 0. 0. 0. 0. 0. 0. 0. 0. 0. 0. 0.
      0. 0. 0. 0. 0. 0. 0. 0. 0. 0. 0. 0. 0. 0. 0. 0. 0. 0. 0. 0. 0. 0.
      0. 0. 0. 0.</_>
    <_>
      27. 43. 43. 34. 29. 30. 40. 70. 118. 167. 198. 208. 201. 170. 102.
      48. 42. 46. 47. 56. 52. 50. 51. 52. 0. 0. 0. 0. 24. 35. 33. 20.
      31. 59. 97. 151. 207. 245. 253. 248. 243. 234. 191. 141. 114. 73.
      40. 41. 48. 48. 48. 49. 0. 0. 0. 0. 27. 20. 18. 23. 73. 149. 210.
      242. 249. 248. 250. 251. 248. 245. 237. 223. 202. 137. 65. 32. 42.
      45. 47. 47. 0. 0. 0. 0. 15. 10. 21. 63. 136. 210. 242. 245. 247.
      250. 249. 248. 249. 247. 247. 247. 240. 200. 122. 62. 37. 40. 53.
      51. 0. 0. 0. 0. 10. 18. 55. 136. 204. 242. 250. 244. 246. 250.
      249. 247. 248. 250. 247. 245. 248. 237. 188. 124. 47. 33. 60. 55.
      0. 0. 0. 0. 13. 46. 116. 214. 241. 248. 250. 249. 249. 249. 249.
      248. 248. 250. 248. 246. 249. 247. 236. 193. 97. 35. 55. 42. 0. 0.
      0. 0. 15. 67. 161. 241. 249. 246. 250. 252. 251. 251. 252. 252.
      250. 250. 251. 251. 249. 246. 246. 231. 136. 39. 54. 43. 0. 0. 0.
      0. 14. 65. 169. 243. 252. 251. 252. 253. 252. 253. 253. 253. 253.
      252. 253. 253. 250. 244. 247. 233. 132. 29. 51. 59. 0. 0. 0. 0.
      16. 76. 186. 244. 252. 252. 253. 252. 253. 253. 253. 253. 253.
      253. 251. 252. 253. 253. 252. 233. 141. 41. 46. 60. 0. 0. 0. 0.
      27. 102. 218. 252. 249. 246. 248. 251. 252. 253. 253. 252. 252.
      252. 250. 248. 250. 250. 251. 241. 195. 123. 109. 91. 0. 0. 0. 0.
      72. 174. 241. 248. 246. 237. 237. 239. 240. 246. 251. 251. 250.
      249. 247. 244. 239. 241. 247. 249. 240. 226. 215. 158. 0. 0. 0. 0.
      90. 195. 247. 244. 243. 227. 219. 225. 229. 241. 247. 249. 247.
      240. 230. 224. 222. 228. 236. 242. 249. 250. 240. 176. 0. 0. 0. 0.
      103. 204. 249. 244. 237. 208. 184. 203. 225. 242. 245. 245. 247.
      237. 215. 200. 204. 221. 234. 241. 250. 241. 202. 134. 0. 0. 0. 0.
      110. 206. 249. 246. 232. 191. 156. 179. 221. 240. 242. 245. 248.
      230. 191. 166. 182. 216. 234. 242. 249. 223. 143. 72. 0. 0. 0. 0.
      112. 205. 248. 244. 234. 201. 177. 195. 226. 242. 243. 247. 248.
      235. 201. 180. 195. 222. 235. 242. 245. 200. 100. 32. 0. 0. 0. 0.
      115. 208. 248. 246. 241. 227. 222. 234. 243. 247. 246. 245. 249.
      247. 239. 231. 235. 241. 242. 244. 240. 189. 88. 25. 0. 0. 0. 0.
      119. 211. 249. 249. 248. 242. 243. 246. 245. 247. 248. 250. 248.
      248. 248. 247. 248. 248. 247. 247. 238. 186. 92. 29. 0. 0. 0. 0.
      120. 211. 249. 248. 248. 246. 245. 248. 247. 246. 248. 248. 247.
      244. 245. 245. 246. 247. 248. 249. 239. 187. 94. 30. 0. 0. 0. 0.
      120. 212. 247. 243. 242. 245. 246. 248. 248. 244. 246. 239. 244.
      245. 245. 246. 245. 245. 244. 247. 241. 187. 87. 30. 0. 0. 0. 0.
      128. 214. 240. 224. 209. 222. 242. 240. 233. 234. 184. 165. 197.
      237. 242. 245. 234. 202. 207. 232. 241. 187. 82. 30. 0. 0. 0. 0.
      131. 213. 215. 167. 140. 168. 223. 243. 237. 195. 90. 87. 150.
      230. 242. 234. 190. 125. 140. 195. 227. 188. 83. 29. 0. 0. 0. 0.
      111. 178. 160. 95. 69. 102. 172. 225. 233. 192. 74. 56. 120. 213.
      239. 200. 123. 70. 81. 138. 183. 164. 82. 30. 0. 0. 0. 0. 68. 109.
      93. 50. 36. 59. 97. 142. 191. 219. 142. 74. 77. 148. 192. 140. 68.
      39. 43. 86. 118. 108. 61. 32. 0. 0. 0. 0. 32. 52. 53. 38. 32. 39.
      43. 67. 145. 231. 208. 124. 36. 61. 106. 75. 44. 37. 43. 55. 62.
      55. 43. 33. 0. 0. 0. 0. 17. 32. 37. 36. 40. 37. 23. 30. 110. 223.
      235. 158. 20. 18. 48. 41. 45. 32. 39. 34. 43. 46. 39. 26. 0. 0. 0.
      0. 16. 29. 31. 34. 40. 36. 22. 21. 85. 194. 213. 130. 16. 16. 40.
      40. 51. 27. 34. 33. 44. 37. 27. 23. 0. 0. 0. 0. 14. 24. 30. 31.
      29. 28. 29. 26. 58. 132. 142. 70. 11. 17. 39. 37. 42. 32. 43. 36.
      36. 20. 26. 43. 0. 0. 0. 0. 0. 0. 0. 0. 0. 0. 0. 0. 0. 0. 0. 0. 0.
      0. 0. 0. 0. 0. 0. 0. 0. 0. 0. 0. 0. 0. 0. 0.</_>
    <_>
      20. 36. 54. 56. 52. 47. 40. 46. 90. 148. 164. 142. 154. 134. 63.
      35. 47. 53. 57. 59. 50. 44. 54. 0. 0. 0. 0. 0. 19. 43. 57. 47. 42.
      55. 69. 91. 156. 211. 217. 203. 212. 196. 125. 75. 73. 48. 40. 56.
      61. 49. 48. 0. 0. 0. 0. 0. 20. 39. 42. 29. 49. 107. 159. 182. 208.
      225. 224. 220. 225. 221. 191. 163. 149. 85. 36. 41. 59. 51. 42. 0.
      0. 0. 0. 0. 17. 26. 30. 40. 104. 183. 217. 225. 230. 232. 231.
      234. 232. 230. 227. 226. 224. 155. 56. 24. 35. 46. 53. 0. 0. 0. 0.
      0. 21. 16. 41. 102. 176. 221. 229. 231. 234. 239. 242. 245. 244.
      241. 237. 231. 237. 225. 160. 50. 28. 32. 55. 0. 0. 0. 0. 0. 17.
      19. 93. 177. 224. 233. 236. 239. 242. 245. 247. 249. 248. 247.
      244. 238. 237. 231. 228. 160. 55. 28. 41. 0. 0. 0. 0. 0. 18. 32.
      148. 222. 236. 237. 242. 247. 249. 252. 253. 255. 254. 254. 253.
      248. 245. 237. 245. 234. 78. 20. 36. 0. 0. 0. 0. 0. 26. 35. 182.
      238. 242. 242. 246. 249. 251. 253. 253. 254. 253. 254. 252. 248.
      248. 242. 243. 241. 100. 14. 38. 0. 0. 0. 0. 0. 29. 49. 197. 243.
      247. 246. 250. 253. 254. 254. 254. 253. 253. 254. 252. 246. 251.
      249. 247. 240. 142. 12. 31. 0. 0. 0. 0. 0. 27. 97. 219. 246. 245.
      247. 252. 253. 254. 254. 254. 254. 254. 254. 253. 252. 250. 249.
      249. 241. 184. 40. 22. 0. 0. 0. 0. 0. 29. 159. 238. 248. 242. 248.
      253. 253. 252. 252. 254. 254. 253. 251. 250. 254. 251. 247. 249.
      245. 215. 101. 21. 0. 0. 0. 0. 0. 43. 209. 244. 248. 243. 249.
      252. 249. 246. 247. 250. 252. 249. 244. 238. 244. 253. 250. 249.
      248. 237. 168. 27. 0. 0. 0. 0. 0. 65. 235. 246. 247. 252. 252.
      253. 252. 251. 252. 254. 254. 254. 251. 249. 248. 250. 252. 250.
      247. 246. 203. 42. 0. 0. 0. 0. 0. 81. 239. 249. 249. 253. 253.
      253. 253. 253. 253. 254. 254. 254. 254. 254. 252. 251. 252. 250.
      247. 249. 213. 74. 0. 0. 0. 0. 0. 99. 237. 246. 246. 254. 253.
      254. 254. 254. 255. 254. 254. 254. 254. 254. 252. 251. 253. 251.
      247. 251. 223. 101. 0. 0. 0. 0. 0. 115. 237. 246. 246. 254. 254.
      254. 254. 255. 255. 254. 252. 253. 255. 254. 251. 251. 253. 251.
      249. 251. 220. 114. 0. 0. 0. 0. 0. 122. 239. 249. 249. 251. 251.
      254. 254. 254. 254. 252. 250. 252. 254. 254. 252. 251. 253. 252.
      251. 250. 218. 113. 0. 0. 0. 0. 0. 130. 240. 250. 249. 248. 246.
      253. 253. 253. 252. 249. 248. 251. 253. 254. 252. 250. 250. 250.
      250. 250. 219. 115. 0. 0. 0. 0. 0. 135. 242. 250. 247. 245. 243.
      251. 249. 247. 247. 247. 248. 250. 251. 251. 250. 247. 244. 244.
      247. 249. 219. 112. 0. 0. 0. 0. 0. 131. 236. 247. 249. 252. 251.
      250. 247. 243. 243. 245. 248. 248. 248. 246. 248. 248. 245. 243.
      245. 246. 215. 112. 0. 0. 0. 0. 0. 134. 245. 248. 251. 251. 248.
      247. 247. 245. 241. 242. 243. 243. 244. 245. 251. 250. 249. 249.
      249. 248. 211. 103. 0. 0. 0. 0. 0. 126. 235. 242. 244. 243. 240.
      242. 245. 244. 238. 236. 233. 231. 237. 245. 251. 240. 235. 237.
      238. 239. 206. 100. 0. 0. 0. 0. 0. 136. 233. 229. 223. 224. 227.
      229. 235. 237. 233. 224. 216. 219. 228. 231. 242. 235. 224. 211.
      222. 242. 212. 102. 0. 0. 0. 0. 0. 132. 223. 225. 216. 210. 206.
      205. 220. 227. 222. 209. 200. 209. 217. 226. 217. 212. 220. 216.
      217. 229. 194. 90. 0. 0. 0. 0. 0. 91. 174. 212. 220. 196. 157.
      141. 165. 181. 191. 205. 210. 201. 199. 208. 158. 128. 172. 206.
      211. 198. 152. 69. 0. 0. 0. 0. 0. 49. 98. 159. 197. 167. 98. 67.
      83. 100. 128. 179. 197. 155. 102. 84. 59. 59. 135. 198. 183. 122.
      71. 36. 0. 0. 0. 0. 0. 39. 51. 93. 136. 118. 61. 41. 50. 55. 74.
      119. 134. 92. 47. 52. 51. 50. 83. 128. 115. 66. 40. 32. 0. 0. 0.
      0. 0. 0. 0. 0. 0. 0. 0. 0. 0. 0. 0. 0. 0. 0. 0. 0. 0. 0. 0. 0. 0.
      0. 0. 0. 0. 0. 0. 0. 0.</_>
    <_>
      57. 59. 57. 55. 56. 60. 56. 57. 73. 89. 96. 91. 90. 91. 86. 76.
      61. 58. 60. 61. 62. 61. 58. 58. 60. 59. 69. 0. 52. 46. 39. 41. 62.
      93. 115. 125. 154. 168. 174. 162. 160. 158. 150. 126. 63. 40. 33.
      36. 46. 56. 56. 52. 47. 45. 46. 0. 36. 41. 54. 68. 124. 185. 203.
      212. 231. 241. 247. 244. 244. 245. 238. 221. 139. 96. 58. 36. 32.
      37. 42. 40. 37. 38. 42. 0. 41. 92. 134. 158. 194. 233. 239. 244.
      251. 251. 254. 254. 254. 254. 251. 251. 235. 227. 177. 90. 33. 26.
      36. 39. 36. 40. 44. 0. 78. 153. 200. 219. 230. 240. 243. 248. 251.
      252. 254. 254. 254. 254. 251. 251. 248. 250. 232. 174. 94. 42. 25.
      35. 42. 40. 42. 0. 139. 204. 228. 235. 238. 242. 245. 249. 253.
      253. 255. 255. 255. 255. 253. 253. 246. 253. 246. 226. 157. 69.
      27. 51. 67. 45. 32. 0. 153. 204. 228. 238. 241. 246. 249. 250.
      253. 253. 254. 255. 255. 254. 253. 253. 254. 250. 245. 243. 206.
      129. 83. 112. 126. 82. 32. 0. 106. 151. 210. 240. 245. 248. 250.
      251. 253. 254. 254. 254. 254. 254. 254. 253. 253. 251. 245. 248.
      234. 195. 166. 184. 189. 140. 64. 0. 55. 109. 200. 242. 246. 249.
      251. 252. 253. 254. 254. 254. 254. 254. 254. 254. 248. 250. 248.
      246. 239. 229. 215. 210. 197. 172. 106. 0. 40. 111. 213. 246. 249.
      252. 253. 253. 253. 252. 252. 252. 253. 253. 254. 254. 251. 252.
      252. 249. 238. 238. 226. 196. 154. 145. 110. 0. 37. 124. 221. 245.
      248. 252. 251. 251. 253. 252. 252. 252. 253. 253. 254. 254. 252.
      250. 253. 252. 237. 240. 227. 184. 124. 105. 86. 0. 30. 120. 219.
      244. 246. 249. 251. 253. 254. 254. 254. 254. 253. 253. 254. 254.
      253. 251. 251. 250. 236. 237. 223. 182. 128. 97. 73. 0. 26. 115.
      221. 246. 248. 248. 250. 253. 254. 254. 255. 254. 254. 254. 253.
      254. 254. 253. 250. 248. 239. 234. 206. 180. 136. 98. 64. 0. 25.
      116. 230. 248. 248. 245. 250. 254. 255. 255. 255. 254. 254. 253.
      253. 253. 253. 250. 250. 251. 240. 239. 177. 157. 153. 104. 49. 0.
      25. 104. 230. 245. 247. 245. 250. 254. 255. 255. 255. 254. 254.
      253. 253. 253. 253. 249. 248. 250. 242. 236. 128. 83. 97. 68. 36.
      0. 39. 92. 216. 242. 248. 250. 250. 254. 255. 255. 255. 254. 254.
      253. 253. 253. 253. 253. 248. 248. 239. 198. 88. 36. 38. 44. 43.
      0. 97. 142. 223. 243. 248. 250. 248. 253. 255. 255. 255. 254. 254.
      253. 253. 252. 251. 250. 249. 248. 220. 104. 51. 31. 40. 47. 45.
      0. 158. 207. 233. 240. 242. 249. 249. 253. 254. 254. 254. 254.
      254. 254. 253. 253. 251. 245. 245. 246. 206. 50. 30. 33. 49. 46.
      38. 0. 169. 217. 224. 239. 241. 249. 249. 253. 253. 254. 254. 254.
      255. 254. 254. 253. 252. 251. 247. 234. 177. 55. 33. 36. 40. 38.
      36. 0. 80. 168. 226. 229. 236. 240. 243. 249. 252. 252. 251. 253.
      253. 253. 253. 250. 247. 250. 236. 177. 97. 38. 30. 39. 44. 42.
      37. 0. 45. 98. 160. 168. 205. 235. 238. 248. 250. 248. 247. 250.
      251. 248. 250. 245. 234. 224. 179. 108. 49. 30. 34. 41. 44. 39.
      34. 0. 40. 58. 92. 89. 145. 213. 213. 229. 236. 239. 246. 246.
      243. 247. 248. 229. 180. 119. 83. 55. 34. 36. 47. 42. 38. 38. 37.
      0. 49. 52. 58. 45. 87. 142. 145. 163. 183. 196. 218. 216. 201.
      203. 198. 159. 94. 46. 39. 39. 32. 43. 53. 37. 34. 39. 39. 0. 45.
      46. 46. 41. 50. 57. 85. 110. 115. 92. 116. 122. 107. 96. 87. 73.
      50. 41. 48. 47. 36. 42. 46. 28. 34. 36. 34. 0. 0. 0. 0. 0. 0. 0.
      0. 0. 0. 0. 0. 0. 0. 0. 0. 0. 0. 0. 0. 0. 0. 0. 0. 0. 0. 0. 0. 0.
      0. 0. 0. 0. 0. 0. 0. 0. 0. 0. 0. 0. 0. 0. 0. 0. 0. 0. 0. 0. 0. 0.
      0. 0. 0. 0. 0. 0. 0. 0. 0. 0. 0. 0. 0. 0. 0. 0. 0. 0. 0. 0. 0. 0.
      0. 0. 0. 0. 0. 0. 0. 0. 0. 0. 0. 0. 0. 0. 0. 0. 0. 0. 0. 0. 0. 0.
      0. 0. 0. 0. 0. 0. 0. 0. 0. 0. 0. 0. 0. 0. 0. 0. 0. 0.</_>
    <_>
      142. 150. 147. 151. 168. 191. 213. 215. 219. 219. 214. 212. 209.
      204. 183. 165. 154. 148. 135. 95. 46. 0. 0. 0. 0. 0. 0. 0. 129.
      165. 180. 185. 204. 219. 240. 242. 252. 253. 251. 251. 251. 243.
      227. 216. 193. 155. 106. 64. 49. 0. 0. 0. 0. 0. 0. 0. 128. 193.
      219. 222. 229. 232. 244. 244. 250. 251. 251. 251. 249. 246. 237.
      234. 221. 189. 118. 60. 48. 0. 0. 0. 0. 0. 0. 0. 151. 223. 241.
      245. 248. 249. 251. 251. 252. 252. 253. 253. 253. 252. 249. 247.
      244. 232. 161. 79. 46. 0. 0. 0. 0. 0. 0. 0. 170. 236. 243. 246.
      248. 249. 251. 251. 252. 252. 253. 252. 252. 253. 251. 249. 250.
      249. 198. 104. 46. 0. 0. 0. 0. 0. 0. 0. 145. 214. 242. 244. 248.
      249. 252. 251. 251. 249. 254. 247. 246. 253. 251. 250. 249. 246.
      218. 138. 63. 0. 0. 0. 0. 0. 0. 0. 91. 170. 238. 241. 244. 246.
      251. 253. 254. 254. 254. 252. 252. 254. 250. 249. 248. 245. 234.
      187. 104. 0. 0. 0. 0. 0. 0. 0. 59. 152. 234. 236. 236. 239. 243.
      243. 247. 251. 254. 254. 254. 254. 253. 251. 250. 249. 246. 230.
      142. 0. 0. 0. 0. 0. 0. 0. 56. 156. 234. 232. 225. 224. 231. 236.
      243. 250. 250. 251. 252. 253. 254. 254. 253. 252. 249. 242. 157.
      0. 0. 0. 0. 0. 0. 0. 50. 152. 227. 225. 221. 221. 225. 227. 232.
      238. 243. 245. 249. 251. 253. 253. 253. 252. 252. 247. 159. 0. 0.
      0. 0. 0. 0. 0. 51. 158. 227. 226. 222. 222. 225. 225. 227. 232.
      240. 242. 248. 250. 252. 252. 251. 251. 249. 247. 156. 0. 0. 0. 0.
      0. 0. 0. 54. 166. 232. 229. 221. 219. 225. 230. 233. 237. 243.
      244. 250. 251. 252. 252. 252. 251. 247. 247. 159. 0. 0. 0. 0. 0.
      0. 0. 45. 162. 228. 230. 226. 226. 230. 235. 239. 242. 245. 247.
      252. 252. 254. 254. 253. 250. 251. 244. 160. 0. 0. 0. 0. 0. 0. 0.
      57. 164. 227. 238. 239. 240. 242. 244. 246. 248. 250. 251. 253.
      253. 254. 254. 252. 250. 251. 215. 135. 0. 0. 0. 0. 0. 0. 0. 93.
      192. 234. 243. 244. 245. 247. 250. 251. 252. 255. 255. 254. 253.
      254. 253. 249. 248. 243. 158. 88. 0. 0. 0. 0. 0. 0. 0. 178. 234.
      245. 247. 249. 249. 250. 251. 252. 254. 254. 253. 253. 254. 253.
      252. 249. 247. 232. 109. 49. 0. 0. 0. 0. 0. 0. 0. 174. 239. 251.
      250. 251. 253. 253. 253. 254. 255. 254. 251. 252. 253. 253. 250.
      248. 248. 204. 95. 43. 0. 0. 0. 0. 0. 0. 0. 118. 203. 237. 247.
      249. 251. 252. 253. 254. 252. 252. 254. 252. 247. 248. 253. 246.
      220. 123. 60. 37. 0. 0. 0. 0. 0. 0. 0. 63. 153. 202. 231. 244.
      248. 250. 251. 253. 246. 244. 251. 252. 250. 248. 241. 208. 160.
      67. 47. 47. 0. 0. 0. 0. 0. 0. 0. 41. 88. 121. 165. 207. 235. 246.
      248. 249. 251. 252. 252. 252. 243. 210. 160. 117. 88. 48. 47. 55.
      0. 0. 0. 0. 0. 0. 0. 47. 53. 51. 74. 128. 183. 213. 225. 230. 236.
      232. 226. 213. 181. 125. 74. 57. 60. 54. 50. 52. 0. 0. 0. 0. 0. 0.
      0. 46. 55. 43. 45. 73. 103. 119. 124. 133. 135. 131. 126. 116. 95.
      68. 47. 47. 57. 57. 49. 46. 0. 0. 0. 0. 0. 0. 0. 0. 0. 0. 0. 0. 0.
      0. 0. 0. 0. 0. 0. 0. 0. 0. 0. 0. 0. 0. 0. 0. 0. 0. 0. 0. 0. 0. 0.
      0. 0. 0. 0. 0. 0. 0. 0. 0. 0. 0. 0. 0. 0. 0. 0. 0. 0. 0. 0. 0. 0.
      0. 0. 0. 0. 0. 0. 0. 0. 0. 0. 0. 0. 0. 0. 0. 0. 0. 0. 0. 0. 0. 0.
      0. 0. 0. 0. 0. 0. 0. 0. 0. 0. 0. 0. 0. 0. 0. 0. 0. 0. 0. 0. 0. 0.
      0. 0. 0. 0. 0. 0. 0. 0. 0. 0. 0. 0. 0. 0. 0. 0. 0. 0. 0. 0. 0. 0.
      0. 0. 0. 0. 0. 0. 0. 0. 0. 0. 0. 0. 0. 0. 0. 0. 0. 0. 0. 0. 0. 0.
      0. 0. 0. 0. 0. 0. 0. 0. 0. 0. 0. 0. 0. 0. 0. 0. 0. 0. 0. 0. 0. 0.
      0. 0. 0. 0. 0. 0. 0. 0.</_>
    <_>
      62. 67. 67. 64. 60. 52. 73. 115. 134. 132. 123. 122. 132. 105. 52.
      37. 45. 45. 48. 49. 44. 46. 0. 0. 0. 0. 0. 0. 70. 65. 58. 65. 74.
      78. 123. 190. 221. 211. 210. 228. 229. 199. 96. 39. 38. 40. 42.
      46. 46. 48. 0. 0. 0. 0. 0. 0. 67. 55. 54. 86. 133. 157. 192. 222.
      230. 230. 232. 236. 230. 235. 209. 173. 126. 57. 28. 37. 48. 47.
      0. 0. 0. 0. 0. 0. 55. 55. 87. 147. 199. 220. 226. 226. 230. 236.
      240. 235. 233. 235. 235. 230. 218. 134. 63. 28. 37. 42. 0. 0. 0.
      0. 0. 0. 45. 70. 146. 208. 229. 229. 233. 238. 245. 248. 251. 250.
      252. 248. 242. 242. 243. 221. 145. 40. 24. 34. 0. 0. 0. 0. 0. 0.
      47. 90. 180. 230. 234. 235. 239. 243. 246. 244. 247. 250. 251.
      252. 250. 249. 244. 249. 216. 92. 26. 26. 0. 0. 0. 0. 0. 0. 57.
      115. 197. 235. 240. 248. 252. 253. 254. 254. 253. 253. 252. 251.
      248. 253. 250. 252. 245. 177. 52. 19. 0. 0. 0. 0. 0. 0. 84. 154.
      217. 242. 244. 245. 249. 253. 255. 254. 253. 250. 248. 253. 251.
      254. 255. 252. 249. 233. 99. 12. 0. 0. 0. 0. 0. 0. 137. 212. 232.
      241. 246. 250. 252. 252. 254. 254. 253. 252. 251. 253. 254. 254.
      254. 252. 251. 247. 155. 28. 0. 0. 0. 0. 0. 0. 148. 221. 234. 242.
      246. 252. 254. 253. 254. 254. 253. 253. 253. 253. 254. 254. 253.
      253. 254. 251. 214. 90. 0. 0. 0. 0. 0. 0. 145. 223. 237. 244. 248.
      253. 255. 255. 255. 253. 251. 250. 251. 252. 253. 253. 253. 253.
      253. 253. 242. 144. 0. 0. 0. 0. 0. 0. 134. 220. 239. 246. 249.
      253. 255. 255. 254. 251. 246. 244. 247. 250. 252. 253. 254. 253.
      253. 251. 243. 184. 0. 0. 0. 0. 0. 0. 142. 231. 242. 247. 250.
      253. 255. 253. 251. 246. 239. 236. 240. 247. 250. 251. 253. 254.
      253. 250. 243. 194. 0. 0. 0. 0. 0. 0. 149. 234. 239. 247. 249.
      254. 254. 252. 248. 241. 231. 226. 233. 242. 247. 249. 253. 254.
      254. 250. 243. 202. 0. 0. 0. 0. 0. 0. 114. 230. 241. 249. 251.
      254. 254. 250. 246. 236. 224. 220. 228. 240. 245. 248. 252. 253.
      253. 251. 248. 201. 0. 0. 0. 0. 0. 0. 59. 197. 242. 250. 251. 254.
      254. 249. 245. 233. 219. 216. 226. 237. 242. 246. 250. 252. 252.
      250. 245. 186. 0. 0. 0. 0. 0. 0. 43. 135. 238. 249. 249. 252. 252.
      248. 244. 233. 217. 213. 222. 236. 242. 246. 250. 252. 251. 248.
      239. 175. 0. 0. 0. 0. 0. 0. 31. 105. 232. 252. 252. 248. 250. 248.
      240. 231. 216. 210. 212. 228. 239. 247. 252. 251. 250. 250. 219.
      124. 0. 0. 0. 0. 0. 0. 25. 65. 158. 234. 250. 242. 246. 246. 229.
      220. 217. 215. 212. 220. 233. 244. 250. 252. 253. 241. 171. 68. 0.
      0. 0. 0. 0. 0. 35. 42. 83. 192. 246. 244. 243. 241. 224. 213. 207.
      212. 212. 220. 231. 239. 242. 246. 249. 221. 122. 27. 0. 0. 0. 0.
      0. 0. 42. 33. 46. 139. 232. 246. 241. 237. 224. 218. 208. 212.
      215. 225. 230. 233. 237. 245. 243. 193. 83. 18. 0. 0. 0. 0. 0. 0.
      37. 31. 33. 81. 178. 229. 235. 228. 216. 216. 214. 217. 222. 226.
      220. 217. 228. 238. 215. 138. 53. 24. 0. 0. 0. 0. 0. 0. 36. 42.
      34. 39. 107. 188. 213. 210. 211. 212. 219. 221. 226. 229. 226.
      214. 213. 205. 147. 73. 35. 31. 0. 0. 0. 0. 0. 0. 36. 46. 42. 36.
      55. 126. 147. 153. 203. 216. 216. 219. 226. 225. 224. 185. 149.
      133. 75. 39. 36. 39. 0. 0. 0. 0. 0. 0. 39. 27. 36. 45. 35. 63. 54.
      70. 163. 207. 203. 202. 199. 192. 189. 120. 68. 62. 44. 40. 40.
      42. 0. 0. 0. 0. 0. 0. 63. 23. 27. 41. 42. 38. 36. 50. 79. 109.
      121. 118. 110. 108. 108. 72. 40. 38. 42. 44. 42. 39. 0. 0. 0. 0.
      0. 0. 0. 0. 0. 0. 0. 0. 0. 0. 0. 0. 0. 0. 0. 0. 0. 0. 0. 0. 0. 0.
      0. 0. 0. 0. 0. 0. 0. 0. 0. 0. 0. 0. 0. 0. 0. 0. 0. 0. 0. 0. 0. 0.
      0. 0. 0. 0. 0. 0. 0. 0. 0. 0. 0. 0. 0. 0.</_>
    <_>
      57. 66. 64. 52. 49. 36. 59. 113. 141. 140. 141. 141. 129. 110.
      119. 159. 154. 90. 25. 30. 51. 59. 48. 46. 0. 0. 0. 0. 51. 55. 54.
      60. 77. 68. 112. 185. 211. 210. 210. 210. 209. 188. 148. 123. 98.
      57. 35. 34. 50. 56. 50. 49. 0. 0. 0. 0. 69. 52. 33. 71. 141. 172.
      192. 223. 231. 234. 237. 237. 240. 234. 210. 182. 150. 102. 59.
      49. 51. 57. 54. 51. 0. 0. 0. 0. 68. 42. 60. 142. 210. 226. 230.
      238. 239. 242. 245. 244. 245. 245. 247. 242. 228. 181. 107. 64.
      44. 50. 54. 52. 0. 0. 0. 0. 58. 52. 118. 208. 232. 237. 237. 243.
      245. 248. 249. 249. 249. 250. 252. 252. 252. 238. 187. 110. 52.
      41. 48. 53. 0. 0. 0. 0. 45. 57. 155. 236. 237. 243. 243. 248. 249.
      251. 252. 251. 251. 253. 254. 252. 250. 247. 228. 171. 98. 46. 41.
      55. 0. 0. 0. 0. 42. 83. 182. 240. 237. 246. 247. 253. 253. 255.
      255. 254. 254. 254. 254. 253. 247. 247. 249. 224. 153. 69. 33. 42.
      0. 0. 0. 0. 67. 146. 218. 238. 238. 247. 248. 254. 254. 255. 255.
      254. 253. 252. 253. 253. 249. 247. 249. 244. 206. 122. 46. 29. 0.
      0. 0. 0. 93. 194. 236. 236. 240. 247. 248. 254. 254. 255. 255.
      253. 253. 253. 252. 254. 255. 251. 252. 252. 240. 175. 76. 30. 0.
      0. 0. 0. 103. 204. 236. 236. 243. 249. 250. 254. 254. 255. 255.
      253. 253. 252. 250. 252. 254. 254. 252. 248. 248. 199. 101. 37. 0.
      0. 0. 0. 100. 200. 239. 240. 245. 252. 252. 254. 254. 255. 255.
      252. 252. 251. 251. 251. 252. 253. 252. 248. 248. 220. 139. 58. 0.
      0. 0. 0. 103. 203. 240. 246. 247. 253. 253. 253. 253. 254. 254.
      252. 251. 247. 251. 253. 248. 251. 253. 251. 252. 245. 183. 86. 0.
      0. 0. 0. 107. 203. 239. 247. 249. 254. 254. 252. 251. 249. 250.
      252. 246. 245. 245. 249. 251. 253. 254. 252. 252. 250. 200. 102.
      0. 0. 0. 0. 102. 199. 242. 245. 248. 254. 254. 252. 251. 249. 250.
      251. 244. 244. 244. 248. 251. 253. 254. 253. 253. 251. 206. 110.
      0. 0. 0. 0. 86. 181. 238. 247. 249. 254. 254. 253. 252. 251. 251.
      248. 242. 240. 240. 244. 247. 251. 251. 250. 251. 248. 208. 115.
      0. 0. 0. 0. 56. 132. 217. 246. 248. 253. 254. 253. 252. 251. 250.
      245. 237. 233. 234. 240. 246. 249. 249. 248. 248. 245. 210. 115.
      0. 0. 0. 0. 35. 74. 182. 243. 245. 249. 252. 255. 254. 252. 250.
      242. 234. 229. 230. 236. 241. 242. 241. 239. 238. 241. 209. 107.
      0. 0. 0. 0. 39. 50. 160. 237. 245. 247. 251. 254. 254. 252. 249.
      240. 232. 226. 228. 234. 238. 239. 235. 230. 229. 235. 192. 88. 0.
      0. 0. 0. 49. 42. 113. 195. 234. 241. 247. 254. 253. 252. 247. 238.
      231. 225. 225. 229. 231. 231. 229. 226. 224. 214. 146. 61. 0. 0.
      0. 0. 50. 33. 54. 128. 204. 239. 247. 253. 253. 252. 247. 238.
      231. 226. 225. 227. 227. 228. 225. 224. 225. 182. 89. 37. 0. 0. 0.
      0. 60. 49. 46. 53. 105. 182. 230. 243. 242. 243. 243. 239. 234.
      226. 184. 124. 120. 168. 224. 224. 226. 156. 57. 28. 0. 0. 0. 0.
      58. 58. 48. 36. 42. 103. 187. 235. 238. 223. 203. 196. 192. 168.
      104. 42. 47. 126. 232. 228. 206. 117. 43. 31. 0. 0. 0. 0. 51. 58.
      55. 43. 22. 41. 122. 206. 221. 160. 93. 81. 93. 78. 44. 39. 60.
      122. 218. 211. 143. 59. 28. 35. 0. 0. 0. 0. 47. 55. 58. 53. 49.
      36. 68. 135. 151. 95. 37. 34. 43. 26. 43. 115. 136. 134. 142. 131.
      64. 25. 28. 42. 0. 0. 0. 0. 0. 0. 0. 0. 0. 0. 0. 0. 0. 0. 0. 0. 0.
      0. 0. 0. 0. 0. 0. 0. 0. 0. 0. 0. 0. 0. 0. 0. 0. 0. 0. 0. 0. 0. 0.
      0. 0. 0. 0. 0. 0. 0. 0. 0. 0. 0. 0. 0. 0. 0. 0. 0. 0. 0. 0. 0. 0.
      0. 0. 0. 0. 0. 0. 0. 0. 0. 0. 0. 0. 0. 0. 0. 0. 0. 0. 0. 0. 0. 0.
      0. 0. 0. 0. 0. 0. 0. 0. 0. 0. 0. 0. 0. 0. 0. 0. 0. 0. 0. 0. 0. 0.
      0. 0. 0. 0. 0. 0. 0. 0. 0. 0. 0.</_>
    <_>
      126. 54. 39. 64. 66. 64. 96. 164. 169. 176. 184. 185. 184. 156.
      85. 43. 67. 71. 64. 63. 61. 50. 42. 0. 0. 0. 0. 0. 100. 51. 40.
      70. 91. 106. 155. 229. 231. 230. 228. 227. 231. 219. 147. 91. 104.
      60. 56. 63. 59. 48. 55. 0. 0. 0. 0. 0. 56. 41. 58. 122. 183. 206.
      220. 221. 224. 225. 226. 229. 230. 229. 213. 197. 190. 95. 47. 51.
      47. 56. 55. 0. 0. 0. 0. 0. 44. 59. 117. 190. 226. 224. 224. 222.
      223. 227. 228. 232. 233. 234. 234. 233. 229. 182. 82. 38. 41. 63.
      44. 0. 0. 0. 0. 0. 34. 83. 172. 228. 236. 230. 231. 235. 235. 238.
      240. 243. 245. 246. 246. 246. 244. 230. 136. 38. 37. 56. 47. 0. 0.
      0. 0. 0. 41. 104. 196. 233. 232. 227. 233. 240. 240. 243. 245.
      247. 248. 250. 250. 251. 250. 240. 184. 69. 35. 43. 53. 0. 0. 0.
      0. 0. 64. 142. 215. 231. 234. 236. 240. 243. 244. 249. 250. 251.
      251. 253. 252. 251. 251. 248. 227. 143. 85. 57. 35. 0. 0. 0. 0. 0.
      112. 199. 230. 228. 232. 238. 242. 244. 246. 250. 251. 252. 253.
      254. 254. 253. 251. 248. 249. 222. 185. 130. 43. 0. 0. 0. 0. 0.
      147. 220. 230. 223. 233. 240. 245. 248. 250. 251. 252. 253. 253.
      254. 255. 254. 252. 247. 251. 247. 239. 204. 112. 0. 0. 0. 0. 0.
      141. 217. 225. 230. 241. 244. 246. 249. 251. 253. 253. 254. 254.
      254. 254. 254. 254. 252. 249. 244. 237. 225. 187. 0. 0. 0. 0. 0.
      153. 223. 235. 236. 244. 246. 247. 248. 251. 253. 253. 253. 254.
      254. 254. 253. 254. 253. 249. 244. 234. 214. 186. 0. 0. 0. 0. 0.
      141. 225. 232. 238. 243. 245. 248. 250. 251. 252. 252. 253. 253.
      253. 253. 252. 252. 252. 250. 236. 188. 128. 97. 0. 0. 0. 0. 0.
      142. 227. 231. 239. 243. 245. 251. 253. 253. 252. 253. 254. 253.
      253. 251. 250. 247. 247. 249. 214. 110. 26. 34. 0. 0. 0. 0. 0.
      136. 222. 233. 237. 243. 247. 252. 253. 253. 253. 254. 253. 253.
      251. 248. 244. 238. 235. 237. 196. 90. 23. 43. 0. 0. 0. 0. 0. 93.
      168. 233. 235. 246. 248. 250. 252. 253. 253. 251. 249. 246. 242.
      238. 235. 234. 235. 209. 138. 59. 39. 62. 0. 0. 0. 0. 0. 51. 104.
      232. 236. 248. 249. 245. 251. 253. 252. 247. 243. 237. 233. 229.
      226. 229. 230. 167. 74. 32. 34. 52. 0. 0. 0. 0. 0. 33. 61. 206.
      237. 248. 248. 245. 251. 253. 252. 249. 245. 240. 236. 232. 230.
      230. 224. 139. 49. 37. 44. 52. 0. 0. 0. 0. 0. 32. 40. 154. 231.
      245. 247. 249. 251. 252. 253. 251. 250. 247. 245. 242. 241. 236.
      216. 129. 52. 34. 35. 51. 0. 0. 0. 0. 0. 41. 26. 84. 175. 229.
      244. 248. 249. 252. 253. 251. 252. 250. 247. 245. 243. 236. 214.
      161. 111. 62. 35. 47. 0. 0. 0. 0. 0. 53. 41. 39. 82. 158. 223.
      246. 245. 251. 254. 251. 252. 253. 247. 246. 240. 234. 228. 223.
      195. 129. 84. 75. 0. 0. 0. 0. 0. 52. 59. 43. 29. 74. 170. 232.
      243. 248. 253. 252. 251. 251. 252. 248. 228. 220. 225. 229. 223.
      213. 206. 167. 0. 0. 0. 0. 0. 48. 56. 55. 37. 36. 92. 184. 247.
      251. 252. 251. 254. 255. 240. 244. 246. 228. 225. 219. 207. 217.
      229. 187. 0. 0. 0. 0. 0. 50. 48. 56. 53. 31. 38. 121. 217. 242.
      249. 238. 252. 254. 255. 253. 252. 236. 228. 219. 220. 228. 209.
      140. 0. 0. 0. 0. 0. 48. 47. 51. 53. 43. 38. 61. 107. 185. 235.
      245. 245. 246. 248. 249. 239. 231. 229. 223. 227. 224. 162. 77. 0.
      0. 0. 0. 0. 51. 50. 50. 53. 55. 50. 40. 39. 95. 160. 201. 229.
      245. 243. 245. 244. 232. 231. 186. 139. 118. 80. 38. 0. 0. 0. 0.
      0. 52. 49. 47. 48. 48. 50. 53. 53. 42. 45. 62. 142. 216. 216. 200.
      202. 210. 197. 121. 50. 40. 48. 42. 0. 0. 0. 0. 0. 45. 47. 51. 55.
      54. 52. 51. 52. 54. 53. 40. 70. 110. 101. 90. 103. 104. 109. 70.
      35. 45. 56. 51. 0. 0. 0. 0. 0. 0. 0. 0. 0. 0. 0. 0. 0. 0. 0. 0. 0.
      0. 0. 0. 0. 0. 0. 0. 0. 0. 0. 0. 0. 0. 0. 0. 0.</_>
    <_>
      53. 57. 57. 57. 61. 51. 81. 116. 119. 124. 130. 127. 120. 100. 75.
      60. 60. 57. 50. 47. 49. 46. 45. 43. 0. 0. 0. 0. 63. 64. 60. 69.
      100. 108. 159. 210. 220. 222. 225. 217. 208. 179. 129. 90. 72. 63.
      56. 55. 55. 46. 47. 45. 0. 0. 0. 0. 73. 63. 70. 110. 177. 181.
      212. 228. 229. 227. 229. 228. 230. 224. 204. 169. 126. 84. 56. 50.
      52. 46. 48. 45. 0. 0. 0. 0. 79. 80. 117. 182. 224. 224. 230. 231.
      237. 239. 244. 245. 239. 241. 242. 231. 198. 142. 90. 57. 46. 46.
      49. 45. 0. 0. 0. 0. 84. 102. 160. 220. 226. 229. 232. 232. 241.
      243. 246. 247. 247. 247. 244. 244. 235. 208. 157. 87. 46. 46. 49.
      45. 0. 0. 0. 0. 78. 114. 201. 228. 238. 240. 246. 247. 252. 252.
      253. 252. 251. 250. 249. 249. 245. 241. 212. 140. 67. 40. 43. 43.
      0. 0. 0. 0. 91. 142. 210. 230. 239. 242. 247. 249. 254. 254. 254.
      254. 254. 252. 252. 252. 249. 249. 238. 194. 114. 48. 39. 39. 0.
      0. 0. 0. 125. 185. 224. 234. 242. 244. 249. 250. 254. 254. 254.
      254. 254. 253. 252. 252. 251. 251. 248. 230. 169. 84. 48. 36. 0.
      0. 0. 0. 157. 217. 229. 235. 244. 246. 250. 250. 254. 254. 254.
      253. 252. 254. 253. 252. 252. 250. 248. 246. 213. 134. 65. 36. 0.
      0. 0. 0. 164. 227. 234. 239. 248. 249. 251. 252. 253. 253. 252.
      251. 245. 250. 251. 251. 252. 250. 248. 250. 236. 176. 88. 41. 0.
      0. 0. 0. 162. 227. 236. 242. 249. 250. 252. 252. 252. 252. 249.
      247. 242. 247. 249. 249. 251. 252. 253. 254. 249. 204. 118. 55. 0.
      0. 0. 0. 163. 229. 240. 247. 252. 251. 252. 252. 251. 250. 246.
      245. 241. 242. 245. 246. 247. 250. 253. 251. 248. 220. 149. 72. 0.
      0. 0. 0. 164. 227. 240. 247. 253. 252. 252. 252. 250. 249. 244.
      242. 237. 229. 238. 244. 244. 247. 252. 248. 246. 233. 174. 88. 0.
      0. 0. 0. 173. 233. 241. 246. 251. 251. 251. 251. 250. 248. 243.
      240. 232. 218. 232. 241. 245. 247. 251. 250. 247. 238. 188. 96. 0.
      0. 0. 0. 157. 224. 243. 246. 249. 250. 251. 250. 249. 248. 243.
      239. 231. 219. 228. 229. 239. 240. 245. 247. 248. 239. 183. 92. 0.
      0. 0. 0. 114. 191. 233. 244. 248. 251. 252. 251. 250. 248. 243.
      239. 228. 225. 228. 221. 232. 234. 243. 248. 246. 234. 178. 89. 0.
      0. 0. 0. 79. 154. 216. 239. 246. 251. 253. 253. 252. 250. 243.
      237. 223. 224. 226. 224. 230. 230. 232. 225. 229. 233. 184. 94. 0.
      0. 0. 0. 69. 124. 196. 234. 244. 249. 251. 251. 251. 249. 241.
      234. 230. 226. 220. 220. 227. 229. 229. 221. 220. 223. 173. 86. 0.
      0. 0. 0. 71. 95. 157. 216. 238. 245. 247. 247. 249. 247. 241. 232.
      226. 224. 220. 223. 223. 223. 220. 218. 215. 192. 127. 61. 0. 0.
      0. 0. 68. 67. 99. 168. 212. 234. 243. 245. 247. 246. 241. 233.
      222. 225. 218. 220. 210. 214. 210. 212. 218. 162. 82. 43. 0. 0. 0.
      0. 69. 57. 59. 100. 153. 205. 232. 240. 243. 239. 233. 227. 227.
      201. 145. 114. 117. 180. 213. 223. 216. 130. 52. 35. 0. 0. 0. 0.
      68. 58. 51. 49. 89. 158. 211. 236. 235. 221. 208. 203. 191. 142.
      59. 30. 50. 164. 218. 225. 185. 94. 37. 35. 0. 0. 0. 0. 54. 51.
      51. 38. 38. 68. 142. 212. 201. 124. 65. 62. 70. 50. 26. 15. 36.
      161. 230. 196. 105. 50. 35. 43. 0. 0. 0. 0. 51. 53. 56. 41. 27.
      35. 82. 127. 111. 61. 36. 44. 48. 33. 19. 34. 102. 183. 225. 130.
      52. 31. 37. 48. 0. 0. 0. 0. 67. 68. 62. 58. 44. 40. 56. 69. 61.
      45. 42. 48. 42. 27. 19. 72. 204. 230. 223. 71. 26. 28. 41. 47. 0.
      0. 0. 0. 101. 79. 50. 48. 50. 53. 48. 43. 45. 50. 50. 49. 44. 24.
      17. 86. 243. 246. 200. 39. 13. 31. 44. 43. 0. 0. 0. 0. 123. 93.
      67. 37. 37. 45. 46. 42. 44. 49. 44. 43. 41. 25. 15. 65. 186. 195.
      130. 22. 15. 37. 45. 39. 0. 0. 0. 0. 0. 0. 0. 0. 0. 0. 0. 0. 0. 0.
      0. 0. 0. 0. 0. 0. 0. 0. 0. 0. 0. 0. 0. 0. 0. 0. 0. 0.</_>
    <_>
      60. 60. 59. 54. 45. 58. 90. 113. 125. 122. 126. 126. 103. 64. 36.
      36. 46. 47. 46. 43. 41. 39. 38. 0. 0. 0. 0. 0. 56. 44. 52. 68. 62.
      96. 188. 223. 225. 221. 220. 210. 192. 151. 101. 60. 36. 33. 45.
      46. 40. 40. 40. 0. 0. 0. 0. 0. 49. 32. 73. 152. 172. 193. 221.
      228. 230. 232. 234. 233. 229. 216. 187. 144. 91. 42. 32. 34. 41.
      45. 41. 0. 0. 0. 0. 0. 39. 52. 128. 214. 227. 229. 231. 235. 240.
      243. 243. 243. 243. 242. 236. 221. 181. 101. 32. 15. 42. 49. 39.
      0. 0. 0. 0. 0. 40. 100. 204. 231. 230. 231. 234. 239. 246. 248.
      247. 247. 247. 248. 247. 246. 231. 177. 86. 22. 19. 35. 36. 0. 0.
      0. 0. 0. 46. 129. 233. 230. 242. 243. 247. 245. 250. 252. 252.
      251. 251. 251. 250. 249. 247. 234. 175. 77. 14. 21. 34. 0. 0. 0.
      0. 0. 73. 157. 232. 229. 243. 242. 249. 248. 252. 254. 253. 253.
      253. 253. 254. 253. 252. 251. 232. 154. 55. 19. 27. 0. 0. 0. 0. 0.
      147. 211. 235. 236. 244. 244. 253. 253. 253. 254. 253. 253. 252.
      252. 253. 253. 252. 250. 248. 216. 119. 23. 16. 0. 0. 0. 0. 0.
      184. 231. 233. 240. 245. 247. 251. 252. 252. 252. 253. 254. 254.
      254. 254. 254. 253. 249. 246. 237. 168. 53. 14. 0. 0. 0. 0. 0.
      190. 238. 241. 241. 241. 250. 252. 253. 252. 252. 252. 253. 253.
      253. 254. 253. 253. 251. 250. 246. 201. 94. 22. 0. 0. 0. 0. 0.
      194. 241. 244. 245. 246. 251. 253. 252. 255. 255. 252. 251. 250.
      249. 251. 252. 253. 254. 252. 252. 233. 159. 61. 0. 0. 0. 0. 0.
      191. 241. 244. 247. 251. 251. 252. 248. 253. 253. 250. 248. 246.
      246. 249. 252. 254. 253. 251. 251. 245. 193. 91. 0. 0. 0. 0. 0.
      188. 241. 243. 247. 251. 250. 253. 251. 253. 253. 248. 242. 237.
      238. 244. 249. 252. 253. 253. 250. 247. 208. 108. 0. 0. 0. 0. 0.
      184. 241. 244. 246. 251. 250. 254. 254. 252. 251. 246. 237. 229.
      230. 240. 247. 250. 252. 254. 247. 243. 211. 111. 0. 0. 0. 0. 0.
      156. 229. 246. 247. 251. 250. 254. 252. 251. 250. 243. 233. 224.
      225. 234. 241. 245. 247. 250. 245. 243. 211. 111. 0. 0. 0. 0. 0.
      111. 194. 241. 247. 251. 252. 253. 250. 250. 248. 241. 231. 223.
      224. 232. 237. 243. 243. 245. 244. 244. 212. 108. 0. 0. 0. 0. 0.
      73. 163. 233. 245. 249. 250. 252. 251. 248. 245. 236. 228. 222.
      222. 226. 229. 235. 235. 235. 237. 240. 203. 104. 0. 0. 0. 0. 0.
      56. 133. 213. 242. 248. 248. 249. 251. 247. 242. 234. 226. 221.
      221. 223. 225. 230. 229. 224. 226. 223. 174. 86. 0. 0. 0. 0. 0.
      48. 87. 162. 221. 241. 245. 247. 248. 249. 241. 227. 226. 224.
      222. 221. 223. 227. 222. 221. 221. 190. 126. 59. 0. 0. 0. 0. 0.
      46. 47. 91. 162. 218. 244. 250. 246. 241. 246. 231. 227. 227. 201.
      175. 183. 200. 212. 219. 223. 156. 69. 32. 0. 0. 0. 0. 0. 53. 43.
      45. 88. 162. 218. 232. 231. 231. 232. 221. 216. 206. 148. 96. 105.
      156. 211. 222. 219. 149. 57. 33. 0. 0. 0. 0. 0. 51. 48. 38. 43.
      93. 169. 218. 232. 209. 169. 161. 165. 145. 85. 45. 46. 131. 216.
      221. 184. 103. 42. 36. 0. 0. 0. 0. 0. 44. 42. 39. 33. 37. 89. 170.
      208. 157. 88. 78. 94. 79. 40. 26. 44. 138. 201. 180. 111. 51. 36.
      32. 0. 0. 0. 0. 0. 37. 35. 40. 42. 33. 46. 99. 131. 97. 51. 38.
      53. 51. 20. 22. 93. 179. 178. 98. 47. 35. 40. 27. 0. 0. 0. 0. 0.
      57. 42. 27. 39. 51. 51. 62. 68. 60. 52. 46. 49. 45. 11. 38. 171.
      241. 214. 56. 15. 29. 35. 39. 0. 0. 0. 0. 0. 122. 66. 22. 25. 40.
      44. 49. 53. 49. 50. 49. 45. 38. 9. 40. 179. 243. 212. 49. 7. 22.
      33. 41. 0. 0. 0. 0. 0. 96. 69. 54. 33. 29. 40. 41. 46. 44. 40. 38.
      36. 32. 19. 33. 119. 182. 126. 27. 10. 34. 40. 27. 0. 0. 0. 0. 0.
      0. 0. 0. 0. 0. 0. 0. 0. 0. 0. 0. 0. 0. 0. 0. 0. 0. 0. 0. 0. 0. 0.
      0. 0. 0. 0. 0. 0.</_></support_vectors>
  <decision_functions>
    <_>
      <sv_count>18</sv_count>
      <rho>-3.0578482660239099e+00</rho>
      <alpha>
        1.6039539193615804e-32 5.0127095935888044e-30
        1.1027431647880680e-29 1.8770779633432707e-30
        2.6264717552671778e-30 1.0225314980755553e-29
        1.0057992986623315e-30 9.8551606923624718e-30
        6.2307916828206040e-29 2.9062546158500968e-30
        2.6495398194271374e-30 1.0186124814649021e-29
        7.7158943831651487e-30 -4.2343985288206015e-29
        -5.8354846920477808e-29 -4.5520290257038189e-30
        -6.1045988808581707e-30 -1.6056275817105860e-29</alpha>
      <index>
        0 1 2 3 4 5 6 7 8 9 10 11 12 13 14 15 16 17</index></_></decision_functions></pacman14>
</opencv_storage>
