<?xml version="1.0"?>
<opencv_storage>
<pacman19 type_id="opencv-ml-svm">
  <svm_type>C_SVC</svm_type>
  <kernel><type>POLY</type>
    <degree>4.</degree>
    <gamma>1.</gamma>
    <coef0>0.</coef0></kernel>
  <C>1.</C>
  <term_criteria><epsilon>2.2204460492503131e-16</epsilon>
    <iterations>5000</iterations></term_criteria>
  <var_all>784</var_all>
  <var_count>784</var_count>
  <class_count>2</class_count>
  <class_labels type_id="opencv-matrix">
    <rows>1</rows>
    <cols>2</cols>
    <dt>i</dt>
    <data>
      -1 1</data></class_labels>
  <sv_total>21</sv_total>
  <support_vectors>
    <_>
      72. 16. 36. 54. 51. 48. 44. 32. 55. 117. 176. 192. 187. 184. 162.
      63. 16. 31. 54. 51. 53. 44. 32. 11. 0. 0. 0. 0. 74. 20. 36. 50.
      45. 41. 41. 50. 94. 176. 232. 240. 238. 236. 210. 117. 37. 32. 45.
      39. 53. 49. 24. 16. 0. 0. 0. 0. 71. 20. 28. 35. 42. 61. 81. 110.
      154. 213. 239. 242. 243. 249. 239. 186. 103. 87. 78. 41. 33. 33.
      27. 23. 0. 0. 0. 0. 64. 17. 22. 42. 84. 123. 139. 148. 185. 221.
      240. 249. 250. 248. 241. 211. 152. 152. 149. 97. 44. 22. 21. 25.
      0. 0. 0. 0. 63. 21. 35. 94. 160. 193. 186. 186. 213. 234. 243.
      252. 250. 246. 239. 218. 189. 196. 210. 183. 112. 37. 13. 26. 0.
      0. 0. 0. 54. 26. 64. 157. 221. 226. 219. 222. 226. 234. 242. 251.
      251. 250. 244. 233. 226. 219. 225. 225. 178. 71. 16. 27. 0. 0. 0.
      0. 39. 28. 97. 196. 238. 237. 238. 242. 245. 247. 248. 249. 249.
      250. 250. 247. 243. 239. 238. 242. 224. 143. 23. 22. 0. 0. 0. 0.
      26. 30. 123. 218. 243. 244. 245. 246. 248. 249. 250. 250. 250.
      250. 249. 248. 249. 248. 247. 248. 242. 165. 30. 20. 0. 0. 0. 0.
      21. 39. 157. 235. 248. 250. 253. 253. 254. 254. 254. 255. 254.
      254. 252. 252. 253. 252. 252. 252. 246. 172. 44. 19. 0. 0. 0. 0.
      24. 62. 187. 243. 244. 248. 252. 253. 254. 254. 254. 254. 254.
      253. 253. 254. 254. 254. 253. 253. 248. 193. 77. 20. 0. 0. 0. 0.
      30. 105. 216. 247. 246. 248. 252. 253. 253. 253. 253. 253. 254.
      253. 254. 253. 252. 253. 253. 251. 251. 225. 135. 41. 0. 0. 0. 0.
      46. 158. 238. 249. 248. 249. 252. 253. 254. 254. 254. 254. 254.
      254. 254. 252. 252. 253. 254. 251. 251. 248. 186. 70. 0. 0. 0. 0.
      62. 209. 249. 253. 251. 253. 254. 253. 253. 253. 253. 253. 253.
      253. 253. 253. 253. 253. 253. 249. 249. 251. 203. 90. 0. 0. 0. 0.
      67. 231. 247. 249. 252. 253. 254. 253. 253. 252. 253. 253. 252.
      253. 250. 252. 253. 251. 252. 250. 250. 251. 212. 99. 0. 0. 0. 0.
      64. 226. 249. 249. 250. 251. 250. 251. 252. 251. 252. 253. 253.
      252. 250. 251. 252. 252. 252. 252. 253. 253. 221. 96. 0. 0. 0. 0.
      70. 224. 246. 248. 251. 251. 251. 251. 251. 250. 250. 252. 253.
      253. 252. 252. 254. 253. 253. 252. 252. 253. 224. 99. 0. 0. 0. 0.
      72. 215. 250. 252. 253. 252. 254. 254. 253. 254. 252. 252. 254.
      254. 252. 253. 252. 252. 253. 253. 252. 251. 229. 103. 0. 0. 0. 0.
      64. 203. 252. 252. 253. 246. 254. 252. 253. 255. 254. 254. 253.
      254. 251. 254. 252. 253. 254. 255. 250. 250. 236. 104. 0. 0. 0. 0.
      60. 194. 250. 247. 252. 252. 254. 252. 252. 254. 254. 254. 252.
      252. 252. 253. 252. 252. 253. 253. 251. 252. 242. 110. 0. 0. 0. 0.
      63. 186. 248. 247. 253. 253. 254. 254. 253. 253. 253. 254. 252.
      251. 252. 249. 250. 250. 250. 249. 249. 250. 245. 115. 0. 0. 0. 0.
      60. 176. 248. 247. 238. 222. 239. 249. 251. 251. 252. 253. 253.
      253. 252. 245. 250. 251. 234. 231. 243. 247. 245. 111. 0. 0. 0. 0.
      56. 172. 248. 236. 189. 150. 208. 238. 250. 250. 250. 253. 254.
      252. 252. 247. 250. 233. 167. 160. 212. 238. 244. 111. 0. 0. 0. 0.
      55. 166. 236. 183. 89. 65. 137. 208. 248. 248. 247. 252. 252. 251.
      252. 248. 236. 164. 62. 57. 149. 230. 243. 110. 0. 0. 0. 0. 50.
      128. 166. 116. 50. 36. 73. 149. 209. 222. 223. 224. 222. 223. 223.
      216. 181. 71. 27. 37. 64. 192. 202. 63. 0. 0. 0. 0. 47. 82. 97.
      73. 54. 50. 52. 88. 123. 141. 141. 140. 143. 142. 139. 121. 94.
      42. 46. 66. 59. 115. 104. 34. 0. 0. 0. 0. 0. 0. 0. 0. 0. 0. 0. 0.
      0. 0. 0. 0. 0. 0. 0. 0. 0. 0. 0. 0. 0. 0. 0. 0. 0. 0. 0. 0. 0. 0.
      0. 0. 0. 0. 0. 0. 0. 0. 0. 0. 0. 0. 0. 0. 0. 0. 0. 0. 0. 0. 0. 0.
      0. 0. 0. 0. 0. 0. 0. 0. 0. 0. 0. 0. 0. 0. 0. 0. 0. 0. 0. 0. 0. 0.
      0. 0. 0. 0. 0. 0. 0. 0. 0. 0.</_>
    <_>
      47. 43. 46. 51. 46. 45. 57. 49. 32. 32. 75. 143. 174. 172. 177.
      166. 113. 42. 28. 40. 47. 51. 49. 49. 0. 0. 0. 0. 47. 43. 48. 52.
      44. 45. 52. 46. 41. 51. 113. 200. 226. 228. 231. 221. 175. 80. 44.
      48. 55. 48. 44. 46. 0. 0. 0. 0. 49. 44. 51. 54. 43. 32. 47. 63.
      88. 104. 157. 224. 235. 243. 247. 240. 213. 133. 94. 90. 75. 44.
      36. 41. 0. 0. 0. 0. 55. 40. 41. 37. 29. 51. 118. 140. 128. 144.
      191. 229. 232. 246. 251. 242. 223. 168. 152. 161. 150. 80. 41. 37.
      0. 0. 0. 0. 59. 52. 47. 29. 40. 130. 194. 203. 175. 187. 216. 229.
      233. 250. 253. 243. 232. 204. 186. 194. 213. 172. 84. 37. 0. 0. 0.
      0. 55. 54. 44. 25. 83. 202. 229. 228. 218. 225. 231. 234. 239.
      253. 253. 245. 242. 228. 217. 222. 225. 226. 171. 50. 0. 0. 0. 0.
      53. 57. 38. 28. 125. 233. 238. 234. 234. 239. 238. 238. 244. 253.
      252. 248. 248. 241. 240. 238. 238. 242. 229. 81. 0. 0. 0. 0. 85.
      106. 69. 38. 144. 245. 245. 244. 244. 247. 246. 245. 249. 253.
      252. 250. 250. 246. 246. 243. 242. 243. 231. 107. 0. 0. 0. 0. 156.
      201. 147. 87. 153. 247. 249. 250. 250. 251. 252. 253. 252. 253.
      254. 254. 254. 254. 255. 254. 253. 252. 241. 122. 0. 0. 0. 0. 190.
      242. 214. 161. 188. 248. 250. 252. 251. 251. 253. 254. 252. 251.
      253. 254. 253. 251. 254. 254. 254. 248. 244. 152. 0. 0. 0. 0. 171.
      231. 238. 221. 228. 250. 251. 254. 253. 253. 255. 255. 253. 250.
      252. 255. 252. 250. 253. 254. 253. 249. 249. 239. 0. 0. 0. 0. 81.
      117. 166. 228. 248. 251. 251. 253. 254. 253. 254. 254. 252. 252.
      253. 255. 255. 253. 254. 254. 252. 249. 235. 246. 0. 0. 0. 0. 40.
      44. 107. 215. 250. 251. 252. 253. 253. 254. 254. 254. 254. 254.
      254. 254. 254. 255. 254. 253. 253. 252. 251. 247. 0. 0. 0. 0. 37.
      27. 102. 212. 250. 251. 252. 253. 253. 254. 254. 254. 254. 254.
      254. 254. 254. 255. 255. 254. 253. 252. 250. 247. 0. 0. 0. 0. 35.
      23. 108. 220. 250. 251. 252. 253. 253. 254. 254. 254. 254. 254.
      254. 255. 255. 255. 255. 255. 254. 252. 248. 249. 0. 0. 0. 0. 34.
      24. 116. 219. 249. 251. 252. 253. 253. 254. 254. 254. 254. 254.
      254. 254. 254. 254. 254. 254. 254. 251. 248. 251. 0. 0. 0. 0. 34.
      21. 113. 219. 249. 251. 252. 253. 253. 254. 254. 254. 254. 253.
      254. 254. 254. 254. 254. 254. 253. 252. 250. 251. 0. 0. 0. 0. 36.
      20. 112. 219. 250. 251. 252. 253. 253. 254. 254. 254. 253. 253.
      253. 254. 254. 255. 255. 254. 254. 253. 252. 251. 0. 0. 0. 0. 35.
      22. 116. 215. 249. 251. 252. 253. 253. 254. 254. 254. 252. 249.
      250. 251. 251. 252. 252. 253. 251. 250. 252. 251. 0. 0. 0. 0. 34.
      26. 106. 210. 246. 249. 250. 251. 252. 253. 253. 253. 247. 243.
      244. 247. 249. 251. 252. 252. 248. 247. 252. 251. 0. 0. 0. 0. 33.
      24. 91. 208. 246. 240. 228. 227. 241. 250. 247. 247. 246. 233.
      233. 244. 246. 248. 249. 235. 212. 217. 237. 241. 0. 0. 0. 0. 31.
      14. 80. 204. 244. 214. 159. 152. 211. 244. 243. 244. 242. 235.
      239. 245. 246. 247. 236. 197. 149. 156. 209. 237. 0. 0. 0. 0. 38.
      15. 53. 187. 223. 158. 83. 83. 153. 214. 234. 237. 241. 244. 246.
      246. 246. 245. 210. 147. 85. 89. 162. 222. 0. 0. 0. 0. 32. 22. 42.
      147. 176. 96. 52. 55. 84. 153. 217. 223. 235. 243. 240. 224. 218.
      202. 148. 79. 48. 56. 112. 178. 0. 0. 0. 0. 0. 0. 0. 0. 0. 0. 0.
      0. 0. 0. 0. 0. 0. 0. 0. 0. 0. 0. 0. 0. 0. 0. 0. 0. 0. 0. 0. 0. 0.
      0. 0. 0. 0. 0. 0. 0. 0. 0. 0. 0. 0. 0. 0. 0. 0. 0. 0. 0. 0. 0. 0.
      0. 0. 0. 0. 0. 0. 0. 0. 0. 0. 0. 0. 0. 0. 0. 0. 0. 0. 0. 0. 0. 0.
      0. 0. 0. 0. 0. 0. 0. 0. 0. 0. 0. 0. 0. 0. 0. 0. 0. 0. 0. 0. 0. 0.
      0. 0. 0. 0. 0. 0. 0. 0. 0. 0. 0. 0. 0. 0. 0. 0. 0.</_>
    <_>
      29. 50. 68. 69. 67. 70. 70. 107. 168. 199. 204. 202. 199. 169.
      107. 71. 70. 70. 71. 69. 57. 33. 0. 0. 0. 0. 0. 0. 25. 44. 57. 56.
      69. 111. 152. 186. 222. 238. 242. 245. 246. 230. 182. 142. 113.
      81. 59. 55. 49. 29. 0. 0. 0. 0. 0. 0. 21. 36. 51. 65. 127. 194.
      224. 238. 246. 248. 248. 248. 248. 248. 241. 230. 197. 126. 61.
      42. 48. 35. 0. 0. 0. 0. 0. 0. 18. 35. 72. 122. 190. 234. 243. 250.
      252. 251. 251. 251. 251. 252. 253. 251. 246. 204. 119. 49. 34. 25.
      0. 0. 0. 0. 0. 0. 19. 46. 121. 195. 234. 245. 247. 252. 253. 252.
      252. 252. 252. 253. 253. 251. 248. 240. 201. 115. 39. 20. 0. 0. 0.
      0. 0. 0. 23. 81. 182. 236. 247. 245. 249. 253. 254. 253. 253. 253.
      253. 254. 254. 251. 252. 251. 243. 193. 82. 21. 0. 0. 0. 0. 0. 0.
      25. 119. 230. 249. 248. 249. 252. 254. 254. 253. 253. 254. 254.
      254. 254. 253. 250. 248. 248. 239. 131. 32. 0. 0. 0. 0. 0. 0. 30.
      137. 246. 249. 247. 253. 254. 254. 254. 254. 254. 254. 254. 254.
      254. 254. 239. 248. 251. 244. 143. 39. 0. 0. 0. 0. 0. 0. 47. 153.
      245. 248. 248. 254. 254. 254. 254. 254. 254. 254. 254. 254. 254.
      254. 251. 250. 245. 248. 170. 44. 0. 0. 0. 0. 0. 0. 82. 184. 245.
      250. 249. 254. 254. 253. 253. 253. 253. 254. 254. 254. 254. 254.
      255. 247. 238. 249. 212. 80. 0. 0. 0. 0. 0. 0. 131. 224. 248. 251.
      250. 249. 250. 250. 252. 252. 252. 254. 253. 253. 253. 254. 254.
      250. 251. 249. 238. 156. 0. 0. 0. 0. 0. 0. 158. 247. 251. 251.
      249. 242. 238. 242. 247. 251. 251. 251. 251. 248. 245. 240. 245.
      247. 246. 251. 247. 223. 0. 0. 0. 0. 0. 0. 170. 252. 252. 249.
      244. 235. 224. 231. 241. 248. 250. 251. 250. 245. 238. 221. 233.
      244. 246. 251. 251. 240. 0. 0. 0. 0. 0. 0. 180. 253. 251. 246.
      240. 227. 213. 224. 232. 243. 246. 251. 249. 242. 233. 205. 218.
      231. 236. 247. 247. 244. 0. 0. 0. 0. 0. 0. 180. 252. 250. 246.
      242. 229. 217. 227. 235. 244. 247. 251. 250. 244. 235. 214. 222.
      232. 235. 245. 245. 243. 0. 0. 0. 0. 0. 0. 183. 249. 249. 249.
      247. 239. 232. 235. 241. 248. 250. 253. 253. 249. 244. 237. 239.
      240. 241. 248. 247. 235. 0. 0. 0. 0. 0. 0. 183. 247. 251. 251.
      250. 246. 244. 242. 245. 250. 250. 253. 254. 253. 251. 244. 244.
      242. 243. 249. 248. 233. 0. 0. 0. 0. 0. 0. 185. 247. 253. 253.
      251. 251. 251. 252. 254. 253. 252. 252. 253. 254. 254. 253. 252.
      251. 249. 251. 248. 228. 0. 0. 0. 0. 0. 0. 184. 247. 252. 250.
      248. 250. 251. 251. 253. 253. 252. 251. 253. 254. 254. 255. 255.
      254. 253. 252. 249. 218. 0. 0. 0. 0. 0. 0. 180. 245. 247. 247.
      245. 247. 249. 249. 252. 253. 252. 253. 253. 252. 251. 250. 253.
      252. 251. 250. 249. 214. 0. 0. 0. 0. 0. 0. 183. 239. 238. 227.
      221. 236. 248. 251. 252. 254. 253. 254. 254. 253. 253. 251. 238.
      210. 211. 239. 247. 210. 0. 0. 0. 0. 0. 0. 173. 236. 215. 149.
      127. 187. 237. 244. 247. 249. 251. 252. 250. 249. 250. 242. 197.
      132. 131. 195. 240. 202. 0. 0. 0. 0. 0. 0. 137. 211. 160. 59. 35.
      114. 210. 245. 249. 238. 221. 216. 227. 244. 244. 204. 131. 61.
      51. 124. 211. 186. 0. 0. 0. 0. 0. 0. 92. 144. 79. 32. 25. 43. 136.
      197. 195. 144. 86. 87. 134. 193. 203. 141. 68. 29. 25. 74. 149.
      138. 0. 0. 0. 0. 0. 0. 0. 0. 0. 0. 0. 0. 0. 0. 0. 0. 0. 0. 0. 0.
      0. 0. 0. 0. 0. 0. 0. 0. 0. 0. 0. 0. 0. 0. 0. 0. 0. 0. 0. 0. 0. 0.
      0. 0. 0. 0. 0. 0. 0. 0. 0. 0. 0. 0. 0. 0. 0. 0. 0. 0. 0. 0. 0. 0.
      0. 0. 0. 0. 0. 0. 0. 0. 0. 0. 0. 0. 0. 0. 0. 0. 0. 0. 0. 0. 0. 0.
      0. 0. 0. 0. 0. 0. 0. 0. 0. 0. 0. 0. 0. 0. 0. 0. 0. 0. 0. 0. 0. 0.
      0. 0. 0. 0. 0. 0. 0. 0. 0. 0.</_>
    <_>
      17. 31. 45. 44. 39. 37. 63. 85. 78. 92. 96. 93. 94. 81. 55. 53.
      57. 56. 47. 48. 47. 0. 0. 0. 0. 0. 0. 0. 28. 29. 23. 29. 54. 56.
      79. 132. 141. 142. 133. 145. 140. 103. 86. 85. 77. 47. 33. 53. 58.
      0. 0. 0. 0. 0. 0. 0. 15. 12. 23. 91. 176. 187. 166. 149. 167. 165.
      153. 166. 159. 127. 149. 177. 163. 80. 22. 35. 54. 0. 0. 0. 0. 0.
      0. 0. 18. 15. 74. 166. 230. 236. 199. 145. 146. 159. 162. 165.
      145. 139. 206. 247. 242. 163. 61. 14. 29. 0. 0. 0. 0. 0. 0. 0. 13.
      34. 149. 232. 245. 246. 213. 150. 132. 151. 162. 153. 132. 146.
      229. 245. 246. 234. 144. 28. 23. 0. 0. 0. 0. 0. 0. 0. 13. 73. 192.
      247. 250. 249. 230. 186. 141. 135. 147. 136. 138. 178. 235. 247.
      244. 253. 193. 34. 10. 0. 0. 0. 0. 0. 0. 0. 30. 118. 217. 250.
      251. 252. 245. 218. 158. 123. 133. 124. 160. 225. 242. 251. 247.
      250. 237. 56. 17. 0. 0. 0. 0. 0. 0. 0. 71. 181. 239. 251. 247.
      250. 250. 231. 168. 120. 126. 122. 170. 235. 243. 250. 248. 251.
      251. 165. 76. 0. 0. 0. 0. 0. 0. 0. 113. 217. 248. 251. 246. 249.
      252. 236. 169. 112. 111. 118. 177. 239. 244. 253. 251. 253. 252.
      239. 109. 0. 0. 0. 0. 0. 0. 0. 144. 230. 250. 250. 250. 252. 252.
      238. 175. 116. 99. 121. 194. 239. 246. 253. 252. 248. 241. 245.
      107. 0. 0. 0. 0. 0. 0. 0. 153. 233. 249. 249. 253. 252. 252. 245.
      205. 142. 102. 149. 224. 245. 247. 250. 254. 252. 250. 241. 113.
      0. 0. 0. 0. 0. 0. 0. 150. 233. 248. 249. 253. 251. 249. 252. 237.
      174. 131. 179. 238. 245. 246. 253. 253. 252. 252. 234. 124. 0. 0.
      0. 0. 0. 0. 0. 138. 235. 248. 250. 253. 252. 251. 252. 246. 206.
      187. 215. 245. 249. 248. 253. 251. 248. 250. 228. 122. 0. 0. 0. 0.
      0. 0. 0. 112. 239. 248. 247. 253. 253. 253. 249. 244. 234. 235.
      235. 241. 249. 250. 251. 251. 250. 250. 223. 107. 0. 0. 0. 0. 0.
      0. 0. 80. 218. 246. 242. 252. 252. 251. 248. 250. 251. 252. 251.
      250. 251. 254. 252. 250. 252. 245. 195. 73. 0. 0. 0. 0. 0. 0. 0.
      54. 156. 242. 245. 251. 252. 251. 250. 251. 250. 251. 252. 253.
      253. 254. 251. 247. 248. 219. 137. 39. 0. 0. 0. 0. 0. 0. 0. 35.
      92. 230. 245. 245. 246. 249. 253. 254. 253. 250. 252. 254. 253.
      252. 250. 247. 244. 192. 82. 23. 0. 0. 0. 0. 0. 0. 0. 29. 56. 200.
      242. 247. 237. 251. 254. 254. 254. 253. 254. 254. 251. 250. 249.
      248. 234. 163. 56. 29. 0. 0. 0. 0. 0. 0. 0. 30. 44. 140. 215. 243.
      241. 245. 248. 245. 250. 251. 249. 249. 247. 246. 245. 233. 194.
      114. 42. 35. 0. 0. 0. 0. 0. 0. 0. 35. 36. 70. 145. 225. 228. 235.
      247. 242. 248. 250. 246. 247. 245. 229. 214. 187. 125. 62. 38. 41.
      0. 0. 0. 0. 0. 0. 0. 43. 47. 42. 90. 148. 147. 199. 233. 236. 238.
      240. 238. 241. 232. 176. 142. 118. 72. 42. 46. 50. 0. 0. 0. 0. 0.
      0. 0. 51. 68. 50. 70. 83. 66. 126. 197. 210. 206. 201. 198. 205.
      177. 105. 68. 63. 53. 47. 51. 47. 0. 0. 0. 0. 0. 0. 0. 47. 55. 59.
      64. 67. 63. 83. 125. 146. 142. 136. 133. 139. 113. 69. 50. 53. 60.
      56. 57. 52. 0. 0. 0. 0. 0. 0. 0. 0. 0. 0. 0. 0. 0. 0. 0. 0. 0. 0.
      0. 0. 0. 0. 0. 0. 0. 0. 0. 0. 0. 0. 0. 0. 0. 0. 0. 0. 0. 0. 0. 0.
      0. 0. 0. 0. 0. 0. 0. 0. 0. 0. 0. 0. 0. 0. 0. 0. 0. 0. 0. 0. 0. 0.
      0. 0. 0. 0. 0. 0. 0. 0. 0. 0. 0. 0. 0. 0. 0. 0. 0. 0. 0. 0. 0. 0.
      0. 0. 0. 0. 0. 0. 0. 0. 0. 0. 0. 0. 0. 0. 0. 0. 0. 0. 0. 0. 0. 0.
      0. 0. 0. 0. 0. 0. 0. 0. 0. 0. 0. 0. 0. 0. 0. 0. 0. 0. 0. 0. 0. 0.
      0. 0. 0. 0. 0. 0. 0. 0. 0. 0. 0. 0. 0. 0. 0. 0. 0. 0. 0.</_>
    <_>
      48. 51. 49. 47. 49. 46. 30. 42. 74. 82. 95. 95. 87. 72. 68. 73.
      67. 51. 40. 40. 0. 0. 0. 0. 0. 0. 0. 0. 53. 53. 53. 58. 43. 45.
      45. 59. 130. 169. 184. 202. 219. 225. 209. 183. 132. 81. 48. 39.
      0. 0. 0. 0. 0. 0. 0. 0. 57. 56. 55. 55. 48. 79. 111. 136. 199.
      214. 213. 215. 220. 219. 216. 210. 187. 154. 119. 90. 0. 0. 0. 0.
      0. 0. 0. 0. 58. 55. 45. 47. 83. 154. 194. 206. 218. 215. 219. 219.
      222. 221. 219. 219. 212. 203. 197. 167. 0. 0. 0. 0. 0. 0. 0. 0.
      53. 48. 44. 71. 148. 215. 217. 213. 216. 222. 227. 229. 234. 234.
      230. 227. 219. 213. 224. 200. 0. 0. 0. 0. 0. 0. 0. 0. 45. 46. 76.
      137. 201. 220. 214. 216. 220. 223. 231. 231. 236. 236. 233. 231.
      228. 224. 226. 189. 0. 0. 0. 0. 0. 0. 0. 0. 41. 57. 129. 200. 219.
      216. 221. 233. 240. 236. 241. 239. 236. 237. 236. 235. 237. 239.
      230. 175. 0. 0. 0. 0. 0. 0. 0. 0. 40. 70. 163. 222. 222. 225. 231.
      231. 240. 242. 243. 240. 236. 237. 238. 237. 240. 246. 227. 171.
      0. 0. 0. 0. 0. 0. 0. 0. 41. 68. 165. 225. 221. 226. 239. 238. 239.
      242. 235. 234. 230. 231. 235. 236. 245. 248. 216. 167. 0. 0. 0. 0.
      0. 0. 0. 0. 42. 80. 171. 221. 222. 231. 240. 239. 236. 235. 225.
      223. 222. 224. 231. 235. 250. 248. 199. 163. 0. 0. 0. 0. 0. 0. 0.
      0. 55. 115. 187. 219. 221. 229. 235. 235. 234. 228. 218. 214. 215.
      220. 228. 234. 247. 239. 179. 155. 0. 0. 0. 0. 0. 0. 0. 0. 86.
      167. 209. 219. 222. 227. 232. 233. 234. 228. 220. 213. 214. 218.
      226. 230. 242. 230. 161. 151. 0. 0. 0. 0. 0. 0. 0. 0. 114. 198.
      221. 221. 222. 228. 231. 234. 236. 233. 228. 222. 221. 223. 228.
      231. 237. 221. 155. 152. 0. 0. 0. 0. 0. 0. 0. 0. 121. 205. 220.
      220. 223. 229. 231. 234. 239. 236. 233. 231. 228. 229. 232. 233.
      234. 219. 159. 150. 0. 0. 0. 0. 0. 0. 0. 0. 116. 208. 216. 220.
      224. 230. 232. 235. 239. 237. 236. 233. 231. 231. 232. 233. 235.
      221. 160. 147. 0. 0. 0. 0. 0. 0. 0. 0. 113. 210. 217. 222. 224.
      231. 232. 235. 240. 240. 239. 236. 235. 235. 235. 236. 237. 222.
      158. 147. 0. 0. 0. 0. 0. 0. 0. 0. 119. 212. 221. 221. 221. 229.
      231. 234. 238. 240. 239. 237. 234. 235. 236. 237. 237. 219. 156.
      150. 0. 0. 0. 0. 0. 0. 0. 0. 121. 216. 226. 219. 218. 228. 231.
      232. 233. 235. 236. 234. 232. 235. 234. 236. 240. 216. 150. 145.
      0. 0. 0. 0. 0. 0. 0. 0. 117. 220. 222. 218. 220. 230. 233. 233.
      233. 234. 236. 238. 239. 236. 230. 229. 232. 210. 136. 188. 0. 0.
      0. 0. 0. 0. 0. 0. 114. 222. 215. 213. 218. 229. 234. 232. 228.
      226. 229. 227. 223. 225. 226. 227. 228. 203. 131. 226. 0. 0. 0. 0.
      0. 0. 0. 0. 115. 222. 208. 200. 204. 209. 218. 225. 228. 224. 221.
      210. 201. 207. 217. 222. 217. 186. 130. 216. 0. 0. 0. 0. 0. 0. 0.
      0. 114. 216. 199. 188. 188. 186. 188. 196. 197. 196. 198. 191.
      184. 186. 191. 203. 213. 179. 107. 165. 0. 0. 0. 0. 0. 0. 0. 0.
      108. 213. 191. 179. 176. 163. 169. 189. 193. 193. 193. 181. 170.
      174. 182. 198. 211. 167. 71. 108. 0. 0. 0. 0. 0. 0. 0. 0. 81. 176.
      148. 135. 115. 95. 110. 158. 184. 184. 172. 145. 127. 138. 156.
      170. 165. 120. 45. 66. 0. 0. 0. 0. 0. 0. 0. 0. 48. 76. 65. 78. 72.
      50. 57. 90. 107. 112. 109. 92. 79. 89. 108. 116. 100. 71. 42. 45.
      0. 0. 0. 0. 0. 0. 0. 0. 0. 0. 0. 0. 0. 0. 0. 0. 0. 0. 0. 0. 0. 0.
      0. 0. 0. 0. 0. 0. 0. 0. 0. 0. 0. 0. 0. 0. 0. 0. 0. 0. 0. 0. 0. 0.
      0. 0. 0. 0. 0. 0. 0. 0. 0. 0. 0. 0. 0. 0. 0. 0. 0. 0. 0. 0. 0. 0.
      0. 0. 0. 0. 0. 0. 0. 0. 0. 0. 0. 0. 0. 0. 0. 0. 0. 0. 0. 0. 0. 0.
      0. 0. 0. 0.</_>
    <_>
      51. 53. 52. 54. 47. 48. 42. 34. 98. 181. 192. 188. 185. 154. 60.
      33. 57. 47. 66. 59. 40. 22. 0. 0. 0. 0. 0. 0. 49. 51. 44. 43. 40.
      48. 55. 71. 152. 234. 249. 251. 248. 205. 104. 61. 84. 65. 34. 26.
      62. 20. 0. 0. 0. 0. 0. 0. 51. 45. 26. 35. 68. 89. 103. 124. 195.
      242. 245. 249. 252. 225. 151. 113. 134. 118. 49. 15. 38. 19. 0. 0.
      0. 0. 0. 0. 54. 33. 19. 67. 142. 157. 156. 169. 215. 242. 243.
      247. 251. 232. 189. 164. 182. 185. 130. 52. 14. 17. 0. 0. 0. 0. 0.
      0. 47. 19. 44. 142. 211. 214. 200. 199. 224. 238. 246. 252. 252.
      243. 223. 207. 210. 222. 208. 133. 22. 10. 0. 0. 0. 0. 0. 0. 34.
      15. 94. 213. 234. 235. 231. 231. 236. 239. 243. 249. 251. 247.
      237. 230. 228. 229. 230. 189. 55. 8. 0. 0. 0. 0. 0. 0. 23. 22.
      148. 239. 239. 241. 246. 248. 250. 250. 251. 252. 251. 247. 246.
      247. 246. 245. 246. 212. 88. 8. 0. 0. 0. 0. 0. 0. 16. 22. 177.
      247. 249. 248. 248. 248. 249. 251. 252. 250. 251. 252. 250. 248.
      249. 249. 249. 218. 112. 7. 0. 0. 0. 0. 0. 0. 10. 31. 191. 250.
      253. 253. 254. 254. 254. 254. 254. 254. 253. 254. 253. 250. 250.
      252. 247. 221. 136. 13. 0. 0. 0. 0. 0. 0. 17. 77. 207. 252. 253.
      253. 254. 254. 254. 254. 254. 254. 252. 253. 254. 252. 252. 254.
      250. 234. 162. 45. 0. 0. 0. 0. 0. 0. 43. 156. 234. 252. 253. 253.
      254. 254. 254. 254. 254. 254. 253. 254. 254. 254. 253. 254. 253.
      247. 203. 104. 0. 0. 0. 0. 0. 0. 74. 220. 252. 251. 253. 253. 254.
      254. 254. 254. 254. 254. 254. 254. 254. 254. 254. 253. 253. 253.
      236. 155. 0. 0. 0. 0. 0. 0. 89. 244. 252. 248. 253. 253. 254. 254.
      254. 254. 254. 254. 254. 253. 252. 254. 254. 253. 252. 252. 248.
      170. 0. 0. 0. 0. 0. 0. 94. 237. 252. 250. 253. 253. 254. 254. 254.
      254. 254. 254. 254. 253. 252. 254. 254. 253. 252. 252. 248. 168.
      0. 0. 0. 0. 0. 0. 98. 228. 252. 253. 253. 253. 254. 254. 254. 254.
      254. 254. 254. 253. 253. 254. 254. 254. 253. 253. 247. 165. 0. 0.
      0. 0. 0. 0. 108. 225. 252. 253. 253. 253. 254. 254. 254. 254. 254.
      254. 252. 254. 254. 254. 252. 253. 253. 253. 249. 167. 0. 0. 0. 0.
      0. 0. 98. 229. 253. 252. 251. 252. 253. 251. 253. 248. 248. 252.
      251. 252. 253. 253. 251. 252. 253. 253. 250. 165. 0. 0. 0. 0. 0.
      0. 108. 228. 250. 250. 250. 250. 252. 252. 253. 250. 249. 251.
      250. 250. 252. 252. 252. 251. 251. 252. 248. 165. 0. 0. 0. 0. 0.
      0. 106. 224. 251. 253. 251. 251. 253. 252. 251. 253. 249. 240.
      247. 250. 250. 250. 252. 251. 248. 250. 251. 160. 0. 0. 0. 0. 0.
      0. 107. 221. 253. 244. 234. 249. 254. 254. 250. 242. 227. 212.
      233. 250. 252. 249. 251. 240. 229. 244. 248. 153. 0. 0. 0. 0. 0.
      0. 118. 223. 243. 219. 210. 235. 241. 247. 248. 232. 195. 186.
      212. 247. 251. 245. 237. 215. 208. 238. 250. 159. 0. 0. 0. 0. 0.
      0. 109. 218. 236. 211. 202. 199. 194. 215. 238. 225. 190. 194.
      204. 235. 234. 206. 188. 192. 200. 214. 241. 161. 0. 0. 0. 0. 0.
      0. 76. 166. 203. 212. 194. 145. 121. 146. 188. 192. 195. 215. 185.
      185. 167. 120. 107. 168. 217. 206. 185. 110. 0. 0. 0. 0. 0. 0. 43.
      82. 145. 192. 162. 86. 59. 72. 91. 121. 165. 192. 131. 85. 71. 54.
      44. 131. 204. 190. 98. 47. 0. 0. 0. 0. 0. 0. 37. 49. 87. 123. 106.
      56. 39. 39. 40. 61. 108. 132. 93. 31. 36. 56. 28. 66. 124. 108.
      49. 25. 0. 0. 0. 0. 0. 0. 0. 0. 0. 0. 0. 0. 0. 0. 0. 0. 0. 0. 0.
      0. 0. 0. 0. 0. 0. 0. 0. 0. 0. 0. 0. 0. 0. 0. 0. 0. 0. 0. 0. 0. 0.
      0. 0. 0. 0. 0. 0. 0. 0. 0. 0. 0. 0. 0. 0. 0. 0. 0. 0. 0. 0. 0. 0.
      0. 0. 0. 0. 0. 0. 0. 0. 0. 0. 0. 0. 0. 0. 0. 0. 0. 0. 0. 0. 0. 0.
      0. 0. 0. 0. 0.</_>
    <_>
      48. 53. 55. 54. 55. 59. 58. 54. 114. 160. 174. 173. 167. 137. 79.
      49. 58. 56. 51. 58. 43. 22. 0. 0. 0. 0. 0. 0. 51. 56. 50. 41. 49.
      81. 106. 106. 172. 222. 240. 237. 231. 205. 148. 106. 91. 61. 42.
      53. 46. 25. 0. 0. 0. 0. 0. 0. 57. 59. 40. 31. 59. 130. 190. 197.
      234. 250. 251. 250. 250. 245. 221. 196. 161. 87. 39. 43. 41. 26.
      0. 0. 0. 0. 0. 0. 55. 43. 25. 44. 121. 201. 243. 245. 249. 251.
      251. 250. 252. 249. 246. 245. 223. 163. 83. 37. 25. 18. 0. 0. 0.
      0. 0. 0. 39. 16. 36. 103. 200. 243. 250. 249. 251. 251. 248. 251.
      253. 252. 252. 253. 248. 218. 151. 74. 27. 13. 0. 0. 0. 0. 0. 0.
      29. 20. 82. 177. 248. 251. 251. 250. 252. 251. 247. 252. 251. 253.
      252. 252. 253. 245. 212. 136. 51. 12. 0. 0. 0. 0. 0. 0. 24. 42.
      142. 233. 249. 251. 249. 249. 252. 252. 249. 252. 252. 254. 248.
      251. 254. 253. 243. 188. 81. 11. 0. 0. 0. 0. 0. 0. 16. 50. 171.
      250. 250. 253. 253. 253. 254. 254. 253. 253. 254. 254. 249. 251.
      253. 250. 249. 217. 106. 12. 0. 0. 0. 0. 0. 0. 11. 51. 179. 250.
      250. 253. 253. 253. 253. 254. 254. 253. 254. 254. 252. 253. 253.
      250. 251. 228. 118. 16. 0. 0. 0. 0. 0. 0. 21. 86. 204. 250. 251.
      252. 254. 253. 250. 254. 254. 254. 252. 254. 253. 252. 253. 254.
      254. 233. 138. 32. 0. 0. 0. 0. 0. 0. 46. 138. 240. 249. 253. 251.
      253. 253. 253. 252. 254. 253. 253. 253. 253. 252. 253. 254. 252.
      242. 180. 72. 0. 0. 0. 0. 0. 0. 83. 211. 250. 252. 252. 247. 243.
      244. 245. 246. 253. 253. 253. 252. 247. 246. 247. 248. 248. 251.
      223. 119. 0. 0. 0. 0. 0. 0. 95. 219. 251. 252. 250. 236. 224. 228.
      239. 242. 252. 252. 252. 248. 231. 223. 227. 234. 244. 249. 248.
      155. 0. 0. 0. 0. 0. 0. 107. 226. 252. 249. 240. 216. 198. 206.
      228. 240. 251. 250. 249. 245. 217. 192. 202. 227. 243. 248. 250.
      151. 0. 0. 0. 0. 0. 0. 112. 227. 251. 247. 237. 209. 192. 202.
      226. 239. 249. 249. 247. 246. 212. 179. 191. 226. 244. 246. 251.
      153. 0. 0. 0. 0. 0. 0. 119. 227. 253. 250. 244. 229. 217. 222.
      236. 243. 250. 250. 248. 249. 228. 203. 214. 234. 246. 246. 251.
      153. 0. 0. 0. 0. 0. 0. 121. 228. 254. 252. 248. 245. 240. 242.
      245. 247. 251. 251. 250. 252. 245. 236. 243. 248. 250. 251. 253.
      153. 0. 0. 0. 0. 0. 0. 124. 227. 253. 251. 248. 249. 250. 251.
      249. 248. 250. 251. 251. 252. 250. 249. 249. 248. 248. 251. 253.
      154. 0. 0. 0. 0. 0. 0. 126. 226. 251. 250. 249. 250. 253. 255.
      253. 250. 250. 251. 249. 252. 254. 254. 253. 249. 247. 250. 253.
      157. 0. 0. 0. 0. 0. 0. 122. 225. 251. 249. 248. 249. 251. 252.
      252. 250. 248. 248. 246. 251. 253. 251. 253. 252. 247. 248. 253.
      158. 0. 0. 0. 0. 0. 0. 128. 226. 248. 245. 246. 246. 242. 242.
      248. 247. 242. 244. 246. 247. 247. 247. 242. 246. 246. 245. 248.
      165. 0. 0. 0. 0. 0. 0. 128. 216. 242. 245. 243. 225. 206. 207.
      227. 241. 243. 237. 244. 243. 216. 192. 213. 243. 245. 240. 247.
      153. 0. 0. 0. 0. 0. 0. 86. 168. 224. 246. 225. 160. 111. 112. 151.
      203. 242. 245. 225. 175. 112. 87. 126. 207. 249. 245. 189. 98. 0.
      0. 0. 0. 0. 0. 40. 90. 177. 222. 188. 91. 36. 39. 60. 123. 204.
      229. 166. 73. 36. 28. 50. 139. 221. 213. 91. 32. 0. 0. 0. 0. 0. 0.
      19. 35. 99. 138. 117. 47. 20. 25. 20. 46. 109. 132. 87. 26. 30.
      39. 29. 74. 130. 112. 40. 10. 0. 0. 0. 0. 0. 0. 0. 0. 0. 0. 0. 0.
      0. 0. 0. 0. 0. 0. 0. 0. 0. 0. 0. 0. 0. 0. 0. 0. 0. 0. 0. 0. 0. 0.
      0. 0. 0. 0. 0. 0. 0. 0. 0. 0. 0. 0. 0. 0. 0. 0. 0. 0. 0. 0. 0. 0.
      0. 0. 0. 0. 0. 0. 0. 0. 0. 0. 0. 0. 0. 0. 0. 0. 0. 0. 0. 0. 0. 0.
      0. 0. 0. 0. 0. 0. 0. 0. 0. 0. 0. 0.</_>
    <_>
      29. 29. 50. 51. 66. 74. 56. 59. 106. 167. 195. 196. 197. 178. 123.
      51. 57. 70. 71. 70. 67. 24. 0. 0. 0. 0. 0. 0. 34. 34. 60. 50. 44.
      88. 112. 132. 178. 231. 251. 250. 248. 235. 193. 121. 113. 78. 41.
      57. 56. 27. 0. 0. 0. 0. 0. 0. 50. 41. 46. 42. 52. 146. 203. 222.
      240. 251. 247. 247. 249. 250. 245. 233. 212. 143. 54. 35. 35. 40.
      0. 0. 0. 0. 0. 0. 54. 39. 23. 54. 119. 212. 245. 250. 252. 252.
      246. 246. 252. 253. 251. 252. 249. 221. 129. 53. 16. 33. 0. 0. 0.
      0. 0. 0. 43. 24. 36. 116. 201. 242. 245. 246. 251. 254. 253. 254.
      253. 251. 249. 248. 245. 244. 203. 119. 38. 16. 0. 0. 0. 0. 0. 0.
      37. 11. 90. 198. 237. 245. 251. 252. 252. 253. 250. 247. 250. 253.
      254. 253. 252. 252. 241. 198. 104. 16. 0. 0. 0. 0. 0. 0. 25. 12.
      143. 243. 236. 246. 251. 252. 250. 248. 252. 255. 254. 253. 250.
      251. 253. 251. 249. 234. 151. 19. 0. 0. 0. 0. 0. 0. 18. 18. 153.
      246. 238. 248. 250. 250. 251. 253. 254. 252. 246. 244. 245. 247.
      250. 252. 253. 240. 166. 16. 0. 0. 0. 0. 0. 0. 23. 26. 133. 232.
      231. 243. 247. 248. 251. 254. 250. 228. 215. 225. 238. 245. 250.
      254. 254. 240. 171. 29. 0. 0. 0. 0. 0. 0. 24. 51. 124. 193. 208.
      229. 243. 244. 248. 250. 234. 192. 173. 194. 223. 238. 245. 251.
      251. 245. 196. 76. 0. 0. 0. 0. 0. 0. 40. 116. 165. 182. 195. 226.
      243. 244. 249. 250. 229. 185. 166. 188. 221. 236. 242. 249. 250.
      251. 230. 147. 0. 0. 0. 0. 0. 0. 65. 190. 230. 215. 213. 234. 245.
      249. 252. 252. 241. 215. 203. 217. 234. 239. 245. 250. 251. 253.
      249. 195. 0. 0. 0. 0. 0. 0. 69. 205. 244. 241. 237. 239. 248. 250.
      252. 251. 248. 242. 235. 238. 242. 242. 247. 252. 251. 250. 252.
      201. 0. 0. 0. 0. 0. 0. 59. 196. 248. 251. 251. 250. 251. 251. 253.
      249. 251. 252. 248. 247. 247. 246. 250. 252. 251. 250. 251. 195.
      0. 0. 0. 0. 0. 0. 65. 205. 251. 251. 252. 252. 251. 251. 253. 251.
      253. 252. 251. 252. 251. 252. 252. 252. 250. 250. 251. 191. 0. 0.
      0. 0. 0. 0. 76. 198. 252. 250. 244. 252. 247. 253. 246. 252. 253.
      252. 246. 251. 252. 253. 251. 251. 248. 249. 251. 190. 0. 0. 0. 0.
      0. 0. 70. 191. 253. 252. 251. 251. 251. 253. 249. 249. 251. 251.
      246. 251. 249. 251. 253. 253. 252. 250. 251. 193. 0. 0. 0. 0. 0.
      0. 70. 189. 250. 248. 252. 251. 253. 251. 253. 250. 251. 250. 252.
      249. 245. 250. 250. 249. 247. 250. 254. 188. 0. 0. 0. 0. 0. 0. 72.
      193. 250. 250. 251. 251. 251. 246. 253. 253. 251. 246. 247. 244.
      250. 252. 242. 246. 250. 247. 249. 187. 0. 0. 0. 0. 0. 0. 76. 194.
      250. 236. 215. 226. 249. 247. 250. 241. 210. 196. 203. 248. 248.
      251. 251. 227. 220. 237. 249. 190. 0. 0. 0. 0. 0. 0. 86. 204. 242.
      191. 131. 155. 231. 252. 246. 215. 117. 81. 101. 236. 239. 247.
      245. 147. 116. 200. 241. 191. 0. 0. 0. 0. 0. 0. 90. 198. 204. 122.
      50. 73. 165. 230. 245. 196. 57. 8. 39. 218. 249. 250. 166. 60. 34.
      107. 205. 191. 0. 0. 0. 0. 0. 0. 80. 164. 140. 64. 21. 26. 84.
      174. 224. 170. 48. 15. 49. 186. 239. 210. 68. 26. 20. 36. 143.
      149. 0. 0. 0. 0. 0. 0. 60. 97. 76. 42. 34. 28. 43. 105. 153. 110.
      30. 14. 31. 94. 149. 88. 37. 26. 36. 35. 73. 69. 0. 0. 0. 0. 0. 0.
      0. 0. 0. 0. 0. 0. 0. 0. 0. 0. 0. 0. 0. 0. 0. 0. 0. 0. 0. 0. 0. 0.
      0. 0. 0. 0. 0. 0. 0. 0. 0. 0. 0. 0. 0. 0. 0. 0. 0. 0. 0. 0. 0. 0.
      0. 0. 0. 0. 0. 0. 0. 0. 0. 0. 0. 0. 0. 0. 0. 0. 0. 0. 0. 0. 0. 0.
      0. 0. 0. 0. 0. 0. 0. 0. 0. 0. 0. 0. 0. 0. 0. 0. 0. 0. 0. 0. 0. 0.
      0. 0. 0. 0. 0. 0. 0. 0. 0. 0. 0. 0. 0. 0. 0. 0. 0. 0. 0. 0. 0. 0.
      0. 0.</_>
    <_>
      50. 43. 20. 68. 172. 184. 115. 26. 36. 58. 60. 60. 58. 58. 60. 58.
      54. 44. 43. 77. 93. 102. 110. 0. 0. 0. 0. 0. 49. 47. 17. 79. 224.
      236. 160. 22. 30. 60. 66. 67. 69. 68. 70. 72. 59. 58. 32. 29. 61.
      119. 149. 0. 0. 0. 0. 0. 44. 31. 19. 94. 228. 240. 168. 29. 43.
      83. 92. 92. 99. 93. 91. 93. 67. 63. 54. 46. 53. 72. 81. 0. 0. 0.
      0. 0. 50. 34. 22. 73. 153. 176. 140. 72. 117. 160. 170. 169. 172.
      164. 157. 155. 116. 59. 54. 64. 63. 49. 49. 0. 0. 0. 0. 0. 53. 45.
      28. 42. 86. 117. 133. 160. 212. 235. 243. 243. 246. 241. 235. 234.
      199. 126. 79. 63. 70. 67. 71. 0. 0. 0. 0. 0. 50. 40. 34. 63. 121.
      160. 188. 228. 244. 251. 252. 252. 253. 252. 251. 249. 249. 213.
      188. 152. 81. 42. 57. 0. 0. 0. 0. 0. 46. 34. 54. 122. 197. 234.
      242. 246. 247. 254. 254. 253. 253. 252. 252. 250. 249. 246. 244.
      221. 144. 66. 46. 0. 0. 0. 0. 0. 42. 42. 99. 184. 235. 246. 248.
      250. 252. 255. 255. 255. 255. 255. 254. 253. 253. 250. 250. 246.
      207. 118. 48. 0. 0. 0. 0. 0. 35. 54. 140. 221. 244. 245. 246. 249.
      253. 254. 253. 253. 253. 253. 254. 254. 254. 249. 246. 247. 245.
      164. 57. 0. 0. 0. 0. 0. 32. 74. 170. 232. 241. 244. 249. 251. 252.
      253. 253. 254. 254. 254. 254. 254. 254. 255. 252. 250. 250. 183.
      75. 0. 0. 0. 0. 0. 54. 125. 200. 231. 231. 235. 242. 245. 247.
      251. 252. 253. 254. 255. 255. 253. 253. 255. 252. 243. 248. 219.
      146. 0. 0. 0. 0. 0. 91. 181. 223. 224. 222. 223. 228. 233. 236.
      241. 243. 247. 249. 251. 252. 254. 254. 254. 253. 248. 251. 243.
      202. 0. 0. 0. 0. 0. 107. 199. 225. 218. 217. 220. 223. 224. 227.
      233. 236. 241. 246. 251. 252. 254. 254. 253. 253. 251. 250. 242.
      172. 0. 0. 0. 0. 0. 104. 199. 223. 221. 211. 212. 218. 216. 216.
      217. 219. 223. 228. 234. 239. 246. 248. 252. 252. 251. 251. 231.
      106. 0. 0. 0. 0. 0. 106. 206. 223. 221. 218. 218. 216. 214. 216.
      216. 218. 222. 227. 234. 238. 245. 247. 250. 252. 252. 250. 223.
      80. 0. 0. 0. 0. 0. 100. 206. 221. 218. 218. 218. 216. 218. 222.
      225. 227. 231. 235. 240. 243. 248. 248. 249. 254. 253. 251. 221.
      79. 0. 0. 0. 0. 0. 98. 210. 223. 217. 216. 216. 218. 223. 228.
      230. 233. 236. 239. 244. 246. 250. 251. 252. 251. 252. 251. 221.
      83. 0. 0. 0. 0. 0. 87. 200. 226. 225. 224. 224. 228. 232. 241.
      245. 246. 248. 249. 250. 251. 253. 254. 253. 251. 253. 246. 195.
      74. 0. 0. 0. 0. 0. 53. 137. 207. 228. 229. 230. 234. 236. 245.
      249. 250. 250. 251. 251. 252. 254. 254. 254. 253. 250. 223. 137.
      52. 0. 0. 0. 0. 0. 26. 66. 176. 234. 242. 243. 248. 249. 252. 253.
      254. 254. 253. 253. 254. 254. 252. 251. 253. 241. 183. 73. 38. 0.
      0. 0. 0. 0. 25. 27. 160. 236. 244. 245. 248. 250. 253. 254. 255.
      255. 254. 254. 254. 255. 251. 251. 251. 232. 152. 41. 51. 0. 0. 0.
      0. 0. 34. 22. 96. 206. 241. 245. 247. 247. 250. 251. 251. 251.
      252. 252. 252. 251. 249. 250. 238. 188. 104. 40. 67. 0. 0. 0. 0.
      0. 53. 26. 33. 114. 211. 244. 247. 247. 249. 250. 250. 251. 251.
      250. 250. 251. 248. 237. 193. 112. 53. 51. 68. 0. 0. 0. 0. 0. 51.
      48. 20. 40. 118. 162. 190. 236. 239. 251. 253. 249. 251. 252. 249.
      233. 206. 171. 119. 62. 49. 66. 72. 0. 0. 0. 0. 0. 52. 67. 53. 45.
      59. 56. 90. 175. 226. 251. 253. 235. 234. 239. 220. 171. 109. 80.
      68. 53. 60. 72. 68. 0. 0. 0. 0. 0. 55. 58. 59. 65. 62. 40. 44. 86.
      118. 136. 144. 139. 140. 147. 131. 93. 47. 46. 65. 68. 66. 65. 62.
      0. 0. 0. 0. 0. 0. 0. 0. 0. 0. 0. 0. 0. 0. 0. 0. 0. 0. 0. 0. 0. 0.
      0. 0. 0. 0. 0. 0. 0. 0. 0. 0. 0. 0. 0. 0. 0. 0. 0. 0. 0. 0. 0. 0.
      0. 0. 0. 0. 0. 0. 0. 0. 0. 0. 0. 0. 0. 0. 0. 0. 0.</_>
    <_>
      49. 52. 52. 45. 45. 37. 61. 101. 113. 133. 130. 127. 124. 119. 95.
      64. 56. 59. 55. 53. 50. 39. 35. 0. 0. 0. 0. 0. 55. 53. 49. 48. 68.
      82. 116. 180. 202. 202. 200. 208. 207. 189. 148. 104. 86. 76. 64.
      59. 60. 54. 41. 0. 0. 0. 0. 0. 53. 47. 51. 77. 127. 162. 183. 219.
      228. 225. 230. 236. 238. 234. 214. 189. 160. 117. 77. 62. 60. 59.
      47. 0. 0. 0. 0. 0. 47. 47. 79. 138. 192. 218. 223. 223. 227. 231.
      235. 237. 237. 240. 240. 238. 223. 179. 115. 70. 49. 47. 47. 0. 0.
      0. 0. 0. 47. 59. 121. 197. 224. 226. 233. 233. 239. 246. 251. 251.
      248. 250. 248. 247. 246. 234. 185. 111. 57. 38. 43. 0. 0. 0. 0. 0.
      53. 80. 156. 222. 228. 227. 237. 241. 247. 246. 250. 250. 252.
      252. 249. 243. 246. 247. 228. 170. 90. 41. 39. 0. 0. 0. 0. 0. 57.
      104. 181. 227. 234. 236. 247. 250. 253. 245. 250. 250. 249. 253.
      251. 248. 248. 240. 235. 206. 129. 58. 37. 0. 0. 0. 0. 0. 74. 141.
      205. 228. 237. 243. 248. 248. 255. 254. 254. 254. 253. 253. 244.
      237. 242. 232. 228. 219. 153. 71. 38. 0. 0. 0. 0. 0. 117. 192.
      226. 233. 240. 246. 251. 251. 252. 247. 251. 248. 238. 238. 234.
      230. 227. 225. 223. 217. 164. 90. 45. 0. 0. 0. 0. 0. 120. 195.
      228. 234. 240. 246. 251. 251. 253. 253. 245. 200. 170. 192. 221.
      227. 222. 222. 221. 219. 195. 138. 76. 0. 0. 0. 0. 0. 114. 198.
      235. 239. 243. 247. 246. 243. 245. 237. 206. 135. 89. 120. 180.
      211. 215. 216. 217. 218. 219. 183. 106. 0. 0. 0. 0. 0. 104. 195.
      236. 239. 243. 247. 246. 235. 230. 213. 169. 114. 70. 84. 141.
      194. 212. 215. 217. 213. 222. 200. 117. 0. 0. 0. 0. 0. 104. 199.
      240. 242. 243. 247. 247. 241. 231. 217. 188. 149. 111. 108. 142.
      186. 205. 209. 218. 212. 222. 206. 119. 0. 0. 0. 0. 0. 106. 201.
      240. 244. 244. 246. 248. 243. 236. 231. 216. 188. 159. 164. 179.
      192. 201. 205. 218. 215. 225. 216. 124. 0. 0. 0. 0. 0. 89. 182.
      232. 245. 244. 247. 250. 246. 240. 237. 230. 210. 196. 204. 207.
      206. 205. 208. 216. 220. 228. 224. 128. 0. 0. 0. 0. 0. 65. 148.
      220. 243. 244. 247. 250. 246. 241. 236. 231. 224. 216. 218. 216.
      214. 211. 210. 213. 222. 227. 222. 126. 0. 0. 0. 0. 0. 39. 91.
      205. 242. 243. 247. 246. 243. 240. 235. 231. 228. 219. 217. 221.
      224. 224. 215. 215. 223. 224. 216. 112. 0. 0. 0. 0. 0. 39. 81.
      188. 236. 238. 240. 244. 245. 239. 231. 227. 225. 220. 222. 225.
      224. 233. 227. 221. 219. 207. 191. 81. 0. 0. 0. 0. 0. 44. 49. 131.
      216. 237. 237. 240. 240. 237. 231. 226. 223. 219. 222. 223. 221.
      229. 231. 221. 206. 168. 138. 59. 0. 0. 0. 0. 0. 49. 40. 65. 151.
      221. 239. 239. 236. 234. 231. 227. 223. 215. 218. 220. 222. 226.
      221. 211. 199. 141. 83. 38. 0. 0. 0. 0. 0. 52. 48. 39. 89. 186.
      228. 228. 230. 231. 227. 225. 224. 221. 217. 199. 185. 199. 208.
      205. 204. 134. 54. 29. 0. 0. 0. 0. 0. 52. 51. 39. 53. 139. 198.
      212. 225. 213. 201. 200. 197. 197. 181. 134. 101. 147. 207. 216.
      194. 111. 39. 28. 0. 0. 0. 0. 0. 52. 54. 43. 30. 80. 153. 201.
      206. 155. 123. 117. 116. 118. 101. 61. 55. 131. 211. 201. 143. 63.
      29. 32. 0. 0. 0. 0. 0. 52. 49. 56. 37. 37. 94. 154. 146. 84. 43.
      32. 45. 81. 100. 71. 56. 110. 166. 138. 76. 26. 29. 34. 0. 0. 0.
      0. 0. 0. 0. 0. 0. 0. 0. 0. 0. 0. 0. 0. 0. 0. 0. 0. 0. 0. 0. 0. 0.
      0. 0. 0. 0. 0. 0. 0. 0. 0. 0. 0. 0. 0. 0. 0. 0. 0. 0. 0. 0. 0. 0.
      0. 0. 0. 0. 0. 0. 0. 0. 0. 0. 0. 0. 0. 0. 0. 0. 0. 0. 0. 0. 0. 0.
      0. 0. 0. 0. 0. 0. 0. 0. 0. 0. 0. 0. 0. 0. 0. 0. 0. 0. 0. 0. 0. 0.
      0. 0. 0. 0. 0. 0. 0. 0. 0. 0. 0. 0. 0. 0. 0. 0. 0. 0. 0. 0. 0. 0.
      0. 0. 0. 0.</_>
    <_>
      50. 51. 52. 48. 44. 34. 48. 70. 81. 99. 138. 154. 147. 146. 156.
      153. 120. 71. 38. 34. 40. 43. 45. 0. 0. 0. 0. 0. 52. 56. 49. 48.
      55. 55. 105. 175. 207. 220. 236. 235. 232. 229. 226. 227. 214.
      154. 93. 60. 42. 28. 35. 0. 0. 0. 0. 0. 48. 46. 40. 58. 95. 117.
      174. 230. 242. 243. 250. 248. 245. 251. 247. 251. 249. 221. 197.
      161. 99. 35. 21. 0. 0. 0. 0. 0. 42. 32. 57. 101. 162. 198. 225.
      242. 244. 247. 252. 251. 251. 254. 250. 253. 252. 248. 248. 237.
      178. 85. 26. 0. 0. 0. 0. 0. 41. 41. 108. 147. 195. 232. 242. 243.
      243. 248. 253. 251. 249. 253. 253. 253. 249. 252. 248. 249. 229.
      165. 61. 0. 0. 0. 0. 0. 36. 50. 138. 161. 187. 229. 241. 244. 247.
      250. 252. 252. 252. 254. 255. 253. 247. 252. 246. 245. 246. 211.
      90. 0. 0. 0. 0. 0. 32. 48. 126. 158. 201. 239. 248. 251. 252. 252.
      252. 253. 254. 253. 250. 253. 247. 251. 247. 228. 212. 171. 74. 0.
      0. 0. 0. 0. 46. 86. 135. 173. 219. 243. 248. 251. 253. 252. 252.
      254. 254. 251. 249. 251. 243. 242. 245. 197. 129. 79. 43. 0. 0. 0.
      0. 0. 66. 139. 148. 184. 226. 247. 250. 251. 252. 253. 253. 253.
      251. 249. 243. 231. 219. 216. 228. 171. 70. 27. 35. 0. 0. 0. 0. 0.
      62. 139. 129. 177. 229. 248. 251. 251. 252. 253. 249. 242. 240.
      237. 216. 185. 180. 179. 191. 158. 61. 34. 35. 0. 0. 0. 0. 0. 70.
      134. 129. 179. 235. 247. 251. 249. 250. 245. 218. 198. 198. 200.
      172. 146. 157. 164. 175. 159. 68. 38. 37. 0. 0. 0. 0. 0. 65. 124.
      128. 177. 235. 246. 252. 249. 250. 241. 204. 172. 173. 168. 145.
      136. 153. 161. 161. 143. 73. 32. 40. 0. 0. 0. 0. 0. 70. 124. 127.
      174. 235. 248. 252. 251. 252. 249. 234. 224. 227. 217. 178. 138.
      133. 149. 165. 140. 71. 37. 42. 0. 0. 0. 0. 0. 78. 123. 124. 171.
      235. 250. 252. 251. 253. 252. 252. 250. 248. 243. 227. 203. 194.
      195. 185. 130. 51. 22. 31. 0. 0. 0. 0. 0. 69. 105. 114. 158. 221.
      248. 248. 248. 252. 253. 252. 250. 245. 240. 240. 240. 237. 233.
      219. 167. 91. 50. 19. 0. 0. 0. 0. 0. 50. 76. 103. 136. 178. 243.
      244. 247. 251. 253. 251. 252. 249. 247. 251. 250. 246. 246. 242.
      221. 180. 134. 36. 0. 0. 0. 0. 0. 41. 57. 93. 116. 130. 231. 244.
      248. 250. 254. 250. 252. 253. 253. 253. 250. 248. 248. 246. 244.
      235. 205. 68. 0. 0. 0. 0. 0. 46. 53. 86. 104. 108. 202. 238. 246.
      245. 252. 250. 252. 253. 253. 252. 251. 251. 250. 248. 248. 243.
      203. 69. 0. 0. 0. 0. 0. 52. 52. 71. 90. 102. 164. 227. 245. 243.
      252. 253. 254. 253. 254. 254. 251. 251. 250. 249. 245. 215. 134.
      40. 0. 0. 0. 0. 0. 51. 48. 46. 62. 86. 103. 171. 232. 237. 241.
      246. 250. 251. 252. 250. 246. 248. 239. 224. 205. 148. 62. 25. 0.
      0. 0. 0. 0. 44. 45. 43. 51. 58. 56. 105. 158. 177. 206. 241. 250.
      247. 248. 249. 247. 235. 188. 140. 113. 76. 36. 31. 0. 0. 0. 0. 0.
      39. 43. 41. 38. 41. 49. 65. 80. 78. 115. 183. 204. 204. 195. 196.
      194. 177. 112. 51. 39. 42. 40. 40. 0. 0. 0. 0. 0. 36. 43. 44. 44.
      43. 43. 54. 58. 44. 57. 102. 114. 116. 111. 108. 107. 99. 61. 34.
      36. 40. 39. 43. 0. 0. 0. 0. 0. 0. 0. 0. 0. 0. 0. 0. 0. 0. 0. 0. 0.
      0. 0. 0. 0. 0. 0. 0. 0. 0. 0. 0. 0. 0. 0. 0. 0. 0. 0. 0. 0. 0. 0.
      0. 0. 0. 0. 0. 0. 0. 0. 0. 0. 0. 0. 0. 0. 0. 0. 0. 0. 0. 0. 0. 0.
      0. 0. 0. 0. 0. 0. 0. 0. 0. 0. 0. 0. 0. 0. 0. 0. 0. 0. 0. 0. 0. 0.
      0. 0. 0. 0. 0. 0. 0. 0. 0. 0. 0. 0. 0. 0. 0. 0. 0. 0. 0. 0. 0. 0.
      0. 0. 0. 0. 0. 0. 0. 0. 0. 0. 0. 0. 0. 0. 0. 0. 0. 0. 0. 0. 0. 0.
      0. 0. 0. 0. 0. 0. 0. 0. 0. 0. 0. 0. 0. 0. 0. 0. 0. 0.</_>
    <_>
      57. 59. 57. 55. 56. 60. 56. 57. 73. 89. 96. 91. 90. 91. 86. 76.
      61. 58. 60. 61. 62. 61. 58. 58. 60. 59. 69. 0. 52. 46. 39. 41. 62.
      93. 115. 125. 154. 168. 174. 162. 160. 158. 150. 126. 63. 40. 33.
      36. 46. 56. 56. 52. 47. 45. 46. 0. 36. 41. 54. 68. 124. 185. 203.
      212. 231. 241. 247. 244. 244. 245. 238. 221. 139. 96. 58. 36. 32.
      37. 42. 40. 37. 38. 42. 0. 41. 92. 134. 158. 194. 233. 239. 244.
      251. 251. 254. 254. 254. 254. 251. 251. 235. 227. 177. 90. 33. 26.
      36. 39. 36. 40. 44. 0. 78. 153. 200. 219. 230. 240. 243. 248. 251.
      252. 254. 254. 254. 254. 251. 251. 248. 250. 232. 174. 94. 42. 25.
      35. 42. 40. 42. 0. 139. 204. 228. 235. 238. 242. 245. 249. 253.
      253. 255. 255. 255. 255. 253. 253. 246. 253. 246. 226. 157. 69.
      27. 51. 67. 45. 32. 0. 153. 204. 228. 238. 241. 246. 249. 250.
      253. 253. 254. 255. 255. 254. 253. 253. 254. 250. 245. 243. 206.
      129. 83. 112. 126. 82. 32. 0. 106. 151. 210. 240. 245. 248. 250.
      251. 253. 254. 254. 254. 254. 254. 254. 253. 253. 251. 245. 248.
      234. 195. 166. 184. 189. 140. 64. 0. 55. 109. 200. 242. 246. 249.
      251. 252. 253. 254. 254. 254. 254. 254. 254. 254. 248. 250. 248.
      246. 239. 229. 215. 210. 197. 172. 106. 0. 40. 111. 213. 246. 249.
      252. 253. 253. 253. 252. 252. 252. 253. 253. 254. 254. 251. 252.
      252. 249. 238. 238. 226. 196. 154. 145. 110. 0. 37. 124. 221. 245.
      248. 252. 251. 251. 253. 252. 252. 252. 253. 253. 254. 254. 252.
      250. 253. 252. 237. 240. 227. 184. 124. 105. 86. 0. 30. 120. 219.
      244. 246. 249. 251. 253. 254. 254. 254. 254. 253. 253. 254. 254.
      253. 251. 251. 250. 236. 237. 223. 182. 128. 97. 73. 0. 26. 115.
      221. 246. 248. 248. 250. 253. 254. 254. 255. 254. 254. 254. 253.
      254. 254. 253. 250. 248. 239. 234. 206. 180. 136. 98. 64. 0. 25.
      116. 230. 248. 248. 245. 250. 254. 255. 255. 255. 254. 254. 253.
      253. 253. 253. 250. 250. 251. 240. 239. 177. 157. 153. 104. 49. 0.
      25. 104. 230. 245. 247. 245. 250. 254. 255. 255. 255. 254. 254.
      253. 253. 253. 253. 249. 248. 250. 242. 236. 128. 83. 97. 68. 36.
      0. 39. 92. 216. 242. 248. 250. 250. 254. 255. 255. 255. 254. 254.
      253. 253. 253. 253. 253. 248. 248. 239. 198. 88. 36. 38. 44. 43.
      0. 97. 142. 223. 243. 248. 250. 248. 253. 255. 255. 255. 254. 254.
      253. 253. 252. 251. 250. 249. 248. 220. 104. 51. 31. 40. 47. 45.
      0. 158. 207. 233. 240. 242. 249. 249. 253. 254. 254. 254. 254.
      254. 254. 253. 253. 251. 245. 245. 246. 206. 50. 30. 33. 49. 46.
      38. 0. 169. 217. 224. 239. 241. 249. 249. 253. 253. 254. 254. 254.
      255. 254. 254. 253. 252. 251. 247. 234. 177. 55. 33. 36. 40. 38.
      36. 0. 80. 168. 226. 229. 236. 240. 243. 249. 252. 252. 251. 253.
      253. 253. 253. 250. 247. 250. 236. 177. 97. 38. 30. 39. 44. 42.
      37. 0. 45. 98. 160. 168. 205. 235. 238. 248. 250. 248. 247. 250.
      251. 248. 250. 245. 234. 224. 179. 108. 49. 30. 34. 41. 44. 39.
      34. 0. 40. 58. 92. 89. 145. 213. 213. 229. 236. 239. 246. 246.
      243. 247. 248. 229. 180. 119. 83. 55. 34. 36. 47. 42. 38. 38. 37.
      0. 49. 52. 58. 45. 87. 142. 145. 163. 183. 196. 218. 216. 201.
      203. 198. 159. 94. 46. 39. 39. 32. 43. 53. 37. 34. 39. 39. 0. 45.
      46. 46. 41. 50. 57. 85. 110. 115. 92. 116. 122. 107. 96. 87. 73.
      50. 41. 48. 47. 36. 42. 46. 28. 34. 36. 34. 0. 0. 0. 0. 0. 0. 0.
      0. 0. 0. 0. 0. 0. 0. 0. 0. 0. 0. 0. 0. 0. 0. 0. 0. 0. 0. 0. 0. 0.
      0. 0. 0. 0. 0. 0. 0. 0. 0. 0. 0. 0. 0. 0. 0. 0. 0. 0. 0. 0. 0. 0.
      0. 0. 0. 0. 0. 0. 0. 0. 0. 0. 0. 0. 0. 0. 0. 0. 0. 0. 0. 0. 0. 0.
      0. 0. 0. 0. 0. 0. 0. 0. 0. 0. 0. 0. 0. 0. 0. 0. 0. 0. 0. 0. 0. 0.
      0. 0. 0. 0. 0. 0. 0. 0. 0. 0. 0. 0. 0. 0. 0. 0. 0. 0.</_>
    <_>
      142. 150. 147. 151. 168. 191. 213. 215. 219. 219. 214. 212. 209.
      204. 183. 165. 154. 148. 135. 95. 46. 0. 0. 0. 0. 0. 0. 0. 129.
      165. 180. 185. 204. 219. 240. 242. 252. 253. 251. 251. 251. 243.
      227. 216. 193. 155. 106. 64. 49. 0. 0. 0. 0. 0. 0. 0. 128. 193.
      219. 222. 229. 232. 244. 244. 250. 251. 251. 251. 249. 246. 237.
      234. 221. 189. 118. 60. 48. 0. 0. 0. 0. 0. 0. 0. 151. 223. 241.
      245. 248. 249. 251. 251. 252. 252. 253. 253. 253. 252. 249. 247.
      244. 232. 161. 79. 46. 0. 0. 0. 0. 0. 0. 0. 170. 236. 243. 246.
      248. 249. 251. 251. 252. 252. 253. 252. 252. 253. 251. 249. 250.
      249. 198. 104. 46. 0. 0. 0. 0. 0. 0. 0. 145. 214. 242. 244. 248.
      249. 252. 251. 251. 249. 254. 247. 246. 253. 251. 250. 249. 246.
      218. 138. 63. 0. 0. 0. 0. 0. 0. 0. 91. 170. 238. 241. 244. 246.
      251. 253. 254. 254. 254. 252. 252. 254. 250. 249. 248. 245. 234.
      187. 104. 0. 0. 0. 0. 0. 0. 0. 59. 152. 234. 236. 236. 239. 243.
      243. 247. 251. 254. 254. 254. 254. 253. 251. 250. 249. 246. 230.
      142. 0. 0. 0. 0. 0. 0. 0. 56. 156. 234. 232. 225. 224. 231. 236.
      243. 250. 250. 251. 252. 253. 254. 254. 253. 252. 249. 242. 157.
      0. 0. 0. 0. 0. 0. 0. 50. 152. 227. 225. 221. 221. 225. 227. 232.
      238. 243. 245. 249. 251. 253. 253. 253. 252. 252. 247. 159. 0. 0.
      0. 0. 0. 0. 0. 51. 158. 227. 226. 222. 222. 225. 225. 227. 232.
      240. 242. 248. 250. 252. 252. 251. 251. 249. 247. 156. 0. 0. 0. 0.
      0. 0. 0. 54. 166. 232. 229. 221. 219. 225. 230. 233. 237. 243.
      244. 250. 251. 252. 252. 252. 251. 247. 247. 159. 0. 0. 0. 0. 0.
      0. 0. 45. 162. 228. 230. 226. 226. 230. 235. 239. 242. 245. 247.
      252. 252. 254. 254. 253. 250. 251. 244. 160. 0. 0. 0. 0. 0. 0. 0.
      57. 164. 227. 238. 239. 240. 242. 244. 246. 248. 250. 251. 253.
      253. 254. 254. 252. 250. 251. 215. 135. 0. 0. 0. 0. 0. 0. 0. 93.
      192. 234. 243. 244. 245. 247. 250. 251. 252. 255. 255. 254. 253.
      254. 253. 249. 248. 243. 158. 88. 0. 0. 0. 0. 0. 0. 0. 178. 234.
      245. 247. 249. 249. 250. 251. 252. 254. 254. 253. 253. 254. 253.
      252. 249. 247. 232. 109. 49. 0. 0. 0. 0. 0. 0. 0. 174. 239. 251.
      250. 251. 253. 253. 253. 254. 255. 254. 251. 252. 253. 253. 250.
      248. 248. 204. 95. 43. 0. 0. 0. 0. 0. 0. 0. 118. 203. 237. 247.
      249. 251. 252. 253. 254. 252. 252. 254. 252. 247. 248. 253. 246.
      220. 123. 60. 37. 0. 0. 0. 0. 0. 0. 0. 63. 153. 202. 231. 244.
      248. 250. 251. 253. 246. 244. 251. 252. 250. 248. 241. 208. 160.
      67. 47. 47. 0. 0. 0. 0. 0. 0. 0. 41. 88. 121. 165. 207. 235. 246.
      248. 249. 251. 252. 252. 252. 243. 210. 160. 117. 88. 48. 47. 55.
      0. 0. 0. 0. 0. 0. 0. 47. 53. 51. 74. 128. 183. 213. 225. 230. 236.
      232. 226. 213. 181. 125. 74. 57. 60. 54. 50. 52. 0. 0. 0. 0. 0. 0.
      0. 46. 55. 43. 45. 73. 103. 119. 124. 133. 135. 131. 126. 116. 95.
      68. 47. 47. 57. 57. 49. 46. 0. 0. 0. 0. 0. 0. 0. 0. 0. 0. 0. 0. 0.
      0. 0. 0. 0. 0. 0. 0. 0. 0. 0. 0. 0. 0. 0. 0. 0. 0. 0. 0. 0. 0. 0.
      0. 0. 0. 0. 0. 0. 0. 0. 0. 0. 0. 0. 0. 0. 0. 0. 0. 0. 0. 0. 0. 0.
      0. 0. 0. 0. 0. 0. 0. 0. 0. 0. 0. 0. 0. 0. 0. 0. 0. 0. 0. 0. 0. 0.
      0. 0. 0. 0. 0. 0. 0. 0. 0. 0. 0. 0. 0. 0. 0. 0. 0. 0. 0. 0. 0. 0.
      0. 0. 0. 0. 0. 0. 0. 0. 0. 0. 0. 0. 0. 0. 0. 0. 0. 0. 0. 0. 0. 0.
      0. 0. 0. 0. 0. 0. 0. 0. 0. 0. 0. 0. 0. 0. 0. 0. 0. 0. 0. 0. 0. 0.
      0. 0. 0. 0. 0. 0. 0. 0. 0. 0. 0. 0. 0. 0. 0. 0. 0. 0. 0. 0. 0. 0.
      0. 0. 0. 0. 0. 0. 0. 0.</_>
    <_>
      47. 32. 46. 57. 59. 50. 65. 115. 162. 172. 166. 169. 167. 163.
      108. 55. 58. 66. 62. 56. 58. 34. 0. 0. 0. 0. 0. 0. 37. 38. 40. 45.
      65. 86. 125. 181. 219. 226. 231. 232. 226. 222. 176. 110. 95. 75.
      43. 35. 55. 53. 0. 0. 0. 0. 0. 0. 32. 36. 35. 63. 129. 182. 201.
      221. 233. 234. 237. 238. 232. 235. 223. 195. 187. 148. 62. 32. 42.
      56. 0. 0. 0. 0. 0. 0. 28. 26. 62. 140. 203. 224. 231. 237. 238.
      240. 244. 245. 241. 242. 236. 233. 234. 204. 127. 48. 21. 38. 0.
      0. 0. 0. 0. 0. 30. 33. 103. 190. 230. 234. 236. 242. 245. 247.
      252. 253. 253. 253. 252. 251. 249. 246. 211. 80. 19. 30. 0. 0. 0.
      0. 0. 0. 27. 54. 158. 225. 238. 242. 242. 244. 247. 249. 253. 253.
      254. 254. 253. 252. 249. 248. 231. 111. 31. 20. 0. 0. 0. 0. 0. 0.
      27. 101. 205. 240. 241. 245. 245. 247. 250. 252. 254. 254. 255.
      255. 254. 253. 251. 250. 238. 160. 72. 17. 0. 0. 0. 0. 0. 0. 51.
      168. 235. 248. 245. 248. 249. 248. 250. 252. 253. 254. 255. 255.
      255. 254. 251. 250. 244. 211. 135. 31. 0. 0. 0. 0. 0. 0. 79. 217.
      244. 250. 250. 252. 254. 249. 250. 252. 252. 253. 254. 255. 255.
      254. 253. 251. 246. 237. 182. 47. 0. 0. 0. 0. 0. 0. 78. 218. 239.
      243. 245. 249. 251. 249. 249. 251. 252. 253. 254. 255. 255. 254.
      254. 251. 248. 245. 199. 54. 0. 0. 0. 0. 0. 0. 69. 204. 235. 232.
      233. 241. 241. 245. 247. 248. 249. 251. 253. 254. 254. 255. 254.
      253. 250. 246. 201. 58. 0. 0. 0. 0. 0. 0. 59. 192. 233. 226. 226.
      232. 229. 239. 243. 246. 249. 251. 253. 254. 254. 254. 254. 253.
      251. 247. 199. 63. 0. 0. 0. 0. 0. 0. 50. 189. 228. 224. 222. 215.
      221. 221. 226. 227. 229. 235. 240. 246. 250. 252. 254. 252. 250.
      248. 200. 66. 0. 0. 0. 0. 0. 0. 49. 178. 233. 223. 215. 220. 222.
      221. 222. 222. 224. 231. 236. 243. 248. 251. 254. 254. 252. 248.
      195. 65. 0. 0. 0. 0. 0. 0. 44. 128. 208. 219. 209. 217. 214. 216.
      216. 221. 224. 231. 236. 243. 248. 251. 253. 253. 253. 242. 178.
      58. 0. 0. 0. 0. 0. 0. 35. 70. 151. 221. 216. 217. 212. 216. 219.
      226. 229. 235. 239. 245. 248. 250. 251. 250. 248. 218. 138. 44. 0.
      0. 0. 0. 0. 0. 27. 39. 104. 227. 231. 228. 227. 225. 231. 239.
      241. 245. 246. 250. 251. 252. 251. 251. 242. 179. 80. 28. 0. 0. 0.
      0. 0. 0. 24. 42. 100. 208. 231. 232. 236. 233. 237. 244. 246. 250.
      250. 253. 254. 253. 252. 251. 230. 138. 42. 22. 0. 0. 0. 0. 0. 0.
      27. 79. 155. 204. 229. 236. 239. 239. 242. 249. 249. 252. 252.
      253. 253. 253. 252. 247. 198. 97. 28. 30. 0. 0. 0. 0. 0. 0. 39.
      137. 227. 220. 231. 235. 231. 238. 244. 252. 252. 253. 253. 253.
      253. 253. 253. 226. 139. 56. 28. 40. 0. 0. 0. 0. 0. 0. 50. 141.
      222. 223. 220. 225. 225. 232. 237. 253. 252. 253. 252. 249. 250.
      250. 243. 186. 80. 29. 29. 43. 0. 0. 0. 0. 0. 0. 34. 90. 168. 212.
      220. 220. 222. 228. 231. 248. 243. 250. 251. 243. 242. 231. 187.
      93. 44. 32. 36. 44. 0. 0. 0. 0. 0. 0. 29. 48. 104. 164. 182. 188.
      216. 230. 229. 237. 231. 242. 246. 227. 205. 160. 98. 49. 33. 32.
      40. 46. 0. 0. 0. 0. 0. 0. 35. 41. 65. 95. 100. 130. 196. 222. 217.
      218. 218. 223. 212. 157. 104. 73. 46. 35. 37. 43. 49. 47. 0. 0. 0.
      0. 0. 0. 40. 43. 50. 51. 44. 84. 149. 171. 166. 167. 171. 170.
      140. 74. 36. 38. 53. 47. 49. 52. 49. 43. 0. 0. 0. 0. 0. 0. 0. 0.
      0. 0. 0. 0. 0. 0. 0. 0. 0. 0. 0. 0. 0. 0. 0. 0. 0. 0. 0. 0. 0. 0.
      0. 0. 0. 0. 0. 0. 0. 0. 0. 0. 0. 0. 0. 0. 0. 0. 0. 0. 0. 0. 0. 0.
      0. 0. 0. 0. 0. 0. 0. 0. 0. 0. 0. 0. 0. 0. 0. 0. 0. 0. 0. 0. 0. 0.
      0. 0. 0. 0. 0. 0. 0. 0. 0. 0. 0. 0. 0. 0. 0. 0.</_>
    <_>
      40. 26. 26. 32. 37. 37. 41. 57. 86. 110. 122. 128. 124. 128. 131.
      98. 69. 81. 87. 76. 70. 57. 0. 0. 0. 0. 0. 0. 34. 33. 35. 30. 31.
      35. 52. 110. 172. 192. 198. 205. 200. 201. 188. 131. 78. 79. 90.
      84. 75. 63. 0. 0. 0. 0. 0. 0. 32. 33. 29. 28. 57. 100. 136. 193.
      236. 238. 235. 233. 234. 231. 221. 189. 150. 133. 113. 77. 76. 71.
      0. 0. 0. 0. 0. 0. 32. 24. 22. 58. 135. 199. 230. 240. 239. 239.
      241. 241. 244. 244. 242. 232. 221. 207. 160. 86. 72. 68. 0. 0. 0.
      0. 0. 0. 30. 19. 42. 126. 208. 239. 240. 240. 239. 241. 245. 247.
      246. 246. 245. 241. 240. 236. 205. 130. 72. 55. 0. 0. 0. 0. 0. 0.
      27. 19. 88. 189. 238. 237. 232. 240. 248. 250. 251. 251. 248. 248.
      249. 241. 240. 244. 233. 180. 84. 50. 0. 0. 0. 0. 0. 0. 23. 16.
      110. 211. 238. 240. 245. 245. 243. 246. 249. 250. 250. 251. 251.
      247. 245. 246. 241. 203. 110. 62. 0. 0. 0. 0. 0. 0. 23. 15. 91.
      174. 204. 216. 236. 240. 236. 241. 245. 245. 245. 247. 248. 247.
      249. 246. 241. 218. 156. 96. 0. 0. 0. 0. 0. 0. 28. 28. 51. 88.
      102. 142. 216. 240. 236. 235. 240. 243. 245. 246. 246. 247. 249.
      249. 246. 240. 218. 144. 0. 0. 0. 0. 0. 0. 43. 52. 45. 43. 41. 74.
      136. 158. 162. 170. 208. 231. 236. 237. 241. 245. 246. 246. 246.
      245. 231. 156. 0. 0. 0. 0. 0. 0. 77. 104. 102. 93. 87. 100. 114.
      112. 110. 117. 170. 208. 215. 211. 222. 237. 241. 243. 246. 247.
      235. 157. 0. 0. 0. 0. 0. 0. 118. 164. 153. 142. 139. 145. 151.
      145. 132. 122. 151. 186. 193. 188. 207. 229. 238. 243. 245. 246.
      232. 145. 0. 0. 0. 0. 0. 0. 131. 187. 170. 158. 155. 148. 158.
      173. 164. 154. 169. 191. 198. 195. 212. 228. 236. 241. 243. 247.
      234. 144. 0. 0. 0. 0. 0. 0. 129. 186. 188. 179. 173. 155. 165.
      188. 188. 195. 209. 218. 224. 225. 233. 238. 241. 242. 245. 250.
      240. 144. 0. 0. 0. 0. 0. 0. 140. 194. 186. 181. 184. 180. 197.
      209. 208. 218. 230. 232. 240. 243. 248. 249. 251. 249. 251. 253.
      230. 118. 0. 0. 0. 0. 0. 0. 133. 202. 189. 200. 207. 212. 228.
      233. 233. 235. 239. 239. 243. 245. 248. 249. 251. 253. 253. 244.
      202. 86. 0. 0. 0. 0. 0. 0. 110. 173. 202. 215. 226. 229. 241. 242.
      247. 248. 249. 250. 250. 250. 252. 249. 248. 251. 244. 232. 132.
      49. 0. 0. 0. 0. 0. 0. 72. 127. 201. 226. 238. 239. 245. 245. 248.
      250. 249. 250. 251. 250. 253. 254. 252. 246. 244. 203. 80. 27. 0.
      0. 0. 0. 0. 0. 47. 98. 200. 229. 241. 242. 250. 251. 251. 252.
      251. 251. 254. 253. 252. 247. 248. 250. 234. 143. 38. 19. 0. 0. 0.
      0. 0. 0. 39. 89. 183. 220. 234. 238. 246. 249. 250. 250. 248. 252.
      254. 248. 247. 251. 250. 247. 163. 74. 20. 27. 0. 0. 0. 0. 0. 0.
      36. 70. 139. 192. 219. 225. 235. 241. 245. 243. 245. 253. 251.
      240. 250. 250. 229. 175. 78. 29. 26. 39. 0. 0. 0. 0. 0. 0. 33. 51.
      94. 148. 180. 196. 218. 236. 243. 246. 251. 251. 253. 251. 244.
      201. 140. 85. 33. 17. 40. 42. 0. 0. 0. 0. 0. 0. 35. 44. 65. 96.
      116. 139. 178. 214. 223. 226. 229. 227. 227. 217. 168. 99. 54. 40.
      30. 26. 45. 37. 0. 0. 0. 0. 0. 0. 37. 41. 51. 62. 65. 81. 124.
      164. 174. 169. 174. 179. 158. 111. 71. 47. 37. 36. 40. 34. 42. 34.
      0. 0. 0. 0. 0. 0. 35. 36. 42. 49. 51. 60. 81. 102. 106. 104. 105.
      102. 87. 68. 50. 43. 45. 45. 41. 36. 37. 36. 0. 0. 0. 0. 0. 0. 0.
      0. 0. 0. 0. 0. 0. 0. 0. 0. 0. 0. 0. 0. 0. 0. 0. 0. 0. 0. 0. 0. 0.
      0. 0. 0. 0. 0. 0. 0. 0. 0. 0. 0. 0. 0. 0. 0. 0. 0. 0. 0. 0. 0. 0.
      0. 0. 0. 0. 0. 0. 0. 0. 0. 0. 0. 0. 0. 0. 0. 0. 0. 0. 0. 0. 0. 0.
      0. 0. 0. 0. 0. 0. 0. 0. 0. 0. 0. 0. 0. 0. 0. 0. 0.</_>
    <_>
      43. 45. 51. 57. 55. 47. 76. 137. 178. 184. 182. 188. 198. 188.
      128. 77. 74. 65. 52. 46. 39. 25. 0. 0. 0. 0. 0. 0. 46. 38. 39. 60.
      88. 105. 144. 194. 222. 226. 227. 229. 232. 229. 185. 146. 130.
      92. 57. 44. 44. 32. 0. 0. 0. 0. 0. 0. 42. 33. 39. 93. 156. 200.
      219. 230. 233. 231. 234. 231. 229. 237. 225. 211. 206. 157. 90.
      46. 35. 29. 0. 0. 0. 0. 0. 0. 33. 30. 64. 155. 213. 231. 237. 241.
      244. 246. 245. 245. 245. 245. 241. 236. 240. 213. 150. 60. 28. 24.
      0. 0. 0. 0. 0. 0. 27. 27. 107. 214. 235. 236. 240. 244. 246. 247.
      248. 249. 249. 249. 247. 243. 247. 237. 200. 89. 38. 29. 0. 0. 0.
      0. 0. 0. 26. 41. 149. 234. 242. 243. 249. 252. 252. 252. 252. 253.
      252. 252. 251. 249. 249. 245. 227. 136. 62. 29. 0. 0. 0. 0. 0. 0.
      29. 81. 196. 241. 240. 243. 250. 252. 253. 252. 253. 254. 254.
      253. 253. 252. 249. 250. 248. 190. 98. 34. 0. 0. 0. 0. 0. 0. 40.
      145. 246. 249. 247. 247. 250. 252. 253. 254. 253. 253. 253. 253.
      252. 252. 248. 251. 251. 230. 141. 47. 0. 0. 0. 0. 0. 0. 65. 203.
      249. 248. 248. 249. 251. 252. 254. 252. 251. 250. 252. 253. 252.
      254. 251. 254. 254. 250. 173. 62. 0. 0. 0. 0. 0. 0. 87. 230. 251.
      249. 248. 252. 253. 254. 252. 247. 242. 243. 246. 250. 252. 254.
      254. 252. 250. 252. 198. 76. 0. 0. 0. 0. 0. 0. 95. 232. 245. 252.
      251. 252. 253. 254. 249. 239. 231. 231. 238. 245. 249. 253. 254.
      252. 253. 252. 216. 86. 0. 0. 0. 0. 0. 0. 102. 227. 249. 252. 251.
      252. 251. 252. 245. 232. 221. 220. 231. 243. 247. 251. 253. 253.
      254. 252. 226. 91. 0. 0. 0. 0. 0. 0. 98. 224. 244. 251. 248. 251.
      250. 249. 241. 226. 212. 210. 221. 235. 244. 250. 251. 251. 253.
      252. 220. 91. 0. 0. 0. 0. 0. 0. 102. 226. 244. 251. 251. 252. 251.
      250. 240. 223. 205. 202. 215. 232. 242. 250. 251. 251. 250. 251.
      213. 88. 0. 0. 0. 0. 0. 0. 95. 215. 249. 251. 254. 253. 251. 249.
      238. 220. 201. 196. 210. 228. 240. 247. 250. 251. 247. 249. 200.
      82. 0. 0. 0. 0. 0. 0. 81. 184. 249. 250. 252. 252. 250. 245. 234.
      218. 201. 197. 211. 228. 240. 247. 250. 252. 248. 245. 171. 69. 0.
      0. 0. 0. 0. 0. 68. 151. 240. 248. 251. 252. 248. 240. 228. 215.
      203. 200. 211. 223. 234. 243. 246. 251. 247. 228. 131. 50. 0. 0.
      0. 0. 0. 0. 50. 111. 208. 247. 251. 251. 247. 233. 218. 211. 207.
      203. 207. 215. 230. 239. 243. 250. 239. 191. 89. 35. 0. 0. 0. 0.
      0. 0. 33. 65. 159. 240. 244. 244. 241. 224. 207. 208. 208. 207.
      206. 207. 220. 234. 240. 243. 219. 141. 57. 32. 0. 0. 0. 0. 0. 0.
      25. 38. 121. 229. 242. 239. 238. 216. 200. 207. 210. 210. 207.
      203. 214. 228. 236. 232. 190. 93. 39. 37. 0. 0. 0. 0. 0. 0. 22.
      30. 85. 170. 223. 227. 223. 210. 196. 208. 216. 218. 214. 207.
      212. 223. 227. 207. 149. 62. 34. 39. 0. 0. 0. 0. 0. 0. 26. 21. 39.
      101. 181. 221. 215. 214. 206. 206. 214. 219. 217. 212. 202. 199.
      192. 150. 80. 39. 33. 27. 0. 0. 0. 0. 0. 0. 32. 24. 19. 48. 105.
      148. 165. 197. 215. 210. 210. 216. 215. 206. 168. 144. 123. 88.
      51. 34. 32. 24. 0. 0. 0. 0. 0. 0. 36. 32. 30. 36. 48. 63. 90. 142.
      182. 186. 182. 187. 184. 173. 110. 71. 58. 45. 41. 42. 36. 20. 0.
      0. 0. 0. 0. 0. 33. 25. 28. 37. 39. 35. 46. 85. 118. 122. 119. 121.
      115. 104. 64. 44. 41. 42. 45. 43. 34. 19. 0. 0. 0. 0. 0. 0. 0. 0.
      0. 0. 0. 0. 0. 0. 0. 0. 0. 0. 0. 0. 0. 0. 0. 0. 0. 0. 0. 0. 0. 0.
      0. 0. 0. 0. 0. 0. 0. 0. 0. 0. 0. 0. 0. 0. 0. 0. 0. 0. 0. 0. 0. 0.
      0. 0. 0. 0. 0. 0. 0. 0. 0. 0. 0. 0. 0. 0. 0. 0. 0. 0. 0. 0. 0. 0.
      0. 0. 0. 0. 0. 0. 0. 0. 0. 0. 0. 0. 0. 0. 0. 0.</_>
    <_>
      54. 47. 52. 63. 55. 45. 56. 89. 124. 139. 132. 132. 141. 131. 103.
      53. 45. 55. 62. 60. 57. 55. 0. 0. 0. 0. 0. 0. 51. 53. 57. 55. 67.
      65. 91. 170. 206. 217. 209. 208. 214. 210. 180. 96. 63. 63. 62.
      53. 57. 58. 0. 0. 0. 0. 0. 0. 58. 51. 49. 60. 120. 149. 176. 227.
      241. 247. 247. 246. 246. 245. 234. 184. 145. 123. 75. 36. 46. 59.
      0. 0. 0. 0. 0. 0. 52. 38. 48. 103. 187. 224. 233. 243. 246. 250.
      250. 251. 250. 249. 249. 243. 228. 205. 138. 53. 31. 47. 0. 0. 0.
      0. 0. 0. 46. 40. 89. 179. 233. 244. 245. 250. 250. 251. 251. 252.
      253. 252. 250. 248. 249. 246. 204. 114. 35. 26. 0. 0. 0. 0. 0. 0.
      43. 44. 126. 226. 245. 246. 246. 252. 253. 253. 252. 253. 254.
      254. 252. 249. 248. 253. 245. 185. 70. 18. 0. 0. 0. 0. 0. 0. 37.
      59. 151. 235. 246. 247. 249. 252. 254. 253. 252. 253. 254. 253.
      253. 251. 248. 249. 254. 216. 102. 22. 0. 0. 0. 0. 0. 0. 51. 113.
      199. 243. 245. 247. 252. 254. 254. 253. 253. 253. 252. 251. 251.
      251. 251. 253. 252. 228. 149. 53. 0. 0. 0. 0. 0. 0. 78. 173. 237.
      250. 249. 250. 253. 254. 253. 253. 253. 252. 251. 252. 251. 251.
      251. 253. 254. 252. 217. 113. 0. 0. 0. 0. 0. 0. 95. 201. 248. 251.
      253. 253. 254. 254. 253. 253. 253. 253. 254. 254. 252. 251. 252.
      252. 253. 251. 243. 156. 0. 0. 0. 0. 0. 0. 110. 208. 247. 250.
      252. 253. 254. 254. 254. 253. 253. 254. 254. 254. 254. 254. 251.
      251. 253. 251. 244. 148. 0. 0. 0. 0. 0. 0. 129. 219. 245. 249.
      253. 253. 253. 254. 254. 254. 254. 254. 254. 253. 254. 253. 251.
      252. 253. 252. 250. 152. 0. 0. 0. 0. 0. 0. 147. 226. 244. 248.
      252. 252. 254. 255. 254. 254. 254. 254. 253. 253. 254. 251. 252.
      254. 252. 252. 251. 147. 0. 0. 0. 0. 0. 0. 163. 231. 243. 247.
      250. 252. 254. 255. 254. 254. 254. 255. 253. 252. 254. 253. 254.
      254. 250. 251. 250. 151. 0. 0. 0. 0. 0. 0. 158. 229. 240. 245.
      249. 251. 254. 255. 254. 253. 254. 255. 252. 251. 254. 254. 255.
      253. 252. 253. 249. 157. 0. 0. 0. 0. 0. 0. 142. 217. 233. 244.
      249. 250. 254. 254. 253. 252. 254. 255. 251. 251. 252. 254. 254.
      249. 251. 252. 228. 121. 0. 0. 0. 0. 0. 0. 137. 173. 194. 237.
      246. 249. 253. 254. 253. 252. 254. 254. 252. 250. 252. 254. 254.
      247. 250. 242. 186. 60. 0. 0. 0. 0. 0. 0. 144. 126. 140. 228. 243.
      246. 252. 254. 254. 253. 252. 251. 254. 248. 252. 253. 254. 248.
      249. 231. 103. 33. 0. 0. 0. 0. 0. 0. 155. 122. 104. 222. 245. 244.
      252. 253. 253. 252. 251. 250. 253. 253. 250. 252. 253. 254. 250.
      214. 92. 32. 0. 0. 0. 0. 0. 0. 160. 131. 68. 178. 232. 246. 249.
      250. 254. 253. 253. 251. 247. 246. 252. 249. 245. 251. 240. 160.
      62. 29. 0. 0. 0. 0. 0. 0. 162. 147. 39. 103. 183. 228. 243. 249.
      252. 247. 250. 254. 254. 253. 252. 252. 248. 249. 162. 69. 37. 51.
      0. 0. 0. 0. 0. 0. 161. 156. 22. 53. 120. 160. 192. 226. 246. 249.
      249. 252. 250. 242. 245. 231. 159. 142. 85. 51. 58. 61. 0. 0. 0.
      0. 0. 0. 155. 152. 23. 44. 82. 88. 88. 152. 212. 231. 234. 239.
      243. 239. 220. 136. 52. 80. 86. 75. 70. 60. 0. 0. 0. 0. 0. 0. 149.
      149. 24. 46. 75. 74. 73. 96. 119. 123. 114. 108. 112. 119. 123.
      82. 55. 94. 88. 64. 56. 74. 0. 0. 0. 0. 0. 0. 0. 0. 0. 0. 0. 0. 0.
      0. 0. 0. 0. 0. 0. 0. 0. 0. 0. 0. 0. 0. 0. 0. 0. 0. 0. 0. 0. 0. 0.
      0. 0. 0. 0. 0. 0. 0. 0. 0. 0. 0. 0. 0. 0. 0. 0. 0. 0. 0. 0. 0. 0.
      0. 0. 0. 0. 0. 0. 0. 0. 0. 0. 0. 0. 0. 0. 0. 0. 0. 0. 0. 0. 0. 0.
      0. 0. 0. 0. 0. 0. 0. 0. 0. 0. 0. 0. 0. 0. 0. 0. 0. 0. 0. 0. 0. 0.
      0. 0. 0. 0. 0. 0. 0. 0. 0. 0. 0. 0. 0. 0. 0. 0. 0.</_>
    <_>
      55. 56. 64. 75. 76. 60. 60. 107. 161. 174. 171. 171. 167. 164.
      141. 93. 67. 72. 72. 64. 61. 53. 0. 0. 0. 0. 0. 0. 62. 58. 63. 56.
      80. 87. 99. 160. 212. 224. 220. 222. 220. 221. 199. 137. 97. 91.
      75. 58. 58. 53. 0. 0. 0. 0. 0. 0. 59. 51. 40. 50. 136. 179. 187.
      213. 229. 232. 229. 234. 235. 236. 228. 202. 180. 152. 97. 49. 42.
      54. 0. 0. 0. 0. 0. 0. 61. 46. 49. 107. 200. 227. 227. 230. 230.
      232. 234. 237. 235. 235. 235. 233. 233. 219. 158. 76. 33. 38. 0.
      0. 0. 0. 0. 0. 57. 33. 69. 178. 228. 230. 236. 236. 237. 241. 244.
      243. 240. 241. 239. 233. 234. 234. 219. 141. 55. 39. 0. 0. 0. 0.
      0. 0. 44. 26. 72. 217. 239. 233. 243. 243. 247. 249. 248. 248.
      248. 249. 247. 238. 237. 239. 237. 164. 64. 36. 0. 0. 0. 0. 0. 0.
      38. 53. 126. 236. 245. 240. 249. 246. 250. 250. 250. 249. 250.
      250. 247. 248. 248. 246. 240. 182. 87. 34. 0. 0. 0. 0. 0. 0. 39.
      100. 202. 239. 247. 244. 254. 251. 253. 251. 253. 251. 252. 251.
      247. 250. 252. 249. 246. 237. 167. 71. 0. 0. 0. 0. 0. 0. 50. 126.
      239. 242. 248. 247. 253. 253. 252. 247. 247. 241. 248. 251. 252.
      251. 251. 252. 239. 242. 204. 95. 0. 0. 0. 0. 0. 0. 62. 138. 243.
      245. 249. 250. 251. 250. 250. 250. 242. 238. 242. 247. 252. 253.
      253. 253. 250. 250. 218. 102. 0. 0. 0. 0. 0. 0. 84. 167. 244. 245.
      249. 250. 251. 251. 249. 249. 236. 234. 237. 245. 252. 252. 253.
      253. 250. 250. 225. 107. 0. 0. 0. 0. 0. 0. 120. 208. 245. 246.
      249. 250. 252. 252. 248. 244. 230. 228. 232. 239. 246. 248. 252.
      253. 251. 251. 234. 108. 0. 0. 0. 0. 0. 0. 138. 216. 245. 246.
      250. 250. 252. 251. 245. 236. 226. 223. 227. 237. 245. 247. 252.
      253. 251. 252. 243. 113. 0. 0. 0. 0. 0. 0. 134. 206. 243. 246.
      250. 250. 253. 251. 242. 232. 224. 221. 224. 229. 240. 242. 251.
      251. 252. 253. 243. 109. 0. 0. 0. 0. 0. 0. 128. 199. 238. 245.
      250. 250. 252. 250. 241. 230. 223. 220. 223. 229. 239. 241. 250.
      251. 250. 253. 233. 99. 0. 0. 0. 0. 0. 0. 112. 184. 229. 241. 248.
      249. 251. 249. 240. 230. 222. 220. 220. 225. 237. 239. 251. 253.
      249. 252. 218. 84. 0. 0. 0. 0. 0. 0. 80. 151. 223. 240. 246. 247.
      250. 248. 239. 229. 222. 218. 219. 224. 236. 239. 249. 252. 246.
      253. 202. 66. 0. 0. 0. 0. 0. 0. 61. 119. 209. 240. 242. 244. 248.
      242. 234. 225. 222. 220. 218. 222. 231. 234. 243. 247. 245. 245.
      192. 56. 0. 0. 0. 0. 0. 0. 49. 91. 189. 239. 243. 245. 249. 245.
      240. 231. 218. 217. 217. 221. 229. 233. 242. 244. 243. 238. 161.
      43. 0. 0. 0. 0. 0. 0. 38. 64. 156. 232. 244. 245. 243. 233. 230.
      226. 223. 221. 218. 221. 229. 233. 242. 242. 239. 226. 101. 27. 0.
      0. 0. 0. 0. 0. 39. 39. 108. 206. 244. 241. 241. 239. 234. 229.
      220. 220. 217. 220. 227. 231. 238. 238. 235. 186. 50. 25. 0. 0. 0.
      0. 0. 0. 42. 34. 71. 181. 238. 233. 234. 231. 223. 220. 217. 216.
      216. 219. 224. 228. 234. 236. 222. 132. 30. 35. 0. 0. 0. 0. 0. 0.
      47. 34. 44. 140. 217. 232. 235. 227. 221. 222. 217. 216. 216. 219.
      220. 220. 227. 227. 186. 77. 30. 48. 0. 0. 0. 0. 0. 0. 49. 30. 28.
      79. 155. 207. 218. 208. 216. 228. 227. 226. 227. 224. 212. 202.
      211. 202. 124. 39. 36. 50. 0. 0. 0. 0. 0. 0. 52. 52. 45. 36. 85.
      149. 143. 126. 150. 173. 172. 170. 175. 174. 152. 136. 150. 144.
      69. 29. 44. 48. 0. 0. 0. 0. 0. 0. 0. 0. 0. 0. 0. 0. 0. 0. 0. 0. 0.
      0. 0. 0. 0. 0. 0. 0. 0. 0. 0. 0. 0. 0. 0. 0. 0. 0. 0. 0. 0. 0. 0.
      0. 0. 0. 0. 0. 0. 0. 0. 0. 0. 0. 0. 0. 0. 0. 0. 0. 0. 0. 0. 0. 0.
      0. 0. 0. 0. 0. 0. 0. 0. 0. 0. 0. 0. 0. 0. 0. 0. 0. 0. 0. 0. 0. 0.
      0. 0. 0. 0. 0. 0. 0.</_>
    <_>
      116. 138. 73. 38. 47. 59. 60. 77. 131. 173. 178. 181. 181. 184.
      180. 147. 99. 70. 78. 70. 66. 58. 53. 0. 0. 0. 0. 0. 108. 102. 60.
      41. 55. 86. 109. 138. 190. 225. 227. 232. 233. 234. 228. 199. 147.
      118. 111. 83. 63. 53. 55. 0. 0. 0. 0. 0. 88. 63. 46. 45. 85. 145.
      187. 209. 224. 236. 239. 238. 236. 237. 237. 233. 222. 212. 160.
      107. 66. 48. 53. 0. 0. 0. 0. 0. 51. 38. 40. 67. 150. 209. 224.
      232. 237. 243. 250. 251. 252. 252. 251. 248. 242. 240. 223. 176.
      93. 42. 50. 0. 0. 0. 0. 0. 28. 31. 36. 117. 202. 226. 229. 234.
      237. 244. 250. 252. 253. 254. 252. 250. 244. 243. 241. 216. 128.
      55. 46. 0. 0. 0. 0. 0. 30. 21. 46. 170. 234. 236. 237. 241. 244.
      249. 253. 253. 254. 254. 254. 252. 248. 247. 247. 240. 165. 76.
      41. 0. 0. 0. 0. 0. 36. 33. 103. 213. 241. 237. 239. 243. 245. 250.
      253. 253. 254. 254. 254. 253. 249. 248. 245. 245. 197. 110. 47. 0.
      0. 0. 0. 0. 25. 64. 195. 243. 245. 246. 247. 250. 251. 252. 253.
      254. 255. 255. 254. 254. 253. 252. 250. 250. 232. 165. 67. 0. 0.
      0. 0. 0. 17. 77. 241. 247. 240. 248. 248. 251. 250. 252. 253. 254.
      254. 254. 255. 254. 254. 254. 253. 252. 246. 211. 87. 0. 0. 0. 0.
      0. 23. 68. 230. 242. 230. 249. 249. 251. 251. 252. 252. 252. 252.
      253. 254. 254. 254. 253. 251. 246. 250. 236. 92. 0. 0. 0. 0. 0.
      27. 65. 210. 237. 225. 248. 246. 248. 251. 252. 252. 252. 252.
      253. 254. 254. 253. 253. 251. 243. 251. 239. 84. 0. 0. 0. 0. 0.
      34. 70. 198. 227. 215. 231. 228. 226. 236. 242. 244. 248. 251.
      252. 253. 254. 254. 254. 250. 243. 252. 235. 86. 0. 0. 0. 0. 0.
      26. 67. 196. 231. 220. 225. 226. 224. 223. 231. 235. 240. 244.
      248. 251. 253. 253. 253. 250. 246. 253. 234. 94. 0. 0. 0. 0. 0.
      28. 73. 184. 230. 225. 217. 220. 220. 214. 221. 224. 229. 233.
      239. 244. 247. 249. 251. 252. 251. 250. 234. 84. 0. 0. 0. 0. 0.
      29. 51. 130. 199. 227. 216. 212. 217. 214. 218. 220. 226. 230.
      235. 239. 242. 245. 248. 252. 251. 246. 217. 69. 0. 0. 0. 0. 0.
      28. 37. 94. 171. 228. 222. 214. 220. 218. 225. 227. 234. 237. 243.
      246. 247. 248. 249. 251. 253. 239. 172. 49. 0. 0. 0. 0. 0. 60.
      112. 145. 189. 227. 225. 222. 226. 222. 232. 234. 243. 246. 251.
      253. 253. 253. 252. 251. 250. 216. 112. 32. 0. 0. 0. 0. 0. 109.
      208. 219. 221. 223. 230. 233. 237. 234. 241. 242. 248. 250. 252.
      254. 253. 252. 252. 250. 238. 175. 67. 30. 0. 0. 0. 0. 0. 133.
      237. 242. 227. 219. 234. 239. 243. 245. 250. 250. 254. 254. 254.
      254. 254. 253. 252. 247. 208. 118. 38. 37. 0. 0. 0. 0. 0. 91. 183.
      220. 224. 219. 226. 229. 237. 238. 249. 249. 252. 254. 254. 254.
      253. 253. 250. 232. 166. 69. 23. 38. 0. 0. 0. 0. 0. 45. 102. 166.
      208. 221. 216. 218. 229. 230. 247. 247. 251. 251. 252. 251. 250.
      250. 242. 181. 85. 30. 32. 48. 0. 0. 0. 0. 0. 28. 45. 101. 169.
      214. 215. 211. 225. 231. 242. 246. 250. 246. 247. 251. 248. 234.
      179. 104. 50. 29. 41. 50. 0. 0. 0. 0. 0. 35. 28. 50. 110. 168.
      182. 190. 216. 226. 234. 236. 242. 243. 242. 236. 202. 158. 87.
      41. 32. 39. 51. 51. 0. 0. 0. 0. 0. 48. 37. 31. 54. 82. 99. 140.
      202. 222. 224. 223. 228. 233. 204. 146. 87. 52. 40. 37. 43. 53.
      54. 46. 0. 0. 0. 0. 0. 46. 45. 45. 44. 35. 35. 75. 139. 166. 163.
      164. 174. 173. 126. 64. 39. 53. 53. 51. 55. 55. 49. 42. 0. 0. 0.
      0. 0. 0. 0. 0. 0. 0. 0. 0. 0. 0. 0. 0. 0. 0. 0. 0. 0. 0. 0. 0. 0.
      0. 0. 0. 0. 0. 0. 0. 0. 0. 0. 0. 0. 0. 0. 0. 0. 0. 0. 0. 0. 0. 0.
      0. 0. 0. 0. 0. 0. 0. 0. 0. 0. 0. 0. 0. 0. 0. 0. 0. 0. 0. 0. 0. 0.
      0. 0. 0. 0. 0. 0. 0. 0. 0. 0. 0. 0. 0. 0. 0. 0. 0. 0. 0. 0.</_>
    <_>
      44. 44. 47. 55. 59. 53. 47. 54. 79. 106. 115. 105. 95. 115. 107.
      65. 47. 58. 57. 48. 46. 44. 33. 0. 0. 0. 0. 0. 40. 47. 57. 62. 54.
      45. 48. 84. 147. 186. 188. 184. 175. 193. 174. 103. 63. 64. 56.
      50. 51. 48. 35. 0. 0. 0. 0. 0. 46. 45. 37. 37. 66. 102. 122. 151.
      208. 229. 229. 231. 226. 234. 224. 173. 140. 116. 66. 42. 39. 44.
      43. 0. 0. 0. 0. 0. 48. 39. 33. 45. 113. 179. 202. 211. 231. 232.
      235. 239. 234. 237. 239. 234. 230. 203. 144. 71. 39. 42. 43. 0. 0.
      0. 0. 0. 41. 30. 39. 95. 177. 225. 231. 233. 237. 235. 240. 247.
      245. 245. 246. 244. 246. 243. 217. 131. 56. 35. 37. 0. 0. 0. 0. 0.
      35. 29. 43. 150. 222. 241. 237. 239. 244. 242. 245. 250. 250. 248.
      245. 241. 241. 245. 244. 186. 91. 32. 28. 0. 0. 0. 0. 0. 28. 22.
      65. 192. 242. 247. 246. 249. 253. 253. 253. 253. 254. 254. 254.
      254. 253. 250. 251. 228. 137. 46. 22. 0. 0. 0. 0. 0. 35. 34. 127.
      222. 245. 247. 251. 253. 251. 252. 253. 251. 252. 250. 253. 254.
      254. 248. 247. 245. 183. 87. 31. 0. 0. 0. 0. 0. 49. 63. 196. 239.
      243. 247. 251. 252. 250. 250. 254. 255. 254. 254. 254. 253. 250.
      250. 251. 249. 227. 136. 49. 0. 0. 0. 0. 0. 57. 113. 232. 245.
      244. 248. 251. 253. 250. 250. 253. 253. 249. 252. 254. 253. 252.
      253. 253. 248. 247. 162. 62. 0. 0. 0. 0. 0. 71. 172. 242. 246.
      248. 251. 253. 253. 253. 253. 253. 252. 252. 253. 253. 253. 253.
      254. 254. 249. 251. 178. 74. 0. 0. 0. 0. 0. 83. 196. 245. 246.
      250. 252. 253. 252. 252. 253. 253. 252. 253. 253. 253. 253. 253.
      254. 254. 253. 254. 197. 89. 0. 0. 0. 0. 0. 82. 201. 245. 245.
      249. 249. 251. 251. 250. 251. 252. 253. 253. 253. 253. 253. 253.
      254. 254. 254. 253. 203. 92. 0. 0. 0. 0. 0. 85. 204. 245. 245.
      247. 249. 251. 251. 251. 251. 252. 253. 253. 254. 254. 253. 253.
      254. 254. 253. 251. 211. 94. 0. 0. 0. 0. 0. 77. 189. 248. 248.
      249. 250. 253. 254. 253. 253. 253. 254. 254. 254. 254. 253. 254.
      253. 253. 252. 251. 220. 99. 0. 0. 0. 0. 0. 61. 155. 249. 249.
      251. 251. 254. 254. 254. 253. 253. 254. 254. 254. 254. 254. 254.
      253. 253. 251. 252. 218. 93. 0. 0. 0. 0. 0. 57. 126. 241. 245.
      250. 250. 253. 254. 254. 253. 254. 254. 255. 254. 254. 254. 254.
      252. 253. 252. 251. 192. 79. 0. 0. 0. 0. 0. 37. 86. 225. 241. 250.
      250. 252. 252. 254. 254. 254. 255. 255. 254. 255. 254. 253. 252.
      252. 250. 238. 143. 58. 0. 0. 0. 0. 0. 28. 47. 141. 238. 250. 246.
      253. 251. 252. 252. 252. 253. 254. 254. 254. 254. 253. 251. 251.
      243. 215. 94. 39. 0. 0. 0. 0. 0. 31. 33. 78. 209. 250. 246. 251.
      252. 250. 250. 249. 251. 252. 252. 252. 254. 251. 245. 253. 238.
      144. 58. 32. 0. 0. 0. 0. 0. 37. 29. 47. 162. 245. 246. 246. 250.
      248. 249. 251. 252. 249. 243. 243. 250. 254. 253. 247. 204. 106.
      43. 31. 0. 0. 0. 0. 0. 44. 32. 32. 107. 206. 244. 245. 243. 240.
      244. 246. 248. 248. 248. 246. 244. 243. 238. 212. 143. 73. 35. 35.
      0. 0. 0. 0. 0. 46. 38. 33. 54. 126. 213. 225. 219. 234. 242. 242.
      244. 244. 245. 234. 220. 216. 212. 174. 85. 50. 39. 42. 0. 0. 0.
      0. 0. 44. 44. 39. 31. 60. 138. 157. 138. 183. 198. 202. 199. 186.
      178. 162. 140. 132. 124. 96. 52. 44. 51. 46. 0. 0. 0. 0. 0. 0. 0.
      0. 0. 0. 0. 0. 0. 0. 0. 0. 0. 0. 0. 0. 0. 0. 0. 0. 0. 0. 0. 0. 0.
      0. 0. 0. 0. 0. 0. 0. 0. 0. 0. 0. 0. 0. 0. 0. 0. 0. 0. 0. 0. 0. 0.
      0. 0. 0. 0. 0. 0. 0. 0. 0. 0. 0. 0. 0. 0. 0. 0. 0. 0. 0. 0. 0. 0.
      0. 0. 0. 0. 0. 0. 0. 0. 0. 0. 0. 0. 0. 0. 0. 0. 0. 0. 0. 0. 0. 0.
      0. 0. 0. 0. 0. 0. 0. 0. 0. 0. 0. 0. 0. 0. 0. 0. 0. 0. 0. 0. 0. 0.</_>
    <_>
      105. 69. 54. 46. 35. 35. 37. 39. 57. 88. 106. 121. 127. 123. 122.
      110. 94. 83. 77. 73. 74. 66. 55. 0. 0. 0. 0. 0. 98. 68. 46. 29.
      22. 27. 32. 55. 119. 172. 192. 191. 195. 203. 191. 144. 93. 82.
      91. 85. 74. 69. 60. 0. 0. 0. 0. 0. 59. 49. 37. 23. 26. 55. 75.
      115. 206. 236. 235. 234. 230. 233. 230. 199. 157. 135. 119. 87.
      70. 70. 67. 0. 0. 0. 0. 0. 41. 34. 24. 23. 57. 151. 222. 223. 239.
      248. 244. 246. 246. 243. 240. 235. 227. 208. 170. 113. 71. 66. 70.
      0. 0. 0. 0. 0. 37. 26. 20. 50. 142. 221. 244. 245. 246. 249. 248.
      249. 250. 249. 247. 248. 251. 246. 223. 172. 89. 54. 61. 0. 0. 0.
      0. 0. 28. 17. 27. 103. 224. 249. 248. 252. 249. 250. 252. 250.
      252. 253. 250. 248. 248. 250. 247. 217. 131. 63. 58. 0. 0. 0. 0.
      0. 22. 19. 55. 157. 247. 247. 237. 253. 249. 253. 252. 253. 254.
      254. 251. 248. 247. 248. 248. 233. 168. 78. 49. 0. 0. 0. 0. 0. 18.
      34. 93. 184. 229. 230. 234. 246. 244. 250. 247. 253. 253. 253.
      253. 252. 252. 250. 247. 242. 205. 116. 59. 0. 0. 0. 0. 0. 12. 47.
      123. 193. 204. 208. 227. 234. 231. 246. 243. 249. 251. 253. 254.
      254. 254. 252. 250. 249. 235. 176. 87. 0. 0. 0. 0. 0. 29. 87. 158.
      194. 189. 193. 206. 209. 212. 229. 230. 238. 243. 248. 251. 250.
      248. 247. 249. 250. 244. 207. 104. 0. 0. 0. 0. 0. 64. 145. 194.
      193. 192. 195. 197. 200. 204. 206. 204. 217. 223. 230. 235. 241.
      246. 250. 253. 250. 244. 210. 106. 0. 0. 0. 0. 0. 88. 171. 197.
      192. 195. 200. 201. 202. 204. 197. 189. 197. 203. 209. 216. 231.
      243. 250. 250. 250. 246. 206. 108. 0. 0. 0. 0. 0. 101. 183. 203.
      196. 195. 198. 199. 197. 199. 199. 193. 196. 202. 210. 217. 231.
      241. 247. 248. 247. 246. 206. 106. 0. 0. 0. 0. 0. 102. 186. 208.
      200. 194. 194. 197. 201. 203. 203. 199. 217. 217. 226. 228. 238.
      242. 246. 247. 249. 250. 208. 105. 0. 0. 0. 0. 0. 98. 185. 207.
      199. 196. 197. 206. 215. 220. 224. 226. 241. 240. 247. 247. 251.
      252. 252. 250. 251. 245. 196. 100. 0. 0. 0. 0. 0. 95. 185. 204.
      204. 209. 213. 220. 227. 231. 236. 236. 243. 242. 249. 250. 254.
      253. 252. 253. 251. 222. 159. 80. 0. 0. 0. 0. 0. 81. 166. 195.
      211. 226. 231. 238. 246. 247. 251. 253. 252. 252. 252. 253. 254.
      252. 251. 252. 247. 194. 108. 51. 0. 0. 0. 0. 0. 53. 117. 173.
      213. 234. 238. 242. 247. 247. 248. 254. 254. 254. 253. 253. 254.
      252. 251. 251. 237. 161. 67. 31. 0. 0. 0. 0. 0. 26. 63. 149. 214.
      240. 243. 246. 251. 251. 252. 254. 251. 254. 253. 252. 253. 253.
      251. 246. 208. 125. 48. 28. 0. 0. 0. 0. 0. 20. 35. 133. 209. 238.
      239. 243. 250. 252. 253. 253. 251. 254. 253. 248. 250. 251. 245.
      230. 153. 77. 39. 32. 0. 0. 0. 0. 0. 26. 24. 105. 171. 212. 227.
      233. 240. 245. 248. 250. 252. 252. 252. 248. 248. 240. 215. 183.
      91. 43. 38. 38. 0. 0. 0. 0. 0. 20. 17. 45. 117. 181. 209. 218.
      229. 239. 244. 243. 243. 249. 250. 245. 229. 196. 141. 92. 53. 42.
      41. 39. 0. 0. 0. 0. 0. 31. 28. 22. 63. 108. 131. 162. 200. 224.
      230. 228. 228. 233. 227. 201. 163. 119. 74. 42. 40. 41. 39. 35. 0.
      0. 0. 0. 0. 26. 25. 31. 42. 47. 55. 96. 152. 186. 188. 183. 186.
      181. 161. 120. 74. 48. 45. 46. 44. 40. 36. 35. 0. 0. 0. 0. 0. 33.
      31. 29. 33. 27. 28. 54. 92. 115. 116. 112. 110. 106. 92. 71. 53.
      48. 52. 55. 37. 33. 33. 33. 0. 0. 0. 0. 0. 0. 0. 0. 0. 0. 0. 0. 0.
      0. 0. 0. 0. 0. 0. 0. 0. 0. 0. 0. 0. 0. 0. 0. 0. 0. 0. 0. 0. 0. 0.
      0. 0. 0. 0. 0. 0. 0. 0. 0. 0. 0. 0. 0. 0. 0. 0. 0. 0. 0. 0. 0. 0.
      0. 0. 0. 0. 0. 0. 0. 0. 0. 0. 0. 0. 0. 0. 0. 0. 0. 0. 0. 0. 0. 0.
      0. 0. 0. 0. 0. 0. 0. 0. 0. 0.</_></support_vectors>
  <decision_functions>
    <_>
      <sv_count>21</sv_count>
      <rho>-1.9409151535228399e+00</rho>
      <alpha>
        7.8013086889808763e-31 1.9127576891758202e-30
        2.1621224182434469e-29 1.5377290986754031e-29
        1.8074840568297968e-29 1.0169961816897022e-29
        1.9954672823369282e-30 5.1564310423424013e-30
        2.2529797107309219e-29 2.6991401036603226e-29
        6.9161579942820660e-30 1.7611215859301888e-29
        6.4090683841132747e-30 -2.3850101189964331e-30
        -3.9981628413064408e-29 -3.5855693914224928e-29
        -2.3974903565969921e-29 -1.5625216148986661e-31
        -2.9891888544727831e-30 -4.2912297323760361e-29
        -7.2907704667678878e-30</alpha>
      <index>
        0 1 2 3 4 5 6 7 8 9 10 11 12 13 14 15 16 17 18 19 20</index></_></decision_functions></pacman19>
</opencv_storage>
