<?xml version="1.0"?>
<opencv_storage>
<pacman27 type_id="opencv-ml-svm">
  <svm_type>C_SVC</svm_type>
  <kernel><type>POLY</type>
    <degree>4.</degree>
    <gamma>1.</gamma>
    <coef0>0.</coef0></kernel>
  <C>1.</C>
  <term_criteria><epsilon>2.2204460492503131e-16</epsilon>
    <iterations>5000</iterations></term_criteria>
  <var_all>784</var_all>
  <var_count>784</var_count>
  <class_count>2</class_count>
  <class_labels type_id="opencv-matrix">
    <rows>1</rows>
    <cols>2</cols>
    <dt>i</dt>
    <data>
      -1 1</data></class_labels>
  <sv_total>17</sv_total>
  <support_vectors>
    <_>
      34. 38. 38. 38. 46. 45. 40. 38. 35. 48. 35. 24. 42. 79. 100. 98.
      109. 98. 63. 0. 0. 0. 0. 0. 0. 0. 0. 0. 36. 40. 42. 39. 37. 37.
      46. 75. 98. 108. 91. 86. 84. 83. 70. 34. 34. 36. 35. 0. 0. 0. 0.
      0. 0. 0. 0. 0. 45. 49. 45. 37. 39. 60. 105. 162. 194. 205. 195.
      194. 192. 194. 172. 52. 24. 27. 31. 0. 0. 0. 0. 0. 0. 0. 0. 0. 53.
      37. 37. 63. 105. 147. 189. 229. 244. 247. 247. 249. 245. 245. 230.
      102. 26. 27. 35. 0. 0. 0. 0. 0. 0. 0. 0. 0. 49. 39. 70. 131. 189.
      221. 236. 244. 248. 248. 248. 248. 247. 244. 217. 115. 26. 28. 32.
      0. 0. 0. 0. 0. 0. 0. 0. 0. 46. 65. 139. 200. 229. 240. 241. 245.
      250. 251. 250. 244. 247. 231. 158. 72. 38. 32. 25. 0. 0. 0. 0. 0.
      0. 0. 0. 0. 48. 82. 186. 233. 240. 241. 245. 248. 251. 251. 251.
      246. 229. 177. 103. 79. 62. 44. 30. 0. 0. 0. 0. 0. 0. 0. 0. 0. 52.
      95. 203. 240. 244. 248. 252. 250. 248. 248. 246. 227. 176. 105.
      75. 93. 74. 55. 39. 0. 0. 0. 0. 0. 0. 0. 0. 0. 80. 149. 221. 242.
      244. 250. 253. 248. 247. 247. 232. 196. 136. 78. 62. 65. 60. 49.
      37. 0. 0. 0. 0. 0. 0. 0. 0. 0. 118. 213. 235. 247. 248. 252. 254.
      246. 246. 244. 201. 128. 80. 70. 61. 45. 50. 43. 35. 0. 0. 0. 0.
      0. 0. 0. 0. 0. 139. 229. 238. 248. 248. 251. 253. 252. 250. 201.
      114. 61. 60. 66. 58. 45. 36. 37. 31. 0. 0. 0. 0. 0. 0. 0. 0. 0.
      153. 236. 239. 248. 249. 252. 251. 248. 199. 118. 60. 40. 51. 62.
      58. 50. 44. 35. 21. 0. 0. 0. 0. 0. 0. 0. 0. 0. 152. 239. 237. 247.
      249. 253. 253. 243. 155. 65. 42. 52. 59. 60. 55. 47. 44. 30. 11.
      0. 0. 0. 0. 0. 0. 0. 0. 0. 149. 237. 238. 247. 248. 253. 252. 247.
      184. 83. 35. 46. 63. 60. 51. 47. 40. 31. 14. 0. 0. 0. 0. 0. 0. 0.
      0. 0. 140. 234. 241. 248. 248. 253. 249. 248. 233. 160. 76. 39.
      49. 59. 55. 49. 44. 38. 22. 0. 0. 0. 0. 0. 0. 0. 0. 0. 119. 224.
      242. 248. 247. 254. 249. 246. 250. 227. 158. 76. 52. 61. 60. 45.
      39. 34. 21. 0. 0. 0. 0. 0. 0. 0. 0. 0. 95. 206. 241. 247. 246.
      254. 251. 250. 253. 247. 221. 155. 93. 65. 59. 53. 44. 42. 37. 0.
      0. 0. 0. 0. 0. 0. 0. 0. 62. 117. 221. 245. 243. 254. 252. 247.
      252. 249. 245. 223. 157. 85. 62. 70. 63. 43. 36. 0. 0. 0. 0. 0. 0.
      0. 0. 0. 49. 96. 214. 246. 243. 250. 253. 249. 252. 250. 247. 245.
      216. 145. 83. 68. 66. 50. 37. 0. 0. 0. 0. 0. 0. 0. 0. 0. 47. 74.
      161. 221. 242. 243. 245. 253. 250. 250. 249. 247. 246. 209. 136.
      77. 47. 38. 39. 0. 0. 0. 0. 0. 0. 0. 0. 0. 53. 54. 94. 167. 236.
      242. 241. 253. 246. 253. 253. 247. 249. 247. 202. 112. 37. 23. 37.
      0. 0. 0. 0. 0. 0. 0. 0. 0. 54. 51. 59. 102. 174. 198. 233. 248.
      245. 251. 252. 242. 247. 248. 240. 143. 45. 18. 31. 0. 0. 0. 0. 0.
      0. 0. 0. 0. 47. 50. 50. 57. 86. 110. 172. 212. 232. 237. 237. 240.
      244. 242. 233. 133. 40. 19. 34. 0. 0. 0. 0. 0. 0. 0. 0. 0. 38. 45.
      49. 47. 52. 50. 81. 128. 174. 184. 174. 183. 187. 166. 138. 76.
      27. 25. 41. 0. 0. 0. 0. 0. 0. 0. 0. 0. 0. 0. 0. 0. 0. 0. 0. 0. 0.
      0. 0. 0. 0. 0. 0. 0. 0. 0. 0. 0. 0. 0. 0. 0. 0. 0. 0. 0. 0. 0. 0.
      0. 0. 0. 0. 0. 0. 0. 0. 0. 0. 0. 0. 0. 0. 0. 0. 0. 0. 0. 0. 0. 0.
      0. 0. 0. 0. 0. 0. 0. 0. 0. 0. 0. 0. 0. 0. 0. 0. 0. 0. 0. 0. 0. 0.
      0. 0. 0. 0. 0. 0. 0. 0. 0. 0. 0. 0. 0. 0. 0. 0. 0. 0. 0. 0. 0. 0.
      0. 0. 0. 0. 0. 0. 0. 0. 0. 0. 0. 0. 0. 0. 0.</_>
    <_>
      47. 47. 53. 54. 45. 39. 37. 45. 108. 166. 184. 172. 162. 163. 159.
      83. 45. 39. 39. 0. 0. 0. 0. 0. 0. 0. 0. 0. 49. 48. 49. 47. 49. 65.
      91. 123. 175. 211. 213. 208. 206. 206. 205. 156. 116. 90. 56. 0.
      0. 0. 0. 0. 0. 0. 0. 0. 55. 52. 43. 46. 79. 135. 189. 210. 214.
      216. 215. 214. 215. 216. 212. 206. 192. 177. 112. 0. 0. 0. 0. 0.
      0. 0. 0. 0. 57. 49. 48. 79. 146. 204. 221. 216. 218. 220. 221.
      222. 221. 221. 220. 217. 220. 226. 162. 0. 0. 0. 0. 0. 0. 0. 0. 0.
      48. 44. 72. 141. 203. 221. 220. 221. 222. 227. 229. 230. 227. 223.
      225. 219. 224. 228. 182. 0. 0. 0. 0. 0. 0. 0. 0. 0. 45. 59. 131.
      196. 219. 218. 219. 225. 223. 227. 231. 233. 230. 225. 224. 222.
      229. 213. 168. 0. 0. 0. 0. 0. 0. 0. 0. 0. 48. 93. 187. 221. 214.
      216. 225. 226. 228. 231. 231. 232. 232. 227. 225. 224. 232. 188.
      152. 0. 0. 0. 0. 0. 0. 0. 0. 0. 42. 109. 199. 222. 219. 222. 228.
      230. 232. 230. 227. 228. 229. 227. 226. 234. 234. 178. 180. 0. 0.
      0. 0. 0. 0. 0. 0. 0. 39. 112. 203. 223. 225. 225. 228. 231. 229.
      221. 214. 218. 222. 222. 225. 238. 240. 178. 186. 0. 0. 0. 0. 0.
      0. 0. 0. 0. 54. 136. 208. 224. 226. 226. 228. 230. 223. 209. 201.
      206. 213. 219. 225. 240. 233. 177. 190. 0. 0. 0. 0. 0. 0. 0. 0. 0.
      97. 182. 218. 221. 225. 226. 229. 230. 220. 202. 194. 199. 207.
      214. 220. 236. 197. 164. 184. 0. 0. 0. 0. 0. 0. 0. 0. 0. 137. 214.
      224. 220. 224. 226. 230. 231. 223. 208. 201. 204. 209. 215. 221.
      225. 166. 150. 169. 0. 0. 0. 0. 0. 0. 0. 0. 0. 153. 225. 225. 222.
      224. 226. 230. 233. 228. 219. 213. 211. 213. 218. 224. 222. 151.
      144. 154. 0. 0. 0. 0. 0. 0. 0. 0. 0. 156. 225. 224. 226. 225. 227.
      229. 232. 229. 225. 220. 215. 215. 219. 223. 216. 147. 141. 145.
      0. 0. 0. 0. 0. 0. 0. 0. 0. 162. 224. 223. 226. 224. 227. 229. 231.
      231. 230. 229. 226. 224. 225. 227. 209. 145. 134. 140. 0. 0. 0. 0.
      0. 0. 0. 0. 0. 166. 225. 222. 225. 221. 227. 229. 231. 231. 230.
      229. 227. 226. 228. 230. 210. 145. 127. 139. 0. 0. 0. 0. 0. 0. 0.
      0. 0. 159. 224. 223. 223. 223. 227. 227. 229. 226. 228. 231. 226.
      224. 227. 229. 208. 146. 128. 137. 0. 0. 0. 0. 0. 0. 0. 0. 0. 154.
      223. 223. 225. 223. 225. 227. 229. 235. 233. 231. 227. 222. 221.
      228. 211. 145. 130. 135. 0. 0. 0. 0. 0. 0. 0. 0. 0. 157. 228. 223.
      223. 219. 219. 223. 222. 228. 221. 219. 223. 220. 218. 228. 209.
      140. 127. 132. 0. 0. 0. 0. 0. 0. 0. 0. 0. 158. 223. 212. 207. 212.
      218. 221. 220. 224. 221. 216. 211. 206. 212. 226. 201. 133. 116.
      116. 0. 0. 0. 0. 0. 0. 0. 0. 0. 150. 212. 204. 195. 192. 199. 205.
      210. 210. 213. 201. 173. 174. 199. 223. 197. 125. 91. 75. 0. 0. 0.
      0. 0. 0. 0. 0. 0. 148. 212. 209. 193. 156. 147. 180. 204. 202.
      205. 177. 127. 137. 184. 214. 178. 93. 47. 29. 0. 0. 0. 0. 0. 0.
      0. 0. 0. 116. 173. 182. 151. 102. 93. 138. 183. 192. 200. 163.
      102. 105. 153. 182. 141. 70. 40. 38. 0. 0. 0. 0. 0. 0. 0. 0. 0.
      62. 91. 102. 83. 56. 57. 83. 117. 133. 149. 124. 78. 67. 85. 96.
      74. 40. 30. 32. 0. 0. 0. 0. 0. 0. 0. 0. 0. 0. 0. 0. 0. 0. 0. 0. 0.
      0. 0. 0. 0. 0. 0. 0. 0. 0. 0. 0. 0. 0. 0. 0. 0. 0. 0. 0. 0. 0. 0.
      0. 0. 0. 0. 0. 0. 0. 0. 0. 0. 0. 0. 0. 0. 0. 0. 0. 0. 0. 0. 0. 0.
      0. 0. 0. 0. 0. 0. 0. 0. 0. 0. 0. 0. 0. 0. 0. 0. 0. 0. 0. 0. 0. 0.
      0. 0. 0. 0. 0. 0. 0. 0. 0. 0. 0. 0. 0. 0. 0. 0. 0. 0. 0. 0. 0. 0.
      0. 0. 0. 0. 0. 0. 0. 0. 0. 0. 0. 0. 0. 0. 0. 0.</_>
    <_>
      40. 40. 54. 97. 147. 168. 172. 165. 166. 141. 80. 43. 37. 29. 76.
      158. 162. 84. 0. 0. 0. 0. 0. 0. 0. 0. 0. 0. 55. 85. 126. 180. 211.
      210. 210. 213. 211. 200. 154. 117. 88. 53. 54. 87. 97. 62. 0. 0.
      0. 0. 0. 0. 0. 0. 0. 0. 127. 182. 209. 224. 220. 212. 210. 214.
      211. 205. 195. 195. 180. 107. 59. 50. 66. 59. 0. 0. 0. 0. 0. 0. 0.
      0. 0. 0. 184. 220. 212. 210. 215. 223. 225. 222. 221. 219. 213.
      214. 212. 173. 108. 55. 55. 54. 0. 0. 0. 0. 0. 0. 0. 0. 0. 0. 188.
      224. 222. 220. 218. 221. 225. 224. 223. 223. 219. 215. 213. 212.
      180. 98. 57. 50. 0. 0. 0. 0. 0. 0. 0. 0. 0. 0. 173. 221. 232. 229.
      224. 224. 228. 228. 227. 226. 224. 223. 219. 218. 213. 165. 79.
      53. 0. 0. 0. 0. 0. 0. 0. 0. 0. 0. 150. 206. 230. 228. 226. 227.
      230. 230. 229. 229. 229. 228. 223. 218. 212. 210. 122. 61. 0. 0.
      0. 0. 0. 0. 0. 0. 0. 0. 140. 204. 236. 232. 228. 226. 225. 227.
      228. 230. 233. 232. 228. 223. 216. 213. 144. 63. 0. 0. 0. 0. 0. 0.
      0. 0. 0. 0. 141. 205. 240. 234. 229. 221. 215. 216. 219. 228. 235.
      236. 233. 227. 224. 219. 156. 56. 0. 0. 0. 0. 0. 0. 0. 0. 0. 0.
      134. 185. 231. 234. 229. 217. 208. 202. 204. 218. 230. 233. 232.
      227. 224. 219. 172. 70. 0. 0. 0. 0. 0. 0. 0. 0. 0. 0. 128. 153.
      216. 229. 226. 214. 204. 194. 195. 210. 222. 225. 228. 226. 223.
      221. 203. 115. 0. 0. 0. 0. 0. 0. 0. 0. 0. 0. 126. 122. 205. 228.
      221. 212. 204. 197. 199. 212. 222. 225. 228. 226. 222. 221. 214.
      154. 0. 0. 0. 0. 0. 0. 0. 0. 0. 0. 125. 98. 203. 232. 222. 216.
      212. 209. 209. 218. 225. 226. 229. 226. 221. 218. 212. 168. 0. 0.
      0. 0. 0. 0. 0. 0. 0. 0. 124. 90. 201. 234. 228. 219. 219. 216.
      215. 221. 225. 225. 227. 225. 220. 217. 211. 169. 0. 0. 0. 0. 0.
      0. 0. 0. 0. 0. 123. 91. 199. 234. 230. 219. 218. 224. 226. 227.
      229. 230. 230. 227. 222. 218. 210. 165. 0. 0. 0. 0. 0. 0. 0. 0. 0.
      0. 126. 89. 198. 236. 227. 220. 218. 223. 226. 229. 230. 228. 226.
      224. 222. 219. 212. 164. 0. 0. 0. 0. 0. 0. 0. 0. 0. 0. 127. 91.
      198. 240. 224. 228. 226. 228. 230. 231. 231. 229. 227. 225. 222.
      221. 214. 163. 0. 0. 0. 0. 0. 0. 0. 0. 0. 0. 122. 92. 194. 241.
      221. 228. 229. 229. 229. 230. 229. 229. 230. 228. 221. 218. 211.
      158. 0. 0. 0. 0. 0. 0. 0. 0. 0. 0. 118. 94. 190. 240. 221. 225.
      226. 225. 225. 225. 225. 225. 226. 224. 219. 216. 210. 155. 0. 0.
      0. 0. 0. 0. 0. 0. 0. 0. 118. 106. 180. 239. 229. 222. 224. 223.
      221. 221. 222. 221. 219. 219. 219. 219. 210. 151. 0. 0. 0. 0. 0.
      0. 0. 0. 0. 0. 121. 106. 152. 225. 233. 217. 219. 216. 202. 192.
      201. 210. 212. 214. 216. 218. 198. 132. 0. 0. 0. 0. 0. 0. 0. 0. 0.
      0. 118. 95. 116. 195. 227. 211. 212. 210. 170. 143. 163. 195. 206.
      208. 209. 203. 163. 96. 0. 0. 0. 0. 0. 0. 0. 0. 0. 0. 103. 61. 59.
      126. 205. 223. 212. 195. 127. 90. 111. 164. 195. 198. 194. 170.
      116. 63. 0. 0. 0. 0. 0. 0. 0. 0. 0. 0. 57. 29. 23. 65. 128. 149.
      138. 129. 81. 53. 68. 116. 155. 160. 149. 101. 63. 44. 0. 0. 0. 0.
      0. 0. 0. 0. 0. 0. 0. 0. 0. 0. 0. 0. 0. 0. 0. 0. 0. 0. 0. 0. 0. 0.
      0. 0. 0. 0. 0. 0. 0. 0. 0. 0. 0. 0. 0. 0. 0. 0. 0. 0. 0. 0. 0. 0.
      0. 0. 0. 0. 0. 0. 0. 0. 0. 0. 0. 0. 0. 0. 0. 0. 0. 0. 0. 0. 0. 0.
      0. 0. 0. 0. 0. 0. 0. 0. 0. 0. 0. 0. 0. 0. 0. 0. 0. 0. 0. 0. 0. 0.
      0. 0. 0. 0. 0. 0. 0. 0. 0. 0. 0. 0. 0. 0. 0. 0. 0. 0. 0. 0. 0. 0.
      0. 0. 0. 0. 0. 0. 0. 0.</_>
    <_>
      41. 45. 61. 66. 67. 63. 67. 75. 82. 84. 94. 105. 106. 100. 95. 81.
      67. 67. 72. 74. 68. 62. 67. 0. 0. 0. 0. 0. 58. 60. 60. 61. 61. 58.
      93. 138. 179. 190. 191. 195. 194. 188. 171. 154. 119. 73. 40. 40.
      49. 47. 50. 0. 0. 0. 0. 0. 64. 58. 48. 55. 88. 121. 175. 213. 237.
      242. 245. 247. 250. 250. 242. 236. 206. 138. 77. 68. 66. 41. 41.
      0. 0. 0. 0. 0. 53. 43. 60. 114. 178. 214. 231. 239. 246. 245. 249.
      250. 252. 248. 239. 233. 227. 196. 163. 154. 112. 39. 36. 0. 0. 0.
      0. 0. 55. 46. 95. 179. 227. 236. 242. 243. 248. 247. 251. 252.
      252. 247. 240. 225. 224. 221. 216. 221. 183. 98. 34. 0. 0. 0. 0.
      0. 53. 68. 157. 224. 237. 240. 249. 249. 248. 251. 253. 251. 248.
      238. 230. 220. 213. 212. 208. 221. 217. 174. 55. 0. 0. 0. 0. 0.
      49. 86. 177. 233. 238. 242. 251. 252. 251. 253. 251. 245. 242.
      227. 220. 216. 208. 215. 208. 211. 212. 195. 87. 0. 0. 0. 0. 0.
      69. 130. 202. 237. 242. 245. 252. 253. 252. 252. 246. 237. 234.
      222. 219. 214. 210. 215. 202. 179. 164. 144. 61. 0. 0. 0. 0. 0.
      104. 182. 228. 240. 245. 247. 254. 251. 248. 250. 241. 232. 228.
      217. 210. 196. 202. 202. 179. 109. 62. 46. 48. 0. 0. 0. 0. 0. 129.
      212. 240. 243. 247. 250. 254. 250. 247. 247. 235. 226. 225. 213.
      183. 137. 128. 127. 112. 60. 37. 49. 55. 0. 0. 0. 0. 0. 131. 217.
      241. 243. 249. 249. 250. 250. 247. 232. 196. 178. 183. 174. 124.
      61. 42. 46. 48. 29. 53. 100. 100. 0. 0. 0. 0. 0. 126. 214. 242.
      245. 250. 250. 250. 250. 240. 201. 134. 94. 95. 96. 73. 40. 47.
      59. 50. 34. 86. 176. 186. 0. 0. 0. 0. 0. 125. 214. 244. 246. 250.
      250. 251. 248. 238. 199. 132. 88. 83. 82. 60. 34. 50. 64. 43. 33.
      109. 225. 245. 0. 0. 0. 0. 0. 125. 213. 240. 245. 249. 251. 250.
      248. 244. 228. 195. 174. 173. 159. 106. 57. 57. 68. 48. 32. 103.
      216. 248. 0. 0. 0. 0. 0. 126. 213. 239. 245. 248. 250. 251. 250.
      248. 243. 237. 228. 222. 216. 176. 128. 117. 120. 91. 43. 49. 121.
      153. 0. 0. 0. 0. 0. 105. 184. 224. 240. 245. 249. 251. 252. 252.
      248. 243. 232. 223. 218. 208. 207. 213. 208. 167. 99. 66. 57. 34.
      0. 0. 0. 0. 0. 63. 113. 162. 214. 238. 248. 253. 253. 252. 249.
      245. 239. 231. 226. 221. 218. 219. 220. 208. 179. 160. 123. 54. 0.
      0. 0. 0. 0. 41. 53. 94. 178. 230. 245. 249. 253. 254. 252. 251.
      248. 243. 232. 221. 212. 212. 218. 221. 223. 227. 199. 93. 0. 0.
      0. 0. 0. 61. 51. 59. 135. 215. 242. 247. 252. 254. 252. 253. 254.
      249. 242. 236. 227. 220. 213. 212. 212. 212. 174. 79. 0. 0. 0. 0.
      0. 76. 61. 48. 91. 165. 230. 244. 250. 250. 248. 249. 252. 251.
      245. 243. 232. 218. 212. 214. 213. 183. 108. 49. 0. 0. 0. 0. 0.
      72. 61. 54. 56. 94. 179. 212. 233. 243. 248. 251. 254. 253. 248.
      252. 243. 236. 213. 192. 171. 122. 50. 30. 0. 0. 0. 0. 0. 64. 61.
      61. 50. 58. 97. 129. 174. 216. 238. 247. 248. 243. 247. 251. 243.
      224. 144. 68. 58. 53. 43. 52. 0. 0. 0. 0. 0. 51. 57. 57. 56. 63.
      58. 52. 73. 132. 185. 205. 207. 209. 206. 215. 200. 144. 72. 33.
      34. 51. 50. 54. 0. 0. 0. 0. 0. 0. 0. 0. 0. 0. 0. 0. 0. 0. 0. 0. 0.
      0. 0. 0. 0. 0. 0. 0. 0. 0. 0. 0. 0. 0. 0. 0. 0. 0. 0. 0. 0. 0. 0.
      0. 0. 0. 0. 0. 0. 0. 0. 0. 0. 0. 0. 0. 0. 0. 0. 0. 0. 0. 0. 0. 0.
      0. 0. 0. 0. 0. 0. 0. 0. 0. 0. 0. 0. 0. 0. 0. 0. 0. 0. 0. 0. 0. 0.
      0. 0. 0. 0. 0. 0. 0. 0. 0. 0. 0. 0. 0. 0. 0. 0. 0. 0. 0. 0. 0. 0.
      0. 0. 0. 0. 0. 0. 0. 0. 0. 0. 0. 0. 0. 0. 0. 0. 0. 0. 0. 0. 0. 0.
      0. 0. 0. 0. 0. 0. 0. 0. 0. 0. 0. 0. 0. 0. 0. 0. 0. 0.</_>
    <_>
      53. 19. 33. 44. 54. 52. 48. 25. 53. 117. 151. 152. 152. 136. 125.
      56. 0. 0. 0. 0. 0. 0. 0. 0. 0. 0. 0. 0. 52. 19. 38. 47. 49. 40.
      34. 40. 80. 172. 224. 229. 231. 224. 213. 107. 0. 0. 0. 0. 0. 0.
      0. 0. 0. 0. 0. 0. 54. 19. 38. 40. 34. 41. 61. 100. 131. 213. 241.
      243. 247. 246. 237. 150. 0. 0. 0. 0. 0. 0. 0. 0. 0. 0. 0. 0. 68.
      23. 20. 31. 68. 104. 123. 132. 157. 223. 238. 240. 245. 245. 240.
      178. 0. 0. 0. 0. 0. 0. 0. 0. 0. 0. 0. 0. 70. 24. 21. 63. 150. 188.
      180. 157. 181. 227. 236. 243. 247. 242. 239. 194. 0. 0. 0. 0. 0.
      0. 0. 0. 0. 0. 0. 0. 54. 19. 52. 133. 209. 225. 213. 197. 208.
      231. 233. 245. 247. 240. 239. 226. 0. 0. 0. 0. 0. 0. 0. 0. 0. 0.
      0. 0. 64. 23. 88. 196. 237. 239. 233. 229. 232. 238. 238. 245.
      247. 244. 245. 233. 0. 0. 0. 0. 0. 0. 0. 0. 0. 0. 0. 0. 60. 24.
      104. 231. 245. 242. 239. 242. 244. 245. 246. 248. 248. 248. 248.
      247. 0. 0. 0. 0. 0. 0. 0. 0. 0. 0. 0. 0. 60. 31. 119. 244. 247.
      245. 244. 247. 247. 248. 249. 250. 250. 250. 249. 250. 0. 0. 0. 0.
      0. 0. 0. 0. 0. 0. 0. 0. 67. 65. 160. 247. 247. 249. 250. 250. 251.
      251. 252. 252. 252. 252. 252. 252. 0. 0. 0. 0. 0. 0. 0. 0. 0. 0.
      0. 0. 79. 116. 208. 249. 248. 250. 251. 252. 252. 253. 253. 253.
      253. 253. 252. 251. 0. 0. 0. 0. 0. 0. 0. 0. 0. 0. 0. 0. 83. 151.
      236. 249. 251. 251. 252. 254. 254. 254. 254. 254. 254. 254. 254.
      252. 0. 0. 0. 0. 0. 0. 0. 0. 0. 0. 0. 0. 82. 159. 240. 247. 252.
      253. 253. 254. 254. 254. 254. 254. 254. 254. 254. 252. 0. 0. 0. 0.
      0. 0. 0. 0. 0. 0. 0. 0. 81. 170. 240. 247. 251. 254. 255. 255.
      254. 254. 254. 254. 254. 254. 254. 252. 0. 0. 0. 0. 0. 0. 0. 0. 0.
      0. 0. 0. 78. 179. 245. 250. 248. 250. 254. 254. 254. 254. 253.
      253. 253. 254. 254. 254. 0. 0. 0. 0. 0. 0. 0. 0. 0. 0. 0. 0. 72.
      183. 247. 253. 250. 250. 252. 253. 253. 253. 251. 248. 248. 249.
      251. 253. 0. 0. 0. 0. 0. 0. 0. 0. 0. 0. 0. 0. 70. 196. 248. 251.
      250. 252. 254. 253. 253. 253. 251. 249. 249. 249. 251. 254. 0. 0.
      0. 0. 0. 0. 0. 0. 0. 0. 0. 0. 76. 204. 249. 250. 249. 251. 253.
      253. 254. 254. 254. 253. 254. 254. 253. 253. 0. 0. 0. 0. 0. 0. 0.
      0. 0. 0. 0. 0. 74. 201. 246. 251. 251. 252. 253. 253. 254. 254.
      253. 253. 254. 253. 252. 253. 0. 0. 0. 0. 0. 0. 0. 0. 0. 0. 0. 0.
      70. 197. 243. 250. 241. 241. 246. 249. 251. 250. 250. 252. 253.
      252. 252. 248. 0. 0. 0. 0. 0. 0. 0. 0. 0. 0. 0. 0. 66. 198. 244.
      235. 190. 185. 224. 242. 249. 249. 246. 248. 249. 249. 251. 248.
      0. 0. 0. 0. 0. 0. 0. 0. 0. 0. 0. 0. 51. 193. 229. 190. 120. 132.
      197. 225. 237. 239. 241. 243. 243. 243. 242. 242. 0. 0. 0. 0. 0.
      0. 0. 0. 0. 0. 0. 0. 35. 155. 196. 142. 87. 134. 185. 217. 235.
      238. 240. 240. 241. 240. 236. 236. 0. 0. 0. 0. 0. 0. 0. 0. 0. 0.
      0. 0. 37. 86. 106. 107. 155. 188. 203. 210. 222. 227. 234. 236.
      238. 239. 235. 233. 0. 0. 0. 0. 0. 0. 0. 0. 0. 0. 0. 0. 0. 0. 0.
      0. 0. 0. 0. 0. 0. 0. 0. 0. 0. 0. 0. 0. 0. 0. 0. 0. 0. 0. 0. 0. 0.
      0. 0. 0. 0. 0. 0. 0. 0. 0. 0. 0. 0. 0. 0. 0. 0. 0. 0. 0. 0. 0. 0.
      0. 0. 0. 0. 0. 0. 0. 0. 0. 0. 0. 0. 0. 0. 0. 0. 0. 0. 0. 0. 0. 0.
      0. 0. 0. 0. 0. 0. 0. 0. 0. 0. 0. 0. 0. 0. 0. 0. 0. 0. 0. 0. 0. 0.
      0. 0. 0. 0. 0. 0. 0. 0. 0. 0. 0. 0. 0. 0. 0. 0. 0. 0. 0. 0. 0.</_>
    <_>
      41. 50. 54. 32. 24. 26. 60. 139. 193. 206. 212. 180. 82. 0. 0. 0.
      0. 0. 0. 0. 0. 0. 0. 0. 0. 0. 0. 0. 49. 46. 40. 44. 66. 93. 145.
      223. 250. 238. 242. 228. 111. 0. 0. 0. 0. 0. 0. 0. 0. 0. 0. 0. 0.
      0. 0. 0. 48. 40. 47. 95. 171. 232. 240. 242. 246. 243. 243. 233.
      116. 0. 0. 0. 0. 0. 0. 0. 0. 0. 0. 0. 0. 0. 0. 0. 40. 41. 81. 154.
      212. 239. 242. 238. 245. 245. 249. 244. 127. 0. 0. 0. 0. 0. 0. 0.
      0. 0. 0. 0. 0. 0. 0. 0. 39. 64. 145. 221. 243. 245. 249. 249. 252.
      246. 246. 240. 125. 0. 0. 0. 0. 0. 0. 0. 0. 0. 0. 0. 0. 0. 0. 0.
      31. 59. 147. 224. 245. 246. 250. 250. 254. 251. 251. 238. 121. 0.
      0. 0. 0. 0. 0. 0. 0. 0. 0. 0. 0. 0. 0. 0. 44. 115. 188. 233. 249.
      248. 249. 250. 252. 253. 252. 242. 123. 0. 0. 0. 0. 0. 0. 0. 0. 0.
      0. 0. 0. 0. 0. 0. 79. 167. 221. 241. 248. 249. 252. 253. 252. 251.
      251. 245. 122. 0. 0. 0. 0. 0. 0. 0. 0. 0. 0. 0. 0. 0. 0. 0. 105.
      198. 237. 244. 247. 249. 254. 254. 252. 251. 251. 242. 109. 0. 0.
      0. 0. 0. 0. 0. 0. 0. 0. 0. 0. 0. 0. 0. 107. 202. 237. 243. 247.
      250. 254. 253. 251. 251. 249. 230. 91. 0. 0. 0. 0. 0. 0. 0. 0. 0.
      0. 0. 0. 0. 0. 0. 103. 201. 234. 243. 247. 250. 254. 251. 250.
      251. 245. 220. 77. 0. 0. 0. 0. 0. 0. 0. 0. 0. 0. 0. 0. 0. 0. 0.
      104. 206. 236. 242. 246. 250. 254. 251. 251. 251. 247. 220. 80. 0.
      0. 0. 0. 0. 0. 0. 0. 0. 0. 0. 0. 0. 0. 0. 101. 208. 237. 243. 245.
      249. 254. 253. 251. 252. 250. 227. 95. 0. 0. 0. 0. 0. 0. 0. 0. 0.
      0. 0. 0. 0. 0. 0. 88. 196. 233. 243. 246. 249. 253. 253. 252. 252.
      252. 230. 108. 0. 0. 0. 0. 0. 0. 0. 0. 0. 0. 0. 0. 0. 0. 0. 59.
      145. 208. 239. 245. 248. 252. 252. 252. 252. 251. 227. 113. 0. 0.
      0. 0. 0. 0. 0. 0. 0. 0. 0. 0. 0. 0. 0. 37. 76. 171. 229. 240. 246.
      251. 251. 252. 253. 253. 225. 119. 0. 0. 0. 0. 0. 0. 0. 0. 0. 0.
      0. 0. 0. 0. 0. 43. 51. 145. 221. 239. 242. 248. 252. 253. 250.
      246. 218. 112. 0. 0. 0. 0. 0. 0. 0. 0. 0. 0. 0. 0. 0. 0. 0. 50.
      40. 110. 196. 233. 241. 242. 246. 250. 251. 252. 221. 116. 0. 0.
      0. 0. 0. 0. 0. 0. 0. 0. 0. 0. 0. 0. 0. 53. 37. 58. 130. 207. 241.
      246. 247. 248. 246. 248. 215. 105. 0. 0. 0. 0. 0. 0. 0. 0. 0. 0.
      0. 0. 0. 0. 0. 50. 53. 29. 47. 110. 169. 212. 236. 243. 246. 250.
      209. 105. 0. 0. 0. 0. 0. 0. 0. 0. 0. 0. 0. 0. 0. 0. 0. 46. 60. 39.
      34. 39. 55. 107. 171. 214. 231. 229. 185. 89. 0. 0. 0. 0. 0. 0. 0.
      0. 0. 0. 0. 0. 0. 0. 0. 41. 33. 47. 58. 48. 33. 47. 86. 122. 139.
      143. 114. 55. 0. 0. 0. 0. 0. 0. 0. 0. 0. 0. 0. 0. 0. 0. 0. 0. 0.
      0. 0. 0. 0. 0. 0. 0. 0. 0. 0. 0. 0. 0. 0. 0. 0. 0. 0. 0. 0. 0. 0.
      0. 0. 0. 0. 0. 0. 0. 0. 0. 0. 0. 0. 0. 0. 0. 0. 0. 0. 0. 0. 0. 0.
      0. 0. 0. 0. 0. 0. 0. 0. 0. 0. 0. 0. 0. 0. 0. 0. 0. 0. 0. 0. 0. 0.
      0. 0. 0. 0. 0. 0. 0. 0. 0. 0. 0. 0. 0. 0. 0. 0. 0. 0. 0. 0. 0. 0.
      0. 0. 0. 0. 0. 0. 0. 0. 0. 0. 0. 0. 0. 0. 0. 0. 0. 0. 0. 0. 0. 0.
      0. 0. 0. 0. 0. 0. 0. 0. 0. 0. 0. 0. 0. 0. 0. 0. 0. 0. 0. 0. 0. 0.
      0. 0. 0. 0. 0. 0. 0. 0. 0. 0. 0. 0. 0. 0. 0. 0. 0. 0. 0. 0. 0. 0.
      0. 0. 0. 0. 0. 0. 0. 0. 0. 0. 0. 0.</_>
    <_>
      50. 53. 58. 83. 135. 188. 213. 217. 211. 209. 205. 190. 155. 85.
      0. 0. 0. 0. 0. 0. 0. 0. 0. 0. 0. 0. 0. 0. 54. 97. 134. 174. 215.
      238. 245. 247. 250. 253. 247. 247. 222. 120. 0. 0. 0. 0. 0. 0. 0.
      0. 0. 0. 0. 0. 0. 0. 98. 178. 221. 236. 244. 247. 248. 250. 252.
      253. 246. 245. 203. 101. 0. 0. 0. 0. 0. 0. 0. 0. 0. 0. 0. 0. 0. 0.
      151. 223. 244. 244. 244. 246. 250. 252. 252. 253. 248. 222. 144.
      57. 0. 0. 0. 0. 0. 0. 0. 0. 0. 0. 0. 0. 0. 0. 174. 237. 247. 248.
      250. 251. 253. 251. 250. 252. 227. 152. 74. 38. 0. 0. 0. 0. 0. 0.
      0. 0. 0. 0. 0. 0. 0. 0. 187. 241. 247. 249. 253. 254. 254. 253.
      246. 229. 164. 76. 43. 51. 0. 0. 0. 0. 0. 0. 0. 0. 0. 0. 0. 0. 0.
      0. 202. 244. 248. 251. 253. 248. 251. 253. 222. 164. 86. 41. 51.
      59. 0. 0. 0. 0. 0. 0. 0. 0. 0. 0. 0. 0. 0. 0. 204. 241. 247. 251.
      254. 251. 250. 234. 172. 85. 42. 46. 55. 49. 0. 0. 0. 0. 0. 0. 0.
      0. 0. 0. 0. 0. 0. 0. 199. 241. 248. 250. 252. 253. 237. 171. 90.
      37. 37. 56. 49. 40. 0. 0. 0. 0. 0. 0. 0. 0. 0. 0. 0. 0. 0. 0. 201.
      242. 249. 246. 251. 236. 172. 83. 35. 36. 51. 55. 50. 44. 0. 0. 0.
      0. 0. 0. 0. 0. 0. 0. 0. 0. 0. 0. 208. 245. 250. 246. 251. 216.
      109. 31. 30. 51. 58. 57. 52. 48. 0. 0. 0. 0. 0. 0. 0. 0. 0. 0. 0.
      0. 0. 0. 205. 246. 249. 249. 250. 222. 134. 44. 27. 52. 58. 51.
      49. 53. 0. 0. 0. 0. 0. 0. 0. 0. 0. 0. 0. 0. 0. 0. 194. 245. 248.
      250. 249. 242. 210. 122. 48. 42. 58. 50. 50. 51. 0. 0. 0. 0. 0. 0.
      0. 0. 0. 0. 0. 0. 0. 0. 185. 244. 248. 249. 250. 250. 245. 204.
      120. 59. 47. 49. 56. 51. 0. 0. 0. 0. 0. 0. 0. 0. 0. 0. 0. 0. 0. 0.
      182. 244. 250. 250. 252. 248. 244. 245. 202. 118. 42. 37. 54. 61.
      0. 0. 0. 0. 0. 0. 0. 0. 0. 0. 0. 0. 0. 0. 181. 244. 248. 251. 253.
      247. 245. 252. 241. 195. 103. 52. 44. 60. 0. 0. 0. 0. 0. 0. 0. 0.
      0. 0. 0. 0. 0. 0. 167. 242. 243. 247. 250. 249. 252. 250. 246.
      245. 204. 97. 37. 41. 0. 0. 0. 0. 0. 0. 0. 0. 0. 0. 0. 0. 0. 0.
      150. 238. 241. 242. 245. 247. 251. 252. 253. 251. 239. 190. 94.
      30. 0. 0. 0. 0. 0. 0. 0. 0. 0. 0. 0. 0. 0. 0. 127. 217. 242. 244.
      246. 247. 250. 252. 254. 252. 248. 234. 174. 82. 0. 0. 0. 0. 0. 0.
      0. 0. 0. 0. 0. 0. 0. 0. 82. 156. 204. 221. 239. 248. 253. 252.
      251. 249. 249. 254. 226. 127. 0. 0. 0. 0. 0. 0. 0. 0. 0. 0. 0. 0.
      0. 0. 55. 82. 114. 150. 192. 227. 242. 246. 248. 250. 254. 252.
      216. 115. 0. 0. 0. 0. 0. 0. 0. 0. 0. 0. 0. 0. 0. 0. 50. 48. 56.
      83. 121. 158. 183. 189. 184. 184. 177. 154. 113. 54. 0. 0. 0. 0.
      0. 0. 0. 0. 0. 0. 0. 0. 0. 0. 0. 0. 0. 0. 0. 0. 0. 0. 0. 0. 0. 0.
      0. 0. 0. 0. 0. 0. 0. 0. 0. 0. 0. 0. 0. 0. 0. 0. 0. 0. 0. 0. 0. 0.
      0. 0. 0. 0. 0. 0. 0. 0. 0. 0. 0. 0. 0. 0. 0. 0. 0. 0. 0. 0. 0. 0.
      0. 0. 0. 0. 0. 0. 0. 0. 0. 0. 0. 0. 0. 0. 0. 0. 0. 0. 0. 0. 0. 0.
      0. 0. 0. 0. 0. 0. 0. 0. 0. 0. 0. 0. 0. 0. 0. 0. 0. 0. 0. 0. 0. 0.
      0. 0. 0. 0. 0. 0. 0. 0. 0. 0. 0. 0. 0. 0. 0. 0. 0. 0. 0. 0. 0. 0.
      0. 0. 0. 0. 0. 0. 0. 0. 0. 0. 0. 0. 0. 0. 0. 0. 0. 0. 0. 0. 0. 0.
      0. 0. 0. 0. 0. 0. 0. 0. 0. 0. 0. 0. 0. 0. 0. 0. 0. 0. 0. 0. 0. 0.
      0. 0.</_>
    <_>
      55. 59. 56. 46. 48. 84. 137. 168. 172. 171. 172. 170. 154. 100.
      47. 37. 38. 40. 42. 44. 45. 45. 0. 0. 0. 0. 0. 0. 49. 49. 71. 92.
      113. 152. 201. 221. 223. 224. 226. 225. 214. 162. 113. 92. 63. 40.
      36. 41. 44. 46. 0. 0. 0. 0. 0. 0. 48. 42. 112. 176. 205. 215. 221.
      220. 219. 215. 217. 221. 223. 213. 206. 189. 131. 50. 30. 37. 43.
      48. 0. 0. 0. 0. 0. 0. 46. 80. 164. 217. 224. 222. 220. 218. 209.
      213. 213. 216. 217. 216. 219. 220. 197. 118. 50. 37. 45. 51. 0. 0.
      0. 0. 0. 0. 53. 126. 185. 214. 220. 214. 205. 213. 213. 211. 206.
      210. 214. 213. 210. 214. 216. 168. 72. 34. 40. 51. 0. 0. 0. 0. 0.
      0. 65. 141. 191. 209. 207. 200. 193. 200. 200. 200. 201. 202. 205.
      207. 200. 197. 204. 166. 91. 49. 52. 46. 0. 0. 0. 0. 0. 0. 88.
      166. 209. 217. 200. 186. 185. 194. 188. 185. 198. 191. 187. 193.
      189. 179. 183. 170. 147. 134. 129. 59. 0. 0. 0. 0. 0. 0. 120. 219.
      234. 235. 212. 183. 168. 178. 183. 178. 183. 175. 172. 178. 168.
      157. 166. 192. 211. 221. 215. 96. 0. 0. 0. 0. 0. 0. 134. 233. 237.
      241. 235. 205. 163. 154. 163. 175. 165. 162. 169. 164. 145. 146.
      173. 218. 234. 242. 241. 111. 0. 0. 0. 0. 0. 0. 137. 231. 240.
      248. 251. 237. 195. 157. 139. 155. 154. 159. 160. 147. 141. 168.
      210. 238. 241. 243. 244. 113. 0. 0. 0. 0. 0. 0. 136. 230. 244.
      248. 245. 250. 234. 186. 130. 126. 148. 159. 141. 125. 154. 210.
      238. 245. 244. 245. 249. 118. 0. 0. 0. 0. 0. 0. 138. 232. 243.
      245. 248. 251. 246. 226. 182. 122. 129. 129. 124. 141. 195. 237.
      244. 248. 246. 246. 246. 133. 0. 0. 0. 0. 0. 0. 139. 226. 245.
      247. 248. 250. 249. 246. 225. 168. 130. 114. 140. 191. 230. 244.
      244. 250. 251. 250. 247. 135. 0. 0. 0. 0. 0. 0. 130. 218. 242.
      245. 247. 251. 252. 252. 244. 214. 166. 150. 186. 226. 239. 244.
      245. 248. 251. 252. 234. 126. 0. 0. 0. 0. 0. 0. 104. 183. 229.
      245. 247. 251. 253. 252. 248. 235. 215. 206. 226. 242. 244. 247.
      250. 252. 251. 242. 187. 77. 0. 0. 0. 0. 0. 0. 67. 124. 201. 238.
      244. 248. 251. 252. 249. 247. 245. 244. 246. 247. 247. 249. 249.
      251. 252. 223. 111. 18. 0. 0. 0. 0. 0. 0. 50. 95. 182. 234. 244.
      247. 249. 252. 252. 252. 252. 252. 253. 254. 253. 251. 246. 248.
      249. 203. 63. 8. 0. 0. 0. 0. 0. 0. 52. 76. 151. 215. 238. 243.
      246. 250. 252. 252. 252. 253. 253. 252. 251. 252. 252. 250. 233.
      158. 39. 14. 0. 0. 0. 0. 0. 0. 52. 51. 99. 172. 222. 240. 244.
      247. 249. 252. 253. 253. 253. 250. 249. 250. 248. 229. 171. 82.
      24. 25. 0. 0. 0. 0. 0. 0. 55. 43. 55. 108. 166. 199. 220. 235.
      244. 248. 250. 249. 250. 252. 248. 232. 214. 183. 94. 23. 26. 43.
      0. 0. 0. 0. 0. 0. 53. 47. 49. 71. 95. 117. 159. 199. 227. 235.
      237. 236. 235. 236. 212. 144. 73. 43. 36. 29. 36. 47. 0. 0. 0. 0.
      0. 0. 48. 47. 52. 57. 55. 56. 87. 133. 174. 186. 188. 189. 187.
      169. 126. 55. 32. 42. 38. 38. 42. 46. 0. 0. 0. 0. 0. 0. 0. 0. 0.
      0. 0. 0. 0. 0. 0. 0. 0. 0. 0. 0. 0. 0. 0. 0. 0. 0. 0. 0. 0. 0. 0.
      0. 0. 0. 0. 0. 0. 0. 0. 0. 0. 0. 0. 0. 0. 0. 0. 0. 0. 0. 0. 0. 0.
      0. 0. 0. 0. 0. 0. 0. 0. 0. 0. 0. 0. 0. 0. 0. 0. 0. 0. 0. 0. 0. 0.
      0. 0. 0. 0. 0. 0. 0. 0. 0. 0. 0. 0. 0. 0. 0. 0. 0. 0. 0. 0. 0. 0.
      0. 0. 0. 0. 0. 0. 0. 0. 0. 0. 0. 0. 0. 0. 0. 0. 0. 0. 0. 0. 0. 0.
      0. 0. 0. 0. 0. 0. 0. 0. 0. 0. 0. 0. 0. 0. 0. 0. 0. 0. 0. 0. 0. 0.
      0. 0. 0. 0. 0. 0. 0. 0. 0. 0. 0. 0. 0. 0. 0. 0. 0. 0. 0. 0. 0. 0.
      0. 0. 0. 0. 0. 0. 0. 0. 0. 0. 0.</_>
    <_>
      50. 51. 52. 48. 44. 34. 48. 70. 81. 99. 138. 154. 147. 146. 156.
      153. 120. 71. 38. 34. 40. 43. 45. 0. 0. 0. 0. 0. 52. 56. 49. 48.
      55. 55. 105. 175. 207. 220. 236. 235. 232. 229. 226. 227. 214.
      154. 93. 60. 42. 28. 35. 0. 0. 0. 0. 0. 48. 46. 40. 58. 95. 117.
      174. 230. 242. 243. 250. 248. 245. 251. 247. 251. 249. 221. 197.
      161. 99. 35. 21. 0. 0. 0. 0. 0. 42. 32. 57. 101. 162. 198. 225.
      242. 244. 247. 252. 251. 251. 254. 250. 253. 252. 248. 248. 237.
      178. 85. 26. 0. 0. 0. 0. 0. 41. 41. 108. 147. 195. 232. 242. 243.
      243. 248. 253. 251. 249. 253. 253. 253. 249. 252. 248. 249. 229.
      165. 61. 0. 0. 0. 0. 0. 36. 50. 138. 161. 187. 229. 241. 244. 247.
      250. 252. 252. 252. 254. 255. 253. 247. 252. 246. 245. 246. 211.
      90. 0. 0. 0. 0. 0. 32. 48. 126. 158. 201. 239. 248. 251. 252. 252.
      252. 253. 254. 253. 250. 253. 247. 251. 247. 228. 212. 171. 74. 0.
      0. 0. 0. 0. 46. 86. 135. 173. 219. 243. 248. 251. 253. 252. 252.
      254. 254. 251. 249. 251. 243. 242. 245. 197. 129. 79. 43. 0. 0. 0.
      0. 0. 66. 139. 148. 184. 226. 247. 250. 251. 252. 253. 253. 253.
      251. 249. 243. 231. 219. 216. 228. 171. 70. 27. 35. 0. 0. 0. 0. 0.
      62. 139. 129. 177. 229. 248. 251. 251. 252. 253. 249. 242. 240.
      237. 216. 185. 180. 179. 191. 158. 61. 34. 35. 0. 0. 0. 0. 0. 70.
      134. 129. 179. 235. 247. 251. 249. 250. 245. 218. 198. 198. 200.
      172. 146. 157. 164. 175. 159. 68. 38. 37. 0. 0. 0. 0. 0. 65. 124.
      128. 177. 235. 246. 252. 249. 250. 241. 204. 172. 173. 168. 145.
      136. 153. 161. 161. 143. 73. 32. 40. 0. 0. 0. 0. 0. 70. 124. 127.
      174. 235. 248. 252. 251. 252. 249. 234. 224. 227. 217. 178. 138.
      133. 149. 165. 140. 71. 37. 42. 0. 0. 0. 0. 0. 78. 123. 124. 171.
      235. 250. 252. 251. 253. 252. 252. 250. 248. 243. 227. 203. 194.
      195. 185. 130. 51. 22. 31. 0. 0. 0. 0. 0. 69. 105. 114. 158. 221.
      248. 248. 248. 252. 253. 252. 250. 245. 240. 240. 240. 237. 233.
      219. 167. 91. 50. 19. 0. 0. 0. 0. 0. 50. 76. 103. 136. 178. 243.
      244. 247. 251. 253. 251. 252. 249. 247. 251. 250. 246. 246. 242.
      221. 180. 134. 36. 0. 0. 0. 0. 0. 41. 57. 93. 116. 130. 231. 244.
      248. 250. 254. 250. 252. 253. 253. 253. 250. 248. 248. 246. 244.
      235. 205. 68. 0. 0. 0. 0. 0. 46. 53. 86. 104. 108. 202. 238. 246.
      245. 252. 250. 252. 253. 253. 252. 251. 251. 250. 248. 248. 243.
      203. 69. 0. 0. 0. 0. 0. 52. 52. 71. 90. 102. 164. 227. 245. 243.
      252. 253. 254. 253. 254. 254. 251. 251. 250. 249. 245. 215. 134.
      40. 0. 0. 0. 0. 0. 51. 48. 46. 62. 86. 103. 171. 232. 237. 241.
      246. 250. 251. 252. 250. 246. 248. 239. 224. 205. 148. 62. 25. 0.
      0. 0. 0. 0. 44. 45. 43. 51. 58. 56. 105. 158. 177. 206. 241. 250.
      247. 248. 249. 247. 235. 188. 140. 113. 76. 36. 31. 0. 0. 0. 0. 0.
      39. 43. 41. 38. 41. 49. 65. 80. 78. 115. 183. 204. 204. 195. 196.
      194. 177. 112. 51. 39. 42. 40. 40. 0. 0. 0. 0. 0. 36. 43. 44. 44.
      43. 43. 54. 58. 44. 57. 102. 114. 116. 111. 108. 107. 99. 61. 34.
      36. 40. 39. 43. 0. 0. 0. 0. 0. 0. 0. 0. 0. 0. 0. 0. 0. 0. 0. 0. 0.
      0. 0. 0. 0. 0. 0. 0. 0. 0. 0. 0. 0. 0. 0. 0. 0. 0. 0. 0. 0. 0. 0.
      0. 0. 0. 0. 0. 0. 0. 0. 0. 0. 0. 0. 0. 0. 0. 0. 0. 0. 0. 0. 0. 0.
      0. 0. 0. 0. 0. 0. 0. 0. 0. 0. 0. 0. 0. 0. 0. 0. 0. 0. 0. 0. 0. 0.
      0. 0. 0. 0. 0. 0. 0. 0. 0. 0. 0. 0. 0. 0. 0. 0. 0. 0. 0. 0. 0. 0.
      0. 0. 0. 0. 0. 0. 0. 0. 0. 0. 0. 0. 0. 0. 0. 0. 0. 0. 0. 0. 0. 0.
      0. 0. 0. 0. 0. 0. 0. 0. 0. 0. 0. 0. 0. 0. 0. 0. 0. 0.</_>
    <_>
      142. 150. 147. 151. 168. 191. 213. 215. 219. 219. 214. 212. 209.
      204. 183. 165. 154. 148. 135. 95. 46. 0. 0. 0. 0. 0. 0. 0. 129.
      165. 180. 185. 204. 219. 240. 242. 252. 253. 251. 251. 251. 243.
      227. 216. 193. 155. 106. 64. 49. 0. 0. 0. 0. 0. 0. 0. 128. 193.
      219. 222. 229. 232. 244. 244. 250. 251. 251. 251. 249. 246. 237.
      234. 221. 189. 118. 60. 48. 0. 0. 0. 0. 0. 0. 0. 151. 223. 241.
      245. 248. 249. 251. 251. 252. 252. 253. 253. 253. 252. 249. 247.
      244. 232. 161. 79. 46. 0. 0. 0. 0. 0. 0. 0. 170. 236. 243. 246.
      248. 249. 251. 251. 252. 252. 253. 252. 252. 253. 251. 249. 250.
      249. 198. 104. 46. 0. 0. 0. 0. 0. 0. 0. 145. 214. 242. 244. 248.
      249. 252. 251. 251. 249. 254. 247. 246. 253. 251. 250. 249. 246.
      218. 138. 63. 0. 0. 0. 0. 0. 0. 0. 91. 170. 238. 241. 244. 246.
      251. 253. 254. 254. 254. 252. 252. 254. 250. 249. 248. 245. 234.
      187. 104. 0. 0. 0. 0. 0. 0. 0. 59. 152. 234. 236. 236. 239. 243.
      243. 247. 251. 254. 254. 254. 254. 253. 251. 250. 249. 246. 230.
      142. 0. 0. 0. 0. 0. 0. 0. 56. 156. 234. 232. 225. 224. 231. 236.
      243. 250. 250. 251. 252. 253. 254. 254. 253. 252. 249. 242. 157.
      0. 0. 0. 0. 0. 0. 0. 50. 152. 227. 225. 221. 221. 225. 227. 232.
      238. 243. 245. 249. 251. 253. 253. 253. 252. 252. 247. 159. 0. 0.
      0. 0. 0. 0. 0. 51. 158. 227. 226. 222. 222. 225. 225. 227. 232.
      240. 242. 248. 250. 252. 252. 251. 251. 249. 247. 156. 0. 0. 0. 0.
      0. 0. 0. 54. 166. 232. 229. 221. 219. 225. 230. 233. 237. 243.
      244. 250. 251. 252. 252. 252. 251. 247. 247. 159. 0. 0. 0. 0. 0.
      0. 0. 45. 162. 228. 230. 226. 226. 230. 235. 239. 242. 245. 247.
      252. 252. 254. 254. 253. 250. 251. 244. 160. 0. 0. 0. 0. 0. 0. 0.
      57. 164. 227. 238. 239. 240. 242. 244. 246. 248. 250. 251. 253.
      253. 254. 254. 252. 250. 251. 215. 135. 0. 0. 0. 0. 0. 0. 0. 93.
      192. 234. 243. 244. 245. 247. 250. 251. 252. 255. 255. 254. 253.
      254. 253. 249. 248. 243. 158. 88. 0. 0. 0. 0. 0. 0. 0. 178. 234.
      245. 247. 249. 249. 250. 251. 252. 254. 254. 253. 253. 254. 253.
      252. 249. 247. 232. 109. 49. 0. 0. 0. 0. 0. 0. 0. 174. 239. 251.
      250. 251. 253. 253. 253. 254. 255. 254. 251. 252. 253. 253. 250.
      248. 248. 204. 95. 43. 0. 0. 0. 0. 0. 0. 0. 118. 203. 237. 247.
      249. 251. 252. 253. 254. 252. 252. 254. 252. 247. 248. 253. 246.
      220. 123. 60. 37. 0. 0. 0. 0. 0. 0. 0. 63. 153. 202. 231. 244.
      248. 250. 251. 253. 246. 244. 251. 252. 250. 248. 241. 208. 160.
      67. 47. 47. 0. 0. 0. 0. 0. 0. 0. 41. 88. 121. 165. 207. 235. 246.
      248. 249. 251. 252. 252. 252. 243. 210. 160. 117. 88. 48. 47. 55.
      0. 0. 0. 0. 0. 0. 0. 47. 53. 51. 74. 128. 183. 213. 225. 230. 236.
      232. 226. 213. 181. 125. 74. 57. 60. 54. 50. 52. 0. 0. 0. 0. 0. 0.
      0. 46. 55. 43. 45. 73. 103. 119. 124. 133. 135. 131. 126. 116. 95.
      68. 47. 47. 57. 57. 49. 46. 0. 0. 0. 0. 0. 0. 0. 0. 0. 0. 0. 0. 0.
      0. 0. 0. 0. 0. 0. 0. 0. 0. 0. 0. 0. 0. 0. 0. 0. 0. 0. 0. 0. 0. 0.
      0. 0. 0. 0. 0. 0. 0. 0. 0. 0. 0. 0. 0. 0. 0. 0. 0. 0. 0. 0. 0. 0.
      0. 0. 0. 0. 0. 0. 0. 0. 0. 0. 0. 0. 0. 0. 0. 0. 0. 0. 0. 0. 0. 0.
      0. 0. 0. 0. 0. 0. 0. 0. 0. 0. 0. 0. 0. 0. 0. 0. 0. 0. 0. 0. 0. 0.
      0. 0. 0. 0. 0. 0. 0. 0. 0. 0. 0. 0. 0. 0. 0. 0. 0. 0. 0. 0. 0. 0.
      0. 0. 0. 0. 0. 0. 0. 0. 0. 0. 0. 0. 0. 0. 0. 0. 0. 0. 0. 0. 0. 0.
      0. 0. 0. 0. 0. 0. 0. 0. 0. 0. 0. 0. 0. 0. 0. 0. 0. 0. 0. 0. 0. 0.
      0. 0. 0. 0. 0. 0. 0. 0.</_>
    <_>
      48. 48. 50. 49. 37. 40. 49. 83. 103. 119. 130. 132. 127. 114. 99.
      85. 60. 38. 42. 53. 49. 48. 47. 0. 0. 0. 0. 0. 48. 44. 45. 53. 55.
      81. 134. 187. 204. 213. 214. 216. 214. 205. 191. 159. 101. 50. 39.
      41. 37. 41. 46. 0. 0. 0. 0. 0. 48. 38. 38. 81. 143. 187. 216. 238.
      241. 246. 241. 240. 243. 242. 233. 206. 153. 108. 91. 62. 28. 19.
      26. 0. 0. 0. 0. 0. 38. 42. 89. 176. 228. 236. 236. 235. 242. 250.
      248. 246. 247. 240. 229. 207. 184. 183. 178. 134. 65. 24. 18. 0.
      0. 0. 0. 0. 42. 84. 174. 223. 229. 240. 243. 248. 250. 251. 251.
      249. 244. 232. 218. 202. 194. 203. 212. 194. 135. 54. 17. 0. 0. 0.
      0. 0. 58. 117. 195. 228. 233. 242. 243. 255. 253. 249. 249. 245.
      234. 222. 215. 206. 202. 204. 204. 214. 180. 88. 32. 0. 0. 0. 0.
      0. 59. 138. 214. 231. 235. 247. 248. 250. 246. 248. 247. 233. 222.
      213. 209. 201. 204. 204. 191. 198. 167. 76. 29. 0. 0. 0. 0. 0.
      105. 189. 226. 232. 236. 248. 251. 249. 247. 244. 236. 220. 214.
      207. 200. 198. 208. 202. 153. 105. 86. 38. 21. 0. 0. 0. 0. 0. 153.
      225. 236. 238. 241. 249. 252. 250. 249. 234. 215. 216. 219. 195.
      159. 164. 158. 131. 84. 39. 41. 31. 30. 0. 0. 0. 0. 0. 169. 229.
      235. 240. 245. 249. 250. 246. 235. 208. 189. 198. 195. 146. 90.
      71. 74. 73. 48. 13. 40. 50. 51. 0. 0. 0. 0. 0. 168. 226. 235. 243.
      247. 249. 248. 238. 206. 151. 119. 128. 119. 74. 41. 44. 45. 53.
      30. 6. 77. 121. 119. 0. 0. 0. 0. 0. 169. 229. 239. 245. 247. 248.
      248. 235. 189. 110. 63. 66. 70. 47. 31. 40. 40. 42. 16. 16. 143.
      213. 209. 0. 0. 0. 0. 0. 167. 230. 239. 242. 246. 249. 248. 238.
      210. 152. 111. 119. 129. 91. 40. 21. 27. 34. 18. 40. 184. 253.
      233. 0. 0. 0. 0. 0. 165. 225. 236. 240. 246. 250. 247. 244. 235.
      216. 202. 204. 199. 147. 88. 64. 66. 62. 35. 46. 166. 208. 169. 0.
      0. 0. 0. 0. 147. 209. 232. 237. 245. 249. 249. 247. 236. 228. 219.
      206. 202. 183. 154. 150. 151. 131. 75. 45. 107. 118. 78. 0. 0. 0.
      0. 0. 102. 175. 222. 235. 240. 247. 251. 252. 247. 240. 231. 220.
      210. 197. 192. 194. 195. 179. 130. 89. 97. 66. 22. 0. 0. 0. 0. 0.
      61. 136. 211. 234. 239. 245. 250. 254. 253. 250. 239. 227. 214.
      201. 198. 199. 203. 197. 181. 172. 153. 87. 19. 0. 0. 0. 0. 0. 46.
      112. 194. 231. 239. 241. 246. 252. 253. 252. 248. 238. 227. 214.
      205. 200. 201. 200. 204. 211. 181. 96. 20. 0. 0. 0. 0. 0. 44. 81.
      153. 214. 239. 242. 247. 253. 254. 254. 250. 245. 237. 228. 215.
      203. 198. 198. 203. 195. 145. 72. 27. 0. 0. 0. 0. 0. 40. 50. 97.
      165. 215. 233. 240. 244. 249. 250. 249. 248. 245. 239. 226. 207.
      190. 184. 182. 140. 68. 27. 25. 0. 0. 0. 0. 0. 43. 45. 63. 99.
      142. 177. 218. 238. 246. 249. 249. 250. 248. 244. 230. 200. 159.
      131. 113. 79. 31. 18. 30. 0. 0. 0. 0. 0. 47. 49. 51. 57. 70. 88.
      156. 193. 212. 221. 225. 227. 225. 219. 192. 150. 99. 59. 43. 39.
      36. 40. 41. 0. 0. 0. 0. 0. 39. 36. 38. 46. 52. 50. 81. 110. 137.
      151. 156. 156. 148. 139. 107. 72. 49. 35. 31. 37. 41. 32. 26. 0.
      0. 0. 0. 0. 0. 0. 0. 0. 0. 0. 0. 0. 0. 0. 0. 0. 0. 0. 0. 0. 0. 0.
      0. 0. 0. 0. 0. 0. 0. 0. 0. 0. 0. 0. 0. 0. 0. 0. 0. 0. 0. 0. 0. 0.
      0. 0. 0. 0. 0. 0. 0. 0. 0. 0. 0. 0. 0. 0. 0. 0. 0. 0. 0. 0. 0. 0.
      0. 0. 0. 0. 0. 0. 0. 0. 0. 0. 0. 0. 0. 0. 0. 0. 0. 0. 0. 0. 0. 0.
      0. 0. 0. 0. 0. 0. 0. 0. 0. 0. 0. 0. 0. 0. 0. 0. 0. 0. 0. 0. 0. 0.
      0. 0. 0. 0. 0. 0. 0. 0. 0. 0. 0. 0. 0. 0. 0. 0. 0. 0. 0. 0. 0. 0.
      0. 0. 0. 0. 0. 0. 0. 0. 0. 0. 0. 0.</_>
    <_>
      44. 50. 53. 48. 44. 43. 50. 66. 83. 95. 95. 94. 87. 85. 82. 64.
      47. 39. 49. 0. 0. 0. 0. 0. 0. 0. 0. 0. 44. 46. 41. 38. 44. 55. 86.
      140. 193. 228. 244. 247. 247. 242. 230. 177. 87. 25. 26. 0. 0. 0.
      0. 0. 0. 0. 0. 0. 45. 40. 34. 51. 83. 134. 174. 218. 241. 247.
      244. 241. 240. 242. 245. 216. 131. 44. 19. 0. 0. 0. 0. 0. 0. 0. 0.
      0. 46. 36. 50. 102. 156. 217. 235. 242. 243. 244. 250. 252. 251.
      247. 245. 234. 178. 102. 49. 0. 0. 0. 0. 0. 0. 0. 0. 0. 42. 36.
      87. 170. 223. 238. 240. 244. 245. 250. 253. 251. 244. 241. 237.
      225. 200. 161. 103. 0. 0. 0. 0. 0. 0. 0. 0. 0. 35. 39. 124. 219.
      236. 246. 249. 254. 255. 252. 252. 250. 245. 238. 231. 222. 214.
      203. 150. 0. 0. 0. 0. 0. 0. 0. 0. 0. 38. 64. 166. 235. 236. 249.
      249. 253. 255. 252. 249. 246. 243. 230. 224. 214. 201. 191. 139.
      0. 0. 0. 0. 0. 0. 0. 0. 0. 56. 118. 208. 246. 244. 251. 248. 254.
      253. 254. 250. 245. 236. 222. 218. 189. 145. 119. 84. 0. 0. 0. 0.
      0. 0. 0. 0. 0. 78. 167. 236. 248. 244. 252. 252. 251. 242. 250.
      250. 225. 182. 177. 174. 132. 82. 57. 46. 0. 0. 0. 0. 0. 0. 0. 0.
      0. 93. 197. 239. 247. 245. 246. 253. 251. 249. 242. 217. 160. 93.
      101. 102. 77. 52. 44. 49. 0. 0. 0. 0. 0. 0. 0. 0. 0. 99. 199. 236.
      243. 249. 248. 252. 247. 233. 168. 123. 74. 42. 63. 67. 62. 52.
      48. 47. 0. 0. 0. 0. 0. 0. 0. 0. 0. 100. 199. 235. 241. 248. 253.
      252. 238. 212. 123. 68. 38. 38. 58. 60. 61. 52. 43. 41. 0. 0. 0.
      0. 0. 0. 0. 0. 0. 104. 203. 240. 245. 248. 251. 252. 244. 229.
      178. 128. 70. 37. 46. 54. 56. 46. 44. 49. 0. 0. 0. 0. 0. 0. 0. 0.
      0. 96. 193. 239. 246. 246. 249. 249. 250. 246. 234. 206. 136. 62.
      65. 85. 79. 52. 42. 43. 0. 0. 0. 0. 0. 0. 0. 0. 0. 90. 183. 236.
      246. 246. 250. 250. 252. 250. 249. 239. 202. 149. 144. 164. 131.
      64. 37. 37. 0. 0. 0. 0. 0. 0. 0. 0. 0. 61. 123. 202. 237. 241.
      248. 251. 253. 251. 249. 245. 239. 227. 209. 221. 178. 104. 79.
      72. 0. 0. 0. 0. 0. 0. 0. 0. 0. 49. 91. 172. 227. 241. 248. 251.
      254. 252. 252. 250. 244. 239. 222. 220. 208. 186. 191. 157. 0. 0.
      0. 0. 0. 0. 0. 0. 0. 44. 68. 140. 211. 240. 247. 250. 253. 253.
      253. 252. 246. 241. 228. 220. 209. 211. 211. 156. 0. 0. 0. 0. 0.
      0. 0. 0. 0. 46. 52. 105. 183. 230. 245. 248. 251. 251. 252. 253.
      254. 251. 246. 238. 220. 225. 194. 105. 0. 0. 0. 0. 0. 0. 0. 0. 0.
      47. 43. 71. 128. 190. 228. 238. 246. 249. 250. 252. 253. 250. 244.
      242. 233. 226. 163. 56. 0. 0. 0. 0. 0. 0. 0. 0. 0. 50. 43. 49. 78.
      129. 171. 198. 222. 238. 245. 247. 249. 248. 247. 247. 242. 220.
      130. 32. 0. 0. 0. 0. 0. 0. 0. 0. 0. 47. 47. 45. 57. 72. 93. 125.
      168. 205. 227. 238. 245. 247. 242. 227. 199. 159. 86. 23. 0. 0. 0.
      0. 0. 0. 0. 0. 0. 37. 42. 42. 51. 51. 50. 66. 96. 129. 153. 166.
      173. 168. 150. 132. 111. 80. 44. 23. 0. 0. 0. 0. 0. 0. 0. 0. 0. 0.
      0. 0. 0. 0. 0. 0. 0. 0. 0. 0. 0. 0. 0. 0. 0. 0. 0. 0. 0. 0. 0. 0.
      0. 0. 0. 0. 0. 0. 0. 0. 0. 0. 0. 0. 0. 0. 0. 0. 0. 0. 0. 0. 0. 0.
      0. 0. 0. 0. 0. 0. 0. 0. 0. 0. 0. 0. 0. 0. 0. 0. 0. 0. 0. 0. 0. 0.
      0. 0. 0. 0. 0. 0. 0. 0. 0. 0. 0. 0. 0. 0. 0. 0. 0. 0. 0. 0. 0. 0.
      0. 0. 0. 0. 0. 0. 0. 0. 0. 0. 0. 0. 0. 0. 0. 0. 0. 0. 0. 0. 0. 0.
      0. 0. 0. 0. 0. 0. 0. 0. 0. 0. 0. 0. 0. 0. 0. 0. 0. 0. 0. 0. 0. 0.
      0. 0. 0. 0. 0. 0. 0.</_>
    <_>
      56. 56. 47. 50. 51. 69. 118. 163. 183. 189. 198. 196. 195. 180.
      157. 125. 40. 0. 0. 0. 0. 0. 0. 0. 0. 0. 0. 0. 58. 59. 53. 90.
      117. 148. 203. 238. 245. 246. 249. 248. 251. 250. 242. 209. 84. 0.
      0. 0. 0. 0. 0. 0. 0. 0. 0. 0. 55. 58. 76. 150. 196. 214. 239. 244.
      245. 246. 248. 246. 245. 247. 250. 220. 96. 0. 0. 0. 0. 0. 0. 0.
      0. 0. 0. 0. 56. 68. 128. 200. 231. 233. 243. 242. 247. 250. 251.
      250. 247. 244. 232. 182. 103. 0. 0. 0. 0. 0. 0. 0. 0. 0. 0. 0. 54.
      84. 175. 225. 237. 236. 246. 247. 249. 251. 249. 248. 245. 233.
      202. 143. 123. 0. 0. 0. 0. 0. 0. 0. 0. 0. 0. 0. 58. 109. 201. 233.
      243. 244. 254. 253. 252. 251. 244. 249. 229. 192. 133. 120. 145.
      0. 0. 0. 0. 0. 0. 0. 0. 0. 0. 0. 81. 150. 225. 236. 241. 245. 253.
      250. 250. 250. 246. 235. 196. 149. 100. 87. 97. 0. 0. 0. 0. 0. 0.
      0. 0. 0. 0. 0. 114. 191. 236. 240. 244. 249. 251. 246. 246. 245.
      232. 185. 127. 103. 83. 62. 56. 0. 0. 0. 0. 0. 0. 0. 0. 0. 0. 0.
      138. 215. 240. 243. 245. 248. 250. 248. 249. 233. 178. 109. 63.
      77. 83. 58. 48. 0. 0. 0. 0. 0. 0. 0. 0. 0. 0. 0. 140. 219. 243.
      245. 244. 246. 248. 245. 230. 182. 91. 51. 41. 62. 78. 59. 49. 0.
      0. 0. 0. 0. 0. 0. 0. 0. 0. 0. 138. 212. 241. 243. 245. 247. 249.
      235. 187. 106. 39. 39. 54. 62. 66. 61. 51. 0. 0. 0. 0. 0. 0. 0. 0.
      0. 0. 0. 134. 211. 240. 243. 247. 248. 248. 234. 186. 109. 51. 46.
      64. 66. 63. 63. 55. 0. 0. 0. 0. 0. 0. 0. 0. 0. 0. 0. 136. 210.
      241. 245. 247. 246. 247. 248. 234. 172. 83. 40. 54. 66. 65. 62.
      58. 0. 0. 0. 0. 0. 0. 0. 0. 0. 0. 0. 127. 205. 240. 245. 248. 250.
      252. 249. 247. 238. 187. 107. 66. 72. 71. 64. 59. 0. 0. 0. 0. 0.
      0. 0. 0. 0. 0. 0. 102. 181. 232. 243. 244. 248. 252. 247. 246.
      241. 232. 191. 127. 103. 90. 67. 60. 0. 0. 0. 0. 0. 0. 0. 0. 0. 0.
      0. 75. 123. 191. 233. 241. 247. 252. 248. 245. 248. 250. 237. 194.
      139. 101. 90. 90. 0. 0. 0. 0. 0. 0. 0. 0. 0. 0. 0. 58. 82. 167.
      230. 240. 246. 251. 254. 255. 252. 246. 241. 231. 184. 127. 112.
      106. 0. 0. 0. 0. 0. 0. 0. 0. 0. 0. 0. 53. 74. 145. 209. 228. 235.
      242. 248. 253. 250. 250. 248. 245. 229. 181. 126. 88. 0. 0. 0. 0.
      0. 0. 0. 0. 0. 0. 0. 57. 58. 93. 157. 215. 243. 248. 246. 249.
      252. 253. 248. 247. 241. 223. 171. 90. 0. 0. 0. 0. 0. 0. 0. 0. 0.
      0. 0. 61. 48. 55. 106. 177. 215. 230. 239. 241. 248. 247. 246.
      248. 239. 240. 210. 101. 0. 0. 0. 0. 0. 0. 0. 0. 0. 0. 0. 59. 58.
      50. 56. 67. 84. 145. 211. 235. 242. 248. 250. 247. 245. 246. 203.
      91. 0. 0. 0. 0. 0. 0. 0. 0. 0. 0. 0. 51. 53. 55. 56. 53. 54. 73.
      114. 152. 173. 179. 180. 177. 168. 149. 110. 55. 0. 0. 0. 0. 0. 0.
      0. 0. 0. 0. 0. 0. 0. 0. 0. 0. 0. 0. 0. 0. 0. 0. 0. 0. 0. 0. 0. 0.
      0. 0. 0. 0. 0. 0. 0. 0. 0. 0. 0. 0. 0. 0. 0. 0. 0. 0. 0. 0. 0. 0.
      0. 0. 0. 0. 0. 0. 0. 0. 0. 0. 0. 0. 0. 0. 0. 0. 0. 0. 0. 0. 0. 0.
      0. 0. 0. 0. 0. 0. 0. 0. 0. 0. 0. 0. 0. 0. 0. 0. 0. 0. 0. 0. 0. 0.
      0. 0. 0. 0. 0. 0. 0. 0. 0. 0. 0. 0. 0. 0. 0. 0. 0. 0. 0. 0. 0. 0.
      0. 0. 0. 0. 0. 0. 0. 0. 0. 0. 0. 0. 0. 0. 0. 0. 0. 0. 0. 0. 0. 0.
      0. 0. 0. 0. 0. 0. 0. 0. 0. 0. 0. 0. 0. 0. 0. 0. 0. 0. 0. 0. 0. 0.
      0. 0. 0. 0. 0. 0. 0. 0. 0. 0. 0. 0. 0. 0. 0. 0. 0. 0. 0.</_>
    <_>
      50. 52. 45. 46. 53. 64. 104. 155. 184. 194. 194. 200. 201. 180.
      128. 62. 30. 35. 40. 45. 45. 42. 0. 0. 0. 0. 0. 0. 50. 49. 51. 79.
      115. 140. 186. 228. 243. 248. 248. 253. 249. 247. 220. 127. 34.
      23. 37. 45. 43. 41. 0. 0. 0. 0. 0. 0. 47. 48. 82. 141. 194. 220.
      235. 240. 244. 250. 249. 249. 249. 244. 199. 103. 34. 26. 37. 42.
      41. 40. 0. 0. 0. 0. 0. 0. 49. 73. 141. 202. 230. 239. 243. 246.
      249. 253. 250. 250. 246. 211. 136. 65. 35. 34. 39. 42. 40. 39. 0.
      0. 0. 0. 0. 0. 53. 108. 192. 233. 239. 241. 244. 247. 250. 251.
      250. 247. 221. 148. 72. 43. 42. 44. 44. 43. 41. 40. 0. 0. 0. 0. 0.
      0. 61. 130. 213. 238. 242. 248. 250. 250. 249. 250. 246. 218. 150.
      75. 46. 48. 51. 49. 45. 42. 41. 40. 0. 0. 0. 0. 0. 0. 93. 170.
      226. 238. 240. 246. 251. 250. 250. 250. 230. 159. 77. 40. 49. 55.
      52. 48. 43. 40. 39. 37. 0. 0. 0. 0. 0. 0. 140. 210. 238. 241. 244.
      247. 251. 251. 246. 225. 161. 84. 47. 46. 53. 54. 50. 45. 41. 40.
      38. 35. 0. 0. 0. 0. 0. 0. 172. 223. 239. 241. 250. 249. 250. 240.
      233. 178. 77. 37. 57. 68. 51. 55. 50. 44. 42. 42. 40. 35. 0. 0. 0.
      0. 0. 0. 178. 230. 242. 242. 247. 247. 245. 233. 174. 84. 33. 41.
      56. 58. 55. 52. 47. 41. 43. 46. 41. 36. 0. 0. 0. 0. 0. 0. 179.
      233. 242. 243. 249. 245. 234. 207. 85. 37. 32. 52. 56. 59. 64. 55.
      51. 45. 45. 47. 39. 35. 0. 0. 0. 0. 0. 0. 171. 234. 241. 241. 252.
      246. 239. 210. 112. 46. 31. 50. 61. 57. 54. 45. 44. 43. 43. 41.
      36. 37. 0. 0. 0. 0. 0. 0. 170. 235. 242. 240. 253. 248. 250. 236.
      213. 111. 43. 43. 57. 62. 60. 52. 48. 50. 46. 40. 39. 40. 0. 0. 0.
      0. 0. 0. 158. 226. 243. 242. 249. 244. 252. 248. 238. 199. 119.
      54. 37. 49. 61. 52. 46. 52. 46. 39. 44. 43. 0. 0. 0. 0. 0. 0. 125.
      196. 241. 244. 247. 247. 251. 248. 237. 233. 199. 120. 64. 49. 55.
      53. 47. 52. 41. 37. 48. 45. 0. 0. 0. 0. 0. 0. 82. 145. 228. 240.
      245. 248. 252. 250. 245. 244. 233. 203. 157. 111. 96. 101. 96. 93.
      77. 72. 77. 56. 0. 0. 0. 0. 0. 0. 57. 111. 212. 238. 242. 249.
      253. 252. 251. 250. 243. 236. 214. 180. 154. 151. 146. 148. 135.
      133. 128. 81. 0. 0. 0. 0. 0. 0. 52. 92. 173. 232. 238. 238. 247.
      249. 250. 253. 250. 247. 238. 223. 193. 172. 160. 163. 165. 166.
      147. 85. 0. 0. 0. 0. 0. 0. 54. 58. 111. 190. 233. 240. 244. 244.
      253. 254. 252. 248. 246. 241. 220. 195. 167. 159. 161. 152. 102.
      44. 0. 0. 0. 0. 0. 0. 54. 46. 65. 123. 179. 212. 235. 243. 247.
      248. 248. 246. 246. 245. 234. 213. 169. 136. 116. 101. 68. 37. 0.
      0. 0. 0. 0. 0. 55. 56. 52. 62. 82. 113. 168. 218. 243. 246. 247.
      245. 241. 234. 220. 194. 132. 84. 53. 48. 46. 38. 0. 0. 0. 0. 0.
      0. 51. 59. 56. 55. 55. 63. 98. 141. 163. 173. 177. 176. 174. 162.
      144. 122. 74. 46. 34. 40. 47. 46. 0. 0. 0. 0. 0. 0. 0. 0. 0. 0. 0.
      0. 0. 0. 0. 0. 0. 0. 0. 0. 0. 0. 0. 0. 0. 0. 0. 0. 0. 0. 0. 0. 0.
      0. 0. 0. 0. 0. 0. 0. 0. 0. 0. 0. 0. 0. 0. 0. 0. 0. 0. 0. 0. 0. 0.
      0. 0. 0. 0. 0. 0. 0. 0. 0. 0. 0. 0. 0. 0. 0. 0. 0. 0. 0. 0. 0. 0.
      0. 0. 0. 0. 0. 0. 0. 0. 0. 0. 0. 0. 0. 0. 0. 0. 0. 0. 0. 0. 0. 0.
      0. 0. 0. 0. 0. 0. 0. 0. 0. 0. 0. 0. 0. 0. 0. 0. 0. 0. 0. 0. 0. 0.
      0. 0. 0. 0. 0. 0. 0. 0. 0. 0. 0. 0. 0. 0. 0. 0. 0. 0. 0. 0. 0. 0.
      0. 0. 0. 0. 0. 0. 0. 0. 0. 0. 0. 0. 0. 0. 0. 0. 0. 0. 0. 0. 0. 0.
      0. 0. 0. 0. 0. 0. 0. 0. 0.</_>
    <_>
      20. 31. 56. 60. 57. 57. 70. 92. 107. 124. 140. 141. 131. 122. 108.
      92. 73. 57. 44. 43. 49. 53. 54. 0. 0. 0. 0. 0. 32. 48. 58. 57. 58.
      67. 105. 157. 187. 204. 221. 229. 227. 222. 211. 190. 160. 104.
      54. 41. 49. 54. 53. 0. 0. 0. 0. 0. 57. 54. 48. 64. 103. 139. 180.
      223. 241. 244. 245. 244. 243. 243. 243. 242. 219. 162. 113. 94.
      72. 41. 35. 0. 0. 0. 0. 0. 69. 51. 55. 107. 177. 221. 238. 246.
      249. 252. 253. 249. 247. 247. 246. 243. 231. 210. 202. 191. 137.
      65. 23. 0. 0. 0. 0. 0. 59. 52. 96. 169. 224. 242. 245. 248. 249.
      252. 253. 253. 253. 251. 240. 229. 225. 226. 230. 228. 200. 125.
      46. 0. 0. 0. 0. 0. 51. 55. 140. 213. 236. 243. 248. 253. 255. 254.
      252. 245. 247. 242. 234. 227. 221. 217. 215. 218. 219. 180. 91. 0.
      0. 0. 0. 0. 50. 71. 164. 227. 239. 245. 248. 253. 253. 253. 253.
      249. 245. 232. 226. 220. 214. 215. 218. 219. 222. 200. 102. 0. 0.
      0. 0. 0. 54. 119. 194. 232. 239. 247. 249. 254. 253. 248. 249.
      244. 233. 215. 221. 218. 214. 221. 215. 163. 125. 106. 66. 0. 0.
      0. 0. 0. 68. 172. 228. 241. 240. 247. 250. 253. 254. 251. 249.
      238. 225. 218. 215. 193. 200. 208. 177. 100. 58. 58. 51. 0. 0. 0.
      0. 0. 73. 212. 236. 244. 243. 246. 252. 250. 246. 246. 240. 229.
      231. 228. 174. 102. 92. 103. 91. 50. 32. 46. 51. 0. 0. 0. 0. 0.
      69. 224. 235. 240. 246. 251. 252. 253. 254. 242. 198. 165. 179.
      180. 122. 53. 43. 48. 60. 58. 61. 56. 55. 0. 0. 0. 0. 0. 74. 221.
      238. 240. 247. 247. 249. 247. 245. 207. 111. 51. 60. 76. 56. 41.
      62. 61. 62. 56. 57. 55. 55. 0. 0. 0. 0. 0. 75. 215. 241. 243. 246.
      255. 253. 252. 255. 225. 145. 101. 115. 131. 78. 42. 64. 66. 64.
      54. 57. 55. 53. 0. 0. 0. 0. 0. 78. 200. 241. 243. 245. 253. 245.
      245. 251. 241. 216. 204. 214. 214. 142. 65. 64. 72. 79. 61. 55.
      55. 52. 0. 0. 0. 0. 0. 78. 177. 238. 244. 246. 254. 253. 255. 254.
      246. 243. 232. 225. 223. 207. 168. 163. 157. 144. 84. 42. 51. 51.
      0. 0. 0. 0. 0. 56. 131. 221. 241. 242. 252. 249. 251. 252. 250.
      245. 239. 228. 223. 223. 213. 212. 210. 201. 146. 83. 88. 53. 0.
      0. 0. 0. 0. 49. 75. 162. 234. 241. 246. 249. 252. 252. 253. 251.
      246. 240. 224. 223. 219. 219. 216. 215. 199. 175. 168. 76. 0. 0.
      0. 0. 0. 50. 54. 129. 228. 242. 248. 250. 253. 251. 244. 247. 248.
      241. 239. 230. 219. 216. 215. 214. 217. 221. 220. 98. 0. 0. 0. 0.
      0. 58. 54. 105. 198. 238. 241. 246. 252. 254. 253. 253. 251. 247.
      240. 237. 226. 217. 213. 216. 217. 217. 185. 79. 0. 0. 0. 0. 0.
      61. 47. 54. 116. 204. 242. 244. 248. 246. 244. 249. 253. 251. 247.
      244. 235. 226. 219. 217. 208. 191. 96. 45. 0. 0. 0. 0. 0. 63. 57.
      37. 59. 134. 191. 215. 242. 249. 249. 249. 254. 253. 251. 247.
      240. 229. 200. 164. 139. 121. 41. 33. 0. 0. 0. 0. 0. 63. 69. 54.
      52. 57. 65. 115. 187. 238. 248. 248. 247. 244. 243. 247. 242. 214.
      145. 76. 53. 56. 42. 43. 0. 0. 0. 0. 0. 56. 53. 64. 67. 63. 54.
      47. 81. 128. 155. 165. 172. 176. 172. 162. 148. 125. 80. 42. 37.
      50. 52. 52. 0. 0. 0. 0. 0. 0. 0. 0. 0. 0. 0. 0. 0. 0. 0. 0. 0. 0.
      0. 0. 0. 0. 0. 0. 0. 0. 0. 0. 0. 0. 0. 0. 0. 0. 0. 0. 0. 0. 0. 0.
      0. 0. 0. 0. 0. 0. 0. 0. 0. 0. 0. 0. 0. 0. 0. 0. 0. 0. 0. 0. 0. 0.
      0. 0. 0. 0. 0. 0. 0. 0. 0. 0. 0. 0. 0. 0. 0. 0. 0. 0. 0. 0. 0. 0.
      0. 0. 0. 0. 0. 0. 0. 0. 0. 0. 0. 0. 0. 0. 0. 0. 0. 0. 0. 0. 0. 0.
      0. 0. 0. 0. 0. 0. 0. 0. 0. 0. 0. 0. 0. 0. 0. 0. 0. 0. 0. 0. 0. 0.
      0. 0. 0. 0. 0. 0. 0. 0. 0. 0. 0. 0. 0. 0. 0. 0. 0.</_>
    <_>
      48. 43. 42. 39. 36. 39. 46. 90. 134. 142. 152. 168. 167. 161. 143.
      119. 85. 44. 40. 0. 0. 0. 0. 0. 0. 0. 0. 0. 66. 68. 54. 52. 66.
      73. 134. 199. 226. 226. 229. 235. 232. 228. 224. 211. 157. 74. 32.
      0. 0. 0. 0. 0. 0. 0. 0. 0. 63. 56. 44. 77. 138. 172. 213. 237.
      246. 247. 249. 250. 251. 250. 248. 245. 205. 104. 31. 0. 0. 0. 0.
      0. 0. 0. 0. 0. 52. 41. 68. 140. 213. 238. 237. 242. 246. 246. 250.
      251. 248. 250. 248. 248. 229. 146. 56. 0. 0. 0. 0. 0. 0. 0. 0. 0.
      53. 58. 139. 218. 238. 240. 245. 246. 250. 251. 253. 254. 251.
      252. 248. 245. 239. 193. 112. 0. 0. 0. 0. 0. 0. 0. 0. 0. 42. 60.
      173. 236. 240. 238. 246. 246. 250. 252. 254. 254. 250. 249. 239.
      232. 236. 228. 160. 0. 0. 0. 0. 0. 0. 0. 0. 0. 41. 80. 189. 242.
      248. 248. 252. 252. 253. 254. 252. 252. 249. 245. 237. 223. 214.
      216. 158. 0. 0. 0. 0. 0. 0. 0. 0. 0. 68. 146. 223. 244. 247. 246.
      253. 253. 254. 254. 249. 251. 249. 244. 239. 200. 136. 124. 91. 0.
      0. 0. 0. 0. 0. 0. 0. 0. 113. 225. 244. 244. 248. 251. 255. 246.
      253. 254. 247. 234. 212. 197. 194. 138. 66. 48. 45. 0. 0. 0. 0. 0.
      0. 0. 0. 0. 108. 225. 245. 242. 249. 252. 250. 246. 249. 254. 246.
      182. 111. 102. 115. 84. 56. 47. 53. 0. 0. 0. 0. 0. 0. 0. 0. 0.
      117. 234. 246. 245. 250. 250. 252. 252. 250. 233. 183. 104. 44.
      53. 73. 71. 67. 61. 57. 0. 0. 0. 0. 0. 0. 0. 0. 0. 123. 229. 245.
      247. 250. 246. 250. 246. 248. 200. 108. 45. 36. 61. 79. 80. 71.
      61. 55. 0. 0. 0. 0. 0. 0. 0. 0. 0. 120. 219. 242. 245. 250. 249.
      252. 249. 248. 221. 157. 80. 43. 71. 83. 81. 66. 65. 63. 0. 0. 0.
      0. 0. 0. 0. 0. 0. 117. 221. 244. 244. 248. 250. 251. 247. 249.
      248. 230. 167. 93. 96. 105. 85. 55. 63. 64. 0. 0. 0. 0. 0. 0. 0.
      0. 0. 105. 206. 244. 244. 245. 251. 252. 249. 252. 251. 242. 229.
      188. 171. 180. 131. 58. 52. 53. 0. 0. 0. 0. 0. 0. 0. 0. 0. 78.
      159. 222. 245. 248. 249. 251. 254. 254. 251. 246. 249. 240. 241.
      231. 191. 107. 90. 73. 0. 0. 0. 0. 0. 0. 0. 0. 0. 55. 89. 141.
      208. 244. 244. 249. 251. 252. 252. 252. 247. 237. 246. 223. 196.
      143. 139. 112. 0. 0. 0. 0. 0. 0. 0. 0. 0. 57. 57. 81. 159. 231.
      244. 249. 249. 252. 254. 253. 250. 246. 241. 211. 145. 79. 80. 82.
      0. 0. 0. 0. 0. 0. 0. 0. 0. 69. 55. 58. 120. 206. 242. 247. 249.
      251. 251. 252. 252. 247. 241. 233. 182. 107. 60. 50. 0. 0. 0. 0.
      0. 0. 0. 0. 0. 72. 60. 51. 79. 144. 210. 240. 247. 250. 249. 250.
      252. 253. 252. 246. 230. 169. 73. 28. 0. 0. 0. 0. 0. 0. 0. 0. 0.
      67. 65. 59. 50. 74. 137. 188. 212. 236. 248. 249. 249. 250. 250.
      247. 246. 210. 91. 24. 0. 0. 0. 0. 0. 0. 0. 0. 0. 58. 68. 73. 57.
      55. 74. 93. 128. 181. 226. 239. 239. 239. 239. 237. 226. 174. 72.
      21. 0. 0. 0. 0. 0. 0. 0. 0. 0. 53. 60. 69. 61. 62. 59. 51. 66.
      109. 157. 181. 182. 179. 173. 159. 131. 86. 44. 38. 0. 0. 0. 0. 0.
      0. 0. 0. 0. 0. 0. 0. 0. 0. 0. 0. 0. 0. 0. 0. 0. 0. 0. 0. 0. 0. 0.
      0. 0. 0. 0. 0. 0. 0. 0. 0. 0. 0. 0. 0. 0. 0. 0. 0. 0. 0. 0. 0. 0.
      0. 0. 0. 0. 0. 0. 0. 0. 0. 0. 0. 0. 0. 0. 0. 0. 0. 0. 0. 0. 0. 0.
      0. 0. 0. 0. 0. 0. 0. 0. 0. 0. 0. 0. 0. 0. 0. 0. 0. 0. 0. 0. 0. 0.
      0. 0. 0. 0. 0. 0. 0. 0. 0. 0. 0. 0. 0. 0. 0. 0. 0. 0. 0. 0. 0. 0.
      0. 0. 0. 0. 0. 0. 0. 0. 0. 0. 0. 0. 0. 0. 0. 0. 0. 0. 0. 0. 0. 0.
      0. 0. 0. 0. 0. 0. 0. 0. 0. 0. 0. 0.</_>
    <_>
      74. 68. 61. 62. 57. 57. 72. 98. 92. 91. 107. 116. 116. 104. 85.
      69. 69. 58. 45. 46. 29. 36. 128. 0. 0. 0. 0. 0. 58. 51. 47. 51.
      49. 64. 113. 184. 206. 219. 225. 228. 231. 217. 182. 150. 135. 88.
      42. 43. 36. 25. 70. 0. 0. 0. 0. 0. 67. 58. 61. 89. 115. 156. 213.
      243. 242. 246. 249. 251. 248. 244. 238. 218. 207. 157. 102. 81.
      54. 29. 41. 0. 0. 0. 0. 0. 58. 49. 83. 158. 216. 234. 239. 245.
      245. 249. 250. 246. 246. 245. 242. 222. 224. 209. 194. 170. 111.
      52. 29. 0. 0. 0. 0. 0. 40. 56. 137. 223. 243. 248. 244. 244. 251.
      254. 254. 250. 253. 244. 221. 218. 218. 211. 216. 214. 174. 106.
      36. 0. 0. 0. 0. 0. 45. 99. 205. 244. 242. 243. 249. 252. 247. 247.
      254. 251. 241. 231. 219. 214. 218. 209. 211. 219. 213. 169. 60. 0.
      0. 0. 0. 0. 61. 116. 222. 247. 248. 250. 253. 246. 250. 251. 249.
      237. 230. 220. 215. 214. 216. 214. 213. 218. 219. 172. 72. 0. 0.
      0. 0. 0. 94. 160. 233. 245. 248. 251. 254. 252. 251. 248. 239.
      226. 220. 219. 219. 218. 217. 223. 213. 164. 140. 112. 57. 0. 0.
      0. 0. 0. 136. 213. 240. 245. 249. 255. 253. 250. 244. 238. 231.
      221. 220. 218. 212. 204. 190. 206. 180. 87. 53. 59. 38. 0. 0. 0.
      0. 0. 157. 235. 241. 246. 249. 255. 253. 251. 247. 239. 232. 225.
      225. 214. 180. 112. 100. 125. 117. 51. 31. 49. 42. 0. 0. 0. 0. 0.
      157. 236. 242. 246. 249. 251. 249. 245. 242. 225. 189. 171. 181.
      170. 117. 44. 50. 67. 71. 49. 43. 53. 53. 0. 0. 0. 0. 0. 154. 235.
      242. 248. 249. 251. 249. 240. 231. 191. 121. 79. 99. 101. 65. 44.
      58. 61. 57. 58. 52. 45. 48. 0. 0. 0. 0. 0. 160. 237. 243. 249.
      250. 253. 252. 245. 234. 199. 130. 88. 103. 107. 70. 51. 60. 57.
      53. 58. 56. 46. 45. 0. 0. 0. 0. 0. 163. 238. 242. 248. 249. 251.
      251. 243. 234. 225. 200. 179. 188. 179. 125. 67. 68. 71. 62. 50.
      50. 53. 52. 0. 0. 0. 0. 0. 147. 231. 239. 243. 249. 250. 251. 249.
      244. 237. 227. 220. 223. 215. 185. 142. 134. 134. 116. 62. 43. 51.
      52. 0. 0. 0. 0. 0. 130. 207. 241. 248. 250. 251. 251. 252. 248.
      240. 232. 224. 221. 216. 213. 206. 201. 204. 188. 121. 78. 68. 53.
      0. 0. 0. 0. 0. 72. 136. 216. 243. 247. 254. 253. 254. 251. 248.
      242. 232. 225. 221. 219. 217. 216. 221. 214. 188. 157. 125. 66. 0.
      0. 0. 0. 0. 43. 95. 200. 245. 248. 253. 254. 252. 252. 252. 248.
      240. 232. 226. 222. 217. 214. 215. 216. 222. 221. 184. 86. 0. 0.
      0. 0. 0. 45. 85. 185. 238. 246. 247. 251. 251. 250. 252. 251. 248.
      241. 235. 228. 219. 217. 215. 214. 219. 214. 168. 77. 0. 0. 0. 0.
      0. 56. 54. 107. 194. 237. 246. 250. 253. 252. 253. 253. 252. 248.
      243. 235. 224. 219. 220. 214. 209. 178. 99. 39. 0. 0. 0. 0. 0. 64.
      39. 47. 123. 190. 215. 222. 234. 246. 249. 250. 251. 249. 246.
      238. 230. 226. 215. 182. 156. 121. 59. 33. 0. 0. 0. 0. 0. 63. 61.
      43. 60. 96. 106. 143. 186. 225. 240. 245. 249. 250. 248. 242. 235.
      230. 186. 105. 60. 51. 42. 41. 0. 0. 0. 0. 0. 56. 59. 54. 53. 57.
      53. 73. 114. 147. 164. 176. 184. 187. 190. 188. 180. 169. 116. 52.
      31. 42. 47. 46. 0. 0. 0. 0. 0. 0. 0. 0. 0. 0. 0. 0. 0. 0. 0. 0. 0.
      0. 0. 0. 0. 0. 0. 0. 0. 0. 0. 0. 0. 0. 0. 0. 0. 0. 0. 0. 0. 0. 0.
      0. 0. 0. 0. 0. 0. 0. 0. 0. 0. 0. 0. 0. 0. 0. 0. 0. 0. 0. 0. 0. 0.
      0. 0. 0. 0. 0. 0. 0. 0. 0. 0. 0. 0. 0. 0. 0. 0. 0. 0. 0. 0. 0. 0.
      0. 0. 0. 0. 0. 0. 0. 0. 0. 0. 0. 0. 0. 0. 0. 0. 0. 0. 0. 0. 0. 0.
      0. 0. 0. 0. 0. 0. 0. 0. 0. 0. 0. 0. 0. 0. 0. 0. 0. 0. 0. 0. 0. 0.
      0. 0. 0. 0. 0. 0. 0. 0. 0. 0. 0. 0. 0. 0. 0. 0. 0. 0.</_></support_vectors>
  <decision_functions>
    <_>
      <sv_count>17</sv_count>
      <rho>-1.8026453232553978e+00</rho>
      <alpha>
        6.8070371222607139e-29 1.6724087931403052e-29
        9.7987132634233691e-31 3.6224865197169966e-28
        2.0915143506592451e-30 3.4675631065987761e-29
        4.7710682859917758e-29 3.7767528651892571e-29
        3.8863185091370059e-29 1.2373513082630213e-29
        -1.8642518200057718e-28 -2.5726622390778391e-29
        -5.0787718771466830e-29 -7.5946130808467747e-29
        -2.6575624684139484e-28 -3.2508105733219922e-30
        -1.3612326168545024e-29</alpha>
      <index>
        0 1 2 3 4 5 6 7 8 9 10 11 12 13 14 15 16</index></_></decision_functions></pacman27>
</opencv_storage>
