<?xml version="1.0"?>
<opencv_storage>
<pacman3 type_id="opencv-ml-svm">
  <svm_type>C_SVC</svm_type>
  <kernel><type>POLY</type>
    <degree>4.</degree>
    <gamma>1.</gamma>
    <coef0>0.</coef0></kernel>
  <C>1.</C>
  <term_criteria><epsilon>2.2204460492503131e-16</epsilon>
    <iterations>5000</iterations></term_criteria>
  <var_all>784</var_all>
  <var_count>784</var_count>
  <class_count>2</class_count>
  <class_labels type_id="opencv-matrix">
    <rows>1</rows>
    <cols>2</cols>
    <dt>i</dt>
    <data>
      -1 1</data></class_labels>
  <sv_total>19</sv_total>
  <support_vectors>
    <_>
      31. 48. 48. 49. 50. 61. 61. 63. 75. 86. 87. 83. 69. 51. 45. 50.
      48. 47. 49. 36. 20. 0. 0. 0. 0. 0. 0. 0. 29. 37. 36. 47. 66. 87.
      84. 93. 119. 140. 139. 124. 99. 74. 69. 60. 45. 38. 41. 37. 21. 0.
      0. 0. 0. 0. 0. 0. 20. 26. 40. 71. 102. 125. 127. 133. 148. 149.
      144. 147. 144. 127. 114. 109. 86. 44. 20. 24. 21. 0. 0. 0. 0. 0.
      0. 0. 13. 32. 85. 137. 155. 163. 173. 179. 169. 135. 122. 161.
      195. 187. 166. 169. 158. 102. 32. 17. 14. 0. 0. 0. 0. 0. 0. 0. 15.
      55. 143. 207. 202. 190. 201. 218. 201. 144. 129. 182. 221. 216.
      198. 197. 209. 167. 73. 23. 10. 0. 0. 0. 0. 0. 0. 0. 22. 78. 187.
      242. 232. 226. 229. 236. 220. 153. 124. 193. 241. 238. 224. 224.
      228. 208. 119. 18. 10. 0. 0. 0. 0. 0. 0. 0. 25. 96. 205. 247. 241.
      234. 233. 244. 231. 153. 121. 193. 243. 242. 234. 233. 233. 222.
      141. 26. 11. 0. 0. 0. 0. 0. 0. 0. 24. 110. 211. 251. 252. 250.
      250. 251. 228. 147. 121. 193. 240. 247. 248. 246. 245. 228. 150.
      43. 13. 0. 0. 0. 0. 0. 0. 0. 32. 113. 201. 238. 249. 252. 250.
      234. 196. 136. 125. 181. 227. 246. 254. 252. 242. 211. 140. 51.
      17. 0. 0. 0. 0. 0. 0. 0. 58. 124. 180. 208. 231. 246. 240. 199.
      157. 131. 130. 155. 189. 227. 246. 245. 220. 176. 126. 68. 31. 0.
      0. 0. 0. 0. 0. 0. 93. 134. 158. 173. 203. 215. 204. 163. 135. 136.
      136. 134. 157. 195. 210. 209. 182. 149. 135. 104. 59. 0. 0. 0. 0.
      0. 0. 0. 126. 142. 148. 145. 161. 167. 160. 142. 133. 137. 135.
      131. 143. 161. 165. 163. 149. 137. 144. 136. 84. 0. 0. 0. 0. 0. 0.
      0. 147. 148. 148. 134. 144. 149. 141. 142. 142. 132. 128. 134.
      137. 146. 143. 142. 139. 135. 141. 146. 98. 0. 0. 0. 0. 0. 0. 0.
      149. 150. 133. 132. 137. 136. 135. 135. 135. 130. 127. 131. 136.
      140. 139. 142. 139. 136. 139. 146. 99. 0. 0. 0. 0. 0. 0. 0. 150.
      147. 129. 129. 131. 135. 134. 133. 132. 130. 127. 128. 134. 134.
      134. 139. 135. 136. 145. 150. 101. 0. 0. 0. 0. 0. 0. 0. 150. 148.
      135. 130. 130. 134. 131. 132. 134. 130. 129. 130. 132. 132. 132.
      136. 133. 135. 144. 149. 99. 0. 0. 0. 0. 0. 0. 0. 149. 148. 138.
      130. 130. 131. 127. 132. 134. 130. 130. 132. 131. 134. 132. 135.
      132. 135. 142. 150. 104. 0. 0. 0. 0. 0. 0. 0. 147. 151. 138. 129.
      132. 127. 126. 132. 134. 132. 133. 134. 131. 133. 130. 135. 131.
      135. 142. 152. 109. 0. 0. 0. 0. 0. 0. 0. 151. 158. 141. 130. 135.
      128. 131. 135. 137. 145. 146. 138. 133. 129. 129. 133. 128. 133.
      142. 154. 109. 0. 0. 0. 0. 0. 0. 0. 154. 160. 129. 110. 123. 132.
      140. 141. 150. 175. 173. 150. 140. 135. 134. 131. 117. 118. 138.
      158. 115. 0. 0. 0. 0. 0. 0. 0. 148. 144. 98. 73. 90. 133. 146.
      145. 164. 207. 205. 168. 154. 150. 141. 119. 78. 76. 114. 156.
      115. 0. 0. 0. 0. 0. 0. 0. 125. 114. 64. 43. 65. 117. 139. 146.
      157. 183. 181. 155. 150. 156. 135. 91. 41. 36. 81. 138. 105. 0. 0.
      0. 0. 0. 0. 0. 89. 80. 48. 39. 56. 84. 118. 131. 118. 101. 91. 96.
      112. 140. 106. 50. 27. 33. 63. 93. 85. 0. 0. 0. 0. 0. 0. 0. 51.
      53. 45. 46. 54. 64. 89. 93. 74. 51. 41. 54. 80. 95. 78. 50. 39.
      37. 48. 64. 45. 0. 0. 0. 0. 0. 0. 0. 0. 0. 0. 0. 0. 0. 0. 0. 0. 0.
      0. 0. 0. 0. 0. 0. 0. 0. 0. 0. 0. 0. 0. 0. 0. 0. 0. 0. 0. 0. 0. 0.
      0. 0. 0. 0. 0. 0. 0. 0. 0. 0. 0. 0. 0. 0. 0. 0. 0. 0. 0. 0. 0. 0.
      0. 0. 0. 0. 0. 0. 0. 0. 0. 0. 0. 0. 0. 0. 0. 0. 0. 0. 0. 0. 0. 0.
      0. 0. 0. 0. 0. 0. 0. 0. 0. 0. 0. 0. 0. 0. 0. 0. 0. 0. 0. 0. 0. 0.
      0. 0. 0. 0. 0. 0. 0. 0. 0. 0. 0. 0. 0. 0.</_>
    <_>
      39. 46. 64. 102. 142. 173. 182. 184. 194. 187. 138. 75. 41. 46.
      53. 48. 48. 50. 46. 0. 0. 0. 0. 0. 0. 0. 0. 0. 51. 93. 132. 170.
      205. 219. 215. 216. 219. 216. 204. 166. 128. 93. 61. 45. 50. 54.
      49. 0. 0. 0. 0. 0. 0. 0. 0. 0. 109. 170. 202. 212. 223. 221. 213.
      214. 217. 215. 215. 214. 214. 181. 110. 55. 41. 49. 52. 0. 0. 0.
      0. 0. 0. 0. 0. 0. 155. 213. 222. 219. 222. 224. 224. 226. 224.
      221. 222. 216. 220. 216. 179. 114. 65. 49. 50. 0. 0. 0. 0. 0. 0.
      0. 0. 0. 147. 208. 227. 224. 223. 224. 223. 222. 222. 223. 223.
      220. 218. 220. 214. 176. 111. 63. 47. 0. 0. 0. 0. 0. 0. 0. 0. 0.
      120. 182. 229. 233. 226. 226. 224. 224. 232. 232. 233. 233. 221.
      225. 224. 210. 163. 94. 51. 0. 0. 0. 0. 0. 0. 0. 0. 0. 111. 165.
      229. 237. 229. 226. 224. 225. 234. 235. 240. 243. 230. 232. 225.
      222. 200. 121. 57. 0. 0. 0. 0. 0. 0. 0. 0. 0. 145. 170. 227. 242.
      233. 227. 225. 223. 223. 226. 234. 239. 237. 235. 227. 226. 207.
      128. 59. 0. 0. 0. 0. 0. 0. 0. 0. 0. 171. 171. 217. 240. 234. 226.
      221. 212. 207. 213. 224. 232. 237. 234. 227. 230. 215. 142. 70. 0.
      0. 0. 0. 0. 0. 0. 0. 0. 179. 159. 197. 231. 234. 224. 216. 201.
      192. 201. 217. 223. 234. 233. 226. 228. 222. 175. 95. 0. 0. 0. 0.
      0. 0. 0. 0. 0. 193. 146. 169. 217. 235. 227. 215. 202. 190. 199.
      213. 215. 231. 233. 228. 226. 222. 212. 130. 0. 0. 0. 0. 0. 0. 0.
      0. 0. 175. 130. 146. 201. 233. 230. 219. 211. 203. 208. 217. 217.
      230. 232. 228. 221. 220. 221. 149. 0. 0. 0. 0. 0. 0. 0. 0. 0. 152.
      119. 129. 190. 232. 231. 222. 219. 216. 219. 224. 223. 227. 228.
      225. 221. 222. 226. 162. 0. 0. 0. 0. 0. 0. 0. 0. 0. 146. 114. 119.
      185. 234. 234. 226. 223. 222. 224. 226. 226. 229. 226. 225. 225.
      224. 225. 166. 0. 0. 0. 0. 0. 0. 0. 0. 0. 144. 116. 116. 184. 231.
      233. 228. 228. 228. 230. 233. 234. 233. 230. 224. 224. 223. 223.
      167. 0. 0. 0. 0. 0. 0. 0. 0. 0. 133. 117. 115. 184. 230. 228. 225.
      228. 228. 231. 234. 231. 228. 227. 224. 225. 222. 221. 166. 0. 0.
      0. 0. 0. 0. 0. 0. 0. 122. 117. 111. 187. 238. 233. 227. 227. 226.
      228. 232. 234. 233. 232. 227. 226. 225. 225. 164. 0. 0. 0. 0. 0.
      0. 0. 0. 0. 121. 124. 111. 187. 240. 234. 226. 225. 225. 226. 229.
      232. 234. 233. 228. 224. 226. 229. 164. 0. 0. 0. 0. 0. 0. 0. 0. 0.
      124. 133. 117. 185. 231. 228. 221. 220. 223. 224. 222. 221. 221.
      223. 222. 220. 222. 225. 162. 0. 0. 0. 0. 0. 0. 0. 0. 0. 124. 132.
      126. 187. 225. 230. 227. 219. 219. 220. 216. 211. 211. 215. 216.
      217. 219. 220. 158. 0. 0. 0. 0. 0. 0. 0. 0. 0. 120. 130. 135. 174.
      189. 206. 219. 214. 209. 209. 200. 185. 183. 197. 209. 213. 216.
      217. 139. 0. 0. 0. 0. 0. 0. 0. 0. 0. 117. 137. 141. 145. 128. 155.
      202. 209. 204. 203. 178. 139. 130. 160. 197. 207. 201. 189. 99. 0.
      0. 0. 0. 0. 0. 0. 0. 0. 113. 108. 117. 101. 74. 90. 147. 180. 185.
      165. 126. 87. 76. 108. 157. 181. 162. 122. 66. 0. 0. 0. 0. 0. 0.
      0. 0. 0. 0. 0. 0. 0. 0. 0. 0. 0. 0. 0. 0. 0. 0. 0. 0. 0. 0. 0. 0.
      0. 0. 0. 0. 0. 0. 0. 0. 0. 0. 0. 0. 0. 0. 0. 0. 0. 0. 0. 0. 0. 0.
      0. 0. 0. 0. 0. 0. 0. 0. 0. 0. 0. 0. 0. 0. 0. 0. 0. 0. 0. 0. 0. 0.
      0. 0. 0. 0. 0. 0. 0. 0. 0. 0. 0. 0. 0. 0. 0. 0. 0. 0. 0. 0. 0. 0.
      0. 0. 0. 0. 0. 0. 0. 0. 0. 0. 0. 0. 0. 0. 0. 0. 0. 0. 0. 0. 0. 0.
      0. 0. 0. 0. 0. 0. 0. 0. 0. 0. 0. 0. 0. 0. 0. 0. 0. 0. 0. 0. 0. 0.
      0. 0. 0. 0. 0. 0. 0. 0. 0. 0. 0.</_>
    <_>
      94. 119. 110. 103. 104. 105. 98. 93. 94. 97. 95. 98. 98. 96. 98.
      106. 108. 105. 93. 0. 0. 0. 0. 0. 0. 0. 0. 0. 69. 69. 45. 49. 82.
      99. 94. 88. 81. 80. 70. 60. 53. 38. 43. 64. 66. 65. 59. 0. 0. 0.
      0. 0. 0. 0. 0. 0. 45. 40. 16. 65. 153. 181. 183. 187. 193. 197.
      186. 148. 94. 45. 42. 52. 45. 51. 52. 0. 0. 0. 0. 0. 0. 0. 0. 0.
      37. 24. 10. 95. 217. 246. 245. 248. 247. 246. 248. 239. 201. 141.
      95. 55. 33. 45. 52. 0. 0. 0. 0. 0. 0. 0. 0. 0. 38. 27. 10. 85.
      207. 244. 242. 246. 248. 249. 249. 248. 242. 230. 192. 120. 53.
      37. 50. 0. 0. 0. 0. 0. 0. 0. 0. 0. 39. 36. 21. 61. 160. 226. 244.
      245. 247. 251. 249. 248. 250. 249. 237. 192. 113. 48. 43. 0. 0. 0.
      0. 0. 0. 0. 0. 0. 39. 40. 44. 44. 84. 172. 233. 247. 239. 246.
      252. 251. 251. 246. 242. 232. 169. 70. 36. 0. 0. 0. 0. 0. 0. 0. 0.
      0. 41. 41. 59. 48. 35. 86. 184. 234. 241. 247. 251. 250. 251. 250.
      248. 246. 198. 95. 40. 0. 0. 0. 0. 0. 0. 0. 0. 0. 41. 35. 51. 61.
      51. 48. 98. 177. 231. 247. 251. 249. 251. 254. 250. 246. 220. 142.
      66. 0. 0. 0. 0. 0. 0. 0. 0. 0. 35. 35. 49. 48. 37. 45. 43. 92.
      196. 239. 247. 247. 249. 253. 248. 244. 243. 200. 105. 0. 0. 0. 0.
      0. 0. 0. 0. 0. 37. 42. 39. 45. 46. 55. 53. 57. 102. 188. 235. 247.
      249. 252. 251. 248. 247. 219. 138. 0. 0. 0. 0. 0. 0. 0. 0. 0. 42.
      47. 29. 47. 58. 53. 55. 45. 45. 107. 197. 240. 248. 250. 251. 250.
      249. 221. 142. 0. 0. 0. 0. 0. 0. 0. 0. 0. 38. 39. 33. 53. 55. 46.
      56. 50. 36. 47. 154. 228. 245. 249. 252. 253. 251. 224. 142. 0. 0.
      0. 0. 0. 0. 0. 0. 0. 27. 33. 43. 49. 43. 48. 60. 43. 30. 49. 155.
      228. 246. 252. 254. 253. 251. 224. 141. 0. 0. 0. 0. 0. 0. 0. 0. 0.
      31. 40. 38. 41. 44. 52. 44. 28. 39. 121. 198. 240. 249. 252. 252.
      252. 252. 226. 144. 0. 0. 0. 0. 0. 0. 0. 0. 0. 38. 41. 33. 39. 48.
      45. 27. 44. 111. 208. 236. 248. 249. 248. 248. 252. 252. 218. 135.
      0. 0. 0. 0. 0. 0. 0. 0. 0. 32. 35. 41. 46. 39. 32. 45. 102. 204.
      245. 247. 251. 251. 247. 249. 249. 238. 182. 99. 0. 0. 0. 0. 0. 0.
      0. 0. 0. 36. 38. 47. 50. 30. 39. 100. 179. 237. 246. 246. 250.
      252. 251. 253. 248. 213. 133. 63. 0. 0. 0. 0. 0. 0. 0. 0. 0. 32.
      38. 42. 38. 39. 86. 173. 237. 242. 248. 252. 250. 254. 248. 252.
      249. 187. 95. 49. 0. 0. 0. 0. 0. 0. 0. 0. 0. 28. 34. 30. 29. 85.
      168. 229. 244. 246. 251. 251. 245. 249. 245. 251. 234. 149. 67.
      46. 0. 0. 0. 0. 0. 0. 0. 0. 0. 31. 29. 20. 58. 156. 228. 246. 243.
      246. 250. 251. 250. 250. 245. 234. 186. 100. 52. 45. 0. 0. 0. 0.
      0. 0. 0. 0. 0. 33. 19. 15. 107. 216. 246. 246. 244. 247. 251. 247.
      249. 238. 214. 177. 113. 57. 47. 48. 0. 0. 0. 0. 0. 0. 0. 0. 0.
      32. 16. 15. 116. 217. 240. 244. 246. 246. 245. 240. 224. 179. 141.
      104. 57. 46. 43. 45. 0. 0. 0. 0. 0. 0. 0. 0. 0. 31. 21. 14. 72.
      152. 191. 201. 199. 197. 195. 187. 162. 98. 66. 59. 40. 48. 40.
      37. 0. 0. 0. 0. 0. 0. 0. 0. 0. 29. 27. 20. 33. 72. 108. 112. 109.
      110. 105. 106. 89. 47. 33. 43. 39. 42. 40. 41. 0. 0. 0. 0. 0. 0.
      0. 0. 0. 0. 0. 0. 0. 0. 0. 0. 0. 0. 0. 0. 0. 0. 0. 0. 0. 0. 0. 0.
      0. 0. 0. 0. 0. 0. 0. 0. 0. 0. 0. 0. 0. 0. 0. 0. 0. 0. 0. 0. 0. 0.
      0. 0. 0. 0. 0. 0. 0. 0. 0. 0. 0. 0. 0. 0. 0. 0. 0. 0. 0. 0. 0. 0.
      0. 0. 0. 0. 0. 0. 0. 0. 0. 0. 0. 0. 0. 0. 0. 0. 0. 0. 0. 0. 0.</_>
    <_>
      46. 28. 30. 84. 139. 152. 154. 158. 158. 149. 123. 86. 59. 44. 45.
      53. 59. 53. 46. 0. 0. 0. 0. 0. 0. 0. 0. 0. 47. 73. 107. 156. 202.
      200. 200. 199. 199. 198. 183. 153. 129. 93. 62. 53. 51. 51. 47. 0.
      0. 0. 0. 0. 0. 0. 0. 0. 89. 159. 193. 194. 198. 202. 199. 198.
      198. 199. 199. 197. 194. 164. 109. 64. 46. 47. 45. 0. 0. 0. 0. 0.
      0. 0. 0. 0. 123. 198. 222. 202. 196. 203. 204. 207. 206. 203. 200.
      194. 190. 198. 165. 108. 69. 52. 46. 0. 0. 0. 0. 0. 0. 0. 0. 0.
      127. 190. 217. 208. 207. 203. 204. 209. 209. 206. 204. 197. 194.
      201. 196. 163. 107. 61. 46. 0. 0. 0. 0. 0. 0. 0. 0. 0. 112. 160.
      207. 215. 209. 209. 210. 212. 212. 213. 213. 213. 212. 202. 201.
      195. 146. 84. 55. 0. 0. 0. 0. 0. 0. 0. 0. 0. 117. 137. 199. 223.
      212. 211. 212. 212. 212. 214. 214. 214. 214. 203. 202. 205. 171.
      108. 66. 0. 0. 0. 0. 0. 0. 0. 0. 0. 140. 138. 198. 231. 213. 209.
      210. 205. 206. 211. 213. 217. 215. 211. 209. 209. 181. 117. 68. 0.
      0. 0. 0. 0. 0. 0. 0. 0. 156. 142. 195. 229. 213. 205. 201. 195.
      192. 200. 210. 217. 216. 215. 210. 209. 187. 120. 72. 0. 0. 0. 0.
      0. 0. 0. 0. 0. 163. 133. 174. 222. 217. 199. 190. 179. 176. 187.
      197. 209. 210. 213. 207. 207. 196. 143. 91. 0. 0. 0. 0. 0. 0. 0.
      0. 0. 158. 114. 136. 195. 222. 198. 187. 174. 174. 185. 192. 205.
      207. 211. 209. 206. 204. 173. 119. 0. 0. 0. 0. 0. 0. 0. 0. 0. 149.
      108. 104. 167. 224. 206. 194. 182. 184. 192. 197. 209. 209. 210.
      212. 206. 206. 195. 140. 0. 0. 0. 0. 0. 0. 0. 0. 0. 142. 113. 95.
      152. 219. 210. 202. 190. 191. 198. 201. 212. 211. 208. 212. 204.
      203. 203. 154. 0. 0. 0. 0. 0. 0. 0. 0. 0. 130. 109. 92. 149. 219.
      218. 209. 201. 202. 204. 204. 212. 212. 207. 211. 203. 201. 203.
      157. 0. 0. 0. 0. 0. 0. 0. 0. 0. 117. 96. 90. 154. 221. 222. 212.
      206. 207. 207. 207. 212. 212. 209. 210. 200. 201. 203. 153. 0. 0.
      0. 0. 0. 0. 0. 0. 0. 113. 100. 85. 155. 220. 223. 212. 205. 207.
      207. 207. 212. 213. 211. 209. 200. 203. 204. 147. 0. 0. 0. 0. 0.
      0. 0. 0. 0. 116. 103. 87. 157. 216. 220. 211. 206. 207. 207. 208.
      213. 212. 211. 203. 200. 207. 203. 146. 0. 0. 0. 0. 0. 0. 0. 0. 0.
      103. 93. 85. 158. 215. 216. 209. 206. 204. 204. 207. 209. 213.
      211. 208. 198. 205. 201. 144. 0. 0. 0. 0. 0. 0. 0. 0. 0. 100. 90.
      88. 161. 216. 214. 203. 200. 199. 202. 204. 203. 204. 196. 196.
      192. 197. 201. 148. 0. 0. 0. 0. 0. 0. 0. 0. 0. 96. 89. 93. 161.
      207. 203. 186. 187. 196. 198. 197. 197. 197. 185. 184. 182. 195.
      201. 143. 0. 0. 0. 0. 0. 0. 0. 0. 0. 73. 75. 92. 159. 188. 175.
      148. 157. 183. 181. 174. 184. 182. 176. 177. 184. 195. 203. 133.
      0. 0. 0. 0. 0. 0. 0. 0. 0. 49. 58. 87. 152. 172. 149. 111. 128.
      174. 191. 188. 186. 170. 150. 154. 169. 192. 188. 119. 0. 0. 0. 0.
      0. 0. 0. 0. 0. 41. 45. 68. 123. 139. 117. 78. 95. 155. 191. 192.
      173. 129. 91. 97. 118. 147. 135. 89. 0. 0. 0. 0. 0. 0. 0. 0. 0.
      38. 35. 41. 71. 81. 67. 54. 59. 85. 109. 115. 103. 79. 59. 59. 75.
      88. 73. 55. 0. 0. 0. 0. 0. 0. 0. 0. 0. 0. 0. 0. 0. 0. 0. 0. 0. 0.
      0. 0. 0. 0. 0. 0. 0. 0. 0. 0. 0. 0. 0. 0. 0. 0. 0. 0. 0. 0. 0. 0.
      0. 0. 0. 0. 0. 0. 0. 0. 0. 0. 0. 0. 0. 0. 0. 0. 0. 0. 0. 0. 0. 0.
      0. 0. 0. 0. 0. 0. 0. 0. 0. 0. 0. 0. 0. 0. 0. 0. 0. 0. 0. 0. 0. 0.
      0. 0. 0. 0. 0. 0. 0. 0. 0. 0. 0. 0. 0. 0. 0. 0. 0. 0. 0. 0. 0. 0.
      0. 0. 0. 0. 0. 0. 0. 0. 0. 0. 0. 0. 0. 0. 0.</_>
    <_>
      45. 33. 24. 33. 61. 93. 112. 111. 116. 137. 136. 125. 128. 118.
      105. 107. 102. 95. 55. 0. 0. 0. 0. 0. 0. 0. 0. 0. 43. 16. 14. 58.
      124. 144. 140. 145. 168. 175. 149. 131. 154. 171. 169. 160. 152.
      149. 127. 0. 0. 0. 0. 0. 0. 0. 0. 0. 97. 26. 23. 102. 182. 194.
      179. 192. 215. 203. 143. 118. 161. 207. 212. 196. 187. 197. 191.
      0. 0. 0. 0. 0. 0. 0. 0. 0. 125. 31. 48. 143. 217. 224. 214. 222.
      237. 212. 145. 116. 170. 223. 235. 222. 216. 222. 212. 0. 0. 0. 0.
      0. 0. 0. 0. 0. 116. 25. 73. 178. 235. 238. 234. 237. 243. 212.
      146. 127. 185. 237. 246. 238. 232. 234. 219. 0. 0. 0. 0. 0. 0. 0.
      0. 0. 64. 21. 92. 203. 243. 242. 242. 243. 246. 206. 137. 131.
      188. 239. 250. 242. 235. 238. 223. 0. 0. 0. 0. 0. 0. 0. 0. 0. 26.
      27. 103. 206. 246. 248. 250. 251. 251. 201. 137. 134. 188. 234.
      247. 245. 243. 246. 226. 0. 0. 0. 0. 0. 0. 0. 0. 0. 27. 40. 107.
      195. 240. 249. 252. 252. 246. 190. 125. 121. 175. 228. 243. 242.
      244. 248. 220. 0. 0. 0. 0. 0. 0. 0. 0. 0. 29. 58. 121. 181. 219.
      245. 251. 247. 237. 172. 133. 128. 156. 203. 233. 244. 247. 230.
      193. 0. 0. 0. 0. 0. 0. 0. 0. 0. 30. 100. 136. 153. 185. 224. 240.
      226. 190. 149. 131. 128. 146. 183. 212. 228. 230. 201. 165. 0. 0.
      0. 0. 0. 0. 0. 0. 0. 34. 125. 148. 143. 154. 178. 186. 182. 154.
      136. 129. 128. 137. 157. 175. 188. 192. 168. 144. 0. 0. 0. 0. 0.
      0. 0. 0. 0. 42. 131. 152. 141. 138. 145. 149. 152. 142. 133. 130.
      129. 132. 140. 147. 154. 156. 144. 132. 0. 0. 0. 0. 0. 0. 0. 0. 0.
      47. 139. 150. 131. 127. 131. 133. 137. 129. 132. 131. 129. 130.
      130. 133. 136. 138. 136. 130. 0. 0. 0. 0. 0. 0. 0. 0. 0. 50. 142.
      150. 132. 128. 129. 129. 132. 124. 130. 129. 127. 127. 127. 129.
      132. 132. 135. 129. 0. 0. 0. 0. 0. 0. 0. 0. 0. 55. 138. 152. 136.
      130. 128. 125. 129. 126. 129. 127. 123. 124. 126. 128. 132. 131.
      133. 125. 0. 0. 0. 0. 0. 0. 0. 0. 0. 56. 143. 147. 130. 126. 128.
      126. 128. 126. 129. 127. 122. 121. 124. 126. 131. 131. 129. 125.
      0. 0. 0. 0. 0. 0. 0. 0. 0. 56. 132. 154. 129. 128. 128. 125. 119.
      127. 131. 129. 122. 123. 124. 122. 125. 128. 127. 127. 0. 0. 0. 0.
      0. 0. 0. 0. 0. 54. 127. 151. 132. 132. 128. 121. 112. 125. 131.
      130. 124. 125. 124. 117. 115. 123. 126. 131. 0. 0. 0. 0. 0. 0. 0.
      0. 0. 55. 124. 152. 141. 138. 124. 107. 94. 108. 126. 134. 132.
      129. 119. 106. 101. 114. 128. 137. 0. 0. 0. 0. 0. 0. 0. 0. 0. 51.
      107. 144. 143. 135. 110. 85. 69. 84. 119. 136. 139. 131. 109. 82.
      79. 94. 126. 143. 0. 0. 0. 0. 0. 0. 0. 0. 0. 36. 80. 126. 137.
      129. 94. 63. 51. 66. 106. 130. 137. 124. 91. 63. 59. 77. 114. 139.
      0. 0. 0. 0. 0. 0. 0. 0. 0. 26. 64. 106. 123. 114. 78. 53. 44. 58.
      87. 112. 121. 104. 75. 47. 44. 63. 98. 124. 0. 0. 0. 0. 0. 0. 0.
      0. 0. 25. 49. 83. 98. 92. 64. 48. 44. 51. 68. 86. 91. 80. 62. 45.
      44. 59. 79. 101. 0. 0. 0. 0. 0. 0. 0. 0. 0. 21. 32. 54. 68. 68.
      52. 46. 45. 48. 56. 65. 66. 58. 51. 44. 43. 53. 61. 73. 0. 0. 0.
      0. 0. 0. 0. 0. 0. 0. 0. 0. 0. 0. 0. 0. 0. 0. 0. 0. 0. 0. 0. 0. 0.
      0. 0. 0. 0. 0. 0. 0. 0. 0. 0. 0. 0. 0. 0. 0. 0. 0. 0. 0. 0. 0. 0.
      0. 0. 0. 0. 0. 0. 0. 0. 0. 0. 0. 0. 0. 0. 0. 0. 0. 0. 0. 0. 0. 0.
      0. 0. 0. 0. 0. 0. 0. 0. 0. 0. 0. 0. 0. 0. 0. 0. 0. 0. 0. 0. 0. 0.
      0. 0. 0. 0. 0. 0. 0. 0. 0. 0. 0. 0. 0. 0. 0. 0. 0. 0. 0. 0. 0. 0.
      0. 0. 0. 0. 0. 0. 0. 0.</_>
    <_>
      49. 50. 53. 53. 46. 36. 28. 34. 61. 86. 109. 116. 113. 103. 73.
      57. 39. 51. 54. 51. 51. 47. 0. 0. 0. 0. 0. 0. 49. 50. 48. 43. 39.
      37. 54. 100. 160. 203. 225. 224. 216. 192. 149. 95. 69. 60. 48.
      49. 58. 51. 0. 0. 0. 0. 0. 0. 51. 45. 32. 35. 62. 97. 139. 189.
      226. 239. 243. 242. 241. 236. 216. 188. 149. 105. 60. 50. 62. 55.
      0. 0. 0. 0. 0. 0. 49. 35. 20. 49. 117. 184. 224. 238. 241. 242.
      243. 243. 242. 244. 243. 239. 218. 173. 100. 57. 58. 56. 0. 0. 0.
      0. 0. 0. 33. 19. 40. 112. 187. 229. 242. 242. 241. 241. 243. 244.
      245. 245. 245. 245. 242. 214. 152. 86. 61. 57. 0. 0. 0. 0. 0. 0.
      16. 32. 98. 184. 228. 239. 244. 245. 244. 243. 244. 245. 246. 246.
      246. 246. 245. 235. 206. 149. 84. 55. 0. 0. 0. 0. 0. 0. 10. 83.
      188. 232. 238. 236. 242. 246. 246. 246. 245. 246. 247. 244. 244.
      245. 246. 246. 241. 202. 118. 63. 0. 0. 0. 0. 0. 0. 15. 116. 220.
      238. 232. 231. 235. 239. 243. 245. 244. 242. 241. 240. 239. 240.
      243. 244. 243. 222. 144. 72. 0. 0. 0. 0. 0. 0. 15. 99. 182. 201.
      220. 228. 232. 235. 240. 243. 236. 225. 221. 225. 230. 232. 236.
      241. 239. 219. 140. 66. 0. 0. 0. 0. 0. 0. 20. 83. 134. 156. 201.
      218. 229. 232. 239. 240. 222. 197. 190. 205. 222. 229. 234. 243.
      242. 217. 138. 69. 0. 0. 0. 0. 0. 0. 27. 97. 126. 137. 195. 216.
      229. 230. 238. 239. 214. 178. 170. 193. 216. 223. 231. 243. 243.
      229. 178. 111. 0. 0. 0. 0. 0. 0. 69. 135. 160. 171. 207. 220. 230.
      235. 239. 239. 218. 187. 182. 204. 221. 224. 232. 240. 240. 247.
      232. 160. 0. 0. 0. 0. 0. 0. 102. 175. 203. 212. 224. 229. 235.
      241. 241. 239. 228. 218. 217. 223. 230. 235. 236. 238. 239. 241.
      232. 178. 0. 0. 0. 0. 0. 0. 124. 205. 232. 235. 236. 236. 242.
      243. 242. 241. 238. 236. 235. 235. 235. 236. 237. 238. 239. 240.
      231. 179. 0. 0. 0. 0. 0. 0. 131. 216. 241. 241. 238. 238. 243.
      243. 244. 244. 245. 245. 246. 246. 245. 244. 244. 244. 243. 242.
      230. 178. 0. 0. 0. 0. 0. 0. 135. 216. 242. 241. 238. 237. 243.
      242. 242. 242. 244. 245. 245. 243. 245. 245. 245. 244. 243. 243.
      231. 177. 0. 0. 0. 0. 0. 0. 136. 218. 244. 243. 240. 239. 241.
      241. 242. 242. 244. 245. 245. 245. 246. 246. 246. 245. 243. 243.
      230. 175. 0. 0. 0. 0. 0. 0. 137. 220. 245. 243. 240. 239. 240.
      241. 242. 242. 244. 245. 245. 246. 245. 246. 245. 245. 243. 243.
      230. 174. 0. 0. 0. 0. 0. 0. 138. 219. 244. 242. 241. 241. 241.
      241. 240. 241. 240. 241. 241. 241. 240. 241. 242. 242. 242. 244.
      230. 168. 0. 0. 0. 0. 0. 0. 141. 219. 242. 242. 241. 240. 240.
      238. 240. 240. 241. 241. 240. 238. 238. 239. 240. 242. 242. 244.
      229. 164. 0. 0. 0. 0. 0. 0. 147. 220. 240. 241. 239. 228. 203.
      183. 215. 242. 236. 240. 240. 209. 184. 200. 224. 237. 241. 242.
      220. 155. 0. 0. 0. 0. 0. 0. 128. 204. 238. 240. 233. 205. 136.
      121. 173. 236. 240. 241. 226. 166. 108. 130. 183. 228. 241. 231.
      191. 126. 0. 0. 0. 0. 0. 0. 64. 154. 225. 233. 200. 139. 71. 51.
      108. 198. 238. 231. 178. 94. 55. 67. 128. 197. 222. 197. 137. 80.
      0. 0. 0. 0. 0. 0. 29. 86. 140. 145. 117. 80. 39. 29. 60. 113. 137.
      142. 113. 56. 40. 43. 80. 130. 148. 127. 84. 49. 0. 0. 0. 0. 0. 0.
      0. 0. 0. 0. 0. 0. 0. 0. 0. 0. 0. 0. 0. 0. 0. 0. 0. 0. 0. 0. 0. 0.
      0. 0. 0. 0. 0. 0. 0. 0. 0. 0. 0. 0. 0. 0. 0. 0. 0. 0. 0. 0. 0. 0.
      0. 0. 0. 0. 0. 0. 0. 0. 0. 0. 0. 0. 0. 0. 0. 0. 0. 0. 0. 0. 0. 0.
      0. 0. 0. 0. 0. 0. 0. 0. 0. 0. 0. 0. 0. 0. 0. 0. 0. 0. 0. 0. 0. 0.
      0. 0. 0. 0. 0. 0. 0. 0. 0. 0. 0. 0. 0. 0. 0. 0. 0. 0. 0. 0. 0. 0.
      0. 0.</_>
    <_>
      50. 50. 52. 46. 48. 51. 37. 27. 45. 77. 104. 104. 101. 88. 65. 33.
      19. 32. 45. 46. 46. 45. 47. 0. 0. 0. 0. 0. 43. 45. 45. 44. 47. 33.
      44. 58. 106. 170. 213. 223. 232. 231. 189. 116. 62. 50. 55. 55.
      56. 54. 53. 0. 0. 0. 0. 0. 41. 45. 47. 27. 37. 58. 121. 149. 192.
      233. 245. 247. 249. 248. 232. 199. 159. 126. 71. 37. 48. 58. 51.
      0. 0. 0. 0. 0. 40. 39. 31. 20. 57. 128. 214. 231. 241. 248. 249.
      247. 245. 248. 250. 250. 235. 210. 122. 49. 45. 54. 56. 0. 0. 0.
      0. 0. 35. 29. 22. 62. 128. 203. 251. 249. 249. 248. 249. 247. 245.
      247. 249. 249. 250. 249. 194. 110. 56. 39. 49. 0. 0. 0. 0. 0. 30.
      25. 50. 133. 204. 242. 251. 246. 249. 248. 250. 250. 250. 250.
      248. 246. 248. 249. 244. 181. 101. 48. 44. 0. 0. 0. 0. 0. 24. 30.
      102. 199. 240. 248. 247. 250. 252. 248. 251. 252. 251. 252. 251.
      251. 251. 250. 250. 224. 163. 85. 48. 0. 0. 0. 0. 0. 20. 41. 138.
      233. 245. 243. 243. 249. 250. 244. 247. 249. 250. 251. 249. 249.
      249. 250. 250. 244. 199. 101. 43. 0. 0. 0. 0. 0. 19. 38. 134. 220.
      225. 233. 241. 243. 246. 247. 248. 246. 241. 236. 235. 238. 244.
      246. 249. 249. 202. 94. 36. 0. 0. 0. 0. 0. 15. 31. 102. 170. 190.
      217. 237. 239. 242. 247. 243. 214. 187. 190. 217. 237. 243. 243.
      247. 248. 201. 99. 43. 0. 0. 0. 0. 0. 20. 44. 94. 138. 171. 206.
      228. 232. 242. 242. 238. 202. 158. 159. 203. 230. 239. 239. 246.
      248. 220. 143. 75. 0. 0. 0. 0. 0. 45. 87. 135. 169. 190. 213. 229.
      233. 242. 242. 237. 211. 179. 177. 212. 229. 236. 237. 246. 249.
      240. 189. 114. 0. 0. 0. 0. 0. 70. 141. 192. 215. 221. 231. 238.
      240. 245. 245. 240. 231. 216. 214. 230. 236. 239. 241. 247. 249.
      248. 215. 137. 0. 0. 0. 0. 0. 83. 170. 229. 241. 237. 238. 240.
      242. 247. 246. 244. 244. 238. 237. 240. 240. 242. 244. 248. 248.
      250. 227. 147. 0. 0. 0. 0. 0. 84. 173. 231. 245. 244. 245. 247.
      247. 249. 247. 245. 247. 244. 243. 244. 242. 242. 245. 247. 247.
      248. 226. 144. 0. 0. 0. 0. 0. 81. 173. 231. 245. 243. 245. 246.
      246. 248. 247. 246. 247. 244. 243. 245. 244. 243. 245. 247. 247.
      247. 225. 144. 0. 0. 0. 0. 0. 86. 178. 233. 246. 245. 244. 244.
      243. 244. 244. 245. 245. 243. 243. 246. 245. 244. 246. 244. 245.
      247. 227. 147. 0. 0. 0. 0. 0. 93. 181. 231. 245. 243. 242. 243.
      243. 244. 243. 243. 244. 244. 244. 247. 246. 243. 245. 243. 242.
      244. 230. 147. 0. 0. 0. 0. 0. 83. 182. 229. 242. 241. 239. 241.
      244. 243. 240. 241. 245. 243. 243. 246. 244. 242. 243. 243. 242.
      242. 233. 143. 0. 0. 0. 0. 0. 89. 180. 232. 243. 241. 241. 240.
      233. 234. 240. 241. 242. 243. 241. 240. 232. 236. 241. 241. 241.
      238. 230. 142. 0. 0. 0. 0. 0. 82. 182. 238. 244. 240. 243. 222.
      191. 197. 229. 243. 241. 242. 236. 210. 189. 204. 234. 241. 242.
      242. 222. 127. 0. 0. 0. 0. 0. 67. 145. 216. 242. 240. 225. 170.
      114. 120. 183. 230. 243. 239. 203. 141. 108. 139. 202. 241. 245.
      237. 180. 87. 0. 0. 0. 0. 0. 38. 80. 172. 234. 234. 184. 103. 49.
      53. 120. 194. 225. 215. 148. 69. 45. 81. 163. 233. 239. 212. 114.
      43. 0. 0. 0. 0. 0. 27. 35. 97. 162. 159. 103. 47. 22. 25. 72. 124.
      154. 144. 92. 35. 19. 43. 101. 153. 152. 128. 56. 16. 0. 0. 0. 0.
      0. 0. 0. 0. 0. 0. 0. 0. 0. 0. 0. 0. 0. 0. 0. 0. 0. 0. 0. 0. 0. 0.
      0. 0. 0. 0. 0. 0. 0. 0. 0. 0. 0. 0. 0. 0. 0. 0. 0. 0. 0. 0. 0. 0.
      0. 0. 0. 0. 0. 0. 0. 0. 0. 0. 0. 0. 0. 0. 0. 0. 0. 0. 0. 0. 0. 0.
      0. 0. 0. 0. 0. 0. 0. 0. 0. 0. 0. 0. 0. 0. 0. 0. 0. 0. 0. 0. 0. 0.
      0. 0. 0. 0. 0. 0. 0. 0. 0. 0. 0. 0. 0. 0. 0. 0. 0. 0. 0. 0. 0. 0.
      0. 0. 0.</_>
    <_>
      51. 49. 50. 48. 54. 65. 80. 99. 114. 121. 120. 101. 83. 62. 48.
      45. 48. 50. 49. 0. 0. 0. 0. 0. 0. 0. 0. 0. 42. 48. 57. 70. 76. 93.
      116. 134. 144. 153. 159. 143. 121. 95. 74. 61. 53. 46. 40. 0. 0.
      0. 0. 0. 0. 0. 0. 0. 31. 63. 95. 124. 132. 148. 164. 166. 155.
      148. 148. 160. 157. 149. 138. 117. 86. 50. 26. 0. 0. 0. 0. 0. 0.
      0. 0. 0. 65. 119. 151. 158. 165. 172. 185. 193. 182. 175. 185.
      181. 187. 172. 156. 155. 140. 125. 59. 0. 0. 0. 0. 0. 0. 0. 0. 0.
      137. 194. 207. 206. 214. 218. 221. 229. 223. 205. 202. 218. 226.
      219. 206. 206. 200. 192. 110. 0. 0. 0. 0. 0. 0. 0. 0. 0. 179. 234.
      234. 231. 235. 238. 238. 249. 250. 245. 241. 241. 245. 241. 237.
      231. 231. 230. 141. 0. 0. 0. 0. 0. 0. 0. 0. 0. 184. 237. 239. 239.
      241. 243. 243. 250. 247. 244. 248. 249. 248. 245. 244. 235. 238.
      241. 146. 0. 0. 0. 0. 0. 0. 0. 0. 0. 178. 239. 251. 250. 252. 253.
      253. 248. 230. 228. 246. 251. 250. 250. 249. 244. 246. 228. 134.
      0. 0. 0. 0. 0. 0. 0. 0. 0. 154. 219. 246. 251. 252. 253. 251. 231.
      195. 188. 211. 240. 246. 250. 251. 243. 235. 186. 105. 0. 0. 0. 0.
      0. 0. 0. 0. 0. 135. 180. 211. 236. 235. 231. 220. 192. 156. 144.
      166. 209. 218. 223. 225. 211. 197. 142. 92. 0. 0. 0. 0. 0. 0. 0.
      0. 0. 132. 151. 160. 166. 167. 161. 155. 147. 137. 138. 151. 158.
      169. 167. 168. 159. 158. 123. 116. 0. 0. 0. 0. 0. 0. 0. 0. 0. 0.
      0. 0. 0. 0. 0. 0. 0. 0. 0. 0. 0. 0. 0. 0. 0. 0. 0. 0. 0. 0. 0. 0.
      0. 0. 0. 0. 0. 0. 0. 0. 0. 0. 0. 0. 0. 0. 0. 0. 0. 0. 0. 0. 0. 0.
      0. 0. 0. 0. 0. 0. 0. 0. 0. 0. 0. 0. 0. 0. 0. 0. 0. 0. 0. 0. 0. 0.
      0. 0. 0. 0. 0. 0. 0. 0. 0. 0. 0. 0. 0. 0. 0. 0. 0. 0. 0. 0. 0. 0.
      0. 0. 0. 0. 0. 0. 0. 0. 0. 0. 0. 0. 0. 0. 0. 0. 0. 0. 0. 0. 0. 0.
      0. 0. 0. 0. 0. 0. 0. 0. 0. 0. 0. 0. 0. 0. 0. 0. 0. 0. 0. 0. 0. 0.
      0. 0. 0. 0. 0. 0. 0. 0. 0. 0. 0. 0. 0. 0. 0. 0. 0. 0. 0. 0. 0. 0.
      0. 0. 0. 0. 0. 0. 0. 0. 0. 0. 0. 0. 0. 0. 0. 0. 0. 0. 0. 0. 0. 0.
      0. 0. 0. 0. 0. 0. 0. 0. 0. 0. 0. 0. 0. 0. 0. 0. 0. 0. 0. 0. 0. 0.
      0. 0. 0. 0. 0. 0. 0. 0. 0. 0. 0. 0. 0. 0. 0. 0. 0. 0. 0. 0. 0. 0.
      0. 0. 0. 0. 0. 0. 0. 0. 0. 0. 0. 0. 0. 0. 0. 0. 0. 0. 0. 0. 0. 0.
      0. 0. 0. 0. 0. 0. 0. 0. 0. 0. 0. 0. 0. 0. 0. 0. 0. 0. 0. 0. 0. 0.
      0. 0. 0. 0. 0. 0. 0. 0. 0. 0. 0. 0. 0. 0. 0. 0. 0. 0. 0. 0. 0. 0.
      0. 0. 0. 0. 0. 0. 0. 0. 0. 0. 0. 0. 0. 0. 0. 0. 0. 0. 0. 0. 0. 0.
      0. 0. 0. 0. 0. 0. 0. 0. 0. 0. 0. 0. 0. 0. 0. 0. 0. 0. 0. 0. 0. 0.
      0. 0. 0. 0. 0. 0. 0. 0. 0. 0. 0. 0. 0. 0. 0. 0. 0. 0. 0. 0. 0. 0.
      0. 0. 0. 0. 0. 0. 0. 0. 0. 0. 0. 0. 0. 0. 0. 0. 0. 0. 0. 0. 0. 0.
      0. 0. 0. 0. 0. 0. 0. 0. 0. 0. 0. 0. 0. 0. 0. 0. 0. 0. 0. 0. 0. 0.
      0. 0. 0. 0. 0. 0. 0. 0. 0. 0. 0. 0. 0. 0. 0. 0. 0. 0. 0. 0. 0. 0.
      0. 0. 0. 0. 0. 0. 0. 0. 0. 0. 0. 0. 0. 0. 0. 0. 0. 0. 0. 0. 0. 0.
      0. 0. 0. 0. 0. 0. 0. 0. 0. 0. 0. 0. 0. 0. 0. 0. 0. 0. 0. 0. 0. 0.
      0. 0. 0. 0. 0. 0. 0. 0. 0. 0. 0. 0. 0.</_>
    <_>
      48. 47. 49. 52. 51. 48. 46. 61. 77. 98. 119. 128. 124. 108. 92.
      74. 56. 45. 43. 47. 48. 46. 46. 48. 0. 0. 0. 0. 52. 51. 43. 48.
      63. 72. 71. 83. 99. 127. 149. 155. 150. 138. 128. 109. 84. 63. 52.
      48. 46. 44. 47. 50. 0. 0. 0. 0. 55. 43. 29. 44. 85. 121. 140. 151.
      155. 158. 154. 149. 150. 158. 165. 157. 138. 111. 83. 55. 36. 34.
      45. 50. 0. 0. 0. 0. 46. 32. 55. 121. 149. 148. 158. 171. 181. 195.
      191. 185. 190. 198. 193. 187. 179. 161. 141. 116. 67. 32. 35. 45.
      0. 0. 0. 0. 34. 40. 112. 200. 219. 205. 211. 216. 219. 226. 221.
      214. 221. 230. 224. 219. 214. 199. 200. 192. 125. 43. 23. 37. 0.
      0. 0. 0. 40. 58. 153. 243. 244. 231. 237. 237. 237. 241. 236. 231.
      241. 246. 243. 242. 237. 229. 232. 228. 151. 57. 24. 37. 0. 0. 0.
      0. 39. 69. 164. 243. 244. 237. 241. 239. 241. 246. 242. 232. 242.
      249. 247. 245. 243. 242. 245. 243. 162. 62. 27. 38. 0. 0. 0. 0.
      42. 74. 163. 238. 251. 248. 249. 250. 249. 246. 231. 212. 224.
      245. 248. 247. 247. 246. 246. 228. 144. 58. 32. 40. 0. 0. 0. 0.
      41. 63. 128. 205. 246. 250. 248. 251. 244. 227. 197. 171. 188.
      226. 242. 247. 250. 245. 236. 194. 112. 49. 33. 41. 0. 0. 0. 0.
      39. 61. 108. 166. 209. 221. 224. 226. 211. 190. 161. 140. 154.
      191. 210. 216. 221. 217. 196. 156. 101. 56. 43. 43. 0. 0. 0. 0.
      73. 109. 133. 145. 158. 167. 167. 166. 155. 148. 136. 128. 138.
      155. 159. 166. 167. 162. 149. 137. 118. 89. 69. 46. 0. 0. 0. 0.
      86. 124. 138. 136. 136. 135. 133. 134. 131. 129. 128. 126. 130.
      133. 130. 135. 132. 128. 127. 135. 142. 123. 92. 47. 0. 0. 0. 0.
      86. 121. 133. 131. 130. 129. 126. 127. 127. 127. 127. 127. 126.
      126. 126. 126. 124. 126. 126. 124. 127. 116. 95. 66. 0. 0. 0. 0.
      82. 116. 128. 126. 127. 126. 125. 126. 126. 127. 127. 127. 127.
      127. 127. 126. 124. 126. 126. 124. 127. 116. 94. 64. 0. 0. 0. 0.
      78. 114. 127. 125. 125. 124. 124. 125. 126. 127. 127. 127. 127.
      127. 127. 124. 123. 125. 126. 125. 126. 117. 93. 63. 0. 0. 0. 0.
      77. 113. 129. 128. 126. 124. 123. 124. 126. 127. 127. 128. 128.
      128. 127. 124. 123. 125. 126. 126. 128. 116. 94. 62. 0. 0. 0. 0.
      76. 115. 131. 131. 128. 123. 123. 124. 126. 127. 128. 128. 128.
      128. 127. 124. 124. 126. 126. 128. 128. 117. 94. 59. 0. 0. 0. 0.
      75. 114. 131. 132. 129. 124. 123. 124. 126. 127. 128. 128. 128.
      127. 127. 126. 125. 127. 127. 128. 130. 119. 93. 57. 0. 0. 0. 0.
      75. 112. 130. 132. 129. 126. 124. 124. 126. 128. 128. 128. 127.
      127. 127. 127. 127. 128. 129. 130. 130. 119. 92. 55. 0. 0. 0. 0.
      79. 111. 127. 134. 134. 127. 121. 119. 121. 126. 129. 130. 128.
      125. 125. 127. 127. 128. 129. 130. 130. 119. 90. 52. 0. 0. 0. 0.
      76. 106. 128. 142. 144. 132. 108. 97. 102. 115. 130. 137. 131.
      117. 105. 98. 104. 126. 136. 137. 137. 119. 80. 51. 0. 0. 0. 0.
      65. 93. 118. 136. 141. 128. 86. 68. 74. 95. 124. 140. 133. 113.
      78. 60. 81. 114. 133. 135. 131. 106. 67. 43. 0. 0. 0. 0. 54. 72.
      89. 105. 110. 98. 63. 49. 55. 75. 103. 117. 108. 85. 57. 44. 60.
      86. 99. 104. 103. 85. 56. 40. 0. 0. 0. 0. 0. 0. 0. 0. 0. 0. 0. 0.
      0. 0. 0. 0. 0. 0. 0. 0. 0. 0. 0. 0. 0. 0. 0. 0. 0. 0. 0. 0. 0. 0.
      0. 0. 0. 0. 0. 0. 0. 0. 0. 0. 0. 0. 0. 0. 0. 0. 0. 0. 0. 0. 0. 0.
      0. 0. 0. 0. 0. 0. 0. 0. 0. 0. 0. 0. 0. 0. 0. 0. 0. 0. 0. 0. 0. 0.
      0. 0. 0. 0. 0. 0. 0. 0. 0. 0. 0. 0. 0. 0. 0. 0. 0. 0. 0. 0. 0. 0.
      0. 0. 0. 0. 0. 0. 0. 0. 0. 0. 0. 0. 0. 0. 0. 0. 0. 0. 0. 0. 0. 0.
      0. 0. 0. 0. 0. 0. 0. 0. 0. 0. 0. 0. 0. 0. 0. 0. 0. 0. 0. 0. 0. 0.</_>
    <_>
      27. 62. 85. 113. 128. 123. 131. 131. 126. 127. 128. 110. 107. 114.
      102. 55. 24. 22. 23. 0. 0. 0. 0. 0. 0. 0. 0. 0. 63. 122. 136. 140.
      150. 166. 170. 131. 122. 139. 163. 149. 132. 141. 151. 109. 40.
      13. 18. 0. 0. 0. 0. 0. 0. 0. 0. 0. 129. 192. 187. 171. 184. 209.
      201. 123. 97. 152. 207. 201. 179. 180. 200. 165. 65. 13. 15. 0. 0.
      0. 0. 0. 0. 0. 0. 0. 181. 232. 222. 221. 232. 236. 210. 107. 90.
      177. 235. 227. 211. 214. 225. 201. 93. 22. 14. 0. 0. 0. 0. 0. 0.
      0. 0. 0. 214. 251. 229. 231. 230. 232. 220. 108. 97. 183. 242.
      235. 226. 228. 234. 223. 111. 24. 14. 0. 0. 0. 0. 0. 0. 0. 0. 0.
      215. 253. 235. 233. 230. 232. 213. 101. 93. 179. 247. 246. 231.
      233. 240. 227. 111. 26. 12. 0. 0. 0. 0. 0. 0. 0. 0. 0. 202. 241.
      248. 242. 242. 240. 185. 93. 90. 169. 240. 248. 238. 240. 242.
      214. 108. 36. 19. 0. 0. 0. 0. 0. 0. 0. 0. 0. 176. 218. 247. 244.
      243. 226. 151. 93. 102. 146. 211. 241. 244. 246. 231. 177. 107.
      57. 32. 0. 0. 0. 0. 0. 0. 0. 0. 0. 153. 185. 221. 226. 224. 193.
      124. 104. 120. 124. 173. 217. 233. 233. 202. 137. 113. 83. 52. 0.
      0. 0. 0. 0. 0. 0. 0. 0. 141. 155. 187. 195. 188. 158. 116. 120.
      130. 116. 142. 183. 201. 197. 171. 124. 124. 109. 74. 0. 0. 0. 0.
      0. 0. 0. 0. 0. 135. 138. 156. 161. 153. 136. 119. 124. 127. 117.
      132. 156. 162. 157. 149. 137. 131. 124. 89. 0. 0. 0. 0. 0. 0. 0.
      0. 0. 133. 132. 141. 142. 135. 131. 125. 119. 119. 122. 131. 135.
      139. 135. 136. 139. 130. 128. 98. 0. 0. 0. 0. 0. 0. 0. 0. 0. 128.
      130. 133. 133. 129. 126. 122. 116. 117. 123. 128. 128. 131. 130.
      126. 128. 126. 126. 100. 0. 0. 0. 0. 0. 0. 0. 0. 0. 127. 129. 129.
      130. 128. 121. 118. 119. 117. 118. 121. 123. 124. 124. 125. 124.
      124. 121. 94. 0. 0. 0. 0. 0. 0. 0. 0. 0. 128. 127. 127. 128. 125.
      121. 119. 118. 116. 119. 122. 123. 124. 125. 125. 123. 124. 120.
      99. 0. 0. 0. 0. 0. 0. 0. 0. 0. 129. 124. 125. 127. 125. 122. 121.
      118. 117. 122. 124. 124. 127. 129. 128. 125. 125. 124. 110. 0. 0.
      0. 0. 0. 0. 0. 0. 0. 126. 117. 120. 125. 126. 125. 119. 111. 110.
      115. 121. 125. 129. 130. 126. 120. 123. 127. 114. 0. 0. 0. 0. 0.
      0. 0. 0. 0. 114. 101. 110. 121. 128. 127. 112. 92. 87. 98. 115.
      130. 135. 125. 107. 100. 116. 126. 112. 0. 0. 0. 0. 0. 0. 0. 0. 0.
      91. 76. 91. 114. 128. 126. 100. 68. 58. 77. 109. 136. 134. 109.
      80. 77. 102. 117. 100. 0. 0. 0. 0. 0. 0. 0. 0. 0. 68. 52. 74. 105.
      126. 121. 85. 46. 36. 59. 101. 132. 122. 87. 57. 57. 83. 100. 81.
      0. 0. 0. 0. 0. 0. 0. 0. 0. 57. 44. 62. 94. 119. 113. 73. 38. 31.
      53. 96. 123. 107. 71. 50. 49. 66. 86. 66. 0. 0. 0. 0. 0. 0. 0. 0.
      0. 54. 49. 53. 73. 92. 89. 67. 36. 37. 61. 84. 95. 87. 66. 48. 47.
      55. 62. 48. 0. 0. 0. 0. 0. 0. 0. 0. 0. 0. 0. 0. 0. 0. 0. 0. 0. 0.
      0. 0. 0. 0. 0. 0. 0. 0. 0. 0. 0. 0. 0. 0. 0. 0. 0. 0. 0. 0. 0. 0.
      0. 0. 0. 0. 0. 0. 0. 0. 0. 0. 0. 0. 0. 0. 0. 0. 0. 0. 0. 0. 0. 0.
      0. 0. 0. 0. 0. 0. 0. 0. 0. 0. 0. 0. 0. 0. 0. 0. 0. 0. 0. 0. 0. 0.
      0. 0. 0. 0. 0. 0. 0. 0. 0. 0. 0. 0. 0. 0. 0. 0. 0. 0. 0. 0. 0. 0.
      0. 0. 0. 0. 0. 0. 0. 0. 0. 0. 0. 0. 0. 0. 0. 0. 0. 0. 0. 0. 0. 0.
      0. 0. 0. 0. 0. 0. 0. 0. 0. 0. 0. 0. 0. 0. 0. 0. 0. 0. 0. 0. 0. 0.
      0. 0. 0. 0. 0. 0. 0. 0. 0. 0. 0. 0. 0. 0. 0. 0. 0. 0. 0. 0. 0. 0.
      0. 0. 0. 0. 0.</_>
    <_>
      33. 148. 132. 25. 29. 39. 51. 55. 68. 63. 53. 82. 123. 131. 135.
      136. 118. 75. 56. 63. 57. 54. 52. 34. 23. 0. 0. 0. 72. 110. 91.
      47. 39. 51. 51. 45. 68. 79. 82. 125. 176. 185. 185. 192. 170. 118.
      90. 89. 65. 49. 48. 44. 23. 0. 0. 0. 74. 72. 45. 33. 43. 51. 32.
      41. 96. 143. 147. 177. 215. 223. 223. 228. 215. 176. 150. 137. 88.
      39. 36. 53. 23. 0. 0. 0. 74. 58. 41. 32. 35. 33. 34. 82. 145. 194.
      198. 214. 235. 240. 242. 242. 239. 221. 205. 193. 144. 60. 26. 28.
      23. 0. 0. 0. 42. 29. 37. 37. 27. 26. 63. 144. 197. 228. 231. 236.
      243. 245. 245. 246. 247. 240. 233. 226. 188. 120. 63. 23. 11. 0.
      0. 0. 32. 32. 46. 36. 15. 41. 122. 201. 232. 243. 245. 245. 246.
      247. 247. 248. 250. 250. 249. 248. 230. 184. 118. 40. 6. 0. 0. 0.
      42. 44. 45. 30. 12. 75. 188. 233. 244. 247. 245. 248. 247. 248.
      247. 248. 250. 250. 249. 250. 244. 223. 170. 70. 6. 0. 0. 0. 45.
      45. 40. 26. 19. 96. 230. 242. 246. 249. 244. 250. 248. 249. 250.
      248. 249. 250. 251. 251. 253. 245. 206. 98. 9. 0. 0. 0. 44. 48.
      40. 24. 20. 101. 236. 240. 243. 248. 246. 250. 249. 249. 248. 246.
      246. 248. 250. 251. 253. 252. 222. 120. 15. 0. 0. 0. 44. 40. 35.
      25. 29. 107. 233. 240. 240. 248. 251. 251. 250. 243. 238. 233.
      233. 239. 244. 246. 249. 251. 234. 151. 37. 0. 0. 0. 37. 37. 30.
      20. 52. 118. 223. 237. 233. 245. 250. 247. 250. 238. 231. 225.
      224. 234. 242. 245. 247. 250. 243. 190. 68. 0. 0. 0. 40. 33. 18.
      24. 92. 141. 211. 228. 223. 239. 241. 244. 250. 233. 215. 206.
      212. 227. 236. 242. 249. 250. 249. 220. 114. 0. 0. 0. 38. 28. 11.
      40. 137. 182. 219. 228. 228. 240. 241. 245. 253. 236. 219. 209.
      216. 227. 233. 242. 251. 251. 250. 235. 162. 0. 0. 0. 34. 27. 14.
      57. 165. 223. 229. 232. 236. 245. 245. 249. 253. 241. 229. 223.
      227. 234. 237. 244. 252. 252. 251. 241. 170. 0. 0. 0. 30. 22. 13.
      72. 190. 244. 240. 237. 240. 244. 245. 253. 253. 247. 240. 234.
      235. 239. 241. 247. 253. 253. 250. 245. 180. 0. 0. 0. 24. 24. 22.
      87. 203. 251. 250. 249. 249. 248. 250. 252. 248. 250. 248. 244.
      244. 245. 245. 249. 253. 251. 249. 245. 179. 0. 0. 0. 35. 83. 108.
      150. 221. 251. 251. 250. 249. 248. 251. 252. 245. 251. 252. 250.
      250. 250. 249. 251. 252. 251. 249. 245. 175. 0. 0. 0. 68. 179.
      231. 241. 252. 250. 251. 250. 249. 249. 250. 250. 247. 250. 251.
      250. 250. 249. 249. 250. 251. 251. 250. 247. 175. 0. 0. 0. 83.
      198. 247. 250. 252. 251. 249. 247. 248. 249. 248. 248. 249. 249.
      249. 249. 249. 249. 250. 248. 247. 249. 249. 248. 175. 0. 0. 0.
      66. 155. 201. 226. 245. 248. 248. 247. 246. 245. 245. 245. 246.
      246. 247. 247. 246. 246. 246. 246. 247. 246. 247. 249. 172. 0. 0.
      0. 36. 71. 88. 126. 207. 248. 247. 246. 245. 236. 227. 231. 242.
      242. 243. 243. 241. 234. 229. 232. 242. 246. 248. 246. 162. 0. 0.
      0. 34. 26. 23. 67. 181. 243. 245. 245. 238. 211. 183. 197. 236.
      244. 243. 243. 231. 195. 184. 209. 237. 244. 247. 236. 146. 0. 0.
      0. 38. 23. 12. 50. 152. 224. 242. 239. 215. 166. 124. 144. 208.
      237. 242. 237. 195. 134. 119. 166. 221. 243. 247. 218. 123. 0. 0.
      0. 38. 29. 17. 37. 111. 193. 233. 222. 173. 112. 68. 91. 158. 212.
      236. 210. 140. 77. 63. 113. 182. 230. 232. 183. 92. 0. 0. 0. 39.
      32. 22. 26. 71. 155. 206. 187. 126. 69. 37. 49. 103. 173. 213.
      169. 84. 45. 34. 65. 135. 193. 191. 133. 57. 0. 0. 0. 32. 28. 25.
      22. 45. 111. 156. 137. 87. 48. 30. 34. 65. 128. 165. 121. 52. 39.
      29. 37. 94. 141. 136. 86. 28. 0. 0. 0. 0. 0. 0. 0. 0. 0. 0. 0. 0.
      0. 0. 0. 0. 0. 0. 0. 0. 0. 0. 0. 0. 0. 0. 0. 0. 0. 0. 0. 0. 0. 0.
      0. 0. 0. 0. 0. 0. 0. 0. 0. 0. 0. 0. 0. 0. 0. 0. 0. 0. 0. 0. 0. 0.
      0. 0. 0.</_>
    <_>
      31. 40. 82. 132. 153. 161. 162. 157. 154. 153. 127. 93. 66. 52.
      54. 55. 50. 43. 0. 0. 0. 0. 0. 0. 0. 0. 0. 0. 28. 49. 153. 212.
      229. 235. 238. 236. 236. 234. 208. 161. 121. 93. 74. 60. 61. 62.
      0. 0. 0. 0. 0. 0. 0. 0. 0. 0. 31. 60. 192. 241. 244. 241. 247.
      248. 248. 243. 241. 227. 199. 168. 120. 68. 49. 55. 0. 0. 0. 0. 0.
      0. 0. 0. 0. 0. 28. 56. 160. 237. 247. 245. 253. 251. 253. 252.
      251. 251. 244. 225. 179. 106. 53. 49. 0. 0. 0. 0. 0. 0. 0. 0. 0.
      0. 45. 56. 98. 196. 236. 244. 249. 244. 249. 253. 251. 251. 249.
      246. 229. 165. 82. 45. 0. 0. 0. 0. 0. 0. 0. 0. 0. 0. 68. 72. 67.
      117. 189. 229. 240. 241. 248. 251. 251. 252. 250. 251. 247. 190.
      92. 46. 0. 0. 0. 0. 0. 0. 0. 0. 0. 0. 71. 80. 66. 65. 123. 202.
      234. 238. 247. 250. 251. 252. 253. 252. 245. 203. 125. 64. 0. 0.
      0. 0. 0. 0. 0. 0. 0. 0. 60. 66. 68. 64. 73. 131. 208. 236. 245.
      248. 249. 253. 255. 252. 247. 232. 182. 106. 0. 0. 0. 0. 0. 0. 0.
      0. 0. 0. 56. 50. 62. 72. 58. 55. 123. 199. 238. 246. 249. 253.
      255. 252. 249. 247. 214. 133. 0. 0. 0. 0. 0. 0. 0. 0. 0. 0. 54.
      47. 56. 64. 68. 43. 35. 109. 208. 240. 250. 250. 253. 253. 250.
      250. 220. 132. 0. 0. 0. 0. 0. 0. 0. 0. 0. 0. 51. 52. 57. 64. 71.
      62. 37. 44. 123. 211. 246. 247. 252. 254. 251. 250. 220. 133. 0.
      0. 0. 0. 0. 0. 0. 0. 0. 0. 52. 58. 58. 62. 61. 62. 52. 32. 75.
      182. 238. 243. 250. 252. 252. 252. 221. 137. 0. 0. 0. 0. 0. 0. 0.
      0. 0. 0. 48. 59. 65. 61. 68. 58. 34. 51. 147. 227. 245. 245. 250.
      251. 251. 252. 217. 131. 0. 0. 0. 0. 0. 0. 0. 0. 0. 0. 54. 58. 60.
      63. 63. 47. 55. 135. 224. 240. 250. 240. 249. 253. 247. 249. 218.
      129. 0. 0. 0. 0. 0. 0. 0. 0. 0. 0. 57. 54. 65. 72. 59. 68. 136.
      217. 242. 241. 244. 248. 252. 254. 250. 247. 201. 108. 0. 0. 0. 0.
      0. 0. 0. 0. 0. 0. 62. 71. 71. 60. 75. 142. 217. 238. 244. 246.
      243. 253. 254. 249. 249. 222. 148. 72. 0. 0. 0. 0. 0. 0. 0. 0. 0.
      0. 77. 84. 65. 70. 133. 212. 237. 237. 243. 248. 252. 255. 248.
      250. 250. 190. 99. 52. 0. 0. 0. 0. 0. 0. 0. 0. 0. 0. 65. 62. 76.
      136. 200. 237. 243. 244. 250. 251. 252. 246. 245. 252. 243. 160.
      71. 44. 0. 0. 0. 0. 0. 0. 0. 0. 0. 0. 37. 53. 123. 200. 230. 238.
      246. 247. 252. 253. 252. 249. 249. 245. 196. 111. 53. 41. 0. 0. 0.
      0. 0. 0. 0. 0. 0. 0. 29. 91. 186. 237. 244. 244. 252. 249. 246.
      254. 252. 246. 237. 202. 117. 55. 43. 51. 0. 0. 0. 0. 0. 0. 0. 0.
      0. 0. 26. 130. 222. 245. 248. 247. 251. 252. 249. 248. 222. 185.
      150. 111. 62. 38. 48. 59. 0. 0. 0. 0. 0. 0. 0. 0. 0. 0. 21. 98.
      175. 206. 213. 208. 212. 221. 213. 188. 135. 92. 59. 49. 46. 49.
      52. 49. 0. 0. 0. 0. 0. 0. 0. 0. 0. 0. 33. 54. 89. 112. 116. 112.
      119. 128. 115. 92. 59. 42. 43. 54. 54. 51. 52. 47. 0. 0. 0. 0. 0.
      0. 0. 0. 0. 0. 0. 0. 0. 0. 0. 0. 0. 0. 0. 0. 0. 0. 0. 0. 0. 0. 0.
      0. 0. 0. 0. 0. 0. 0. 0. 0. 0. 0. 0. 0. 0. 0. 0. 0. 0. 0. 0. 0. 0.
      0. 0. 0. 0. 0. 0. 0. 0. 0. 0. 0. 0. 0. 0. 0. 0. 0. 0. 0. 0. 0. 0.
      0. 0. 0. 0. 0. 0. 0. 0. 0. 0. 0. 0. 0. 0. 0. 0. 0. 0. 0. 0. 0. 0.
      0. 0. 0. 0. 0. 0. 0. 0. 0. 0. 0. 0. 0. 0. 0. 0. 0. 0. 0. 0. 0. 0.
      0. 0. 0. 0. 0. 0. 0. 0. 0. 0. 0. 0. 0. 0. 0. 0. 0. 0. 0. 0. 0. 0.
      0. 0. 0. 0. 0. 0. 0. 0. 0. 0. 0. 0. 0.</_>
    <_>
      52. 46. 39. 41. 62. 93. 115. 125. 154. 168. 174. 162. 160. 158.
      150. 126. 63. 40. 33. 36. 46. 56. 56. 52. 47. 45. 46. 0. 36. 41.
      54. 68. 124. 185. 203. 212. 231. 241. 247. 244. 244. 245. 238.
      221. 139. 96. 58. 36. 32. 37. 42. 40. 37. 38. 42. 0. 41. 92. 134.
      158. 194. 233. 239. 244. 251. 251. 254. 254. 254. 254. 251. 251.
      235. 227. 177. 90. 33. 26. 36. 39. 36. 40. 44. 0. 78. 153. 200.
      219. 230. 240. 243. 248. 251. 252. 254. 254. 254. 254. 251. 251.
      248. 250. 232. 174. 94. 42. 25. 35. 42. 40. 42. 0. 139. 204. 228.
      235. 238. 242. 245. 249. 253. 253. 255. 255. 255. 255. 253. 253.
      246. 253. 246. 226. 157. 69. 27. 51. 67. 45. 32. 0. 153. 204. 228.
      238. 241. 246. 249. 250. 253. 253. 254. 255. 255. 254. 253. 253.
      254. 250. 245. 243. 206. 129. 83. 112. 126. 82. 32. 0. 106. 151.
      210. 240. 245. 248. 250. 251. 253. 254. 254. 254. 254. 254. 254.
      253. 253. 251. 245. 248. 234. 195. 166. 184. 189. 140. 64. 0. 55.
      109. 200. 242. 246. 249. 251. 252. 253. 254. 254. 254. 254. 254.
      254. 254. 248. 250. 248. 246. 239. 229. 215. 210. 197. 172. 106.
      0. 40. 111. 213. 246. 249. 252. 253. 253. 253. 252. 252. 252. 253.
      253. 254. 254. 251. 252. 252. 249. 238. 238. 226. 196. 154. 145.
      110. 0. 37. 124. 221. 245. 248. 252. 251. 251. 253. 252. 252. 252.
      253. 253. 254. 254. 252. 250. 253. 252. 237. 240. 227. 184. 124.
      105. 86. 0. 30. 120. 219. 244. 246. 249. 251. 253. 254. 254. 254.
      254. 253. 253. 254. 254. 253. 251. 251. 250. 236. 237. 223. 182.
      128. 97. 73. 0. 26. 115. 221. 246. 248. 248. 250. 253. 254. 254.
      255. 254. 254. 254. 253. 254. 254. 253. 250. 248. 239. 234. 206.
      180. 136. 98. 64. 0. 25. 116. 230. 248. 248. 245. 250. 254. 255.
      255. 255. 254. 254. 253. 253. 253. 253. 250. 250. 251. 240. 239.
      177. 157. 153. 104. 49. 0. 25. 104. 230. 245. 247. 245. 250. 254.
      255. 255. 255. 254. 254. 253. 253. 253. 253. 249. 248. 250. 242.
      236. 128. 83. 97. 68. 36. 0. 39. 92. 216. 242. 248. 250. 250. 254.
      255. 255. 255. 254. 254. 253. 253. 253. 253. 253. 248. 248. 239.
      198. 88. 36. 38. 44. 43. 0. 97. 142. 223. 243. 248. 250. 248. 253.
      255. 255. 255. 254. 254. 253. 253. 252. 251. 250. 249. 248. 220.
      104. 51. 31. 40. 47. 45. 0. 158. 207. 233. 240. 242. 249. 249.
      253. 254. 254. 254. 254. 254. 254. 253. 253. 251. 245. 245. 246.
      206. 50. 30. 33. 49. 46. 38. 0. 169. 217. 224. 239. 241. 249. 249.
      253. 253. 254. 254. 254. 255. 254. 254. 253. 252. 251. 247. 234.
      177. 55. 33. 36. 40. 38. 36. 0. 80. 168. 226. 229. 236. 240. 243.
      249. 252. 252. 251. 253. 253. 253. 253. 250. 247. 250. 236. 177.
      97. 38. 30. 39. 44. 42. 37. 0. 45. 98. 160. 168. 205. 235. 238.
      248. 250. 248. 247. 250. 251. 248. 250. 245. 234. 224. 179. 108.
      49. 30. 34. 41. 44. 39. 34. 0. 40. 58. 92. 89. 145. 213. 213. 229.
      236. 239. 246. 246. 243. 247. 248. 229. 180. 119. 83. 55. 34. 36.
      47. 42. 38. 38. 37. 0. 49. 52. 58. 45. 87. 142. 145. 163. 183.
      196. 218. 216. 201. 203. 198. 159. 94. 46. 39. 39. 32. 43. 53. 37.
      34. 39. 39. 0. 45. 46. 46. 41. 50. 57. 85. 110. 115. 92. 116. 122.
      107. 96. 87. 73. 50. 41. 48. 47. 36. 42. 46. 28. 34. 36. 34. 0. 0.
      0. 0. 0. 0. 0. 0. 0. 0. 0. 0. 0. 0. 0. 0. 0. 0. 0. 0. 0. 0. 0. 0.
      0. 0. 0. 0. 0. 0. 0. 0. 0. 0. 0. 0. 0. 0. 0. 0. 0. 0. 0. 0. 0. 0.
      0. 0. 0. 0. 0. 0. 0. 0. 0. 0. 0. 0. 0. 0. 0. 0. 0. 0. 0. 0. 0. 0.
      0. 0. 0. 0. 0. 0. 0. 0. 0. 0. 0. 0. 0. 0. 0. 0. 0. 0. 0. 0. 0. 0.
      0. 0. 0. 0. 0. 0. 0. 0. 0. 0. 0. 0. 0. 0. 0. 0. 0. 0. 0. 0. 0. 0.
      0. 0. 0. 0. 0. 0. 0. 0. 0. 0. 0. 0. 0. 0. 0. 0. 0. 0. 0. 0. 0. 0.
      0. 0. 0. 0. 0. 0. 0.</_>
    <_>
      57. 59. 57. 55. 56. 60. 56. 57. 73. 89. 96. 91. 90. 91. 86. 76.
      61. 58. 60. 61. 62. 61. 58. 58. 60. 59. 69. 0. 52. 46. 39. 41. 62.
      93. 115. 125. 154. 168. 174. 162. 160. 158. 150. 126. 63. 40. 33.
      36. 46. 56. 56. 52. 47. 45. 46. 0. 36. 41. 54. 68. 124. 185. 203.
      212. 231. 241. 247. 244. 244. 245. 238. 221. 139. 96. 58. 36. 32.
      37. 42. 40. 37. 38. 42. 0. 41. 92. 134. 158. 194. 233. 239. 244.
      251. 251. 254. 254. 254. 254. 251. 251. 235. 227. 177. 90. 33. 26.
      36. 39. 36. 40. 44. 0. 78. 153. 200. 219. 230. 240. 243. 248. 251.
      252. 254. 254. 254. 254. 251. 251. 248. 250. 232. 174. 94. 42. 25.
      35. 42. 40. 42. 0. 139. 204. 228. 235. 238. 242. 245. 249. 253.
      253. 255. 255. 255. 255. 253. 253. 246. 253. 246. 226. 157. 69.
      27. 51. 67. 45. 32. 0. 153. 204. 228. 238. 241. 246. 249. 250.
      253. 253. 254. 255. 255. 254. 253. 253. 254. 250. 245. 243. 206.
      129. 83. 112. 126. 82. 32. 0. 106. 151. 210. 240. 245. 248. 250.
      251. 253. 254. 254. 254. 254. 254. 254. 253. 253. 251. 245. 248.
      234. 195. 166. 184. 189. 140. 64. 0. 55. 109. 200. 242. 246. 249.
      251. 252. 253. 254. 254. 254. 254. 254. 254. 254. 248. 250. 248.
      246. 239. 229. 215. 210. 197. 172. 106. 0. 40. 111. 213. 246. 249.
      252. 253. 253. 253. 252. 252. 252. 253. 253. 254. 254. 251. 252.
      252. 249. 238. 238. 226. 196. 154. 145. 110. 0. 37. 124. 221. 245.
      248. 252. 251. 251. 253. 252. 252. 252. 253. 253. 254. 254. 252.
      250. 253. 252. 237. 240. 227. 184. 124. 105. 86. 0. 30. 120. 219.
      244. 246. 249. 251. 253. 254. 254. 254. 254. 253. 253. 254. 254.
      253. 251. 251. 250. 236. 237. 223. 182. 128. 97. 73. 0. 26. 115.
      221. 246. 248. 248. 250. 253. 254. 254. 255. 254. 254. 254. 253.
      254. 254. 253. 250. 248. 239. 234. 206. 180. 136. 98. 64. 0. 25.
      116. 230. 248. 248. 245. 250. 254. 255. 255. 255. 254. 254. 253.
      253. 253. 253. 250. 250. 251. 240. 239. 177. 157. 153. 104. 49. 0.
      25. 104. 230. 245. 247. 245. 250. 254. 255. 255. 255. 254. 254.
      253. 253. 253. 253. 249. 248. 250. 242. 236. 128. 83. 97. 68. 36.
      0. 39. 92. 216. 242. 248. 250. 250. 254. 255. 255. 255. 254. 254.
      253. 253. 253. 253. 253. 248. 248. 239. 198. 88. 36. 38. 44. 43.
      0. 97. 142. 223. 243. 248. 250. 248. 253. 255. 255. 255. 254. 254.
      253. 253. 252. 251. 250. 249. 248. 220. 104. 51. 31. 40. 47. 45.
      0. 158. 207. 233. 240. 242. 249. 249. 253. 254. 254. 254. 254.
      254. 254. 253. 253. 251. 245. 245. 246. 206. 50. 30. 33. 49. 46.
      38. 0. 169. 217. 224. 239. 241. 249. 249. 253. 253. 254. 254. 254.
      255. 254. 254. 253. 252. 251. 247. 234. 177. 55. 33. 36. 40. 38.
      36. 0. 80. 168. 226. 229. 236. 240. 243. 249. 252. 252. 251. 253.
      253. 253. 253. 250. 247. 250. 236. 177. 97. 38. 30. 39. 44. 42.
      37. 0. 45. 98. 160. 168. 205. 235. 238. 248. 250. 248. 247. 250.
      251. 248. 250. 245. 234. 224. 179. 108. 49. 30. 34. 41. 44. 39.
      34. 0. 40. 58. 92. 89. 145. 213. 213. 229. 236. 239. 246. 246.
      243. 247. 248. 229. 180. 119. 83. 55. 34. 36. 47. 42. 38. 38. 37.
      0. 49. 52. 58. 45. 87. 142. 145. 163. 183. 196. 218. 216. 201.
      203. 198. 159. 94. 46. 39. 39. 32. 43. 53. 37. 34. 39. 39. 0. 45.
      46. 46. 41. 50. 57. 85. 110. 115. 92. 116. 122. 107. 96. 87. 73.
      50. 41. 48. 47. 36. 42. 46. 28. 34. 36. 34. 0. 0. 0. 0. 0. 0. 0.
      0. 0. 0. 0. 0. 0. 0. 0. 0. 0. 0. 0. 0. 0. 0. 0. 0. 0. 0. 0. 0. 0.
      0. 0. 0. 0. 0. 0. 0. 0. 0. 0. 0. 0. 0. 0. 0. 0. 0. 0. 0. 0. 0. 0.
      0. 0. 0. 0. 0. 0. 0. 0. 0. 0. 0. 0. 0. 0. 0. 0. 0. 0. 0. 0. 0. 0.
      0. 0. 0. 0. 0. 0. 0. 0. 0. 0. 0. 0. 0. 0. 0. 0. 0. 0. 0. 0. 0. 0.
      0. 0. 0. 0. 0. 0. 0. 0. 0. 0. 0. 0. 0. 0. 0. 0. 0. 0.</_>
    <_>
      142. 150. 147. 151. 168. 191. 213. 215. 219. 219. 214. 212. 209.
      204. 183. 165. 154. 148. 135. 95. 46. 0. 0. 0. 0. 0. 0. 0. 129.
      165. 180. 185. 204. 219. 240. 242. 252. 253. 251. 251. 251. 243.
      227. 216. 193. 155. 106. 64. 49. 0. 0. 0. 0. 0. 0. 0. 128. 193.
      219. 222. 229. 232. 244. 244. 250. 251. 251. 251. 249. 246. 237.
      234. 221. 189. 118. 60. 48. 0. 0. 0. 0. 0. 0. 0. 151. 223. 241.
      245. 248. 249. 251. 251. 252. 252. 253. 253. 253. 252. 249. 247.
      244. 232. 161. 79. 46. 0. 0. 0. 0. 0. 0. 0. 170. 236. 243. 246.
      248. 249. 251. 251. 252. 252. 253. 252. 252. 253. 251. 249. 250.
      249. 198. 104. 46. 0. 0. 0. 0. 0. 0. 0. 145. 214. 242. 244. 248.
      249. 252. 251. 251. 249. 254. 247. 246. 253. 251. 250. 249. 246.
      218. 138. 63. 0. 0. 0. 0. 0. 0. 0. 91. 170. 238. 241. 244. 246.
      251. 253. 254. 254. 254. 252. 252. 254. 250. 249. 248. 245. 234.
      187. 104. 0. 0. 0. 0. 0. 0. 0. 59. 152. 234. 236. 236. 239. 243.
      243. 247. 251. 254. 254. 254. 254. 253. 251. 250. 249. 246. 230.
      142. 0. 0. 0. 0. 0. 0. 0. 56. 156. 234. 232. 225. 224. 231. 236.
      243. 250. 250. 251. 252. 253. 254. 254. 253. 252. 249. 242. 157.
      0. 0. 0. 0. 0. 0. 0. 50. 152. 227. 225. 221. 221. 225. 227. 232.
      238. 243. 245. 249. 251. 253. 253. 253. 252. 252. 247. 159. 0. 0.
      0. 0. 0. 0. 0. 51. 158. 227. 226. 222. 222. 225. 225. 227. 232.
      240. 242. 248. 250. 252. 252. 251. 251. 249. 247. 156. 0. 0. 0. 0.
      0. 0. 0. 54. 166. 232. 229. 221. 219. 225. 230. 233. 237. 243.
      244. 250. 251. 252. 252. 252. 251. 247. 247. 159. 0. 0. 0. 0. 0.
      0. 0. 45. 162. 228. 230. 226. 226. 230. 235. 239. 242. 245. 247.
      252. 252. 254. 254. 253. 250. 251. 244. 160. 0. 0. 0. 0. 0. 0. 0.
      57. 164. 227. 238. 239. 240. 242. 244. 246. 248. 250. 251. 253.
      253. 254. 254. 252. 250. 251. 215. 135. 0. 0. 0. 0. 0. 0. 0. 93.
      192. 234. 243. 244. 245. 247. 250. 251. 252. 255. 255. 254. 253.
      254. 253. 249. 248. 243. 158. 88. 0. 0. 0. 0. 0. 0. 0. 178. 234.
      245. 247. 249. 249. 250. 251. 252. 254. 254. 253. 253. 254. 253.
      252. 249. 247. 232. 109. 49. 0. 0. 0. 0. 0. 0. 0. 174. 239. 251.
      250. 251. 253. 253. 253. 254. 255. 254. 251. 252. 253. 253. 250.
      248. 248. 204. 95. 43. 0. 0. 0. 0. 0. 0. 0. 118. 203. 237. 247.
      249. 251. 252. 253. 254. 252. 252. 254. 252. 247. 248. 253. 246.
      220. 123. 60. 37. 0. 0. 0. 0. 0. 0. 0. 63. 153. 202. 231. 244.
      248. 250. 251. 253. 246. 244. 251. 252. 250. 248. 241. 208. 160.
      67. 47. 47. 0. 0. 0. 0. 0. 0. 0. 41. 88. 121. 165. 207. 235. 246.
      248. 249. 251. 252. 252. 252. 243. 210. 160. 117. 88. 48. 47. 55.
      0. 0. 0. 0. 0. 0. 0. 47. 53. 51. 74. 128. 183. 213. 225. 230. 236.
      232. 226. 213. 181. 125. 74. 57. 60. 54. 50. 52. 0. 0. 0. 0. 0. 0.
      0. 46. 55. 43. 45. 73. 103. 119. 124. 133. 135. 131. 126. 116. 95.
      68. 47. 47. 57. 57. 49. 46. 0. 0. 0. 0. 0. 0. 0. 0. 0. 0. 0. 0. 0.
      0. 0. 0. 0. 0. 0. 0. 0. 0. 0. 0. 0. 0. 0. 0. 0. 0. 0. 0. 0. 0. 0.
      0. 0. 0. 0. 0. 0. 0. 0. 0. 0. 0. 0. 0. 0. 0. 0. 0. 0. 0. 0. 0. 0.
      0. 0. 0. 0. 0. 0. 0. 0. 0. 0. 0. 0. 0. 0. 0. 0. 0. 0. 0. 0. 0. 0.
      0. 0. 0. 0. 0. 0. 0. 0. 0. 0. 0. 0. 0. 0. 0. 0. 0. 0. 0. 0. 0. 0.
      0. 0. 0. 0. 0. 0. 0. 0. 0. 0. 0. 0. 0. 0. 0. 0. 0. 0. 0. 0. 0. 0.
      0. 0. 0. 0. 0. 0. 0. 0. 0. 0. 0. 0. 0. 0. 0. 0. 0. 0. 0. 0. 0. 0.
      0. 0. 0. 0. 0. 0. 0. 0. 0. 0. 0. 0. 0. 0. 0. 0. 0. 0. 0. 0. 0. 0.
      0. 0. 0. 0. 0. 0. 0. 0.</_>
    <_>
      41. 51. 66. 77. 79. 88. 98. 92. 87. 93. 85. 59. 38. 37. 45. 46.
      42. 43. 42. 0. 0. 0. 0. 0. 0. 0. 0. 0. 27. 55. 133. 173. 207. 224.
      237. 239. 231. 224. 206. 164. 110. 58. 51. 42. 41. 46. 39. 0. 0.
      0. 0. 0. 0. 0. 0. 0. 19. 67. 204. 239. 244. 246. 248. 246. 246.
      247. 242. 223. 191. 141. 100. 56. 37. 41. 40. 0. 0. 0. 0. 0. 0. 0.
      0. 0. 33. 97. 229. 243. 246. 246. 248. 249. 249. 249. 248. 244.
      234. 215. 178. 113. 52. 32. 43. 0. 0. 0. 0. 0. 0. 0. 0. 0. 78.
      155. 230. 234. 235. 240. 248. 250. 251. 252. 251. 249. 246. 243.
      234. 188. 102. 33. 37. 0. 0. 0. 0. 0. 0. 0. 0. 0. 128. 208. 227.
      227. 236. 241. 247. 248. 250. 252. 253. 251. 248. 247. 247. 227.
      154. 52. 33. 0. 0. 0. 0. 0. 0. 0. 0. 0. 132. 198. 211. 220. 224.
      228. 236. 240. 248. 250. 250. 251. 252. 249. 243. 233. 180. 76.
      36. 0. 0. 0. 0. 0. 0. 0. 0. 0. 68. 105. 136. 185. 219. 224. 231.
      235. 247. 250. 248. 247. 249. 250. 249. 244. 221. 139. 50. 0. 0.
      0. 0. 0. 0. 0. 0. 0. 48. 49. 62. 115. 174. 172. 183. 213. 242.
      249. 248. 248. 249. 250. 247. 247. 238. 181. 87. 0. 0. 0. 0. 0. 0.
      0. 0. 0. 36. 37. 43. 73. 102. 89. 98. 154. 212. 236. 244. 249.
      250. 250. 246. 245. 243. 203. 104. 0. 0. 0. 0. 0. 0. 0. 0. 0. 29.
      38. 46. 60. 61. 51. 40. 75. 147. 206. 234. 246. 250. 250. 246.
      242. 237. 189. 92. 0. 0. 0. 0. 0. 0. 0. 0. 0. 36. 38. 43. 51. 54.
      53. 32. 30. 91. 176. 225. 237. 245. 251. 247. 242. 230. 171. 79.
      0. 0. 0. 0. 0. 0. 0. 0. 0. 39. 40. 43. 49. 52. 37. 28. 53. 131.
      209. 236. 238. 245. 251. 248. 245. 227. 165. 78. 0. 0. 0. 0. 0. 0.
      0. 0. 0. 32. 39. 49. 59. 59. 38. 51. 135. 223. 241. 244. 245. 248.
      250. 247. 242. 218. 152. 76. 0. 0. 0. 0. 0. 0. 0. 0. 0. 33. 39.
      50. 70. 93. 94. 127. 200. 242. 242. 240. 245. 247. 248. 247. 236.
      195. 123. 63. 0. 0. 0. 0. 0. 0. 0. 0. 0. 50. 58. 65. 91. 130. 166.
      208. 233. 245. 245. 247. 249. 250. 250. 239. 208. 154. 90. 50. 0.
      0. 0. 0. 0. 0. 0. 0. 0. 73. 91. 97. 112. 146. 199. 234. 239. 243.
      245. 251. 252. 246. 249. 232. 181. 112. 65. 51. 0. 0. 0. 0. 0. 0.
      0. 0. 0. 70. 100. 117. 150. 199. 229. 241. 240. 243. 246. 251.
      248. 241. 242. 220. 162. 94. 55. 48. 0. 0. 0. 0. 0. 0. 0. 0. 0.
      42. 84. 134. 192. 230. 233. 237. 238. 244. 246. 248. 243. 238.
      227. 189. 126. 69. 46. 46. 0. 0. 0. 0. 0. 0. 0. 0. 0. 20. 79. 174.
      229. 237. 238. 239. 240. 244. 243. 240. 234. 222. 190. 137. 82.
      50. 46. 49. 0. 0. 0. 0. 0. 0. 0. 0. 0. 15. 76. 181. 237. 240. 241.
      242. 241. 242. 238. 219. 196. 169. 133. 84. 52. 43. 46. 47. 0. 0.
      0. 0. 0. 0. 0. 0. 0. 11. 56. 135. 194. 213. 218. 216. 214. 216.
      209. 170. 123. 96. 73. 52. 44. 43. 40. 37. 0. 0. 0. 0. 0. 0. 0. 0.
      0. 14. 39. 75. 112. 137. 148. 149. 147. 145. 137. 103. 60. 47. 43.
      41. 40. 38. 34. 30. 0. 0. 0. 0. 0. 0. 0. 0. 0. 0. 0. 0. 0. 0. 0.
      0. 0. 0. 0. 0. 0. 0. 0. 0. 0. 0. 0. 0. 0. 0. 0. 0. 0. 0. 0. 0. 0.
      0. 0. 0. 0. 0. 0. 0. 0. 0. 0. 0. 0. 0. 0. 0. 0. 0. 0. 0. 0. 0. 0.
      0. 0. 0. 0. 0. 0. 0. 0. 0. 0. 0. 0. 0. 0. 0. 0. 0. 0. 0. 0. 0. 0.
      0. 0. 0. 0. 0. 0. 0. 0. 0. 0. 0. 0. 0. 0. 0. 0. 0. 0. 0. 0. 0. 0.
      0. 0. 0. 0. 0. 0. 0. 0. 0. 0. 0. 0. 0. 0. 0. 0. 0. 0. 0. 0. 0. 0.
      0. 0. 0. 0. 0. 0. 0. 0. 0. 0. 0. 0. 0. 0. 0. 0. 0. 0. 0. 0. 0. 0.
      0. 0.</_>
    <_>
      35. 21. 26. 69. 137. 182. 191. 195. 194. 184. 169. 120. 60. 42.
      49. 47. 45. 47. 47. 0. 0. 0. 0. 0. 0. 0. 0. 0. 21. 29. 65. 127.
      202. 239. 240. 238. 239. 236. 231. 201. 142. 107. 84. 48. 41. 55.
      48. 0. 0. 0. 0. 0. 0. 0. 0. 0. 23. 63. 141. 209. 231. 240. 237.
      239. 241. 240. 238. 237. 219. 200. 155. 78. 36. 42. 52. 0. 0. 0.
      0. 0. 0. 0. 0. 0. 66. 139. 195. 224. 230. 233. 235. 242. 243. 241.
      240. 240. 242. 238. 214. 151. 69. 34. 45. 0. 0. 0. 0. 0. 0. 0. 0.
      0. 131. 203. 215. 214. 222. 228. 234. 242. 242. 243. 245. 242.
      242. 237. 240. 217. 120. 43. 33. 0. 0. 0. 0. 0. 0. 0. 0. 0. 148.
      211. 218. 213. 218. 222. 229. 239. 239. 242. 245. 244. 244. 240.
      243. 226. 134. 52. 35. 0. 0. 0. 0. 0. 0. 0. 0. 0. 102. 148. 173.
      199. 216. 218. 222. 231. 235. 241. 245. 247. 242. 239. 241. 237.
      181. 95. 37. 0. 0. 0. 0. 0. 0. 0. 0. 0. 63. 82. 106. 161. 203.
      203. 201. 217. 229. 235. 239. 245. 232. 245. 247. 241. 221. 159.
      63. 0. 0. 0. 0. 0. 0. 0. 0. 0. 55. 53. 62. 111. 152. 145. 143.
      182. 223. 233. 230. 244. 243. 248. 242. 239. 237. 196. 73. 0. 0.
      0. 0. 0. 0. 0. 0. 0. 51. 49. 56. 77. 91. 77. 70. 111. 180. 223.
      231. 237. 241. 245. 242. 241. 243. 218. 71. 0. 0. 0. 0. 0. 0. 0.
      0. 0. 44. 49. 59. 66. 70. 63. 50. 57. 106. 174. 219. 236. 239.
      242. 246. 244. 242. 222. 65. 0. 0. 0. 0. 0. 0. 0. 0. 0. 43. 47.
      50. 60. 65. 60. 51. 58. 104. 176. 227. 237. 240. 243. 247. 247.
      241. 222. 65. 0. 0. 0. 0. 0. 0. 0. 0. 0. 37. 38. 39. 63. 66. 48.
      57. 116. 190. 227. 236. 238. 243. 245. 245. 247. 243. 219. 73. 0.
      0. 0. 0. 0. 0. 0. 0. 0. 27. 25. 44. 100. 125. 114. 136. 197. 236.
      238. 239. 247. 249. 248. 242. 244. 235. 195. 70. 0. 0. 0. 0. 0. 0.
      0. 0. 0. 44. 53. 75. 151. 209. 219. 222. 230. 240. 243. 246. 250.
      250. 249. 245. 238. 208. 150. 54. 0. 0. 0. 0. 0. 0. 0. 0. 0. 100.
      146. 156. 193. 218. 223. 231. 237. 244. 248. 247. 249. 251. 251.
      247. 231. 176. 97. 40. 0. 0. 0. 0. 0. 0. 0. 0. 0. 138. 229. 209.
      215. 223. 225. 234. 238. 246. 250. 250. 249. 247. 246. 242. 217.
      150. 59. 41. 0. 0. 0. 0. 0. 0. 0. 0. 0. 113. 220. 223. 224. 231.
      235. 246. 249. 249. 251. 252. 248. 243. 241. 229. 190. 114. 51.
      46. 0. 0. 0. 0. 0. 0. 0. 0. 0. 51. 149. 224. 228. 237. 240. 250.
      253. 251. 252. 251. 247. 244. 237. 204. 138. 70. 38. 46. 0. 0. 0.
      0. 0. 0. 0. 0. 0. 34. 113. 217. 232. 242. 241. 246. 249. 249. 249.
      246. 233. 220. 197. 148. 83. 41. 38. 45. 0. 0. 0. 0. 0. 0. 0. 0.
      0. 27. 77. 187. 225. 243. 242. 246. 248. 243. 239. 227. 190. 145.
      110. 77. 49. 42. 45. 42. 0. 0. 0. 0. 0. 0. 0. 0. 0. 19. 40. 107.
      151. 181. 194. 206. 208. 199. 190. 169. 123. 72. 53. 52. 45. 45.
      48. 42. 0. 0. 0. 0. 0. 0. 0. 0. 0. 35. 38. 60. 81. 100. 112. 125.
      121. 106. 97. 78. 61. 40. 43. 51. 43. 40. 44. 38. 0. 0. 0. 0. 0.
      0. 0. 0. 0. 0. 0. 0. 0. 0. 0. 0. 0. 0. 0. 0. 0. 0. 0. 0. 0. 0. 0.
      0. 0. 0. 0. 0. 0. 0. 0. 0. 0. 0. 0. 0. 0. 0. 0. 0. 0. 0. 0. 0. 0.
      0. 0. 0. 0. 0. 0. 0. 0. 0. 0. 0. 0. 0. 0. 0. 0. 0. 0. 0. 0. 0. 0.
      0. 0. 0. 0. 0. 0. 0. 0. 0. 0. 0. 0. 0. 0. 0. 0. 0. 0. 0. 0. 0. 0.
      0. 0. 0. 0. 0. 0. 0. 0. 0. 0. 0. 0. 0. 0. 0. 0. 0. 0. 0. 0. 0. 0.
      0. 0. 0. 0. 0. 0. 0. 0. 0. 0. 0. 0. 0. 0. 0. 0. 0. 0. 0. 0. 0. 0.
      0. 0. 0. 0. 0. 0. 0. 0. 0. 0. 0. 0.</_>
    <_>
      27. 39. 96. 153. 188. 198. 194. 200. 200. 195. 184. 151. 96. 58.
      42. 40. 49. 51. 47. 0. 0. 0. 0. 0. 0. 0. 0. 0. 17. 58. 156. 221.
      238. 245. 246. 246. 247. 246. 245. 230. 183. 124. 85. 57. 32. 38.
      46. 0. 0. 0. 0. 0. 0. 0. 0. 0. 25. 94. 193. 241. 243. 244. 249.
      252. 251. 249. 249. 249. 242. 222. 200. 122. 46. 34. 45. 0. 0. 0.
      0. 0. 0. 0. 0. 0. 62. 151. 217. 237. 238. 240. 245. 249. 252. 252.
      251. 250. 247. 244. 240. 200. 112. 40. 37. 0. 0. 0. 0. 0. 0. 0. 0.
      0. 111. 202. 230. 231. 235. 240. 244. 248. 251. 252. 253. 252.
      247. 242. 245. 232. 169. 53. 31. 0. 0. 0. 0. 0. 0. 0. 0. 0. 119.
      197. 212. 220. 231. 235. 241. 248. 249. 247. 247. 252. 252. 250.
      248. 236. 197. 84. 36. 0. 0. 0. 0. 0. 0. 0. 0. 0. 84. 129. 151.
      190. 220. 229. 236. 242. 247. 251. 252. 253. 252. 248. 243. 237.
      215. 139. 66. 0. 0. 0. 0. 0. 0. 0. 0. 0. 48. 61. 81. 136. 185.
      207. 221. 234. 246. 248. 250. 252. 252. 251. 249. 243. 231. 196.
      103. 0. 0. 0. 0. 0. 0. 0. 0. 0. 40. 42. 50. 82. 123. 134. 138.
      190. 229. 234. 240. 247. 246. 249. 251. 247. 244. 221. 130. 0. 0.
      0. 0. 0. 0. 0. 0. 0. 42. 43. 50. 68. 81. 59. 49. 104. 186. 226.
      238. 243. 247. 249. 250. 249. 246. 221. 138. 0. 0. 0. 0. 0. 0. 0.
      0. 0. 38. 42. 53. 64. 71. 53. 49. 52. 109. 182. 226. 240. 248.
      251. 250. 248. 244. 217. 135. 0. 0. 0. 0. 0. 0. 0. 0. 0. 34. 43.
      48. 48. 59. 58. 40. 52. 126. 205. 236. 240. 247. 252. 250. 248.
      246. 221. 136. 0. 0. 0. 0. 0. 0. 0. 0. 0. 38. 38. 34. 40. 61. 63.
      47. 115. 201. 236. 245. 246. 250. 252. 248. 247. 248. 223. 139. 0.
      0. 0. 0. 0. 0. 0. 0. 0. 26. 21. 23. 73. 142. 148. 153. 206. 235.
      239. 245. 249. 252. 250. 247. 247. 243. 208. 122. 0. 0. 0. 0. 0.
      0. 0. 0. 0. 33. 64. 78. 139. 214. 217. 221. 236. 245. 244. 249.
      250. 248. 248. 248. 247. 223. 165. 87. 0. 0. 0. 0. 0. 0. 0. 0. 0.
      89. 184. 193. 199. 229. 226. 237. 238. 246. 249. 252. 251. 247.
      250. 249. 243. 194. 112. 54. 0. 0. 0. 0. 0. 0. 0. 0. 0. 124. 219.
      219. 215. 232. 232. 246. 245. 248. 249. 252. 253. 252. 251. 248.
      234. 167. 78. 36. 0. 0. 0. 0. 0. 0. 0. 0. 0. 89. 177. 215. 224.
      234. 235. 242. 251. 251. 251. 250. 251. 246. 242. 240. 203. 130.
      63. 35. 0. 0. 0. 0. 0. 0. 0. 0. 0. 50. 117. 202. 234. 238. 237.
      245. 252. 252. 250. 249. 247. 242. 234. 221. 152. 65. 35. 44. 0.
      0. 0. 0. 0. 0. 0. 0. 0. 32. 81. 178. 235. 241. 241. 252. 251. 250.
      245. 251. 247. 230. 205. 149. 85. 41. 35. 50. 0. 0. 0. 0. 0. 0. 0.
      0. 0. 30. 63. 140. 206. 228. 233. 240. 241. 239. 239. 235. 205.
      139. 75. 58. 54. 51. 50. 49. 0. 0. 0. 0. 0. 0. 0. 0. 0. 33. 49.
      89. 142. 173. 185. 192. 195. 197. 193. 169. 121. 70. 40. 44. 51.
      54. 49. 46. 0. 0. 0. 0. 0. 0. 0. 0. 0. 0. 0. 0. 0. 0. 0. 0. 0. 0.
      0. 0. 0. 0. 0. 0. 0. 0. 0. 0. 0. 0. 0. 0. 0. 0. 0. 0. 0. 0. 0. 0.
      0. 0. 0. 0. 0. 0. 0. 0. 0. 0. 0. 0. 0. 0. 0. 0. 0. 0. 0. 0. 0. 0.
      0. 0. 0. 0. 0. 0. 0. 0. 0. 0. 0. 0. 0. 0. 0. 0. 0. 0. 0. 0. 0. 0.
      0. 0. 0. 0. 0. 0. 0. 0. 0. 0. 0. 0. 0. 0. 0. 0. 0. 0. 0. 0. 0. 0.
      0. 0. 0. 0. 0. 0. 0. 0. 0. 0. 0. 0. 0. 0. 0. 0. 0. 0. 0. 0. 0. 0.
      0. 0. 0. 0. 0. 0. 0. 0. 0. 0. 0. 0. 0. 0. 0. 0. 0. 0. 0. 0. 0. 0.
      0. 0. 0. 0. 0. 0. 0. 0. 0. 0. 0. 0. 0. 0. 0. 0. 0. 0. 0. 0. 0. 0.
      0. 0. 0. 0. 0.</_>
    <_>
      7. 10. 30. 28. 22. 20. 43. 99. 120. 130. 129. 117. 119. 112. 86.
      50. 38. 46. 47. 44. 46. 46. 0. 0. 0. 0. 0. 0. 10. 25. 34. 33. 22.
      22. 106. 191. 224. 237. 241. 240. 239. 225. 190. 114. 69. 60. 48.
      42. 48. 44. 0. 0. 0. 0. 0. 0. 25. 36. 28. 33. 24. 36. 151. 232.
      242. 238. 238. 233. 246. 245. 234. 199. 172. 139. 80. 40. 37. 47.
      0. 0. 0. 0. 0. 0. 31. 35. 26. 30. 28. 43. 122. 215. 237. 241. 250.
      243. 249. 246. 241. 236. 227. 206. 146. 71. 36. 52. 0. 0. 0. 0. 0.
      0. 31. 31. 31. 32. 34. 40. 81. 157. 222. 231. 237. 240. 247. 245.
      245. 248. 240. 235. 209. 125. 53. 44. 0. 0. 0. 0. 0. 0. 31. 31.
      32. 36. 41. 45. 51. 100. 165. 217. 237. 237. 243. 246. 249. 251.
      244. 243. 235. 167. 72. 46. 0. 0. 0. 0. 0. 0. 29. 29. 31. 38. 45.
      50. 50. 54. 86. 158. 222. 235. 240. 242. 247. 249. 246. 246. 238.
      187. 93. 48. 0. 0. 0. 0. 0. 0. 29. 28. 30. 35. 42. 49. 58. 53. 52.
      90. 164. 222. 238. 240. 245. 246. 246. 246. 240. 218. 150. 73. 0.
      0. 0. 0. 0. 0. 31. 31. 32. 33. 36. 39. 46. 59. 52. 51. 98. 166.
      217. 238. 241. 244. 245. 245. 239. 240. 204. 111. 0. 0. 0. 0. 0.
      0. 33. 33. 33. 33. 34. 35. 42. 53. 53. 46. 57. 97. 165. 217. 236.
      242. 245. 244. 239. 244. 226. 123. 0. 0. 0. 0. 0. 0. 32. 32. 32.
      33. 34. 39. 45. 45. 49. 51. 46. 56. 106. 174. 228. 239. 243. 244.
      238. 242. 226. 121. 0. 0. 0. 0. 0. 0. 29. 29. 29. 31. 34. 37. 41.
      45. 52. 54. 41. 40. 77. 150. 225. 236. 240. 244. 242. 241. 226.
      122. 0. 0. 0. 0. 0. 0. 29. 27. 31. 36. 37. 35. 39. 48. 54. 47. 35.
      48. 102. 172. 231. 238. 241. 245. 243. 241. 222. 127. 0. 0. 0. 0.
      0. 0. 35. 33. 34. 35. 33. 35. 42. 47. 43. 36. 49. 95. 166. 218.
      236. 241. 245. 244. 240. 242. 222. 131. 0. 0. 0. 0. 0. 0. 29. 31.
      37. 48. 56. 56. 56. 55. 46. 55. 98. 163. 214. 234. 240. 242. 243.
      241. 243. 239. 193. 103. 0. 0. 0. 0. 0. 0. 54. 78. 94. 107. 122.
      120. 111. 103. 106. 129. 172. 213. 233. 237. 243. 247. 247. 241.
      238. 207. 129. 56. 0. 0. 0. 0. 0. 0. 99. 144. 150. 148. 158. 159.
      150. 152. 173. 205. 226. 236. 240. 243. 247. 247. 249. 247. 237.
      185. 89. 39. 0. 0. 0. 0. 0. 0. 112. 163. 170. 159. 159. 157. 164.
      181. 202. 223. 233. 239. 245. 249. 247. 241. 241. 242. 224. 159.
      71. 41. 0. 0. 0. 0. 0. 0. 85. 136. 163. 166. 167. 157. 178. 208.
      221. 231. 238. 244. 246. 247. 250. 250. 248. 231. 181. 103. 48.
      39. 0. 0. 0. 0. 0. 0. 52. 89. 127. 145. 145. 167. 198. 224. 233.
      240. 246. 250. 248. 246. 251. 247. 228. 183. 117. 59. 39. 41. 0.
      0. 0. 0. 0. 0. 43. 56. 75. 92. 98. 164. 204. 225. 231. 238. 242.
      248. 252. 249. 232. 187. 137. 99. 59. 43. 47. 47. 0. 0. 0. 0. 0.
      0. 40. 41. 45. 56. 70. 120. 170. 201. 209. 213. 222. 227. 218.
      197. 153. 100. 67. 55. 45. 44. 51. 48. 0. 0. 0. 0. 0. 0. 34. 33.
      33. 41. 50. 63. 98. 127. 136. 138. 142. 135. 115. 95. 71. 47. 40.
      47. 49. 44. 43. 42. 0. 0. 0. 0. 0. 0. 0. 0. 0. 0. 0. 0. 0. 0. 0.
      0. 0. 0. 0. 0. 0. 0. 0. 0. 0. 0. 0. 0. 0. 0. 0. 0. 0. 0. 0. 0. 0.
      0. 0. 0. 0. 0. 0. 0. 0. 0. 0. 0. 0. 0. 0. 0. 0. 0. 0. 0. 0. 0. 0.
      0. 0. 0. 0. 0. 0. 0. 0. 0. 0. 0. 0. 0. 0. 0. 0. 0. 0. 0. 0. 0. 0.
      0. 0. 0. 0. 0. 0. 0. 0. 0. 0. 0. 0. 0. 0. 0. 0. 0. 0. 0. 0. 0. 0.
      0. 0. 0. 0. 0. 0. 0. 0. 0. 0. 0. 0. 0. 0. 0. 0. 0. 0. 0. 0. 0. 0.
      0. 0. 0. 0. 0. 0. 0. 0. 0. 0. 0. 0. 0. 0. 0. 0. 0. 0. 0. 0. 0.</_></support_vectors>
  <decision_functions>
    <_>
      <sv_count>19</sv_count>
      <rho>-1.0742829479253195e+00</rho>
      <alpha>
        9.3316871995485989e-30 3.4232094338126466e-29
        5.4154684891911914e-29 1.3949481608219040e-29
        1.0744821094710880e-30 4.5189715063259604e-30
        2.8531171770675333e-30 1.5585034140494789e-29
        1.0795528340386404e-29 4.1863143238742291e-29
        1.3772085881099256e-30 4.4969186655631978e-28
        4.3514551835633266e-30 6.2505035237282887e-30
        3.0162717227186332e-29 -4.2102024161760852e-28
        -1.2223752893875154e-28 -9.4663447631386174e-30
        -1.2746786030970516e-28</alpha>
      <index>
        0 1 2 3 4 5 6 7 8 9 10 11 12 13 14 15 16 17 18</index></_></decision_functions></pacman3>
</opencv_storage>
