<?xml version="1.0"?>
<opencv_storage>
<pacman4 type_id="opencv-ml-svm">
  <svm_type>C_SVC</svm_type>
  <kernel><type>POLY</type>
    <degree>4.</degree>
    <gamma>1.</gamma>
    <coef0>0.</coef0></kernel>
  <C>1.</C>
  <term_criteria><epsilon>2.2204460492503131e-16</epsilon>
    <iterations>5000</iterations></term_criteria>
  <var_all>784</var_all>
  <var_count>784</var_count>
  <class_count>2</class_count>
  <class_labels type_id="opencv-matrix">
    <rows>1</rows>
    <cols>2</cols>
    <dt>i</dt>
    <data>
      -1 1</data></class_labels>
  <sv_total>26</sv_total>
  <support_vectors>
    <_>
      247. 249. 250. 250. 251. 252. 253. 252. 253. 254. 254. 254. 254.
      255. 254. 253. 252. 241. 122. 76. 187. 218. 126. 0. 0. 0. 0. 0.
      248. 250. 252. 251. 251. 253. 254. 252. 251. 253. 254. 253. 251.
      254. 254. 254. 248. 244. 152. 134. 247. 250. 188. 0. 0. 0. 0. 0.
      250. 251. 254. 253. 253. 255. 255. 253. 250. 252. 255. 252. 250.
      253. 254. 253. 249. 249. 239. 226. 235. 235. 174. 0. 0. 0. 0. 0.
      251. 251. 253. 254. 253. 254. 254. 252. 252. 253. 255. 255. 253.
      254. 254. 252. 249. 235. 246. 215. 121. 115. 65. 0. 0. 0. 0. 0.
      251. 252. 253. 253. 254. 254. 254. 254. 254. 254. 254. 254. 255.
      254. 253. 253. 252. 251. 247. 200. 53. 26. 40. 0. 0. 0. 0. 0. 251.
      252. 253. 253. 254. 254. 254. 254. 254. 254. 254. 254. 255. 255.
      254. 253. 252. 250. 247. 201. 48. 17. 43. 0. 0. 0. 0. 0. 251. 252.
      253. 253. 254. 254. 254. 254. 254. 254. 255. 255. 255. 255. 255.
      254. 252. 248. 249. 204. 52. 16. 49. 0. 0. 0. 0. 0. 251. 252. 253.
      253. 254. 254. 254. 254. 254. 254. 254. 254. 254. 254. 254. 254.
      251. 248. 251. 200. 54. 15. 53. 0. 0. 0. 0. 0. 251. 252. 253. 253.
      254. 254. 254. 254. 253. 254. 254. 254. 254. 254. 254. 253. 252.
      250. 251. 199. 57. 14. 52. 0. 0. 0. 0. 0. 251. 252. 253. 253. 254.
      254. 254. 253. 253. 253. 254. 254. 255. 255. 254. 254. 253. 252.
      251. 200. 67. 17. 50. 0. 0. 0. 0. 0. 251. 252. 253. 253. 254. 254.
      254. 252. 249. 250. 251. 251. 252. 252. 253. 251. 250. 252. 251.
      201. 80. 18. 47. 0. 0. 0. 0. 0. 249. 250. 251. 252. 253. 253. 253.
      247. 243. 244. 247. 249. 251. 252. 252. 248. 247. 252. 251. 205.
      86. 21. 47. 0. 0. 0. 0. 0. 240. 228. 227. 241. 250. 247. 247. 246.
      233. 233. 244. 246. 248. 249. 235. 212. 217. 237. 241. 203. 93.
      23. 42. 0. 0. 0. 0. 0. 214. 159. 152. 211. 244. 243. 244. 242.
      235. 239. 245. 246. 247. 236. 197. 149. 156. 209. 237. 194. 85.
      22. 40. 0. 0. 0. 0. 0. 158. 83. 83. 153. 214. 234. 237. 241. 244.
      246. 246. 246. 245. 210. 147. 85. 89. 162. 222. 177. 66. 21. 37.
      0. 0. 0. 0. 0. 96. 52. 55. 84. 153. 217. 223. 235. 243. 240. 224.
      218. 202. 148. 79. 48. 56. 112. 178. 138. 54. 21. 33. 0. 0. 0. 0.
      0. 74. 56. 54. 51. 95. 154. 153. 144. 151. 145. 138. 146. 135. 92.
      52. 50. 57. 83. 122. 97. 48. 29. 44. 0. 0. 0. 0. 0. 77. 67. 60.
      64. 84. 98. 99. 72. 71. 69. 77. 98. 96. 77. 67. 65. 70. 73. 87.
      71. 45. 48. 75. 0. 0. 0. 0. 0. 0. 0. 0. 0. 0. 0. 0. 0. 0. 0. 0. 0.
      0. 0. 0. 0. 0. 0. 0. 0. 0. 0. 0. 0. 0. 0. 0. 0. 0. 0. 0. 0. 0. 0.
      0. 0. 0. 0. 0. 0. 0. 0. 0. 0. 0. 0. 0. 0. 0. 0. 0. 0. 0. 0. 0. 0.
      0. 0. 0. 0. 0. 0. 0. 0. 0. 0. 0. 0. 0. 0. 0. 0. 0. 0. 0. 0. 0. 0.
      0. 0. 0. 0. 0. 0. 0. 0. 0. 0. 0. 0. 0. 0. 0. 0. 0. 0. 0. 0. 0. 0.
      0. 0. 0. 0. 0. 0. 0. 0. 0. 0. 0. 0. 0. 0. 0. 0. 0. 0. 0. 0. 0. 0.
      0. 0. 0. 0. 0. 0. 0. 0. 0. 0. 0. 0. 0. 0. 0. 0. 0. 0. 0. 0. 0. 0.
      0. 0. 0. 0. 0. 0. 0. 0. 0. 0. 0. 0. 0. 0. 0. 0. 0. 0. 0. 0. 0. 0.
      0. 0. 0. 0. 0. 0. 0. 0. 0. 0. 0. 0. 0. 0. 0. 0. 0. 0. 0. 0. 0. 0.
      0. 0. 0. 0. 0. 0. 0. 0. 0. 0. 0. 0. 0. 0. 0. 0. 0. 0. 0. 0. 0. 0.
      0. 0. 0. 0. 0. 0. 0. 0. 0. 0. 0. 0. 0. 0. 0. 0. 0. 0. 0. 0. 0. 0.
      0. 0. 0. 0. 0. 0. 0. 0. 0. 0. 0. 0. 0. 0. 0. 0. 0. 0. 0. 0. 0. 0.
      0. 0. 0. 0. 0. 0. 0. 0. 0. 0. 0. 0. 0. 0. 0. 0. 0. 0. 0. 0. 0. 0.
      0. 0. 0. 0.</_>
    <_>
      139. 153. 172. 165. 150. 138. 127. 127. 133. 137. 147. 167. 167.
      155. 137. 130. 141. 105. 97. 142. 75. 36. 46. 55. 0. 0. 0. 0. 124.
      132. 144. 142. 140. 138. 130. 125. 131. 135. 138. 145. 148. 146.
      140. 132. 127. 107. 146. 222. 131. 55. 37. 43. 0. 0. 0. 0. 121.
      127. 127. 130. 135. 134. 130. 126. 128. 132. 137. 139. 134. 133.
      138. 139. 128. 100. 156. 240. 183. 106. 52. 38. 0. 0. 0. 0. 119.
      125. 124. 125. 128. 130. 128. 126. 128. 131. 135. 140. 139. 133.
      128. 130. 124. 110. 174. 233. 213. 166. 100. 47. 0. 0. 0. 0. 115.
      121. 125. 125. 126. 127. 126. 125. 127. 128. 128. 133. 140. 134.
      133. 139. 128. 120. 184. 227. 222. 205. 152. 56. 0. 0. 0. 0. 116.
      120. 125. 124. 125. 124. 123. 124. 126. 126. 128. 134. 131. 123.
      129. 139. 126. 126. 189. 228. 216. 210. 181. 59. 0. 0. 0. 0. 121.
      123. 118. 123. 128. 130. 129. 128. 130. 130. 128. 131. 131. 129.
      137. 139. 120. 133. 194. 231. 211. 205. 180. 56. 0. 0. 0. 0. 123.
      121. 107. 124. 139. 140. 130. 122. 121. 124. 131. 136. 136. 133.
      133. 124. 111. 143. 202. 230. 215. 213. 191. 66. 0. 0. 0. 0. 117.
      110. 112. 140. 165. 160. 132. 112. 116. 131. 163. 166. 149. 126.
      111. 104. 114. 166. 215. 225. 214. 214. 202. 106. 0. 0. 0. 0. 117.
      125. 150. 178. 200. 193. 156. 137. 152. 179. 203. 201. 186. 159.
      139. 132. 154. 198. 223. 218. 208. 206. 201. 151. 0. 0. 0. 0. 133.
      200. 215. 217. 223. 227. 219. 211. 209. 215. 221. 220. 215. 204.
      194. 190. 201. 218. 219. 215. 209. 205. 200. 160. 0. 0. 0. 0. 144.
      226. 214. 212. 215. 219. 218. 214. 215. 217. 219. 219. 219. 216.
      214. 212. 212. 213. 213. 211. 206. 203. 194. 146. 0. 0. 0. 0. 149.
      231. 213. 212. 209. 211. 210. 209. 210. 212. 213. 213. 212. 211.
      210. 209. 208. 208. 210. 209. 204. 202. 192. 140. 0. 0. 0. 0. 144.
      221. 213. 210. 207. 210. 210. 209. 209. 210. 210. 210. 210. 210.
      209. 208. 206. 205. 208. 210. 205. 203. 190. 136. 0. 0. 0. 0. 146.
      214. 207. 205. 205. 208. 208. 208. 209. 209. 211. 211. 211. 211.
      210. 209. 208. 207. 208. 209. 205. 203. 188. 133. 0. 0. 0. 0. 150.
      218. 206. 205. 205. 207. 207. 207. 208. 208. 210. 210. 211. 211.
      210. 211. 210. 209. 208. 207. 202. 200. 184. 128. 0. 0. 0. 0. 147.
      214. 211. 209. 207. 208. 206. 205. 206. 207. 209. 210. 211. 210.
      208. 208. 208. 208. 208. 208. 203. 200. 181. 124. 0. 0. 0. 0. 147.
      206. 210. 208. 206. 204. 200. 197. 198. 203. 205. 206. 206. 204.
      199. 197. 200. 203. 203. 203. 200. 197. 176. 122. 0. 0. 0. 0. 137.
      199. 202. 192. 191. 192. 189. 176. 183. 195. 194. 198. 199. 192.
      184. 182. 189. 196. 196. 196. 194. 193. 170. 117. 0. 0. 0. 0. 101.
      168. 195. 189. 184. 180. 162. 137. 157. 188. 183. 182. 190. 178.
      137. 145. 177. 188. 188. 193. 192. 172. 137. 96. 0. 0. 0. 0. 55.
      114. 170. 188. 183. 154. 104. 81. 105. 162. 187. 190. 191. 150.
      96. 101. 154. 178. 189. 186. 165. 121. 84. 70. 0. 0. 0. 0. 35. 69.
      118. 147. 145. 105. 54. 47. 55. 95. 136. 135. 116. 74. 38. 45. 89.
      120. 143. 138. 108. 73. 55. 56. 0. 0. 0. 0. 0. 0. 0. 0. 0. 0. 0.
      0. 0. 0. 0. 0. 0. 0. 0. 0. 0. 0. 0. 0. 0. 0. 0. 0. 0. 0. 0. 0. 0.
      0. 0. 0. 0. 0. 0. 0. 0. 0. 0. 0. 0. 0. 0. 0. 0. 0. 0. 0. 0. 0. 0.
      0. 0. 0. 0. 0. 0. 0. 0. 0. 0. 0. 0. 0. 0. 0. 0. 0. 0. 0. 0. 0. 0.
      0. 0. 0. 0. 0. 0. 0. 0. 0. 0. 0. 0. 0. 0. 0. 0. 0. 0. 0. 0. 0. 0.
      0. 0. 0. 0. 0. 0. 0. 0. 0. 0. 0. 0. 0. 0. 0. 0. 0. 0. 0. 0. 0. 0.
      0. 0. 0. 0. 0. 0. 0. 0. 0. 0. 0. 0. 0. 0. 0. 0. 0. 0. 0. 0. 0. 0.
      0. 0. 0. 0. 0. 0. 0. 0. 0. 0. 0. 0. 0. 0. 0. 0. 0. 0. 0. 0. 0. 0.
      0. 0. 0. 0. 0. 0. 0.</_>
    <_>
      50. 51. 53. 52. 47. 55. 55. 54. 44. 33. 46. 110. 154. 136. 134.
      128. 99. 43. 14. 21. 37. 45. 38. 30. 39. 0. 0. 0. 45. 45. 47. 58.
      50. 46. 19. 22. 43. 59. 102. 179. 224. 219. 222. 219. 193. 122.
      71. 66. 36. 38. 43. 36. 26. 0. 0. 0. 45. 46. 46. 46. 43. 34. 12.
      60. 140. 176. 202. 230. 240. 241. 243. 243. 240. 213. 184. 175.
      71. 28. 19. 28. 28. 0. 0. 0. 45. 44. 46. 46. 30. 10. 41. 144. 211.
      234. 242. 246. 248. 248. 247. 245. 248. 249. 248. 239. 160. 81.
      30. 19. 11. 0. 0. 0. 44. 41. 39. 27. 11. 31. 126. 217. 238. 244.
      246. 249. 253. 253. 252. 252. 253. 254. 253. 249. 241. 173. 74.
      15. 18. 0. 0. 0. 53. 51. 44. 19. 32. 119. 211. 245. 247. 246. 247.
      252. 254. 254. 253. 253. 253. 253. 254. 254. 253. 228. 156. 62.
      17. 0. 0. 0. 39. 41. 35. 16. 65. 196. 244. 243. 248. 249. 249.
      252. 253. 253. 253. 253. 252. 252. 252. 252. 254. 253. 231. 128.
      29. 0. 0. 0. 41. 47. 38. 25. 86. 226. 245. 238. 244. 250. 251.
      251. 251. 252. 252. 252. 251. 250. 251. 252. 252. 250. 249. 164.
      38. 0. 0. 0. 44. 46. 29. 24. 84. 213. 237. 239. 241. 248. 252.
      252. 252. 249. 245. 243. 242. 244. 246. 248. 251. 249. 248. 168.
      37. 0. 0. 0. 44. 64. 48. 41. 86. 174. 204. 230. 237. 245. 249.
      251. 251. 244. 226. 216. 222. 236. 245. 247. 248. 251. 250. 184.
      68. 0. 0. 0. 91. 154. 156. 134. 137. 157. 167. 214. 229. 242. 248.
      247. 247. 237. 209. 193. 204. 227. 239. 240. 243. 250. 252. 219.
      126. 0. 0. 0. 142. 226. 238. 226. 208. 187. 184. 217. 229. 235.
      246. 247. 248. 239. 209. 191. 203. 228. 238. 240. 247. 248. 245.
      243. 182. 0. 0. 0. 138. 218. 232. 239. 241. 230. 233. 232. 243.
      242. 242. 247. 248. 247. 240. 232. 233. 240. 245. 247. 250. 249.
      246. 248. 205. 0. 0. 0. 86. 131. 165. 219. 246. 243. 243. 241.
      245. 244. 245. 249. 250. 249. 247. 245. 242. 245. 248. 250. 252.
      252. 250. 246. 206. 0. 0. 0. 36. 30. 83. 194. 249. 250. 250. 250.
      251. 250. 251. 254. 254. 253. 252. 251. 250. 250. 251. 252. 253.
      253. 251. 247. 204. 0. 0. 0. 30. 17. 65. 177. 249. 251. 250. 251.
      251. 249. 252. 254. 253. 252. 253. 253. 252. 253. 253. 254. 255.
      253. 250. 246. 202. 0. 0. 0. 29. 23. 67. 173. 251. 252. 250. 254.
      253. 252. 254. 254. 253. 251. 253. 253. 252. 251. 252. 254. 254.
      253. 249. 245. 198. 0. 0. 0. 21. 7. 59. 177. 252. 253. 251. 254.
      254. 254. 254. 254. 252. 252. 254. 253. 252. 251. 251. 254. 254.
      253. 250. 246. 195. 0. 0. 0. 35. 14. 59. 174. 247. 251. 251. 250.
      251. 250. 245. 250. 249. 250. 252. 251. 250. 250. 250. 252. 253.
      252. 250. 245. 193. 0. 0. 0. 29. 12. 55. 168. 240. 249. 250. 247.
      245. 244. 233. 245. 245. 248. 249. 247. 239. 234. 235. 244. 249.
      249. 248. 242. 189. 0. 0. 0. 33. 10. 38. 149. 231. 248. 246. 244.
      236. 210. 183. 217. 236. 243. 245. 240. 216. 194. 195. 221. 244.
      247. 246. 240. 182. 0. 0. 0. 30. 13. 23. 112. 204. 243. 246. 230.
      195. 152. 119. 150. 208. 235. 238. 221. 181. 127. 120. 172. 224.
      239. 237. 211. 138. 0. 0. 0. 32. 22. 13. 69. 146. 202. 215. 187.
      137. 108. 93. 88. 169. 235. 235. 190. 144. 101. 78. 96. 156. 201.
      206. 169. 97. 0. 0. 0. 34. 27. 21. 60. 106. 140. 144. 120. 90. 89.
      91. 75. 149. 241. 241. 181. 125. 103. 77. 58. 82. 117. 135. 117.
      69. 0. 0. 0. 35. 33. 34. 67. 89. 92. 84. 69. 63. 73. 74. 66. 125.
      238. 243. 159. 71. 69. 67. 58. 55. 61. 76. 80. 55. 0. 0. 0. 28.
      22. 32. 57. 70. 68. 61. 57. 60. 62. 53. 53. 110. 228. 240. 147.
      49. 59. 72. 68. 55. 51. 60. 60. 39. 0. 0. 0. 39. 22. 30. 45. 51.
      57. 58. 57. 62. 63. 51. 41. 67. 136. 155. 93. 46. 58. 59. 56. 55.
      58. 59. 46. 26. 0. 0. 0. 0. 0. 0. 0. 0. 0. 0. 0. 0. 0. 0. 0. 0. 0.
      0. 0. 0. 0. 0. 0. 0. 0. 0. 0. 0. 0. 0. 0.</_>
    <_>
      46. 45. 40. 45. 52. 45. 40. 42. 64. 108. 165. 205. 223. 229. 219.
      195. 147. 95. 59. 43. 50. 59. 59. 54. 51. 0. 0. 0. 40. 42. 48. 45.
      33. 35. 64. 96. 143. 188. 229. 245. 246. 246. 246. 240. 212. 174.
      139. 96. 66. 57. 60. 57. 47. 0. 0. 0. 40. 36. 44. 35. 17. 53. 130.
      184. 227. 242. 246. 247. 246. 247. 247. 246. 246. 235. 205. 154.
      95. 56. 49. 55. 55. 0. 0. 0. 42. 29. 22. 19. 42. 120. 205. 236.
      247. 246. 246. 246. 248. 247. 245. 245. 248. 248. 242. 208. 145.
      84. 52. 50. 56. 0. 0. 0. 39. 27. 13. 36. 113. 201. 244. 246. 245.
      246. 248. 249. 248. 248. 248. 249. 244. 244. 247. 236. 197. 136.
      81. 54. 51. 0. 0. 0. 38. 24. 21. 85. 193. 243. 243. 246. 250. 250.
      251. 249. 246. 249. 252. 253. 251. 251. 250. 247. 230. 181. 113.
      65. 53. 0. 0. 0. 40. 21. 33. 122. 230. 245. 235. 245. 248. 248.
      247. 244. 245. 248. 247. 243. 247. 251. 251. 250. 243. 202. 128.
      70. 53. 0. 0. 0. 34. 23. 45. 124. 208. 227. 223. 235. 241. 243.
      244. 246. 241. 235. 231. 233. 232. 239. 244. 246. 246. 205. 131.
      68. 49. 0. 0. 0. 31. 45. 73. 119. 164. 192. 215. 233. 244. 243.
      244. 243. 218. 192. 195. 218. 229. 236. 240. 241. 244. 208. 132.
      72. 49. 0. 0. 0. 49. 97. 126. 147. 161. 164. 203. 223. 235. 236.
      239. 239. 207. 169. 176. 207. 225. 231. 237. 240. 242. 221. 162.
      103. 61. 0. 0. 0. 80. 150. 173. 169. 170. 178. 210. 225. 235. 235.
      238. 237. 214. 183. 187. 212. 222. 226. 236. 241. 243. 238. 210.
      146. 81. 0. 0. 0. 99. 172. 197. 198. 213. 219. 232. 235. 240. 240.
      243. 242. 231. 213. 215. 226. 229. 232. 241. 244. 247. 246. 223.
      163. 86. 0. 0. 0. 101. 174. 209. 229. 251. 244. 239. 239. 241.
      242. 245. 244. 241. 237. 234. 236. 237. 239. 245. 248. 248. 246.
      223. 163. 87. 0. 0. 0. 95. 188. 233. 242. 246. 240. 241. 243. 239.
      242. 246. 243. 244. 246. 241. 239. 239. 241. 245. 247. 246. 243.
      221. 161. 84. 0. 0. 0. 86. 188. 238. 242. 244. 241. 242. 241. 239.
      243. 247. 244. 243. 246. 243. 241. 241. 242. 245. 246. 246. 247.
      228. 171. 86. 0. 0. 0. 63. 153. 219. 239. 246. 244. 242. 240. 239.
      242. 246. 245. 244. 245. 242. 242. 241. 242. 243. 245. 245. 246.
      228. 169. 85. 0. 0. 0. 38. 118. 201. 237. 244. 242. 241. 240. 239.
      241. 245. 246. 245. 245. 242. 241. 239. 240. 241. 243. 241. 243.
      223. 162. 81. 0. 0. 0. 18. 101. 180. 227. 244. 242. 239. 237. 238.
      243. 245. 246. 246. 245. 243. 242. 240. 239. 240. 243. 243. 244.
      227. 166. 77. 0. 0. 0. 9. 93. 181. 229. 244. 240. 239. 240. 242.
      244. 245. 242. 239. 239. 242. 246. 245. 242. 241. 238. 238. 243.
      227. 173. 79. 0. 0. 0. 6. 92. 185. 230. 221. 201. 204. 227. 243.
      244. 238. 222. 203. 204. 225. 244. 244. 239. 223. 208. 219. 241.
      226. 175. 80. 0. 0. 0. 22. 102. 184. 212. 175. 134. 131. 179. 224.
      241. 229. 186. 141. 141. 190. 236. 240. 216. 157. 119. 143. 193.
      203. 176. 75. 0. 0. 0. 32. 95. 149. 163. 115. 72. 64. 117. 185.
      220. 210. 149. 92. 98. 167. 229. 231. 188. 108. 61. 83. 135. 161.
      164. 68. 0. 0. 0. 37. 71. 90. 95. 63. 38. 32. 67. 114. 152. 142.
      96. 54. 63. 113. 147. 138. 111. 62. 35. 48. 73. 90. 102. 54. 0. 0.
      0. 0. 0. 0. 0. 0. 0. 0. 0. 0. 0. 0. 0. 0. 0. 0. 0. 0. 0. 0. 0. 0.
      0. 0. 0. 0. 0. 0. 0. 0. 0. 0. 0. 0. 0. 0. 0. 0. 0. 0. 0. 0. 0. 0.
      0. 0. 0. 0. 0. 0. 0. 0. 0. 0. 0. 0. 0. 0. 0. 0. 0. 0. 0. 0. 0. 0.
      0. 0. 0. 0. 0. 0. 0. 0. 0. 0. 0. 0. 0. 0. 0. 0. 0. 0. 0. 0. 0. 0.
      0. 0. 0. 0. 0. 0. 0. 0. 0. 0. 0. 0. 0. 0. 0. 0. 0. 0. 0. 0. 0. 0.
      0. 0. 0. 0. 0. 0. 0. 0. 0. 0. 0. 0. 0. 0. 0. 0. 0. 0. 0. 0. 0. 0.
      0. 0. 0. 0. 0. 0. 0. 0. 0.</_>
    <_>
      57. 57. 55. 56. 62. 60. 56. 99. 148. 187. 207. 212. 210. 205. 183.
      135. 70. 39. 48. 58. 55. 55. 47. 55. 0. 0. 0. 0. 59. 58. 52. 54.
      66. 92. 132. 171. 216. 242. 248. 251. 251. 250. 239. 213. 167.
      117. 87. 64. 47. 47. 53. 51. 0. 0. 0. 0. 61. 56. 41. 56. 111. 178.
      222. 235. 246. 250. 251. 252. 252. 252. 248. 248. 238. 211. 163.
      100. 49. 30. 55. 57. 0. 0. 0. 0. 48. 37. 57. 113. 178. 227. 245.
      249. 251. 251. 252. 252. 253. 252. 251. 251. 251. 245. 221. 164.
      90. 38. 34. 58. 0. 0. 0. 0. 43. 48. 103. 174. 226. 246. 249. 251.
      253. 253. 254. 254. 254. 252. 250. 252. 251. 248. 249. 228. 163.
      86. 34. 30. 0. 0. 0. 0. 51. 90. 158. 216. 243. 248. 250. 252. 254.
      253. 253. 254. 254. 252. 250. 253. 253. 249. 251. 247. 220. 166.
      71. 19. 0. 0. 0. 0. 51. 109. 189. 236. 246. 249. 251. 252. 253.
      251. 251. 252. 252. 252. 252. 252. 251. 251. 248. 244. 240. 220.
      122. 21. 0. 0. 0. 0. 42. 96. 189. 238. 247. 249. 251. 251. 250.
      246. 243. 244. 248. 251. 252. 250. 249. 250. 244. 233. 221. 203.
      124. 23. 0. 0. 0. 0. 51. 109. 194. 239. 246. 248. 249. 248. 244.
      236. 231. 233. 240. 247. 251. 252. 251. 245. 233. 208. 175. 143.
      92. 21. 0. 0. 0. 0. 81. 150. 219. 243. 247. 248. 248. 247. 242.
      232. 223. 226. 234. 242. 248. 249. 248. 240. 224. 198. 163. 134.
      102. 48. 0. 0. 0. 0. 136. 205. 237. 245. 250. 251. 250. 247. 241.
      233. 227. 230. 236. 245. 249. 247. 245. 243. 237. 220. 194. 176.
      152. 85. 0. 0. 0. 0. 156. 228. 243. 248. 251. 253. 252. 249. 245.
      240. 238. 240. 242. 248. 250. 250. 250. 247. 243. 238. 233. 217.
      178. 114. 0. 0. 0. 0. 164. 232. 245. 249. 251. 253. 254. 252. 251.
      249. 247. 246. 247. 249. 251. 251. 251. 251. 249. 248. 247. 234.
      198. 127. 0. 0. 0. 0. 162. 231. 244. 249. 251. 252. 253. 253. 253.
      251. 251. 251. 251. 252. 253. 254. 255. 254. 254. 253. 252. 241.
      208. 135. 0. 0. 0. 0. 157. 227. 245. 250. 251. 253. 253. 253. 253.
      252. 252. 251. 251. 253. 253. 254. 254. 254. 253. 252. 251. 239.
      207. 134. 0. 0. 0. 0. 153. 224. 245. 251. 252. 254. 254. 254. 253.
      254. 254. 254. 254. 254. 254. 254. 254. 253. 253. 251. 250. 239.
      207. 133. 0. 0. 0. 0. 154. 223. 245. 251. 251. 254. 254. 253. 252.
      254. 254. 254. 254. 254. 254. 254. 254. 253. 253. 251. 251. 240.
      206. 127. 0. 0. 0. 0. 155. 224. 245. 250. 250. 254. 254. 252. 252.
      253. 254. 253. 251. 251. 252. 252. 252. 252. 252. 252. 251. 241.
      207. 123. 0. 0. 0. 0. 155. 226. 245. 247. 247. 252. 252. 252. 253.
      250. 249. 251. 252. 253. 252. 252. 252. 252. 252. 251. 251. 244.
      207. 119. 0. 0. 0. 0. 159. 225. 238. 231. 236. 242. 245. 248. 247.
      224. 194. 209. 240. 249. 250. 250. 230. 199. 217. 243. 247. 243.
      209. 116. 0. 0. 0. 0. 157. 206. 203. 182. 193. 229. 243. 245. 238.
      183. 90. 100. 200. 231. 247. 243. 180. 109. 119. 189. 238. 246.
      192. 92. 0. 0. 0. 0. 137. 160. 135. 102. 115. 191. 230. 238. 235.
      185. 66. 56. 182. 244. 247. 202. 111. 37. 39. 119. 205. 226. 157.
      59. 0. 0. 0. 0. 95. 101. 80. 54. 57. 96. 138. 144. 138. 115. 47.
      34. 108. 157. 149. 105. 56. 33. 35. 70. 123. 146. 100. 40. 0. 0.
      0. 0. 0. 0. 0. 0. 0. 0. 0. 0. 0. 0. 0. 0. 0. 0. 0. 0. 0. 0. 0. 0.
      0. 0. 0. 0. 0. 0. 0. 0. 0. 0. 0. 0. 0. 0. 0. 0. 0. 0. 0. 0. 0. 0.
      0. 0. 0. 0. 0. 0. 0. 0. 0. 0. 0. 0. 0. 0. 0. 0. 0. 0. 0. 0. 0. 0.
      0. 0. 0. 0. 0. 0. 0. 0. 0. 0. 0. 0. 0. 0. 0. 0. 0. 0. 0. 0. 0. 0.
      0. 0. 0. 0. 0. 0. 0. 0. 0. 0. 0. 0. 0. 0. 0. 0. 0. 0. 0. 0. 0. 0.
      0. 0. 0. 0. 0. 0. 0. 0. 0. 0. 0. 0. 0. 0. 0. 0. 0. 0. 0. 0. 0. 0.
      0. 0. 0. 0. 0. 0. 0. 0. 0. 0.</_>
    <_>
      67. 78. 95. 129. 127. 128. 128. 127. 129. 134. 138. 143. 144. 146.
      150. 151. 142. 132. 131. 129. 119. 109. 109. 0. 0. 0. 0. 0. 117.
      115. 57. 47. 52. 49. 53. 52. 48. 48. 50. 51. 50. 48. 45. 50. 54.
      55. 59. 61. 60. 65. 82. 0. 0. 0. 0. 0. 132. 73. 30. 35. 47. 56.
      50. 49. 50. 51. 54. 56. 58. 59. 68. 77. 74. 60. 53. 53. 67. 105.
      149. 0. 0. 0. 0. 0. 121. 19. 21. 48. 55. 64. 56. 58. 64. 68. 72.
      74. 78. 81. 77. 72. 61. 58. 77. 107. 138. 178. 209. 0. 0. 0. 0. 0.
      113. 21. 25. 56. 61. 57. 56. 64. 71. 76. 78. 78. 80. 83. 80. 64.
      50. 71. 137. 187. 202. 213. 223. 0. 0. 0. 0. 0. 105. 18. 20. 54.
      60. 58. 52. 75. 79. 84. 86. 80. 85. 88. 83. 58. 64. 121. 188. 220.
      229. 231. 233. 0. 0. 0. 0. 0. 108. 18. 33. 68. 63. 64. 93. 75. 58.
      91. 118. 109. 112. 122. 101. 85. 119. 183. 218. 225. 233. 239.
      242. 0. 0. 0. 0. 0. 111. 24. 26. 52. 63. 74. 61. 51. 63. 139. 198.
      197. 196. 202. 171. 156. 181. 217. 231. 230. 236. 242. 244. 0. 0.
      0. 0. 0. 120. 30. 24. 48. 57. 56. 80. 117. 151. 209. 240. 239.
      238. 238. 226. 216. 219. 228. 234. 235. 242. 245. 245. 0. 0. 0. 0.
      0. 123. 30. 37. 55. 47. 64. 179. 218. 234. 242. 250. 250. 252.
      247. 245. 243. 242. 242. 244. 245. 249. 248. 245. 0. 0. 0. 0. 0.
      117. 29. 31. 34. 66. 152. 232. 243. 247. 248. 251. 249. 254. 252.
      247. 251. 251. 251. 251. 251. 253. 253. 247. 0. 0. 0. 0. 0. 121.
      29. 20. 58. 148. 236. 248. 249. 249. 251. 252. 251. 253. 253. 250.
      253. 251. 250. 252. 252. 252. 253. 247. 0. 0. 0. 0. 0. 128. 33.
      43. 142. 226. 246. 248. 251. 250. 251. 253. 252. 254. 252. 251.
      253. 253. 251. 254. 253. 251. 252. 246. 0. 0. 0. 0. 0. 121. 31.
      72. 181. 247. 252. 253. 253. 252. 251. 250. 251. 254. 253. 250.
      252. 253. 254. 254. 253. 249. 252. 245. 0. 0. 0. 0. 0. 124. 31.
      78. 197. 252. 253. 254. 254. 253. 251. 248. 250. 254. 254. 251.
      250. 251. 253. 253. 253. 250. 249. 243. 0. 0. 0. 0. 0. 121. 32.
      92. 211. 251. 250. 253. 254. 252. 252. 250. 250. 253. 253. 252.
      252. 253. 253. 254. 253. 250. 248. 242. 0. 0. 0. 0. 0. 113. 47.
      126. 228. 250. 249. 254. 253. 252. 252. 250. 251. 253. 253. 254.
      254. 255. 255. 255. 254. 252. 250. 247. 0. 0. 0. 0. 0. 0. 0. 0. 0.
      0. 0. 0. 0. 0. 0. 0. 0. 0. 0. 0. 0. 0. 0. 0. 0. 0. 0. 0. 0. 0. 0.
      0. 0. 0. 0. 0. 0. 0. 0. 0. 0. 0. 0. 0. 0. 0. 0. 0. 0. 0. 0. 0. 0.
      0. 0. 0. 0. 0. 0. 0. 0. 0. 0. 0. 0. 0. 0. 0. 0. 0. 0. 0. 0. 0. 0.
      0. 0. 0. 0. 0. 0. 0. 0. 0. 0. 0. 0. 0. 0. 0. 0. 0. 0. 0. 0. 0. 0.
      0. 0. 0. 0. 0. 0. 0. 0. 0. 0. 0. 0. 0. 0. 0. 0. 0. 0. 0. 0. 0. 0.
      0. 0. 0. 0. 0. 0. 0. 0. 0. 0. 0. 0. 0. 0. 0. 0. 0. 0. 0. 0. 0. 0.
      0. 0. 0. 0. 0. 0. 0. 0. 0. 0. 0. 0. 0. 0. 0. 0. 0. 0. 0. 0. 0. 0.
      0. 0. 0. 0. 0. 0. 0. 0. 0. 0. 0. 0. 0. 0. 0. 0. 0. 0. 0. 0. 0. 0.
      0. 0. 0. 0. 0. 0. 0. 0. 0. 0. 0. 0. 0. 0. 0. 0. 0. 0. 0. 0. 0. 0.
      0. 0. 0. 0. 0. 0. 0. 0. 0. 0. 0. 0. 0. 0. 0. 0. 0. 0. 0. 0. 0. 0.
      0. 0. 0. 0. 0. 0. 0. 0. 0. 0. 0. 0. 0. 0. 0. 0. 0. 0. 0. 0. 0. 0.
      0. 0. 0. 0. 0. 0. 0. 0. 0. 0. 0. 0. 0. 0. 0. 0. 0. 0. 0. 0. 0. 0.
      0. 0. 0. 0. 0. 0. 0. 0. 0. 0. 0. 0. 0. 0. 0. 0. 0. 0. 0. 0. 0. 0.
      0. 0. 0. 0. 0. 0. 0. 0. 0. 0. 0. 0. 0. 0. 0. 0. 0. 0.</_>
    <_>
      37. 38. 40. 44. 47. 49. 65. 63. 57. 66. 81. 118. 163. 176. 168.
      166. 147. 93. 62. 75. 68. 57. 52. 46. 42. 0. 0. 0. 46. 41. 40. 44.
      49. 54. 51. 61. 86. 115. 150. 191. 226. 231. 231. 230. 211. 147.
      105. 98. 77. 52. 49. 49. 46. 0. 0. 0. 44. 42. 45. 46. 43. 44. 50.
      97. 160. 201. 216. 233. 244. 243. 243. 244. 243. 218. 191. 166.
      117. 55. 42. 45. 49. 0. 0. 0. 38. 44. 50. 43. 33. 45. 96. 170.
      227. 240. 242. 244. 246. 247. 247. 246. 248. 248. 245. 226. 170.
      84. 46. 33. 43. 0. 0. 0. 36. 42. 39. 29. 42. 96. 170. 229. 244.
      246. 247. 248. 246. 248. 251. 251. 251. 250. 251. 251. 230. 152.
      85. 31. 30. 0. 0. 0. 40. 38. 24. 31. 89. 172. 225. 244. 245. 249.
      250. 251. 248. 249. 252. 251. 251. 251. 251. 251. 249. 227. 150.
      53. 21. 0. 0. 0. 46. 37. 23. 53. 141. 220. 241. 246. 246. 251.
      251. 251. 252. 252. 252. 249. 251. 252. 250. 248. 241. 245. 203.
      92. 17. 0. 0. 0. 49. 40. 26. 73. 173. 230. 237. 238. 242. 248.
      248. 248. 250. 250. 247. 240. 245. 249. 248. 252. 251. 245. 228.
      119. 20. 0. 0. 0. 44. 36. 27. 67. 152. 207. 221. 230. 237. 244.
      247. 248. 246. 242. 232. 225. 228. 233. 240. 254. 251. 250. 229.
      117. 20. 0. 0. 0. 36. 54. 62. 82. 137. 180. 204. 222. 233. 240.
      245. 248. 244. 228. 202. 197. 215. 230. 237. 250. 253. 249. 232.
      146. 53. 0. 0. 0. 88. 155. 181. 180. 173. 180. 202. 219. 230. 236.
      242. 248. 245. 221. 186. 180. 207. 227. 233. 245. 247. 248. 243.
      196. 109. 0. 0. 0. 138. 221. 239. 234. 213. 207. 218. 227. 235.
      239. 244. 248. 246. 231. 204. 200. 219. 229. 235. 245. 247. 248.
      249. 229. 157. 0. 0. 0. 146. 232. 241. 242. 236. 232. 234. 238.
      243. 246. 248. 249. 249. 245. 235. 233. 240. 243. 245. 249. 249.
      248. 249. 241. 180. 0. 0. 0. 95. 158. 181. 226. 244. 244. 243.
      244. 247. 248. 250. 251. 249. 249. 247. 244. 244. 246. 248. 250.
      249. 247. 246. 242. 184. 0. 0. 0. 48. 78. 120. 201. 244. 250. 250.
      252. 253. 253. 252. 252. 250. 250. 251. 251. 251. 251. 251. 251.
      250. 249. 247. 243. 179. 0. 0. 0. 39. 47. 98. 196. 245. 249. 251.
      253. 252. 251. 250. 252. 252. 250. 249. 249. 252. 252. 251. 250.
      251. 251. 249. 245. 178. 0. 0. 0. 37. 34. 93. 199. 246. 249. 250.
      250. 249. 250. 250. 248. 249. 248. 248. 250. 249. 249. 251. 250.
      249. 250. 250. 244. 174. 0. 0. 0. 31. 28. 92. 199. 246. 250. 249.
      248. 246. 248. 250. 250. 245. 248. 250. 249. 249. 250. 251. 251.
      248. 248. 251. 244. 169. 0. 0. 0. 29. 25. 93. 200. 246. 250. 249.
      248. 249. 249. 248. 249. 247. 249. 249. 247. 248. 250. 249. 250.
      247. 246. 249. 247. 175. 0. 0. 0. 25. 25. 97. 202. 248. 247. 236.
      234. 247. 249. 245. 247. 230. 207. 207. 227. 245. 249. 248. 241.
      229. 230. 241. 245. 176. 0. 0. 0. 23. 31. 107. 198. 246. 220. 172.
      166. 217. 245. 246. 245. 180. 112. 124. 196. 240. 249. 239. 205.
      169. 182. 218. 241. 180. 0. 0. 0. 27. 45. 112. 184. 223. 157. 82.
      82. 160. 234. 247. 245. 142. 52. 67. 174. 235. 244. 209. 132. 85.
      110. 174. 218. 177. 0. 0. 0. 33. 50. 96. 137. 148. 88. 35. 40.
      106. 183. 210. 198. 106. 36. 53. 147. 205. 204. 149. 61. 33. 65.
      116. 155. 133. 0. 0. 0. 35. 43. 66. 81. 79. 51. 33. 37. 66. 113.
      130. 113. 58. 36. 52. 107. 138. 124. 82. 30. 29. 52. 72. 85. 78.
      0. 0. 0. 0. 0. 0. 0. 0. 0. 0. 0. 0. 0. 0. 0. 0. 0. 0. 0. 0. 0. 0.
      0. 0. 0. 0. 0. 0. 0. 0. 0. 0. 0. 0. 0. 0. 0. 0. 0. 0. 0. 0. 0. 0.
      0. 0. 0. 0. 0. 0. 0. 0. 0. 0. 0. 0. 0. 0. 0. 0. 0. 0. 0. 0. 0. 0.
      0. 0. 0. 0. 0. 0. 0. 0. 0. 0. 0. 0. 0. 0. 0. 0. 0. 0. 0. 0. 0. 0.
      0. 0. 0. 0. 0. 0. 0. 0. 0. 0. 0. 0. 0. 0. 0. 0. 0. 0. 0. 0. 0. 0.
      0. 0. 0. 0. 0.</_>
    <_>
      39. 40. 39. 36. 34. 34. 32. 30. 44. 86. 141. 169. 180. 188. 185.
      142. 94. 58. 44. 46. 52. 51. 43. 44. 0. 0. 0. 0. 37. 38. 37. 31.
      22. 23. 48. 82. 117. 166. 208. 231. 238. 241. 231. 200. 161. 123.
      93. 70. 52. 44. 43. 46. 0. 0. 0. 0. 37. 36. 31. 23. 19. 46. 101.
      164. 204. 223. 233. 235. 235. 233. 229. 227. 218. 198. 166. 116.
      64. 37. 43. 48. 0. 0. 0. 0. 36. 32. 19. 20. 35. 104. 169. 219.
      237. 237. 234. 232. 232. 232. 231. 231. 232. 229. 210. 163. 107.
      59. 40. 47. 0. 0. 0. 0. 36. 25. 17. 43. 93. 181. 220. 234. 235.
      230. 232. 232. 229. 227. 229. 232. 234. 234. 227. 202. 162. 105.
      51. 42. 0. 0. 0. 0. 28. 24. 46. 110. 180. 224. 237. 239. 238. 233.
      231. 230. 229. 228. 230. 231. 233. 234. 233. 226. 202. 150. 82.
      39. 0. 0. 0. 0. 17. 37. 95. 175. 228. 233. 233. 235. 236. 236.
      235. 233. 233. 232. 232. 229. 230. 233. 236. 236. 220. 170. 95.
      42. 0. 0. 0. 0. 15. 44. 116. 187. 220. 222. 226. 231. 235. 236.
      236. 234. 231. 228. 228. 226. 228. 232. 236. 239. 227. 180. 98.
      39. 0. 0. 0. 0. 18. 38. 96. 159. 174. 208. 220. 229. 230. 234.
      236. 230. 214. 207. 214. 219. 224. 230. 232. 237. 228. 180. 99.
      42. 0. 0. 0. 0. 24. 43. 90. 144. 153. 200. 219. 229. 229. 233.
      235. 226. 201. 187. 198. 213. 221. 227. 228. 234. 229. 188. 125.
      70. 0. 0. 0. 0. 44. 66. 120. 170. 178. 208. 219. 230. 231. 237.
      238. 229. 207. 192. 202. 215. 223. 229. 230. 237. 236. 212. 172.
      119. 0. 0. 0. 0. 71. 98. 152. 206. 221. 221. 222. 232. 233. 240.
      239. 232. 224. 214. 218. 223. 227. 232. 233. 243. 243. 226. 201.
      149. 0. 0. 0. 0. 84. 136. 185. 230. 236. 236. 237. 239. 239. 242.
      240. 238. 237. 232. 234. 232. 233. 235. 235. 243. 243. 222. 202.
      153. 0. 0. 0. 0. 94. 149. 196. 234. 239. 242. 242. 242. 243. 244.
      244. 244. 244. 242. 245. 244. 244. 242. 242. 241. 240. 230. 203.
      151. 0. 0. 0. 0. 97. 159. 207. 237. 240. 244. 243. 243. 244. 245.
      245. 246. 245. 246. 245. 243. 242. 242. 243. 242. 241. 232. 204.
      152. 0. 0. 0. 0. 94. 160. 207. 236. 242. 245. 245. 245. 245. 245.
      245. 244. 243. 245. 245. 244. 243. 242. 241. 241. 241. 229. 204.
      153. 0. 0. 0. 0. 94. 156. 202. 233. 243. 246. 246. 246. 245. 245.
      245. 245. 244. 243. 244. 245. 245. 242. 238. 239. 242. 225. 204.
      154. 0. 0. 0. 0. 95. 160. 205. 234. 244. 246. 245. 245. 245. 244.
      245. 245. 246. 243. 242. 243. 245. 244. 242. 243. 244. 229. 207.
      155. 0. 0. 0. 0. 104. 168. 206. 230. 241. 242. 242. 244. 245. 244.
      242. 238. 237. 241. 237. 237. 244. 246. 245. 243. 243. 229. 209.
      155. 0. 0. 0. 0. 109. 169. 195. 211. 218. 217. 225. 234. 241. 239.
      225. 203. 195. 210. 221. 235. 239. 234. 219. 213. 217. 206. 199.
      154. 0. 0. 0. 0. 109. 150. 167. 174. 164. 160. 182. 209. 228. 223.
      189. 141. 125. 163. 201. 234. 234. 202. 169. 163. 172. 168. 178.
      151. 0. 0. 0. 0. 92. 118. 126. 127. 104. 96. 127. 164. 197. 202.
      170. 121. 108. 152. 188. 203. 192. 154. 107. 99. 130. 131. 142.
      124. 0. 0. 0. 0. 60. 75. 78. 77. 60. 55. 76. 104. 125. 126. 102.
      69. 58. 83. 105. 112. 104. 83. 46. 44. 79. 83. 85. 73. 0. 0. 0. 0.
      0. 0. 0. 0. 0. 0. 0. 0. 0. 0. 0. 0. 0. 0. 0. 0. 0. 0. 0. 0. 0. 0.
      0. 0. 0. 0. 0. 0. 0. 0. 0. 0. 0. 0. 0. 0. 0. 0. 0. 0. 0. 0. 0. 0.
      0. 0. 0. 0. 0. 0. 0. 0. 0. 0. 0. 0. 0. 0. 0. 0. 0. 0. 0. 0. 0. 0.
      0. 0. 0. 0. 0. 0. 0. 0. 0. 0. 0. 0. 0. 0. 0. 0. 0. 0. 0. 0. 0. 0.
      0. 0. 0. 0. 0. 0. 0. 0. 0. 0. 0. 0. 0. 0. 0. 0. 0. 0. 0. 0. 0. 0.
      0. 0. 0. 0. 0. 0. 0. 0. 0. 0. 0. 0. 0. 0. 0. 0. 0. 0. 0. 0. 0. 0.
      0. 0. 0. 0. 0. 0. 0. 0.</_>
    <_>
      49. 50. 35. 43. 77. 108. 128. 141. 140. 138. 136. 130. 123. 121.
      127. 134. 139. 133. 105. 71. 42. 36. 40. 41. 43. 0. 0. 0. 57. 43.
      39. 70. 111. 133. 159. 185. 190. 185. 175. 161. 138. 124. 128.
      144. 163. 174. 167. 122. 73. 41. 34. 36. 42. 0. 0. 0. 59. 38. 60.
      102. 132. 157. 194. 227. 233. 234. 229. 205. 163. 138. 147. 181.
      220. 236. 241. 233. 198. 103. 13. 11. 40. 0. 0. 0. 59. 33. 76.
      122. 140. 191. 225. 241. 240. 241. 243. 234. 210. 187. 188. 211.
      235. 244. 250. 248. 236. 178. 79. 20. 22. 0. 0. 0. 58. 26. 75.
      119. 139. 217. 242. 246. 244. 240. 234. 226. 218. 204. 216. 240.
      244. 238. 231. 220. 206. 175. 107. 34. 16. 0. 0. 0. 54. 28. 78.
      115. 135. 230. 245. 242. 240. 233. 214. 191. 183. 181. 213. 247.
      246. 237. 230. 205. 166. 135. 95. 40. 15. 0. 0. 0. 49. 47. 103.
      130. 135. 228. 246. 242. 239. 222. 200. 176. 172. 174. 212. 247.
      243. 229. 222. 201. 160. 127. 95. 46. 20. 0. 0. 0. 46. 70. 127.
      149. 140. 208. 237. 246. 242. 230. 214. 195. 179. 171. 197. 232.
      245. 237. 230. 215. 186. 149. 100. 51. 31. 0. 0. 0. 45. 85. 130.
      148. 142. 174. 211. 238. 242. 245. 236. 208. 165. 144. 159. 201.
      234. 247. 246. 234. 210. 163. 100. 55. 41. 0. 0. 0. 42. 88. 126.
      139. 137. 147. 176. 204. 223. 212. 204. 193. 158. 142. 131. 152.
      182. 201. 202. 200. 191. 150. 100. 70. 49. 0. 0. 0. 37. 81. 129.
      136. 131. 136. 136. 138. 139. 134. 136. 138. 134. 131. 131. 135.
      142. 149. 153. 154. 150. 136. 109. 78. 48. 0. 0. 0. 36. 75. 125.
      135. 129. 132. 131. 133. 131. 122. 126. 130. 131. 130. 130. 129.
      129. 133. 136. 135. 134. 132. 113. 77. 45. 0. 0. 0. 36. 79. 128.
      137. 131. 133. 133. 135. 132. 133. 132. 132. 133. 133. 133. 134.
      135. 133. 131. 132. 135. 134. 114. 78. 48. 0. 0. 0. 38. 83. 129.
      136. 131. 134. 134. 134. 130. 131. 133. 135. 136. 134. 132. 132.
      134. 132. 131. 133. 136. 134. 116. 82. 51. 0. 0. 0. 39. 81. 124.
      134. 134. 135. 133. 129. 125. 125. 132. 140. 142. 138. 133. 131.
      129. 131. 133. 136. 137. 131. 117. 87. 50. 0. 0. 0. 45. 90. 126.
      137. 141. 140. 134. 132. 132. 131. 133. 132. 124. 124. 133. 136.
      135. 135. 133. 136. 135. 128. 120. 96. 56. 0. 0. 0. 55. 101. 125.
      127. 127. 122. 118. 132. 144. 138. 124. 95. 75. 84. 118. 142. 144.
      135. 120. 118. 123. 120. 118. 103. 66. 0. 0. 0. 61. 101. 113. 103.
      94. 86. 86. 116. 144. 141. 119. 77. 50. 68. 118. 146. 142. 121.
      87. 81. 97. 102. 105. 97. 70. 0. 0. 0. 70. 87. 92. 90. 73. 56. 60.
      93. 125. 132. 121. 81. 54. 77. 111. 128. 129. 95. 63. 54. 69. 78.
      80. 78. 65. 0. 0. 0. 63. 68. 66. 68. 67. 61. 60. 72. 84. 81. 82.
      64. 52. 67. 74. 74. 87. 61. 50. 44. 47. 54. 55. 53. 52. 0. 0. 0.
      0. 0. 0. 0. 0. 0. 0. 0. 0. 0. 0. 0. 0. 0. 0. 0. 0. 0. 0. 0. 0. 0.
      0. 0. 0. 0. 0. 0. 0. 0. 0. 0. 0. 0. 0. 0. 0. 0. 0. 0. 0. 0. 0. 0.
      0. 0. 0. 0. 0. 0. 0. 0. 0. 0. 0. 0. 0. 0. 0. 0. 0. 0. 0. 0. 0. 0.
      0. 0. 0. 0. 0. 0. 0. 0. 0. 0. 0. 0. 0. 0. 0. 0. 0. 0. 0. 0. 0. 0.
      0. 0. 0. 0. 0. 0. 0. 0. 0. 0. 0. 0. 0. 0. 0. 0. 0. 0. 0. 0. 0. 0.
      0. 0. 0. 0. 0. 0. 0. 0. 0. 0. 0. 0. 0. 0. 0. 0. 0. 0. 0. 0. 0. 0.
      0. 0. 0. 0. 0. 0. 0. 0. 0. 0. 0. 0. 0. 0. 0. 0. 0. 0. 0. 0. 0. 0.
      0. 0. 0. 0. 0. 0. 0. 0. 0. 0. 0. 0. 0. 0. 0. 0. 0. 0. 0. 0. 0. 0.
      0. 0. 0. 0. 0. 0. 0. 0. 0. 0. 0. 0. 0. 0. 0. 0. 0. 0. 0. 0. 0. 0.
      0. 0. 0. 0. 0. 0. 0. 0. 0. 0. 0. 0. 0. 0. 0. 0. 0. 0. 0. 0. 0. 0.
      0. 0. 0. 0.</_>
    <_>
      65. 86. 48. 40. 46. 52. 58. 60. 63. 60. 61. 105. 160. 176. 181.
      178. 162. 91. 63. 76. 56. 57. 49. 48. 35. 0. 0. 0. 57. 119. 78.
      41. 35. 47. 50. 48. 74. 102. 115. 166. 229. 234. 233. 228. 218.
      159. 120. 117. 74. 51. 48. 50. 32. 0. 0. 0. 32. 138. 112. 35. 25.
      37. 34. 52. 122. 185. 204. 219. 242. 241. 239. 236. 237. 216. 196.
      189. 119. 55. 43. 41. 27. 0. 0. 0. 11. 148. 136. 29. 23. 28. 42.
      102. 187. 237. 242. 239. 236. 234. 234. 234. 239. 235. 233. 231.
      178. 105. 54. 28. 19. 0. 0. 0. 16. 148. 143. 26. 15. 34. 96. 181.
      231. 241. 240. 239. 236. 235. 233. 234. 236. 235. 236. 239. 223.
      182. 102. 32. 13. 0. 0. 0. 36. 132. 116. 24. 11. 75. 171. 231.
      241. 233. 233. 238. 238. 236. 235. 235. 234. 235. 236. 238. 239.
      228. 170. 61. 15. 0. 0. 0. 61. 98. 72. 24. 18. 125. 218. 241. 241.
      240. 239. 241. 235. 230. 232. 234. 232. 236. 239. 236. 236. 237.
      225. 93. 18. 0. 0. 0. 78. 62. 53. 24. 10. 125. 221. 242. 239. 236.
      236. 238. 235. 228. 229. 235. 233. 235. 236. 232. 237. 243. 242.
      108. 13. 0. 0. 0. 71. 33. 18. 11. 27. 131. 225. 241. 243. 239.
      238. 236. 236. 232. 231. 235. 234. 233. 232. 234. 242. 243. 236.
      116. 18. 0. 0. 0. 42. 29. 23. 11. 48. 171. 238. 241. 241. 236.
      234. 234. 232. 234. 235. 233. 232. 232. 232. 233. 237. 240. 238.
      154. 53. 0. 0. 0. 30. 21. 18. 30. 127. 220. 246. 237. 233. 224.
      224. 229. 229. 233. 235. 232. 233. 232. 227. 225. 226. 231. 242.
      203. 111. 0. 0. 0. 43. 27. 9. 41. 186. 238. 245. 235. 220. 203.
      205. 221. 226. 228. 231. 234. 234. 223. 207. 204. 218. 231. 244.
      233. 158. 0. 0. 0. 45. 36. 12. 46. 200. 243. 244. 233. 197. 166.
      167. 201. 218. 224. 231. 236. 226. 194. 160. 161. 193. 222. 242.
      239. 177. 0. 0. 0. 31. 20. 9. 53. 207. 247. 246. 233. 171. 134.
      135. 187. 217. 227. 234. 236. 215. 170. 133. 138. 180. 219. 243.
      238. 183. 0. 0. 0. 34. 23. 12. 55. 198. 247. 245. 231. 168. 146.
      153. 196. 223. 231. 236. 237. 218. 183. 156. 162. 192. 223. 243.
      237. 189. 0. 0. 0. 38. 22. 10. 53. 188. 244. 238. 234. 197. 195.
      204. 221. 228. 231. 236. 238. 229. 214. 203. 206. 216. 230. 240.
      234. 190. 0. 0. 0. 33. 20. 9. 56. 187. 244. 235. 238. 236. 227.
      233. 234. 233. 231. 233. 235. 230. 230. 229. 227. 228. 232. 237.
      231. 186. 0. 0. 0. 29. 19. 8. 57. 186. 243. 241. 236. 237. 234.
      234. 235. 233. 234. 234. 235. 231. 232. 232. 232. 232. 233. 235.
      230. 181. 0. 0. 0. 34. 21. 4. 60. 183. 243. 238. 217. 222. 236.
      236. 238. 232. 225. 215. 221. 231. 234. 234. 232. 223. 220. 230.
      233. 177. 0. 0. 0. 32. 19. 5. 68. 192. 241. 221. 176. 193. 234.
      237. 236. 206. 150. 129. 157. 214. 234. 236. 218. 179. 169. 206.
      235. 179. 0. 0. 0. 18. 21. 24. 89. 197. 230. 182. 122. 150. 216.
      239. 235. 187. 96. 73. 113. 200. 235. 232. 186. 113. 97. 161. 226.
      175. 0. 0. 0. 24. 72. 104. 151. 211. 201. 129. 63. 88. 169. 226.
      238. 207. 147. 132. 152. 213. 232. 211. 146. 71. 53. 114. 193.
      157. 0. 0. 0. 57. 161. 217. 227. 204. 132. 70. 27. 47. 112. 182.
      215. 209. 219. 214. 212. 209. 201. 159. 96. 44. 39. 81. 138. 121.
      0. 0. 0. 73. 194. 245. 212. 135. 59. 28. 21. 37. 73. 122. 148.
      155. 228. 243. 213. 150. 132. 95. 51. 27. 37. 58. 84. 73. 0. 0. 0.
      60. 162. 206. 154. 68. 29. 32. 33. 38. 54. 75. 84. 91. 170. 192.
      154. 82. 74. 61. 44. 41. 44. 44. 51. 36. 0. 0. 0. 34. 89. 115. 86.
      45. 33. 39. 40. 40. 47. 56. 57. 59. 97. 100. 84. 53. 38. 43. 44.
      35. 37. 35. 41. 25. 0. 0. 0. 0. 0. 0. 0. 0. 0. 0. 0. 0. 0. 0. 0.
      0. 0. 0. 0. 0. 0. 0. 0. 0. 0. 0. 0. 0. 0. 0. 0. 0. 0. 0. 0. 0. 0.
      0. 0. 0. 0. 0. 0. 0. 0. 0. 0. 0. 0. 0. 0. 0. 0. 0. 0. 0. 0. 0. 0.</_>
    <_>
      40. 41. 41. 43. 44. 29. 35. 33. 35. 28. 31. 101. 162. 174. 180.
      183. 154. 96. 60. 54. 53. 56. 59. 52. 42. 0. 0. 0. 37. 38. 37. 39.
      41. 32. 23. 17. 54. 99. 108. 175. 221. 231. 230. 235. 220. 180.
      140. 115. 65. 36. 44. 52. 54. 0. 0. 0. 36. 42. 42. 36. 32. 22. 18.
      46. 123. 193. 205. 231. 242. 241. 232. 234. 239. 238. 228. 206.
      129. 66. 50. 45. 51. 0. 0. 0. 33. 34. 25. 17. 21. 41. 81. 133.
      196. 232. 234. 237. 235. 230. 233. 235. 232. 234. 239. 231. 174.
      100. 64. 49. 47. 0. 0. 0. 44. 36. 19. 14. 35. 92. 165. 213. 231.
      236. 233. 232. 234. 231. 233. 234. 231. 234. 241. 239. 218. 151.
      93. 63. 55. 0. 0. 0. 36. 25. 10. 27. 85. 159. 217. 236. 232. 235.
      237. 232. 234. 231. 232. 233. 231. 231. 238. 239. 233. 191. 133.
      75. 53. 0. 0. 0. 34. 26. 13. 42. 126. 205. 230. 227. 226. 234.
      237. 230. 233. 230. 230. 232. 231. 230. 234. 235. 232. 215. 165.
      88. 45. 0. 0. 0. 36. 28. 13. 34. 118. 196. 214. 220. 226. 228.
      232. 227. 231. 223. 215. 219. 224. 224. 231. 233. 235. 220. 172.
      93. 45. 0. 0. 0. 26. 32. 20. 29. 92. 151. 179. 209. 224. 222. 227.
      233. 222. 201. 181. 185. 208. 220. 227. 233. 238. 219. 165. 92.
      53. 0. 0. 0. 33. 84. 95. 73. 91. 113. 146. 193. 216. 219. 231.
      233. 214. 185. 155. 162. 199. 215. 223. 230. 237. 227. 180. 111.
      84. 0. 0. 0. 69. 168. 201. 151. 125. 122. 148. 194. 217. 223. 233.
      228. 214. 182. 151. 162. 205. 216. 223. 227. 235. 236. 207. 154.
      143. 0. 0. 0. 87. 204. 237. 204. 176. 174. 194. 216. 226. 228.
      228. 226. 217. 202. 194. 202. 221. 221. 226. 228. 233. 233. 219.
      185. 184. 0. 0. 0. 65. 163. 206. 209. 206. 215. 228. 233. 232.
      230. 229. 228. 226. 221. 222. 227. 230. 228. 229. 232. 232. 231.
      228. 190. 168. 0. 0. 0. 31. 94. 141. 184. 207. 226. 234. 233. 230.
      228. 227. 228. 229. 229. 230. 231. 231. 230. 231. 233. 233. 230.
      231. 194. 140. 0. 0. 0. 11. 35. 83. 163. 205. 227. 233. 231. 229.
      228. 228. 228. 229. 231. 231. 232. 232. 232. 231. 232. 232. 232.
      235. 197. 121. 0. 0. 0. 12. 16. 69. 165. 211. 231. 233. 232. 232.
      231. 230. 231. 231. 232. 232. 231. 232. 233. 232. 230. 230. 234.
      236. 190. 117. 0. 0. 0. 15. 15. 78. 169. 215. 230. 228. 231. 233.
      232. 231. 231. 231. 232. 231. 231. 231. 231. 230. 228. 230. 235.
      234. 183. 113. 0. 0. 0. 12. 12. 77. 174. 219. 231. 231. 233. 234.
      231. 232. 232. 231. 231. 231. 231. 230. 229. 230. 231. 232. 234.
      233. 189. 120. 0. 0. 0. 14. 15. 78. 174. 218. 230. 228. 231. 228.
      220. 224. 230. 232. 232. 232. 230. 224. 222. 227. 233. 234. 235.
      233. 193. 125. 0. 0. 0. 24. 14. 82. 183. 213. 233. 231. 227. 207.
      184. 193. 217. 230. 232. 229. 217. 197. 188. 198. 217. 233. 235.
      227. 180. 119. 0. 0. 0. 13. 18. 73. 161. 223. 239. 235. 212. 162.
      126. 140. 192. 225. 233. 221. 190. 146. 120. 149. 208. 229. 235.
      213. 147. 88. 0. 0. 0. 6. 17. 50. 115. 195. 218. 216. 172. 101.
      72. 83. 154. 208. 221. 199. 147. 86. 65. 108. 186. 224. 219. 181.
      109. 57. 0. 0. 0. 24. 86. 108. 96. 119. 145. 159. 116. 55. 42. 47.
      95. 150. 164. 135. 85. 49. 36. 57. 106. 140. 139. 112. 69. 39. 0.
      0. 0. 0. 0. 0. 0. 0. 0. 0. 0. 0. 0. 0. 0. 0. 0. 0. 0. 0. 0. 0. 0.
      0. 0. 0. 0. 0. 0. 0. 0. 0. 0. 0. 0. 0. 0. 0. 0. 0. 0. 0. 0. 0. 0.
      0. 0. 0. 0. 0. 0. 0. 0. 0. 0. 0. 0. 0. 0. 0. 0. 0. 0. 0. 0. 0. 0.
      0. 0. 0. 0. 0. 0. 0. 0. 0. 0. 0. 0. 0. 0. 0. 0. 0. 0. 0. 0. 0. 0.
      0. 0. 0. 0. 0. 0. 0. 0. 0. 0. 0. 0. 0. 0. 0. 0. 0. 0. 0. 0. 0. 0.
      0. 0. 0. 0. 0. 0. 0. 0. 0. 0. 0. 0. 0. 0. 0. 0. 0. 0. 0. 0. 0. 0.
      0. 0. 0. 0. 0. 0. 0. 0. 0. 0.</_>
    <_>
      49. 52. 52. 45. 45. 37. 61. 101. 113. 133. 130. 127. 124. 119. 95.
      64. 56. 59. 55. 53. 50. 39. 35. 0. 0. 0. 0. 0. 55. 53. 49. 48. 68.
      82. 116. 180. 202. 202. 200. 208. 207. 189. 148. 104. 86. 76. 64.
      59. 60. 54. 41. 0. 0. 0. 0. 0. 53. 47. 51. 77. 127. 162. 183. 219.
      228. 225. 230. 236. 238. 234. 214. 189. 160. 117. 77. 62. 60. 59.
      47. 0. 0. 0. 0. 0. 47. 47. 79. 138. 192. 218. 223. 223. 227. 231.
      235. 237. 237. 240. 240. 238. 223. 179. 115. 70. 49. 47. 47. 0. 0.
      0. 0. 0. 47. 59. 121. 197. 224. 226. 233. 233. 239. 246. 251. 251.
      248. 250. 248. 247. 246. 234. 185. 111. 57. 38. 43. 0. 0. 0. 0. 0.
      53. 80. 156. 222. 228. 227. 237. 241. 247. 246. 250. 250. 252.
      252. 249. 243. 246. 247. 228. 170. 90. 41. 39. 0. 0. 0. 0. 0. 57.
      104. 181. 227. 234. 236. 247. 250. 253. 245. 250. 250. 249. 253.
      251. 248. 248. 240. 235. 206. 129. 58. 37. 0. 0. 0. 0. 0. 74. 141.
      205. 228. 237. 243. 248. 248. 255. 254. 254. 254. 253. 253. 244.
      237. 242. 232. 228. 219. 153. 71. 38. 0. 0. 0. 0. 0. 117. 192.
      226. 233. 240. 246. 251. 251. 252. 247. 251. 248. 238. 238. 234.
      230. 227. 225. 223. 217. 164. 90. 45. 0. 0. 0. 0. 0. 120. 195.
      228. 234. 240. 246. 251. 251. 253. 253. 245. 200. 170. 192. 221.
      227. 222. 222. 221. 219. 195. 138. 76. 0. 0. 0. 0. 0. 114. 198.
      235. 239. 243. 247. 246. 243. 245. 237. 206. 135. 89. 120. 180.
      211. 215. 216. 217. 218. 219. 183. 106. 0. 0. 0. 0. 0. 104. 195.
      236. 239. 243. 247. 246. 235. 230. 213. 169. 114. 70. 84. 141.
      194. 212. 215. 217. 213. 222. 200. 117. 0. 0. 0. 0. 0. 104. 199.
      240. 242. 243. 247. 247. 241. 231. 217. 188. 149. 111. 108. 142.
      186. 205. 209. 218. 212. 222. 206. 119. 0. 0. 0. 0. 0. 106. 201.
      240. 244. 244. 246. 248. 243. 236. 231. 216. 188. 159. 164. 179.
      192. 201. 205. 218. 215. 225. 216. 124. 0. 0. 0. 0. 0. 89. 182.
      232. 245. 244. 247. 250. 246. 240. 237. 230. 210. 196. 204. 207.
      206. 205. 208. 216. 220. 228. 224. 128. 0. 0. 0. 0. 0. 65. 148.
      220. 243. 244. 247. 250. 246. 241. 236. 231. 224. 216. 218. 216.
      214. 211. 210. 213. 222. 227. 222. 126. 0. 0. 0. 0. 0. 39. 91.
      205. 242. 243. 247. 246. 243. 240. 235. 231. 228. 219. 217. 221.
      224. 224. 215. 215. 223. 224. 216. 112. 0. 0. 0. 0. 0. 39. 81.
      188. 236. 238. 240. 244. 245. 239. 231. 227. 225. 220. 222. 225.
      224. 233. 227. 221. 219. 207. 191. 81. 0. 0. 0. 0. 0. 44. 49. 131.
      216. 237. 237. 240. 240. 237. 231. 226. 223. 219. 222. 223. 221.
      229. 231. 221. 206. 168. 138. 59. 0. 0. 0. 0. 0. 49. 40. 65. 151.
      221. 239. 239. 236. 234. 231. 227. 223. 215. 218. 220. 222. 226.
      221. 211. 199. 141. 83. 38. 0. 0. 0. 0. 0. 52. 48. 39. 89. 186.
      228. 228. 230. 231. 227. 225. 224. 221. 217. 199. 185. 199. 208.
      205. 204. 134. 54. 29. 0. 0. 0. 0. 0. 52. 51. 39. 53. 139. 198.
      212. 225. 213. 201. 200. 197. 197. 181. 134. 101. 147. 207. 216.
      194. 111. 39. 28. 0. 0. 0. 0. 0. 52. 54. 43. 30. 80. 153. 201.
      206. 155. 123. 117. 116. 118. 101. 61. 55. 131. 211. 201. 143. 63.
      29. 32. 0. 0. 0. 0. 0. 52. 49. 56. 37. 37. 94. 154. 146. 84. 43.
      32. 45. 81. 100. 71. 56. 110. 166. 138. 76. 26. 29. 34. 0. 0. 0.
      0. 0. 0. 0. 0. 0. 0. 0. 0. 0. 0. 0. 0. 0. 0. 0. 0. 0. 0. 0. 0. 0.
      0. 0. 0. 0. 0. 0. 0. 0. 0. 0. 0. 0. 0. 0. 0. 0. 0. 0. 0. 0. 0. 0.
      0. 0. 0. 0. 0. 0. 0. 0. 0. 0. 0. 0. 0. 0. 0. 0. 0. 0. 0. 0. 0. 0.
      0. 0. 0. 0. 0. 0. 0. 0. 0. 0. 0. 0. 0. 0. 0. 0. 0. 0. 0. 0. 0. 0.
      0. 0. 0. 0. 0. 0. 0. 0. 0. 0. 0. 0. 0. 0. 0. 0. 0. 0. 0. 0. 0. 0.
      0. 0. 0. 0.</_>
    <_>
      43. 44. 45. 44. 41. 38. 37. 35. 52. 102. 148. 176. 191. 207. 204.
      198. 183. 166. 153. 144. 91. 36. 38. 45. 45. 43. 42. 0. 49. 43.
      51. 40. 35. 40. 67. 75. 129. 199. 238. 247. 240. 242. 245. 242.
      236. 227. 219. 211. 167. 104. 85. 56. 39. 46. 46. 0. 45. 42. 49.
      24. 31. 67. 158. 205. 233. 244. 249. 249. 249. 251. 252. 252. 250.
      247. 243. 241. 225. 193. 173. 115. 49. 45. 46. 0. 44. 44. 38. 22.
      71. 161. 233. 239. 243. 247. 249. 250. 251. 252. 253. 253. 253.
      251. 248. 249. 246. 236. 230. 188. 109. 42. 36. 0. 55. 44. 27. 34.
      125. 222. 246. 239. 246. 249. 251. 251. 252. 253. 253. 254. 253.
      251. 249. 249. 246. 239. 239. 222. 171. 64. 40. 0. 75. 63. 37. 48.
      148. 238. 244. 247. 248. 249. 251. 251. 252. 253. 254. 254. 253.
      252. 250. 249. 245. 238. 239. 232. 207. 84. 40. 0. 105. 106. 71.
      51. 105. 186. 200. 241. 249. 249. 251. 251. 253. 254. 254. 253.
      253. 252. 252. 251. 248. 240. 238. 232. 215. 135. 61. 0. 130. 135.
      108. 70. 69. 88. 101. 199. 249. 246. 247. 250. 253. 254. 254. 254.
      253. 253. 253. 255. 253. 248. 244. 237. 232. 215. 119. 0. 139.
      138. 137. 125. 108. 86. 81. 187. 237. 235. 237. 240. 246. 248.
      250. 251. 253. 254. 254. 254. 253. 250. 245. 240. 238. 227. 151.
      0. 147. 144. 139. 134. 134. 115. 93. 177. 230. 226. 226. 231. 238.
      240. 244. 247. 249. 251. 253. 252. 251. 249. 243. 236. 234. 222.
      159. 0. 154. 152. 146. 144. 147. 140. 138. 186. 219. 217. 221.
      225. 232. 236. 238. 242. 244. 249. 253. 253. 252. 251. 245. 238.
      234. 222. 166. 0. 153. 152. 149. 150. 154. 148. 156. 192. 212.
      213. 221. 222. 228. 232. 236. 237. 244. 245. 250. 255. 254. 251.
      246. 239. 236. 223. 164. 0. 156. 154. 152. 153. 153. 148. 159.
      195. 217. 218. 226. 228. 235. 238. 241. 242. 246. 248. 252. 254.
      252. 250. 246. 237. 235. 227. 164. 0. 158. 158. 156. 154. 151.
      147. 162. 200. 224. 226. 234. 237. 245. 246. 248. 248. 249. 251.
      253. 252. 251. 252. 246. 238. 235. 220. 153. 0. 158. 174. 180.
      173. 164. 160. 177. 209. 231. 233. 241. 243. 248. 248. 248. 248.
      248. 251. 253. 253. 252. 250. 243. 235. 225. 185. 113. 0. 162.
      188. 200. 196. 188. 187. 199. 220. 239. 242. 251. 251. 254. 254.
      252. 252. 253. 253. 255. 254. 250. 243. 234. 231. 207. 137. 62. 0.
      164. 196. 208. 207. 206. 211. 218. 227. 239. 243. 251. 251. 254.
      254. 253. 253. 254. 251. 252. 253. 247. 241. 234. 230. 191. 103.
      39. 0. 158. 185. 192. 189. 198. 216. 228. 236. 241. 245. 253. 253.
      253. 252. 253. 253. 253. 247. 252. 252. 242. 240. 236. 217. 163.
      81. 40. 0. 152. 166. 164. 156. 170. 199. 218. 230. 238. 244. 252.
      252. 251. 250. 252. 253. 253. 248. 253. 251. 235. 235. 225. 177.
      111. 59. 48. 0. 148. 153. 152. 148. 157. 180. 195. 207. 220. 228.
      237. 240. 249. 250. 249. 254. 253. 247. 249. 246. 209. 185. 165.
      113. 63. 43. 50. 0. 149. 151. 152. 152. 159. 166. 164. 170. 190.
      211. 231. 237. 247. 247. 242. 253. 243. 230. 223. 208. 154. 101.
      74. 57. 45. 44. 48. 0. 156. 152. 154. 159. 167. 171. 162. 152.
      154. 163. 164. 157. 172. 186. 190. 203. 180. 171. 157. 132. 91.
      61. 52. 50. 45. 43. 45. 0. 158. 157. 158. 160. 167. 173. 167. 158.
      153. 142. 110. 78. 83. 106. 114. 115. 94. 92. 82. 68. 54. 43. 38.
      37. 39. 40. 40. 0. 0. 0. 0. 0. 0. 0. 0. 0. 0. 0. 0. 0. 0. 0. 0. 0.
      0. 0. 0. 0. 0. 0. 0. 0. 0. 0. 0. 0. 0. 0. 0. 0. 0. 0. 0. 0. 0. 0.
      0. 0. 0. 0. 0. 0. 0. 0. 0. 0. 0. 0. 0. 0. 0. 0. 0. 0. 0. 0. 0. 0.
      0. 0. 0. 0. 0. 0. 0. 0. 0. 0. 0. 0. 0. 0. 0. 0. 0. 0. 0. 0. 0. 0.
      0. 0. 0. 0. 0. 0. 0. 0. 0. 0. 0. 0. 0. 0. 0. 0. 0. 0. 0. 0. 0. 0.
      0. 0. 0. 0. 0. 0. 0. 0. 0. 0. 0. 0. 0. 0. 0. 0. 0. 0. 0. 0. 0. 0.
      0. 0. 0. 0. 0. 0. 0. 0. 0. 0. 0. 0. 0. 0.</_>
    <_>
      52. 46. 39. 41. 62. 93. 115. 125. 154. 168. 174. 162. 160. 158.
      150. 126. 63. 40. 33. 36. 46. 56. 56. 52. 47. 45. 46. 0. 36. 41.
      54. 68. 124. 185. 203. 212. 231. 241. 247. 244. 244. 245. 238.
      221. 139. 96. 58. 36. 32. 37. 42. 40. 37. 38. 42. 0. 41. 92. 134.
      158. 194. 233. 239. 244. 251. 251. 254. 254. 254. 254. 251. 251.
      235. 227. 177. 90. 33. 26. 36. 39. 36. 40. 44. 0. 78. 153. 200.
      219. 230. 240. 243. 248. 251. 252. 254. 254. 254. 254. 251. 251.
      248. 250. 232. 174. 94. 42. 25. 35. 42. 40. 42. 0. 139. 204. 228.
      235. 238. 242. 245. 249. 253. 253. 255. 255. 255. 255. 253. 253.
      246. 253. 246. 226. 157. 69. 27. 51. 67. 45. 32. 0. 153. 204. 228.
      238. 241. 246. 249. 250. 253. 253. 254. 255. 255. 254. 253. 253.
      254. 250. 245. 243. 206. 129. 83. 112. 126. 82. 32. 0. 106. 151.
      210. 240. 245. 248. 250. 251. 253. 254. 254. 254. 254. 254. 254.
      253. 253. 251. 245. 248. 234. 195. 166. 184. 189. 140. 64. 0. 55.
      109. 200. 242. 246. 249. 251. 252. 253. 254. 254. 254. 254. 254.
      254. 254. 248. 250. 248. 246. 239. 229. 215. 210. 197. 172. 106.
      0. 40. 111. 213. 246. 249. 252. 253. 253. 253. 252. 252. 252. 253.
      253. 254. 254. 251. 252. 252. 249. 238. 238. 226. 196. 154. 145.
      110. 0. 37. 124. 221. 245. 248. 252. 251. 251. 253. 252. 252. 252.
      253. 253. 254. 254. 252. 250. 253. 252. 237. 240. 227. 184. 124.
      105. 86. 0. 30. 120. 219. 244. 246. 249. 251. 253. 254. 254. 254.
      254. 253. 253. 254. 254. 253. 251. 251. 250. 236. 237. 223. 182.
      128. 97. 73. 0. 26. 115. 221. 246. 248. 248. 250. 253. 254. 254.
      255. 254. 254. 254. 253. 254. 254. 253. 250. 248. 239. 234. 206.
      180. 136. 98. 64. 0. 25. 116. 230. 248. 248. 245. 250. 254. 255.
      255. 255. 254. 254. 253. 253. 253. 253. 250. 250. 251. 240. 239.
      177. 157. 153. 104. 49. 0. 25. 104. 230. 245. 247. 245. 250. 254.
      255. 255. 255. 254. 254. 253. 253. 253. 253. 249. 248. 250. 242.
      236. 128. 83. 97. 68. 36. 0. 39. 92. 216. 242. 248. 250. 250. 254.
      255. 255. 255. 254. 254. 253. 253. 253. 253. 253. 248. 248. 239.
      198. 88. 36. 38. 44. 43. 0. 97. 142. 223. 243. 248. 250. 248. 253.
      255. 255. 255. 254. 254. 253. 253. 252. 251. 250. 249. 248. 220.
      104. 51. 31. 40. 47. 45. 0. 158. 207. 233. 240. 242. 249. 249.
      253. 254. 254. 254. 254. 254. 254. 253. 253. 251. 245. 245. 246.
      206. 50. 30. 33. 49. 46. 38. 0. 169. 217. 224. 239. 241. 249. 249.
      253. 253. 254. 254. 254. 255. 254. 254. 253. 252. 251. 247. 234.
      177. 55. 33. 36. 40. 38. 36. 0. 80. 168. 226. 229. 236. 240. 243.
      249. 252. 252. 251. 253. 253. 253. 253. 250. 247. 250. 236. 177.
      97. 38. 30. 39. 44. 42. 37. 0. 45. 98. 160. 168. 205. 235. 238.
      248. 250. 248. 247. 250. 251. 248. 250. 245. 234. 224. 179. 108.
      49. 30. 34. 41. 44. 39. 34. 0. 40. 58. 92. 89. 145. 213. 213. 229.
      236. 239. 246. 246. 243. 247. 248. 229. 180. 119. 83. 55. 34. 36.
      47. 42. 38. 38. 37. 0. 49. 52. 58. 45. 87. 142. 145. 163. 183.
      196. 218. 216. 201. 203. 198. 159. 94. 46. 39. 39. 32. 43. 53. 37.
      34. 39. 39. 0. 45. 46. 46. 41. 50. 57. 85. 110. 115. 92. 116. 122.
      107. 96. 87. 73. 50. 41. 48. 47. 36. 42. 46. 28. 34. 36. 34. 0. 0.
      0. 0. 0. 0. 0. 0. 0. 0. 0. 0. 0. 0. 0. 0. 0. 0. 0. 0. 0. 0. 0. 0.
      0. 0. 0. 0. 0. 0. 0. 0. 0. 0. 0. 0. 0. 0. 0. 0. 0. 0. 0. 0. 0. 0.
      0. 0. 0. 0. 0. 0. 0. 0. 0. 0. 0. 0. 0. 0. 0. 0. 0. 0. 0. 0. 0. 0.
      0. 0. 0. 0. 0. 0. 0. 0. 0. 0. 0. 0. 0. 0. 0. 0. 0. 0. 0. 0. 0. 0.
      0. 0. 0. 0. 0. 0. 0. 0. 0. 0. 0. 0. 0. 0. 0. 0. 0. 0. 0. 0. 0. 0.
      0. 0. 0. 0. 0. 0. 0. 0. 0. 0. 0. 0. 0. 0. 0. 0. 0. 0. 0. 0. 0. 0.
      0. 0. 0. 0. 0. 0. 0.</_>
    <_>
      69. 33. 18. 23. 25. 29. 72. 152. 174. 119. 12. 25. 40. 38. 40. 27.
      23. 92. 169. 161. 87. 32. 21. 30. 0. 0. 0. 0. 71. 50. 29. 20. 27.
      63. 153. 216. 224. 155. 23. 17. 30. 43. 32. 18. 32. 138. 216. 215.
      157. 74. 26. 24. 0. 0. 0. 0. 58. 69. 57. 34. 44. 117. 213. 231.
      221. 166. 50. 24. 23. 32. 27. 15. 45. 169. 226. 229. 211. 120. 35.
      20. 0. 0. 0. 0. 39. 62. 78. 58. 62. 147. 224. 223. 218. 192. 129.
      42. 19. 26. 19. 25. 125. 209. 222. 223. 225. 148. 48. 21. 0. 0. 0.
      0. 22. 39. 86. 98. 98. 165. 223. 223. 219. 214. 179. 71. 23. 36.
      21. 60. 188. 226. 218. 220. 221. 178. 91. 37. 0. 0. 0. 0. 18. 31.
      100. 146. 152. 192. 219. 220. 216. 221. 199. 87. 26. 39. 29. 83.
      218. 226. 216. 221. 216. 212. 166. 69. 0. 0. 0. 0. 19. 30. 112.
      176. 201. 222. 220. 219. 215. 218. 191. 92. 29. 35. 34. 78. 213.
      229. 211. 220. 216. 228. 224. 101. 0. 0. 0. 0. 16. 24. 110. 195.
      227. 235. 228. 222. 222. 221. 196. 122. 60. 36. 49. 105. 205. 230.
      214. 221. 227. 231. 241. 119. 0. 0. 0. 0. 16. 22. 102. 201. 236.
      237. 232. 226. 225. 224. 215. 175. 104. 44. 76. 173. 214. 227.
      224. 227. 238. 236. 248. 127. 0. 0. 0. 0. 28. 32. 83. 193. 242.
      245. 242. 238. 233. 228. 228. 207. 135. 59. 112. 221. 225. 225.
      231. 233. 243. 240. 249. 138. 0. 0. 0. 0. 54. 46. 58. 172. 238.
      246. 247. 246. 236. 229. 230. 214. 148. 82. 136. 225. 226. 229.
      236. 238. 248. 248. 253. 151. 0. 0. 0. 0. 87. 61. 49. 177. 240.
      248. 249. 249. 246. 239. 234. 221. 178. 140. 172. 221. 228. 236.
      240. 241. 249. 248. 246. 159. 0. 0. 0. 0. 74. 35. 32. 171. 239.
      249. 249. 250. 250. 245. 240. 234. 216. 201. 212. 225. 234. 239.
      249. 249. 253. 254. 249. 158. 0. 0. 0. 0. 49. 30. 33. 163. 236.
      251. 250. 251. 251. 247. 245. 243. 234. 225. 226. 231. 237. 241.
      248. 248. 248. 251. 244. 131. 0. 0. 0. 0. 36. 32. 35. 147. 232.
      251. 251. 252. 252. 250. 248. 246. 242. 239. 238. 241. 246. 249.
      253. 253. 254. 254. 236. 110. 0. 0. 0. 0. 36. 39. 27. 115. 207.
      244. 249. 250. 251. 251. 251. 249. 247. 244. 242. 244. 248. 250.
      253. 253. 254. 248. 205. 80. 0. 0. 0. 0. 43. 48. 24. 70. 159. 234.
      247. 249. 248. 252. 253. 254. 255. 254. 253. 253. 255. 252. 250.
      251. 250. 225. 142. 45. 0. 0. 0. 0. 36. 43. 27. 43. 109. 215. 243.
      248. 246. 250. 252. 254. 255. 254. 253. 254. 255. 250. 249. 253.
      247. 200. 86. 30. 0. 0. 0. 0. 35. 44. 42. 33. 74. 184. 230. 245.
      243. 248. 251. 253. 254. 254. 252. 252. 252. 249. 248. 248. 229.
      161. 59. 36. 0. 0. 0. 0. 37. 41. 41. 34. 48. 125. 196. 236. 239.
      245. 248. 249. 250. 252. 250. 250. 251. 246. 245. 233. 186. 111.
      43. 43. 0. 0. 0. 0. 38. 38. 37. 39. 41. 62. 134. 195. 213. 224.
      234. 240. 238. 240. 238. 237. 237. 226. 209. 178. 120. 62. 39. 44.
      0. 0. 0. 0. 35. 36. 40. 45. 49. 52. 86. 114. 133. 169. 220. 240.
      238. 233. 235. 236. 216. 166. 126. 102. 75. 48. 44. 46. 0. 0. 0.
      0. 32. 33. 39. 46. 51. 57. 65. 64. 71. 113. 173. 199. 193. 185.
      189. 192. 162. 102. 61. 59. 61. 55. 51. 50. 0. 0. 0. 0. 0. 0. 0.
      0. 0. 0. 0. 0. 0. 0. 0. 0. 0. 0. 0. 0. 0. 0. 0. 0. 0. 0. 0. 0. 0.
      0. 0. 0. 0. 0. 0. 0. 0. 0. 0. 0. 0. 0. 0. 0. 0. 0. 0. 0. 0. 0. 0.
      0. 0. 0. 0. 0. 0. 0. 0. 0. 0. 0. 0. 0. 0. 0. 0. 0. 0. 0. 0. 0. 0.
      0. 0. 0. 0. 0. 0. 0. 0. 0. 0. 0. 0. 0. 0. 0. 0. 0. 0. 0. 0. 0. 0.
      0. 0. 0. 0. 0. 0. 0. 0. 0. 0. 0. 0. 0. 0. 0. 0. 0. 0. 0. 0. 0. 0.
      0. 0. 0. 0. 0. 0. 0. 0. 0. 0. 0. 0. 0. 0. 0. 0. 0. 0. 0. 0. 0. 0.
      0. 0. 0. 0. 0.</_>
    <_>
      31. 33. 28. 30. 27. 18. 41. 101. 125. 86. 51. 61. 74. 75. 77. 80.
      71. 61. 50. 44. 41. 37. 0. 0. 0. 0. 0. 0. 31. 29. 32. 29. 31. 33.
      43. 70. 81. 59. 74. 101. 111. 103. 102. 106. 102. 90. 70. 61. 55.
      44. 0. 0. 0. 0. 0. 0. 32. 27. 34. 28. 27. 36. 51. 73. 93. 96. 106.
      114. 115. 110. 111. 111. 108. 106. 95. 86. 75. 59. 0. 0. 0. 0. 0.
      0. 34. 27. 39. 37. 35. 45. 67. 90. 107. 118. 117. 111. 104. 108.
      115. 109. 105. 114. 113. 103. 88. 71. 0. 0. 0. 0. 0. 0. 29. 30.
      30. 35. 38. 58. 93. 113. 114. 113. 111. 111. 106. 108. 117. 113.
      107. 114. 117. 114. 105. 91. 0. 0. 0. 0. 0. 0. 35. 51. 54. 46. 36.
      54. 103. 123. 112. 106. 108. 115. 113. 109. 114. 111. 102. 99.
      109. 119. 119. 101. 0. 0. 0. 0. 0. 0. 57. 91. 131. 96. 55. 61.
      101. 119. 109. 109. 112. 112. 110. 111. 110. 99. 94. 100. 130.
      157. 148. 98. 0. 0. 0. 0. 0. 0. 144. 214. 224. 203. 138. 79. 85.
      106. 110. 112. 114. 104. 100. 110. 113. 103. 110. 137. 204. 224.
      212. 121. 0. 0. 0. 0. 0. 0. 168. 228. 236. 229. 206. 152. 90. 83.
      100. 111. 113. 99. 93. 104. 123. 149. 189. 214. 230. 234. 228.
      107. 0. 0. 0. 0. 0. 0. 178. 233. 241. 240. 237. 212. 140. 83. 79.
      96. 103. 96. 101. 130. 167. 195. 215. 222. 231. 237. 232. 119. 0.
      0. 0. 0. 0. 0. 179. 233. 243. 244. 241. 233. 199. 135. 82. 75. 84.
      96. 126. 169. 205. 218. 236. 238. 245. 247. 230. 128. 0. 0. 0. 0.
      0. 0. 183. 238. 247. 247. 246. 243. 233. 201. 134. 84. 86. 120.
      168. 205. 218. 223. 238. 242. 248. 246. 226. 120. 0. 0. 0. 0. 0.
      0. 176. 239. 248. 249. 251. 249. 245. 238. 199. 141. 126. 164.
      204. 222. 234. 236. 249. 252. 252. 248. 225. 113. 0. 0. 0. 0. 0.
      0. 153. 230. 248. 248. 246. 247. 248. 245. 233. 209. 189. 204.
      217. 226. 236. 240. 252. 252. 250. 250. 221. 107. 0. 0. 0. 0. 0.
      0. 122. 216. 247. 247. 247. 247. 249. 247. 244. 243. 232. 234.
      237. 242. 248. 250. 253. 250. 248. 240. 179. 93. 0. 0. 0. 0. 0. 0.
      83. 171. 230. 244. 249. 248. 249. 249. 250. 248. 243. 243. 242.
      245. 249. 251. 252. 250. 248. 215. 120. 68. 0. 0. 0. 0. 0. 0. 51.
      123. 202. 238. 242. 246. 251. 248. 248. 251. 251. 251. 252. 251.
      250. 251. 251. 248. 241. 184. 81. 65. 0. 0. 0. 0. 0. 0. 36. 77.
      158. 221. 242. 248. 252. 252. 251. 250. 250. 252. 253. 251. 249.
      251. 251. 247. 220. 144. 67. 69. 0. 0. 0. 0. 0. 0. 30. 45. 97.
      174. 226. 245. 249. 251. 248. 248. 251. 252. 251. 248. 250. 250.
      247. 230. 172. 92. 60. 61. 0. 0. 0. 0. 0. 0. 36. 38. 55. 106. 172.
      214. 233. 247. 253. 252. 251. 252. 252. 251. 245. 228. 210. 176.
      101. 54. 58. 55. 0. 0. 0. 0. 0. 0. 40. 41. 36. 54. 92. 124. 164.
      214. 238. 244. 241. 241. 245. 240. 206. 162. 129. 96. 55. 42. 55.
      49. 0. 0. 0. 0. 0. 0. 35. 38. 39. 46. 49. 54. 90. 143. 173. 178.
      179. 183. 186. 170. 129. 83. 65. 51. 42. 43. 46. 43. 0. 0. 0. 0.
      0. 0. 0. 0. 0. 0. 0. 0. 0. 0. 0. 0. 0. 0. 0. 0. 0. 0. 0. 0. 0. 0.
      0. 0. 0. 0. 0. 0. 0. 0. 0. 0. 0. 0. 0. 0. 0. 0. 0. 0. 0. 0. 0. 0.
      0. 0. 0. 0. 0. 0. 0. 0. 0. 0. 0. 0. 0. 0. 0. 0. 0. 0. 0. 0. 0. 0.
      0. 0. 0. 0. 0. 0. 0. 0. 0. 0. 0. 0. 0. 0. 0. 0. 0. 0. 0. 0. 0. 0.
      0. 0. 0. 0. 0. 0. 0. 0. 0. 0. 0. 0. 0. 0. 0. 0. 0. 0. 0. 0. 0. 0.
      0. 0. 0. 0. 0. 0. 0. 0. 0. 0. 0. 0. 0. 0. 0. 0. 0. 0. 0. 0. 0. 0.
      0. 0. 0. 0. 0. 0. 0. 0. 0. 0. 0. 0. 0. 0. 0. 0. 0. 0. 0. 0. 0. 0.
      0. 0. 0. 0. 0. 0. 0. 0. 0. 0. 0. 0. 0. 0. 0. 0.</_>
    <_>
      29. 31. 38. 49. 61. 56. 61. 58. 51. 86. 133. 138. 129. 123. 128.
      129. 114. 35. 62. 69. 56. 52. 47. 30. 0. 0. 0. 0. 40. 45. 47. 49.
      53. 53. 66. 70. 88. 150. 208. 223. 227. 228. 228. 218. 178. 67.
      68. 58. 42. 45. 48. 31. 0. 0. 0. 0. 49. 51. 49. 44. 33. 53. 106.
      141. 173. 212. 235. 234. 232. 234. 237. 237. 225. 172. 159. 129.
      51. 36. 39. 30. 0. 0. 0. 0. 48. 46. 39. 31. 35. 97. 179. 222. 233.
      241. 243. 245. 251. 250. 246. 241. 246. 235. 226. 204. 107. 46.
      29. 27. 0. 0. 0. 0. 46. 47. 36. 18. 71. 177. 232. 239. 237. 241.
      244. 247. 250. 251. 253. 251. 251. 250. 243. 236. 189. 72. 26. 24.
      0. 0. 0. 0. 41. 43. 23. 17. 117. 230. 245. 249. 251. 250. 249.
      252. 251. 251. 253. 254. 252. 249. 249. 247. 240. 123. 30. 20. 0.
      0. 0. 0. 39. 38. 15. 35. 159. 238. 249. 250. 251. 253. 253. 252.
      252. 253. 252. 250. 252. 250. 254. 250. 243. 190. 53. 14. 0. 0. 0.
      0. 45. 33. 20. 92. 213. 248. 252. 251. 250. 253. 254. 253. 251.
      251. 250. 249. 252. 253. 254. 253. 249. 224. 111. 29. 0. 0. 0. 0.
      34. 12. 28. 163. 247. 250. 252. 252. 253. 253. 252. 251. 230. 230.
      247. 250. 252. 252. 253. 254. 251. 248. 181. 48. 0. 0. 0. 0. 27.
      11. 62. 206. 250. 253. 254. 252. 254. 250. 251. 241. 180. 174.
      225. 248. 250. 250. 250. 253. 248. 250. 230. 67. 0. 0. 0. 0. 18.
      12. 71. 219. 246. 254. 254. 250. 253. 248. 250. 216. 121. 106.
      182. 238. 247. 247. 251. 252. 246. 251. 241. 77. 0. 0. 0. 0. 22.
      54. 108. 229. 248. 254. 254. 251. 249. 248. 232. 167. 78. 64. 138.
      216. 244. 246. 252. 253. 253. 251. 233. 86. 0. 0. 0. 0. 102. 191.
      221. 243. 250. 249. 252. 254. 245. 248. 189. 103. 54. 46. 89. 175.
      233. 244. 250. 250. 253. 250. 219. 94. 0. 0. 0. 0. 153. 243. 246.
      248. 251. 251. 250. 250. 239. 246. 151. 58. 42. 37. 53. 139. 220.
      244. 249. 248. 251. 249. 213. 100. 0. 0. 0. 0. 146. 236. 242. 248.
      249. 250. 243. 242. 232. 241. 140. 49. 45. 38. 45. 139. 216. 228.
      229. 238. 248. 246. 213. 93. 0. 0. 0. 0. 81. 139. 168. 220. 242.
      243. 234. 231. 232. 227. 133. 52. 42. 41. 45. 126. 208. 229. 224.
      231. 242. 242. 204. 85. 0. 0. 0. 0. 43. 55. 76. 145. 208. 232.
      228. 221. 227. 184. 98. 48. 41. 46. 43. 84. 176. 220. 220. 224.
      225. 203. 154. 61. 0. 0. 0. 0. 41. 38. 36. 68. 135. 192. 222. 223.
      216. 116. 50. 37. 45. 52. 41. 44. 130. 204. 224. 218. 184. 123.
      79. 30. 0. 0. 0. 0. 36. 39. 36. 33. 59. 120. 201. 231. 204. 74.
      36. 29. 53. 50. 38. 26. 97. 193. 229. 194. 123. 57. 33. 23. 0. 0.
      0. 0. 32. 37. 40. 33. 28. 61. 142. 207. 184. 65. 28. 35. 55. 40.
      35. 23. 69. 154. 186. 140. 68. 31. 30. 32. 0. 0. 0. 0. 35. 37. 39.
      36. 29. 32. 68. 114. 111. 46. 16. 40. 45. 35. 30. 26. 44. 98. 111.
      79. 44. 33. 35. 31. 0. 0. 0. 0. 0. 0. 0. 0. 0. 0. 0. 0. 0. 0. 0.
      0. 0. 0. 0. 0. 0. 0. 0. 0. 0. 0. 0. 0. 0. 0. 0. 0. 0. 0. 0. 0. 0.
      0. 0. 0. 0. 0. 0. 0. 0. 0. 0. 0. 0. 0. 0. 0. 0. 0. 0. 0. 0. 0. 0.
      0. 0. 0. 0. 0. 0. 0. 0. 0. 0. 0. 0. 0. 0. 0. 0. 0. 0. 0. 0. 0. 0.
      0. 0. 0. 0. 0. 0. 0. 0. 0. 0. 0. 0. 0. 0. 0. 0. 0. 0. 0. 0. 0. 0.
      0. 0. 0. 0. 0. 0. 0. 0. 0. 0. 0. 0. 0. 0. 0. 0. 0. 0. 0. 0. 0. 0.
      0. 0. 0. 0. 0. 0. 0. 0. 0. 0. 0. 0. 0. 0. 0. 0. 0. 0. 0. 0. 0. 0.
      0. 0. 0. 0. 0. 0. 0. 0. 0. 0. 0. 0. 0. 0. 0. 0. 0. 0. 0. 0. 0. 0.
      0. 0. 0. 0. 0. 0. 0. 0. 0. 0. 0. 0. 0. 0. 0. 0. 0. 0. 0. 0. 0. 0.
      0. 0. 0. 0. 0. 0. 0. 0. 0.</_>
    <_>
      49. 54. 47. 54. 65. 52. 54. 42. 51. 120. 171. 181. 172. 172. 177.
      173. 123. 65. 53. 59. 50. 61. 52. 37. 0. 0. 0. 0. 43. 40. 42. 47.
      46. 42. 79. 91. 118. 188. 221. 226. 224. 224. 228. 222. 181. 126.
      101. 85. 41. 46. 52. 32. 0. 0. 0. 0. 44. 45. 58. 51. 23. 56. 154.
      199. 205. 230. 238. 239. 242. 243. 243. 242. 231. 210. 194. 157.
      66. 31. 41. 34. 0. 0. 0. 0. 42. 49. 48. 33. 34. 131. 219. 239.
      239. 244. 244. 245. 248. 249. 249. 250. 250. 249. 246. 221. 144.
      47. 27. 36. 0. 0. 0. 0. 49. 87. 56. 21. 67. 217. 244. 247. 246.
      249. 249. 251. 251. 251. 252. 251. 249. 246. 248. 245. 215. 91.
      21. 22. 0. 0. 0. 0. 123. 209. 155. 60. 92. 245. 246. 250. 249.
      252. 251. 252. 253. 252. 252. 254. 252. 250. 252. 252. 233. 151.
      36. 12. 0. 0. 0. 0. 157. 242. 212. 147. 169. 245. 245. 251. 251.
      253. 252. 253. 253. 251. 251. 253. 255. 254. 251. 247. 245. 207.
      70. 13. 0. 0. 0. 0. 150. 228. 220. 204. 223. 247. 246. 253. 252.
      254. 254. 253. 253. 253. 253. 253. 253. 254. 254. 253. 251. 234.
      142. 33. 0. 0. 0. 0. 87. 134. 165. 223. 242. 249. 248. 253. 251.
      254. 254. 253. 253. 253. 253. 253. 253. 254. 254. 253. 251. 243.
      182. 60. 0. 0. 0. 0. 43. 51. 108. 217. 244. 250. 249. 254. 252.
      255. 254. 254. 254. 253. 253. 254. 254. 254. 255. 253. 251. 249.
      204. 85. 0. 0. 0. 0. 28. 22. 89. 209. 246. 251. 250. 254. 254.
      255. 252. 253. 253. 253. 253. 253. 253. 254. 255. 253. 252. 252.
      215. 98. 0. 0. 0. 0. 22. 16. 90. 208. 250. 253. 253. 255. 255.
      254. 248. 252. 252. 252. 252. 253. 253. 254. 255. 254. 252. 252.
      215. 100. 0. 0. 0. 0. 26. 15. 88. 204. 251. 252. 253. 254. 253.
      255. 254. 252. 252. 251. 252. 253. 253. 254. 255. 253. 252. 251.
      212. 101. 0. 0. 0. 0. 31. 19. 86. 197. 251. 251. 252. 253. 253.
      253. 253. 249. 250. 250. 250. 251. 252. 253. 254. 252. 251. 252.
      210. 101. 0. 0. 0. 0. 29. 17. 78. 193. 251. 252. 253. 254. 253.
      253. 253. 249. 249. 249. 249. 251. 251. 253. 253. 251. 250. 250.
      202. 93. 0. 0. 0. 0. 32. 21. 54. 166. 242. 246. 249. 254. 254.
      252. 243. 248. 248. 249. 249. 250. 251. 253. 253. 252. 251. 238.
      179. 77. 0. 0. 0. 0. 36. 23. 24. 97. 202. 251. 248. 244. 246. 253.
      250. 250. 247. 247. 248. 249. 250. 252. 251. 251. 250. 199. 109.
      42. 0. 0. 0. 0. 36. 23. 18. 41. 146. 235. 248. 249. 250. 250. 246.
      250. 248. 248. 248. 249. 251. 252. 248. 248. 242. 160. 64. 25. 0.
      0. 0. 0. 45. 43. 31. 28. 115. 214. 246. 247. 249. 250. 248. 247.
      248. 248. 248. 250. 249. 250. 251. 247. 224. 120. 36. 24. 0. 0. 0.
      0. 22. 31. 23. 18. 70. 170. 234. 246. 244. 243. 247. 246. 247.
      245. 246. 247. 244. 245. 250. 236. 178. 80. 29. 26. 0. 0. 0. 0.
      25. 31. 31. 23. 29. 102. 189. 225. 232. 235. 243. 245. 245. 241.
      246. 249. 243. 232. 236. 181. 92. 40. 30. 25. 0. 0. 0. 0. 39. 30.
      41. 38. 23. 49. 104. 139. 174. 214. 241. 241. 241. 237. 244. 245.
      215. 156. 130. 108. 44. 30. 41. 27. 0. 0. 0. 0. 75. 45. 27. 28.
      34. 40. 52. 61. 92. 157. 203. 213. 218. 215. 220. 216. 159. 81.
      47. 67. 41. 39. 48. 29. 0. 0. 0. 0. 123. 101. 33. 19. 35. 45. 43.
      39. 49. 83. 114. 128. 130. 118. 117. 116. 82. 44. 42. 45. 49. 41.
      41. 27. 0. 0. 0. 0. 0. 0. 0. 0. 0. 0. 0. 0. 0. 0. 0. 0. 0. 0. 0.
      0. 0. 0. 0. 0. 0. 0. 0. 0. 0. 0. 0. 0. 0. 0. 0. 0. 0. 0. 0. 0. 0.
      0. 0. 0. 0. 0. 0. 0. 0. 0. 0. 0. 0. 0. 0. 0. 0. 0. 0. 0. 0. 0. 0.
      0. 0. 0. 0. 0. 0. 0. 0. 0. 0. 0. 0. 0. 0. 0. 0. 0. 0. 0. 0. 0. 0.
      0. 0. 0. 0. 0. 0. 0. 0. 0. 0. 0. 0. 0. 0. 0. 0. 0. 0. 0. 0. 0. 0.
      0. 0. 0. 0. 0. 0. 0. 0. 0.</_>
    <_>
      45. 42. 40. 41. 40. 30. 29. 53. 94. 124. 141. 156. 153. 144. 135.
      125. 100. 54. 37. 45. 46. 52. 52. 52. 0. 0. 0. 0. 44. 39. 34. 39.
      42. 43. 83. 156. 220. 231. 232. 234. 232. 228. 223. 219. 185. 114.
      74. 63. 51. 50. 53. 54. 0. 0. 0. 0. 41. 33. 33. 47. 82. 149. 199.
      238. 243. 242. 248. 251. 248. 245. 244. 243. 228. 186. 157. 125.
      69. 50. 53. 58. 0. 0. 0. 0. 33. 22. 43. 115. 202. 238. 243. 249.
      250. 249. 251. 252. 250. 249. 248. 247. 246. 242. 239. 203. 129.
      56. 46. 53. 0. 0. 0. 0. 37. 32. 94. 188. 235. 244. 247. 251. 251.
      252. 252. 253. 253. 253. 253. 252. 251. 252. 251. 239. 227. 127.
      48. 47. 0. 0. 0. 0. 33. 44. 146. 225. 242. 243. 247. 251. 252.
      253. 253. 254. 254. 253. 254. 253. 253. 253. 252. 244. 232. 161.
      57. 39. 0. 0. 0. 0. 29. 75. 171. 228. 239. 242. 246. 250. 252.
      254. 254. 255. 254. 253. 254. 254. 253. 254. 253. 248. 241. 189.
      87. 34. 0. 0. 0. 0. 57. 137. 199. 222. 228. 231. 237. 242. 246.
      249. 251. 253. 252. 251. 254. 254. 253. 252. 252. 249. 246. 225.
      158. 69. 0. 0. 0. 0. 91. 189. 216. 219. 219. 220. 226. 231. 236.
      240. 244. 247. 249. 249. 252. 255. 254. 252. 253. 251. 248. 241.
      210. 109. 0. 0. 0. 0. 109. 200. 215. 211. 211. 211. 215. 220. 224.
      228. 231. 236. 241. 245. 249. 253. 253. 253. 253. 252. 248. 243.
      223. 121. 0. 0. 0. 0. 109. 193. 214. 210. 208. 209. 212. 213. 215.
      217. 220. 222. 227. 233. 239. 244. 248. 252. 253. 251. 248. 245.
      225. 125. 0. 0. 0. 0. 108. 196. 216. 211. 210. 209. 211. 212. 213.
      213. 216. 219. 223. 229. 234. 239. 244. 250. 252. 250. 246. 244.
      224. 124. 0. 0. 0. 0. 108. 204. 217. 210. 210. 209. 210. 212. 213.
      213. 213. 215. 225. 235. 243. 247. 249. 252. 253. 250. 246. 243.
      219. 121. 0. 0. 0. 0. 108. 206. 218. 211. 211. 211. 212. 216. 218.
      220. 221. 225. 234. 241. 245. 248. 250. 252. 253. 251. 247. 245.
      216. 121. 0. 0. 0. 0. 93. 179. 207. 213. 215. 216. 220. 225. 233.
      235. 240. 244. 247. 248. 250. 252. 253. 254. 253. 252. 249. 236.
      190. 103. 0. 0. 0. 0. 61. 124. 177. 219. 222. 223. 231. 235. 241.
      242. 244. 244. 247. 248. 251. 253. 254. 253. 251. 252. 248. 210.
      137. 67. 0. 0. 0. 0. 38. 73. 151. 228. 232. 235. 245. 246. 252.
      253. 253. 251. 252. 253. 254. 254. 253. 250. 248. 250. 244. 183.
      89. 42. 0. 0. 0. 0. 30. 54. 134. 229. 238. 240. 247. 246. 251.
      253. 254. 252. 253. 254. 254. 255. 254. 252. 251. 250. 231. 154.
      63. 37. 0. 0. 0. 0. 27. 45. 107. 197. 238. 243. 249. 248. 250.
      253. 253. 253. 252. 253. 254. 254. 254. 254. 247. 236. 188. 108.
      47. 42. 0. 0. 0. 0. 31. 36. 66. 122. 210. 231. 245. 249. 252. 253.
      253. 252. 251. 253. 254. 253. 252. 248. 225. 188. 120. 60. 39. 48.
      0. 0. 0. 0. 38. 38. 47. 61. 118. 157. 211. 238. 245. 245. 248.
      249. 249. 249. 249. 248. 234. 199. 152. 114. 68. 42. 43. 52. 0. 0.
      0. 0. 39. 40. 46. 55. 62. 66. 104. 167. 219. 233. 230. 228. 233.
      230. 222. 203. 165. 109. 67. 53. 51. 50. 49. 48. 0. 0. 0. 0. 39.
      41. 46. 51. 54. 47. 57. 96. 131. 152. 162. 168. 165. 160. 142.
      120. 85. 53. 43. 50. 51. 51. 50. 48. 0. 0. 0. 0. 0. 0. 0. 0. 0. 0.
      0. 0. 0. 0. 0. 0. 0. 0. 0. 0. 0. 0. 0. 0. 0. 0. 0. 0. 0. 0. 0. 0.
      0. 0. 0. 0. 0. 0. 0. 0. 0. 0. 0. 0. 0. 0. 0. 0. 0. 0. 0. 0. 0. 0.
      0. 0. 0. 0. 0. 0. 0. 0. 0. 0. 0. 0. 0. 0. 0. 0. 0. 0. 0. 0. 0. 0.
      0. 0. 0. 0. 0. 0. 0. 0. 0. 0. 0. 0. 0. 0. 0. 0. 0. 0. 0. 0. 0. 0.
      0. 0. 0. 0. 0. 0. 0. 0. 0. 0. 0. 0. 0. 0. 0. 0. 0. 0. 0. 0. 0. 0.
      0. 0. 0. 0. 0. 0. 0. 0. 0. 0. 0. 0. 0. 0. 0. 0. 0. 0. 0. 0. 0. 0.
      0. 0.</_>
    <_>
      40. 24. 42. 41. 32. 36. 76. 139. 159. 103. 27. 14. 45. 167. 191.
      124. 31. 81. 154. 149. 81. 29. 29. 45. 0. 0. 0. 0. 24. 29. 47. 33.
      29. 59. 138. 232. 240. 147. 29. 22. 79. 225. 241. 156. 41. 143.
      220. 221. 155. 64. 23. 32. 0. 0. 0. 0. 33. 40. 43. 39. 48. 138.
      238. 244. 245. 196. 45. 12. 86. 214. 220. 117. 63. 191. 240. 244.
      226. 123. 37. 22. 0. 0. 0. 0. 43. 46. 39. 36. 75. 205. 244. 247.
      244. 222. 104. 30. 60. 136. 134. 71. 112. 228. 244. 250. 249. 180.
      61. 19. 0. 0. 0. 0. 48. 46. 32. 42. 128. 243. 247. 249. 247. 242.
      181. 72. 29. 63. 51. 69. 185. 245. 244. 251. 251. 223. 100. 24. 0.
      0. 0. 0. 45. 38. 31. 81. 182. 245. 246. 249. 249. 250. 225. 118.
      15. 37. 36. 113. 237. 248. 243. 252. 251. 248. 164. 52. 0. 0. 0.
      0. 39. 32. 46. 127. 229. 248. 250. 251. 251. 251. 236. 140. 11.
      30. 53. 147. 245. 248. 246. 252. 249. 247. 227. 118. 0. 0. 0. 0.
      39. 31. 63. 160. 242. 249. 249. 249. 252. 251. 237. 161. 28. 26.
      65. 165. 244. 247. 250. 250. 254. 245. 251. 171. 0. 0. 0. 0. 44.
      32. 78. 184. 246. 251. 249. 249. 253. 251. 244. 193. 79. 42. 90.
      196. 244. 250. 249. 244. 254. 249. 251. 190. 0. 0. 0. 0. 47. 32.
      92. 195. 246. 250. 249. 252. 252. 250. 250. 221. 143. 71. 132.
      230. 245. 248. 249. 248. 254. 253. 249. 199. 0. 0. 0. 0. 44. 37.
      93. 192. 247. 250. 250. 254. 252. 250. 252. 243. 188. 109. 166.
      242. 244. 242. 250. 254. 252. 253. 245. 208. 0. 0. 0. 0. 36. 29.
      82. 191. 248. 251. 251. 253. 253. 253. 252. 251. 216. 169. 211.
      242. 249. 250. 252. 254. 254. 254. 249. 200. 0. 0. 0. 0. 35. 60.
      119. 205. 248. 251. 252. 253. 253. 253. 252. 250. 238. 226. 241.
      249. 249. 250. 251. 254. 252. 248. 248. 190. 0. 0. 0. 0. 78. 147.
      199. 232. 246. 250. 251. 253. 254. 254. 253. 252. 251. 251. 251.
      250. 250. 251. 252. 253. 254. 253. 239. 160. 0. 0. 0. 0. 145. 220.
      241. 230. 231. 245. 250. 251. 253. 253. 253. 253. 253. 250. 248.
      248. 251. 253. 253. 254. 254. 248. 210. 103. 0. 0. 0. 0. 156. 230.
      227. 177. 194. 236. 249. 250. 253. 251. 252. 254. 254. 253. 252.
      252. 253. 253. 254. 253. 252. 230. 151. 55. 0. 0. 0. 0. 114. 170.
      156. 93. 146. 223. 248. 250. 253. 250. 252. 254. 253. 253. 253.
      253. 253. 253. 254. 254. 252. 211. 108. 29. 0. 0. 0. 0. 70. 89.
      74. 46. 105. 204. 241. 246. 251. 250. 252. 254. 251. 252. 253.
      251. 250. 251. 252. 251. 238. 176. 77. 27. 0. 0. 0. 0. 50. 52. 41.
      41. 72. 159. 215. 238. 246. 246. 251. 251. 249. 252. 253. 252.
      251. 251. 251. 245. 199. 110. 45. 34. 0. 0. 0. 0. 44. 45. 45. 45.
      47. 91. 159. 201. 219. 230. 242. 242. 247. 251. 252. 247. 244.
      241. 220. 187. 120. 59. 38. 42. 0. 0. 0. 0. 38. 39. 45. 50. 44.
      71. 102. 119. 140. 188. 230. 243. 248. 240. 244. 249. 231. 178.
      126. 92. 68. 54. 51. 49. 0. 0. 0. 0. 34. 36. 44. 52. 52. 68. 76.
      72. 84. 134. 182. 192. 194. 187. 188. 186. 155. 101. 61. 60. 63.
      61. 58. 53. 0. 0. 0. 0. 0. 0. 0. 0. 0. 0. 0. 0. 0. 0. 0. 0. 0. 0.
      0. 0. 0. 0. 0. 0. 0. 0. 0. 0. 0. 0. 0. 0. 0. 0. 0. 0. 0. 0. 0. 0.
      0. 0. 0. 0. 0. 0. 0. 0. 0. 0. 0. 0. 0. 0. 0. 0. 0. 0. 0. 0. 0. 0.
      0. 0. 0. 0. 0. 0. 0. 0. 0. 0. 0. 0. 0. 0. 0. 0. 0. 0. 0. 0. 0. 0.
      0. 0. 0. 0. 0. 0. 0. 0. 0. 0. 0. 0. 0. 0. 0. 0. 0. 0. 0. 0. 0. 0.
      0. 0. 0. 0. 0. 0. 0. 0. 0. 0. 0. 0. 0. 0. 0. 0. 0. 0. 0. 0. 0. 0.
      0. 0. 0. 0. 0. 0. 0. 0. 0. 0. 0. 0. 0. 0. 0. 0. 0. 0. 0. 0. 0. 0.
      0. 0. 0. 0. 0. 0. 0. 0. 0. 0. 0. 0. 0. 0. 0. 0. 0. 0. 0. 0. 0. 0.</_>
    <_>
      49. 47. 45. 45. 38. 68. 137. 187. 164. 84. 46. 64. 73. 69. 70. 51.
      70. 144. 188. 157. 80. 34. 33. 42. 0. 0. 0. 0. 54. 57. 52. 40. 52.
      122. 196. 234. 214. 126. 57. 64. 84. 79. 69. 56. 104. 201. 240.
      219. 145. 56. 23. 32. 0. 0. 0. 0. 58. 55. 43. 38. 94. 187. 231.
      241. 236. 167. 71. 53. 78. 76. 63. 74. 148. 223. 241. 241. 211.
      119. 36. 18. 0. 0. 0. 0. 63. 46. 36. 43. 151. 227. 242. 244. 246.
      209. 114. 51. 61. 68. 63. 111. 197. 240. 241. 242. 244. 177. 59.
      11. 0. 0. 0. 0. 64. 43. 39. 83. 193. 239. 245. 248. 249. 244. 174.
      76. 51. 61. 70. 160. 230. 250. 248. 248. 246. 211. 103. 19. 0. 0.
      0. 0. 54. 56. 71. 156. 228. 245. 247. 250. 251. 253. 223. 95. 52.
      60. 79. 194. 246. 251. 252. 249. 249. 235. 156. 53. 0. 0. 0. 0.
      118. 155. 177. 225. 246. 250. 250. 252. 251. 250. 249. 106. 50.
      59. 95. 209. 248. 247. 251. 249. 248. 251. 214. 93. 0. 0. 0. 0.
      187. 234. 241. 251. 251. 252. 251. 253. 251. 245. 252. 127. 58.
      62. 123. 225. 248. 248. 251. 250. 247. 251. 245. 115. 0. 0. 0. 0.
      196. 251. 251. 252. 252. 253. 252. 254. 254. 247. 253. 176. 80.
      68. 164. 234. 250. 252. 253. 250. 242. 250. 253. 127. 0. 0. 0. 0.
      119. 172. 204. 249. 251. 252. 250. 253. 253. 251. 253. 232. 111.
      90. 205. 245. 251. 252. 252. 250. 246. 251. 253. 130. 0. 0. 0. 0.
      49. 73. 126. 243. 250. 249. 250. 253. 253. 251. 250. 250. 162.
      148. 224. 248. 253. 254. 252. 249. 250. 252. 251. 124. 0. 0. 0. 0.
      38. 38. 89. 237. 247. 249. 251. 253. 253. 252. 253. 250. 213. 213.
      234. 247. 252. 254. 254. 246. 250. 248. 248. 123. 0. 0. 0. 0. 43.
      39. 81. 228. 244. 247. 247. 251. 251. 244. 255. 251. 249. 243.
      247. 253. 253. 255. 255. 253. 252. 249. 249. 118. 0. 0. 0. 0. 47.
      39. 72. 202. 245. 244. 244. 252. 251. 251. 254. 247. 251. 251.
      251. 252. 252. 252. 251. 250. 243. 249. 248. 105. 0. 0. 0. 0. 49.
      39. 54. 141. 231. 246. 246. 253. 251. 248. 249. 251. 253. 253.
      251. 249. 254. 255. 254. 252. 245. 248. 185. 64. 0. 0. 0. 0. 53.
      42. 36. 79. 190. 244. 247. 251. 253. 252. 252. 253. 253. 251. 250.
      253. 254. 255. 255. 252. 251. 237. 92. 20. 0. 0. 0. 0. 58. 52. 39.
      56. 142. 230. 245. 244. 251. 253. 253. 253. 250. 253. 254. 253.
      252. 248. 249. 237. 251. 213. 45. 14. 0. 0. 0. 0. 61. 61. 49. 46.
      91. 188. 241. 251. 249. 245. 250. 252. 253. 254. 254. 253. 251.
      252. 251. 244. 231. 155. 26. 34. 0. 0. 0. 0. 58. 62. 50. 36. 49.
      119. 204. 241. 245. 247. 250. 254. 253. 253. 249. 251. 251. 248.
      243. 232. 167. 76. 20. 46. 0. 0. 0. 0. 53. 58. 57. 55. 46. 63.
      131. 186. 214. 239. 248. 251. 254. 252. 250. 251. 244. 211. 176.
      153. 89. 42. 41. 51. 0. 0. 0. 0. 47. 52. 60. 62. 61. 59. 61. 67.
      104. 178. 235. 242. 240. 234. 233. 234. 203. 135. 79. 77. 60. 51.
      59. 52. 0. 0. 0. 0. 42. 45. 51. 58. 64. 71. 73. 61. 59. 91. 134.
      151. 149. 143. 141. 141. 124. 76. 45. 60. 65. 62. 61. 49. 0. 0. 0.
      0. 0. 0. 0. 0. 0. 0. 0. 0. 0. 0. 0. 0. 0. 0. 0. 0. 0. 0. 0. 0. 0.
      0. 0. 0. 0. 0. 0. 0. 0. 0. 0. 0. 0. 0. 0. 0. 0. 0. 0. 0. 0. 0. 0.
      0. 0. 0. 0. 0. 0. 0. 0. 0. 0. 0. 0. 0. 0. 0. 0. 0. 0. 0. 0. 0. 0.
      0. 0. 0. 0. 0. 0. 0. 0. 0. 0. 0. 0. 0. 0. 0. 0. 0. 0. 0. 0. 0. 0.
      0. 0. 0. 0. 0. 0. 0. 0. 0. 0. 0. 0. 0. 0. 0. 0. 0. 0. 0. 0. 0. 0.
      0. 0. 0. 0. 0. 0. 0. 0. 0. 0. 0. 0. 0. 0. 0. 0. 0. 0. 0. 0. 0. 0.
      0. 0. 0. 0. 0. 0. 0. 0. 0. 0. 0. 0. 0. 0. 0. 0. 0. 0. 0. 0. 0. 0.
      0. 0. 0. 0. 0. 0. 0. 0. 0. 0. 0. 0. 0. 0. 0.</_>
    <_>
      53. 52. 56. 60. 59. 52. 48. 46. 69. 79. 83. 126. 176. 175. 179.
      176. 182. 188. 144. 79. 50. 74. 62. 61. 66. 59. 0. 0. 48. 48. 55.
      57. 54. 58. 46. 60. 122. 163. 168. 199. 229. 225. 226. 222. 224.
      228. 204. 157. 137. 117. 70. 57. 70. 64. 0. 0. 53. 57. 59. 52. 46.
      61. 87. 129. 196. 230. 230. 238. 242. 237. 237. 232. 230. 229.
      224. 213. 218. 173. 106. 59. 60. 68. 0. 0. 54. 52. 46. 44. 60.
      110. 171. 210. 237. 248. 249. 250. 248. 248. 248. 244. 241. 235.
      231. 226. 228. 221. 177. 94. 50. 72. 0. 0. 54. 45. 36. 65. 126.
      186. 230. 243. 243. 247. 251. 252. 250. 253. 251. 248. 248. 243.
      240. 231. 225. 226. 224. 132. 45. 62. 0. 0. 55. 42. 45. 118. 203.
      231. 243. 245. 246. 248. 251. 252. 251. 251. 250. 251. 251. 249.
      248. 241. 229. 225. 226. 162. 61. 52. 0. 0. 47. 43. 88. 183. 240.
      245. 245. 248. 251. 252. 251. 252. 253. 252. 252. 254. 253. 250.
      249. 245. 239. 228. 226. 185. 100. 56. 0. 0. 40. 55. 140. 219.
      247. 250. 250. 253. 253. 252. 253. 254. 254. 254. 254. 254. 254.
      252. 250. 245. 240. 231. 235. 222. 186. 76. 0. 0. 37. 82. 178.
      235. 247. 251. 252. 253. 253. 253. 253. 254. 254. 254. 254. 254.
      254. 252. 251. 249. 244. 232. 234. 228. 199. 78. 0. 0. 46. 121.
      208. 240. 247. 252. 253. 253. 253. 253. 254. 254. 254. 255. 254.
      254. 254. 254. 253. 252. 249. 241. 233. 232. 206. 83. 0. 0. 74.
      166. 230. 241. 246. 252. 253. 252. 252. 252. 251. 251. 253. 254.
      254. 254. 254. 254. 253. 252. 251. 242. 230. 229. 202. 87. 0. 0.
      99. 204. 240. 243. 247. 251. 252. 251. 250. 246. 240. 242. 250.
      252. 252. 253. 254. 254. 254. 254. 252. 243. 232. 234. 202. 90. 0.
      0. 106. 213. 241. 243. 247. 251. 250. 249. 247. 234. 219. 230.
      246. 250. 251. 252. 253. 254. 253. 253. 249. 241. 240. 236. 198.
      89. 0. 0. 102. 209. 241. 242. 248. 251. 248. 246. 242. 219. 198.
      215. 236. 241. 244. 247. 250. 252. 253. 253. 248. 242. 233. 209.
      162. 82. 0. 0. 96. 211. 239. 240. 245. 248. 242. 241. 233. 201.
      182. 203. 229. 239. 243. 246. 250. 252. 253. 253. 249. 240. 207.
      156. 113. 66. 0. 0. 98. 222. 232. 233. 233. 237. 229. 226. 202.
      168. 166. 175. 201. 229. 242. 240. 242. 248. 246. 244. 242. 230.
      188. 121. 74. 61. 0. 0. 97. 210. 228. 224. 225. 223. 224. 226.
      180. 155. 170. 171. 191. 224. 239. 243. 245. 243. 242. 241. 229.
      209. 167. 104. 64. 66. 0. 0. 68. 165. 217. 225. 221. 217. 220.
      219. 153. 141. 166. 159. 193. 225. 235. 239. 238. 232. 238. 230.
      204. 180. 141. 92. 66. 70. 0. 0. 33. 96. 186. 226. 224. 227. 219.
      198. 126. 132. 157. 158. 178. 214. 235. 241. 241. 239. 232. 185.
      152. 139. 112. 79. 68. 70. 0. 0. 27. 50. 153. 229. 221. 229. 196.
      121. 72. 88. 107. 128. 155. 181. 223. 234. 235. 239. 210. 126. 94.
      92. 80. 69. 68. 67. 0. 0. 29. 36. 128. 222. 226. 232. 173. 49. 32.
      42. 52. 80. 112. 127. 198. 227. 233. 235. 170. 79. 56. 61. 62. 61.
      64. 62. 0. 0. 31. 25. 72. 162. 226. 229. 167. 26. 23. 41. 46. 58.
      52. 56. 147. 221. 232. 187. 101. 39. 43. 55. 56. 55. 58. 56. 0. 0.
      45. 26. 25. 78. 184. 187. 143. 19. 29. 50. 57. 47. 43. 23. 78.
      173. 175. 93. 38. 35. 46. 55. 53. 49. 54. 56. 0. 0. 0. 0. 0. 0. 0.
      0. 0. 0. 0. 0. 0. 0. 0. 0. 0. 0. 0. 0. 0. 0. 0. 0. 0. 0. 0. 0. 0.
      0. 0. 0. 0. 0. 0. 0. 0. 0. 0. 0. 0. 0. 0. 0. 0. 0. 0. 0. 0. 0. 0.
      0. 0. 0. 0. 0. 0. 0. 0. 0. 0. 0. 0. 0. 0. 0. 0. 0. 0. 0. 0. 0. 0.
      0. 0. 0. 0. 0. 0. 0. 0. 0. 0. 0. 0. 0. 0. 0. 0. 0. 0. 0. 0. 0. 0.
      0. 0. 0. 0. 0. 0. 0. 0. 0. 0. 0. 0. 0. 0. 0. 0. 0. 0. 0. 0. 0. 0.
      0. 0. 0. 0. 0. 0. 0. 0. 0. 0. 0. 0. 0. 0. 0. 0. 0. 0. 0. 0. 0. 0.
      0. 0. 0.</_>
    <_>
      33. 54. 49. 49. 42. 38. 39. 69. 112. 138. 157. 175. 185. 182. 167.
      150. 141. 116. 63. 30. 43. 53. 54. 45. 41. 0. 0. 0. 49. 53. 57.
      49. 49. 62. 89. 157. 219. 235. 232. 241. 246. 245. 240. 235. 232.
      199. 125. 72. 67. 54. 48. 49. 51. 0. 0. 0. 56. 48. 38. 32. 92.
      169. 211. 231. 237. 234. 234. 246. 250. 251. 252. 250. 247. 234.
      205. 180. 149. 80. 38. 38. 50. 0. 0. 0. 44. 22. 35. 93. 183. 242.
      245. 245. 249. 252. 251. 251. 250. 252. 254. 252. 250. 247. 244.
      238. 211. 147. 74. 33. 41. 0. 0. 0. 25. 28. 74. 203. 237. 245.
      242. 247. 251. 254. 255. 251. 250. 253. 254. 254. 253. 251. 248.
      241. 229. 204. 125. 37. 32. 0. 0. 0. 22. 64. 153. 247. 247. 249.
      248. 253. 254. 252. 253. 252. 252. 254. 255. 254. 253. 248. 244.
      234. 231. 223. 150. 48. 26. 0. 0. 0. 32. 119. 225. 244. 246. 250.
      251. 254. 254. 249. 253. 254. 254. 254. 254. 252. 248. 242. 235.
      226. 224. 227. 179. 88. 35. 0. 0. 0. 54. 158. 246. 248. 250. 254.
      250. 251. 251. 251. 253. 252. 251. 249. 247. 243. 238. 232. 225.
      224. 221. 224. 212. 153. 69. 0. 0. 0. 101. 198. 247. 248. 251.
      254. 249. 253. 253. 251. 250. 247. 244. 240. 236. 233. 230. 225.
      220. 222. 217. 220. 229. 192. 94. 0. 0. 0. 160. 236. 244. 243.
      250. 252. 252. 252. 251. 242. 239. 237. 234. 231. 228. 225. 223.
      220. 219. 220. 215. 219. 230. 196. 97. 0. 0. 0. 185. 242. 242.
      249. 251. 253. 250. 246. 237. 230. 234. 229. 227. 225. 224. 220.
      218. 216. 215. 219. 222. 227. 236. 201. 94. 0. 0. 0. 182. 241.
      247. 250. 250. 252. 250. 247. 239. 234. 236. 231. 226. 222. 223.
      220. 218. 216. 215. 221. 226. 230. 237. 200. 87. 0. 0. 0. 185.
      243. 247. 249. 251. 253. 252. 251. 248. 243. 241. 236. 230. 225.
      226. 223. 221. 218. 219. 222. 225. 230. 237. 194. 87. 0. 0. 0.
      184. 241. 244. 248. 250. 253. 253. 253. 252. 251. 249. 243. 241.
      236. 236. 230. 226. 222. 221. 224. 221. 228. 234. 181. 77. 0. 0.
      0. 184. 241. 244. 246. 249. 252. 253. 254. 254. 253. 252. 250.
      249. 247. 246. 239. 235. 229. 229. 226. 214. 226. 224. 152. 60. 0.
      0. 0. 173. 232. 242. 244. 246. 250. 252. 254. 254. 254. 253. 251.
      252. 250. 249. 243. 240. 234. 234. 230. 224. 227. 171. 76. 32. 0.
      0. 0. 132. 195. 232. 243. 246. 249. 251. 254. 254. 255. 254. 253.
      254. 254. 254. 253. 252. 246. 245. 231. 235. 234. 142. 47. 32. 0.
      0. 0. 79. 149. 219. 241. 244. 248. 250. 253. 253. 254. 254. 253.
      253. 254. 254. 254. 253. 247. 245. 236. 240. 224. 116. 38. 43. 0.
      0. 0. 49. 128. 213. 239. 243. 246. 248. 251. 252. 253. 252. 250.
      251. 254. 254. 255. 254. 245. 234. 239. 220. 148. 53. 20. 40. 0.
      0. 0. 49. 96. 174. 224. 239. 239. 241. 246. 249. 250. 250. 250.
      249. 253. 251. 251. 248. 233. 216. 175. 140. 67. 30. 37. 52. 0. 0.
      0. 54. 65. 116. 187. 221. 223. 228. 236. 239. 242. 246. 247. 240.
      248. 240. 231. 242. 208. 105. 52. 51. 39. 42. 53. 53. 0. 0. 0. 57.
      67. 80. 123. 157. 182. 214. 231. 235. 239. 242. 246. 248. 229.
      179. 139. 135. 110. 51. 28. 45. 52. 50. 52. 48. 0. 0. 0. 62. 72.
      72. 77. 72. 99. 165. 209. 218. 217. 216. 219. 197. 126. 60. 46.
      61. 66. 54. 41. 56. 59. 52. 49. 46. 0. 0. 0. 64. 72. 77. 82. 68.
      74. 108. 128. 126. 122. 125. 129. 105. 62. 40. 48. 60. 60. 58. 58.
      53. 48. 53. 59. 50. 0. 0. 0. 0. 0. 0. 0. 0. 0. 0. 0. 0. 0. 0. 0.
      0. 0. 0. 0. 0. 0. 0. 0. 0. 0. 0. 0. 0. 0. 0. 0. 0. 0. 0. 0. 0. 0.
      0. 0. 0. 0. 0. 0. 0. 0. 0. 0. 0. 0. 0. 0. 0. 0. 0. 0. 0. 0. 0. 0.
      0. 0. 0. 0. 0. 0. 0. 0. 0. 0. 0. 0. 0. 0. 0. 0. 0. 0. 0. 0. 0. 0.
      0. 0. 0. 0. 0. 0. 0. 0. 0. 0. 0. 0. 0. 0. 0. 0. 0. 0. 0. 0. 0. 0.
      0. 0. 0. 0. 0. 0. 0. 0. 0. 0. 0. 0.</_>
    <_>
      53. 52. 45. 36. 42. 65. 86. 99. 107. 123. 149. 169. 183. 174. 167.
      159. 136. 103. 72. 58. 61. 63. 60. 59. 0. 0. 0. 0. 43. 46. 51. 50.
      71. 129. 176. 200. 213. 225. 231. 234. 239. 239. 240. 238. 213.
      166. 117. 86. 72. 61. 56. 60. 0. 0. 0. 0. 22. 43. 88. 118. 148.
      192. 223. 231. 233. 236. 238. 238. 243. 243. 244. 244. 240. 226.
      206. 185. 123. 73. 52. 53. 0. 0. 0. 0. 28. 80. 157. 198. 213. 226.
      232. 234. 239. 247. 253. 253. 251. 251. 252. 248. 247. 249. 242.
      237. 183. 114. 64. 51. 0. 0. 0. 0. 59. 144. 210. 224. 222. 227.
      233. 241. 249. 250. 251. 250. 250. 252. 254. 254. 254. 254. 247.
      242. 227. 160. 85. 55. 0. 0. 0. 0. 86. 196. 223. 217. 219. 226.
      231. 238. 246. 248. 251. 252. 250. 249. 254. 254. 253. 252. 250.
      248. 243. 188. 103. 54. 0. 0. 0. 0. 72. 165. 196. 208. 219. 226.
      229. 238. 247. 249. 252. 253. 253. 253. 253. 250. 251. 253. 252.
      246. 243. 208. 134. 71. 0. 0. 0. 0. 49. 81. 88. 144. 202. 227.
      230. 234. 241. 242. 243. 244. 248. 250. 253. 251. 253. 254. 252.
      249. 244. 231. 181. 107. 0. 0. 0. 0. 49. 37. 32. 78. 143. 178.
      173. 179. 215. 242. 247. 246. 247. 249. 252. 253. 254. 252. 250.
      251. 245. 245. 222. 141. 0. 0. 0. 0. 74. 70. 58. 43. 56. 51. 38.
      66. 138. 198. 218. 223. 233. 241. 245. 245. 252. 252. 250. 252.
      247. 248. 239. 156. 0. 0. 0. 0. 155. 153. 88. 48. 43. 41. 36. 48.
      86. 121. 129. 130. 161. 218. 241. 237. 245. 252. 252. 252. 249.
      249. 241. 159. 0. 0. 0. 0. 249. 236. 115. 26. 30. 54. 55. 45. 59.
      82. 83. 81. 127. 205. 237. 236. 244. 251. 252. 253. 251. 248. 241.
      163. 0. 0. 0. 0. 251. 242. 111. 20. 30. 55. 48. 45. 96. 157. 171.
      161. 183. 219. 235. 238. 248. 250. 247. 255. 252. 247. 243. 160.
      0. 0. 0. 0. 220. 180. 40. 24. 83. 110. 93. 107. 173. 221. 228.
      225. 232. 238. 242. 245. 252. 251. 247. 253. 249. 247. 241. 151.
      0. 0. 0. 0. 61. 54. 23. 83. 160. 196. 186. 191. 219. 236. 236.
      240. 245. 247. 249. 250. 252. 251. 253. 251. 247. 246. 217. 125.
      0. 0. 0. 0. 34. 86. 120. 162. 204. 223. 223. 228. 234. 240. 241.
      245. 248. 250. 251. 252. 251. 249. 251. 252. 246. 218. 150. 78. 0.
      0. 0. 0. 81. 186. 209. 214. 221. 220. 222. 230. 234. 241. 246.
      248. 249. 251. 253. 253. 253. 251. 248. 248. 238. 170. 84. 40. 0.
      0. 0. 0. 76. 200. 228. 220. 220. 221. 224. 232. 234. 242. 247.
      247. 249. 252. 251. 249. 251. 251. 248. 242. 221. 135. 53. 36. 0.
      0. 0. 0. 43. 139. 208. 219. 218. 222. 225. 233. 236. 245. 249.
      247. 249. 253. 250. 245. 246. 249. 244. 226. 167. 100. 47. 48. 0.
      0. 0. 0. 20. 69. 149. 206. 200. 209. 220. 228. 235. 246. 248. 249.
      251. 252. 251. 251. 247. 236. 212. 169. 88. 56. 39. 50. 0. 0. 0.
      0. 26. 36. 75. 112. 129. 175. 215. 226. 233. 243. 244. 249. 251.
      249. 246. 234. 206. 164. 121. 84. 46. 39. 38. 47. 0. 0. 0. 0. 39.
      37. 38. 35. 58. 115. 168. 184. 188. 203. 212. 217. 217. 220. 214.
      178. 117. 66. 45. 48. 53. 54. 51. 49. 0. 0. 0. 0. 47. 44. 42. 38.
      43. 61. 78. 79. 86. 102. 114. 110. 91. 85. 90. 75. 49. 39. 46. 50.
      47. 45. 46. 33. 0. 0. 0. 0. 0. 0. 0. 0. 0. 0. 0. 0. 0. 0. 0. 0. 0.
      0. 0. 0. 0. 0. 0. 0. 0. 0. 0. 0. 0. 0. 0. 0. 0. 0. 0. 0. 0. 0. 0.
      0. 0. 0. 0. 0. 0. 0. 0. 0. 0. 0. 0. 0. 0. 0. 0. 0. 0. 0. 0. 0. 0.
      0. 0. 0. 0. 0. 0. 0. 0. 0. 0. 0. 0. 0. 0. 0. 0. 0. 0. 0. 0. 0. 0.
      0. 0. 0. 0. 0. 0. 0. 0. 0. 0. 0. 0. 0. 0. 0. 0. 0. 0. 0. 0. 0. 0.
      0. 0. 0. 0. 0. 0. 0. 0. 0. 0. 0. 0. 0. 0. 0. 0. 0. 0. 0. 0. 0. 0.
      0. 0. 0. 0. 0. 0. 0. 0. 0. 0. 0. 0. 0. 0. 0. 0. 0.</_>
    <_>
      57. 70. 67. 47. 43. 47. 59. 59. 53. 72. 104. 115. 112. 129. 120.
      128. 113. 72. 56. 66. 64. 55. 47. 45. 37. 0. 0. 0. 33. 56. 100.
      81. 47. 40. 58. 58. 64. 117. 189. 222. 223. 219. 220. 221. 202.
      133. 84. 73. 61. 55. 47. 46. 36. 0. 0. 0. 19. 40. 135. 133. 51.
      30. 76. 102. 126. 188. 238. 248. 248. 248. 246. 246. 238. 206.
      180. 145. 97. 53. 38. 44. 34. 0. 0. 0. 18. 39. 147. 153. 44. 58.
      142. 208. 230. 233. 238. 245. 250. 251. 249. 249. 247. 241. 237.
      219. 172. 85. 41. 39. 32. 0. 0. 0. 20. 39. 138. 130. 40. 128. 207.
      240. 249. 249. 244. 248. 253. 252. 250. 251. 251. 250. 249. 247.
      233. 160. 72. 34. 28. 0. 0. 0. 22. 45. 129. 110. 54. 196. 241.
      239. 241. 248. 252. 253. 254. 253. 253. 253. 253. 252. 250. 249.
      252. 222. 111. 37. 24. 0. 0. 0. 16. 39. 100. 96. 81. 213. 247.
      248. 251. 253. 252. 251. 249. 251. 253. 253. 253. 253. 250. 249.
      253. 248. 159. 60. 21. 0. 0. 0. 20. 34. 57. 78. 154. 232. 248.
      247. 253. 252. 250. 248. 244. 245. 248. 249. 250. 253. 255. 255.
      254. 251. 211. 106. 28. 0. 0. 0. 47. 50. 44. 102. 230. 247. 248.
      244. 246. 248. 251. 249. 241. 235. 237. 242. 245. 249. 253. 254.
      251. 247. 251. 161. 43. 0. 0. 0. 67. 52. 41. 124. 245. 242. 247.
      247. 246. 246. 245. 244. 229. 214. 217. 232. 242. 246. 248. 253.
      252. 250. 253. 197. 63. 0. 0. 0. 84. 43. 42. 133. 245. 248. 250.
      251. 248. 245. 241. 234. 193. 158. 179. 217. 238. 242. 245. 252.
      252. 252. 249. 210. 74. 0. 0. 0. 65. 36. 38. 130. 249. 251. 251.
      252. 245. 241. 241. 229. 150. 91. 133. 199. 223. 230. 238. 246.
      247. 253. 243. 215. 72. 0. 0. 0. 41. 22. 32. 129. 251. 249. 248.
      251. 240. 234. 237. 218. 135. 75. 107. 186. 222. 224. 231. 242.
      247. 250. 244. 219. 69. 0. 0. 0. 29. 18. 34. 133. 251. 247. 247.
      250. 236. 231. 224. 185. 99. 52. 76. 168. 221. 219. 224. 231. 236.
      244. 244. 221. 67. 0. 0. 0. 24. 17. 33. 132. 247. 245. 243. 242.
      227. 228. 204. 126. 59. 41. 49. 116. 189. 216. 223. 225. 229. 243.
      242. 206. 60. 0. 0. 0. 28. 21. 27. 114. 226. 236. 234. 224. 216.
      224. 191. 83. 38. 34. 30. 71. 163. 216. 218. 218. 223. 231. 222.
      170. 49. 0. 0. 0. 35. 26. 20. 79. 178. 216. 226. 214. 213. 226.
      198. 86. 34. 29. 25. 62. 163. 221. 215. 213. 217. 211. 176. 118.
      38. 0. 0. 0. 36. 29. 18. 40. 110. 183. 218. 218. 219. 220. 187.
      85. 31. 30. 28. 63. 155. 215. 217. 214. 212. 187. 120. 67. 32. 0.
      0. 0. 35. 31. 22. 19. 65. 155. 216. 224. 218. 204. 146. 55. 34.
      39. 30. 45. 110. 186. 218. 219. 211. 169. 84. 38. 34. 0. 0. 0. 35.
      31. 25. 19. 47. 131. 216. 229. 212. 161. 66. 41. 45. 49. 42. 33.
      60. 146. 214. 226. 205. 146. 66. 33. 39. 0. 0. 0. 35. 22. 21. 20.
      23. 71. 165. 229. 221. 154. 50. 39. 50. 51. 48. 31. 38. 120. 203.
      220. 175. 100. 51. 37. 46. 0. 0. 0. 21. 12. 37. 56. 34. 24. 83.
      167. 187. 119. 46. 42. 55. 50. 48. 35. 37. 98. 166. 181. 127. 59.
      34. 32. 42. 0. 0. 0. 6. 21. 102. 153. 117. 48. 31. 75. 106. 76.
      46. 47. 54. 47. 49. 42. 37. 67. 103. 107. 74. 40. 33. 36. 41. 0.
      0. 0. 0. 0. 0. 0. 0. 0. 0. 0. 0. 0. 0. 0. 0. 0. 0. 0. 0. 0. 0. 0.
      0. 0. 0. 0. 0. 0. 0. 0. 0. 0. 0. 0. 0. 0. 0. 0. 0. 0. 0. 0. 0. 0.
      0. 0. 0. 0. 0. 0. 0. 0. 0. 0. 0. 0. 0. 0. 0. 0. 0. 0. 0. 0. 0. 0.
      0. 0. 0. 0. 0. 0. 0. 0. 0. 0. 0. 0. 0. 0. 0. 0. 0. 0. 0. 0. 0. 0.
      0. 0. 0. 0. 0. 0. 0. 0. 0. 0. 0. 0. 0. 0. 0. 0. 0. 0. 0. 0. 0. 0.
      0. 0. 0. 0. 0. 0. 0. 0. 0. 0. 0. 0. 0. 0. 0. 0. 0. 0. 0. 0. 0. 0.
      0. 0. 0. 0. 0. 0. 0. 0. 0. 0.</_>
    <_>
      29. 31. 32. 32. 27. 67. 157. 163. 96. 12. 34. 104. 109. 115. 115.
      114. 116. 99. 53. 33. 44. 47. 51. 48. 56. 0. 0. 0. 26. 31. 35. 41.
      34. 37. 67. 64. 48. 44. 106. 181. 188. 190. 196. 186. 191. 174.
      105. 64. 58. 44. 40. 48. 52. 0. 0. 0. 28. 33. 33. 37. 36. 24. 37.
      77. 115. 153. 185. 218. 223. 216. 217. 217. 219. 216. 171. 146.
      123. 75. 44. 49. 53. 0. 0. 0. 30. 35. 34. 32. 26. 33. 79. 158.
      187. 214. 217. 213. 214. 209. 210. 212. 212. 213. 211. 225. 205.
      130. 69. 41. 52. 0. 0. 0. 32. 37. 39. 37. 28. 59. 139. 203. 213.
      216. 214. 210. 210. 212. 213. 215. 215. 213. 214. 208. 212. 198.
      130. 50. 57. 0. 0. 0. 44. 42. 47. 42. 32. 84. 174. 216. 217. 213.
      212. 210. 211. 212. 212. 215. 215. 212. 212. 207. 211. 212. 157.
      45. 50. 0. 0. 0. 19. 50. 87. 84. 69. 113. 190. 217. 214. 209. 209.
      210. 212. 214. 212. 210. 210. 213. 215. 214. 219. 219. 176. 74.
      50. 0. 0. 0. 44. 130. 188. 176. 156. 171. 203. 212. 209. 207. 208.
      210. 211. 213. 211. 210. 211. 216. 220. 222. 224. 224. 200. 140.
      63. 0. 0. 0. 69. 176. 236. 224. 208. 210. 210. 208. 206. 205. 207.
      208. 209. 211. 210. 209. 215. 225. 231. 237. 234. 233. 217. 182.
      80. 0. 0. 0. 78. 187. 241. 232. 226. 226. 218. 213. 209. 208. 208.
      208. 208. 210. 210. 210. 219. 229. 236. 243. 240. 235. 222. 193.
      89. 0. 0. 0. 86. 185. 239. 238. 236. 237. 230. 222. 214. 210. 210.
      208. 209. 210. 215. 224. 234. 239. 243. 248. 243. 235. 222. 194.
      96. 0. 0. 0. 87. 189. 240. 243. 242. 240. 235. 227. 216. 208. 207.
      207. 209. 212. 220. 233. 241. 244. 245. 249. 246. 236. 222. 197.
      100. 0. 0. 0. 88. 198. 242. 245. 246. 247. 244. 240. 231. 216.
      204. 202. 210. 218. 230. 242. 246. 248. 248. 250. 245. 233. 223.
      195. 98. 0. 0. 0. 90. 194. 241. 244. 245. 247. 247. 245. 238. 227.
      217. 214. 217. 222. 234. 245. 248. 250. 250. 249. 242. 232. 225.
      186. 97. 0. 0. 0. 75. 166. 227. 241. 245. 247. 250. 250. 248. 241.
      234. 232. 234. 236. 242. 248. 251. 252. 251. 248. 239. 231. 215.
      161. 81. 0. 0. 0. 45. 112. 195. 236. 245. 247. 249. 250. 249. 248.
      243. 242. 241. 242. 247. 250. 251. 252. 250. 247. 239. 225. 185.
      112. 54. 0. 0. 0. 25. 64. 158. 229. 246. 242. 248. 251. 254. 254.
      252. 251. 251. 250. 251. 252. 252. 251. 244. 239. 235. 220. 160.
      74. 43. 0. 0. 0. 29. 46. 126. 221. 243. 242. 250. 252. 254. 255.
      255. 255. 254. 254. 254. 251. 252. 251. 243. 235. 227. 207. 134.
      56. 45. 0. 0. 0. 37. 35. 82. 172. 228. 238. 243. 245. 251. 252.
      253. 254. 253. 253. 253. 249. 249. 251. 244. 234. 206. 157. 86.
      41. 46. 0. 0. 0. 37. 22. 35. 110. 195. 231. 237. 240. 246. 249.
      252. 253. 252. 252. 253. 248. 247. 240. 214. 188. 149. 86. 46. 39.
      46. 0. 0. 0. 39. 30. 31. 60. 111. 152. 152. 216. 239. 240. 244.
      246. 246. 247. 243. 234. 228. 202. 143. 100. 79. 49. 47. 54. 56.
      0. 0. 0. 37. 38. 41. 49. 63. 76. 87. 161. 194. 200. 211. 216. 212.
      216. 192. 175. 159. 128. 74. 48. 50. 46. 50. 46. 45. 0. 0. 0. 31.
      35. 43. 50. 48. 45. 54. 95. 109. 111. 130. 137. 127. 135. 105. 85.
      79. 70. 45. 40. 47. 44. 45. 41. 42. 0. 0. 0. 0. 0. 0. 0. 0. 0. 0.
      0. 0. 0. 0. 0. 0. 0. 0. 0. 0. 0. 0. 0. 0. 0. 0. 0. 0. 0. 0. 0. 0.
      0. 0. 0. 0. 0. 0. 0. 0. 0. 0. 0. 0. 0. 0. 0. 0. 0. 0. 0. 0. 0. 0.
      0. 0. 0. 0. 0. 0. 0. 0. 0. 0. 0. 0. 0. 0. 0. 0. 0. 0. 0. 0. 0. 0.
      0. 0. 0. 0. 0. 0. 0. 0. 0. 0. 0. 0. 0. 0. 0. 0. 0. 0. 0. 0. 0. 0.
      0. 0. 0. 0. 0. 0. 0. 0. 0. 0. 0. 0. 0. 0. 0. 0. 0. 0. 0. 0. 0. 0.
      0. 0. 0. 0. 0. 0. 0. 0. 0. 0. 0. 0. 0. 0. 0. 0. 0. 0. 0. 0. 0. 0.
      0.</_></support_vectors>
  <decision_functions>
    <_>
      <sv_count>26</sv_count>
      <rho>-1.6644016595671878e+00</rho>
      <alpha>
        5.2760581741626993e-30 1.1938308939118114e-29
        5.7176467846581072e-31 4.2943000633595081e-29
        9.1962858345230634e-31 1.2879115105569175e-29
        8.8583276326873752e-30 2.3796633938671828e-30
        2.7845971004047069e-29 1.0677806755888583e-31
        2.3433476466974475e-29 1.3183172852219098e-29
        1.0568736605131634e-29 4.3919292746582471e-29
        8.2468769116482998e-29 8.5117654830339505e-30
        -2.0126174072106360e-29 -7.5718668353561000e-30
        -6.5947086365860876e-30 -4.3893880261589718e-29
        -3.3490670655952549e-29 -2.1389824494050434e-29
        -6.3074856434327015e-30 -4.2067106459793149e-29
        -4.3164633536947859e-29 -7.1197478887125560e-29</alpha>
      <index>
        0 1 2 3 4 5 6 7 8 9 10 11 12 13 14 15 16 17 18 19 20 21 22 23 24
        25</index></_></decision_functions></pacman4>
</opencv_storage>
