<?xml version="1.0"?>
<opencv_storage>
<pacman17 type_id="opencv-ml-svm">
  <svm_type>C_SVC</svm_type>
  <kernel><type>POLY</type>
    <degree>4.</degree>
    <gamma>1.</gamma>
    <coef0>0.</coef0></kernel>
  <C>1.</C>
  <term_criteria><epsilon>2.2204460492503131e-16</epsilon>
    <iterations>5000</iterations></term_criteria>
  <var_all>784</var_all>
  <var_count>784</var_count>
  <class_count>2</class_count>
  <class_labels type_id="opencv-matrix">
    <rows>1</rows>
    <cols>2</cols>
    <dt>i</dt>
    <data>
      -1 1</data></class_labels>
  <sv_total>19</sv_total>
  <support_vectors>
    <_>
      43. 41. 52. 57. 54. 47. 37. 37. 66. 159. 181. 204. 206. 200. 190.
      176. 157. 88. 54. 44. 57. 64. 60. 60. 0. 0. 0. 0. 53. 60. 57. 51.
      44. 52. 70. 112. 177. 220. 236. 247. 249. 249. 249. 245. 235. 169.
      133. 93. 63. 50. 54. 65. 0. 0. 0. 0. 39. 42. 49. 34. 38. 105. 178.
      213. 237. 247. 251. 252. 252. 249. 249. 250. 249. 238. 225. 183.
      113. 50. 38. 56. 0. 0. 0. 0. 56. 45. 25. 33. 92. 185. 233. 238.
      248. 253. 252. 253. 253. 251. 251. 251. 251. 248. 246. 236. 180.
      93. 42. 48. 0. 0. 0. 0. 47. 31. 34. 93. 181. 231. 243. 248. 250.
      252. 251. 253. 254. 253. 252. 252. 252. 249. 243. 245. 233. 156.
      76. 43. 0. 0. 0. 0. 36. 35. 86. 169. 223. 240. 245. 251. 251. 251.
      251. 253. 253. 253. 252. 253. 254. 253. 250. 249. 244. 199. 167.
      56. 0. 0. 0. 0. 32. 45. 133. 213. 238. 241. 244. 249. 251. 252.
      251. 251. 252. 251. 249. 249. 251. 252. 251. 250. 251. 219. 179.
      61. 0. 0. 0. 0. 33. 39. 120. 202. 228. 234. 239. 244. 251. 252.
      251. 250. 246. 241. 239. 241. 244. 247. 248. 249. 250. 231. 176.
      60. 0. 0. 0. 0. 29. 28. 85. 149. 181. 210. 228. 234. 244. 250.
      248. 244. 234. 224. 222. 231. 239. 244. 246. 246. 246. 227. 166.
      57. 0. 0. 0. 0. 24. 41. 92. 127. 151. 193. 223. 227. 237. 246.
      244. 237. 222. 206. 205. 217. 228. 236. 241. 246. 245. 231. 178.
      86. 0. 0. 0. 0. 37. 95. 149. 158. 167. 203. 226. 230. 238. 245.
      243. 236. 221. 205. 204. 215. 228. 236. 241. 249. 249. 244. 210.
      140. 0. 0. 0. 0. 70. 152. 199. 204. 205. 216. 228. 232. 242. 249.
      246. 241. 232. 221. 220. 225. 233. 241. 246. 253. 252. 250. 235.
      176. 0. 0. 0. 0. 79. 176. 227. 233. 233. 234. 238. 240. 247. 250.
      248. 246. 241. 235. 233. 231. 237. 243. 247. 251. 247. 248. 238.
      181. 0. 0. 0. 0. 69. 175. 235. 243. 246. 247. 250. 251. 252. 251.
      251. 252. 253. 253. 251. 249. 251. 252. 252. 250. 248. 247. 237.
      177. 0. 0. 0. 0. 62. 176. 236. 245. 247. 247. 251. 252. 251. 252.
      253. 252. 250. 252. 254. 255. 254. 253. 254. 253. 250. 247. 233.
      175. 0. 0. 0. 0. 67. 180. 238. 245. 247. 247. 252. 253. 249. 253.
      254. 253. 249. 251. 253. 251. 251. 254. 253. 252. 248. 245. 231.
      170. 0. 0. 0. 0. 68. 183. 241. 244. 246. 246. 251. 252. 253. 254.
      254. 254. 254. 253. 254. 254. 254. 254. 251. 250. 248. 246. 233.
      173. 0. 0. 0. 0. 62. 184. 242. 244. 246. 245. 249. 250. 252. 252.
      250. 250. 252. 252. 252. 253. 253. 252. 251. 251. 248. 247. 232.
      170. 0. 0. 0. 0. 60. 182. 243. 244. 244. 243. 248. 248. 245. 248.
      250. 253. 252. 251. 249. 248. 246. 249. 251. 251. 247. 243. 226.
      167. 0. 0. 0. 0. 56. 180. 240. 238. 233. 230. 239. 243. 242. 245.
      243. 227. 218. 229. 240. 242. 243. 243. 240. 240. 239. 238. 223.
      165. 0. 0. 0. 0. 58. 179. 233. 222. 198. 192. 216. 238. 240. 242.
      209. 147. 128. 171. 220. 238. 241. 221. 196. 197. 211. 227. 218.
      154. 0. 0. 0. 0. 64. 160. 203. 179. 112. 85. 113. 203. 233. 239.
      210. 120. 91. 161. 223. 233. 233. 180. 120. 111. 150. 193. 188.
      129. 0. 0. 0. 0. 57. 111. 137. 121. 56. 30. 63. 161. 206. 204.
      167. 93. 68. 131. 192. 196. 172. 122. 62. 49. 90. 132. 130. 98. 0.
      0. 0. 0. 61. 64. 66. 70. 39. 20. 24. 65. 99. 95. 76. 46. 36. 74.
      108. 108. 98. 76. 49. 40. 54. 75. 76. 61. 0. 0. 0. 0. 0. 0. 0. 0.
      0. 0. 0. 0. 0. 0. 0. 0. 0. 0. 0. 0. 0. 0. 0. 0. 0. 0. 0. 0. 0. 0.
      0. 0. 0. 0. 0. 0. 0. 0. 0. 0. 0. 0. 0. 0. 0. 0. 0. 0. 0. 0. 0. 0.
      0. 0. 0. 0. 0. 0. 0. 0. 0. 0. 0. 0. 0. 0. 0. 0. 0. 0. 0. 0. 0. 0.
      0. 0. 0. 0. 0. 0. 0. 0. 0. 0. 0. 0. 0. 0. 0. 0. 0. 0. 0. 0. 0. 0.
      0. 0. 0. 0. 0. 0. 0. 0. 0. 0. 0. 0. 0. 0. 0. 0. 0. 0. 0. 0.</_>
    <_>
      44. 44. 52. 38. 33. 49. 56. 101. 171. 218. 231. 234. 232. 213.
      170. 106. 52. 28. 42. 45. 48. 48. 46. 44. 0. 0. 0. 0. 45. 48. 37.
      24. 43. 120. 146. 189. 233. 245. 247. 252. 253. 254. 248. 218.
      171. 124. 66. 24. 43. 52. 50. 45. 0. 0. 0. 0. 42. 37. 18. 47. 114.
      219. 244. 239. 245. 251. 252. 253. 251. 251. 253. 250. 237. 209.
      142. 50. 28. 39. 57. 53. 0. 0. 0. 0. 33. 17. 32. 122. 205. 247.
      248. 252. 253. 253. 253. 252. 249. 248. 250. 252. 250. 244. 212.
      126. 50. 27. 47. 61. 0. 0. 0. 0. 25. 27. 107. 204. 248. 247. 238.
      250. 253. 251. 253. 253. 253. 252. 251. 250. 249. 250. 241. 204.
      124. 47. 23. 51. 0. 0. 0. 0. 21. 60. 202. 238. 245. 251. 251. 252.
      253. 252. 251. 253. 254. 253. 251. 250. 250. 250. 249. 243. 196.
      100. 18. 39. 0. 0. 0. 0. 20. 77. 228. 245. 241. 248. 250. 253.
      247. 250. 249. 247. 247. 248. 250. 251. 250. 251. 252. 249. 223.
      133. 22. 35. 0. 0. 0. 0. 20. 72. 197. 234. 238. 228. 242. 249.
      248. 250. 249. 245. 239. 240. 244. 247. 247. 248. 252. 250. 226.
      129. 24. 28. 0. 0. 0. 0. 21. 60. 150. 181. 208. 238. 245. 239.
      247. 249. 246. 233. 218. 218. 230. 242. 245. 246. 250. 249. 233.
      145. 54. 26. 0. 0. 0. 0. 51. 102. 131. 159. 197. 230. 238. 241.
      243. 247. 243. 224. 205. 204. 222. 238. 244. 247. 249. 247. 244.
      200. 130. 37. 0. 0. 0. 0. 110. 191. 197. 195. 206. 228. 235. 243.
      242. 246. 244. 230. 216. 216. 228. 239. 242. 246. 251. 251. 253.
      250. 219. 94. 0. 0. 0. 0. 141. 236. 237. 231. 232. 240. 242. 247.
      246. 248. 250. 243. 236. 236. 240. 243. 244. 247. 251. 249. 251.
      253. 230. 110. 0. 0. 0. 0. 140. 236. 243. 241. 242. 246. 246. 249.
      248. 252. 254. 250. 248. 247. 247. 249. 248. 250. 251. 247. 248.
      251. 219. 103. 0. 0. 0. 0. 155. 242. 248. 246. 248. 251. 250. 252.
      250. 254. 254. 252. 249. 247. 248. 250. 250. 251. 253. 252. 251.
      241. 193. 80. 0. 0. 0. 0. 156. 242. 250. 250. 251. 254. 253. 253.
      253. 254. 254. 254. 251. 249. 251. 253. 254. 255. 255. 253. 251.
      239. 182. 69. 0. 0. 0. 0. 155. 238. 251. 252. 253. 253. 252. 253.
      252. 253. 253. 253. 253. 253. 253. 253. 254. 255. 253. 252. 251.
      242. 186. 73. 0. 0. 0. 0. 158. 240. 252. 252. 253. 253. 252. 253.
      251. 252. 252. 252. 252. 254. 254. 254. 253. 252. 250. 249. 248.
      242. 189. 77. 0. 0. 0. 0. 164. 238. 249. 252. 252. 252. 253. 253.
      253. 251. 251. 251. 252. 254. 254. 254. 254. 253. 252. 250. 249.
      241. 185. 75. 0. 0. 0. 0. 173. 237. 246. 249. 248. 251. 254. 254.
      252. 247. 249. 251. 252. 252. 253. 252. 252. 252. 254. 250. 248.
      240. 183. 75. 0. 0. 0. 0. 174. 241. 240. 230. 235. 248. 252. 252.
      244. 226. 216. 228. 238. 233. 249. 252. 232. 223. 233. 244. 247.
      231. 167. 71. 0. 0. 0. 0. 178. 231. 206. 189. 206. 229. 238. 242.
      223. 171. 142. 184. 236. 239. 245. 225. 159. 140. 173. 223. 245.
      207. 124. 50. 0. 0. 0. 0. 170. 191. 141. 126. 149. 177. 207. 241.
      211. 122. 69. 114. 206. 239. 230. 174. 81. 54. 97. 176. 214. 162.
      76. 28. 0. 0. 0. 0. 125. 112. 60. 55. 66. 75. 111. 165. 155. 87.
      32. 45. 110. 156. 147. 99. 36. 16. 40. 95. 127. 91. 38. 19. 0. 0.
      0. 0. 0. 0. 0. 0. 0. 0. 0. 0. 0. 0. 0. 0. 0. 0. 0. 0. 0. 0. 0. 0.
      0. 0. 0. 0. 0. 0. 0. 0. 0. 0. 0. 0. 0. 0. 0. 0. 0. 0. 0. 0. 0. 0.
      0. 0. 0. 0. 0. 0. 0. 0. 0. 0. 0. 0. 0. 0. 0. 0. 0. 0. 0. 0. 0. 0.
      0. 0. 0. 0. 0. 0. 0. 0. 0. 0. 0. 0. 0. 0. 0. 0. 0. 0. 0. 0. 0. 0.
      0. 0. 0. 0. 0. 0. 0. 0. 0. 0. 0. 0. 0. 0. 0. 0. 0. 0. 0. 0. 0. 0.
      0. 0. 0. 0. 0. 0. 0. 0. 0. 0. 0. 0. 0. 0. 0. 0. 0. 0. 0. 0. 0. 0.
      0. 0. 0. 0. 0. 0. 0. 0. 0. 0.</_>
    <_>
      46. 45. 40. 45. 52. 45. 40. 42. 64. 108. 165. 205. 223. 229. 219.
      195. 147. 95. 59. 43. 50. 59. 59. 54. 51. 0. 0. 0. 40. 42. 48. 45.
      33. 35. 64. 96. 143. 188. 229. 245. 246. 246. 246. 240. 212. 174.
      139. 96. 66. 57. 60. 57. 47. 0. 0. 0. 40. 36. 44. 35. 17. 53. 130.
      184. 227. 242. 246. 247. 246. 247. 247. 246. 246. 235. 205. 154.
      95. 56. 49. 55. 55. 0. 0. 0. 42. 29. 22. 19. 42. 120. 205. 236.
      247. 246. 246. 246. 248. 247. 245. 245. 248. 248. 242. 208. 145.
      84. 52. 50. 56. 0. 0. 0. 39. 27. 13. 36. 113. 201. 244. 246. 245.
      246. 248. 249. 248. 248. 248. 249. 244. 244. 247. 236. 197. 136.
      81. 54. 51. 0. 0. 0. 38. 24. 21. 85. 193. 243. 243. 246. 250. 250.
      251. 249. 246. 249. 252. 253. 251. 251. 250. 247. 230. 181. 113.
      65. 53. 0. 0. 0. 40. 21. 33. 122. 230. 245. 235. 245. 248. 248.
      247. 244. 245. 248. 247. 243. 247. 251. 251. 250. 243. 202. 128.
      70. 53. 0. 0. 0. 34. 23. 45. 124. 208. 227. 223. 235. 241. 243.
      244. 246. 241. 235. 231. 233. 232. 239. 244. 246. 246. 205. 131.
      68. 49. 0. 0. 0. 31. 45. 73. 119. 164. 192. 215. 233. 244. 243.
      244. 243. 218. 192. 195. 218. 229. 236. 240. 241. 244. 208. 132.
      72. 49. 0. 0. 0. 49. 97. 126. 147. 161. 164. 203. 223. 235. 236.
      239. 239. 207. 169. 176. 207. 225. 231. 237. 240. 242. 221. 162.
      103. 61. 0. 0. 0. 80. 150. 173. 169. 170. 178. 210. 225. 235. 235.
      238. 237. 214. 183. 187. 212. 222. 226. 236. 241. 243. 238. 210.
      146. 81. 0. 0. 0. 99. 172. 197. 198. 213. 219. 232. 235. 240. 240.
      243. 242. 231. 213. 215. 226. 229. 232. 241. 244. 247. 246. 223.
      163. 86. 0. 0. 0. 101. 174. 209. 229. 251. 244. 239. 239. 241.
      242. 245. 244. 241. 237. 234. 236. 237. 239. 245. 248. 248. 246.
      223. 163. 87. 0. 0. 0. 95. 188. 233. 242. 246. 240. 241. 243. 239.
      242. 246. 243. 244. 246. 241. 239. 239. 241. 245. 247. 246. 243.
      221. 161. 84. 0. 0. 0. 86. 188. 238. 242. 244. 241. 242. 241. 239.
      243. 247. 244. 243. 246. 243. 241. 241. 242. 245. 246. 246. 247.
      228. 171. 86. 0. 0. 0. 63. 153. 219. 239. 246. 244. 242. 240. 239.
      242. 246. 245. 244. 245. 242. 242. 241. 242. 243. 245. 245. 246.
      228. 169. 85. 0. 0. 0. 38. 118. 201. 237. 244. 242. 241. 240. 239.
      241. 245. 246. 245. 245. 242. 241. 239. 240. 241. 243. 241. 243.
      223. 162. 81. 0. 0. 0. 18. 101. 180. 227. 244. 242. 239. 237. 238.
      243. 245. 246. 246. 245. 243. 242. 240. 239. 240. 243. 243. 244.
      227. 166. 77. 0. 0. 0. 9. 93. 181. 229. 244. 240. 239. 240. 242.
      244. 245. 242. 239. 239. 242. 246. 245. 242. 241. 238. 238. 243.
      227. 173. 79. 0. 0. 0. 6. 92. 185. 230. 221. 201. 204. 227. 243.
      244. 238. 222. 203. 204. 225. 244. 244. 239. 223. 208. 219. 241.
      226. 175. 80. 0. 0. 0. 22. 102. 184. 212. 175. 134. 131. 179. 224.
      241. 229. 186. 141. 141. 190. 236. 240. 216. 157. 119. 143. 193.
      203. 176. 75. 0. 0. 0. 32. 95. 149. 163. 115. 72. 64. 117. 185.
      220. 210. 149. 92. 98. 167. 229. 231. 188. 108. 61. 83. 135. 161.
      164. 68. 0. 0. 0. 37. 71. 90. 95. 63. 38. 32. 67. 114. 152. 142.
      96. 54. 63. 113. 147. 138. 111. 62. 35. 48. 73. 90. 102. 54. 0. 0.
      0. 0. 0. 0. 0. 0. 0. 0. 0. 0. 0. 0. 0. 0. 0. 0. 0. 0. 0. 0. 0. 0.
      0. 0. 0. 0. 0. 0. 0. 0. 0. 0. 0. 0. 0. 0. 0. 0. 0. 0. 0. 0. 0. 0.
      0. 0. 0. 0. 0. 0. 0. 0. 0. 0. 0. 0. 0. 0. 0. 0. 0. 0. 0. 0. 0. 0.
      0. 0. 0. 0. 0. 0. 0. 0. 0. 0. 0. 0. 0. 0. 0. 0. 0. 0. 0. 0. 0. 0.
      0. 0. 0. 0. 0. 0. 0. 0. 0. 0. 0. 0. 0. 0. 0. 0. 0. 0. 0. 0. 0. 0.
      0. 0. 0. 0. 0. 0. 0. 0. 0. 0. 0. 0. 0. 0. 0. 0. 0. 0. 0. 0. 0. 0.
      0. 0. 0. 0. 0. 0. 0. 0. 0.</_>
    <_>
      47. 53. 44. 42. 34. 37. 39. 66. 132. 185. 212. 222. 220. 206. 165.
      101. 54. 46. 55. 57. 53. 44. 47. 0. 0. 0. 0. 0. 34. 60. 38. 22.
      38. 89. 131. 161. 213. 243. 251. 253. 252. 248. 230. 194. 148. 98.
      58. 44. 59. 61. 56. 0. 0. 0. 0. 0. 39. 54. 20. 20. 83. 174. 222.
      238. 248. 252. 251. 251. 251. 252. 252. 247. 233. 187. 109. 55.
      48. 51. 53. 0. 0. 0. 0. 0. 50. 25. 14. 70. 159. 228. 248. 250.
      252. 252. 250. 248. 250. 252. 252. 252. 251. 236. 181. 108. 55.
      36. 47. 0. 0. 0. 0. 0. 35. 8. 63. 157. 227. 245. 249. 249. 252.
      253. 254. 254. 254. 254. 254. 254. 249. 248. 231. 175. 104. 55.
      49. 0. 0. 0. 0. 0. 21. 28. 148. 229. 248. 249. 250. 251. 251. 251.
      253. 254. 254. 254. 254. 254. 249. 249. 248. 224. 161. 84. 49. 0.
      0. 0. 0. 0. 24. 46. 199. 248. 245. 247. 249. 250. 250. 252. 252.
      252. 251. 252. 252. 252. 253. 254. 252. 242. 190. 98. 43. 0. 0. 0.
      0. 0. 24. 48. 182. 233. 232. 242. 249. 250. 252. 253. 252. 249.
      244. 243. 246. 246. 252. 253. 251. 248. 200. 103. 42. 0. 0. 0. 0.
      0. 18. 46. 130. 194. 204. 228. 244. 247. 248. 253. 245. 232. 211.
      214. 232. 239. 247. 250. 251. 247. 203. 112. 46. 0. 0. 0. 0. 0.
      28. 67. 120. 166. 188. 227. 244. 246. 250. 251. 241. 219. 192.
      196. 222. 235. 246. 250. 251. 249. 217. 145. 77. 0. 0. 0. 0. 0.
      61. 132. 159. 184. 200. 230. 246. 246. 253. 252. 242. 222. 197.
      203. 227. 238. 247. 251. 251. 251. 242. 198. 123. 0. 0. 0. 0. 0.
      88. 197. 225. 231. 230. 234. 247. 246. 253. 253. 245. 239. 226.
      227. 238. 241. 248. 251. 251. 251. 251. 227. 151. 0. 0. 0. 0. 0.
      96. 222. 249. 249. 246. 247. 253. 252. 253. 251. 250. 250. 246.
      246. 248. 246. 250. 252. 252. 252. 251. 229. 155. 0. 0. 0. 0. 0.
      110. 224. 248. 248. 246. 249. 252. 252. 253. 250. 251. 252. 250.
      250. 251. 248. 252. 253. 252. 253. 252. 228. 152. 0. 0. 0. 0. 0.
      115. 223. 251. 251. 251. 254. 253. 253. 254. 252. 252. 253. 251.
      252. 253. 250. 251. 253. 250. 251. 252. 231. 149. 0. 0. 0. 0. 0.
      110. 219. 253. 253. 253. 253. 251. 254. 253. 252. 254. 253. 250.
      252. 255. 254. 250. 254. 251. 248. 251. 233. 150. 0. 0. 0. 0. 0.
      108. 215. 252. 252. 253. 251. 249. 253. 252. 250. 251. 254. 252.
      252. 252. 252. 251. 254. 252. 247. 250. 232. 151. 0. 0. 0. 0. 0.
      103. 215. 248. 245. 249. 252. 250. 250. 253. 251. 252. 254. 254.
      253. 252. 252. 252. 253. 248. 249. 249. 230. 140. 0. 0. 0. 0. 0.
      110. 214. 251. 250. 250. 252. 250. 248. 251. 252. 252. 250. 251.
      252. 250. 247. 251. 251. 251. 250. 249. 233. 159. 0. 0. 0. 0. 0.
      105. 210. 251. 248. 248. 249. 232. 213. 222. 244. 251. 248. 248.
      246. 226. 205. 236. 250. 249. 245. 247. 227. 145. 0. 0. 0. 0. 0.
      84. 183. 238. 249. 250. 231. 177. 131. 146. 210. 245. 250. 246.
      221. 164. 121. 182. 245. 251. 247. 251. 195. 96. 0. 0. 0. 0. 0.
      51. 124. 205. 244. 237. 184. 107. 54. 77. 154. 221. 239. 218. 163.
      88. 48. 101. 198. 249. 249. 218. 119. 39. 0. 0. 0. 0. 0. 17. 52.
      132. 181. 167. 105. 47. 20. 37. 93. 152. 180. 147. 87. 46. 35. 54.
      119. 189. 194. 127. 56. 28. 0. 0. 0. 0. 0. 0. 0. 0. 0. 0. 0. 0. 0.
      0. 0. 0. 0. 0. 0. 0. 0. 0. 0. 0. 0. 0. 0. 0. 0. 0. 0. 0. 0. 0. 0.
      0. 0. 0. 0. 0. 0. 0. 0. 0. 0. 0. 0. 0. 0. 0. 0. 0. 0. 0. 0. 0. 0.
      0. 0. 0. 0. 0. 0. 0. 0. 0. 0. 0. 0. 0. 0. 0. 0. 0. 0. 0. 0. 0. 0.
      0. 0. 0. 0. 0. 0. 0. 0. 0. 0. 0. 0. 0. 0. 0. 0. 0. 0. 0. 0. 0. 0.
      0. 0. 0. 0. 0. 0. 0. 0. 0. 0. 0. 0. 0. 0. 0. 0. 0. 0. 0. 0. 0. 0.
      0. 0. 0. 0. 0. 0. 0. 0. 0. 0. 0. 0. 0. 0. 0. 0. 0. 0. 0. 0. 0. 0.</_>
    <_>
      55. 59. 56. 46. 48. 84. 137. 168. 172. 171. 172. 170. 154. 100.
      47. 37. 38. 40. 42. 44. 45. 45. 0. 0. 0. 0. 0. 0. 49. 49. 71. 92.
      113. 152. 201. 221. 223. 224. 226. 225. 214. 162. 113. 92. 63. 40.
      36. 41. 44. 46. 0. 0. 0. 0. 0. 0. 48. 42. 112. 176. 205. 215. 221.
      220. 219. 215. 217. 221. 223. 213. 206. 189. 131. 50. 30. 37. 43.
      48. 0. 0. 0. 0. 0. 0. 46. 80. 164. 217. 224. 222. 220. 218. 209.
      213. 213. 216. 217. 216. 219. 220. 197. 118. 50. 37. 45. 51. 0. 0.
      0. 0. 0. 0. 53. 126. 185. 214. 220. 214. 205. 213. 213. 211. 206.
      210. 214. 213. 210. 214. 216. 168. 72. 34. 40. 51. 0. 0. 0. 0. 0.
      0. 65. 141. 191. 209. 207. 200. 193. 200. 200. 200. 201. 202. 205.
      207. 200. 197. 204. 166. 91. 49. 52. 46. 0. 0. 0. 0. 0. 0. 88.
      166. 209. 217. 200. 186. 185. 194. 188. 185. 198. 191. 187. 193.
      189. 179. 183. 170. 147. 134. 129. 59. 0. 0. 0. 0. 0. 0. 120. 219.
      234. 235. 212. 183. 168. 178. 183. 178. 183. 175. 172. 178. 168.
      157. 166. 192. 211. 221. 215. 96. 0. 0. 0. 0. 0. 0. 134. 233. 237.
      241. 235. 205. 163. 154. 163. 175. 165. 162. 169. 164. 145. 146.
      173. 218. 234. 242. 241. 111. 0. 0. 0. 0. 0. 0. 137. 231. 240.
      248. 251. 237. 195. 157. 139. 155. 154. 159. 160. 147. 141. 168.
      210. 238. 241. 243. 244. 113. 0. 0. 0. 0. 0. 0. 136. 230. 244.
      248. 245. 250. 234. 186. 130. 126. 148. 159. 141. 125. 154. 210.
      238. 245. 244. 245. 249. 118. 0. 0. 0. 0. 0. 0. 138. 232. 243.
      245. 248. 251. 246. 226. 182. 122. 129. 129. 124. 141. 195. 237.
      244. 248. 246. 246. 246. 133. 0. 0. 0. 0. 0. 0. 139. 226. 245.
      247. 248. 250. 249. 246. 225. 168. 130. 114. 140. 191. 230. 244.
      244. 250. 251. 250. 247. 135. 0. 0. 0. 0. 0. 0. 130. 218. 242.
      245. 247. 251. 252. 252. 244. 214. 166. 150. 186. 226. 239. 244.
      245. 248. 251. 252. 234. 126. 0. 0. 0. 0. 0. 0. 104. 183. 229.
      245. 247. 251. 253. 252. 248. 235. 215. 206. 226. 242. 244. 247.
      250. 252. 251. 242. 187. 77. 0. 0. 0. 0. 0. 0. 67. 124. 201. 238.
      244. 248. 251. 252. 249. 247. 245. 244. 246. 247. 247. 249. 249.
      251. 252. 223. 111. 18. 0. 0. 0. 0. 0. 0. 50. 95. 182. 234. 244.
      247. 249. 252. 252. 252. 252. 252. 253. 254. 253. 251. 246. 248.
      249. 203. 63. 8. 0. 0. 0. 0. 0. 0. 52. 76. 151. 215. 238. 243.
      246. 250. 252. 252. 252. 253. 253. 252. 251. 252. 252. 250. 233.
      158. 39. 14. 0. 0. 0. 0. 0. 0. 52. 51. 99. 172. 222. 240. 244.
      247. 249. 252. 253. 253. 253. 250. 249. 250. 248. 229. 171. 82.
      24. 25. 0. 0. 0. 0. 0. 0. 55. 43. 55. 108. 166. 199. 220. 235.
      244. 248. 250. 249. 250. 252. 248. 232. 214. 183. 94. 23. 26. 43.
      0. 0. 0. 0. 0. 0. 53. 47. 49. 71. 95. 117. 159. 199. 227. 235.
      237. 236. 235. 236. 212. 144. 73. 43. 36. 29. 36. 47. 0. 0. 0. 0.
      0. 0. 48. 47. 52. 57. 55. 56. 87. 133. 174. 186. 188. 189. 187.
      169. 126. 55. 32. 42. 38. 38. 42. 46. 0. 0. 0. 0. 0. 0. 0. 0. 0.
      0. 0. 0. 0. 0. 0. 0. 0. 0. 0. 0. 0. 0. 0. 0. 0. 0. 0. 0. 0. 0. 0.
      0. 0. 0. 0. 0. 0. 0. 0. 0. 0. 0. 0. 0. 0. 0. 0. 0. 0. 0. 0. 0. 0.
      0. 0. 0. 0. 0. 0. 0. 0. 0. 0. 0. 0. 0. 0. 0. 0. 0. 0. 0. 0. 0. 0.
      0. 0. 0. 0. 0. 0. 0. 0. 0. 0. 0. 0. 0. 0. 0. 0. 0. 0. 0. 0. 0. 0.
      0. 0. 0. 0. 0. 0. 0. 0. 0. 0. 0. 0. 0. 0. 0. 0. 0. 0. 0. 0. 0. 0.
      0. 0. 0. 0. 0. 0. 0. 0. 0. 0. 0. 0. 0. 0. 0. 0. 0. 0. 0. 0. 0. 0.
      0. 0. 0. 0. 0. 0. 0. 0. 0. 0. 0. 0. 0. 0. 0. 0. 0. 0. 0. 0. 0. 0.
      0. 0. 0. 0. 0. 0. 0. 0. 0. 0. 0.</_>
    <_>
      48. 57. 54. 52. 52. 52. 48. 67. 119. 170. 200. 208. 208. 205. 187.
      147. 98. 63. 49. 54. 62. 64. 59. 56. 0. 0. 0. 0. 50. 56. 54. 43.
      44. 78. 117. 150. 194. 229. 246. 250. 250. 251. 246. 223. 184.
      138. 92. 64. 58. 58. 59. 64. 0. 0. 0. 0. 54. 53. 45. 37. 62. 140.
      202. 224. 238. 247. 251. 251. 252. 253. 252. 248. 241. 224. 180.
      107. 56. 42. 51. 65. 0. 0. 0. 0. 54. 47. 34. 63. 134. 204. 241.
      248. 249. 250. 251. 252. 253. 254. 254. 250. 248. 251. 234. 179.
      108. 52. 43. 57. 0. 0. 0. 0. 45. 37. 48. 123. 201. 234. 245. 248.
      250. 251. 252. 252. 253. 253. 253. 251. 248. 249. 249. 236. 176.
      86. 44. 43. 0. 0. 0. 0. 35. 31. 98. 191. 232. 239. 247. 251. 252.
      252. 252. 252. 252. 253. 251. 252. 252. 249. 251. 252. 226. 163.
      74. 39. 0. 0. 0. 0. 33. 32. 134. 224. 236. 238. 249. 251. 251.
      251. 251. 251. 251. 251. 249. 251. 252. 252. 251. 251. 248. 224.
      109. 44. 0. 0. 0. 0. 34. 31. 128. 226. 237. 236. 248. 250. 250.
      250. 250. 250. 247. 245. 247. 247. 249. 251. 250. 250. 244. 228.
      121. 47. 0. 0. 0. 0. 30. 32. 96. 183. 208. 225. 240. 243. 250.
      250. 250. 247. 238. 227. 230. 236. 245. 248. 250. 252. 251. 235.
      132. 44. 0. 0. 0. 0. 25. 51. 91. 147. 172. 207. 229. 233. 251.
      249. 248. 242. 222. 199. 207. 221. 240. 242. 250. 253. 250. 242.
      147. 60. 0. 0. 0. 0. 43. 114. 149. 170. 176. 204. 230. 233. 251.
      250. 249. 242. 222. 201. 210. 222. 241. 242. 251. 255. 252. 249.
      205. 99. 0. 0. 0. 0. 66. 180. 214. 212. 205. 219. 232. 236. 250.
      250. 251. 247. 230. 216. 218. 228. 242. 243. 251. 253. 251. 250.
      243. 117. 0. 0. 0. 0. 67. 197. 238. 235. 231. 235. 238. 241. 251.
      252. 253. 252. 240. 236. 232. 236. 245. 245. 252. 253. 251. 249.
      242. 114. 0. 0. 0. 0. 64. 191. 242. 244. 244. 245. 248. 249. 254.
      253. 253. 253. 251. 250. 248. 249. 252. 252. 253. 254. 252. 250.
      239. 114. 0. 0. 0. 0. 67. 192. 247. 248. 247. 248. 251. 251. 254.
      252. 252. 253. 251. 251. 250. 250. 252. 253. 254. 254. 253. 250.
      229. 110. 0. 0. 0. 0. 62. 190. 249. 249. 248. 251. 253. 253. 253.
      253. 253. 253. 252. 253. 254. 254. 254. 254. 253. 252. 252. 249.
      218. 103. 0. 0. 0. 0. 71. 190. 248. 247. 249. 252. 251. 252. 252.
      254. 253. 252. 253. 254. 254. 253. 253. 253. 252. 251. 251. 249.
      220. 108. 0. 0. 0. 0. 71. 186. 249. 248. 250. 249. 251. 250. 248.
      253. 250. 247. 251. 251. 250. 254. 254. 254. 253. 252. 249. 249.
      218. 110. 0. 0. 0. 0. 66. 182. 250. 249. 247. 247. 251. 247. 247.
      248. 246. 253. 250. 246. 254. 250. 244. 243. 249. 250. 247. 246.
      211. 109. 0. 0. 0. 0. 67. 182. 248. 246. 246. 247. 243. 237. 235.
      241. 244. 245. 245. 245. 241. 234. 241. 248. 248. 246. 246. 247.
      212. 110. 0. 0. 0. 0. 65. 168. 240. 245. 242. 244. 231. 197. 184.
      216. 245. 239. 237. 247. 222. 186. 197. 233. 244. 239. 239. 245.
      204. 99. 0. 0. 0. 0. 39. 119. 206. 242. 241. 231. 190. 120. 95.
      148. 217. 239. 240. 234. 181. 99. 94. 157. 221. 243. 241. 221.
      159. 75. 0. 0. 0. 0. 20. 49. 133. 208. 230. 195. 117. 53. 34. 60.
      142. 216. 227. 171. 97. 43. 33. 85. 173. 227. 220. 156. 85. 49. 0.
      0. 0. 0. 37. 26. 65. 126. 162. 120. 54. 34. 28. 24. 67. 129. 143.
      90. 46. 37. 34. 43. 85. 126. 117. 72. 40. 40. 0. 0. 0. 0. 0. 0. 0.
      0. 0. 0. 0. 0. 0. 0. 0. 0. 0. 0. 0. 0. 0. 0. 0. 0. 0. 0. 0. 0. 0.
      0. 0. 0. 0. 0. 0. 0. 0. 0. 0. 0. 0. 0. 0. 0. 0. 0. 0. 0. 0. 0. 0.
      0. 0. 0. 0. 0. 0. 0. 0. 0. 0. 0. 0. 0. 0. 0. 0. 0. 0. 0. 0. 0. 0.
      0. 0. 0. 0. 0. 0. 0. 0. 0. 0. 0. 0. 0. 0. 0. 0. 0. 0. 0. 0. 0. 0.
      0. 0. 0. 0. 0. 0. 0. 0. 0. 0. 0. 0. 0. 0. 0. 0. 0. 0. 0. 0. 0.</_>
    <_>
      40. 45. 45. 38. 31. 32. 27. 25. 91. 157. 193. 201. 196. 172. 141.
      74. 57. 51. 52. 56. 55. 52. 53. 0. 0. 0. 0. 0. 35. 47. 44. 29. 24.
      47. 88. 131. 185. 230. 243. 243. 249. 238. 217. 157. 129. 94. 58.
      44. 48. 49. 39. 0. 0. 0. 0. 0. 33. 38. 25. 15. 49. 123. 197. 226.
      237. 248. 250. 247. 251. 250. 247. 235. 220. 174. 97. 41. 34. 49.
      56. 0. 0. 0. 0. 0. 41. 29. 12. 38. 112. 194. 238. 247. 248. 249.
      249. 250. 250. 249. 248. 246. 246. 231. 176. 86. 35. 40. 47. 0. 0.
      0. 0. 0. 26. 12. 28. 105. 191. 238. 248. 248. 248. 249. 249. 250.
      250. 250. 250. 247. 247. 250. 227. 153. 76. 40. 45. 0. 0. 0. 0. 0.
      12. 17. 82. 176. 233. 249. 249. 248. 248. 249. 249. 249. 249. 250.
      250. 251. 249. 251. 251. 226. 149. 58. 39. 0. 0. 0. 0. 0. 15. 26.
      120. 213. 247. 251. 251. 250. 250. 250. 250. 250. 250. 251. 251.
      251. 251. 251. 244. 248. 193. 75. 35. 0. 0. 0. 0. 0. 10. 17. 136.
      226. 250. 252. 252. 252. 253. 252. 252. 253. 253. 253. 253. 250.
      253. 253. 243. 248. 193. 72. 32. 0. 0. 0. 0. 0. 6. 29. 150. 233.
      252. 249. 250. 252. 253. 253. 253. 253. 254. 254. 253. 253. 252.
      253. 251. 251. 194. 78. 30. 0. 0. 0. 0. 0. 21. 74. 179. 236. 251.
      248. 248. 250. 251. 252. 252. 252. 252. 252. 251. 249. 246. 245.
      250. 251. 220. 122. 46. 0. 0. 0. 0. 0. 47. 148. 217. 241. 249.
      244. 240. 240. 244. 247. 250. 251. 250. 249. 244. 237. 246. 247.
      245. 245. 243. 185. 87. 0. 0. 0. 0. 0. 64. 194. 242. 246. 248.
      232. 220. 219. 225. 231. 240. 246. 246. 241. 230. 221. 224. 234.
      235. 240. 246. 227. 115. 0. 0. 0. 0. 0. 70. 204. 248. 248. 246.
      225. 198. 197. 216. 228. 236. 244. 245. 244. 226. 193. 184. 210.
      230. 239. 241. 231. 119. 0. 0. 0. 0. 0. 73. 207. 249. 247. 241.
      217. 164. 167. 201. 226. 241. 245. 245. 241. 218. 179. 163. 197.
      234. 244. 241. 223. 131. 0. 0. 0. 0. 0. 77. 202. 251. 248. 242.
      222. 176. 179. 210. 231. 243. 247. 246. 239. 223. 198. 186. 209.
      238. 247. 244. 224. 138. 0. 0. 0. 0. 0. 76. 195. 250. 250. 250.
      238. 233. 232. 237. 242. 245. 248. 248. 245. 238. 230. 226. 234.
      240. 247. 247. 227. 133. 0. 0. 0. 0. 0. 72. 188. 249. 249. 250.
      249. 244. 243. 245. 246. 247. 249. 249. 249. 246. 244. 246. 247.
      245. 248. 247. 223. 128. 0. 0. 0. 0. 0. 75. 188. 248. 248. 247.
      247. 242. 242. 247. 249. 246. 245. 246. 246. 246. 247. 247. 247.
      246. 249. 247. 223. 137. 0. 0. 0. 0. 0. 82. 195. 249. 248. 247.
      247. 245. 244. 248. 248. 238. 235. 240. 243. 246. 248. 247. 241.
      237. 245. 246. 224. 140. 0. 0. 0. 0. 0. 90. 206. 248. 235. 192.
      220. 242. 245. 242. 238. 201. 161. 184. 227. 245. 248. 240. 215.
      204. 229. 245. 220. 133. 0. 0. 0. 0. 0. 92. 208. 236. 188. 117.
      119. 195. 243. 242. 227. 143. 74. 108. 202. 243. 245. 212. 147.
      116. 161. 219. 211. 139. 0. 0. 0. 0. 0. 97. 190. 178. 115. 70. 60.
      135. 216. 240. 214. 103. 41. 73. 186. 236. 225. 163. 84. 53. 100.
      168. 185. 130. 0. 0. 0. 0. 0. 69. 112. 82. 67. 111. 116. 99. 133.
      173. 165. 76. 35. 49. 146. 196. 170. 102. 41. 24. 50. 88. 103. 80.
      0. 0. 0. 0. 0. 0. 0. 0. 0. 0. 0. 0. 0. 0. 0. 0. 0. 0. 0. 0. 0. 0.
      0. 0. 0. 0. 0. 0. 0. 0. 0. 0. 0. 0. 0. 0. 0. 0. 0. 0. 0. 0. 0. 0.
      0. 0. 0. 0. 0. 0. 0. 0. 0. 0. 0. 0. 0. 0. 0. 0. 0. 0. 0. 0. 0. 0.
      0. 0. 0. 0. 0. 0. 0. 0. 0. 0. 0. 0. 0. 0. 0. 0. 0. 0. 0. 0. 0. 0.
      0. 0. 0. 0. 0. 0. 0. 0. 0. 0. 0. 0. 0. 0. 0. 0. 0. 0. 0. 0. 0. 0.
      0. 0. 0. 0. 0. 0. 0. 0. 0. 0. 0. 0. 0. 0. 0. 0. 0. 0. 0. 0. 0. 0.
      0. 0. 0. 0. 0. 0. 0. 0. 0. 0. 0. 0. 0.</_>
    <_>
      40. 45. 45. 38. 31. 32. 27. 25. 91. 157. 193. 201. 196. 172. 141.
      74. 57. 51. 52. 56. 55. 52. 53. 0. 0. 0. 0. 0. 35. 47. 44. 29. 24.
      47. 88. 131. 185. 230. 243. 243. 249. 238. 217. 157. 129. 94. 58.
      44. 48. 49. 39. 0. 0. 0. 0. 0. 33. 38. 25. 15. 49. 123. 197. 226.
      237. 248. 250. 247. 251. 250. 247. 235. 220. 174. 97. 41. 34. 49.
      56. 0. 0. 0. 0. 0. 41. 29. 12. 38. 112. 194. 238. 247. 248. 249.
      249. 250. 250. 249. 248. 246. 246. 231. 176. 86. 35. 40. 47. 0. 0.
      0. 0. 0. 26. 12. 28. 105. 191. 238. 248. 248. 248. 249. 249. 250.
      250. 250. 250. 247. 247. 250. 227. 153. 76. 40. 45. 0. 0. 0. 0. 0.
      12. 17. 82. 176. 233. 249. 249. 248. 248. 249. 249. 249. 249. 250.
      250. 251. 249. 251. 251. 226. 149. 58. 39. 0. 0. 0. 0. 0. 15. 26.
      120. 213. 247. 251. 251. 250. 250. 250. 250. 250. 250. 251. 251.
      251. 251. 251. 244. 248. 193. 75. 35. 0. 0. 0. 0. 0. 10. 17. 136.
      226. 250. 252. 252. 252. 253. 252. 252. 253. 253. 253. 253. 250.
      253. 253. 243. 248. 193. 72. 32. 0. 0. 0. 0. 0. 6. 29. 150. 233.
      252. 249. 250. 252. 253. 253. 253. 253. 254. 254. 253. 253. 252.
      253. 251. 251. 194. 78. 30. 0. 0. 0. 0. 0. 21. 74. 179. 236. 251.
      248. 248. 250. 251. 252. 252. 252. 252. 252. 251. 249. 246. 245.
      250. 251. 220. 122. 46. 0. 0. 0. 0. 0. 47. 148. 217. 241. 249.
      244. 240. 240. 244. 247. 250. 251. 250. 249. 244. 237. 246. 247.
      245. 245. 243. 185. 87. 0. 0. 0. 0. 0. 64. 194. 242. 246. 248.
      232. 220. 219. 225. 231. 240. 246. 246. 241. 230. 221. 224. 234.
      235. 240. 246. 227. 115. 0. 0. 0. 0. 0. 70. 204. 248. 248. 246.
      225. 198. 197. 216. 228. 236. 244. 245. 244. 226. 193. 184. 210.
      230. 239. 241. 231. 119. 0. 0. 0. 0. 0. 73. 207. 249. 247. 241.
      217. 164. 167. 201. 226. 241. 245. 245. 241. 218. 179. 163. 197.
      234. 244. 241. 223. 131. 0. 0. 0. 0. 0. 77. 202. 251. 248. 242.
      222. 176. 179. 210. 231. 243. 247. 246. 239. 223. 198. 186. 209.
      238. 247. 244. 224. 138. 0. 0. 0. 0. 0. 76. 195. 250. 250. 250.
      238. 233. 232. 237. 242. 245. 248. 248. 245. 238. 230. 226. 234.
      240. 247. 247. 227. 133. 0. 0. 0. 0. 0. 72. 188. 249. 249. 250.
      249. 244. 243. 245. 246. 247. 249. 249. 249. 246. 244. 246. 247.
      245. 248. 247. 223. 128. 0. 0. 0. 0. 0. 75. 188. 248. 248. 247.
      247. 242. 242. 247. 249. 246. 245. 246. 246. 246. 247. 247. 247.
      246. 249. 247. 223. 137. 0. 0. 0. 0. 0. 82. 195. 249. 248. 247.
      247. 245. 244. 248. 248. 238. 235. 240. 243. 246. 248. 247. 241.
      237. 245. 246. 224. 140. 0. 0. 0. 0. 0. 90. 206. 248. 235. 192.
      220. 242. 245. 242. 238. 201. 161. 184. 227. 245. 248. 240. 215.
      204. 229. 245. 220. 133. 0. 0. 0. 0. 0. 92. 208. 236. 188. 117.
      119. 195. 243. 242. 227. 143. 74. 108. 202. 243. 245. 212. 147.
      116. 161. 219. 211. 139. 0. 0. 0. 0. 0. 97. 190. 178. 115. 70. 60.
      135. 216. 240. 214. 103. 41. 73. 186. 236. 225. 163. 84. 53. 100.
      168. 185. 130. 0. 0. 0. 0. 0. 69. 112. 82. 67. 111. 116. 99. 133.
      173. 165. 76. 35. 49. 146. 196. 170. 102. 41. 24. 50. 88. 103. 80.
      0. 0. 0. 0. 0. 43. 52. 34. 76. 181. 201. 130. 55. 76. 90. 53. 35.
      30. 74. 100. 83. 50. 37. 35. 33. 44. 61. 65. 0. 0. 0. 0. 0. 34.
      28. 23. 97. 220. 238. 163. 21. 25. 44. 46. 41. 45. 49. 42. 44. 41.
      37. 30. 24. 44. 79. 101. 0. 0. 0. 0. 0. 24. 13. 15. 88. 203. 212.
      132. 9. 13. 29. 36. 28. 43. 34. 39. 48. 38. 25. 23. 33. 63. 92.
      112. 0. 0. 0. 0. 0. 32. 25. 20. 62. 139. 137. 74. 14. 24. 36. 37.
      31. 38. 32. 34. 29. 18. 27. 47. 64. 75. 75. 77. 0. 0. 0. 0. 0. 0.
      0. 0. 0. 0. 0. 0. 0. 0. 0. 0. 0. 0. 0. 0. 0. 0. 0. 0. 0. 0. 0. 0.
      0. 0. 0. 0. 0.</_>
    <_>
      50. 51. 52. 48. 44. 34. 48. 70. 81. 99. 138. 154. 147. 146. 156.
      153. 120. 71. 38. 34. 40. 43. 45. 0. 0. 0. 0. 0. 52. 56. 49. 48.
      55. 55. 105. 175. 207. 220. 236. 235. 232. 229. 226. 227. 214.
      154. 93. 60. 42. 28. 35. 0. 0. 0. 0. 0. 48. 46. 40. 58. 95. 117.
      174. 230. 242. 243. 250. 248. 245. 251. 247. 251. 249. 221. 197.
      161. 99. 35. 21. 0. 0. 0. 0. 0. 42. 32. 57. 101. 162. 198. 225.
      242. 244. 247. 252. 251. 251. 254. 250. 253. 252. 248. 248. 237.
      178. 85. 26. 0. 0. 0. 0. 0. 41. 41. 108. 147. 195. 232. 242. 243.
      243. 248. 253. 251. 249. 253. 253. 253. 249. 252. 248. 249. 229.
      165. 61. 0. 0. 0. 0. 0. 36. 50. 138. 161. 187. 229. 241. 244. 247.
      250. 252. 252. 252. 254. 255. 253. 247. 252. 246. 245. 246. 211.
      90. 0. 0. 0. 0. 0. 32. 48. 126. 158. 201. 239. 248. 251. 252. 252.
      252. 253. 254. 253. 250. 253. 247. 251. 247. 228. 212. 171. 74. 0.
      0. 0. 0. 0. 46. 86. 135. 173. 219. 243. 248. 251. 253. 252. 252.
      254. 254. 251. 249. 251. 243. 242. 245. 197. 129. 79. 43. 0. 0. 0.
      0. 0. 66. 139. 148. 184. 226. 247. 250. 251. 252. 253. 253. 253.
      251. 249. 243. 231. 219. 216. 228. 171. 70. 27. 35. 0. 0. 0. 0. 0.
      62. 139. 129. 177. 229. 248. 251. 251. 252. 253. 249. 242. 240.
      237. 216. 185. 180. 179. 191. 158. 61. 34. 35. 0. 0. 0. 0. 0. 70.
      134. 129. 179. 235. 247. 251. 249. 250. 245. 218. 198. 198. 200.
      172. 146. 157. 164. 175. 159. 68. 38. 37. 0. 0. 0. 0. 0. 65. 124.
      128. 177. 235. 246. 252. 249. 250. 241. 204. 172. 173. 168. 145.
      136. 153. 161. 161. 143. 73. 32. 40. 0. 0. 0. 0. 0. 70. 124. 127.
      174. 235. 248. 252. 251. 252. 249. 234. 224. 227. 217. 178. 138.
      133. 149. 165. 140. 71. 37. 42. 0. 0. 0. 0. 0. 78. 123. 124. 171.
      235. 250. 252. 251. 253. 252. 252. 250. 248. 243. 227. 203. 194.
      195. 185. 130. 51. 22. 31. 0. 0. 0. 0. 0. 69. 105. 114. 158. 221.
      248. 248. 248. 252. 253. 252. 250. 245. 240. 240. 240. 237. 233.
      219. 167. 91. 50. 19. 0. 0. 0. 0. 0. 50. 76. 103. 136. 178. 243.
      244. 247. 251. 253. 251. 252. 249. 247. 251. 250. 246. 246. 242.
      221. 180. 134. 36. 0. 0. 0. 0. 0. 41. 57. 93. 116. 130. 231. 244.
      248. 250. 254. 250. 252. 253. 253. 253. 250. 248. 248. 246. 244.
      235. 205. 68. 0. 0. 0. 0. 0. 46. 53. 86. 104. 108. 202. 238. 246.
      245. 252. 250. 252. 253. 253. 252. 251. 251. 250. 248. 248. 243.
      203. 69. 0. 0. 0. 0. 0. 52. 52. 71. 90. 102. 164. 227. 245. 243.
      252. 253. 254. 253. 254. 254. 251. 251. 250. 249. 245. 215. 134.
      40. 0. 0. 0. 0. 0. 51. 48. 46. 62. 86. 103. 171. 232. 237. 241.
      246. 250. 251. 252. 250. 246. 248. 239. 224. 205. 148. 62. 25. 0.
      0. 0. 0. 0. 44. 45. 43. 51. 58. 56. 105. 158. 177. 206. 241. 250.
      247. 248. 249. 247. 235. 188. 140. 113. 76. 36. 31. 0. 0. 0. 0. 0.
      39. 43. 41. 38. 41. 49. 65. 80. 78. 115. 183. 204. 204. 195. 196.
      194. 177. 112. 51. 39. 42. 40. 40. 0. 0. 0. 0. 0. 36. 43. 44. 44.
      43. 43. 54. 58. 44. 57. 102. 114. 116. 111. 108. 107. 99. 61. 34.
      36. 40. 39. 43. 0. 0. 0. 0. 0. 0. 0. 0. 0. 0. 0. 0. 0. 0. 0. 0. 0.
      0. 0. 0. 0. 0. 0. 0. 0. 0. 0. 0. 0. 0. 0. 0. 0. 0. 0. 0. 0. 0. 0.
      0. 0. 0. 0. 0. 0. 0. 0. 0. 0. 0. 0. 0. 0. 0. 0. 0. 0. 0. 0. 0. 0.
      0. 0. 0. 0. 0. 0. 0. 0. 0. 0. 0. 0. 0. 0. 0. 0. 0. 0. 0. 0. 0. 0.
      0. 0. 0. 0. 0. 0. 0. 0. 0. 0. 0. 0. 0. 0. 0. 0. 0. 0. 0. 0. 0. 0.
      0. 0. 0. 0. 0. 0. 0. 0. 0. 0. 0. 0. 0. 0. 0. 0. 0. 0. 0. 0. 0. 0.
      0. 0. 0. 0. 0. 0. 0. 0. 0. 0. 0. 0. 0. 0. 0. 0. 0. 0.</_>
    <_>
      52. 46. 39. 41. 62. 93. 115. 125. 154. 168. 174. 162. 160. 158.
      150. 126. 63. 40. 33. 36. 46. 56. 56. 52. 47. 45. 46. 0. 36. 41.
      54. 68. 124. 185. 203. 212. 231. 241. 247. 244. 244. 245. 238.
      221. 139. 96. 58. 36. 32. 37. 42. 40. 37. 38. 42. 0. 41. 92. 134.
      158. 194. 233. 239. 244. 251. 251. 254. 254. 254. 254. 251. 251.
      235. 227. 177. 90. 33. 26. 36. 39. 36. 40. 44. 0. 78. 153. 200.
      219. 230. 240. 243. 248. 251. 252. 254. 254. 254. 254. 251. 251.
      248. 250. 232. 174. 94. 42. 25. 35. 42. 40. 42. 0. 139. 204. 228.
      235. 238. 242. 245. 249. 253. 253. 255. 255. 255. 255. 253. 253.
      246. 253. 246. 226. 157. 69. 27. 51. 67. 45. 32. 0. 153. 204. 228.
      238. 241. 246. 249. 250. 253. 253. 254. 255. 255. 254. 253. 253.
      254. 250. 245. 243. 206. 129. 83. 112. 126. 82. 32. 0. 106. 151.
      210. 240. 245. 248. 250. 251. 253. 254. 254. 254. 254. 254. 254.
      253. 253. 251. 245. 248. 234. 195. 166. 184. 189. 140. 64. 0. 55.
      109. 200. 242. 246. 249. 251. 252. 253. 254. 254. 254. 254. 254.
      254. 254. 248. 250. 248. 246. 239. 229. 215. 210. 197. 172. 106.
      0. 40. 111. 213. 246. 249. 252. 253. 253. 253. 252. 252. 252. 253.
      253. 254. 254. 251. 252. 252. 249. 238. 238. 226. 196. 154. 145.
      110. 0. 37. 124. 221. 245. 248. 252. 251. 251. 253. 252. 252. 252.
      253. 253. 254. 254. 252. 250. 253. 252. 237. 240. 227. 184. 124.
      105. 86. 0. 30. 120. 219. 244. 246. 249. 251. 253. 254. 254. 254.
      254. 253. 253. 254. 254. 253. 251. 251. 250. 236. 237. 223. 182.
      128. 97. 73. 0. 26. 115. 221. 246. 248. 248. 250. 253. 254. 254.
      255. 254. 254. 254. 253. 254. 254. 253. 250. 248. 239. 234. 206.
      180. 136. 98. 64. 0. 25. 116. 230. 248. 248. 245. 250. 254. 255.
      255. 255. 254. 254. 253. 253. 253. 253. 250. 250. 251. 240. 239.
      177. 157. 153. 104. 49. 0. 25. 104. 230. 245. 247. 245. 250. 254.
      255. 255. 255. 254. 254. 253. 253. 253. 253. 249. 248. 250. 242.
      236. 128. 83. 97. 68. 36. 0. 39. 92. 216. 242. 248. 250. 250. 254.
      255. 255. 255. 254. 254. 253. 253. 253. 253. 253. 248. 248. 239.
      198. 88. 36. 38. 44. 43. 0. 97. 142. 223. 243. 248. 250. 248. 253.
      255. 255. 255. 254. 254. 253. 253. 252. 251. 250. 249. 248. 220.
      104. 51. 31. 40. 47. 45. 0. 158. 207. 233. 240. 242. 249. 249.
      253. 254. 254. 254. 254. 254. 254. 253. 253. 251. 245. 245. 246.
      206. 50. 30. 33. 49. 46. 38. 0. 169. 217. 224. 239. 241. 249. 249.
      253. 253. 254. 254. 254. 255. 254. 254. 253. 252. 251. 247. 234.
      177. 55. 33. 36. 40. 38. 36. 0. 80. 168. 226. 229. 236. 240. 243.
      249. 252. 252. 251. 253. 253. 253. 253. 250. 247. 250. 236. 177.
      97. 38. 30. 39. 44. 42. 37. 0. 45. 98. 160. 168. 205. 235. 238.
      248. 250. 248. 247. 250. 251. 248. 250. 245. 234. 224. 179. 108.
      49. 30. 34. 41. 44. 39. 34. 0. 40. 58. 92. 89. 145. 213. 213. 229.
      236. 239. 246. 246. 243. 247. 248. 229. 180. 119. 83. 55. 34. 36.
      47. 42. 38. 38. 37. 0. 49. 52. 58. 45. 87. 142. 145. 163. 183.
      196. 218. 216. 201. 203. 198. 159. 94. 46. 39. 39. 32. 43. 53. 37.
      34. 39. 39. 0. 45. 46. 46. 41. 50. 57. 85. 110. 115. 92. 116. 122.
      107. 96. 87. 73. 50. 41. 48. 47. 36. 42. 46. 28. 34. 36. 34. 0. 0.
      0. 0. 0. 0. 0. 0. 0. 0. 0. 0. 0. 0. 0. 0. 0. 0. 0. 0. 0. 0. 0. 0.
      0. 0. 0. 0. 0. 0. 0. 0. 0. 0. 0. 0. 0. 0. 0. 0. 0. 0. 0. 0. 0. 0.
      0. 0. 0. 0. 0. 0. 0. 0. 0. 0. 0. 0. 0. 0. 0. 0. 0. 0. 0. 0. 0. 0.
      0. 0. 0. 0. 0. 0. 0. 0. 0. 0. 0. 0. 0. 0. 0. 0. 0. 0. 0. 0. 0. 0.
      0. 0. 0. 0. 0. 0. 0. 0. 0. 0. 0. 0. 0. 0. 0. 0. 0. 0. 0. 0. 0. 0.
      0. 0. 0. 0. 0. 0. 0. 0. 0. 0. 0. 0. 0. 0. 0. 0. 0. 0. 0. 0. 0. 0.
      0. 0. 0. 0. 0. 0. 0.</_>
    <_>
      142. 150. 147. 151. 168. 191. 213. 215. 219. 219. 214. 212. 209.
      204. 183. 165. 154. 148. 135. 95. 46. 0. 0. 0. 0. 0. 0. 0. 129.
      165. 180. 185. 204. 219. 240. 242. 252. 253. 251. 251. 251. 243.
      227. 216. 193. 155. 106. 64. 49. 0. 0. 0. 0. 0. 0. 0. 128. 193.
      219. 222. 229. 232. 244. 244. 250. 251. 251. 251. 249. 246. 237.
      234. 221. 189. 118. 60. 48. 0. 0. 0. 0. 0. 0. 0. 151. 223. 241.
      245. 248. 249. 251. 251. 252. 252. 253. 253. 253. 252. 249. 247.
      244. 232. 161. 79. 46. 0. 0. 0. 0. 0. 0. 0. 170. 236. 243. 246.
      248. 249. 251. 251. 252. 252. 253. 252. 252. 253. 251. 249. 250.
      249. 198. 104. 46. 0. 0. 0. 0. 0. 0. 0. 145. 214. 242. 244. 248.
      249. 252. 251. 251. 249. 254. 247. 246. 253. 251. 250. 249. 246.
      218. 138. 63. 0. 0. 0. 0. 0. 0. 0. 91. 170. 238. 241. 244. 246.
      251. 253. 254. 254. 254. 252. 252. 254. 250. 249. 248. 245. 234.
      187. 104. 0. 0. 0. 0. 0. 0. 0. 59. 152. 234. 236. 236. 239. 243.
      243. 247. 251. 254. 254. 254. 254. 253. 251. 250. 249. 246. 230.
      142. 0. 0. 0. 0. 0. 0. 0. 56. 156. 234. 232. 225. 224. 231. 236.
      243. 250. 250. 251. 252. 253. 254. 254. 253. 252. 249. 242. 157.
      0. 0. 0. 0. 0. 0. 0. 50. 152. 227. 225. 221. 221. 225. 227. 232.
      238. 243. 245. 249. 251. 253. 253. 253. 252. 252. 247. 159. 0. 0.
      0. 0. 0. 0. 0. 51. 158. 227. 226. 222. 222. 225. 225. 227. 232.
      240. 242. 248. 250. 252. 252. 251. 251. 249. 247. 156. 0. 0. 0. 0.
      0. 0. 0. 54. 166. 232. 229. 221. 219. 225. 230. 233. 237. 243.
      244. 250. 251. 252. 252. 252. 251. 247. 247. 159. 0. 0. 0. 0. 0.
      0. 0. 45. 162. 228. 230. 226. 226. 230. 235. 239. 242. 245. 247.
      252. 252. 254. 254. 253. 250. 251. 244. 160. 0. 0. 0. 0. 0. 0. 0.
      57. 164. 227. 238. 239. 240. 242. 244. 246. 248. 250. 251. 253.
      253. 254. 254. 252. 250. 251. 215. 135. 0. 0. 0. 0. 0. 0. 0. 93.
      192. 234. 243. 244. 245. 247. 250. 251. 252. 255. 255. 254. 253.
      254. 253. 249. 248. 243. 158. 88. 0. 0. 0. 0. 0. 0. 0. 178. 234.
      245. 247. 249. 249. 250. 251. 252. 254. 254. 253. 253. 254. 253.
      252. 249. 247. 232. 109. 49. 0. 0. 0. 0. 0. 0. 0. 174. 239. 251.
      250. 251. 253. 253. 253. 254. 255. 254. 251. 252. 253. 253. 250.
      248. 248. 204. 95. 43. 0. 0. 0. 0. 0. 0. 0. 118. 203. 237. 247.
      249. 251. 252. 253. 254. 252. 252. 254. 252. 247. 248. 253. 246.
      220. 123. 60. 37. 0. 0. 0. 0. 0. 0. 0. 63. 153. 202. 231. 244.
      248. 250. 251. 253. 246. 244. 251. 252. 250. 248. 241. 208. 160.
      67. 47. 47. 0. 0. 0. 0. 0. 0. 0. 41. 88. 121. 165. 207. 235. 246.
      248. 249. 251. 252. 252. 252. 243. 210. 160. 117. 88. 48. 47. 55.
      0. 0. 0. 0. 0. 0. 0. 47. 53. 51. 74. 128. 183. 213. 225. 230. 236.
      232. 226. 213. 181. 125. 74. 57. 60. 54. 50. 52. 0. 0. 0. 0. 0. 0.
      0. 46. 55. 43. 45. 73. 103. 119. 124. 133. 135. 131. 126. 116. 95.
      68. 47. 47. 57. 57. 49. 46. 0. 0. 0. 0. 0. 0. 0. 0. 0. 0. 0. 0. 0.
      0. 0. 0. 0. 0. 0. 0. 0. 0. 0. 0. 0. 0. 0. 0. 0. 0. 0. 0. 0. 0. 0.
      0. 0. 0. 0. 0. 0. 0. 0. 0. 0. 0. 0. 0. 0. 0. 0. 0. 0. 0. 0. 0. 0.
      0. 0. 0. 0. 0. 0. 0. 0. 0. 0. 0. 0. 0. 0. 0. 0. 0. 0. 0. 0. 0. 0.
      0. 0. 0. 0. 0. 0. 0. 0. 0. 0. 0. 0. 0. 0. 0. 0. 0. 0. 0. 0. 0. 0.
      0. 0. 0. 0. 0. 0. 0. 0. 0. 0. 0. 0. 0. 0. 0. 0. 0. 0. 0. 0. 0. 0.
      0. 0. 0. 0. 0. 0. 0. 0. 0. 0. 0. 0. 0. 0. 0. 0. 0. 0. 0. 0. 0. 0.
      0. 0. 0. 0. 0. 0. 0. 0. 0. 0. 0. 0. 0. 0. 0. 0. 0. 0. 0. 0. 0. 0.
      0. 0. 0. 0. 0. 0. 0. 0.</_>
    <_>
      44. 46. 44. 39. 33. 24. 31. 63. 99. 117. 124. 139. 142. 124. 111.
      85. 58. 46. 50. 54. 52. 48. 44. 0. 0. 0. 0. 0. 45. 41. 36. 37. 38.
      44. 94. 164. 215. 224. 224. 223. 218. 215. 205. 179. 124. 79. 57.
      53. 55. 54. 54. 0. 0. 0. 0. 0. 41. 30. 29. 46. 89. 155. 192. 232.
      242. 245. 245. 246. 243. 239. 239. 228. 196. 158. 116. 78. 54. 54.
      56. 0. 0. 0. 0. 0. 33. 25. 48. 117. 200. 237. 242. 248. 250. 250.
      250. 252. 251. 245. 243. 243. 240. 231. 206. 136. 68. 51. 52. 0.
      0. 0. 0. 0. 35. 36. 101. 193. 236. 244. 247. 250. 251. 253. 253.
      254. 254. 251. 248. 251. 249. 242. 241. 201. 121. 63. 53. 0. 0. 0.
      0. 0. 28. 44. 147. 226. 240. 242. 245. 249. 251. 253. 253. 254.
      254. 253. 251. 253. 252. 247. 248. 220. 152. 59. 44. 0. 0. 0. 0.
      0. 26. 73. 170. 226. 236. 239. 243. 248. 250. 252. 253. 254. 254.
      254. 254. 255. 253. 248. 250. 231. 181. 83. 46. 0. 0. 0. 0. 0. 59.
      141. 202. 223. 226. 228. 234. 239. 243. 246. 247. 249. 250. 252.
      253. 254. 252. 246. 248. 238. 209. 139. 70. 0. 0. 0. 0. 0. 94.
      192. 219. 221. 219. 219. 224. 229. 233. 237. 240. 242. 245. 247.
      249. 252. 252. 252. 252. 249. 238. 186. 95. 0. 0. 0. 0. 0. 112.
      203. 218. 215. 213. 213. 217. 220. 223. 226. 229. 233. 237. 242.
      245. 248. 251. 252. 249. 248. 244. 203. 105. 0. 0. 0. 0. 0. 117.
      199. 219. 214. 212. 211. 213. 214. 214. 215. 216. 219. 222. 227.
      231. 237. 243. 247. 243. 241. 241. 201. 105. 0. 0. 0. 0. 0. 114.
      199. 220. 217. 213. 211. 211. 211. 211. 211. 212. 216. 218. 220.
      223. 232. 243. 249. 245. 244. 240. 198. 102. 0. 0. 0. 0. 0. 116.
      205. 220. 215. 211. 209. 209. 209. 211. 211. 213. 216. 220. 223.
      232. 241. 242. 246. 251. 249. 241. 197. 101. 0. 0. 0. 0. 0. 117.
      207. 222. 213. 209. 209. 211. 213. 216. 217. 219. 222. 227. 229.
      237. 244. 246. 248. 250. 249. 240. 195. 102. 0. 0. 0. 0. 0. 98.
      183. 216. 214. 212. 213. 217. 221. 226. 228. 232. 235. 242. 245.
      247. 251. 252. 251. 248. 246. 228. 169. 91. 0. 0. 0. 0. 0. 58.
      132. 196. 219. 220. 221. 226. 229. 234. 235. 238. 238. 244. 246.
      249. 252. 251. 250. 247. 240. 198. 123. 70. 0. 0. 0. 0. 0. 34. 81.
      169. 228. 231. 233. 241. 243. 248. 250. 253. 254. 252. 251. 253.
      250. 247. 248. 243. 225. 159. 85. 56. 0. 0. 0. 0. 0. 30. 57. 142.
      228. 234. 236. 244. 244. 249. 251. 254. 254. 250. 251. 254. 251.
      248. 249. 241. 208. 127. 64. 54. 0. 0. 0. 0. 0. 37. 42. 104. 196.
      234. 237. 244. 244. 250. 252. 255. 253. 250. 252. 252. 250. 245.
      243. 222. 173. 96. 54. 55. 0. 0. 0. 0. 0. 38. 32. 63. 130. 215.
      227. 239. 242. 247. 251. 255. 253. 254. 250. 247. 245. 236. 219.
      173. 107. 63. 49. 53. 0. 0. 0. 0. 0. 36. 39. 53. 76. 140. 155.
      202. 232. 241. 243. 249. 249. 247. 247. 241. 220. 183. 151. 106.
      57. 47. 51. 52. 0. 0. 0. 0. 0. 39. 42. 51. 62. 69. 77. 126. 190.
      224. 225. 227. 231. 234. 221. 195. 149. 101. 75. 60. 47. 49. 53.
      48. 0. 0. 0. 0. 0. 41. 42. 47. 49. 43. 44. 67. 117. 150. 150. 145.
      151. 152. 143. 117. 78. 50. 48. 52. 45. 46. 46. 43. 0. 0. 0. 0. 0.
      0. 0. 0. 0. 0. 0. 0. 0. 0. 0. 0. 0. 0. 0. 0. 0. 0. 0. 0. 0. 0. 0.
      0. 0. 0. 0. 0. 0. 0. 0. 0. 0. 0. 0. 0. 0. 0. 0. 0. 0. 0. 0. 0. 0.
      0. 0. 0. 0. 0. 0. 0. 0. 0. 0. 0. 0. 0. 0. 0. 0. 0. 0. 0. 0. 0. 0.
      0. 0. 0. 0. 0. 0. 0. 0. 0. 0. 0. 0. 0. 0. 0. 0. 0. 0. 0. 0. 0. 0.
      0. 0. 0. 0. 0. 0. 0. 0. 0. 0. 0. 0. 0. 0. 0. 0. 0. 0. 0. 0. 0. 0.
      0. 0. 0. 0. 0. 0. 0. 0. 0. 0. 0. 0. 0. 0. 0. 0. 0. 0. 0. 0. 0. 0.
      0. 0. 0. 0. 0. 0. 0. 0.</_>
    <_>
      47. 50. 49. 45. 42. 47. 71. 106. 149. 178. 196. 209. 214. 217.
      207. 178. 125. 71. 41. 38. 44. 40. 42. 44. 0. 0. 0. 0. 43. 42. 40.
      49. 75. 110. 150. 199. 232. 243. 243. 244. 244. 240. 239. 234.
      213. 164. 116. 76. 45. 38. 38. 42. 0. 0. 0. 0. 42. 40. 50. 90.
      151. 207. 226. 240. 242. 244. 241. 242. 244. 245. 241. 242. 242.
      225. 204. 155. 91. 47. 30. 32. 0. 0. 0. 0. 44. 47. 82. 154. 215.
      239. 241. 243. 244. 249. 252. 254. 254. 253. 250. 250. 248. 240.
      241. 221. 168. 87. 34. 24. 0. 0. 0. 0. 40. 58. 120. 196. 234. 237.
      242. 246. 249. 251. 252. 253. 250. 245. 248. 253. 250. 241. 245.
      241. 216. 141. 49. 17. 0. 0. 0. 0. 39. 78. 151. 211. 238. 247.
      250. 251. 252. 253. 252. 254. 253. 252. 251. 250. 248. 241. 241.
      236. 222. 170. 73. 16. 0. 0. 0. 0. 55. 115. 188. 226. 240. 246.
      248. 248. 249. 253. 254. 253. 250. 251. 251. 247. 244. 239. 231.
      224. 217. 185. 117. 44. 0. 0. 0. 0. 80. 165. 222. 239. 242. 244.
      248. 250. 253. 254. 253. 252. 249. 245. 242. 236. 233. 227. 219.
      210. 209. 201. 170. 96. 0. 0. 0. 0. 95. 189. 236. 240. 244. 246.
      249. 251. 251. 250. 246. 245. 239. 230. 226. 221. 217. 212. 210.
      205. 205. 206. 197. 130. 0. 0. 0. 0. 97. 194. 238. 237. 245. 251.
      250. 247. 243. 237. 230. 228. 222. 214. 212. 210. 208. 208. 209.
      208. 207. 206. 199. 138. 0. 0. 0. 0. 96. 197. 239. 241. 246. 249.
      248. 243. 236. 226. 219. 215. 212. 208. 207. 206. 206. 208. 211.
      214. 212. 206. 199. 144. 0. 0. 0. 0. 98. 196. 236. 240. 248. 251.
      249. 246. 239. 231. 223. 218. 212. 208. 206. 206. 207. 210. 213.
      217. 214. 206. 197. 142. 0. 0. 0. 0. 103. 199. 236. 238. 248. 251.
      250. 248. 243. 238. 232. 227. 219. 212. 210. 208. 209. 210. 213.
      217. 214. 209. 201. 142. 0. 0. 0. 0. 101. 191. 232. 239. 243. 246.
      249. 249. 249. 246. 242. 239. 233. 228. 222. 217. 214. 212. 211.
      212. 211. 209. 195. 125. 0. 0. 0. 0. 71. 150. 207. 234. 242. 244.
      249. 250. 253. 253. 251. 252. 250. 248. 243. 238. 232. 225. 219.
      215. 212. 198. 156. 82. 0. 0. 0. 0. 52. 92. 169. 228. 239. 245.
      248. 249. 251. 253. 253. 253. 251. 249. 245. 241. 236. 232. 229.
      226. 218. 182. 106. 41. 0. 0. 0. 0. 47. 67. 144. 224. 241. 246.
      249. 249. 250. 251. 252. 251. 251. 251. 248. 250. 250. 247. 240.
      238. 224. 163. 75. 27. 0. 0. 0. 0. 44. 48. 109. 192. 236. 241.
      246. 247. 251. 251. 253. 248. 246. 251. 252. 249. 247. 249. 247.
      242. 193. 113. 48. 25. 0. 0. 0. 0. 48. 43. 74. 134. 209. 225. 241.
      243. 249. 249. 253. 254. 253. 253. 254. 244. 243. 248. 238. 212.
      134. 64. 30. 24. 0. 0. 0. 0. 51. 47. 53. 81. 147. 178. 217. 236.
      244. 243. 250. 254. 250. 248. 253. 252. 243. 213. 168. 123. 71.
      36. 24. 28. 0. 0. 0. 0. 48. 50. 50. 59. 80. 108. 154. 199. 224.
      232. 239. 242. 247. 244. 240. 227. 191. 136. 84. 58. 41. 30. 30.
      35. 0. 0. 0. 0. 42. 46. 50. 57. 57. 61. 83. 122. 161. 183. 193.
      197. 199. 188. 168. 141. 104. 65. 47. 48. 40. 33. 34. 38. 0. 0. 0.
      0. 0. 0. 0. 0. 0. 0. 0. 0. 0. 0. 0. 0. 0. 0. 0. 0. 0. 0. 0. 0. 0.
      0. 0. 0. 0. 0. 0. 0. 0. 0. 0. 0. 0. 0. 0. 0. 0. 0. 0. 0. 0. 0. 0.
      0. 0. 0. 0. 0. 0. 0. 0. 0. 0. 0. 0. 0. 0. 0. 0. 0. 0. 0. 0. 0. 0.
      0. 0. 0. 0. 0. 0. 0. 0. 0. 0. 0. 0. 0. 0. 0. 0. 0. 0. 0. 0. 0. 0.
      0. 0. 0. 0. 0. 0. 0. 0. 0. 0. 0. 0. 0. 0. 0. 0. 0. 0. 0. 0. 0. 0.
      0. 0. 0. 0. 0. 0. 0. 0. 0. 0. 0. 0. 0. 0. 0. 0. 0. 0. 0. 0. 0. 0.
      0. 0. 0. 0. 0. 0. 0. 0. 0. 0. 0. 0. 0. 0. 0. 0. 0. 0. 0. 0. 0. 0.
      0. 0. 0. 0. 0. 0. 0. 0. 0. 0. 0. 0. 0. 0. 0.</_>
    <_>
      50. 49. 50. 35. 22. 46. 101. 153. 176. 182. 182. 180. 175. 169.
      151. 121. 72. 30. 32. 43. 34. 37. 30. 0. 0. 0. 0. 0. 46. 33. 34.
      57. 81. 126. 192. 225. 239. 246. 248. 249. 250. 249. 245. 219.
      151. 99. 63. 38. 18. 30. 37. 0. 0. 0. 0. 0. 39. 31. 58. 132. 194.
      213. 236. 244. 246. 250. 251. 251. 252. 253. 250. 246. 240. 213.
      161. 97. 28. 11. 26. 0. 0. 0. 0. 0. 37. 64. 133. 206. 240. 245.
      244. 249. 249. 251. 252. 252. 253. 253. 253. 251. 247. 244. 230.
      180. 87. 16. 23. 0. 0. 0. 0. 0. 41. 103. 195. 237. 240. 244. 246.
      251. 252. 254. 254. 254. 255. 255. 255. 251. 246. 245. 242. 226.
      145. 41. 23. 0. 0. 0. 0. 0. 52. 138. 225. 243. 241. 247. 248. 252.
      253. 254. 255. 255. 255. 255. 254. 252. 249. 244. 243. 235. 173.
      67. 22. 0. 0. 0. 0. 0. 73. 168. 239. 244. 243. 252. 250. 255. 255.
      254. 254. 254. 253. 251. 248. 244. 237. 233. 232. 227. 190. 113.
      45. 0. 0. 0. 0. 0. 130. 208. 244. 245. 243. 251. 251. 254. 255.
      253. 253. 253. 250. 246. 243. 238. 229. 223. 218. 214. 210. 175.
      85. 0. 0. 0. 0. 0. 167. 233. 245. 248. 250. 250. 253. 251. 251.
      247. 245. 239. 234. 228. 224. 219. 215. 212. 209. 208. 218. 206.
      109. 0. 0. 0. 0. 0. 161. 231. 245. 247. 248. 250. 251. 245. 244.
      239. 233. 227. 222. 216. 211. 208. 207. 208. 208. 209. 213. 202.
      113. 0. 0. 0. 0. 0. 146. 221. 243. 246. 249. 251. 248. 235. 232.
      226. 221. 215. 212. 207. 205. 204. 208. 213. 213. 212. 213. 201.
      117. 0. 0. 0. 0. 0. 130. 208. 241. 246. 249. 250. 245. 238. 235.
      227. 221. 214. 211. 205. 203. 203. 210. 218. 218. 215. 214. 200.
      122. 0. 0. 0. 0. 0. 124. 204. 240. 247. 250. 251. 246. 250. 248.
      241. 234. 225. 219. 213. 209. 205. 210. 216. 216. 215. 215. 199.
      126. 0. 0. 0. 0. 0. 121. 199. 240. 247. 248. 251. 252. 253. 252.
      247. 245. 236. 231. 225. 221. 213. 211. 213. 213. 214. 211. 189.
      119. 0. 0. 0. 0. 0. 93. 163. 218. 242. 246. 248. 251. 252. 252.
      251. 250. 247. 244. 240. 237. 228. 223. 219. 215. 214. 193. 142.
      85. 0. 0. 0. 0. 0. 50. 107. 180. 229. 242. 245. 250. 252. 252.
      253. 253. 254. 253. 253. 252. 244. 241. 235. 231. 224. 171. 88.
      45. 0. 0. 0. 0. 0. 42. 80. 149. 208. 233. 239. 243. 251. 251. 252.
      253. 254. 253. 251. 251. 245. 242. 238. 236. 227. 157. 60. 31. 0.
      0. 0. 0. 0. 41. 57. 114. 188. 230. 238. 241. 251. 250. 251. 252.
      255. 253. 250. 249. 251. 240. 241. 243. 206. 121. 45. 25. 0. 0. 0.
      0. 0. 45. 44. 76. 141. 199. 228. 239. 247. 249. 251. 251. 252.
      254. 251. 250. 242. 250. 246. 208. 142. 74. 36. 27. 0. 0. 0. 0. 0.
      46. 44. 51. 83. 135. 181. 213. 233. 243. 249. 246. 243. 247. 247.
      245. 236. 216. 184. 138. 87. 50. 35. 32. 0. 0. 0. 0. 0. 39. 41.
      43. 49. 73. 108. 149. 192. 220. 236. 241. 242. 245. 244. 235. 193.
      128. 83. 67. 56. 41. 32. 32. 0. 0. 0. 0. 0. 39. 38. 40. 43. 48.
      54. 75. 109. 144. 173. 183. 184. 179. 164. 150. 117. 71. 43. 43.
      46. 41. 33. 32. 0. 0. 0. 0. 0. 0. 0. 0. 0. 0. 0. 0. 0. 0. 0. 0. 0.
      0. 0. 0. 0. 0. 0. 0. 0. 0. 0. 0. 0. 0. 0. 0. 0. 0. 0. 0. 0. 0. 0.
      0. 0. 0. 0. 0. 0. 0. 0. 0. 0. 0. 0. 0. 0. 0. 0. 0. 0. 0. 0. 0. 0.
      0. 0. 0. 0. 0. 0. 0. 0. 0. 0. 0. 0. 0. 0. 0. 0. 0. 0. 0. 0. 0. 0.
      0. 0. 0. 0. 0. 0. 0. 0. 0. 0. 0. 0. 0. 0. 0. 0. 0. 0. 0. 0. 0. 0.
      0. 0. 0. 0. 0. 0. 0. 0. 0. 0. 0. 0. 0. 0. 0. 0. 0. 0. 0. 0. 0. 0.
      0. 0. 0. 0. 0. 0. 0. 0. 0. 0. 0. 0. 0. 0. 0. 0. 0. 0. 0. 0. 0. 0.
      0. 0. 0. 0. 0. 0. 0. 0. 0. 0. 0. 0. 0. 0. 0. 0. 0. 0. 0. 0. 0. 0.
      0. 0.</_>
    <_>
      41. 44. 51. 55. 47. 34. 34. 63. 97. 125. 135. 138. 131. 126. 125.
      105. 63. 41. 48. 51. 46. 49. 54. 0. 0. 0. 0. 0. 41. 46. 56. 58.
      45. 39. 73. 136. 192. 219. 225. 226. 222. 217. 214. 187. 131. 78.
      65. 52. 42. 53. 59. 0. 0. 0. 0. 0. 42. 45. 37. 47. 87. 136. 183.
      221. 239. 246. 248. 250. 249. 248. 248. 240. 211. 176. 143. 89.
      48. 51. 61. 0. 0. 0. 0. 0. 41. 39. 35. 75. 166. 231. 239. 241.
      244. 248. 247. 250. 250. 247. 248. 251. 245. 235. 215. 152. 78.
      45. 56. 0. 0. 0. 0. 0. 39. 32. 71. 149. 225. 244. 243. 244. 249.
      253. 251. 253. 253. 252. 251. 251. 250. 240. 244. 217. 137. 59.
      47. 0. 0. 0. 0. 0. 37. 26. 117. 213. 240. 242. 242. 249. 250. 254.
      251. 253. 253. 252. 254. 252. 250. 245. 249. 248. 194. 89. 41. 0.
      0. 0. 0. 0. 40. 35. 72. 185. 238. 238. 243. 250. 248. 252. 252.
      253. 254. 253. 254. 251. 250. 250. 247. 246. 219. 123. 47. 0. 0.
      0. 0. 0. 43. 31. 38. 86. 130. 176. 237. 251. 247. 253. 251. 247.
      246. 251. 253. 251. 251. 248. 248. 247. 237. 179. 79. 0. 0. 0. 0.
      0. 50. 49. 49. 50. 45. 80. 153. 197. 217. 229. 240. 244. 242. 246.
      248. 250. 251. 249. 247. 252. 253. 229. 132. 0. 0. 0. 0. 0. 50.
      60. 63. 49. 29. 47. 81. 97. 107. 109. 164. 219. 243. 246. 242.
      245. 250. 248. 246. 252. 250. 243. 166. 0. 0. 0. 0. 0. 41. 76.
      103. 83. 38. 42. 61. 51. 50. 60. 89. 131. 162. 179. 196. 224. 244.
      247. 247. 251. 241. 240. 169. 0. 0. 0. 0. 0. 49. 123. 186. 158.
      57. 22. 45. 55. 54. 48. 61. 84. 108. 125. 155. 204. 236. 247. 249.
      251. 242. 239. 172. 0. 0. 0. 0. 0. 84. 159. 216. 189. 98. 63. 79.
      81. 75. 83. 122. 163. 184. 187. 199. 223. 240. 246. 248. 251. 248.
      230. 154. 0. 0. 0. 0. 0. 129. 183. 203. 184. 138. 137. 166. 173.
      169. 180. 209. 235. 243. 244. 244. 246. 247. 246. 246. 250. 243.
      198. 108. 0. 0. 0. 0. 0. 130. 176. 182. 183. 182. 194. 217. 230.
      235. 240. 245. 248. 247. 247. 250. 249. 247. 248. 246. 247. 229.
      148. 62. 0. 0. 0. 0. 0. 95. 155. 193. 204. 210. 220. 230. 237.
      241. 246. 248. 253. 254. 254. 254. 253. 251. 248. 248. 237. 186.
      85. 48. 0. 0. 0. 0. 0. 53. 131. 211. 231. 233. 238. 241. 244. 247.
      249. 250. 253. 253. 253. 254. 253. 252. 249. 244. 203. 112. 47.
      50. 0. 0. 0. 0. 0. 42. 118. 209. 238. 240. 243. 247. 251. 252.
      253. 253. 251. 251. 252. 252. 249. 246. 248. 247. 194. 91. 49. 66.
      0. 0. 0. 0. 0. 37. 87. 168. 225. 241. 243. 248. 249. 249. 252.
      253. 254. 252. 252. 252. 247. 245. 247. 225. 152. 75. 56. 68. 0.
      0. 0. 0. 0. 39. 47. 99. 178. 223. 238. 248. 248. 250. 253. 253.
      252. 248. 250. 250. 245. 237. 221. 156. 79. 51. 59. 72. 0. 0. 0.
      0. 0. 55. 39. 49. 98. 142. 179. 220. 242. 250. 250. 248. 246. 246.
      250. 240. 206. 175. 145. 88. 53. 64. 71. 74. 0. 0. 0. 0. 0. 52.
      49. 47. 52. 62. 89. 146. 197. 217. 220. 222. 222. 225. 226. 195.
      127. 72. 53. 52. 62. 70. 65. 58. 0. 0. 0. 0. 0. 50. 54. 55. 51.
      46. 52. 80. 116. 136. 139. 137. 131. 123. 118. 92. 46. 46. 49. 62.
      63. 57. 61. 59. 0. 0. 0. 0. 0. 0. 0. 0. 0. 0. 0. 0. 0. 0. 0. 0. 0.
      0. 0. 0. 0. 0. 0. 0. 0. 0. 0. 0. 0. 0. 0. 0. 0. 0. 0. 0. 0. 0. 0.
      0. 0. 0. 0. 0. 0. 0. 0. 0. 0. 0. 0. 0. 0. 0. 0. 0. 0. 0. 0. 0. 0.
      0. 0. 0. 0. 0. 0. 0. 0. 0. 0. 0. 0. 0. 0. 0. 0. 0. 0. 0. 0. 0. 0.
      0. 0. 0. 0. 0. 0. 0. 0. 0. 0. 0. 0. 0. 0. 0. 0. 0. 0. 0. 0. 0. 0.
      0. 0. 0. 0. 0. 0. 0. 0. 0. 0. 0. 0. 0. 0. 0. 0. 0. 0. 0. 0. 0. 0.
      0. 0. 0. 0. 0. 0. 0. 0. 0. 0. 0. 0. 0. 0. 0. 0. 0. 0.</_>
    <_>
      64. 65. 58. 68. 71. 63. 92. 150. 184. 183. 190. 199. 201. 188.
      165. 139. 123. 71. 37. 35. 59. 63. 49. 0. 0. 0. 0. 0. 67. 65. 48.
      68. 103. 122. 161. 215. 237. 242. 243. 246. 246. 244. 239. 228.
      219. 179. 79. 48. 61. 44. 47. 0. 0. 0. 0. 0. 67. 55. 57. 116. 182.
      206. 226. 246. 248. 252. 252. 252. 251. 251. 252. 250. 249. 241.
      179. 148. 112. 41. 21. 0. 0. 0. 0. 0. 61. 54. 100. 188. 237. 243.
      242. 249. 249. 252. 252. 253. 253. 252. 252. 249. 246. 243. 240.
      228. 187. 109. 37. 0. 0. 0. 0. 0. 54. 71. 153. 236. 242. 247. 247.
      255. 254. 255. 254. 254. 254. 253. 253. 254. 252. 246. 246. 238.
      224. 180. 98. 0. 0. 0. 0. 0. 53. 88. 179. 240. 243. 249. 250. 254.
      251. 255. 254. 254. 254. 253. 253. 254. 253. 250. 247. 237. 227.
      193. 118. 0. 0. 0. 0. 0. 65. 130. 210. 242. 243. 250. 252. 255.
      255. 255. 254. 253. 253. 253. 254. 254. 254. 251. 247. 234. 193.
      132. 75. 0. 0. 0. 0. 0. 91. 181. 234. 242. 243. 251. 251. 254.
      255. 255. 254. 253. 253. 253. 254. 254. 253. 251. 250. 239. 182.
      80. 30. 0. 0. 0. 0. 0. 115. 212. 243. 245. 248. 252. 250. 250.
      255. 254. 254. 253. 253. 253. 254. 255. 254. 249. 247. 248. 201.
      86. 24. 0. 0. 0. 0. 0. 125. 215. 241. 244. 250. 252. 250. 250.
      255. 254. 254. 253. 253. 253. 254. 255. 254. 249. 245. 248. 208.
      93. 21. 0. 0. 0. 0. 0. 123. 212. 243. 244. 251. 254. 254. 253.
      253. 254. 253. 253. 253. 254. 254. 254. 254. 252. 249. 249. 211.
      94. 17. 0. 0. 0. 0. 0. 129. 216. 245. 248. 249. 251. 254. 253.
      253. 254. 253. 253. 253. 254. 254. 254. 250. 250. 248. 246. 214.
      97. 21. 0. 0. 0. 0. 0. 127. 213. 243. 247. 249. 251. 252. 252.
      253. 254. 252. 251. 251. 252. 253. 255. 253. 252. 249. 248. 220.
      99. 22. 0. 0. 0. 0. 0. 119. 211. 244. 247. 251. 252. 252. 248.
      252. 254. 252. 250. 251. 251. 253. 254. 252. 250. 249. 251. 224.
      100. 26. 0. 0. 0. 0. 0. 96. 190. 238. 244. 250. 254. 254. 250.
      252. 254. 252. 252. 252. 253. 253. 254. 253. 252. 250. 244. 203.
      94. 29. 0. 0. 0. 0. 0. 64. 135. 218. 244. 245. 250. 253. 254. 254.
      254. 252. 252. 253. 253. 254. 254. 251. 252. 251. 240. 194. 122.
      59. 0. 0. 0. 0. 0. 44. 74. 194. 241. 243. 246. 245. 251. 253. 254.
      254. 254. 254. 254. 254. 254. 249. 251. 247. 242. 218. 185. 102.
      0. 0. 0. 0. 0. 44. 49. 168. 232. 248. 249. 245. 251. 253. 254.
      254. 254. 254. 254. 254. 254. 252. 252. 244. 244. 227. 195. 105.
      0. 0. 0. 0. 0. 49. 47. 106. 178. 237. 246. 248. 250. 253. 253.
      254. 255. 254. 254. 253. 253. 251. 251. 241. 233. 196. 136. 64. 0.
      0. 0. 0. 0. 47. 44. 38. 101. 218. 238. 248. 248. 252. 253. 254.
      255. 253. 253. 252. 252. 250. 238. 199. 168. 123. 71. 41. 0. 0. 0.
      0. 0. 52. 55. 36. 37. 82. 122. 170. 229. 240. 242. 244. 244. 247.
      248. 248. 239. 228. 188. 110. 75. 60. 43. 45. 0. 0. 0. 0. 0. 39.
      55. 47. 39. 51. 57. 86. 143. 209. 213. 213. 215. 219. 212. 187.
      158. 144. 109. 49. 35. 48. 47. 55. 0. 0. 0. 0. 0. 52. 59. 51. 49.
      58. 48. 46. 74. 94. 99. 98. 96. 100. 103. 90. 71. 68. 64. 51. 47.
      56. 54. 52. 0. 0. 0. 0. 0. 0. 0. 0. 0. 0. 0. 0. 0. 0. 0. 0. 0. 0.
      0. 0. 0. 0. 0. 0. 0. 0. 0. 0. 0. 0. 0. 0. 0. 0. 0. 0. 0. 0. 0. 0.
      0. 0. 0. 0. 0. 0. 0. 0. 0. 0. 0. 0. 0. 0. 0. 0. 0. 0. 0. 0. 0. 0.
      0. 0. 0. 0. 0. 0. 0. 0. 0. 0. 0. 0. 0. 0. 0. 0. 0. 0. 0. 0. 0. 0.
      0. 0. 0. 0. 0. 0. 0. 0. 0. 0. 0. 0. 0. 0. 0. 0. 0. 0. 0. 0. 0. 0.
      0. 0. 0. 0. 0. 0. 0. 0. 0. 0. 0. 0. 0. 0. 0. 0. 0. 0. 0. 0. 0. 0.
      0. 0. 0. 0. 0. 0. 0. 0. 0. 0. 0. 0. 0. 0. 0. 0. 0.</_>
    <_>
      121. 149. 101. 37. 44. 58. 56. 70. 129. 166. 176. 176. 175. 179.
      174. 143. 100. 65. 72. 67. 61. 62. 52. 0. 0. 0. 0. 0. 115. 125.
      80. 29. 46. 79. 97. 138. 203. 231. 237. 238. 238. 240. 236. 217.
      173. 117. 109. 83. 57. 59. 59. 0. 0. 0. 0. 0. 98. 91. 45. 25. 82.
      152. 184. 218. 238. 243. 246. 247. 249. 252. 252. 249. 236. 218.
      182. 115. 56. 45. 57. 0. 0. 0. 0. 0. 68. 57. 29. 58. 156. 223.
      241. 243. 246. 246. 248. 249. 251. 252. 253. 254. 250. 241. 230.
      183. 102. 41. 39. 0. 0. 0. 0. 0. 43. 35. 35. 120. 226. 243. 249.
      248. 252. 254. 254. 254. 254. 254. 253. 251. 249. 246. 250. 232.
      166. 62. 30. 0. 0. 0. 0. 0. 35. 26. 49. 170. 246. 244. 247. 251.
      253. 254. 254. 251. 250. 253. 254. 254. 254. 252. 249. 241. 196.
      89. 35. 0. 0. 0. 0. 0. 32. 33. 82. 201. 250. 250. 247. 252. 253.
      254. 254. 254. 254. 254. 254. 253. 254. 253. 251. 248. 227. 145.
      57. 0. 0. 0. 0. 0. 26. 67. 154. 232. 250. 248. 248. 252. 253. 254.
      254. 254. 254. 254. 253. 253. 253. 252. 252. 250. 241. 186. 88. 0.
      0. 0. 0. 0. 25. 93. 208. 247. 249. 248. 252. 252. 254. 254. 254.
      254. 254. 254. 253. 253. 252. 252. 253. 251. 247. 216. 120. 0. 0.
      0. 0. 0. 26. 99. 222. 247. 248. 250. 253. 251. 254. 254. 254. 254.
      254. 254. 253. 253. 253. 254. 253. 250. 250. 231. 144. 0. 0. 0. 0.
      0. 25. 95. 220. 246. 249. 250. 253. 251. 254. 254. 254. 254. 254.
      254. 253. 253. 254. 255. 253. 248. 248. 233. 152. 0. 0. 0. 0. 0.
      25. 99. 219. 249. 250. 246. 252. 252. 254. 254. 254. 254. 254.
      254. 253. 253. 252. 254. 253. 249. 248. 232. 152. 0. 0. 0. 0. 0.
      27. 105. 214. 249. 250. 246. 252. 253. 254. 254. 254. 254. 254.
      254. 253. 253. 253. 252. 252. 252. 251. 231. 146. 0. 0. 0. 0. 0.
      32. 106. 207. 247. 250. 249. 253. 253. 254. 254. 254. 254. 254.
      254. 253. 253. 254. 251. 252. 254. 253. 226. 136. 0. 0. 0. 0. 0.
      34. 93. 188. 241. 246. 247. 250. 250. 252. 253. 251. 254. 254.
      251. 252. 254. 254. 252. 252. 252. 250. 214. 116. 0. 0. 0. 0. 0.
      22. 39. 111. 200. 245. 247. 250. 250. 252. 252. 252. 253. 254.
      251. 253. 254. 254. 252. 253. 251. 241. 184. 77. 0. 0. 0. 0. 0.
      34. 63. 119. 201. 251. 249. 247. 249. 252. 253. 254. 250. 254.
      254. 252. 253. 254. 248. 249. 254. 217. 135. 56. 0. 0. 0. 0. 0.
      102. 183. 214. 235. 247. 249. 251. 251. 253. 254. 254. 251. 254.
      254. 247. 252. 254. 249. 250. 249. 172. 71. 31. 0. 0. 0. 0. 0.
      139. 229. 242. 208. 195. 227. 245. 246. 251. 252. 252. 253. 254.
      253. 246. 252. 253. 252. 250. 225. 125. 35. 24. 0. 0. 0. 0. 0.
      123. 201. 203. 132. 103. 156. 198. 219. 243. 249. 249. 250. 254.
      252. 248. 253. 250. 246. 233. 175. 88. 32. 30. 0. 0. 0. 0. 0. 74.
      104. 108. 62. 44. 77. 104. 151. 223. 248. 246. 248. 252. 249. 253.
      250. 240. 224. 177. 99. 45. 32. 37. 0. 0. 0. 0. 0. 48. 50. 53. 47.
      44. 41. 30. 76. 186. 240. 241. 241. 242. 240. 245. 217. 169. 139.
      95. 45. 30. 35. 42. 0. 0. 0. 0. 0. 44. 49. 52. 55. 52. 40. 32. 59.
      136. 203. 211. 211. 211. 209. 215. 145. 57. 38. 37. 41. 49. 50.
      45. 0. 0. 0. 0. 0. 43. 46. 48. 50. 48. 43. 38. 49. 82. 111. 122.
      115. 116. 123. 102. 62. 40. 41. 43. 45. 47. 48. 43. 0. 0. 0. 0. 0.
      0. 0. 0. 0. 0. 0. 0. 0. 0. 0. 0. 0. 0. 0. 0. 0. 0. 0. 0. 0. 0. 0.
      0. 0. 0. 0. 0. 0. 0. 0. 0. 0. 0. 0. 0. 0. 0. 0. 0. 0. 0. 0. 0. 0.
      0. 0. 0. 0. 0. 0. 0. 0. 0. 0. 0. 0. 0. 0. 0. 0. 0. 0. 0. 0. 0. 0.
      0. 0. 0. 0. 0. 0. 0. 0. 0. 0. 0. 0. 0. 0. 0. 0. 0. 0. 0. 0. 0. 0.
      0. 0. 0. 0. 0. 0. 0. 0. 0. 0. 0. 0. 0. 0. 0. 0. 0. 0. 0. 0. 0. 0.
      0. 0.</_>
    <_>
      42. 43. 41. 34. 48. 76. 100. 115. 138. 164. 186. 197. 210. 191.
      185. 167. 114. 56. 43. 59. 62. 62. 62. 0. 0. 0. 0. 0. 28. 31. 47.
      55. 87. 143. 186. 205. 223. 240. 244. 243. 239. 234. 229. 226.
      193. 130. 90. 84. 58. 51. 56. 0. 0. 0. 0. 0. 16. 45. 94. 120. 158.
      207. 234. 238. 240. 243. 242. 239. 242. 242. 239. 236. 229. 207.
      173. 142. 77. 47. 48. 0. 0. 0. 0. 0. 39. 96. 160. 190. 211. 230.
      237. 241. 247. 250. 252. 250. 249. 250. 247. 237. 237. 241. 225.
      199. 127. 68. 47. 0. 0. 0. 0. 0. 86. 155. 190. 218. 228. 234. 238.
      244. 249. 251. 253. 253. 251. 251. 250. 246. 243. 244. 238. 235.
      191. 99. 48. 0. 0. 0. 0. 0. 104. 172. 189. 222. 236. 242. 246.
      250. 251. 252. 253. 253. 253. 252. 252. 252. 248. 244. 237. 237.
      227. 123. 48. 0. 0. 0. 0. 0. 66. 115. 157. 218. 237. 243. 246.
      250. 252. 252. 253. 253. 253. 253. 252. 252. 251. 249. 244. 240.
      227. 158. 77. 0. 0. 0. 0. 0. 34. 69. 150. 221. 239. 244. 247. 249.
      251. 253. 254. 253. 253. 253. 253. 252. 251. 249. 245. 241. 236.
      213. 142. 0. 0. 0. 0. 0. 21. 56. 173. 231. 239. 244. 245. 249.
      250. 252. 254. 253. 253. 253. 253. 253. 252. 250. 246. 243. 238.
      238. 178. 0. 0. 0. 0. 0. 21. 56. 186. 234. 239. 243. 244. 247.
      248. 250. 253. 253. 252. 252. 253. 253. 252. 251. 247. 245. 238.
      234. 174. 0. 0. 0. 0. 0. 25. 54. 180. 234. 239. 242. 243. 245.
      248. 250. 252. 253. 252. 252. 253. 253. 253. 252. 248. 245. 240.
      234. 171. 0. 0. 0. 0. 0. 30. 56. 174. 235. 239. 241. 242. 245.
      247. 249. 251. 252. 252. 253. 254. 254. 254. 252. 248. 244. 237.
      235. 179. 0. 0. 0. 0. 0. 28. 60. 177. 237. 239. 241. 242. 246.
      247. 249. 250. 251. 252. 253. 254. 254. 254. 252. 248. 243. 234.
      234. 176. 0. 0. 0. 0. 0. 20. 45. 168. 239. 242. 242. 244. 248.
      247. 251. 251. 251. 251. 253. 254. 254. 254. 251. 248. 244. 240.
      229. 163. 0. 0. 0. 0. 0. 28. 63. 148. 236. 244. 241. 244. 250.
      247. 253. 252. 249. 247. 248. 252. 254. 251. 248. 243. 241. 235.
      203. 128. 0. 0. 0. 0. 0. 65. 125. 157. 229. 242. 241. 242. 251.
      251. 253. 254. 250. 248. 252. 255. 253. 250. 247. 246. 242. 221.
      163. 85. 0. 0. 0. 0. 0. 98. 180. 190. 218. 238. 242. 241. 252.
      252. 249. 246. 244. 249. 253. 253. 250. 246. 245. 244. 241. 207.
      124. 53. 0. 0. 0. 0. 0. 89. 178. 203. 213. 235. 241. 239. 250.
      251. 252. 251. 253. 254. 254. 253. 250. 247. 245. 241. 227. 173.
      89. 36. 0. 0. 0. 0. 0. 58. 126. 177. 204. 223. 236. 234. 244. 247.
      249. 254. 254. 253. 250. 248. 246. 245. 240. 231. 192. 118. 58.
      30. 0. 0. 0. 0. 0. 37. 76. 128. 160. 186. 227. 237. 244. 247. 246.
      249. 248. 247. 249. 250. 244. 228. 203. 180. 128. 63. 36. 28. 0.
      0. 0. 0. 0. 38. 54. 80. 89. 115. 185. 224. 231. 238. 240. 242.
      243. 242. 241. 240. 220. 179. 130. 93. 62. 42. 39. 37. 0. 0. 0. 0.
      0. 41. 43. 51. 44. 55. 114. 148. 152. 176. 197. 208. 208. 198.
      186. 179. 152. 107. 64. 42. 38. 44. 46. 44. 0. 0. 0. 0. 0. 33. 37.
      37. 38. 53. 67. 79. 88. 101. 116. 128. 127. 117. 104. 91. 74. 52.
      41. 45. 40. 39. 37. 31. 0. 0. 0. 0. 0. 0. 0. 0. 0. 0. 0. 0. 0. 0.
      0. 0. 0. 0. 0. 0. 0. 0. 0. 0. 0. 0. 0. 0. 0. 0. 0. 0. 0. 0. 0. 0.
      0. 0. 0. 0. 0. 0. 0. 0. 0. 0. 0. 0. 0. 0. 0. 0. 0. 0. 0. 0. 0. 0.
      0. 0. 0. 0. 0. 0. 0. 0. 0. 0. 0. 0. 0. 0. 0. 0. 0. 0. 0. 0. 0. 0.
      0. 0. 0. 0. 0. 0. 0. 0. 0. 0. 0. 0. 0. 0. 0. 0. 0. 0. 0. 0. 0. 0.
      0. 0. 0. 0. 0. 0. 0. 0. 0. 0. 0. 0. 0. 0. 0. 0. 0. 0. 0. 0. 0. 0.
      0. 0. 0. 0. 0. 0. 0. 0. 0. 0. 0. 0. 0. 0. 0. 0. 0. 0. 0. 0. 0.</_>
    <_>
      30. 22. 18. 26. 79. 134. 155. 170. 196. 209. 210. 207. 197. 187.
      178. 150. 96. 59. 49. 45. 44. 47. 45. 0. 0. 0. 0. 0. 12. 43. 74.
      104. 164. 197. 209. 221. 234. 243. 247. 247. 247. 244. 238. 220.
      177. 137. 103. 59. 37. 47. 45. 0. 0. 0. 0. 0. 39. 128. 191. 201.
      209. 217. 220. 228. 234. 241. 245. 248. 250. 249. 248. 244. 235.
      223. 194. 123. 50. 35. 45. 0. 0. 0. 0. 0. 102. 190. 222. 214. 212.
      208. 210. 220. 227. 236. 241. 246. 251. 251. 248. 244. 242. 241.
      233. 195. 112. 48. 37. 0. 0. 0. 0. 0. 172. 226. 218. 209. 213.
      211. 211. 218. 224. 233. 238. 244. 250. 252. 252. 249. 247. 242.
      241. 231. 164. 64. 32. 0. 0. 0. 0. 0. 191. 229. 207. 209. 213.
      212. 210. 212. 216. 225. 231. 239. 245. 250. 251. 252. 253. 247.
      242. 237. 185. 86. 40. 0. 0. 0. 0. 0. 102. 127. 146. 202. 216.
      212. 210. 210. 212. 217. 221. 230. 237. 244. 249. 252. 249. 243.
      243. 244. 215. 151. 73. 0. 0. 0. 0. 0. 63. 58. 77. 164. 191. 177.
      180. 196. 213. 218. 218. 223. 229. 241. 248. 249. 246. 248. 250.
      245. 234. 197. 110. 0. 0. 0. 0. 0. 44. 38. 47. 104. 122. 102. 114.
      158. 205. 211. 206. 212. 220. 230. 238. 245. 248. 249. 249. 245.
      241. 216. 125. 0. 0. 0. 0. 0. 46. 41. 44. 64. 63. 55. 55. 103.
      161. 167. 155. 174. 208. 227. 235. 242. 247. 248. 249. 246. 244.
      220. 132. 0. 0. 0. 0. 0. 34. 34. 42. 48. 49. 49. 27. 52. 95. 91.
      72. 107. 172. 217. 229. 238. 244. 247. 248. 246. 245. 222. 133. 0.
      0. 0. 0. 0. 31. 31. 35. 37. 43. 33. 23. 52. 106. 112. 101. 137.
      199. 225. 230. 239. 245. 247. 247. 245. 246. 222. 132. 0. 0. 0. 0.
      0. 28. 26. 31. 44. 58. 46. 61. 120. 188. 209. 200. 205. 217. 231.
      233. 243. 247. 247. 246. 247. 246. 224. 128. 0. 0. 0. 0. 0. 20.
      27. 51. 104. 144. 137. 151. 189. 221. 220. 216. 216. 218. 232.
      235. 245. 247. 245. 246. 248. 241. 208. 116. 0. 0. 0. 0. 0. 59.
      86. 115. 179. 219. 215. 212. 212. 209. 203. 214. 227. 230. 240.
      241. 248. 249. 244. 247. 246. 225. 163. 83. 0. 0. 0. 0. 0. 130.
      179. 188. 208. 215. 214. 210. 212. 214. 215. 221. 231. 230. 245.
      244. 250. 250. 242. 246. 239. 196. 110. 52. 0. 0. 0. 0. 0. 163.
      218. 215. 212. 212. 206. 206. 208. 211. 221. 229. 240. 240. 247.
      247. 250. 244. 242. 247. 226. 168. 75. 43. 0. 0. 0. 0. 0. 140.
      208. 218. 212. 207. 201. 205. 213. 220. 231. 236. 244. 245. 248.
      249. 249. 242. 246. 246. 202. 130. 65. 46. 0. 0. 0. 0. 0. 87. 161.
      199. 206. 208. 204. 208. 217. 225. 238. 242. 249. 248. 250. 251.
      246. 242. 235. 220. 149. 73. 47. 45. 0. 0. 0. 0. 0. 43. 94. 133.
      156. 185. 205. 210. 219. 227. 240. 244. 251. 250. 250. 250. 235.
      209. 179. 142. 89. 48. 43. 43. 0. 0. 0. 0. 0. 38. 56. 66. 79. 124.
      171. 187. 207. 223. 234. 235. 235. 231. 228. 225. 192. 136. 87.
      65. 56. 53. 47. 46. 0. 0. 0. 0. 0. 39. 45. 43. 43. 72. 105. 124.
      143. 165. 178. 182. 177. 173. 167. 158. 119. 67. 39. 44. 51. 48.
      45. 43. 0. 0. 0. 0. 0. 0. 0. 0. 0. 0. 0. 0. 0. 0. 0. 0. 0. 0. 0.
      0. 0. 0. 0. 0. 0. 0. 0. 0. 0. 0. 0. 0. 0. 0. 0. 0. 0. 0. 0. 0. 0.
      0. 0. 0. 0. 0. 0. 0. 0. 0. 0. 0. 0. 0. 0. 0. 0. 0. 0. 0. 0. 0. 0.
      0. 0. 0. 0. 0. 0. 0. 0. 0. 0. 0. 0. 0. 0. 0. 0. 0. 0. 0. 0. 0. 0.
      0. 0. 0. 0. 0. 0. 0. 0. 0. 0. 0. 0. 0. 0. 0. 0. 0. 0. 0. 0. 0. 0.
      0. 0. 0. 0. 0. 0. 0. 0. 0. 0. 0. 0. 0. 0. 0. 0. 0. 0. 0. 0. 0. 0.
      0. 0. 0. 0. 0. 0. 0. 0. 0. 0. 0. 0. 0. 0. 0. 0. 0. 0. 0. 0. 0. 0.
      0. 0. 0. 0. 0. 0. 0. 0. 0. 0. 0. 0. 0. 0. 0. 0. 0. 0. 0. 0. 0. 0.</_></support_vectors>
  <decision_functions>
    <_>
      <sv_count>19</sv_count>
      <rho>-2.0589871631514476e+00</rho>
      <alpha>
        1.0980662215867124e-29 1.9090699335253702e-29
        5.2123887491775202e-30 7.1815936939405154e-30
        6.6595975580189551e-29 2.9672044850313845e-31
        2.7227139855842683e-30 7.5668516777094340e-31
        7.4569731647273800e-29 4.9332348501521243e-29
        1.8909328678305274e-29 -5.3712051367569726e-29
        -4.4452825245028503e-29 -3.6683782761969376e-29
        -5.2458553014195777e-30 -3.6307333300974424e-29
        -1.6638474694212971e-29 -1.8926840884649379e-30
        -6.0715841243761305e-29</alpha>
      <index>
        0 1 2 3 4 5 6 7 8 9 10 11 12 13 14 15 16 17 18</index></_></decision_functions></pacman17>
</opencv_storage>
